<?xml version="1.0"?>
<opencv_storage>
<my_svm type_id="opencv-ml-svm">
  <svm_type>C_SVC</svm_type>
  <kernel><type>RBF</type>
    <gamma>2.</gamma></kernel>
  <C>2.</C>
  <term_criteria><epsilon>2.2204460492503131e-16</epsilon>
    <iterations>100</iterations></term_criteria>
  <var_all>64</var_all>
  <var_count>64</var_count>
  <class_count>8</class_count>
  <class_labels type_id="opencv-matrix">
    <rows>1</rows>
    <cols>8</cols>
    <dt>i</dt>
    <data>
      0 1 2 3 4 5 6 7</data></class_labels>
  <sv_total>1180</sv_total>
  <support_vectors>
    <_>
      1.99107789e-02 -8.83367300e-01 -4.34457541e-01 2.28947210e+00
      -9.11813855e-01 -1.67401457e+00 -1.59575927e+00 9.27204669e-01
      1.01693356e+00 2.22223327e-01 6.52312577e-01 2.65677738e+00
      -8.58403444e-02 -1.05769467e+00 -8.43729496e-01 2.00379395e+00
      -5.87530673e-01 -1.57617307e+00 -1.48069203e+00 1.18720996e+00
      1.52742577e+00 8.37305069e-01 1.20158839e+00 2.79893637e+00
      5.38176119e-01 -3.98334175e-01 -1.62873313e-01 2.37481642e+00
      -2.60977466e-02 -1.13691235e+00 -9.73769128e-01 1.87059963e+00
      2.42651761e-01 -7.76961595e-02 -3.99284763e-03 -8.10118198e-01
      5.31772338e-03 -9.90523025e-02 -1.60899665e-02 -7.58304000e-01
      7.47984424e-02 -1.05148233e-01 -2.04855070e-01 -8.43253732e-01
      1.43420205e-01 -2.73639530e-01 -1.40090168e-01 -7.82117426e-01
      -3.87198925e-02 -2.32405439e-01 -1.15547821e-01 -7.49565303e-01
      -2.24559065e-02 -8.78290311e-02 -2.37830028e-01 -8.56331587e-01
      1.43097788e-01 -2.80390382e-01 -1.74302921e-01 -7.96694696e-01
      8.86749923e-02 -3.42798859e-01 -1.87071249e-01 -7.57286727e-01</_>
    <_>
      -1.78458430e-02 -8.30049992e-01 -4.32115853e-01 2.30471706e+00
      -9.96806085e-01 -1.63768613e+00 -1.55496776e+00 9.38748956e-01
      9.77739334e-01 2.79096067e-01 6.54687166e-01 2.67241549e+00
      -1.90967187e-01 -1.00724828e+00 -7.84039795e-01 2.02491045e+00
      -7.02998042e-01 -1.51799476e+00 -1.41012406e+00 1.20498526e+00
      1.48517740e+00 8.94036770e-01 1.22427380e+00 2.81485415e+00
      4.29624170e-01 -3.53286386e-01 -9.54120085e-02 2.39848161e+00
      -1.56343073e-01 -1.07801557e+00 -8.93639863e-01 1.89645755e+00
      1.99620366e-01 -4.56374213e-02 1.63372811e-02 -8.37649345e-01
      -9.50448122e-03 -1.05794929e-01 -2.17648558e-02 -8.19260299e-01
      3.70793268e-02 -1.02114677e-01 -1.62223130e-01 -8.70696664e-01
      1.12868607e-01 -2.27467567e-01 -1.08430542e-01 -8.32567632e-01
      -4.69138101e-02 -2.14273542e-01 -1.11925580e-01 -8.19064319e-01
      -4.83861156e-02 -1.23114072e-01 -2.30160415e-01 -8.84565949e-01
      1.14576422e-01 -2.19711289e-01 -1.47446632e-01 -8.44105840e-01
      6.27237633e-02 -2.71682262e-01 -1.59485340e-01 -8.19923878e-01</_>
    <_>
      -3.41950178e-01 -8.45461071e-01 -3.15751761e-01 2.40308189e+00
      -1.28123140e+00 -1.52272511e+00 -1.33066964e+00 9.86633956e-01
      6.41620338e-01 1.81961775e-01 6.60050631e-01 2.78256369e+00
      -6.01570785e-01 -9.10506308e-01 -6.42767727e-01 2.11460686e+00
      -1.05237997e+00 -1.36938393e+00 -1.12874150e+00 1.26456785e+00
      1.16511798e+00 7.68087149e-01 1.18533111e+00 2.92854333e+00
      -1.57945491e-02 -3.16653401e-01 -3.42513248e-02 2.49985528e+00
      -5.96926332e-01 -9.65705812e-01 -6.47070110e-01 1.98123193e+00
      1.71371028e-01 4.07550111e-02 1.10342771e-01 -8.48711848e-01
      -1.49351722e-02 -1.02026016e-01 -1.38421152e-02 -8.30514431e-01
      2.70376168e-02 3.48446369e-02 -6.73331097e-02 -8.90501022e-01
      5.59606664e-02 -1.92930937e-01 -2.46820822e-02 -8.41080606e-01
      -7.16973543e-02 -2.04859719e-01 -9.51071978e-02 -8.31733108e-01
      -3.47799473e-02 3.61692533e-02 -1.13108844e-01 -9.09187376e-01
      8.41720775e-02 -1.55412883e-01 8.04148789e-04 -8.60686004e-01
      1.08730718e-02 -2.19946280e-01 -5.85158467e-02 -8.34451199e-01</_>
    <_>
      -1.83804452e-01 -8.54624689e-01 -4.56281483e-01 2.36686444e+00
      -1.18023777e+00 -1.58056438e+00 -1.49017048e+00 9.53026891e-01
      7.78590858e-01 2.05658346e-01 6.04085028e-01 2.74613237e+00
      -3.92573386e-01 -8.92550409e-01 -7.28980422e-01 2.08268833e+00
      -9.01122272e-01 -1.43024707e+00 -1.32105136e+00 1.23307610e+00
      1.27118337e+00 7.89607406e-01 1.15178096e+00 2.89225554e+00
      2.10248455e-01 -2.56325841e-01 -7.48937950e-02 2.46966147e+00
      -3.68243217e-01 -9.67700183e-01 -8.20932031e-01 1.95323479e+00
      1.77684784e-01 1.83754582e-02 4.86596115e-02 -8.62118542e-01
      -3.87331955e-02 -9.31149498e-02 -2.58506462e-02 -8.40244591e-01
      8.79993662e-02 6.84323087e-02 -8.64288285e-02 -9.01987612e-01
      4.97835018e-02 -1.99983969e-01 -9.58115831e-02 -8.36355984e-01
      -9.19027179e-02 -1.98143423e-01 -1.07226156e-01 -8.23319256e-01
      6.79652020e-02 1.22504108e-01 -1.19227603e-01 -9.20611620e-01
      9.33516845e-02 -1.63596928e-01 -1.02506079e-01 -8.54350567e-01
      -3.15451846e-02 -2.22267270e-01 -1.11965917e-01 -8.15254450e-01</_>
    <_>
      -2.90244728e-01 -7.41080284e-01 -2.98241854e-01 2.36442041e+00
      -1.31217360e+00 -1.52725708e+00 -1.39338803e+00 9.50471520e-01
      7.41250455e-01 3.31050098e-01 7.50414491e-01 2.74259567e+00
      -4.87640530e-01 -8.03760111e-01 -6.14100218e-01 2.07822847e+00
      -1.06725979e+00 -1.33977604e+00 -1.20569587e+00 1.22935855e+00
      1.28576624e+00 9.38364267e-01 1.29775190e+00 2.88834023e+00
      1.69906974e-01 -1.42830178e-01 5.23041785e-02 2.46394110e+00
      -5.08243978e-01 -8.37966323e-01 -6.72249734e-01 1.94815111e+00
      9.52109098e-02 5.88324666e-02 5.22458442e-02 -8.96770239e-01
      -5.77760004e-02 -1.09239921e-01 -5.46487309e-02 -8.78488183e-01
      -4.79420573e-02 4.67272475e-02 -1.30240098e-01 -9.29464459e-01
      -6.95855543e-02 -1.53673172e-01 -3.59158143e-02 -8.75662804e-01
      -1.27865881e-01 -1.82193726e-01 -1.21802866e-01 -8.63334775e-01
      -1.35951295e-01 2.76462012e-03 -2.06845328e-01 -9.44725096e-01
      -1.09414078e-01 -1.34393439e-01 -3.37542370e-02 -8.90437305e-01
      -1.27116054e-01 -1.96876004e-01 -7.51783475e-02 -8.56892824e-01</_>
    <_>
      5.04839234e-02 -9.27604139e-01 -4.54840958e-01 2.27893591e+00
      -8.92710328e-01 -1.71613371e+00 -1.58051813e+00 9.30312872e-01
      1.02997172e+00 1.98919415e-01 6.15958631e-01 2.64415383e+00
      -8.79233107e-02 -1.11051118e+00 -8.58321548e-01 1.99950135e+00
      -5.84003150e-01 -1.60578871e+00 -1.46802723e+00 1.19112575e+00
      1.52442181e+00 8.16743255e-01 1.16272819e+00 2.78589535e+00
      5.15499711e-01 -4.47911829e-01 -1.91614702e-01 2.36937881e+00
      -3.92920524e-02 -1.16770613e+00 -9.82205749e-01 1.87203312e+00
      2.41245821e-01 -8.92660394e-02 1.84387118e-02 -8.00818801e-01
      1.50946826e-02 -1.03817999e-01 -3.19162174e-03 -7.57342577e-01
      6.45923838e-02 -1.02116890e-01 -1.48547873e-01 -8.36855352e-01
      1.60610691e-01 -2.76915759e-01 -1.09086350e-01 -7.83459008e-01
      -1.74720045e-02 -2.09289327e-01 -9.34535787e-02 -7.56091654e-01
      -2.42485646e-02 -7.41305500e-02 -1.82483733e-01 -8.52622390e-01
      1.72675565e-01 -2.51225829e-01 -1.33238658e-01 -8.01127672e-01
      1.13031559e-01 -3.28848660e-01 -1.53043628e-01 -7.67946005e-01</_>
    <_>
      -4.48138624e-01 -9.69166815e-01 -2.45744482e-01 2.40703726e+00
      -1.17295480e+00 -1.50097644e+00 -1.30837691e+00 1.00082445e+00
      5.02894700e-01 9.54286195e-03 7.40910470e-01 2.78879738e+00
      -6.74571216e-01 -1.09219980e+00 -6.83884025e-01 2.11464643e+00
      -8.95366549e-01 -1.41404605e+00 -1.19949925e+00 1.27130997e+00
      1.01254857e+00 5.84758639e-01 1.24456322e+00 2.93697095e+00
      -1.61342129e-01 -5.76889932e-01 -1.11955553e-01 2.49973774e+00
      -5.20382702e-01 -1.13679087e+00 -8.08043063e-01 1.97974539e+00
      3.13953698e-01 6.94368258e-02 1.54574543e-01 -7.77746856e-01
      1.57094724e-03 -9.22570899e-02 1.27889644e-02 -7.37620652e-01
      2.19401911e-01 4.60910536e-02 -8.74148011e-02 -8.18327308e-01
      2.00915650e-01 -1.98807493e-01 -4.42397371e-02 -7.49949455e-01
      -5.73950522e-02 -2.13222787e-01 -1.04699403e-01 -7.23555267e-01
      1.73179999e-01 4.61752862e-02 -1.77498087e-01 -8.36440265e-01
      2.86347955e-01 -1.81682840e-01 -8.42905641e-02 -7.67299116e-01
      9.59078744e-02 -2.85394877e-01 -1.35385975e-01 -7.21075952e-01</_>
    <_>
      -1.68114230e-01 -7.19800055e-01 -3.32994908e-01 2.33571887e+00
      -1.25451529e+00 -1.58644962e+00 -1.44209957e+00 9.32425439e-01
      8.61036301e-01 3.74545902e-01 7.38538742e-01 2.71254754e+00
      -4.13355529e-01 -8.40047002e-01 -6.05736196e-01 2.05574155e+00
      -1.01893735e+00 -1.39422882e+00 -1.20998287e+00 1.21403205e+00
      1.37961984e+00 9.74590063e-01 1.28202736e+00 2.85808659e+00
      2.33296603e-01 -1.73581839e-01 6.48692623e-02 2.44048834e+00
      -4.54362720e-01 -8.91791940e-01 -6.54468298e-01 1.93094456e+00
      8.46344680e-02 1.25548569e-02 4.43289988e-02 -9.01737571e-01
      -4.18674201e-02 -1.18611529e-01 -4.30262685e-02 -8.84635031e-01
      -1.04542337e-01 -6.82949368e-03 -1.27930015e-01 -9.36712682e-01
      -2.58555319e-02 -1.51991874e-01 -7.22003654e-02 -8.85322750e-01
      -1.06004648e-01 -1.89877495e-01 -1.20920718e-01 -8.75093460e-01
      -1.91787690e-01 -3.27735282e-02 -1.97369933e-01 -9.53507483e-01
      -5.06459065e-02 -1.20117426e-01 -8.31853375e-02 -9.02001560e-01
      -7.41646364e-02 -1.81755766e-01 -1.17085487e-01 -8.72007608e-01</_>
    <_>
      -2.75732756e-01 -1.05420196e+00 -4.65482146e-01 2.49625444e+00
      -9.90940809e-01 -1.40659654e+00 -1.32541943e+00 1.09877229e+00
      4.89333302e-01 -2.40060374e-01 3.59132499e-01 2.87553167e+00
      -5.74448466e-01 -1.05120957e+00 -9.19901729e-01 2.21310854e+00
      -7.57852852e-01 -1.26794088e+00 -1.14041555e+00 1.37448180e+00
      9.32438076e-01 2.81734586e-01 8.20178151e-01 3.02215838e+00
      -1.39527708e-01 -6.15789175e-01 -4.74527031e-01 2.59681153e+00
      -4.23167884e-01 -1.04509425e+00 -8.79418552e-01 2.08430648e+00
      3.44077229e-01 5.81842177e-02 1.67454943e-01 -7.15309441e-01
      3.86999436e-02 -2.44838614e-02 2.04818062e-02 -6.88869178e-01
      1.79537311e-01 8.49034116e-02 2.71175802e-02 -7.54491627e-01
      1.52060390e-01 -2.09837213e-01 -6.24024607e-02 -7.12096334e-01
      -6.07628375e-02 -1.69783905e-01 -1.31668344e-01 -6.99759781e-01
      1.09100461e-01 1.16374671e-01 -2.38411613e-02 -7.70286679e-01
      1.79455012e-01 -1.94904312e-01 -4.42643426e-02 -7.28714347e-01
      3.77598070e-02 -2.66227514e-01 -1.45760924e-01 -7.08256721e-01</_>
    <_>
      -3.25749993e-01 -1.02586997e+00 -5.24806499e-01 2.51627779e+00
      -1.04657567e+00 -1.32364905e+00 -1.28627348e+00 1.10706210e+00
      4.61973846e-01 -2.47249261e-01 2.91580379e-01 2.89531231e+00
      -5.90912461e-01 -9.55113351e-01 -8.47992778e-01 2.23191953e+00
      -8.11490834e-01 -1.23339057e+00 -1.13376081e+00 1.38622928e+00
      9.34257805e-01 2.75478601e-01 7.80617654e-01 3.04136658e+00
      -1.10234663e-01 -5.25292277e-01 -3.69446307e-01 2.61687374e+00
      -4.48057115e-01 -1.00308979e+00 -8.38046849e-01 2.10231805e+00
      2.89803505e-01 1.20045878e-01 1.91421375e-01 -7.44788349e-01
      -5.49217034e-03 -3.60126607e-02 -2.51746085e-03 -7.31622279e-01
      1.49351001e-01 1.20779939e-01 8.67065787e-02 -7.80639172e-01
      6.85156584e-02 -1.67038590e-01 -6.72730953e-02 -7.44587123e-01
      -1.09937139e-01 -1.92947611e-01 -1.43539816e-01 -7.38653958e-01
      9.75211188e-02 1.35950834e-01 4.37953062e-02 -7.95204639e-01
      1.03816390e-01 -1.64086804e-01 -5.23534082e-02 -7.58725643e-01
      -8.32357164e-03 -2.55843282e-01 -1.61472857e-01 -7.40913808e-01</_>
    <_>
      -4.18844432e-01 -8.03911805e-01 -3.56733650e-01 2.42661405e+00
      -1.26811469e+00 -1.40742433e+00 -1.34001684e+00 9.98332620e-01
      6.02289200e-01 2.41670758e-01 6.69510663e-01 2.80847406e+00
      -6.31321371e-01 -8.56229246e-01 -6.50233507e-01 2.13140726e+00
      -1.00453603e+00 -1.25153852e+00 -1.20027614e+00 1.27327275e+00
      1.15961170e+00 8.64181876e-01 1.22316909e+00 2.95551705e+00
      -2.46602707e-02 -2.41065279e-01 -1.73236951e-02 2.51893902e+00
      -5.50006449e-01 -8.48746419e-01 -7.24695325e-01 1.99292827e+00
      1.47901833e-01 1.07065268e-01 1.00076124e-01 -8.53063285e-01
      -7.89511129e-02 -1.02232590e-01 -7.52157941e-02 -8.37140977e-01
      1.85697395e-02 4.31633703e-02 -8.02639052e-02 -8.83110046e-01
      -9.95614473e-03 -1.17674939e-01 -1.11340895e-01 -8.31855237e-01
      -1.63829803e-01 -1.78564906e-01 -1.82116672e-01 -8.18988860e-01
      -3.51329558e-02 -1.32826171e-04 -1.50109634e-01 -8.96465480e-01
      2.97591109e-02 -1.08619787e-01 -1.25958085e-01 -8.40922475e-01
      -9.30401161e-02 -1.44700199e-01 -1.91116601e-01 -8.06272388e-01</_>
    <_>
      -3.05268854e-01 -9.74137723e-01 -4.47127044e-01 2.44127798e+00
      -1.23546839e+00 -1.38319182e+00 -1.29860568e+00 1.03084970e+00
      6.75645351e-01 3.85415517e-02 5.51677048e-01 2.82025814e+00
      -6.19893610e-01 -8.82972181e-01 -7.16322005e-01 2.15767765e+00
      -1.03890502e+00 -1.25178075e+00 -1.10606658e+00 1.31178188e+00
      1.20989954e+00 6.75882220e-01 1.11026990e+00 2.96665192e+00
      -3.38638462e-02 -2.96361506e-01 -1.17710635e-01 2.54392123e+00
      -6.16575599e-01 -8.78238082e-01 -6.86779857e-01 2.03054404e+00
      1.57008022e-01 1.34646997e-01 1.56117931e-01 -8.19264770e-01
      -4.18561548e-02 -7.75667801e-02 -5.11703640e-02 -8.03821445e-01
      -5.22563346e-02 1.19040452e-01 -1.50950933e-02 -8.53178918e-01
      -4.63518128e-02 -1.27469093e-01 -3.69773619e-02 -8.07106793e-01
      -1.39257863e-01 -1.98054209e-01 -1.43840611e-01 -7.97348738e-01
      -1.45012498e-01 8.02443624e-02 -9.62573215e-02 -8.68119717e-01
      -6.14792779e-02 -1.01665139e-01 -2.59481054e-02 -8.21561873e-01
      -1.03572682e-01 -1.97500885e-01 -9.73634124e-02 -7.93569684e-01</_>
    <_>
      -2.60365427e-01 -8.04179072e-01 -4.16952074e-01 2.36540461e+00
      -1.24372351e+00 -1.50189221e+00 -1.40407133e+00 9.54836369e-01
      7.91046619e-01 3.08894128e-01 6.62260175e-01 2.74329376e+00
      -4.73632932e-01 -8.52599144e-01 -6.49126768e-01 2.07919621e+00
      -1.01950657e+00 -1.32080019e+00 -1.21077955e+00 1.23228467e+00
      1.35560417e+00 9.47770357e-01 1.24516249e+00 2.88914490e+00
      1.86191097e-01 -1.87768057e-01 3.46242413e-02 2.46442747e+00
      -4.94959235e-01 -8.48569036e-01 -6.75646603e-01 1.94903493e+00
      1.20173827e-01 4.10661921e-02 1.00395441e-01 -8.98257554e-01
      -4.95009050e-02 -1.09078161e-01 -5.24125956e-02 -8.84336710e-01
      -7.25927949e-02 -2.01118784e-03 -6.93435222e-02 -9.28552747e-01
      -2.25323401e-02 -1.36356130e-01 -5.69302626e-02 -8.82939339e-01
      -1.09115876e-01 -1.72215894e-01 -1.18577875e-01 -8.72925460e-01
      -1.88176930e-01 -6.48662001e-02 -1.65231645e-01 -9.41673756e-01
      -5.80878146e-02 -1.10890508e-01 -7.45840594e-02 -8.94290924e-01
      -5.33787385e-02 -1.43732995e-01 -1.08149983e-01 -8.65497291e-01</_>
    <_>
      -2.21329033e-01 -1.04069269e+00 -4.12115157e-01 2.36912894e+00
      -1.04668665e+00 -1.60246503e+00 -1.41251361e+00 9.82225001e-01
      7.79514730e-01 6.39120722e-03 6.03923798e-01 2.74318743e+00
      -3.98578584e-01 -1.13226092e+00 -7.92417645e-01 2.08076000e+00
      -7.33343244e-01 -1.52026725e+00 -1.30191445e+00 1.25072277e+00
      1.32124865e+00 6.52785361e-01 1.14701962e+00 2.88842702e+00
      1.99031889e-01 -5.23893714e-01 -1.72857046e-01 2.45935106e+00
      -2.63882875e-01 -1.16579425e+00 -8.80499303e-01 1.94867003e+00
      3.03516567e-01 -2.77117193e-02 9.48247313e-02 -7.65759408e-01
      2.37305835e-02 -8.66424963e-02 1.84302554e-02 -7.07081079e-01
      1.34237736e-01 -2.87997443e-02 -1.20417781e-01 -8.11514974e-01
      2.16944128e-01 -2.64299303e-01 -8.37425143e-02 -7.36881137e-01
      -6.56733662e-03 -2.07765505e-01 -8.01969767e-02 -7.03754425e-01
      3.22918408e-02 -3.93260121e-02 -1.89280182e-01 -8.30297649e-01
      2.49519542e-01 -2.63284743e-01 -1.39057681e-01 -7.64876008e-01
      1.56966731e-01 -3.20798039e-01 -1.40677750e-01 -7.22605824e-01</_>
    <_>
      -1.85938090e-01 -8.49274218e-01 -3.42772990e-01 2.31518340e+00
      -1.16170692e+00 -1.67699444e+00 -1.46486783e+00 9.21337366e-01
      8.43193412e-01 2.70185947e-01 7.36072361e-01 2.69137788e+00
      -3.71005088e-01 -1.00060189e+00 -6.70956254e-01 2.02735734e+00
      -9.09582257e-01 -1.52571225e+00 -1.28213847e+00 1.19080901e+00
      1.36420548e+00 8.91441762e-01 1.28858709e+00 2.83768296e+00
      2.62935013e-01 -3.31267834e-01 -5.40740904e-04 2.41019344e+00
      -3.73375982e-01 -1.06849754e+00 -7.57574379e-01 1.89720225e+00
      2.20523715e-01 -6.60810769e-02 5.39275929e-02 -8.60546887e-01
      2.96206158e-02 -1.26919150e-01 3.41346636e-02 -8.25950146e-01
      5.60144484e-02 -9.00251418e-02 -1.49676651e-01 -8.96576464e-01
      1.33638158e-01 -2.65733957e-01 -1.10009843e-02 -8.35646391e-01
      7.26803998e-03 -2.41924942e-01 -2.04155650e-02 -8.13904166e-01
      -7.63249537e-03 -9.25946981e-02 -2.18080118e-01 -9.13372695e-01
      1.31257460e-01 -2.58195966e-01 -4.80983630e-02 -8.51330817e-01
      9.98682529e-02 -3.14259499e-01 -2.06202902e-02 -8.12623918e-01</_>
    <_>
      1.34305283e-02 -9.23915505e-01 -4.26304519e-01 2.27523708e+00
      -9.51994300e-01 -1.74037504e+00 -1.56112742e+00 9.19859350e-01
      1.01044095e+00 2.15666905e-01 6.58923984e-01 2.64268637e+00
      -1.43199936e-01 -1.09207761e+00 -8.18590522e-01 1.99415135e+00
      -6.45873904e-01 -1.60548556e+00 -1.43552983e+00 1.18204570e+00
      1.51411116e+00 8.38983297e-01 1.21400952e+00 2.78538013e+00
      4.82471138e-01 -4.12789196e-01 -1.35633931e-01 2.36592937e+00
      -9.38002244e-02 -1.14273107e+00 -9.31778967e-01 1.86621416e+00
      2.37450868e-01 -8.55415389e-02 2.85455473e-02 -8.20256591e-01
      2.44851820e-02 -1.12422653e-01 1.07827354e-02 -7.76001632e-01
      5.24657369e-02 -8.43021274e-02 -1.62219509e-01 -8.55833352e-01
      1.68728366e-01 -2.68606186e-01 -7.80838132e-02 -8.02174568e-01
      -2.53027515e-03 -2.03696638e-01 -6.95920065e-02 -7.76514053e-01
      -5.07880524e-02 -7.19982684e-02 -2.20545858e-01 -8.72215092e-01
      1.59887403e-01 -2.47332036e-01 -1.20969832e-01 -8.20351005e-01
      1.17664829e-01 -3.12082022e-01 -1.16557702e-01 -7.87729502e-01</_>
    <_>
      -5.11327207e-01 -1.00775337e+00 -2.39543274e-01 2.42881536e+00
      -1.25926316e+00 -1.43264258e+00 -1.17232740e+00 1.03135467e+00
      4.40896302e-01 -1.04699969e-01 6.93654418e-01 2.80561304e+00
      -8.21482956e-01 -1.12016940e+00 -5.87224066e-01 2.14376974e+00
      -1.02043903e+00 -1.31125975e+00 -1.05396068e+00 1.30516660e+00
      9.53362644e-01 4.51350331e-01 1.16830575e+00 2.95064592e+00
      -3.24290544e-01 -6.70841575e-01 -6.68017417e-02 2.52469301e+00
      -6.96903825e-01 -1.09142971e+00 -6.98928893e-01 2.01210475e+00
      2.68555194e-01 1.08175211e-01 2.51903921e-01 -7.83068299e-01
      -8.79019778e-03 -1.01205364e-01 1.88221689e-02 -7.57411122e-01
      1.54601485e-01 1.16472200e-01 7.62119517e-02 -8.21254969e-01
      1.25049144e-01 -1.30251601e-01 4.28775325e-02 -7.73981810e-01
      -9.92165655e-02 -2.06216410e-01 -9.20111910e-02 -7.57099926e-01
      9.76271480e-02 1.07383795e-01 1.71791203e-02 -8.37232292e-01
      1.87860757e-01 -8.61175582e-02 3.97463748e-03 -7.90349483e-01
      1.40973600e-02 -2.27105185e-01 -7.77296126e-02 -7.60193467e-01</_>
    <_>
      -3.83588672e-01 -1.03479373e+00 -4.63001639e-01 2.53876448e+00
      -1.06851912e+00 -1.26561356e+00 -1.23754871e+00 1.12938702e+00
      3.80773664e-01 -3.38234276e-01 3.03952396e-01 2.91759086e+00
      -6.57332420e-01 -9.56951201e-01 -8.53837311e-01 2.25471926e+00
      -8.42817187e-01 -1.15536797e+00 -1.06567144e+00 1.40865302e+00
      8.19287956e-01 1.06827162e-01 7.31377721e-01 3.06296682e+00
      -2.35231221e-01 -5.87909997e-01 -4.42210287e-01 2.63828158e+00
      -5.38491130e-01 -9.64105129e-01 -8.03404748e-01 2.12342668e+00
      3.18967521e-01 1.49244860e-01 2.10802346e-01 -7.31331408e-01
      1.40172737e-02 -2.24267021e-02 1.27169853e-02 -7.22434580e-01
      1.91162974e-01 1.23182602e-01 7.60414824e-02 -7.63629913e-01
      8.28988180e-02 -1.21706247e-01 -4.85000946e-02 -7.33409166e-01
      -1.06339745e-01 -1.81152314e-01 -1.28910556e-01 -7.28964806e-01
      1.39079913e-01 1.29909962e-01 2.28507593e-02 -7.76307642e-01
      1.17505156e-01 -1.43878117e-01 -4.40181084e-02 -7.42740214e-01
      -4.94016381e-03 -2.27753475e-01 -1.55070633e-01 -7.26245582e-01</_>
    <_>
      -1.09158680e-01 -7.51493573e-01 -4.86296862e-01 2.34580660e+00
      -1.16803372e+00 -1.55000365e+00 -1.47139859e+00 9.51316178e-01
      8.87970030e-01 3.33643049e-01 5.68530738e-01 2.71925259e+00
      -3.62698495e-01 -8.66706192e-01 -7.29463816e-01 2.06383705e+00
      -9.37933087e-01 -1.39556205e+00 -1.28100169e+00 1.22682953e+00
      1.40381253e+00 9.42643821e-01 1.14771152e+00 2.86360168e+00
      2.63870001e-01 -2.12367281e-01 -5.60990125e-02 2.44480252e+00
      -4.14723754e-01 -9.46916699e-01 -7.73766398e-01 1.93596542e+00
      1.19614586e-01 3.59026417e-02 8.58650431e-02 -9.01972473e-01
      -3.59267108e-02 -7.68921152e-02 -4.49943654e-02 -8.92959893e-01
      -6.28555566e-02 -5.08090341e-03 -4.46833000e-02 -9.24236476e-01
      1.10602928e-02 -1.20632187e-01 -6.59603104e-02 -8.91395032e-01
      -1.00376487e-01 -1.50953442e-01 -1.19755276e-01 -8.84133399e-01
      -1.58830836e-01 -5.16281873e-02 -1.25126690e-01 -9.34559226e-01
      6.40896091e-04 -1.17383949e-01 -8.25252831e-02 -8.98837149e-01
      -2.00086255e-02 -1.37544379e-01 -1.10994898e-01 -8.78806055e-01</_>
    <_>
      -1.22504041e-01 -8.10494125e-01 -4.35143322e-01 2.34062076e+00
      -1.16209793e+00 -1.61926997e+00 -1.48897076e+00 9.48857784e-01
      8.41914833e-01 2.56747901e-01 6.20583594e-01 2.71410775e+00
      -3.68327141e-01 -9.26479280e-01 -7.27963328e-01 2.06386399e+00
      -8.98669362e-01 -1.47386706e+00 -1.28913975e+00 1.22839570e+00
      1.32501030e+00 8.27383995e-01 1.15773642e+00 2.85803485e+00
      2.46713564e-01 -2.85449773e-01 -7.79043213e-02 2.44540620e+00
      -3.59765202e-01 -1.02278388e+00 -7.86035955e-01 1.93993390e+00
      1.78092077e-01 6.47210190e-03 6.32786378e-02 -8.75694394e-01
      -1.94200967e-02 -8.65655839e-02 -1.55249164e-02 -8.61489058e-01
      6.10231869e-02 5.47378920e-02 -6.62297830e-02 -9.10543978e-01
      4.55522910e-02 -1.98309749e-01 -5.62076680e-02 -8.65110457e-01
      -7.93843865e-02 -2.03215495e-01 -1.00789942e-01 -8.57331455e-01
      4.63102981e-02 1.05856575e-01 -9.93695557e-02 -9.25791740e-01
      5.38861528e-02 -1.76044300e-01 -4.84634899e-02 -8.80234659e-01
      -3.92589681e-02 -2.49109775e-01 -1.06802888e-01 -8.54762852e-01</_>
    <_>
      -2.07127213e-01 -8.66420984e-01 -3.62855494e-01 2.32531118e+00
      -1.18040955e+00 -1.67786634e+00 -1.42327881e+00 9.30831850e-01
      8.20774853e-01 2.60336459e-01 7.10487843e-01 2.70120859e+00
      -4.12551641e-01 -1.02571881e+00 -6.46736145e-01 2.03727698e+00
      -9.37714458e-01 -1.54332638e+00 -1.23902214e+00 1.20107138e+00
      1.35216630e+00 8.95953894e-01 1.27534258e+00 2.84770584e+00
      2.20242113e-01 -3.55496168e-01 2.74623726e-02 2.42001891e+00
      -4.17143792e-01 -1.08971417e+00 -7.15690374e-01 1.90728533e+00
      2.12217227e-01 -6.43892288e-02 9.27575603e-02 -8.48554373e-01
      3.40897739e-02 -1.25360757e-01 3.76365520e-02 -8.15571368e-01
      3.39810289e-02 -9.67286974e-02 -1.18874438e-01 -8.83735001e-01
      1.32461935e-01 -2.56452292e-01 -1.39868129e-02 -8.17899168e-01
      8.37794878e-03 -2.45118678e-01 -1.80806201e-02 -7.94436812e-01
      -4.58126478e-02 -1.10186137e-01 -1.94099888e-01 -9.01314259e-01
      1.26022294e-01 -2.44028494e-01 -5.33127151e-02 -8.34210217e-01
      9.97782797e-02 -3.18551600e-01 -2.01690253e-02 -7.88853467e-01</_>
    <_>
      -2.39176750e-01 -7.85100758e-01 -4.01318818e-01 2.38340664e+00
      -1.23761356e+00 -1.47254491e+00 -1.35862815e+00 9.85519707e-01
      8.04064095e-01 2.79153436e-01 6.29719615e-01 2.75819159e+00
      -4.92033064e-01 -9.04530704e-01 -6.88347876e-01 2.10217619e+00
      -9.95783210e-01 -1.35092819e+00 -1.21481872e+00 1.26348090e+00
      1.34986794e+00 8.92898262e-01 1.18377960e+00 2.90297031e+00
      1.55969620e-01 -2.91366249e-01 -6.76618144e-02 2.48455191e+00
      -4.84645486e-01 -9.57335353e-01 -7.73955166e-01 1.97553194e+00
      1.13762133e-01 7.01954216e-02 1.10286132e-01 -8.48448157e-01
      -5.68774715e-02 -1.01677790e-01 -6.16218634e-02 -8.33900750e-01
      -6.71555400e-02 8.08004476e-03 -6.51498362e-02 -8.79711926e-01
      -3.50838155e-02 -1.20870039e-01 -7.25407675e-02 -8.33493233e-01
      -1.45278007e-01 -1.82419643e-01 -1.51348084e-01 -8.23772311e-01
      -1.44933909e-01 -2.32761744e-02 -1.38507649e-01 -8.94782424e-01
      -3.94226536e-02 -8.74838382e-02 -9.12630111e-02 -8.46281469e-01
      -1.07740924e-01 -1.48528114e-01 -1.18183255e-01 -8.18064034e-01</_>
    <_>
      -2.57438689e-01 -1.00870407e+00 -6.21399879e-01 2.50730205e+00
      -1.09420669e+00 -1.37161505e+00 -1.26370132e+00 1.09063113e+00
      5.87289274e-01 -1.99896947e-01 1.95014119e-01 2.88778949e+00
      -5.65671325e-01 -9.59256411e-01 -7.79308617e-01 2.22144842e+00
      -8.87619138e-01 -1.21733260e+00 -1.07768464e+00 1.37090647e+00
      1.05645168e+00 3.23410869e-01 6.78434074e-01 3.03414297e+00
      -7.88830966e-02 -4.95856285e-01 -2.94234276e-01 2.60759354e+00
      -5.16730666e-01 -9.30854142e-01 -7.33013690e-01 2.09006524e+00
      2.09399715e-01 1.32750064e-01 2.41403118e-01 -7.84091055e-01
      -9.21825226e-03 -6.28561974e-02 -1.08968392e-02 -7.74425626e-01
      1.81861483e-02 1.66399986e-01 2.05056086e-01 -8.16705108e-01
      -2.30050869e-02 -1.48289710e-01 -2.15645563e-02 -7.83044219e-01
      -1.24489076e-01 -1.88471496e-01 -1.34297997e-01 -7.77150571e-01
      -5.22532091e-02 1.83274940e-01 1.90575629e-01 -8.29409003e-01
      -3.26673798e-02 -1.04915462e-01 2.37497129e-02 -7.94741631e-01
      -8.72748047e-02 -2.15554714e-01 -1.16760246e-01 -7.75784969e-01</_>
    <_>
      -3.38965029e-01 -1.04906714e+00 -4.49953586e-01 2.51522923e+00
      -1.04967988e+00 -1.33227122e+00 -1.30795062e+00 1.09771252e+00
      4.41789269e-01 -3.27000707e-01 3.57221484e-01 2.89882159e+00
      -6.30378008e-01 -1.00604367e+00 -9.07673597e-01 2.22467184e+00
      -8.25909317e-01 -1.17265558e+00 -1.13029671e+00 1.37360740e+00
      8.73451948e-01 1.17328994e-01 7.84431756e-01 3.04701090e+00
      -2.19911411e-01 -6.29242718e-01 -4.87030715e-01 2.61238861e+00
      -5.16009688e-01 -9.62116420e-01 -8.66571486e-01 2.08993816e+00
      3.32591504e-01 1.16082370e-01 1.64587304e-01 -7.33215153e-01
      1.58416815e-02 -2.33649630e-02 8.20249412e-03 -7.02522457e-01
      2.06371903e-01 1.12534873e-01 4.86609936e-02 -7.67950714e-01
      1.42914444e-01 -1.28101334e-01 -6.78291768e-02 -7.18102276e-01
      -7.71885961e-02 -1.55717999e-01 -1.29540443e-01 -7.00221539e-01
      1.49294302e-01 1.49901643e-01 2.41329353e-02 -7.83109128e-01
      1.96022213e-01 -1.13673545e-01 -4.60941456e-02 -7.32866883e-01
      3.99135239e-02 -2.00099394e-01 -1.48567155e-01 -7.03763545e-01</_>
    <_>
      -3.37546974e-01 -9.88525510e-01 -3.85488093e-01 2.39620876e+00
      -1.13348973e+00 -1.56083000e+00 -1.36476707e+00 9.88122344e-01
      6.65797472e-01 5.81633747e-02 6.24867439e-01 2.77831054e+00
      -5.06413400e-01 -1.09335804e+00 -7.22107947e-01 2.10312271e+00
      -8.69604111e-01 -1.48495758e+00 -1.25243676e+00 1.26027882e+00
      1.21250165e+00 6.83971584e-01 1.17359209e+00 2.92745018e+00
      8.93131569e-02 -4.97685343e-01 -9.82322469e-02 2.49133325e+00
      -4.31362092e-01 -1.15284836e+00 -8.13632965e-01 1.97189963e+00
      2.53968000e-01 2.11421773e-02 1.24678038e-01 -7.56609559e-01
      8.17426108e-03 -1.07925572e-01 -9.29725182e-04 -6.89755201e-01
      1.07772976e-01 -1.02869803e-02 -4.72625457e-02 -8.14877689e-01
      1.42968804e-01 -2.43267447e-01 -6.67807981e-02 -7.19888508e-01
      -3.14809531e-02 -2.39923880e-01 -9.24278945e-02 -6.89176619e-01
      4.22650501e-02 -4.88912640e-03 -9.86314937e-02 -8.38729084e-01
      1.56333476e-01 -2.35067070e-01 -9.49647427e-02 -7.58412600e-01
      9.46829617e-02 -3.15307379e-01 -1.19595259e-01 -7.07442641e-01</_>
    <_>
      -1.59145311e-01 -8.89908552e-01 -4.29742873e-01 2.36410975e+00
      -1.01692319e+00 -1.60445809e+00 -1.50778973e+00 9.67128396e-01
      8.02445710e-01 1.43517017e-01 5.99515915e-01 2.74240494e+00
      -2.59262472e-01 -1.03285301e+00 -8.17096949e-01 2.07474637e+00
      -7.32303858e-01 -1.49317205e+00 -1.37912464e+00 1.23653018e+00
      1.28721428e+00 7.36002386e-01 1.11998248e+00 2.88905454e+00
      3.22478682e-01 -4.21942770e-01 -1.95384189e-01 2.45767403e+00
      -2.27737859e-01 -1.09545124e+00 -9.25943315e-01 1.94208717e+00
      2.70682156e-01 -2.66797040e-02 2.82786116e-02 -8.15402269e-01
      -5.81032922e-03 -9.64734405e-02 -7.58961949e-04 -7.73071289e-01
      1.55692846e-01 -1.88906137e-02 -1.31028667e-01 -8.54414940e-01
      1.07643940e-01 -2.35864177e-01 -1.05926402e-01 -7.91670382e-01
      -5.18407039e-02 -2.15921864e-01 -1.02168433e-01 -7.68162310e-01
      1.09272450e-01 9.03558359e-03 -1.43674165e-01 -8.71127903e-01
      1.21242069e-01 -2.18645871e-01 -1.14604115e-01 -8.10046613e-01
      6.02840558e-02 -2.95020998e-01 -1.39390215e-01 -7.72189140e-01</_>
    <_>
      -2.72532523e-01 -9.50873196e-01 -4.17339206e-01 2.41180515e+00
      -1.15153801e+00 -1.56594670e+00 -1.30968654e+00 1.01429272e+00
      6.86203897e-01 7.54195303e-02 5.25699794e-01 2.79021096e+00
      -5.36958098e-01 -1.05231571e+00 -6.65484905e-01 2.12786627e+00
      -9.49777246e-01 -1.47626305e+00 -1.13975060e+00 1.29022980e+00
      1.20050550e+00 6.41429842e-01 1.00394452e+00 2.93648434e+00
      3.34854536e-02 -4.79681224e-01 -9.52013582e-02 2.51163268e+00
      -5.37733376e-01 -1.15312648e+00 -7.21667171e-01 1.99998999e+00
      2.45705590e-01 -8.49982444e-03 1.52301177e-01 -7.93679357e-01
      1.82963293e-02 -8.76880363e-02 1.93991885e-02 -7.54617453e-01
      9.25369188e-02 -8.21514893e-03 5.44454791e-02 -8.30911279e-01
      1.07171848e-01 -2.37761050e-01 -3.31535526e-02 -7.74107277e-01
      -2.55425908e-02 -2.25676894e-01 -8.55357125e-02 -7.54006326e-01
      1.28596229e-02 7.43809715e-03 4.52210717e-02 -8.48423541e-01
      1.00742035e-01 -2.22426713e-01 -5.63850179e-02 -7.95443356e-01
      6.47901744e-02 -2.84966886e-01 -1.02967843e-01 -7.64225006e-01</_>
    <_>
      -7.27021247e-02 -7.95734465e-01 -3.89255702e-01 2.30223036e+00
      -1.11354303e+00 -1.61730230e+00 -1.47760129e+00 9.28783059e-01
      9.72166777e-01 3.44655633e-01 7.00291097e-01 2.67113376e+00
      -2.57671893e-01 -9.28353548e-01 -6.82545781e-01 2.02492356e+00
      -8.36947918e-01 -1.48115635e+00 -1.32299209e+00 1.20077157e+00
      1.50001276e+00 9.76265967e-01 1.27606618e+00 2.81349206e+00
      4.08164889e-01 -2.39426032e-01 1.17703192e-02 2.40047383e+00
      -2.64124066e-01 -1.00369895e+00 -7.89233208e-01 1.89932036e+00
      1.27441674e-01 -2.74396990e-03 5.97125702e-02 -8.85610759e-01
      -2.03216821e-02 -1.13972187e-01 -2.38860752e-02 -8.75540912e-01
      -8.08294192e-02 -7.48304427e-02 -1.32214978e-01 -9.15050685e-01
      1.49877025e-02 -1.75099254e-01 -6.23126701e-02 -8.80825877e-01
      -8.35184082e-02 -1.78961441e-01 -8.65574256e-02 -8.74475420e-01
      -1.83164492e-01 -1.40054822e-01 -2.46623993e-01 -9.27231073e-01
      -1.66952871e-02 -1.79714367e-01 -1.29039481e-01 -8.91587555e-01
      -1.87498946e-02 -1.87446207e-01 -1.01632148e-01 -8.71684253e-01</_>
    <_>
      -1.28365725e-01 -7.01655507e-01 -3.34306389e-01 2.32095838e+00
      -1.27123010e+00 -1.59475791e+00 -1.40829253e+00 9.26189959e-01
      8.99146974e-01 3.84038806e-01 7.19250858e-01 2.69369197e+00
      -4.25928086e-01 -8.86506259e-01 -5.95448792e-01 2.03725052e+00
      -1.03864825e+00 -1.46110630e+00 -1.20629525e+00 1.19951439e+00
      1.41050887e+00 9.82177496e-01 1.26974475e+00 2.83726335e+00
      2.17756480e-01 -2.26197124e-01 7.30991885e-02 2.41733313e+00
      -4.93620366e-01 -1.01079869e+00 -6.70281172e-01 1.90717185e+00
      7.40466937e-02 1.51314242e-02 9.61255431e-02 -9.03754532e-01
      -1.63027868e-02 -1.31209910e-01 -1.41539834e-02 -8.89088035e-01
      -1.14636615e-01 -5.06373215e-03 -5.52503504e-02 -9.32437539e-01
      -2.14951858e-03 -1.65942058e-01 -1.62445661e-02 -8.86418462e-01
      -8.92451331e-02 -2.29114234e-01 -7.69673809e-02 -8.74882996e-01
      -1.94626361e-01 -3.48033495e-02 -1.41954482e-01 -9.46280956e-01
      -1.82148740e-02 -1.49851203e-01 -4.86232974e-02 -8.98902893e-01
      -4.98647802e-02 -2.17269063e-01 -5.43531738e-02 -8.69355857e-01</_>
    <_>
      -4.64785933e-01 -9.51048493e-01 -3.69004935e-01 2.43667006e+00
      -1.21730220e+00 -1.43971455e+00 -1.22892630e+00 1.03669393e+00
      5.35891354e-01 3.23528387e-02 5.98041475e-01 2.81253982e+00
      -6.70288980e-01 -1.03891516e+00 -6.44962728e-01 2.15181947e+00
      -9.73017514e-01 -1.36406553e+00 -1.10235798e+00 1.31232929e+00
      1.09881020e+00 6.39937758e-01 1.13106012e+00 2.95809555e+00
      -8.38927627e-02 -4.95845377e-01 -5.96153401e-02 2.53466797e+00
      -5.62811255e-01 -1.07519484e+00 -6.93464637e-01 2.02350926e+00
      2.28103235e-01 6.19269162e-02 1.95986688e-01 -7.97608376e-01
      -1.77114271e-02 -9.82167050e-02 -3.80833587e-03 -7.72689998e-01
      8.60186368e-02 7.62699964e-03 1.39326099e-02 -8.28862011e-01
      8.10112879e-02 -1.74430564e-01 -1.12921316e-02 -7.87681699e-01
      -8.76538604e-02 -2.28938997e-01 -9.21137258e-02 -7.72794962e-01
      2.34878156e-02 -7.57810986e-03 -3.99183333e-02 -8.42545569e-01
      1.07900731e-01 -1.77153513e-01 -3.31873856e-02 -7.98636496e-01
      4.76942584e-03 -2.47404680e-01 -8.54391977e-02 -7.72303045e-01</_>
    <_>
      -3.36347848e-01 -7.53226578e-01 -3.16505849e-01 2.36559772e+00
      -1.39688635e+00 -1.52267051e+00 -1.28646135e+00 9.49312508e-01
      7.10365832e-01 3.33881497e-01 7.33288348e-01 2.74395919e+00
      -6.17610514e-01 -8.31587613e-01 -4.94325370e-01 2.07959461e+00
      -1.18442023e+00 -1.36615038e+00 -1.05060959e+00 1.23017466e+00
      1.25142360e+00 9.46671665e-01 1.28864288e+00 2.89027953e+00
      3.96112017e-02 -1.85751021e-01 1.63536772e-01 2.46733761e+00
      -6.54309988e-01 -8.92004728e-01 -5.13339818e-01 1.95281553e+00
      6.33918121e-02 3.61637957e-02 1.34798929e-01 -8.93261790e-01
      -4.34533209e-02 -1.49844021e-01 -4.65978161e-02 -8.72746527e-01
      -8.88385475e-02 4.91437130e-02 -2.25073397e-02 -9.30751085e-01
      -6.25412017e-02 -1.80506259e-01 -1.67067032e-02 -8.72226596e-01
      -1.18559942e-01 -2.44604707e-01 -1.04383372e-01 -8.59553516e-01
      -1.34508058e-01 3.35150398e-02 -9.20419395e-02 -9.48322237e-01
      -7.36164674e-02 -1.30443856e-01 -2.16808170e-02 -8.91119182e-01
      -1.10571213e-01 -2.36568004e-01 -5.83932661e-02 -8.56951118e-01</_>
    <_>
      -3.21353853e-01 -9.88406777e-01 -3.34962308e-01 2.38140202e+00
      -1.12649167e+00 -1.62122726e+00 -1.40831232e+00 9.62699652e-01
      6.67308450e-01 7.14326352e-02 7.07566023e-01 2.76694918e+00
      -4.81136173e-01 -1.10730541e+00 -7.05392599e-01 2.08244514e+00
      -8.37659776e-01 -1.51204348e+00 -1.26920426e+00 1.23221362e+00
      1.20013511e+00 7.12840617e-01 1.25421977e+00 2.91807938e+00
      9.90268961e-02 -4.95756477e-01 -5.84483035e-02 2.47344518e+00
      -3.89766574e-01 -1.14760888e+00 -7.90457308e-01 1.94602847e+00
      2.81241089e-01 -2.32043359e-02 9.99856293e-02 -7.63113558e-01
      9.10274277e-04 -1.23274200e-01 1.16418749e-02 -6.81415081e-01
      1.63006037e-01 -4.63345051e-02 -1.20231465e-01 -8.22283864e-01
      1.62892163e-01 -2.65948355e-01 -6.26742914e-02 -7.09375143e-01
      -4.43952605e-02 -2.38664731e-01 -7.74113536e-02 -6.63806558e-01
      9.39838216e-02 -6.79370835e-02 -2.02202156e-01 -8.49766672e-01
      1.94681883e-01 -2.53854156e-01 -1.05108313e-01 -7.52592087e-01
      8.49326625e-02 -3.13968956e-01 -1.04228184e-01 -6.81743979e-01</_>
    <_>
      -5.11533916e-01 -9.67526853e-01 -2.37785742e-01 2.42796850e+00
      -1.30356336e+00 -1.46110737e+00 -1.21394002e+00 1.01333046e+00
      4.84191775e-01 2.69648340e-02 7.33743727e-01 2.80938315e+00
      -7.33597577e-01 -9.73138034e-01 -5.69005668e-01 2.14267302e+00
      -1.08007145e+00 -1.31761169e+00 -1.06045377e+00 1.29403508e+00
      1.04614019e+00 6.52203560e-01 1.25642216e+00 2.95701456e+00
      -1.54843077e-01 -4.11380857e-01 1.95959155e-02 2.53082824e+00
      -6.74379230e-01 -9.68402863e-01 -6.21907532e-01 2.01451755e+00
      2.11860031e-01 7.97902271e-02 1.98312059e-01 -7.99902260e-01
      -3.58590968e-02 -1.38071686e-01 -1.67454258e-02 -7.74844468e-01
      6.92992061e-02 8.00767243e-02 1.23894541e-02 -8.43353927e-01
      9.89636686e-03 -1.78203613e-01 2.31641252e-02 -7.78120518e-01
      -1.21997990e-01 -2.60614514e-01 -1.12381525e-01 -7.63051927e-01
      -2.31199600e-02 3.48381773e-02 -7.45666176e-02 -8.63872707e-01
      2.09713764e-02 -1.43156156e-01 2.80442964e-02 -8.00026000e-01
      -8.60032812e-02 -2.71947116e-01 -7.12082013e-02 -7.60358751e-01</_>
    <_>
      -2.56581455e-01 -6.84887409e-01 -3.14421326e-01 2.35526967e+00
      -1.31193542e+00 -1.51735473e+00 -1.42532074e+00 9.43565965e-01
      7.82599807e-01 3.85307878e-01 7.40015149e-01 2.73398590e+00
      -4.66726750e-01 -7.72620976e-01 -6.27097309e-01 2.07180595e+00
      -1.04819763e+00 -1.31906450e+00 -1.23349047e+00 1.22440767e+00
      1.32004118e+00 9.95326877e-01 1.29370952e+00 2.87989616e+00
      2.01745391e-01 -9.78580415e-02 5.14572263e-02 2.45774055e+00
      -4.66233104e-01 -8.06733310e-01 -6.86773419e-01 1.94355404e+00
      7.70857930e-02 6.20982610e-02 3.13785560e-02 -9.04953539e-01
      -8.36324915e-02 -9.89335552e-02 -7.76640475e-02 -8.87062490e-01
      -7.22695589e-02 3.81350517e-02 -1.10694714e-01 -9.36224937e-01
      -8.38794932e-02 -1.44130155e-01 -5.50352335e-02 -8.83699417e-01
      -1.63083643e-01 -1.75480261e-01 -1.51824340e-01 -8.71529043e-01
      -1.45854294e-01 -1.62597168e-02 -1.87090069e-01 -9.51489329e-01
      -1.16348915e-01 -1.47477761e-01 -5.45757264e-02 -8.98359895e-01
      -1.68234095e-01 -1.86052084e-01 -1.16589300e-01 -8.65401745e-01</_>
    <_>
      -1.86533913e-01 -8.69575679e-01 -4.20781016e-01 2.45454860e+00
      -1.18075824e+00 -1.46005476e+00 -1.31280863e+00 1.04729831e+00
      7.23476171e-01 5.77525236e-02 4.70545679e-01 2.83208013e+00
      -5.66093802e-01 -9.40148175e-01 -7.53624320e-01 2.17066741e+00
      -1.02972782e+00 -1.28508222e+00 -1.06584299e+00 1.32559323e+00
      1.19641232e+00 5.90463758e-01 9.47207332e-01 2.97734571e+00
      -4.88795489e-02 -4.11271513e-01 -2.29745120e-01 2.55485249e+00
      -6.45963848e-01 -9.39404428e-01 -6.61167920e-01 2.04111314e+00
      1.55642197e-01 7.93817118e-02 1.67197689e-01 -8.09208989e-01
      -7.78532308e-03 -8.33315775e-02 -1.18753472e-02 -7.96720922e-01
      -3.00643537e-02 7.71237984e-02 6.50028065e-02 -8.43944609e-01
      -2.86278687e-02 -1.52311668e-01 -7.05255009e-03 -8.06616306e-01
      -1.22438774e-01 -1.98028579e-01 -1.24043442e-01 -7.97520757e-01
      -1.26059294e-01 5.07378168e-02 1.58278886e-02 -8.58883798e-01
      -6.32999018e-02 -1.24246992e-01 1.59017723e-02 -8.20919514e-01
      -7.73496255e-02 -2.04169154e-01 -1.16430357e-01 -7.97778845e-01</_>
    <_>
      -3.43419433e-01 -1.03358865e+00 -4.00883347e-01 2.50199604e+00
      -1.04423678e+00 -1.35964644e+00 -1.30309641e+00 1.09348428e+00
      4.31240439e-01 -2.62836307e-01 4.32691514e-01 2.88313413e+00
      -6.46817744e-01 -1.02590311e+00 -8.79952252e-01 2.21432805e+00
      -8.36070418e-01 -1.22764218e+00 -1.12207615e+00 1.36953020e+00
      8.74844074e-01 2.27314696e-01 8.97057474e-01 3.03053856e+00
      -2.20106289e-01 -6.29093826e-01 -4.29972708e-01 2.60008550e+00
      -5.21923661e-01 -1.01335168e+00 -8.52125645e-01 2.08270741e+00
      3.27771991e-01 9.20279995e-02 1.75574765e-01 -7.33276367e-01
      3.27605344e-02 -3.47276106e-02 2.79944614e-02 -6.99963272e-01
      1.67206600e-01 9.65567008e-02 2.19580252e-02 -7.69314051e-01
      1.49875820e-01 -1.66059300e-01 -2.73788273e-02 -7.23803997e-01
      -6.02423362e-02 -1.84065327e-01 -1.12367712e-01 -7.02258825e-01
      1.00510709e-01 1.22554779e-01 -4.81799357e-02 -7.84004152e-01
      1.80367753e-01 -1.39826789e-01 -2.44883336e-02 -7.39939928e-01
      5.42916805e-02 -2.53096998e-01 -1.19022459e-01 -7.13645160e-01</_>
    <_>
      -1.40983649e-02 -9.70620215e-01 -4.62127090e-01 2.30885863e+00
      -8.77391279e-01 -1.67740715e+00 -1.51276481e+00 9.58258808e-01
      9.89935994e-01 1.45796388e-01 5.73652804e-01 2.67237782e+00
      -8.76877457e-02 -1.13434052e+00 -8.64940822e-01 2.02742791e+00
      -5.25624752e-01 -1.61146140e+00 -1.43613994e+00 1.21914291e+00
      1.52687132e+00 8.01696658e-01 1.13337243e+00 2.81287980e+00
      5.50123692e-01 -4.61680740e-01 -2.06010982e-01 2.39416504e+00
      2.88990233e-02 -1.18966043e+00 -9.76700544e-01 1.89699006e+00
      2.60889053e-01 -7.11917654e-02 3.85730602e-02 -7.67252922e-01
      1.37983810e-03 -9.71914530e-02 -1.66061930e-02 -7.08568513e-01
      8.20843652e-02 -1.22350983e-01 -1.59798473e-01 -8.00995708e-01
      1.37267888e-01 -3.08377653e-01 -1.50620222e-01 -7.39602804e-01
      -4.39580642e-02 -2.25449681e-01 -1.28155917e-01 -6.98384166e-01
      -3.30029652e-02 -1.37734413e-01 -2.20252454e-01 -8.14197600e-01
      1.39067784e-01 -3.00564736e-01 -1.95258677e-01 -7.57155895e-01
      8.70124996e-02 -3.54273349e-01 -2.11998075e-01 -7.15124369e-01</_>
    <_>
      -4.05099064e-01 -1.00649190e+00 -4.82249826e-01 2.52484751e+00
      -1.10606301e+00 -1.31761193e+00 -1.25024569e+00 1.10661995e+00
      4.00260478e-01 -2.20675915e-01 3.27256948e-01 2.90628409e+00
      -6.60316110e-01 -9.56673324e-01 -8.18177640e-01 2.23797584e+00
      -8.78548861e-01 -1.20070338e+00 -1.08068979e+00 1.38645577e+00
      8.65622044e-01 2.90296793e-01 7.92826712e-01 3.05296302e+00
      -2.03129947e-01 -5.38729310e-01 -3.66494000e-01 2.62460089e+00
      -5.39101005e-01 -9.68687654e-01 -7.88782954e-01 2.10586619e+00
      2.79924244e-01 1.16931222e-01 2.24001005e-01 -7.45678723e-01
      8.57498217e-03 -5.48006371e-02 -3.24917468e-03 -7.33154476e-01
      1.30398214e-01 1.03718214e-01 1.12777293e-01 -7.82066405e-01
      4.02502567e-02 -1.64093196e-01 -1.42520089e-02 -7.41702616e-01
      -1.11898296e-01 -2.04262495e-01 -1.29154786e-01 -7.34693587e-01
      8.67673382e-02 1.16821900e-01 8.03295970e-02 -7.97472119e-01
      7.13136271e-02 -1.43162236e-01 2.61796694e-02 -7.55141914e-01
      -4.15989645e-02 -2.46912435e-01 -9.48455706e-02 -7.33252823e-01</_>
    <_>
      -1.80903211e-01 -8.87073100e-01 -4.06176448e-01 2.35317016e+00
      -1.07771456e+00 -1.62262249e+00 -1.48592770e+00 9.56238151e-01
      8.05202484e-01 1.64216951e-01 6.31390572e-01 2.73226547e+00
      -3.15142363e-01 -1.03332233e+00 -7.64711499e-01 2.06562757e+00
      -8.04450691e-01 -1.48742783e+00 -1.34076881e+00 1.22724938e+00
      1.31891954e+00 7.65983641e-01 1.16993725e+00 2.87939286e+00
      2.94462830e-01 -4.08036202e-01 -1.24188252e-01 2.44973826e+00
      -2.87192702e-01 -1.07365501e+00 -8.61274660e-01 1.93483639e+00
      2.45485410e-01 -3.17181535e-02 5.18126562e-02 -8.29215944e-01
      4.34180780e-04 -1.08390994e-01 -2.20075180e-03 -7.86828756e-01
      1.21998869e-01 -2.54345089e-02 -1.13157511e-01 -8.70130062e-01
      1.15793027e-01 -2.32737944e-01 -7.91731030e-02 -8.09466362e-01
      -4.55347411e-02 -2.15231866e-01 -9.19542015e-02 -7.87125647e-01
      6.54095411e-02 4.60837083e-03 -1.52111143e-01 -8.87252986e-01
      1.26727059e-01 -2.01885775e-01 -8.69929940e-02 -8.29061687e-01
      5.09266332e-02 -2.81722128e-01 -1.10399976e-01 -7.93511868e-01</_>
    <_>
      -2.58132428e-01 -8.85093153e-01 -4.60925192e-01 2.39199615e+00
      -1.20990789e+00 -1.48732913e+00 -1.37023854e+00 9.89162743e-01
      7.65685678e-01 1.89160019e-01 5.62596262e-01 2.76772785e+00
      -4.70332891e-01 -9.11377668e-01 -7.11925983e-01 2.10734200e+00
      -9.78139937e-01 -1.35257101e+00 -1.19847918e+00 1.26534581e+00
      1.31157541e+00 8.41609478e-01 1.14320517e+00 2.91270638e+00
      1.78543925e-01 -2.67104894e-01 -6.57138303e-02 2.49009252e+00
      -4.62865919e-01 -9.33194876e-01 -7.22641766e-01 1.97781217e+00
      1.44041672e-01 6.57914504e-02 1.34693265e-01 -8.65613639e-01
      -2.95861233e-02 -1.01439424e-01 -4.17565480e-02 -8.50591183e-01
      -3.43170725e-02 4.91832606e-02 1.03949569e-02 -8.92075896e-01
      -3.29633765e-02 -1.69358522e-01 -1.61182508e-02 -8.51461232e-01
      -1.03700705e-01 -1.91569656e-01 -1.19758986e-01 -8.41330111e-01
      -1.19631939e-01 3.14503006e-04 -7.64547065e-02 -9.03458714e-01
      -7.76457861e-02 -1.59369737e-01 -6.86001312e-03 -8.61185074e-01
      -8.34794492e-02 -1.99994937e-01 -8.77975151e-02 -8.35487962e-01</_>
    <_>
      -1.25628099e-01 -9.13115919e-01 -4.19169545e-01 2.33930016e+00
      -9.80780065e-01 -1.66371822e+00 -1.50675154e+00 9.62507129e-01
      8.30690622e-01 1.23306811e-01 6.08179569e-01 2.71206594e+00
      -2.37320811e-01 -1.10307515e+00 -8.17116737e-01 2.05578446e+00
      -6.93551004e-01 -1.53939247e+00 -1.38300812e+00 1.22927463e+00
      1.32732689e+00 7.08866835e-01 1.13580441e+00 2.85677600e+00
      3.49785954e-01 -4.90314692e-01 -1.87913477e-01 2.43390203e+00
      -1.82743892e-01 -1.15005326e+00 -9.25533175e-01 1.92670596e+00
      2.87919044e-01 -6.24579564e-02 5.21900430e-02 -8.12165141e-01
      2.47391015e-02 -9.91299376e-02 1.37006510e-02 -7.74313509e-01
      1.71554610e-01 -3.91861759e-02 -1.12866580e-01 -8.46561849e-01
      1.59081742e-01 -2.68084735e-01 -8.87212381e-02 -7.93900728e-01
      -2.06761695e-02 -2.25249246e-01 -8.10227841e-02 -7.71216214e-01
      1.09938473e-01 -6.73980825e-03 -1.39210433e-01 -8.61131191e-01
      1.60804093e-01 -2.34311193e-01 -1.00128911e-01 -8.07888567e-01
      8.36559460e-02 -3.11065376e-01 -1.13546178e-01 -7.75100827e-01</_>
    <_>
      -1.80460125e-01 -7.64172256e-01 -3.07009399e-01 2.30725718e+00
      -1.21957135e+00 -1.63958275e+00 -1.48335040e+00 9.06757176e-01
      8.56865466e-01 3.83139789e-01 7.91367948e-01 2.68307137e+00
      -3.72348994e-01 -8.91543329e-01 -6.33058131e-01 2.01888514e+00
      -9.72106576e-01 -1.47927988e+00 -1.29118073e+00 1.17791045e+00
      1.38625157e+00 1.00986266e+00 1.34895754e+00 2.82875347e+00
      2.74251789e-01 -1.94201499e-01 6.65966719e-02 2.40151858e+00
      -4.20977145e-01 -9.73531604e-01 -7.25744665e-01 1.88639474e+00
      1.56311274e-01 -2.19883230e-02 2.12088879e-02 -8.95193040e-01
      -1.22624794e-02 -1.18531473e-01 -1.04420511e-02 -8.76144528e-01
      -5.45289554e-03 -6.27718642e-02 -1.82777926e-01 -9.26839352e-01
      4.17817496e-02 -1.78607494e-01 -5.88701665e-02 -8.69342625e-01
      -5.31703830e-02 -1.94739670e-01 -7.09650666e-02 -8.54950309e-01
      -8.22808072e-02 -9.16108564e-02 -2.58253515e-01 -9.40871179e-01
      2.44827606e-02 -1.69502497e-01 -9.92039591e-02 -8.79142821e-01
      8.66608601e-03 -1.99705213e-01 -7.85332024e-02 -8.40019763e-01</_>
    <_>
      -1.49951305e-03 -8.55866790e-01 -4.08017904e-01 2.27598786e+00
      -9.96898532e-01 -1.76250398e+00 -1.58125401e+00 9.05279160e-01
      9.88684952e-01 3.01696867e-01 7.03157604e-01 2.64829969e+00
      -1.59611017e-01 -1.04510403e+00 -7.49386609e-01 1.99248600e+00
      -7.45890617e-01 -1.61810613e+00 -1.40743434e+00 1.17074728e+00
      1.48680770e+00 9.33127642e-01 1.26600289e+00 2.79317689e+00
      4.55338448e-01 -3.42483968e-01 -4.63978276e-02 2.36989427e+00
      -2.02057511e-01 -1.12870955e+00 -8.57002676e-01 1.86400747e+00
      2.18646631e-01 -1.12080403e-01 -3.92327458e-03 -8.18885446e-01
      1.78896766e-02 -1.12446882e-01 1.92039572e-02 -7.69981265e-01
      3.40637304e-02 -1.29037544e-01 -1.95483774e-01 -8.62704217e-01
      1.22296624e-01 -2.61047065e-01 -8.79184082e-02 -7.88628161e-01
      -2.17946450e-04 -2.10271731e-01 -5.88394105e-02 -7.62603879e-01
      -5.54039218e-02 -1.31419718e-01 -2.53127962e-01 -8.82007718e-01
      1.02910899e-01 -2.57279664e-01 -1.30290434e-01 -8.11495245e-01
      1.04514033e-01 -3.03256273e-01 -1.00193508e-01 -7.67451406e-01</_>
    <_>
      -1.69455305e-01 -8.37413549e-01 -4.48287696e-01 2.36742210e+00
      -1.14243162e+00 -1.51084137e+00 -1.51070571e+00 9.44710374e-01
      8.70346665e-01 2.31012896e-01 6.16552234e-01 2.74911594e+00
      -3.23861301e-01 -8.93804610e-01 -7.55876660e-01 2.06706405e+00
      -8.61200750e-01 -1.36325169e+00 -1.35079837e+00 1.21208882e+00
      1.39876616e+00 8.41979206e-01 1.17686415e+00 2.89641166e+00
      3.11172336e-01 -2.63648272e-01 -8.28532651e-02 2.45199823e+00
      -3.24222058e-01 -9.30534303e-01 -8.29817712e-01 1.92294955e+00
      1.55647486e-01 6.22955225e-02 4.10778672e-02 -8.78457129e-01
      -5.11999354e-02 -1.03924401e-01 -5.16823977e-02 -8.51778984e-01
      1.18997348e-02 2.44321916e-02 -1.06670678e-01 -9.10122871e-01
      2.69962363e-02 -1.57481760e-01 -1.08865850e-01 -8.53948295e-01
      -1.01305842e-01 -1.85173377e-01 -1.38670042e-01 -8.36115003e-01
      -5.22837304e-02 -6.10335357e-03 -1.49846986e-01 -9.23405468e-01
      2.99015269e-02 -1.57104358e-01 -1.24118522e-01 -8.63755226e-01
      -6.87615480e-03 -2.01185003e-01 -1.65113166e-01 -8.26511919e-01</_>
    <_>
      -3.61337870e-01 -8.05520475e-01 -3.53645831e-01 2.37582684e+00
      -1.35509694e+00 -1.52916741e+00 -1.27484787e+00 9.61852252e-01
      6.79872334e-01 2.78203875e-01 6.88541889e-01 2.75368309e+00
      -5.90584934e-01 -8.74056220e-01 -5.17949402e-01 2.08914828e+00
      -1.13639450e+00 -1.36134756e+00 -1.07665825e+00 1.24039948e+00
      1.23918760e+00 9.09454226e-01 1.26318693e+00 2.89947462e+00
      6.78948611e-02 -2.18706354e-01 1.39148369e-01 2.47494483e+00
      -6.10265732e-01 -8.87101531e-01 -5.48531294e-01 1.95963097e+00
      9.42534655e-02 3.80398072e-02 1.71342179e-01 -8.95247936e-01
      -3.57944705e-02 -1.52117446e-01 -3.23460102e-02 -8.79154921e-01
      -7.01942742e-02 3.43140587e-02 2.47794762e-02 -9.25979078e-01
      -6.10727817e-02 -1.97583646e-01 2.02631168e-02 -8.74946833e-01
      -9.65048596e-02 -2.45963901e-01 -7.89804459e-02 -8.63458872e-01
      -1.34277612e-01 3.03887902e-03 -6.80148825e-02 -9.40055132e-01
      -8.25857595e-02 -1.64719179e-01 1.65119078e-02 -8.88540924e-01
      -8.11837763e-02 -2.70493418e-01 -2.58203167e-02 -8.56744826e-01</_>
    <_>
      -3.38715196e-01 -9.86014366e-01 -3.84304881e-01 2.43601227e+00
      -1.24546981e+00 -1.42099631e+00 -1.23795593e+00 1.03716362e+00
      6.22794151e-01 -3.29246409e-02 5.51385880e-01 2.81228375e+00
      -7.29767025e-01 -1.02393079e+00 -6.98320806e-01 2.15550137e+00
      -1.06768000e+00 -1.27496374e+00 -1.08477199e+00 1.31647658e+00
      1.13622355e+00 5.38436830e-01 1.05349290e+00 2.95681524e+00
      -2.06161946e-01 -5.28803587e-01 -1.63343430e-01 2.53743577e+00
      -7.31689155e-01 -9.94646847e-01 -7.20187008e-01 2.02842879e+00
      2.17306077e-01 1.30360320e-01 2.52366930e-01 -7.79348671e-01
      -1.79541074e-02 -9.54730809e-02 -1.89380422e-02 -7.61339426e-01
      3.25883403e-02 1.43366426e-01 1.18255831e-01 -8.20828855e-01
      4.39515561e-02 -1.12896055e-01 2.16568522e-02 -7.67995298e-01
      -1.20331556e-01 -2.06797227e-01 -1.28938019e-01 -7.56550848e-01
      -6.06071986e-02 1.22249730e-01 5.86528406e-02 -8.39207172e-01
      4.53340970e-02 -8.11454281e-02 2.08178088e-02 -7.86821246e-01
      -6.76574856e-02 -2.36773685e-01 -1.03811800e-01 -7.55295098e-01</_>
    <_>
      -1.18810214e-01 -7.77645051e-01 -4.49207485e-01 2.35105515e+00
      -1.16297448e+00 -1.53891349e+00 -1.46417928e+00 9.49002445e-01
      8.87303412e-01 2.97605425e-01 6.03353679e-01 2.72525525e+00
      -3.38878483e-01 -8.77999842e-01 -6.94561303e-01 2.06357622e+00
      -9.10750091e-01 -1.39675462e+00 -1.31026101e+00 1.22114241e+00
      1.39442360e+00 9.16522622e-01 1.17094707e+00 2.86903000e+00
      2.83334643e-01 -2.28088811e-01 -1.78310554e-02 2.44397140e+00
      -3.76224190e-01 -9.45284188e-01 -7.87141562e-01 1.92947853e+00
      1.22658864e-01 4.00940515e-02 8.76901820e-02 -8.99164975e-01
      -3.95362079e-02 -1.21184848e-01 -3.21507715e-02 -8.89019549e-01
      -3.91049571e-02 1.34449042e-02 -4.24542986e-02 -9.26087618e-01
      7.18208635e-03 -1.63115695e-01 -6.12822548e-02 -8.87949705e-01
      -1.02689646e-01 -2.15298787e-01 -1.09235600e-01 -8.80482316e-01
      -1.17508113e-01 -3.08519527e-02 -1.09872408e-01 -9.38552916e-01
      -2.96123489e-03 -1.45927981e-01 -9.02390108e-02 -8.98470759e-01
      -4.07130532e-02 -2.16579124e-01 -1.05863653e-01 -8.75268996e-01</_>
    <_>
      -3.67161036e-01 -9.49339747e-01 -4.62795675e-01 2.43902588e+00
      -1.19623518e+00 -1.41593587e+00 -1.24185324e+00 1.04421067e+00
      6.14442945e-01 4.85774167e-02 5.27632117e-01 2.81395149e+00
      -6.00764394e-01 -9.93670106e-01 -6.64443552e-01 2.15975642e+00
      -9.70559657e-01 -1.31974328e+00 -1.13070321e+00 1.32288337e+00
      1.17116630e+00 6.66591644e-01 1.08693874e+00 2.95869446e+00
      -3.14838858e-03 -4.36988622e-01 -8.20144936e-02 2.54168797e+00
      -5.37586927e-01 -1.00649130e+00 -7.45058119e-01 2.03435183e+00
      1.97696716e-01 9.03407633e-02 2.01054752e-01 -8.09306085e-01
      -2.24679857e-02 -9.47122052e-02 -1.94878653e-02 -7.97705412e-01
      3.85331698e-02 4.91857231e-02 2.12986637e-02 -8.37864161e-01
      2.71138735e-03 -1.48163274e-01 -1.63812339e-02 -8.03791702e-01
      -1.21326201e-01 -2.18042150e-01 -1.15749650e-01 -7.96471536e-01
      -4.65286039e-02 2.50568278e-02 -8.06806386e-02 -8.50058079e-01
      -2.15354050e-03 -1.17494129e-01 -4.16043140e-02 -8.15551162e-01
      -7.65633434e-02 -2.33532622e-01 -7.00286180e-02 -7.95631886e-01</_>
    <_>
      -3.55827123e-01 -1.02307022e+00 -3.98262352e-01 2.50592899e+00
      -1.09207475e+00 -1.35427713e+00 -1.27736795e+00 1.08997428e+00
      4.29207027e-01 -2.37024710e-01 4.45060492e-01 2.88833523e+00
      -6.78921998e-01 -1.01073432e+00 -8.53000760e-01 2.21665502e+00
      -8.65751505e-01 -1.21412027e+00 -1.09503710e+00 1.36741948e+00
      8.68798077e-01 2.56297290e-01 9.11477268e-01 3.03622842e+00
      -2.49660030e-01 -6.04265392e-01 -3.99983674e-01 2.60386777e+00
      -5.37417412e-01 -9.86029923e-01 -8.11132014e-01 2.08397102e+00
      2.92467386e-01 1.01814955e-01 1.80735439e-01 -7.48831809e-01
      2.95784865e-02 -3.89911495e-02 1.60021540e-02 -7.13939726e-01
      1.34516910e-01 9.95543897e-02 2.29323134e-02 -7.82918572e-01
      1.22650020e-01 -1.54335842e-01 -1.34256463e-02 -7.36484766e-01
      -6.25520274e-02 -1.83122933e-01 -1.19873762e-01 -7.13337660e-01
      8.44641179e-02 1.22022003e-01 -4.62659039e-02 -7.96787739e-01
      1.59222066e-01 -1.39231771e-01 3.26437876e-03 -7.50562251e-01
      3.73974219e-02 -2.43804306e-01 -9.87048894e-02 -7.22713053e-01</_>
    <_>
      -2.42283493e-01 -8.74580622e-01 -4.51485753e-01 2.39772010e+00
      -1.21026480e+00 -1.51663780e+00 -1.31198287e+00 1.00059009e+00
      7.53892541e-01 1.75939500e-01 5.67432880e-01 2.77232480e+00
      -5.30067265e-01 -9.57812369e-01 -6.71540320e-01 2.11810327e+00
      -1.03015089e+00 -1.40632606e+00 -1.10318255e+00 1.28006661e+00
      1.27492070e+00 7.78569281e-01 1.11349666e+00 2.91675067e+00
      6.98793977e-02 -3.55722547e-01 -7.08575100e-02 2.50021887e+00
      -5.70347428e-01 -1.02307940e+00 -6.70496464e-01 1.99262619e+00
      1.53398782e-01 6.91855252e-02 1.39724448e-01 -8.46613765e-01
      -2.40837205e-02 -8.52427706e-02 -2.44555958e-02 -8.33975494e-01
      -3.48562673e-02 3.25774848e-02 -3.04393694e-02 -8.75306249e-01
      1.48362070e-02 -1.22794323e-01 -2.66331304e-02 -8.34264278e-01
      -1.03011899e-01 -2.02584237e-01 -1.06213890e-01 -8.25528264e-01
      -1.04735196e-01 1.25499880e-02 -1.08377740e-01 -8.88240576e-01
      1.70740187e-02 -6.97219670e-02 -4.61379364e-02 -8.45345020e-01
      -4.05773707e-02 -1.78361759e-01 -7.73839802e-02 -8.20174813e-01</_>
    <_>
      -2.98954248e-01 -6.79556251e-01 -2.76740640e-01 2.35555887e+00
      -1.34414423e+00 -1.48697019e+00 -1.42968178e+00 9.24691319e-01
      7.45717704e-01 4.09869701e-01 8.05946827e-01 2.73942924e+00
      -5.22563279e-01 -7.80243576e-01 -5.99728167e-01 2.05766535e+00
      -1.12465632e+00 -1.31917334e+00 -1.21578693e+00 1.19749343e+00
      1.28718817e+00 1.01651847e+00 1.35642624e+00 2.88680172e+00
      1.32064626e-01 -1.34831131e-01 8.49041939e-02 2.44541335e+00
      -5.78921020e-01 -8.47095728e-01 -6.64972901e-01 1.91582596e+00
      9.90381613e-02 6.98019639e-02 2.73627546e-02 -8.95964861e-01
      -8.89003053e-02 -1.13073073e-01 -8.41786265e-02 -8.67573500e-01
      -3.27594802e-02 1.03809526e-02 -1.60932273e-01 -9.35034692e-01
      -6.18852340e-02 -1.06582358e-01 -7.99631253e-02 -8.64957392e-01
      -1.56889126e-01 -1.73667639e-01 -1.65760234e-01 -8.44231665e-01
      -8.86580572e-02 -3.58962938e-02 -2.39974931e-01 -9.53554153e-01
      -4.68566343e-02 -8.74573961e-02 -8.17361921e-02 -8.83185089e-01
      -1.09933838e-01 -1.35240912e-01 -1.33394971e-01 -8.35837126e-01</_>
    <_>
      -3.06469470e-01 -8.54995430e-01 -4.47326124e-01 2.40917420e+00
      -1.23793256e+00 -1.50202441e+00 -1.32534397e+00 1.00041282e+00
      6.66421950e-01 1.77633435e-01 5.48364580e-01 2.78731489e+00
      -5.55432498e-01 -9.00209606e-01 -6.42394006e-01 2.12816548e+00
      -1.02789247e+00 -1.37625265e+00 -1.13195062e+00 1.28307855e+00
      1.19667244e+00 7.82538772e-01 1.09437561e+00 2.93306518e+00
      5.71325384e-02 -2.82824814e-01 -2.64709331e-02 2.51378226e+00
      -5.49408555e-01 -9.57103789e-01 -6.63003623e-01 2.00238419e+00
      1.67384088e-01 5.46675511e-02 1.42238006e-01 -8.65697205e-01
      -3.12940218e-02 -9.09235403e-02 -2.63814945e-02 -8.52320671e-01
      2.37446632e-02 5.29499911e-02 1.54419178e-02 -8.93721282e-01
      2.32181721e-03 -1.75895289e-01 -5.11278249e-02 -8.52051377e-01
      -1.07163429e-01 -1.99378669e-01 -1.10092163e-01 -8.42956543e-01
      -3.31920832e-02 5.26431762e-02 -3.25205065e-02 -9.06434774e-01
      1.22264735e-02 -1.36876270e-01 -4.82632443e-02 -8.63407314e-01
      -5.30728959e-02 -2.15382159e-01 -9.11451355e-02 -8.37801278e-01</_>
    <_>
      -2.94348687e-01 -9.88212228e-01 -4.18919414e-01 2.44972849e+00
      -1.09105372e+00 -1.45464003e+00 -1.38886273e+00 1.03142154e+00
      6.05994701e-01 -8.84829983e-02 5.11554718e-01 2.83239365e+00
      -5.06996274e-01 -1.02088332e+00 -8.43061328e-01 2.15698791e+00
      -8.32228124e-01 -1.31452465e+00 -1.22554874e+00 1.30592191e+00
      1.08190465e+00 4.41506922e-01 1.01151884e+00 2.98088455e+00
      -5.92056313e-04 -5.35458088e-01 -2.93947250e-01 2.54525924e+00
      -4.28042293e-01 -1.01938319e+00 -8.40608537e-01 2.02212977e+00
      2.85902977e-01 6.07079603e-02 1.07600600e-01 -7.92809606e-01
      7.63373356e-03 -5.72815128e-02 -6.34962833e-03 -7.55305111e-01
      1.63587064e-01 4.82640602e-02 -5.79540431e-02 -8.28275204e-01
      1.49483413e-01 -1.71210200e-01 -9.72061679e-02 -7.72098899e-01
      -6.52051046e-02 -1.75997958e-01 -1.16185844e-01 -7.47656941e-01
      1.27451032e-01 9.39905867e-02 -9.93338227e-02 -8.44202042e-01
      2.11489335e-01 -1.28420413e-01 -9.24619958e-02 -7.89822936e-01
      6.89110383e-02 -2.11728305e-01 -1.51350603e-01 -7.55578697e-01</_>
    <_>
      -3.09123963e-01 -9.69559908e-01 -3.78421396e-01 2.39963579e+00
      -1.10168636e+00 -1.58295965e+00 -1.42646790e+00 9.90462720e-01
      6.12823069e-01 3.36489901e-02 6.14430964e-01 2.77901793e+00
      -4.47905719e-01 -1.02303231e+00 -7.86433756e-01 2.10951519e+00
      -8.63954008e-01 -1.42372131e+00 -1.25317740e+00 1.26367319e+00
      1.09340060e+00 6.02426529e-01 1.12499237e+00 2.92597461e+00
      8.77003819e-02 -4.52528805e-01 -1.95484042e-01 2.49510121e+00
      -4.26218003e-01 -1.03532577e+00 -8.11140656e-01 1.97632372e+00
      2.92592347e-01 -2.00049044e-03 7.44083449e-02 -8.30813587e-01
      8.46511684e-03 -7.33644664e-02 7.50211114e-03 -7.93537319e-01
      1.94096893e-01 3.37981768e-02 -1.41078085e-01 -8.62853587e-01
      1.65237889e-01 -2.19384775e-01 -5.96069135e-02 -8.07710409e-01
      -3.16455029e-02 -1.71182901e-01 -7.85968676e-02 -7.85493731e-01
      1.66805506e-01 1.09581620e-01 -1.64425448e-01 -8.77793610e-01
      2.40224019e-01 -1.53277710e-01 -3.42173874e-02 -8.23642790e-01
      1.26927286e-01 -2.50143528e-01 -9.00297388e-02 -7.90826797e-01</_>
    <_>
      -7.40665793e-02 -8.04595768e-01 -4.12204236e-01 2.32023740e+00
      -1.08267081e+00 -1.60442126e+00 -1.53023028e+00 9.37535703e-01
      9.46898222e-01 3.16866100e-01 6.68797612e-01 2.69205475e+00
      -2.85633862e-01 -9.37021911e-01 -7.50509739e-01 2.03657103e+00
      -7.96907961e-01 -1.46893215e+00 -1.37763917e+00 1.20661604e+00
      1.45855463e+00 9.34031010e-01 1.23731482e+00 2.83528328e+00
      3.39309752e-01 -2.72775680e-01 -6.01369850e-02 2.41311145e+00
      -2.60073304e-01 -1.00368106e+00 -8.52671802e-01 1.90500963e+00
      1.68495387e-01 -9.36887134e-03 1.81362927e-02 -8.55627894e-01
      -2.53252201e-02 -9.53378230e-02 -3.79342623e-02 -8.37728262e-01
      -1.96548533e-02 -6.77937865e-02 -1.55095086e-01 -8.91721427e-01
      9.33476463e-02 -1.79697007e-01 -1.15415566e-01 -8.48156095e-01
      -6.97584376e-02 -1.82741880e-01 -1.31857798e-01 -8.37689459e-01
      -1.05778962e-01 -8.83105993e-02 -2.20591679e-01 -9.06643629e-01
      1.03827477e-01 -1.78734601e-01 -1.54722750e-01 -8.60997319e-01
      4.04523201e-02 -2.12742612e-01 -1.73742980e-01 -8.35108697e-01</_>
    <_>
      -4.31202412e-01 -9.27330315e-01 -2.79662967e-01 2.41330600e+00
      -1.15611804e+00 -1.48923111e+00 -1.32867086e+00 1.00326645e+00
      5.38857877e-01 6.16694614e-02 7.17551529e-01 2.79615569e+00
      -6.34596109e-01 -1.07615006e+00 -7.18919218e-01 2.11937380e+00
      -8.78094912e-01 -1.39788878e+00 -1.23280895e+00 1.27407968e+00
      1.06364655e+00 6.49165928e-01 1.23514462e+00 2.94476366e+00
      -1.05459474e-01 -5.42845190e-01 -1.34434640e-01 2.50550795e+00
      -4.93456125e-01 -1.10984492e+00 -8.46110821e-01 1.98368680e+00
      3.03462118e-01 8.08533952e-02 1.20055065e-01 -7.68506050e-01
      -6.60298485e-03 -8.15916881e-02 4.88977320e-03 -7.25943506e-01
      1.80843472e-01 2.12434232e-02 -1.18124403e-01 -8.12369406e-01
      1.73887804e-01 -1.92928508e-01 -6.51309118e-02 -7.39072263e-01
      -5.47733754e-02 -2.11990371e-01 -1.10290915e-01 -7.13336468e-01
      1.17252320e-01 3.34555772e-03 -2.00263813e-01 -8.31832945e-01
      2.32722104e-01 -1.92065224e-01 -1.12287872e-01 -7.59955347e-01
      8.71368423e-02 -2.95167863e-01 -1.43192455e-01 -7.13616788e-01</_>
    <_>
      -3.05077404e-01 -1.02213025e+00 -4.24480200e-01 2.47614169e+00
      -1.04274678e+00 -1.45649171e+00 -1.32653797e+00 1.07560432e+00
      5.11630833e-01 -1.55268118e-01 4.34458822e-01 2.85582399e+00
      -5.78359246e-01 -1.04450929e+00 -8.73497725e-01 2.19169402e+00
      -8.08932900e-01 -1.31146824e+00 -1.15277600e+00 1.35141408e+00
      9.70311940e-01 3.78471881e-01 9.02579069e-01 3.00276685e+00
      -1.13958679e-01 -5.68973958e-01 -4.01417851e-01 2.57646585e+00
      -4.52424318e-01 -1.03827667e+00 -8.56284082e-01 2.06295156e+00
      3.13412756e-01 3.80978659e-02 1.65496200e-01 -7.44482160e-01
      3.75594087e-02 -4.73583117e-02 1.26334783e-02 -7.15839565e-01
      1.61454648e-01 6.89764842e-02 1.63386874e-02 -7.81959057e-01
      1.45150408e-01 -2.14087412e-01 -3.94959375e-02 -7.38449514e-01
      -5.20021766e-02 -1.81999370e-01 -1.14856102e-01 -7.22648680e-01
      1.01262145e-01 1.06145293e-01 -3.03278919e-02 -7.97482550e-01
      1.80435613e-01 -1.82400063e-01 -1.54823279e-02 -7.54897654e-01
      5.32228872e-02 -2.81319052e-01 -1.09464303e-01 -7.32337415e-01</_>
    <_>
      -8.68020654e-02 -8.71128678e-01 -5.84819019e-01 2.43418741e+00
      -1.14605176e+00 -1.49295008e+00 -1.39464366e+00 1.02212870e+00
      8.07261169e-01 4.21105139e-02 3.37125033e-01 2.81298780e+00
      -5.11370838e-01 -9.52786088e-01 -7.74125159e-01 2.14835882e+00
      -8.89526606e-01 -1.33935988e+00 -1.27123475e+00 1.29983616e+00
      1.25412679e+00 5.52573860e-01 8.27688158e-01 2.95876646e+00
      -1.53443078e-04 -4.11759764e-01 -2.23870158e-01 2.53382373e+00
      -4.61129755e-01 -9.64525640e-01 -8.80943596e-01 2.01692939e+00
      1.64900541e-01 7.30674490e-02 1.42242432e-01 -8.02591741e-01
      -2.23678611e-02 -4.40352038e-02 -7.01355422e-03 -7.83707559e-01
      2.37250198e-02 1.10950328e-01 9.30722877e-02 -8.43908846e-01
      7.61883855e-02 -1.63286522e-01 -1.11180082e-01 -7.89296269e-01
      -1.21961087e-01 -1.61555842e-01 -1.53786376e-01 -7.77477920e-01
      -1.01445140e-02 1.65030509e-01 9.36512426e-02 -8.61702561e-01
      1.46729261e-01 -1.15259819e-01 -1.15464926e-01 -8.06781113e-01
      -3.80344391e-02 -2.13822857e-01 -1.62688643e-01 -7.74212658e-01</_>
    <_>
      -2.75091290e-01 -7.39356756e-01 -3.27106476e-01 2.34971714e+00
      -1.30279517e+00 -1.48109663e+00 -1.40533769e+00 9.34360981e-01
      8.42710555e-01 4.08223063e-01 7.93360591e-01 2.72760463e+00
      -5.06395578e-01 -7.87772596e-01 -5.87079167e-01 2.05659580e+00
      -1.03230274e+00 -1.25042081e+00 -1.20774281e+00 1.20646846e+00
      1.42517996e+00 1.06147981e+00 1.37949252e+00 2.87347221e+00
      2.04481140e-01 -8.79936218e-02 1.35172755e-01 2.44096923e+00
      -4.63554621e-01 -7.43412375e-01 -6.33891344e-01 1.91979969e+00
      8.09611827e-02 2.16920599e-02 3.33001427e-02 -8.99324656e-01
      -7.10033178e-02 -1.27427369e-01 -7.55863264e-02 -8.85724723e-01
      -1.48644477e-01 -7.31424317e-02 -1.86981425e-01 -9.29270685e-01
      -4.40228321e-02 -1.47162259e-01 -1.14865251e-01 -8.80262196e-01
      -1.38031423e-01 -1.79662392e-01 -1.52700901e-01 -8.69773805e-01
      -2.50419557e-01 -1.43536299e-01 -2.71564484e-01 -9.41554368e-01
      -6.78496882e-02 -1.46170065e-01 -1.64962500e-01 -8.87407541e-01
      -9.87092182e-02 -1.47390291e-01 -1.65800333e-01 -8.54741037e-01</_>
    <_>
      -1.39450565e-01 -8.65201890e-01 -6.24692321e-01 2.42784333e+00
      -1.13931632e+00 -1.39912701e+00 -1.36486411e+00 1.03101909e+00
      8.49117875e-01 1.36850953e-01 3.57286304e-01 2.80276966e+00
      -4.78617877e-01 -8.84168267e-01 -8.00218999e-01 2.14670801e+00
      -8.97710204e-01 -1.28648448e+00 -1.21044052e+00 1.30834067e+00
      1.37453520e+00 7.43829727e-01 9.31316435e-01 2.94751143e+00
      1.37845904e-01 -2.96373457e-01 -1.98462144e-01 2.52907205e+00
      -4.24627185e-01 -9.20821965e-01 -8.14454734e-01 2.01990867e+00
      1.48104325e-01 1.03568710e-01 1.47702277e-01 -8.27875972e-01
      -4.78269942e-02 -6.37681857e-02 -4.89564873e-02 -8.19213629e-01
      -6.82902858e-02 5.83086088e-02 3.98899280e-02 -8.54397058e-01
      -1.46593060e-03 -1.25102654e-01 -9.11055878e-02 -8.21841419e-01
      -1.43893018e-01 -1.65678307e-01 -1.54276937e-01 -8.15247655e-01
      -1.85859188e-01 -2.05826014e-03 -4.01998907e-02 -8.65942240e-01
      -2.85512488e-02 -1.38477728e-01 -1.11631945e-01 -8.32575321e-01
      -9.02911201e-02 -1.78216934e-01 -1.60714716e-01 -8.13038528e-01</_>
    <_>
      -1.76803768e-01 -7.22178757e-01 -3.41091007e-01 2.33193207e+00
      -1.23711407e+00 -1.57721472e+00 -1.42601478e+00 9.34715807e-01
      8.72172296e-01 3.70899826e-01 7.33983338e-01 2.70613813e+00
      -4.00568277e-01 -8.72986197e-01 -6.23259246e-01 2.05043697e+00
      -9.94768441e-01 -1.41501331e+00 -1.24107122e+00 1.21220839e+00
      1.39956081e+00 9.75999832e-01 1.28534079e+00 2.85029840e+00
      2.58696914e-01 -2.08414018e-01 3.93780731e-02 2.43195391e+00
      -4.29404616e-01 -9.36382532e-01 -7.22139835e-01 1.92317998e+00
      1.13871060e-01 1.01219602e-02 5.05198017e-02 -8.94675076e-01
      -3.25198993e-02 -1.00990951e-01 -2.99452059e-02 -8.79985154e-01
      -8.64758715e-02 -3.56389061e-02 -1.55673504e-01 -9.27474439e-01
      -1.29921855e-02 -1.41186669e-01 -6.82034045e-02 -8.80684614e-01
      -9.41924676e-02 -1.95774391e-01 -1.06934108e-01 -8.71821165e-01
      -1.68985099e-01 -6.19841516e-02 -2.40245163e-01 -9.41515207e-01
      -3.37047018e-02 -9.51733515e-02 -1.03902943e-01 -8.92521203e-01
      -5.93879670e-02 -1.67089015e-01 -8.23306665e-02 -8.64975989e-01</_>
    <_>
      -3.51048172e-01 -1.02081275e+00 -3.99877280e-01 2.51474237e+00
      -1.08048916e+00 -1.34016907e+00 -1.27432287e+00 1.10071743e+00
      4.22069132e-01 -2.61699259e-01 4.24021959e-01 2.89758182e+00
      -6.74469709e-01 -1.00244331e+00 -8.53802204e-01 2.22700000e+00
      -8.89447093e-01 -1.18605530e+00 -1.06818736e+00 1.37788081e+00
      8.58632743e-01 1.91187635e-01 8.56627047e-01 3.04509926e+00
      -2.57856995e-01 -6.22066319e-01 -4.36475962e-01 2.61369395e+00
      -5.87290525e-01 -9.73446846e-01 -7.99842834e-01 2.09395838e+00
      2.95106918e-01 1.07364148e-01 1.85743093e-01 -7.37717211e-01
      2.53449809e-02 -3.42946947e-02 1.93077140e-02 -7.15610266e-01
      1.37037396e-01 9.49638486e-02 4.58290949e-02 -7.72233248e-01
      1.06414810e-01 -1.44550219e-01 4.71166149e-03 -7.32561350e-01
      -7.12541714e-02 -1.86515749e-01 -1.06980309e-01 -7.19867349e-01
      7.05345199e-02 1.19651183e-01 -8.52759555e-03 -7.85918593e-01
      1.33833230e-01 -1.37348890e-01 2.97042970e-02 -7.43353903e-01
      3.48043144e-02 -2.41688520e-01 -9.48832259e-02 -7.20455289e-01</_>
    <_>
      -3.37849796e-01 -9.67016399e-01 -3.83267432e-01 2.43232465e+00
      -1.22389233e+00 -1.43042839e+00 -1.31406069e+00 1.02802527e+00
      6.24543548e-01 1.53722158e-02 6.17461920e-01 2.81055593e+00
      -6.30956233e-01 -9.63389754e-01 -7.18703449e-01 2.15197611e+00
      -9.86208022e-01 -1.29691648e+00 -1.16194165e+00 1.30962241e+00
      1.14606035e+00 6.21402979e-01 1.16242313e+00 2.95659995e+00
      -5.82270473e-02 -4.05789554e-01 -1.25990093e-01 2.53756785e+00
      -5.58028996e-01 -9.56927001e-01 -7.53746510e-01 2.02697158e+00
      1.99231878e-01 1.03898875e-01 1.46377817e-01 -7.91468859e-01
      -2.47075930e-02 -8.29871222e-02 -2.14756746e-02 -7.68983424e-01
      4.44959290e-02 9.55560207e-02 -6.43601492e-02 -8.34221423e-01
      2.60176100e-02 -1.58529654e-01 -2.60748956e-02 -7.77691841e-01
      -1.10946648e-01 -2.10963592e-01 -1.09080464e-01 -7.64573574e-01
      -1.49783958e-02 7.47444257e-02 -1.53574243e-01 -8.53916585e-01
      3.83384600e-02 -1.37357101e-01 -2.69935708e-02 -8.00435722e-01
      -6.66509271e-02 -2.50415117e-01 -7.81608149e-02 -7.67681658e-01</_>
    <_>
      -2.49156997e-01 -7.35622227e-01 -3.92385215e-01 2.37773180e+00
      -1.26716542e+00 -1.44468784e+00 -1.44566667e+00 9.45333719e-01
      7.74606228e-01 3.20974082e-01 6.79025233e-01 2.76024628e+00
      -4.54755038e-01 -7.89204478e-01 -6.47531569e-01 2.07981610e+00
      -1.01118052e+00 -1.27383637e+00 -1.27251232e+00 1.21858692e+00
      1.30678940e+00 9.34459746e-01 1.25327992e+00 2.90650296e+00
      1.89720437e-01 -1.58295944e-01 3.86657491e-02 2.46634030e+00
      -4.69121516e-01 -8.31939876e-01 -7.33354926e-01 1.93709099e+00
      1.14284150e-01 7.73654133e-02 5.47885150e-02 -9.08008635e-01
      -8.99924412e-02 -1.17171481e-01 -8.09286833e-02 -8.91096830e-01
      9.37009323e-03 4.15936932e-02 -8.67947713e-02 -9.40719306e-01
      -4.04579788e-02 -1.17664956e-01 -1.15722902e-01 -8.90497327e-01
      -1.65076882e-01 -1.87562078e-01 -1.78522557e-01 -8.78902018e-01
      -4.41185124e-02 8.51322617e-03 -1.60571799e-01 -9.55700219e-01
      -2.37478018e-02 -1.01406664e-01 -1.36359274e-01 -9.02024090e-01
      -1.07767865e-01 -1.45791724e-01 -1.82370663e-01 -8.69690478e-01</_>
    <_>
      -3.29926014e-01 -1.04919016e+00 -2.77459174e-01 2.37349725e+00
      -1.08850145e+00 -1.61340427e+00 -1.36559510e+00 9.86573398e-01
      6.07059062e-01 -4.77550328e-02 7.46725917e-01 2.74929380e+00
      -5.34134030e-01 -1.16516137e+00 -6.69562280e-01 2.08808351e+00
      -8.13691497e-01 -1.49220133e+00 -1.23508942e+00 1.25546920e+00
      1.10442138e+00 5.35722911e-01 1.26731241e+00 2.89491749e+00
      -1.53124873e-02 -6.09448731e-01 -5.50302863e-02 2.46832633e+00
      -4.15994346e-01 -1.15493345e+00 -7.81193793e-01 1.95680225e+00
      3.37098062e-01 -2.09168680e-02 1.23101301e-01 -7.92257607e-01
      2.32844371e-02 -9.91311669e-02 4.60510142e-02 -7.58532822e-01
      2.25033462e-01 -1.04340806e-03 -1.22629039e-01 -8.25274467e-01
      2.46640980e-01 -2.55033612e-01 -3.87401581e-02 -7.66659439e-01
      -1.15070343e-02 -2.10223645e-01 -6.05817102e-02 -7.43465424e-01
      1.59826428e-01 3.66769657e-02 -2.08270803e-01 -8.40158761e-01
      3.16550225e-01 -1.95410296e-01 -8.73404890e-02 -7.79159784e-01
      1.49443418e-01 -3.18257451e-01 -1.11165687e-01 -7.38567591e-01</_>
    <_>
      -3.53757411e-01 -9.01262939e-01 -3.96422029e-01 2.43454838e+00
      -1.29083025e+00 -1.39846981e+00 -1.29154241e+00 1.02797663e+00
      5.96502006e-01 7.84329176e-02 5.74995756e-01 2.81301546e+00
      -7.55035341e-01 -9.20004845e-01 -7.24789202e-01 2.15342665e+00
      -1.07720292e+00 -1.28309810e+00 -1.11126816e+00 1.30919814e+00
      1.10347819e+00 6.65903687e-01 1.08673358e+00 2.95872951e+00
      -2.12572083e-01 -3.77696484e-01 -1.73536181e-01 2.53871465e+00
      -6.97965086e-01 -9.46811378e-01 -7.30807900e-01 2.02684927e+00
      1.86189696e-01 1.43911555e-01 1.93000585e-01 -7.97619104e-01
      -4.65499051e-02 -8.44266713e-02 -3.93250436e-02 -7.80043721e-01
      3.62487100e-02 1.47907600e-01 4.20682617e-02 -8.35876763e-01
      1.95326805e-02 -1.19159311e-01 2.04400741e-03 -7.80882418e-01
      -1.40455365e-01 -2.02696964e-01 -1.45444453e-01 -7.69327223e-01
      -2.24630497e-02 1.27822399e-01 -2.24983264e-02 -8.53172839e-01
      4.60629389e-02 -7.59498626e-02 1.51577489e-02 -7.97548711e-01
      -9.59136114e-02 -2.05810606e-01 -1.05955131e-01 -7.64259815e-01</_>
    <_>
      -3.29915226e-01 -7.97472954e-01 -3.39902252e-01 2.38859725e+00
      -1.20747304e+00 -1.55585241e+00 -1.40567434e+00 9.78485942e-01
      6.64842427e-01 2.60957539e-01 7.06831038e-01 2.76617932e+00
      -4.55981135e-01 -9.08852339e-01 -6.82851613e-01 2.10114908e+00
      -9.80099797e-01 -1.38431966e+00 -1.21220207e+00 1.25418472e+00
      1.20453346e+00 8.66275012e-01 1.25511873e+00 2.91169691e+00
      1.60479933e-01 -2.73419768e-01 -3.56498919e-02 2.48535895e+00
      -4.69130158e-01 -9.31975722e-01 -7.13895023e-01 1.96925664e+00
      1.81692854e-01 1.99393947e-02 5.95838614e-02 -8.58739138e-01
      -3.25702094e-02 -1.02276772e-01 -3.55389677e-02 -8.37208807e-01
      7.37971440e-02 1.58712883e-02 -1.30790442e-01 -8.90642226e-01
      -2.89171431e-02 -1.75296694e-01 -4.91539687e-02 -8.35214257e-01
      -1.22689359e-01 -2.05486983e-01 -1.20780826e-01 -8.20209205e-01
      8.91159847e-03 9.95096471e-03 -1.93572149e-01 -9.04949367e-01
      -3.99397872e-02 -1.40157476e-01 -3.98897678e-02 -8.48585188e-01
      -9.09910202e-02 -2.40390435e-01 -1.02463558e-01 -8.12573016e-01</_>
    <_>
      -2.47560188e-01 -7.56019294e-01 -2.37946704e-01 2.33514214e+00
      -1.33255982e+00 -1.58787763e+00 -1.36773336e+00 9.36189950e-01
      7.93821812e-01 3.42766941e-01 8.10852647e-01 2.71092558e+00
      -4.99347478e-01 -8.72264624e-01 -5.84905863e-01 2.05392790e+00
      -1.06676221e+00 -1.41599739e+00 -1.16564238e+00 1.21431839e+00
      1.32156682e+00 9.50585902e-01 1.34979773e+00 2.85603237e+00
      1.60166562e-01 -2.09448114e-01 7.07935691e-02 2.43752265e+00
      -4.97242659e-01 -9.28078055e-01 -6.43699884e-01 1.92785800e+00
      1.00737445e-01 8.07773694e-03 6.93608299e-02 -8.86655569e-01
      -2.45075636e-02 -1.32535130e-01 -2.26851981e-02 -8.69411528e-01
      -5.08371815e-02 -1.38856750e-02 -1.41846418e-01 -9.25306439e-01
      -2.81066597e-02 -1.75489306e-01 -2.52539001e-04 -8.73833001e-01
      -8.95113647e-02 -2.18983144e-01 -8.10572654e-02 -8.63781035e-01
      -1.20881349e-01 -4.30888347e-02 -2.39867538e-01 -9.41108167e-01
      -4.99521159e-02 -1.29418120e-01 -1.65027864e-02 -8.90150964e-01
      -9.20458585e-02 -2.19056219e-01 -3.68065014e-02 -8.59795928e-01</_>
    <_>
      -3.78767431e-01 -9.68390465e-01 -3.54295045e-01 2.44091058e+00
      -1.23039949e+00 -1.41351461e+00 -1.29836905e+00 1.03514588e+00
      5.76830924e-01 -1.18581881e-03 6.22736394e-01 2.81902051e+00
      -6.85480833e-01 -9.69462752e-01 -7.14356661e-01 2.15761590e+00
      -9.84152853e-01 -1.27911556e+00 -1.12596166e+00 1.31445813e+00
      1.10295939e+00 6.01542294e-01 1.16427815e+00 2.96547961e+00
      -1.21281154e-01 -4.35685575e-01 -1.26293510e-01 2.54336834e+00
      -5.81238091e-01 -9.46346879e-01 -7.19821334e-01 2.03115273e+00
      2.16412902e-01 1.07089654e-01 1.52621269e-01 -7.99231529e-01
      -2.69109868e-02 -8.22834596e-02 -7.71311112e-03 -7.81662345e-01
      6.40994608e-02 8.75023007e-02 -5.16723990e-02 -8.33631933e-01
      5.33628725e-02 -1.46614924e-01 -1.26771778e-02 -7.84094095e-01
      -1.14582479e-01 -2.06397817e-01 -1.10808447e-01 -7.73324907e-01
      -7.27790035e-03 6.33351877e-02 -1.59962043e-01 -8.49584520e-01
      6.53947517e-02 -1.24915458e-01 -2.37720944e-02 -7.99780011e-01
      -5.35358377e-02 -2.46350765e-01 -8.45198631e-02 -7.69894540e-01</_>
    <_>
      -3.84393871e-01 -9.84524012e-01 -4.94515628e-01 2.51187563e+00
      -1.13216138e+00 -1.34940577e+00 -1.24014080e+00 1.09524786e+00
      4.46873873e-01 -1.80934921e-01 3.32196623e-01 2.89230800e+00
      -6.60091698e-01 -9.77323949e-01 -7.83417940e-01 2.22558212e+00
      -8.90051961e-01 -1.23561954e+00 -1.07641017e+00 1.37521541e+00
      9.24610972e-01 3.58285010e-01 8.29746604e-01 3.03889847e+00
      -1.76336184e-01 -5.26432514e-01 -2.94506520e-01 2.61222506e+00
      -5.26997924e-01 -9.93309855e-01 -7.55810976e-01 2.09479094e+00
      2.50994354e-01 1.23398960e-01 2.36240461e-01 -7.61131585e-01
      3.93459760e-03 -6.60454333e-02 -3.50495288e-03 -7.48287439e-01
      1.05268173e-01 1.07228220e-01 1.10220946e-01 -7.95667887e-01
      4.33578268e-02 -1.65172368e-01 -1.81281809e-02 -7.55520105e-01
      -1.09856799e-01 -2.15038195e-01 -1.33400366e-01 -7.47782111e-01
      6.09591492e-02 1.17968895e-01 6.23703450e-02 -8.10276449e-01
      7.69587904e-02 -1.31061777e-01 3.92768811e-03 -7.68187404e-01
      -4.67883423e-02 -2.51727253e-01 -1.05313450e-01 -7.45409250e-01</_>
    <_>
      -1.63773239e-01 -7.48246133e-01 -4.03478980e-01 2.32868958e+00
      -1.18613970e+00 -1.59453189e+00 -1.47047758e+00 9.35625792e-01
      8.66761088e-01 3.59130263e-01 6.90107524e-01 2.70227408e+00
      -3.34162265e-01 -8.80100667e-01 -6.57460332e-01 2.04774785e+00
      -9.22779262e-01 -1.41525662e+00 -1.28050625e+00 1.21185255e+00
      1.40355897e+00 9.83255863e-01 1.26672995e+00 2.84642577e+00
      3.30568820e-01 -2.00049058e-01 3.96157280e-02 2.42848420e+00
      -3.42275679e-01 -9.25410330e-01 -7.29118288e-01 1.92086852e+00
      1.19140327e-01 -3.91566101e-03 5.36093637e-02 -9.06047463e-01
      -3.02636307e-02 -1.14876837e-01 -2.92920638e-02 -8.92030180e-01
      -4.79952432e-02 -4.66067642e-02 -1.08735584e-01 -9.32340920e-01
      -1.09120887e-02 -1.85863778e-01 -5.76210432e-02 -8.91779065e-01
      -8.45467523e-02 -1.81844875e-01 -8.82226229e-02 -8.82049978e-01
      -1.30694762e-01 -8.90788659e-02 -1.85826272e-01 -9.44386780e-01
      -4.99035120e-02 -1.76024184e-01 -8.82051215e-02 -9.02508616e-01
      -6.08910248e-02 -2.00552091e-01 -8.05546716e-02 -8.77109826e-01</_>
    <_>
      -3.19370590e-02 -8.72557938e-01 -4.87768084e-01 2.32098341e+00
      -9.50893998e-01 -1.63844717e+00 -1.62510431e+00 9.32849169e-01
      9.32893813e-01 2.05036670e-01 5.89098454e-01 2.69633508e+00
      -1.26747757e-01 -9.77362454e-01 -8.47918570e-01 2.03286362e+00
      -6.48916066e-01 -1.50683355e+00 -1.47266316e+00 1.20044208e+00
      1.41976035e+00 8.05290222e-01 1.13681948e+00 2.84231639e+00
      4.73480344e-01 -3.35721284e-01 -1.70490474e-01 2.41335988e+00
      -9.55374241e-02 -1.05627334e+00 -9.48544800e-01 1.90116131e+00
      2.48920336e-01 -3.90100367e-02 -1.39830606e-02 -8.39720905e-01
      -1.32583417e-02 -8.96726400e-02 -2.71860957e-02 -7.97079325e-01
      1.16738178e-01 -3.97692956e-02 -1.58951536e-01 -8.73249114e-01
      1.15812548e-01 -2.40741968e-01 -1.49701104e-01 -8.12941432e-01
      -5.45817874e-02 -2.02863440e-01 -1.17313892e-01 -7.89798915e-01
      4.99143675e-02 -2.25114021e-02 -1.77913502e-01 -8.88694704e-01
      1.19549125e-01 -2.30774462e-01 -1.62939310e-01 -8.27945650e-01
      5.38757667e-02 -2.82466620e-01 -1.69094518e-01 -7.91620195e-01</_>
    <_>
      -1.38266742e-01 -7.50137329e-01 -3.98970962e-01 2.32817507e+00
      -1.14956820e+00 -1.58152425e+00 -1.46298289e+00 9.40546393e-01
      8.95716667e-01 3.59446108e-01 6.76615596e-01 2.70028234e+00
      -3.04251790e-01 -8.83715093e-01 -6.88359559e-01 2.04733133e+00
      -8.82723153e-01 -1.43115616e+00 -1.31726313e+00 1.21473455e+00
      1.42941988e+00 9.80411351e-01 1.24784791e+00 2.84400988e+00
      3.58501226e-01 -1.98590294e-01 -1.21762892e-02 2.42627096e+00
      -3.05734187e-01 -9.47882056e-01 -8.10004652e-01 1.91976440e+00
      1.38478443e-01 1.05273789e-02 5.18862456e-02 -8.94339740e-01
      -3.44850756e-02 -1.02569386e-01 -3.29722129e-02 -8.82853270e-01
      -4.50674482e-02 -5.02031036e-02 -1.35200694e-01 -9.18898642e-01
      3.48776439e-03 -1.51358545e-01 -8.38413984e-02 -8.81898463e-01
      -9.43383947e-02 -1.90650418e-01 -1.10606827e-01 -8.73601854e-01
      -1.49979442e-01 -1.00752950e-01 -2.41410553e-01 -9.30289090e-01
      -4.11075167e-02 -1.48132250e-01 -1.35896221e-01 -8.90096009e-01
      -5.46246134e-02 -1.71751767e-01 -9.57090706e-02 -8.67511988e-01</_>
    <_>
      -8.31996873e-02 -8.82059216e-01 -3.94808322e-01 2.31004405e+00
      -1.06912446e+00 -1.74802458e+00 -1.47081256e+00 9.37494278e-01
      9.14532304e-01 2.71336734e-01 6.64684594e-01 2.68124628e+00
      -2.62614548e-01 -1.06268036e+00 -7.21297681e-01 2.02609515e+00
      -7.98869789e-01 -1.63268268e+00 -1.31026173e+00 1.20436108e+00
      1.42079699e+00 9.18601811e-01 1.22907424e+00 2.82597876e+00
      3.57320219e-01 -3.62279803e-01 -4.80921306e-02 2.40336418e+00
      -2.67237127e-01 -1.16277444e+00 -8.01402092e-01 1.89855123e+00
      2.02706620e-01 -1.03453644e-01 5.54581396e-02 -8.00659895e-01
      1.33581161e-02 -1.28145278e-01 6.63567986e-03 -7.49269247e-01
      4.89324257e-02 -9.95463952e-02 -1.14762872e-01 -8.44196320e-01
      9.96219441e-02 -3.10072452e-01 -5.74834980e-02 -7.73411095e-01
      -2.76124775e-02 -2.50365466e-01 -7.18757808e-02 -7.46506393e-01
      -1.76093914e-02 -9.30790678e-02 -1.73868477e-01 -8.64813507e-01
      1.02484547e-01 -2.74769604e-01 -7.27525502e-02 -8.00694108e-01
      6.20396174e-02 -3.50617409e-01 -8.95039886e-02 -7.61428714e-01</_>
    <_>
      -2.19928622e-01 -9.21589315e-01 -4.42421019e-01 2.49241233e+00
      -1.16227257e+00 -1.33515608e+00 -1.28744173e+00 1.08441126e+00
      6.73790574e-01 -1.02182329e-01 3.99571955e-01 2.87073970e+00
      -6.34497702e-01 -9.35688972e-01 -8.29071283e-01 2.20786667e+00
      -9.24258947e-01 -1.19404590e+00 -1.09140611e+00 1.36275208e+00
      1.14878285e+00 3.73617023e-01 8.49812388e-01 3.01637101e+00
      -1.54183090e-01 -4.97308314e-01 -3.71051013e-01 2.59196830e+00
      -5.70464253e-01 -9.20078158e-01 -7.60881722e-01 2.07784438e+00
      1.78833589e-01 1.47955209e-01 1.83685064e-01 -7.77023137e-01
      -1.22852698e-02 -4.81069461e-02 -2.19998937e-02 -7.68753946e-01
      -1.29893655e-02 1.16774186e-01 6.05932511e-02 -8.08663189e-01
      2.84438650e-03 -1.08910330e-01 -3.22648771e-02 -7.78015018e-01
      -1.35601953e-01 -1.72626227e-01 -1.49530157e-01 -7.72874832e-01
      -1.20295390e-01 9.67943743e-02 1.20483590e-02 -8.20797265e-01
      2.95404484e-03 -8.80359188e-02 -6.35589845e-03 -7.87014723e-01
      -8.67024139e-02 -1.79200828e-01 -1.41647145e-01 -7.68800616e-01</_>
    <_>
      -2.90838033e-01 -8.55044603e-01 -4.59469169e-01 2.40845037e+00
      -1.23343205e+00 -1.49218202e+00 -1.35686505e+00 9.91738677e-01
      6.85506165e-01 1.66443959e-01 5.58319271e-01 2.78912425e+00
      -5.15163004e-01 -9.14812267e-01 -6.73159957e-01 2.12348557e+00
      -9.65406537e-01 -1.35674179e+00 -1.19985497e+00 1.27310193e+00
      1.21058106e+00 7.63093948e-01 1.11064398e+00 2.93571997e+00
      1.07399397e-01 -3.14983279e-01 -4.90087494e-02 2.51061153e+00
      -4.34767127e-01 -9.48546648e-01 -7.43592262e-01 1.99399471e+00
      1.78379729e-01 5.78736067e-02 1.30405203e-01 -8.59110951e-01
      -3.68799046e-02 -9.77075994e-02 -3.54742557e-02 -8.44336033e-01
      6.39027581e-02 4.95941192e-02 -1.36747267e-02 -8.92682076e-01
      -3.88743379e-03 -1.61689952e-01 -5.95483370e-02 -8.45930338e-01
      -1.15979180e-01 -2.05417946e-01 -1.22148931e-01 -8.36022854e-01
      3.21286619e-02 5.45716584e-02 -6.80417046e-02 -9.07766044e-01
      7.08360318e-03 -1.17989622e-01 -6.91953301e-02 -8.59601259e-01
      -1.07008733e-01 -2.07188591e-01 -9.94863585e-02 -8.31518114e-01</_>
    <_>
      -2.77617238e-02 -6.89109981e-01 -3.70727867e-01 2.27110410e+00
      -1.13668013e+00 -1.66865611e+00 -1.61750138e+00 8.67464364e-01
      1.02015007e+00 4.86761361e-01 7.69235253e-01 2.65177345e+00
      -2.11399063e-01 -8.71362567e-01 -7.19669402e-01 1.97472775e+00
      -8.56399119e-01 -1.49151516e+00 -1.42044759e+00 1.13176322e+00
      1.53562772e+00 1.10237217e+00 1.33771837e+00 2.79971838e+00
      4.49666589e-01 -1.56109393e-01 1.73798092e-02 2.35877132e+00
      -2.59042263e-01 -9.51783299e-01 -8.21188629e-01 1.83543479e+00
      1.08905621e-01 -3.53049710e-02 -4.91109602e-02 -8.73764336e-01
      -3.24889198e-02 -9.31051299e-02 -4.06136848e-02 -8.33645105e-01
      -8.41598660e-02 -1.21944100e-01 -2.57991552e-01 -9.18336093e-01
      3.27129066e-02 -1.45313278e-01 -1.24379367e-01 -8.38255167e-01
      -5.53429686e-02 -1.54088736e-01 -1.09849282e-01 -8.15084517e-01
      -1.84467047e-01 -1.59144923e-01 -3.27362716e-01 -9.38692689e-01
      -2.11768248e-03 -1.57541946e-01 -1.69259951e-01 -8.57779682e-01
      1.17254453e-02 -1.69900075e-01 -1.38018161e-01 -8.06596100e-01</_>
    <_>
      -2.71326393e-01 -7.05224991e-01 -3.86384547e-01 2.35638380e+00
      -1.32487810e+00 -1.51778591e+00 -1.41619718e+00 9.36053038e-01
      8.00199747e-01 4.15061325e-01 6.93847358e-01 2.73593807e+00
      -4.92526472e-01 -7.85803318e-01 -6.25203967e-01 2.06655741e+00
      -1.09896970e+00 -1.33228743e+00 -1.20035207e+00 1.21414042e+00
      1.35598385e+00 1.04199946e+00 1.27133548e+00 2.88303804e+00
      1.85634956e-01 -1.05590045e-01 5.57921641e-02 2.45527482e+00
      -5.33597231e-01 -8.24904501e-01 -6.58562839e-01 1.93658710e+00
      6.00261725e-02 6.18005283e-02 7.69019648e-02 -8.85828614e-01
      -7.18625858e-02 -1.03390150e-01 -8.22569132e-02 -8.62091720e-01
      -1.30872667e-01 1.81266014e-02 -6.40635565e-02 -9.26466763e-01
      -9.24638733e-02 -1.14768721e-01 -6.82312474e-02 -8.57216835e-01
      -1.55909285e-01 -1.58944383e-01 -1.53973803e-01 -8.42013001e-01
      -2.08439797e-01 -3.98256108e-02 -1.41837180e-01 -9.46157098e-01
      -1.29129663e-01 -1.05557978e-01 -6.79161251e-02 -8.78040612e-01
      -1.51978835e-01 -1.40457779e-01 -1.25185579e-01 -8.36207211e-01</_>
    <_>
      -1.99042991e-01 -7.20343649e-01 -2.83189327e-01 2.32520676e+00
      -1.29731226e+00 -1.58809960e+00 -1.41058207e+00 9.26931441e-01
      8.43755484e-01 3.86295557e-01 7.78449595e-01 2.70141602e+00
      -4.52116668e-01 -8.70504618e-01 -6.19475007e-01 2.04338932e+00
      -1.05144525e+00 -1.42137218e+00 -1.21552825e+00 1.20420671e+00
      1.38219285e+00 9.87155974e-01 1.32585549e+00 2.84702516e+00
      2.18551069e-01 -2.09806696e-01 4.28782478e-02 2.42746902e+00
      -4.92242932e-01 -9.60500121e-01 -6.97586894e-01 1.91711044e+00
      9.82783809e-02 2.61843950e-02 4.94184084e-02 -8.79722178e-01
      -2.95604970e-02 -1.09480143e-01 -3.05319875e-02 -8.61467659e-01
      -7.17237592e-02 -1.43733630e-02 -1.41114503e-01 -9.20436800e-01
      -2.84211952e-02 -1.46389961e-01 -2.11848225e-02 -8.63719881e-01
      -8.88482034e-02 -1.90813273e-01 -9.87647921e-02 -8.53034556e-01
      -1.52716860e-01 -5.47053441e-02 -2.32636437e-01 -9.39182699e-01
      -7.36031383e-02 -1.39479265e-01 -4.40645218e-02 -8.83348882e-01
      -7.27549866e-02 -1.76600680e-01 -7.38892928e-02 -8.50051939e-01</_>
    <_>
      -3.33954751e-01 -1.00608063e+00 -3.68594646e-01 2.42548418e+00
      -1.07736850e+00 -1.54647481e+00 -1.35479045e+00 1.02549219e+00
      5.53692400e-01 -4.87285443e-02 5.49153268e-01 2.80305123e+00
      -4.90201741e-01 -1.07699049e+00 -8.09537590e-01 2.13836694e+00
      -7.93197513e-01 -1.42856765e+00 -1.22434628e+00 1.29866195e+00
      1.03171051e+00 5.44297814e-01 1.05906856e+00 2.94937515e+00
      2.39265542e-02 -5.32996356e-01 -2.62182355e-01 2.52180433e+00
      -3.68983179e-01 -1.09083200e+00 -8.50300491e-01 2.00750589e+00
      3.14667702e-01 2.33489946e-02 1.17307127e-01 -7.86346138e-01
      2.01891847e-02 -6.83103800e-02 2.13308595e-02 -7.53278613e-01
      2.16977581e-01 4.98941503e-02 -7.39354193e-02 -8.21432471e-01
      1.70384109e-01 -2.36442626e-01 -5.96937872e-02 -7.70328879e-01
      -2.86862440e-02 -1.90842181e-01 -8.18774179e-02 -7.50671089e-01
      1.82205856e-01 7.31664002e-02 -1.41363323e-01 -8.37303102e-01
      2.44406492e-01 -1.80880234e-01 -6.58125654e-02 -7.87278354e-01
      1.05874188e-01 -3.12797576e-01 -1.02246515e-01 -7.57688403e-01</_>
    <_>
      -3.55583638e-01 -9.69092727e-01 -4.40818608e-01 2.45574260e+00
      -1.13183010e+00 -1.45557642e+00 -1.26063347e+00 1.05600095e+00
      5.93912005e-01 -2.74234638e-02 4.69357759e-01 2.83231068e+00
      -5.50378382e-01 -1.07184124e+00 -6.95257843e-01 2.17088699e+00
      -8.98754537e-01 -1.36512077e+00 -1.14195263e+00 1.33200181e+00
      1.10879266e+00 5.30340731e-01 9.71414566e-01 2.97761130e+00
      1.04597257e-02 -5.59748232e-01 -1.48383811e-01 2.55309796e+00
      -4.93229389e-01 -1.10235882e+00 -7.79826820e-01 2.04190660e+00
      2.56548584e-01 5.41695952e-02 1.83460534e-01 -7.64182210e-01
      -7.89752696e-03 -7.88050592e-02 -6.85792509e-03 -7.40147173e-01
      1.39718458e-01 2.14234293e-02 5.63904904e-02 -8.07371914e-01
      7.50792474e-02 -1.97669402e-01 -6.03343099e-02 -7.60240793e-01
      -1.05394959e-01 -2.28454024e-01 -1.26349926e-01 -7.47541130e-01
      1.03705786e-01 3.14661451e-02 -5.30339824e-03 -8.23783576e-01
      1.17856957e-01 -1.86907068e-01 -8.17339644e-02 -7.79025257e-01
      -7.55169708e-03 -2.89971203e-01 -1.38017237e-01 -7.52304912e-01</_>
    <_>
      -2.06123963e-01 -9.82317090e-01 -3.87515277e-01 2.39569902e+00
      -1.07060897e+00 -1.53104067e+00 -1.33552802e+00 1.01235354e+00
      8.03682268e-01 2.11235378e-02 5.77204466e-01 2.76633096e+00
      -4.35286283e-01 -1.13464630e+00 -7.81410694e-01 2.10817385e+00
      -7.82820761e-01 -1.46196818e+00 -1.22467804e+00 1.27937293e+00
      1.35328162e+00 6.21973932e-01 1.09826005e+00 2.90932584e+00
      1.82458192e-01 -5.87348521e-01 -2.16110572e-01 2.48299956e+00
      -3.09703290e-01 -1.17641842e+00 -8.57897282e-01 1.97401774e+00
      2.55680889e-01 1.27561064e-02 1.49989739e-01 -7.80833781e-01
      2.81414930e-02 -8.46416056e-02 5.70607092e-03 -7.32566774e-01
      5.24559729e-02 -4.03032415e-02 -5.40323593e-02 -8.08486700e-01
      1.43261403e-01 -2.28144914e-01 -5.68147376e-02 -7.58603454e-01
      -4.00934443e-02 -2.09850729e-01 -1.15190454e-01 -7.21289515e-01
      -6.15734272e-02 -4.94144000e-02 -1.34584010e-01 -8.19518626e-01
      1.41780645e-01 -2.10470438e-01 -9.57990810e-02 -7.71683097e-01
      7.37200901e-02 -3.01264614e-01 -1.56643808e-01 -7.36524403e-01</_>
    <_>
      3.25323902e-02 -7.99546719e-01 -4.32273269e-01 2.26346469e+00
      -1.00124919e+00 -1.74022996e+00 -1.66217113e+00 8.75794351e-01
      1.02252769e+00 3.68223786e-01 6.95687294e-01 2.63849759e+00
      -1.11801773e-01 -9.67168450e-01 -8.12048256e-01 1.97028184e+00
      -7.18376517e-01 -1.58047688e+00 -1.49523485e+00 1.13908112e+00
      1.51795483e+00 9.93534267e-01 1.26050007e+00 2.78537846e+00
      5.12668312e-01 -2.50138044e-01 -9.35826600e-02 2.35035157e+00
      -1.40016973e-01 -1.05844855e+00 -9.29762900e-01 1.83526433e+00
      1.98295876e-01 -6.26080632e-02 -3.21470872e-02 -8.47672522e-01
      5.28499344e-03 -1.03831112e-01 -1.35034313e-02 -7.85905480e-01
      3.50431465e-02 -8.88206288e-02 -2.30726108e-01 -8.89768779e-01
      1.00028083e-01 -2.23949343e-01 -1.12028360e-01 -8.05234790e-01
      -2.67903190e-02 -1.79560229e-01 -9.35650021e-02 -7.66815722e-01
      -6.29408583e-02 -9.91350710e-02 -2.73922205e-01 -9.10354555e-01
      7.41366744e-02 -2.23335937e-01 -1.40349358e-01 -8.30319166e-01
      5.73656820e-02 -2.34511673e-01 -1.24468237e-01 -7.77107060e-01</_>
    <_>
      -3.92569542e-01 -9.83300090e-01 -3.55174154e-01 2.43152428e+00
      -1.29488361e+00 -1.44143188e+00 -1.23817623e+00 1.02830803e+00
      5.87788880e-01 -1.60541777e-02 6.21324480e-01 2.80948210e+00
      -7.81635821e-01 -1.00644124e+00 -6.31721556e-01 2.15022612e+00
      -1.09409356e+00 -1.27620494e+00 -1.05342269e+00 1.30908334e+00
      1.12057579e+00 5.84277987e-01 1.15654230e+00 2.95561719e+00
      -2.25407735e-01 -4.64783311e-01 -5.43291271e-02 2.53536749e+00
      -7.30674684e-01 -9.41418767e-01 -6.37773275e-01 2.02530479e+00
      1.91823363e-01 1.00124724e-01 2.27308720e-01 -7.85179257e-01
      -2.78949514e-02 -9.84154940e-02 -1.16959130e-02 -7.63701856e-01
      -4.46173176e-03 8.46929923e-02 7.30057433e-02 -8.28361750e-01
      5.53728901e-02 -1.41314328e-01 3.10158953e-02 -7.70152509e-01
      -1.02121010e-01 -2.20004261e-01 -1.11644410e-01 -7.56801009e-01
      -1.07182764e-01 5.22021502e-02 -2.17489265e-02 -8.47738206e-01
      5.90547808e-02 -8.83844197e-02 2.82917060e-02 -7.90627718e-01
      -3.59507017e-02 -2.42909968e-01 -8.69002566e-02 -7.55628049e-01</_>
    <_>
      -4.21092570e-01 -1.01185596e+00 -2.12485537e-01 2.39643931e+00
      -1.19694400e+00 -1.52256417e+00 -1.23529029e+00 1.00298357e+00
      5.38907647e-01 -5.67291528e-02 7.62301981e-01 2.77428365e+00
      -7.01629639e-01 -1.18836677e+00 -5.96079648e-01 2.10854506e+00
      -9.41492796e-01 -1.43208802e+00 -1.10618865e+00 1.27262700e+00
      1.04550219e+00 4.97083664e-01 1.25718784e+00 2.92057419e+00
      -1.96785629e-01 -7.21236348e-01 -3.45019512e-02 2.48954082e+00
      -5.98305643e-01 -1.20758140e+00 -7.14533925e-01 1.97518563e+00
      2.89994061e-01 5.69416806e-02 1.79353237e-01 -7.70801067e-01
      1.89109202e-02 -1.04933619e-01 4.16512638e-02 -7.38283157e-01
      1.69877321e-01 4.47573736e-02 -5.09131253e-02 -8.10241699e-01
      1.91003010e-01 -1.93439841e-01 9.61976219e-03 -7.52226055e-01
      -3.97025347e-02 -2.28794083e-01 -6.37586266e-02 -7.31722832e-01
      1.21616252e-01 5.83628975e-02 -1.38112575e-01 -8.26818764e-01
      2.65731603e-01 -1.39285699e-01 -4.05464955e-02 -7.66480446e-01
      1.10172309e-01 -2.95993745e-01 -8.17552283e-02 -7.29592443e-01</_>
    <_>
      -3.83620501e-01 -1.01707900e+00 -4.01357859e-01 2.44300532e+00
      -1.24166608e+00 -1.39919496e+00 -1.21292245e+00 1.04480016e+00
      5.65160990e-01 -1.01640232e-01 5.31893671e-01 2.81987405e+00
      -7.59415865e-01 -1.04532909e+00 -6.70450866e-01 2.16299129e+00
      -1.05424964e+00 -1.26512885e+00 -1.04951692e+00 1.32439387e+00
      1.07844985e+00 4.77716058e-01 1.05176842e+00 2.96506310e+00
      -2.53766596e-01 -5.65813541e-01 -1.41124740e-01 2.54602098e+00
      -7.36174166e-01 -9.98207271e-01 -6.88391268e-01 2.03724623e+00
      2.18476474e-01 1.48384720e-01 2.61122972e-01 -7.83681095e-01
      -1.20322546e-02 -9.17277038e-02 -9.64697637e-03 -7.66866982e-01
      3.63021567e-02 1.48907632e-01 1.22033194e-01 -8.23470056e-01
      7.52936825e-02 -1.12547502e-01 5.18739335e-02 -7.77893245e-01
      -1.07321210e-01 -1.95041642e-01 -1.21312067e-01 -7.67514646e-01
      -5.08316644e-02 1.09987475e-01 2.75890995e-02 -8.40227604e-01
      9.96678174e-02 -7.60165006e-02 5.10543697e-02 -7.95434713e-01
      -1.92451980e-02 -2.06953228e-01 -8.75451043e-02 -7.68718362e-01</_>
    <_>
      -4.38750535e-01 -9.37808275e-01 -3.78770232e-01 2.43947458e+00
      -1.30872118e+00 -1.43070281e+00 -1.23671293e+00 1.02070320e+00
      5.25351942e-01 3.75155285e-02 5.94545424e-01 2.82242680e+00
      -7.25945830e-01 -9.43305254e-01 -6.17231131e-01 2.15676165e+00
      -1.06352437e+00 -1.29303336e+00 -1.10104430e+00 1.30585492e+00
      1.05752146e+00 6.40363276e-01 1.13985956e+00 2.97038555e+00
      -1.51125565e-01 -3.90615314e-01 -3.48905027e-02 2.54689431e+00
      -6.33808970e-01 -9.41556513e-01 -6.90647423e-01 2.03115916e+00
      1.94384798e-01 1.07052796e-01 2.20229968e-01 -7.99840093e-01
      -4.26132455e-02 -1.30979344e-01 -3.07790991e-02 -7.77370214e-01
      7.76698440e-02 1.12539776e-01 5.81223927e-02 -8.46877694e-01
      -5.89927752e-03 -1.55658275e-01 -8.96902662e-03 -7.83870459e-01
      -1.34929210e-01 -2.43443608e-01 -1.20542675e-01 -7.71861136e-01
      3.14588137e-02 9.37271863e-02 -3.47580239e-02 -8.68430495e-01
      2.57307049e-02 -1.05931319e-01 -2.02941783e-02 -8.06786656e-01
      -1.12849973e-01 -2.52826333e-01 -6.55205026e-02 -7.70508170e-01</_>
    <_>
      -3.78398001e-01 -9.53751564e-01 -2.68103361e-01 2.38584042e+00
      -1.17250133e+00 -1.59716892e+00 -1.36424351e+00 9.70774949e-01
      6.17816865e-01 1.01049133e-01 7.66653419e-01 2.77158451e+00
      -5.45017540e-01 -1.10310686e+00 -6.56284630e-01 2.09131908e+00
      -9.02003169e-01 -1.47638309e+00 -1.21443367e+00 1.24293339e+00
      1.15537453e+00 7.17755616e-01 1.30312622e+00 2.92215109e+00
      3.13936956e-02 -5.14884830e-01 -1.56210847e-02 2.48113179e+00
      -4.56901431e-01 -1.12152863e+00 -7.43345201e-01 1.95661318e+00
      2.66230255e-01 -2.13125348e-02 9.26666483e-02 -7.61761367e-01
      -1.16618155e-02 -1.17871411e-01 4.99134092e-03 -6.94867611e-01
      1.59152389e-01 -6.03642724e-02 -1.26180872e-01 -8.26870799e-01
      1.32432967e-01 -2.44897619e-01 -4.92398217e-02 -7.27536738e-01
      -6.17391542e-02 -2.27283612e-01 -8.54963511e-02 -6.93129659e-01
      9.50489640e-02 -6.68248162e-02 -2.03884691e-01 -8.54663253e-01
      1.76421776e-01 -2.29405925e-01 -8.09132010e-02 -7.67115772e-01
      5.34878261e-02 -3.01262230e-01 -9.10050571e-02 -7.06984818e-01</_>
    <_>
      -2.96952814e-01 -9.83066320e-01 -4.54528362e-01 2.44083691e+00
      -1.20724630e+00 -1.41942239e+00 -1.28333557e+00 1.04237771e+00
      6.54225111e-01 -4.53423038e-02 4.98752862e-01 2.81707931e+00
      -6.64935052e-01 -1.01496041e+00 -7.57659137e-01 2.16213369e+00
      -1.04377699e+00 -1.27154291e+00 -1.09201896e+00 1.32357955e+00
      1.16185904e+00 5.24486601e-01 1.01248693e+00 2.96235204e+00
      -1.37515038e-01 -5.05690694e-01 -2.28445798e-01 2.54577923e+00
      -6.92914009e-01 -9.65648592e-01 -7.31274009e-01 2.03825212e+00
      2.21838593e-01 1.23412095e-01 2.12113023e-01 -7.80506194e-01
      -1.47126056e-02 -7.71703199e-02 -1.57187153e-02 -7.63542414e-01
      3.79062295e-02 1.34548545e-01 6.45686612e-02 -8.21388006e-01
      3.91645171e-02 -1.24203376e-01 2.29876563e-02 -7.70809650e-01
      -1.10585660e-01 -1.88879654e-01 -1.32226229e-01 -7.61065602e-01
      -5.08962199e-02 1.32233232e-01 -9.98554006e-03 -8.38843405e-01
      4.30194438e-02 -7.45714307e-02 3.58183645e-02 -7.88618445e-01
      -5.10795154e-02 -2.13666305e-01 -1.07770599e-01 -7.59296119e-01</_>
    <_>
      -2.24166550e-02 -8.35596383e-01 -4.78620589e-01 2.30172038e+00
      -9.54799056e-01 -1.67001545e+00 -1.61852491e+00 9.22282040e-01
      9.57403421e-01 2.61196554e-01 6.06781602e-01 2.67518806e+00
      -9.79039669e-02 -9.71895039e-01 -8.26312959e-01 2.01786828e+00
      -6.43636346e-01 -1.52739608e+00 -1.46780407e+00 1.19005489e+00
      1.45602036e+00 8.71336281e-01 1.16607463e+00 2.82034135e+00
      5.19393146e-01 -2.99470007e-01 -1.27015799e-01 2.39707232e+00
      -6.75348938e-02 -1.04665387e+00 -9.21746373e-01 1.88896179e+00
      2.29911610e-01 -5.00332825e-02 -9.22647305e-03 -8.56515586e-01
      -2.06160657e-02 -9.81598645e-02 -3.01437881e-02 -8.18645120e-01
