<?xml version="1.0"?>
<opencv_storage>
<my_svm type_id="opencv-ml-svm">
  <svm_type>C_SVC</svm_type>
  <kernel><type>RBF</type>
    <gamma>2.</gamma></kernel>
  <C>5.0000000000000000e-01</C>
  <term_criteria><epsilon>2.2204460492503131e-16</epsilon>
    <iterations>100</iterations></term_criteria>
  <var_all>64</var_all>
  <var_count>64</var_count>
  <class_count>8</class_count>
  <class_labels type_id="opencv-matrix">
    <rows>1</rows>
    <cols>8</cols>
    <dt>i</dt>
    <data>
      0 1 2 3 4 5 6 7</data></class_labels>
  <sv_total>1430</sv_total>
  <support_vectors>
    <_>
      -1.78458430e-02 -8.30049992e-01 -4.32115853e-01 2.30471706e+00
      -9.96806085e-01 -1.63768613e+00 -1.55496776e+00 9.38748956e-01
      9.77739334e-01 2.79096067e-01 6.54687166e-01 2.67241549e+00
      -1.90967187e-01 -1.00724828e+00 -7.84039795e-01 2.02491045e+00
      -7.02998042e-01 -1.51799476e+00 -1.41012406e+00 1.20498526e+00
      1.48517740e+00 8.94036770e-01 1.22427380e+00 2.81485415e+00
      4.29624170e-01 -3.53286386e-01 -9.54120085e-02 2.39848161e+00
      -1.56343073e-01 -1.07801557e+00 -8.93639863e-01 1.89645755e+00
      1.99620366e-01 -4.56374213e-02 1.63372811e-02 -8.37649345e-01
      -9.50448122e-03 -1.05794929e-01 -2.17648558e-02 -8.19260299e-01
      3.70793268e-02 -1.02114677e-01 -1.62223130e-01 -8.70696664e-01
      1.12868607e-01 -2.27467567e-01 -1.08430542e-01 -8.32567632e-01
      -4.69138101e-02 -2.14273542e-01 -1.11925580e-01 -8.19064319e-01
      -4.83861156e-02 -1.23114072e-01 -2.30160415e-01 -8.84565949e-01
      1.14576422e-01 -2.19711289e-01 -1.47446632e-01 -8.44105840e-01
      6.27237633e-02 -2.71682262e-01 -1.59485340e-01 -8.19923878e-01</_>
    <_>
      -2.37315193e-01 -1.02671134e+00 -3.77853215e-01 2.37535357e+00
      -1.05654621e+00 -1.58272564e+00 -1.36609304e+00 9.94241655e-01
      7.69287705e-01 3.64355557e-02 6.32212222e-01 2.74668813e+00
      -4.13914531e-01 -1.12938309e+00 -7.51105785e-01 2.09002137e+00
      -7.64973760e-01 -1.51169920e+00 -1.25219798e+00 1.26291871e+00
      1.31618583e+00 6.75910473e-01 1.17547417e+00 2.89048886e+00
      1.89265206e-01 -5.32842875e-01 -1.34388179e-01 2.46644711e+00
      -2.98613667e-01 -1.17159820e+00 -8.31036687e-01 1.95929134e+00
      2.75029629e-01 -2.47135684e-02 1.00794360e-01 -7.82003582e-01
      1.94577463e-02 -9.93736610e-02 1.65121499e-02 -7.32667804e-01
      9.75225419e-02 -5.08228503e-02 -1.09910510e-01 -8.16402853e-01
      1.73546717e-01 -2.75388658e-01 -6.69760182e-02 -7.59371817e-01
      -1.98699497e-02 -2.15808079e-01 -8.66216943e-02 -7.24685371e-01
      8.60286527e-04 -4.60857973e-02 -1.85681686e-01 -8.31149518e-01
      1.99107796e-01 -2.48618662e-01 -1.08423010e-01 -7.79887974e-01
      1.30519643e-01 -3.23883086e-01 -1.23424336e-01 -7.42803812e-01</_>
    <_>
      -4.01582956e-01 -8.39452744e-01 -3.61795723e-01 2.41631055e+00
      -1.22085607e+00 -1.42820156e+00 -1.38888681e+00 9.82696831e-01
      6.55842006e-01 2.18858659e-01 6.71971858e-01 2.80166745e+00
      -5.29930592e-01 -8.82726252e-01 -7.20534265e-01 2.11491990e+00
      -9.49910343e-01 -1.28529012e+00 -1.25049102e+00 1.25356650e+00
      1.23854971e+00 8.49008381e-01 1.22657442e+00 2.95047522e+00
      1.13283731e-01 -2.64921188e-01 -7.74510652e-02 2.50423312e+00
      -4.59313244e-01 -8.89946282e-01 -7.83426762e-01 1.97188139e+00
      1.89246699e-01 9.14096907e-02 7.28749335e-02 -8.45413089e-01
      -5.76109365e-02 -1.04663052e-01 -6.51012883e-02 -8.11725438e-01
      4.60833535e-02 -9.77212377e-03 -1.24531791e-01 -8.78174245e-01
      1.45595986e-02 -1.30596429e-01 -1.08965084e-01 -8.18111241e-01
      -1.33788690e-01 -1.64481714e-01 -1.82421938e-01 -7.96223104e-01
      -3.00941318e-02 -6.31859601e-02 -1.88967422e-01 -8.92870843e-01
      3.13720666e-02 -1.39379472e-01 -1.30897924e-01 -8.29533279e-01
      -4.65626046e-02 -1.43786207e-01 -1.93683743e-01 -7.90127397e-01</_>
    <_>
      -1.83804452e-01 -8.54624689e-01 -4.56281483e-01 2.36686444e+00
      -1.18023777e+00 -1.58056438e+00 -1.49017048e+00 9.53026891e-01
      7.78590858e-01 2.05658346e-01 6.04085028e-01 2.74613237e+00
      -3.92573386e-01 -8.92550409e-01 -7.28980422e-01 2.08268833e+00
      -9.01122272e-01 -1.43024707e+00 -1.32105136e+00 1.23307610e+00
      1.27118337e+00 7.89607406e-01 1.15178096e+00 2.89225554e+00
      2.10248455e-01 -2.56325841e-01 -7.48937950e-02 2.46966147e+00
      -3.68243217e-01 -9.67700183e-01 -8.20932031e-01 1.95323479e+00
      1.77684784e-01 1.83754582e-02 4.86596115e-02 -8.62118542e-01
      -3.87331955e-02 -9.31149498e-02 -2.58506462e-02 -8.40244591e-01
      8.79993662e-02 6.84323087e-02 -8.64288285e-02 -9.01987612e-01
      4.97835018e-02 -1.99983969e-01 -9.58115831e-02 -8.36355984e-01
      -9.19027179e-02 -1.98143423e-01 -1.07226156e-01 -8.23319256e-01
      6.79652020e-02 1.22504108e-01 -1.19227603e-01 -9.20611620e-01
      9.33516845e-02 -1.63596928e-01 -1.02506079e-01 -8.54350567e-01
      -3.15451846e-02 -2.22267270e-01 -1.11965917e-01 -8.15254450e-01</_>
    <_>
      -1.41942814e-01 -8.86451423e-01 -4.39209074e-01 2.34228897e+00
      -1.00816369e+00 -1.63141394e+00 -1.50593317e+00 9.58438277e-01
      8.36271882e-01 1.63810343e-01 6.03146553e-01 2.71769738e+00
      -2.23601624e-01 -1.04272187e+00 -8.08760464e-01 2.05767703e+00
      -7.30827630e-01 -1.52512860e+00 -1.38470078e+00 1.22746205e+00
      1.35003877e+00 7.64909267e-01 1.14272153e+00 2.86375904e+00
      3.87662560e-01 -4.23061192e-01 -1.76900730e-01 2.43881369e+00
      -2.00070173e-01 -1.12551939e+00 -9.28144574e-01 1.92933691e+00
      2.68364727e-01 -4.31844741e-02 4.91188541e-02 -8.11803341e-01
      1.29063679e-02 -9.62009132e-02 3.46574769e-03 -7.68506348e-01
      1.56544909e-01 -4.13647965e-02 -1.28865823e-01 -8.51817846e-01
      1.10917255e-01 -2.51850307e-01 -9.88307893e-02 -7.93056369e-01
      -4.27033827e-02 -2.26518407e-01 -9.52491090e-02 -7.69347727e-01
      1.05996035e-01 -1.91233773e-02 -1.65186435e-01 -8.68616521e-01
      1.21764131e-01 -2.48210415e-01 -1.16213910e-01 -8.12657833e-01
      5.92624061e-02 -3.28308314e-01 -1.33577049e-01 -7.78630257e-01</_>
    <_>
      -3.35512578e-01 -1.02959359e+00 -4.27056670e-01 2.51140308e+00
      -1.01072598e+00 -1.34329212e+00 -1.30835330e+00 1.10704195e+00
      4.13445503e-01 -2.64561862e-01 3.79594952e-01 2.89190745e+00
      -6.26323521e-01 -1.01390362e+00 -9.30719972e-01 2.22625422e+00
      -7.76268005e-01 -1.21404636e+00 -1.13322079e+00 1.38378239e+00
      8.50023568e-01 2.24561736e-01 8.28123510e-01 3.03897476e+00
      -2.09820315e-01 -6.20798767e-01 -5.09964585e-01 2.61135340e+00
      -4.52808768e-01 -1.00946403e+00 -8.90205026e-01 2.09638786e+00
      3.36055070e-01 9.47248414e-02 1.65200979e-01 -7.22219825e-01
      3.13675627e-02 -1.43754426e-02 1.25685092e-02 -6.96756124e-01
      1.84187308e-01 9.19483900e-02 3.19640860e-02 -7.57941246e-01
      1.40469298e-01 -1.61100283e-01 -4.06377129e-02 -7.18650877e-01
      -6.80594593e-02 -1.72190920e-01 -1.31407052e-01 -7.03442156e-01
      1.26400948e-01 1.04534991e-01 -2.52804682e-02 -7.72467315e-01
      1.86034814e-01 -1.52471796e-01 -2.10107174e-02 -7.32631564e-01
      3.02747376e-02 -2.48323947e-01 -1.41334191e-01 -7.11644828e-01</_>
    <_>
      -4.48138624e-01 -9.69166815e-01 -2.45744482e-01 2.40703726e+00
      -1.17295480e+00 -1.50097644e+00 -1.30837691e+00 1.00082445e+00
      5.02894700e-01 9.54286195e-03 7.40910470e-01 2.78879738e+00
      -6.74571216e-01 -1.09219980e+00 -6.83884025e-01 2.11464643e+00
      -8.95366549e-01 -1.41404605e+00 -1.19949925e+00 1.27130997e+00
      1.01254857e+00 5.84758639e-01 1.24456322e+00 2.93697095e+00
      -1.61342129e-01 -5.76889932e-01 -1.11955553e-01 2.49973774e+00
      -5.20382702e-01 -1.13679087e+00 -8.08043063e-01 1.97974539e+00
      3.13953698e-01 6.94368258e-02 1.54574543e-01 -7.77746856e-01
      1.57094724e-03 -9.22570899e-02 1.27889644e-02 -7.37620652e-01
      2.19401911e-01 4.60910536e-02 -8.74148011e-02 -8.18327308e-01
      2.00915650e-01 -1.98807493e-01 -4.42397371e-02 -7.49949455e-01
      -5.73950522e-02 -2.13222787e-01 -1.04699403e-01 -7.23555267e-01
      1.73179999e-01 4.61752862e-02 -1.77498087e-01 -8.36440265e-01
      2.86347955e-01 -1.81682840e-01 -8.42905641e-02 -7.67299116e-01
      9.59078744e-02 -2.85394877e-01 -1.35385975e-01 -7.21075952e-01</_>
    <_>
      -1.68114230e-01 -7.19800055e-01 -3.32994908e-01 2.33571887e+00
      -1.25451529e+00 -1.58644962e+00 -1.44209957e+00 9.32425439e-01
      8.61036301e-01 3.74545902e-01 7.38538742e-01 2.71254754e+00
      -4.13355529e-01 -8.40047002e-01 -6.05736196e-01 2.05574155e+00
      -1.01893735e+00 -1.39422882e+00 -1.20998287e+00 1.21403205e+00
      1.37961984e+00 9.74590063e-01 1.28202736e+00 2.85808659e+00
      2.33296603e-01 -1.73581839e-01 6.48692623e-02 2.44048834e+00
      -4.54362720e-01 -8.91791940e-01 -6.54468298e-01 1.93094456e+00
      8.46344680e-02 1.25548569e-02 4.43289988e-02 -9.01737571e-01
      -4.18674201e-02 -1.18611529e-01 -4.30262685e-02 -8.84635031e-01
      -1.04542337e-01 -6.82949368e-03 -1.27930015e-01 -9.36712682e-01
      -2.58555319e-02 -1.51991874e-01 -7.22003654e-02 -8.85322750e-01
      -1.06004648e-01 -1.89877495e-01 -1.20920718e-01 -8.75093460e-01
      -1.91787690e-01 -3.27735282e-02 -1.97369933e-01 -9.53507483e-01
      -5.06459065e-02 -1.20117426e-01 -8.31853375e-02 -9.02001560e-01
      -7.41646364e-02 -1.81755766e-01 -1.17085487e-01 -8.72007608e-01</_>
    <_>
      -3.25749993e-01 -1.02586997e+00 -5.24806499e-01 2.51627779e+00
      -1.04657567e+00 -1.32364905e+00 -1.28627348e+00 1.10706210e+00
      4.61973846e-01 -2.47249261e-01 2.91580379e-01 2.89531231e+00
      -5.90912461e-01 -9.55113351e-01 -8.47992778e-01 2.23191953e+00
      -8.11490834e-01 -1.23339057e+00 -1.13376081e+00 1.38622928e+00
      9.34257805e-01 2.75478601e-01 7.80617654e-01 3.04136658e+00
      -1.10234663e-01 -5.25292277e-01 -3.69446307e-01 2.61687374e+00
      -4.48057115e-01 -1.00308979e+00 -8.38046849e-01 2.10231805e+00
      2.89803505e-01 1.20045878e-01 1.91421375e-01 -7.44788349e-01
      -5.49217034e-03 -3.60126607e-02 -2.51746085e-03 -7.31622279e-01
      1.49351001e-01 1.20779939e-01 8.67065787e-02 -7.80639172e-01
      6.85156584e-02 -1.67038590e-01 -6.72730953e-02 -7.44587123e-01
      -1.09937139e-01 -1.92947611e-01 -1.43539816e-01 -7.38653958e-01
      9.75211188e-02 1.35950834e-01 4.37953062e-02 -7.95204639e-01
      1.03816390e-01 -1.64086804e-01 -5.23534082e-02 -7.58725643e-01
      -8.32357164e-03 -2.55843282e-01 -1.61472857e-01 -7.40913808e-01</_>
    <_>
      -3.89713764e-01 -1.00832307e+00 -4.22997624e-01 2.51929140e+00
      -1.11920273e+00 -1.30661464e+00 -1.25409245e+00 1.10314310e+00
      4.59867358e-01 -2.41610751e-01 3.98143500e-01 2.89996600e+00
      -6.52368903e-01 -9.77950931e-01 -8.18264842e-01 2.23244619e+00
      -8.71785700e-01 -1.15977216e+00 -1.09898853e+00 1.38273275e+00
      9.29366767e-01 2.48834103e-01 8.56638193e-01 3.04630542e+00
      -1.91881835e-01 -5.67633331e-01 -3.59698653e-01 2.61801481e+00
      -5.20702422e-01 -9.24962103e-01 -7.86602378e-01 2.10007691e+00
      2.77655959e-01 1.34363368e-01 1.95665717e-01 -7.52406418e-01
      3.80215934e-03 -5.18767163e-02 7.39353345e-05 -7.38850892e-01
      1.37684569e-01 1.01507254e-01 3.50157097e-02 -7.88110077e-01
      6.51171133e-02 -1.39610261e-01 -5.88430278e-02 -7.49618292e-01
      -1.22120373e-01 -1.86009124e-01 -1.50207460e-01 -7.43391573e-01
      9.31301191e-02 1.15769848e-01 -1.67672597e-02 -8.02448571e-01
      1.12803496e-01 -1.16570622e-01 -4.07315195e-02 -7.62830615e-01
      -4.36021127e-02 -2.28643298e-01 -1.59425646e-01 -7.42185235e-01</_>
    <_>
      -4.18844432e-01 -8.03911805e-01 -3.56733650e-01 2.42661405e+00
      -1.26811469e+00 -1.40742433e+00 -1.34001684e+00 9.98332620e-01
      6.02289200e-01 2.41670758e-01 6.69510663e-01 2.80847406e+00
      -6.31321371e-01 -8.56229246e-01 -6.50233507e-01 2.13140726e+00
      -1.00453603e+00 -1.25153852e+00 -1.20027614e+00 1.27327275e+00
      1.15961170e+00 8.64181876e-01 1.22316909e+00 2.95551705e+00
      -2.46602707e-02 -2.41065279e-01 -1.73236951e-02 2.51893902e+00
      -5.50006449e-01 -8.48746419e-01 -7.24695325e-01 1.99292827e+00
      1.47901833e-01 1.07065268e-01 1.00076124e-01 -8.53063285e-01
      -7.89511129e-02 -1.02232590e-01 -7.52157941e-02 -8.37140977e-01
      1.85697395e-02 4.31633703e-02 -8.02639052e-02 -8.83110046e-01
      -9.95614473e-03 -1.17674939e-01 -1.11340895e-01 -8.31855237e-01
      -1.63829803e-01 -1.78564906e-01 -1.82116672e-01 -8.18988860e-01
      -3.51329558e-02 -1.32826171e-04 -1.50109634e-01 -8.96465480e-01
      2.97591109e-02 -1.08619787e-01 -1.25958085e-01 -8.40922475e-01
      -9.30401161e-02 -1.44700199e-01 -1.91116601e-01 -8.06272388e-01</_>
    <_>
      -3.05268854e-01 -9.74137723e-01 -4.47127044e-01 2.44127798e+00
      -1.23546839e+00 -1.38319182e+00 -1.29860568e+00 1.03084970e+00
      6.75645351e-01 3.85415517e-02 5.51677048e-01 2.82025814e+00
      -6.19893610e-01 -8.82972181e-01 -7.16322005e-01 2.15767765e+00
      -1.03890502e+00 -1.25178075e+00 -1.10606658e+00 1.31178188e+00
      1.20989954e+00 6.75882220e-01 1.11026990e+00 2.96665192e+00
      -3.38638462e-02 -2.96361506e-01 -1.17710635e-01 2.54392123e+00
      -6.16575599e-01 -8.78238082e-01 -6.86779857e-01 2.03054404e+00
      1.57008022e-01 1.34646997e-01 1.56117931e-01 -8.19264770e-01
      -4.18561548e-02 -7.75667801e-02 -5.11703640e-02 -8.03821445e-01
      -5.22563346e-02 1.19040452e-01 -1.50950933e-02 -8.53178918e-01
      -4.63518128e-02 -1.27469093e-01 -3.69773619e-02 -8.07106793e-01
      -1.39257863e-01 -1.98054209e-01 -1.43840611e-01 -7.97348738e-01
      -1.45012498e-01 8.02443624e-02 -9.62573215e-02 -8.68119717e-01
      -6.14792779e-02 -1.01665139e-01 -2.59481054e-02 -8.21561873e-01
      -1.03572682e-01 -1.97500885e-01 -9.73634124e-02 -7.93569684e-01</_>
    <_>
      -2.60365427e-01 -8.04179072e-01 -4.16952074e-01 2.36540461e+00
      -1.24372351e+00 -1.50189221e+00 -1.40407133e+00 9.54836369e-01
      7.91046619e-01 3.08894128e-01 6.62260175e-01 2.74329376e+00
      -4.73632932e-01 -8.52599144e-01 -6.49126768e-01 2.07919621e+00
      -1.01950657e+00 -1.32080019e+00 -1.21077955e+00 1.23228467e+00
      1.35560417e+00 9.47770357e-01 1.24516249e+00 2.88914490e+00
      1.86191097e-01 -1.87768057e-01 3.46242413e-02 2.46442747e+00
      -4.94959235e-01 -8.48569036e-01 -6.75646603e-01 1.94903493e+00
      1.20173827e-01 4.10661921e-02 1.00395441e-01 -8.98257554e-01
      -4.95009050e-02 -1.09078161e-01 -5.24125956e-02 -8.84336710e-01
      -7.25927949e-02 -2.01118784e-03 -6.93435222e-02 -9.28552747e-01
      -2.25323401e-02 -1.36356130e-01 -5.69302626e-02 -8.82939339e-01
      -1.09115876e-01 -1.72215894e-01 -1.18577875e-01 -8.72925460e-01
      -1.88176930e-01 -6.48662001e-02 -1.65231645e-01 -9.41673756e-01
      -5.80878146e-02 -1.10890508e-01 -7.45840594e-02 -8.94290924e-01
      -5.33787385e-02 -1.43732995e-01 -1.08149983e-01 -8.65497291e-01</_>
    <_>
      -2.30411410e-01 -7.04414666e-01 -2.91160941e-01 2.33883643e+00
      -1.31913733e+00 -1.52922404e+00 -1.39624965e+00 9.34963703e-01
      8.10664415e-01 3.97950262e-01 7.76111841e-01 2.71411180e+00
      -4.81842726e-01 -8.30510855e-01 -5.91823220e-01 2.05219316e+00
      -1.06748974e+00 -1.37302351e+00 -1.21215332e+00 1.20869255e+00
      1.35937309e+00 1.02186847e+00 1.34738076e+00 2.85813165e+00
      1.87919214e-01 -1.62570730e-01 9.69343409e-02 2.43343782e+00
      -5.13989806e-01 -9.14950430e-01 -6.76560163e-01 1.91884553e+00
      7.66386911e-02 4.07091938e-02 6.43781051e-02 -8.94744396e-01
      -6.59339204e-02 -1.03080258e-01 -5.98018244e-02 -8.75975847e-01
      -7.89477602e-02 1.93154404e-03 -1.38233915e-01 -9.28880632e-01
      -5.69670238e-02 -1.14840545e-01 -5.32769822e-02 -8.76276433e-01
      -1.36838287e-01 -1.66558355e-01 -1.30289793e-01 -8.62955630e-01
      -1.74153313e-01 -6.38989806e-02 -2.48586237e-01 -9.43766832e-01
      -8.78931433e-02 -1.20231412e-01 -8.45398679e-02 -8.90016317e-01
      -1.05005950e-01 -1.33517712e-01 -9.44383517e-02 -8.55910361e-01</_>
    <_>
      -2.77924985e-01 -7.21507788e-01 -2.41795808e-01 2.34028769e+00
      -1.33052051e+00 -1.51681602e+00 -1.38303125e+00 9.36069846e-01
      7.91929364e-01 3.81004781e-01 8.37861419e-01 2.71654987e+00
      -4.93501574e-01 -8.18757772e-01 -5.74314594e-01 2.05629659e+00
      -1.07735240e+00 -1.32221973e+00 -1.19448173e+00 1.21343219e+00
      1.34137893e+00 9.95348096e-01 1.39780605e+00 2.86125135e+00
      1.81682184e-01 -1.57797247e-01 1.09570034e-01 2.43919373e+00
      -5.09848297e-01 -8.37478280e-01 -6.52241230e-01 1.92668951e+00
      8.56342986e-02 4.88438234e-02 3.75676155e-02 -8.97155702e-01
      -6.37474284e-02 -1.25011742e-01 -5.66859618e-02 -8.78892004e-01
      -8.57653096e-02 2.82010413e-03 -1.93416327e-01 -9.33904350e-01
      -5.26507720e-02 -1.29455224e-01 -6.36606589e-02 -8.82561564e-01
      -1.39027163e-01 -1.86127335e-01 -1.34140551e-01 -8.71303916e-01
      -1.69152409e-01 -4.79117110e-02 -3.12926322e-01 -9.49399114e-01
      -7.79639557e-02 -9.32121128e-02 -1.08350769e-01 -8.98055732e-01
      -1.15158916e-01 -1.46734476e-01 -1.12787671e-01 -8.66469026e-01</_>
    <_>
      -2.95888662e-01 -9.89082038e-01 -4.07151759e-01 2.46111703e+00
      -1.13673151e+00 -1.41181624e+00 -1.34804296e+00 1.04370165e+00
      6.23363137e-01 -9.50299948e-02 5.20779252e-01 2.84201908e+00
      -5.15089512e-01 -9.74494874e-01 -8.11702192e-01 2.17249537e+00
      -9.02020037e-01 -1.27024937e+00 -1.17764568e+00 1.32200456e+00
      1.12481725e+00 4.56843525e-01 1.02168894e+00 2.98836756e+00
      2.86872238e-02 -4.83730733e-01 -2.71782964e-01 2.55824161e+00
      -4.75252122e-01 -9.68969941e-01 -8.02286446e-01 2.03876305e+00
      2.36024305e-01 9.13463086e-02 1.34847015e-01 -7.88744688e-01
      -6.03696657e-03 -6.73597157e-02 -1.91904940e-02 -7.67883480e-01
      9.75306183e-02 7.29380846e-02 -3.94975282e-02 -8.30726802e-01
      5.33815995e-02 -1.60222828e-01 -4.91442494e-02 -7.78145671e-01
      -1.02067828e-01 -1.97023436e-01 -1.25448048e-01 -7.68024147e-01
      3.34505104e-02 7.09587038e-02 -1.00604236e-01 -8.48250985e-01
      8.58423039e-02 -1.49585962e-01 -3.85690778e-02 -7.97192276e-01
      -8.27232655e-03 -2.20968321e-01 -1.10177092e-01 -7.69105613e-01</_>
    <_>
      -1.76573858e-01 -9.83998120e-01 -5.04852116e-01 2.40522146e+00
      -1.01953542e+00 -1.52256370e+00 -1.44715595e+00 9.98604894e-01
      7.91438520e-01 -2.56320345e-03 4.90196794e-01 2.78286457e+00
      -3.74580204e-01 -1.06260586e+00 -8.40415895e-01 2.10906506e+00
      -7.40373313e-01 -1.40815711e+00 -1.32759285e+00 1.26539338e+00
      1.31536698e+00 5.73019207e-01 1.02363324e+00 2.92905354e+00
      2.13766366e-01 -5.22159934e-01 -2.49518052e-01 2.49056983e+00
      -2.67665625e-01 -1.07969165e+00 -9.19438839e-01 1.96925032e+00
      2.85770863e-01 2.92546935e-02 8.99589807e-02 -7.97435701e-01
      1.63462805e-03 -6.46695495e-02 -4.47071856e-03 -7.43874371e-01
      1.39233768e-01 -2.56507657e-04 -7.62279853e-02 -8.28045547e-01
      1.76238239e-01 -2.07387105e-01 -1.36292040e-01 -7.64132142e-01
      -4.54908162e-02 -1.93677068e-01 -1.28119543e-01 -7.24378347e-01
      5.73490337e-02 1.18491901e-02 -1.08367868e-01 -8.40762079e-01
      2.09957600e-01 -2.01607421e-01 -1.58349827e-01 -7.80045986e-01
      9.60622802e-02 -2.64602095e-01 -2.03062460e-01 -7.34056413e-01</_>
    <_>
      -1.72171801e-01 -9.73619699e-01 -4.52663481e-01 2.38970423e+00
      -1.02895904e+00 -1.57387817e+00 -1.44821537e+00 9.81993198e-01
      8.21383476e-01 2.07669660e-02 5.39213479e-01 2.76928997e+00
      -3.52877110e-01 -1.10160613e+00 -8.17009211e-01 2.09242511e+00
      -7.29045749e-01 -1.43938255e+00 -1.33773363e+00 1.24856520e+00
      1.35716999e+00 6.12501681e-01 1.06811595e+00 2.91663599e+00
      2.58291870e-01 -5.35557985e-01 -2.15344205e-01 2.47512650e+00
      -2.37613156e-01 -1.10003746e+00 -9.15409505e-01 1.95240796e+00
      2.76371211e-01 1.39514208e-02 8.33854303e-02 -7.88021743e-01
      1.63871665e-02 -7.14777932e-02 1.11639155e-02 -7.26950109e-01
      1.01962209e-01 -1.87418666e-02 -9.85052511e-02 -8.26432645e-01
      1.77021161e-01 -2.06173524e-01 -1.25073344e-01 -7.52438605e-01
      -3.23973857e-02 -1.83272511e-01 -1.20195724e-01 -7.11315751e-01
      -2.86211283e-03 -2.23701410e-02 -1.43607304e-01 -8.41567636e-01
      1.75832585e-01 -2.08066478e-01 -1.78853944e-01 -7.71948814e-01
      1.03027858e-01 -2.63273448e-01 -2.16321796e-01 -7.21702337e-01</_>
    <_>
      -1.01429513e-02 -8.67017925e-01 -4.89804715e-01 2.30712080e+00
      -9.52165425e-01 -1.65965784e+00 -1.62297559e+00 9.26204562e-01
      9.58291709e-01 2.30635017e-01 6.06219411e-01 2.68094730e+00
      -1.10720508e-01 -9.72760677e-01 -8.28670084e-01 2.02184057e+00
      -6.52684927e-01 -1.52440083e+00 -1.47038460e+00 1.19333541e+00
      1.44881010e+00 8.49159777e-01 1.16799641e+00 2.82630086e+00
      4.98799980e-01 -3.02742779e-01 -1.25947893e-01 2.40119791e+00
      -9.31409523e-02 -1.04969406e+00 -9.24806714e-01 1.89203727e+00
      2.42502823e-01 -5.08300178e-02 -1.72029845e-02 -8.43262672e-01
      -6.96491590e-03 -9.42401662e-02 -1.85655188e-02 -8.00687015e-01
      1.06287740e-01 -6.28905892e-02 -1.80070773e-01 -8.76531422e-01
      1.11312702e-01 -2.47012749e-01 -1.53409287e-01 -8.18365037e-01
      -4.31696847e-02 -2.04552293e-01 -1.13152966e-01 -7.94076800e-01
      2.74484735e-02 -5.80919869e-02 -2.09929809e-01 -8.91181350e-01
      1.14449784e-01 -2.52749264e-01 -1.89666569e-01 -8.33696246e-01
      6.66133612e-02 -2.84156412e-01 -1.77056491e-01 -7.98280656e-01</_>
    <_>
      -5.74985035e-02 -8.20926249e-01 -4.11247790e-01 2.31868386e+00
      -1.05414331e+00 -1.60621965e+00 -1.53370535e+00 9.39408064e-01
      9.55295742e-01 2.86033273e-01 6.77333415e-01 2.68924522e+00
      -2.36368746e-01 -9.57182348e-01 -7.58499861e-01 2.03567576e+00
      -7.78910875e-01 -1.47488737e+00 -1.37232077e+00 1.20733058e+00
      1.47110975e+00 9.05865133e-01 1.23959041e+00 2.83202720e+00
      3.90267968e-01 -3.00725847e-01 -7.34963417e-02 2.41117954e+00
      -2.31916100e-01 -1.02315319e+00 -8.45964730e-01 1.90396297e+00
      1.74895063e-01 -1.77314505e-02 1.30632706e-02 -8.54577005e-01
      -2.16869470e-02 -1.08078696e-01 -3.51904891e-02 -8.37278843e-01
      3.37896426e-03 -6.87828213e-02 -1.60670638e-01 -8.89311135e-01
      7.85727128e-02 -1.96771145e-01 -1.11878984e-01 -8.49654078e-01
      -6.39385283e-02 -2.01351911e-01 -1.15226179e-01 -8.38289976e-01
      -9.56980661e-02 -1.00125514e-01 -2.18577027e-01 -9.03751194e-01
      7.77402297e-02 -1.86653540e-01 -1.47709072e-01 -8.61764848e-01
      3.87766995e-02 -2.22188741e-01 -1.67711467e-01 -8.37670326e-01</_>
    <_>
      -1.85938090e-01 -8.49274218e-01 -3.42772990e-01 2.31518340e+00
      -1.16170692e+00 -1.67699444e+00 -1.46486783e+00 9.21337366e-01
      8.43193412e-01 2.70185947e-01 7.36072361e-01 2.69137788e+00
      -3.71005088e-01 -1.00060189e+00 -6.70956254e-01 2.02735734e+00
      -9.09582257e-01 -1.52571225e+00 -1.28213847e+00 1.19080901e+00
      1.36420548e+00 8.91441762e-01 1.28858709e+00 2.83768296e+00
      2.62935013e-01 -3.31267834e-01 -5.40740904e-04 2.41019344e+00
      -3.73375982e-01 -1.06849754e+00 -7.57574379e-01 1.89720225e+00
      2.20523715e-01 -6.60810769e-02 5.39275929e-02 -8.60546887e-01
      2.96206158e-02 -1.26919150e-01 3.41346636e-02 -8.25950146e-01
      5.60144484e-02 -9.00251418e-02 -1.49676651e-01 -8.96576464e-01
      1.33638158e-01 -2.65733957e-01 -1.10009843e-02 -8.35646391e-01
      7.26803998e-03 -2.41924942e-01 -2.04155650e-02 -8.13904166e-01
      -7.63249537e-03 -9.25946981e-02 -2.18080118e-01 -9.13372695e-01
      1.31257460e-01 -2.58195966e-01 -4.80983630e-02 -8.51330817e-01
      9.98682529e-02 -3.14259499e-01 -2.06202902e-02 -8.12623918e-01</_>
    <_>
      1.34305283e-02 -9.23915505e-01 -4.26304519e-01 2.27523708e+00
      -9.51994300e-01 -1.74037504e+00 -1.56112742e+00 9.19859350e-01
      1.01044095e+00 2.15666905e-01 6.58923984e-01 2.64268637e+00
      -1.43199936e-01 -1.09207761e+00 -8.18590522e-01 1.99415135e+00
      -6.45873904e-01 -1.60548556e+00 -1.43552983e+00 1.18204570e+00
      1.51411116e+00 8.38983297e-01 1.21400952e+00 2.78538013e+00
      4.82471138e-01 -4.12789196e-01 -1.35633931e-01 2.36592937e+00
      -9.38002244e-02 -1.14273107e+00 -9.31778967e-01 1.86621416e+00
      2.37450868e-01 -8.55415389e-02 2.85455473e-02 -8.20256591e-01
      2.44851820e-02 -1.12422653e-01 1.07827354e-02 -7.76001632e-01
      5.24657369e-02 -8.43021274e-02 -1.62219509e-01 -8.55833352e-01
      1.68728366e-01 -2.68606186e-01 -7.80838132e-02 -8.02174568e-01
      -2.53027515e-03 -2.03696638e-01 -6.95920065e-02 -7.76514053e-01
      -5.07880524e-02 -7.19982684e-02 -2.20545858e-01 -8.72215092e-01
      1.59887403e-01 -2.47332036e-01 -1.20969832e-01 -8.20351005e-01
      1.17664829e-01 -3.12082022e-01 -1.16557702e-01 -7.87729502e-01</_>
    <_>
      -2.55150735e-01 -9.70596015e-01 -5.02453446e-01 2.43309760e+00
      -1.21698415e+00 -1.42703629e+00 -1.30077422e+00 1.03256404e+00
      7.05210924e-01 3.11785843e-02 4.84436065e-01 2.80859995e+00
      -6.01212800e-01 -9.35451925e-01 -7.35047460e-01 2.15196300e+00
      -9.96326089e-01 -1.31417000e+00 -1.14497983e+00 1.31157207e+00
      1.21412516e+00 6.45156562e-01 1.03982341e+00 2.95356274e+00
      -2.73175873e-02 -3.63530606e-01 -1.58364654e-01 2.53513360e+00
      -5.74325800e-01 -9.53607321e-01 -7.56430209e-01 2.02542377e+00
      1.81327343e-01 1.20359093e-01 1.70093462e-01 -8.09817672e-01
      -3.10640559e-02 -6.97732866e-02 -3.02665681e-02 -7.94063091e-01
      1.36787193e-02 1.25104174e-01 1.09029068e-02 -8.43860567e-01
      4.55900654e-03 -1.21917665e-01 -4.84403409e-02 -8.00476015e-01
      -1.21825412e-01 -1.75477505e-01 -1.46258727e-01 -7.92833984e-01
      -5.27737774e-02 1.02169387e-01 -7.38937184e-02 -8.60551000e-01
      1.70908831e-02 -8.30954686e-02 -4.46381047e-02 -8.17596197e-01
      -6.42769188e-02 -1.80310905e-01 -1.26011446e-01 -7.94150710e-01</_>
    <_>
      -5.11327207e-01 -1.00775337e+00 -2.39543274e-01 2.42881536e+00
      -1.25926316e+00 -1.43264258e+00 -1.17232740e+00 1.03135467e+00
      4.40896302e-01 -1.04699969e-01 6.93654418e-01 2.80561304e+00
      -8.21482956e-01 -1.12016940e+00 -5.87224066e-01 2.14376974e+00
      -1.02043903e+00 -1.31125975e+00 -1.05396068e+00 1.30516660e+00
      9.53362644e-01 4.51350331e-01 1.16830575e+00 2.95064592e+00
      -3.24290544e-01 -6.70841575e-01 -6.68017417e-02 2.52469301e+00
      -6.96903825e-01 -1.09142971e+00 -6.98928893e-01 2.01210475e+00
      2.68555194e-01 1.08175211e-01 2.51903921e-01 -7.83068299e-01
      -8.79019778e-03 -1.01205364e-01 1.88221689e-02 -7.57411122e-01
      1.54601485e-01 1.16472200e-01 7.62119517e-02 -8.21254969e-01
      1.25049144e-01 -1.30251601e-01 4.28775325e-02 -7.73981810e-01
      -9.92165655e-02 -2.06216410e-01 -9.20111910e-02 -7.57099926e-01
      9.76271480e-02 1.07383795e-01 1.71791203e-02 -8.37232292e-01
      1.87860757e-01 -8.61175582e-02 3.97463748e-03 -7.90349483e-01
      1.40973600e-02 -2.27105185e-01 -7.77296126e-02 -7.60193467e-01</_>
    <_>
      -3.31654884e-02 -8.39872777e-01 -5.09139359e-01 2.35088801e+00
      -1.00777769e+00 -1.56837440e+00 -1.51034367e+00 9.76652026e-01
      9.56835628e-01 2.34267607e-01 5.19640088e-01 2.71855283e+00
      -2.12042466e-01 -9.41278338e-01 -8.05165410e-01 2.07054520e+00
      -7.31150568e-01 -1.46197391e+00 -1.36890101e+00 1.24564886e+00
      1.46125424e+00 8.47359717e-01 1.08969653e+00 2.86027241e+00
      3.97972047e-01 -3.04682106e-01 -1.33513317e-01 2.44459367e+00
      -2.05003351e-01 -1.04103446e+00 -8.68915021e-01 1.94158578e+00
      1.67267457e-01 2.01632781e-03 4.63215038e-02 -8.41720223e-01
      -3.75801288e-02 -7.33916387e-02 -4.64998111e-02 -8.27516258e-01
      1.99945783e-03 -3.76862213e-02 -5.48248328e-02 -8.66958141e-01
      4.68672514e-02 -2.32696041e-01 -1.45088851e-01 -8.32190633e-01
      -9.26591158e-02 -1.80613399e-01 -1.55462950e-01 -8.22976768e-01
      -7.98093230e-02 -5.59385680e-02 -9.15360674e-02 -8.77793968e-01
      6.45876154e-02 -2.44037867e-01 -1.63154513e-01 -8.41838419e-01
      1.45592252e-02 -2.64249682e-01 -2.30256304e-01 -8.20570290e-01</_>
    <_>
      -1.25210777e-01 -7.76015341e-01 -3.94111574e-01 2.31408668e+00
      -1.11819565e+00 -1.61045694e+00 -1.50969279e+00 9.29804146e-01
      9.22319472e-01 3.45522523e-01 7.01124430e-01 2.68683028e+00
      -2.82408714e-01 -9.28090036e-01 -7.21687675e-01 2.03089070e+00
      -8.19767594e-01 -1.47460401e+00 -1.35522568e+00 1.20001447e+00
      1.45953500e+00 9.71425235e-01 1.27159703e+00 2.83015323e+00
      3.75824630e-01 -2.41541743e-01 -2.44562868e-02 2.40804720e+00
      -2.54086763e-01 -9.92364526e-01 -8.08532655e-01 1.89980161e+00
      1.74247578e-01 -1.95651613e-02 3.65728848e-02 -8.67989302e-01
      -2.41810605e-02 -1.16254285e-01 -2.28532385e-02 -8.49512935e-01
      -6.55496866e-03 -9.17357281e-02 -1.67187989e-01 -9.03801978e-01
      7.18886331e-02 -1.88302264e-01 -8.38193372e-02 -8.59258056e-01
      -7.69608170e-02 -1.94710672e-01 -9.83076245e-02 -8.48152816e-01
      -1.15012690e-01 -1.32105693e-01 -2.56441712e-01 -9.17976201e-01
      6.14788495e-02 -1.95236593e-01 -1.42876118e-01 -8.71646523e-01
      1.25542218e-02 -2.31683195e-01 -1.40535191e-01 -8.44607592e-01</_>
    <_>
      -3.83588672e-01 -1.03479373e+00 -4.63001639e-01 2.53876448e+00
      -1.06851912e+00 -1.26561356e+00 -1.23754871e+00 1.12938702e+00
      3.80773664e-01 -3.38234276e-01 3.03952396e-01 2.91759086e+00
      -6.57332420e-01 -9.56951201e-01 -8.53837311e-01 2.25471926e+00
      -8.42817187e-01 -1.15536797e+00 -1.06567144e+00 1.40865302e+00
      8.19287956e-01 1.06827162e-01 7.31377721e-01 3.06296682e+00
      -2.35231221e-01 -5.87909997e-01 -4.42210287e-01 2.63828158e+00
      -5.38491130e-01 -9.64105129e-01 -8.03404748e-01 2.12342668e+00
      3.18967521e-01 1.49244860e-01 2.10802346e-01 -7.31331408e-01
      1.40172737e-02 -2.24267021e-02 1.27169853e-02 -7.22434580e-01
      1.91162974e-01 1.23182602e-01 7.60414824e-02 -7.63629913e-01
      8.28988180e-02 -1.21706247e-01 -4.85000946e-02 -7.33409166e-01
      -1.06339745e-01 -1.81152314e-01 -1.28910556e-01 -7.28964806e-01
      1.39079913e-01 1.29909962e-01 2.28507593e-02 -7.76307642e-01
      1.17505156e-01 -1.43878117e-01 -4.40181084e-02 -7.42740214e-01
      -4.94016381e-03 -2.27753475e-01 -1.55070633e-01 -7.26245582e-01</_>
    <_>
      -4.16172355e-01 -1.05313694e+00 -3.59043598e-01 2.44147205e+00
      -1.12731850e+00 -1.46530080e+00 -1.20034182e+00 1.05661666e+00
      5.46912789e-01 -1.00813106e-01 5.72302878e-01 2.81572270e+00
      -6.06930614e-01 -1.13784122e+00 -6.59814298e-01 2.16039133e+00
      -8.73490810e-01 -1.41381013e+00 -1.10498238e+00 1.33025134e+00
      1.09992731e+00 5.06829083e-01 1.07795370e+00 2.96051240e+00
      -4.59600128e-02 -6.23172224e-01 -1.34635344e-01 2.54020691e+00
      -4.80826885e-01 -1.16767192e+00 -7.62109697e-01 2.03374934e+00
      2.76982605e-01 3.72851901e-02 2.03121528e-01 -7.52111793e-01
      1.57478452e-02 -7.32400566e-02 1.41958725e-02 -7.20476210e-01
      1.37847185e-01 2.95440666e-02 3.57717788e-03 -7.85842538e-01
      1.27506763e-01 -2.07700074e-01 -5.04826903e-02 -7.42169797e-01
      -6.74766451e-02 -2.20488206e-01 -1.08945675e-01 -7.24643350e-01
      6.32826611e-02 3.56857330e-02 -7.74751827e-02 -8.01019311e-01
      1.59297332e-01 -1.86179727e-01 -9.35702026e-02 -7.58548439e-01
      4.39158343e-02 -3.08205396e-01 -1.45419911e-01 -7.33470261e-01</_>
    <_>
      -2.88403243e-01 -9.31362689e-01 -4.92877245e-01 2.43445301e+00
      -1.09785247e+00 -1.44489944e+00 -1.37674654e+00 1.02828193e+00
      6.86207175e-01 1.75465439e-02 4.74800259e-01 2.81269860e+00
      -4.81922716e-01 -1.01118660e+00 -8.06999445e-01 2.14641809e+00
      -8.15576434e-01 -1.32568347e+00 -1.25681055e+00 1.30235350e+00
      1.21982300e+00 5.89001834e-01 1.00434756e+00 2.95836306e+00
      1.06375501e-01 -4.67510253e-01 -2.30749756e-01 2.52953553e+00
      -3.58809620e-01 -1.01473999e+00 -8.72895718e-01 2.01297641e+00
      2.68004686e-01 1.02244906e-01 1.26956388e-01 -8.01505089e-01
      -2.26138346e-02 -6.98250607e-02 -3.14885154e-02 -7.77467489e-01
      1.28929123e-01 4.86730635e-02 -4.41733152e-02 -8.33871186e-01
      1.11708000e-01 -1.43585399e-01 -1.25721246e-01 -7.94990718e-01
      -1.03240997e-01 -1.78403631e-01 -1.53803408e-01 -7.76872396e-01
      5.78741208e-02 4.20934670e-02 -8.91614035e-02 -8.47246528e-01
      1.45912707e-01 -1.44182652e-01 -1.45141199e-01 -8.07549298e-01
      1.15515916e-02 -2.14717001e-01 -2.03815758e-01 -7.82727599e-01</_>
    <_>
      -1.03959814e-01 -9.56752121e-01 -4.20151204e-01 2.32864332e+00
      -1.02042627e+00 -1.68747282e+00 -1.54501534e+00 9.37484622e-01
      8.58245492e-01 1.41691789e-01 6.63546920e-01 2.70711303e+00
      -3.00026864e-01 -1.07753456e+00 -7.80350327e-01 2.04123998e+00
      -7.44492531e-01 -1.54566824e+00 -1.37846756e+00 1.20806420e+00
      1.36066759e+00 7.65246868e-01 1.21530831e+00 2.85435772e+00
      2.76879847e-01 -4.26583290e-01 -1.07722364e-01 2.42457581e+00
      -2.55152196e-01 -1.11368704e+00 -8.63170922e-01 1.91169763e+00
      2.69054532e-01 -5.70391603e-02 2.35414635e-02 -7.97020912e-01
      1.26874782e-02 -9.08577070e-02 2.03415770e-02 -7.35991359e-01
      1.19970255e-01 -4.53166589e-02 -1.69709772e-01 -8.49824548e-01
      1.93924621e-01 -2.60251611e-01 -1.03496775e-01 -7.60296047e-01
      -1.33497156e-02 -1.92577913e-01 -6.93437457e-02 -7.28209734e-01
      3.06790303e-02 -3.90332825e-02 -2.26928011e-01 -8.72815073e-01
      2.19515353e-01 -2.50067949e-01 -1.50742486e-01 -7.93760478e-01
      1.28657714e-01 -2.96720237e-01 -1.41624078e-01 -7.41524160e-01</_>
    <_>
      -1.09158680e-01 -7.51493573e-01 -4.86296862e-01 2.34580660e+00
      -1.16803372e+00 -1.55000365e+00 -1.47139859e+00 9.51316178e-01
      8.87970030e-01 3.33643049e-01 5.68530738e-01 2.71925259e+00
      -3.62698495e-01 -8.66706192e-01 -7.29463816e-01 2.06383705e+00
      -9.37933087e-01 -1.39556205e+00 -1.28100169e+00 1.22682953e+00
      1.40381253e+00 9.42643821e-01 1.14771152e+00 2.86360168e+00
      2.63870001e-01 -2.12367281e-01 -5.60990125e-02 2.44480252e+00
      -4.14723754e-01 -9.46916699e-01 -7.73766398e-01 1.93596542e+00
      1.19614586e-01 3.59026417e-02 8.58650431e-02 -9.01972473e-01
      -3.59267108e-02 -7.68921152e-02 -4.49943654e-02 -8.92959893e-01
      -6.28555566e-02 -5.08090341e-03 -4.46833000e-02 -9.24236476e-01
      1.10602928e-02 -1.20632187e-01 -6.59603104e-02 -8.91395032e-01
      -1.00376487e-01 -1.50953442e-01 -1.19755276e-01 -8.84133399e-01
      -1.58830836e-01 -5.16281873e-02 -1.25126690e-01 -9.34559226e-01
      6.40896091e-04 -1.17383949e-01 -8.25252831e-02 -8.98837149e-01
      -2.00086255e-02 -1.37544379e-01 -1.10994898e-01 -8.78806055e-01</_>
    <_>
      -4.26451378e-02 -8.51268530e-01 -4.24433053e-01 2.28421593e+00
      -9.89397645e-01 -1.71259391e+00 -1.60269070e+00 9.09740984e-01
      9.73742068e-01 2.82647163e-01 6.95751905e-01 2.65721679e+00
      -1.68939635e-01 -1.04808033e+00 -8.12238216e-01 1.99911249e+00
      -7.12218463e-01 -1.56174517e+00 -1.44521487e+00 1.17495358e+00
      1.48199594e+00 9.12199855e-01 1.26417935e+00 2.80264091e+00
      4.55503464e-01 -3.60541672e-01 -1.03150979e-01 2.37712097e+00
      -1.55120715e-01 -1.08761466e+00 -9.07725155e-01 1.86960304e+00
      2.37937987e-01 -8.83877948e-02 -5.62381046e-03 -8.18056583e-01
      1.92514341e-02 -1.12067178e-01 9.81686823e-03 -7.75743067e-01
      6.64572045e-02 -1.27642602e-01 -2.11797655e-01 -8.60887885e-01
      1.32017419e-01 -2.65718639e-01 -9.06861424e-02 -7.85603881e-01
      -1.01933545e-02 -2.20044807e-01 -6.34097382e-02 -7.57943928e-01
      -1.80893764e-03 -1.22861162e-01 -2.60653377e-01 -8.80586326e-01
      1.22449972e-01 -2.59334594e-01 -1.35689303e-01 -8.07514429e-01
      8.11405331e-02 -3.05321246e-01 -9.95892808e-02 -7.56911457e-01</_>
    <_>
      -2.79630512e-01 -9.83512282e-01 -4.91736591e-01 2.48906636e+00
      -1.09176815e+00 -1.41607785e+00 -1.31346953e+00 1.08561838e+00
      5.34462869e-01 -1.39921024e-01 3.49848807e-01 2.86671448e+00
      -6.21807277e-01 -9.58333790e-01 -8.37729275e-01 2.20605779e+00
      -8.68412554e-01 -1.28285968e+00 -1.13365686e+00 1.36398661e+00
      9.93864655e-01 3.98545951e-01 8.37690353e-01 3.01203990e+00
      -1.51260778e-01 -4.73234147e-01 -3.51878881e-01 2.58886576e+00
      -5.08728504e-01 -9.88227546e-01 -8.08579981e-01 2.07671285e+00
      2.55506516e-01 8.06306377e-02 1.87906608e-01 -7.53020704e-01
      1.25315031e-02 -5.18363602e-02 2.08828342e-03 -7.40846574e-01
      1.07887998e-01 1.16590478e-01 8.38620737e-02 -7.93925881e-01
      8.98381025e-02 -2.10129127e-01 -1.78849325e-02 -7.58837879e-01
      -9.44183841e-02 -2.01742813e-01 -1.21951640e-01 -7.54424334e-01
      5.66095635e-02 1.40404582e-01 3.82965282e-02 -8.10292900e-01
      1.32278711e-01 -1.81489334e-01 2.45273300e-02 -7.74793148e-01
      -7.72742927e-03 -2.92713195e-01 -1.06505901e-01 -7.59068012e-01</_>
    <_>
      -1.22504041e-01 -8.10494125e-01 -4.35143322e-01 2.34062076e+00
      -1.16209793e+00 -1.61926997e+00 -1.48897076e+00 9.48857784e-01
      8.41914833e-01 2.56747901e-01 6.20583594e-01 2.71410775e+00
      -3.68327141e-01 -9.26479280e-01 -7.27963328e-01 2.06386399e+00
      -8.98669362e-01 -1.47386706e+00 -1.28913975e+00 1.22839570e+00
      1.32501030e+00 8.27383995e-01 1.15773642e+00 2.85803485e+00
      2.46713564e-01 -2.85449773e-01 -7.79043213e-02 2.44540620e+00
      -3.59765202e-01 -1.02278388e+00 -7.86035955e-01 1.93993390e+00
      1.78092077e-01 6.47210190e-03 6.32786378e-02 -8.75694394e-01
      -1.94200967e-02 -8.65655839e-02 -1.55249164e-02 -8.61489058e-01
      6.10231869e-02 5.47378920e-02 -6.62297830e-02 -9.10543978e-01
      4.55522910e-02 -1.98309749e-01 -5.62076680e-02 -8.65110457e-01
      -7.93843865e-02 -2.03215495e-01 -1.00789942e-01 -8.57331455e-01
      4.63102981e-02 1.05856575e-01 -9.93695557e-02 -9.25791740e-01
      5.38861528e-02 -1.76044300e-01 -4.84634899e-02 -8.80234659e-01
      -3.92589681e-02 -2.49109775e-01 -1.06802888e-01 -8.54762852e-01</_>
    <_>
      -3.38965029e-01 -1.04906714e+00 -4.49953586e-01 2.51522923e+00
      -1.04967988e+00 -1.33227122e+00 -1.30795062e+00 1.09771252e+00
      4.41789269e-01 -3.27000707e-01 3.57221484e-01 2.89882159e+00
      -6.30378008e-01 -1.00604367e+00 -9.07673597e-01 2.22467184e+00
      -8.25909317e-01 -1.17265558e+00 -1.13029671e+00 1.37360740e+00
      8.73451948e-01 1.17328994e-01 7.84431756e-01 3.04701090e+00
      -2.19911411e-01 -6.29242718e-01 -4.87030715e-01 2.61238861e+00
      -5.16009688e-01 -9.62116420e-01 -8.66571486e-01 2.08993816e+00
      3.32591504e-01 1.16082370e-01 1.64587304e-01 -7.33215153e-01
      1.58416815e-02 -2.33649630e-02 8.20249412e-03 -7.02522457e-01
      2.06371903e-01 1.12534873e-01 4.86609936e-02 -7.67950714e-01
      1.42914444e-01 -1.28101334e-01 -6.78291768e-02 -7.18102276e-01
      -7.71885961e-02 -1.55717999e-01 -1.29540443e-01 -7.00221539e-01
      1.49294302e-01 1.49901643e-01 2.41329353e-02 -7.83109128e-01
      1.96022213e-01 -1.13673545e-01 -4.60941456e-02 -7.32866883e-01
      3.99135239e-02 -2.00099394e-01 -1.48567155e-01 -7.03763545e-01</_>
    <_>
      -3.37546974e-01 -9.88525510e-01 -3.85488093e-01 2.39620876e+00
      -1.13348973e+00 -1.56083000e+00 -1.36476707e+00 9.88122344e-01
      6.65797472e-01 5.81633747e-02 6.24867439e-01 2.77831054e+00
      -5.06413400e-01 -1.09335804e+00 -7.22107947e-01 2.10312271e+00
      -8.69604111e-01 -1.48495758e+00 -1.25243676e+00 1.26027882e+00
      1.21250165e+00 6.83971584e-01 1.17359209e+00 2.92745018e+00
      8.93131569e-02 -4.97685343e-01 -9.82322469e-02 2.49133325e+00
      -4.31362092e-01 -1.15284836e+00 -8.13632965e-01 1.97189963e+00
      2.53968000e-01 2.11421773e-02 1.24678038e-01 -7.56609559e-01
      8.17426108e-03 -1.07925572e-01 -9.29725182e-04 -6.89755201e-01
      1.07772976e-01 -1.02869803e-02 -4.72625457e-02 -8.14877689e-01
      1.42968804e-01 -2.43267447e-01 -6.67807981e-02 -7.19888508e-01
      -3.14809531e-02 -2.39923880e-01 -9.24278945e-02 -6.89176619e-01
      4.22650501e-02 -4.88912640e-03 -9.86314937e-02 -8.38729084e-01
      1.56333476e-01 -2.35067070e-01 -9.49647427e-02 -7.58412600e-01
      9.46829617e-02 -3.15307379e-01 -1.19595259e-01 -7.07442641e-01</_>
    <_>
      -1.83676705e-01 -9.14224148e-01 -4.96142715e-01 2.38853431e+00
      -1.14725876e+00 -1.50878990e+00 -1.34769619e+00 1.00277519e+00
      8.29157829e-01 1.66085303e-01 5.33164442e-01 2.76118112e+00
      -4.28949326e-01 -9.49926078e-01 -7.16577649e-01 2.11050820e+00
      -9.28118706e-01 -1.39255142e+00 -1.20981812e+00 1.27900279e+00
      1.37087119e+00 7.98851073e-01 1.10605788e+00 2.90490389e+00
      2.01904356e-01 -3.25825065e-01 -9.48286429e-02 2.48988271e+00
      -4.32347357e-01 -9.95417058e-01 -7.78594613e-01 1.98528266e+00
      1.63205147e-01 5.39636463e-02 1.34023696e-01 -8.38589013e-01
      -3.45868394e-02 -7.84148499e-02 -3.20052430e-02 -8.27470899e-01
      -4.89091761e-02 9.19167697e-03 -5.66717563e-03 -8.66720617e-01
      -2.30378192e-03 -1.47836491e-01 -6.67160526e-02 -8.32170248e-01
      -1.09455168e-01 -1.94548771e-01 -1.28152460e-01 -8.24134946e-01
      -1.58079326e-01 -2.91552786e-02 -7.97916949e-02 -8.78198564e-01
      -3.35903168e-02 -1.23553649e-01 -8.11206698e-02 -8.42520356e-01
      -4.36290503e-02 -2.01764822e-01 -1.07245900e-01 -8.21473002e-01</_>
    <_>
      -1.59145311e-01 -8.89908552e-01 -4.29742873e-01 2.36410975e+00
      -1.01692319e+00 -1.60445809e+00 -1.50778973e+00 9.67128396e-01
      8.02445710e-01 1.43517017e-01 5.99515915e-01 2.74240494e+00
      -2.59262472e-01 -1.03285301e+00 -8.17096949e-01 2.07474637e+00
      -7.32303858e-01 -1.49317205e+00 -1.37912464e+00 1.23653018e+00
      1.28721428e+00 7.36002386e-01 1.11998248e+00 2.88905454e+00
      3.22478682e-01 -4.21942770e-01 -1.95384189e-01 2.45767403e+00
      -2.27737859e-01 -1.09545124e+00 -9.25943315e-01 1.94208717e+00
      2.70682156e-01 -2.66797040e-02 2.82786116e-02 -8.15402269e-01
      -5.81032922e-03 -9.64734405e-02 -7.58961949e-04 -7.73071289e-01
      1.55692846e-01 -1.88906137e-02 -1.31028667e-01 -8.54414940e-01
      1.07643940e-01 -2.35864177e-01 -1.05926402e-01 -7.91670382e-01
      -5.18407039e-02 -2.15921864e-01 -1.02168433e-01 -7.68162310e-01
      1.09272450e-01 9.03558359e-03 -1.43674165e-01 -8.71127903e-01
      1.21242069e-01 -2.18645871e-01 -1.14604115e-01 -8.10046613e-01
      6.02840558e-02 -2.95020998e-01 -1.39390215e-01 -7.72189140e-01</_>
    <_>
      -7.27021247e-02 -7.95734465e-01 -3.89255702e-01 2.30223036e+00
      -1.11354303e+00 -1.61730230e+00 -1.47760129e+00 9.28783059e-01
      9.72166777e-01 3.44655633e-01 7.00291097e-01 2.67113376e+00
      -2.57671893e-01 -9.28353548e-01 -6.82545781e-01 2.02492356e+00
      -8.36947918e-01 -1.48115635e+00 -1.32299209e+00 1.20077157e+00
      1.50001276e+00 9.76265967e-01 1.27606618e+00 2.81349206e+00
      4.08164889e-01 -2.39426032e-01 1.17703192e-02 2.40047383e+00
      -2.64124066e-01 -1.00369895e+00 -7.89233208e-01 1.89932036e+00
      1.27441674e-01 -2.74396990e-03 5.97125702e-02 -8.85610759e-01
      -2.03216821e-02 -1.13972187e-01 -2.38860752e-02 -8.75540912e-01
      -8.08294192e-02 -7.48304427e-02 -1.32214978e-01 -9.15050685e-01
      1.49877025e-02 -1.75099254e-01 -6.23126701e-02 -8.80825877e-01
      -8.35184082e-02 -1.78961441e-01 -8.65574256e-02 -8.74475420e-01
      -1.83164492e-01 -1.40054822e-01 -2.46623993e-01 -9.27231073e-01
      -1.66952871e-02 -1.79714367e-01 -1.29039481e-01 -8.91587555e-01
      -1.87498946e-02 -1.87446207e-01 -1.01632148e-01 -8.71684253e-01</_>
    <_>
      -1.11095719e-01 -9.14467871e-01 -4.92841452e-01 2.46295691e+00
      -1.15532672e+00 -1.41392982e+00 -1.34644771e+00 1.05563712e+00
      7.78277993e-01 -6.43998384e-02 3.86126697e-01 2.84091949e+00
      -5.65224171e-01 -9.48788404e-01 -8.16216528e-01 2.17928815e+00
      -9.16282535e-01 -1.25261033e+00 -1.17320848e+00 1.33406806e+00
      1.23022592e+00 4.29177463e-01 8.53334904e-01 2.98663545e+00
      -6.59516975e-02 -4.63826537e-01 -3.22448611e-01 2.56380391e+00
      -5.19913912e-01 -9.34726179e-01 -8.21462095e-01 2.04971361e+00
      1.67026848e-01 1.08819760e-01 1.61809191e-01 -7.85796702e-01
      -7.41769234e-03 -4.67605256e-02 -1.35604125e-02 -7.69316435e-01
      -1.06531549e-02 1.31520852e-01 6.06022961e-02 -8.21861625e-01
      3.73122059e-02 -1.39361739e-01 -7.04110637e-02 -7.76825666e-01
      -1.19850256e-01 -1.70305476e-01 -1.34528980e-01 -7.66755104e-01
      -9.66007337e-02 1.41681761e-01 1.90328769e-02 -8.37948322e-01
      4.56429347e-02 -1.18931353e-01 -5.64478375e-02 -7.92523563e-01
      -6.71702400e-02 -2.09670499e-01 -1.45654827e-01 -7.66093671e-01</_>
    <_>
      -6.22232305e-03 -8.77598166e-01 -4.40646440e-01 2.30139756e+00
      -9.39490438e-01 -1.66157782e+00 -1.58493280e+00 9.31092083e-01
      9.98859465e-01 2.27420181e-01 6.34272218e-01 2.67119503e+00
      -1.24065869e-01 -1.03957462e+00 -8.34801257e-01 2.01413178e+00
      -6.03625655e-01 -1.55070865e+00 -1.47762001e+00 1.19270146e+00
      1.50569546e+00 8.43633294e-01 1.18641555e+00 2.81431913e+00
      4.98272896e-01 -3.70507091e-01 -1.53230593e-01 2.38737679e+00
      -4.55040559e-02 -1.09487891e+00 -9.71687019e-01 1.88005471e+00
      2.30364367e-01 -6.50281981e-02 -9.45814827e-04 -8.16059232e-01
      -4.39083437e-03 -1.09143890e-01 -2.01604497e-02 -7.69129097e-01
      6.60597607e-02 -9.68340561e-02 -1.83924243e-01 -8.51016819e-01
      1.36431411e-01 -2.62564749e-01 -1.57347649e-01 -7.90573776e-01
      -4.38732058e-02 -2.27378964e-01 -1.12634949e-01 -7.62192667e-01
      -8.10862053e-03 -7.69576281e-02 -2.12930143e-01 -8.64969552e-01
      1.61043257e-01 -2.62140274e-01 -2.03332573e-01 -8.05837274e-01
      8.96548554e-02 -3.24872911e-01 -1.92642808e-01 -7.68729508e-01</_>
    <_>
      -1.28365725e-01 -7.01655507e-01 -3.34306389e-01 2.32095838e+00
      -1.27123010e+00 -1.59475791e+00 -1.40829253e+00 9.26189959e-01
      8.99146974e-01 3.84038806e-01 7.19250858e-01 2.69369197e+00
      -4.25928086e-01 -8.86506259e-01 -5.95448792e-01 2.03725052e+00
      -1.03864825e+00 -1.46110630e+00 -1.20629525e+00 1.19951439e+00
      1.41050887e+00 9.82177496e-01 1.26974475e+00 2.83726335e+00
      2.17756480e-01 -2.26197124e-01 7.30991885e-02 2.41733313e+00
      -4.93620366e-01 -1.01079869e+00 -6.70281172e-01 1.90717185e+00
      7.40466937e-02 1.51314242e-02 9.61255431e-02 -9.03754532e-01
      -1.63027868e-02 -1.31209910e-01 -1.41539834e-02 -8.89088035e-01
      -1.14636615e-01 -5.06373215e-03 -5.52503504e-02 -9.32437539e-01
      -2.14951858e-03 -1.65942058e-01 -1.62445661e-02 -8.86418462e-01
      -8.92451331e-02 -2.29114234e-01 -7.69673809e-02 -8.74882996e-01
      -1.94626361e-01 -3.48033495e-02 -1.41954482e-01 -9.46280956e-01
      -1.82148740e-02 -1.49851203e-01 -4.86232974e-02 -8.98902893e-01
      -4.98647802e-02 -2.17269063e-01 -5.43531738e-02 -8.69355857e-01</_>
    <_>
      -4.64785933e-01 -9.51048493e-01 -3.69004935e-01 2.43667006e+00
      -1.21730220e+00 -1.43971455e+00 -1.22892630e+00 1.03669393e+00
      5.35891354e-01 3.23528387e-02 5.98041475e-01 2.81253982e+00
      -6.70288980e-01 -1.03891516e+00 -6.44962728e-01 2.15181947e+00
      -9.73017514e-01 -1.36406553e+00 -1.10235798e+00 1.31232929e+00
      1.09881020e+00 6.39937758e-01 1.13106012e+00 2.95809555e+00
      -8.38927627e-02 -4.95845377e-01 -5.96153401e-02 2.53466797e+00
      -5.62811255e-01 -1.07519484e+00 -6.93464637e-01 2.02350926e+00
      2.28103235e-01 6.19269162e-02 1.95986688e-01 -7.97608376e-01
      -1.77114271e-02 -9.82167050e-02 -3.80833587e-03 -7.72689998e-01
      8.60186368e-02 7.62699964e-03 1.39326099e-02 -8.28862011e-01
      8.10112879e-02 -1.74430564e-01 -1.12921316e-02 -7.87681699e-01
      -8.76538604e-02 -2.28938997e-01 -9.21137258e-02 -7.72794962e-01
      2.34878156e-02 -7.57810986e-03 -3.99183333e-02 -8.42545569e-01
      1.07900731e-01 -1.77153513e-01 -3.31873856e-02 -7.98636496e-01
      4.76942584e-03 -2.47404680e-01 -8.54391977e-02 -7.72303045e-01</_>
    <_>
      -3.36347848e-01 -7.53226578e-01 -3.16505849e-01 2.36559772e+00
      -1.39688635e+00 -1.52267051e+00 -1.28646135e+00 9.49312508e-01
      7.10365832e-01 3.33881497e-01 7.33288348e-01 2.74395919e+00
      -6.17610514e-01 -8.31587613e-01 -4.94325370e-01 2.07959461e+00
      -1.18442023e+00 -1.36615038e+00 -1.05060959e+00 1.23017466e+00
      1.25142360e+00 9.46671665e-01 1.28864288e+00 2.89027953e+00
      3.96112017e-02 -1.85751021e-01 1.63536772e-01 2.46733761e+00
      -6.54309988e-01 -8.92004728e-01 -5.13339818e-01 1.95281553e+00
      6.33918121e-02 3.61637957e-02 1.34798929e-01 -8.93261790e-01
      -4.34533209e-02 -1.49844021e-01 -4.65978161e-02 -8.72746527e-01
      -8.88385475e-02 4.91437130e-02 -2.25073397e-02 -9.30751085e-01
      -6.25412017e-02 -1.80506259e-01 -1.67067032e-02 -8.72226596e-01
      -1.18559942e-01 -2.44604707e-01 -1.04383372e-01 -8.59553516e-01
      -1.34508058e-01 3.35150398e-02 -9.20419395e-02 -9.48322237e-01
      -7.36164674e-02 -1.30443856e-01 -2.16808170e-02 -8.91119182e-01
      -1.10571213e-01 -2.36568004e-01 -5.83932661e-02 -8.56951118e-01</_>
    <_>
      -5.11533916e-01 -9.67526853e-01 -2.37785742e-01 2.42796850e+00
      -1.30356336e+00 -1.46110737e+00 -1.21394002e+00 1.01333046e+00
      4.84191775e-01 2.69648340e-02 7.33743727e-01 2.80938315e+00
      -7.33597577e-01 -9.73138034e-01 -5.69005668e-01 2.14267302e+00
      -1.08007145e+00 -1.31761169e+00 -1.06045377e+00 1.29403508e+00
      1.04614019e+00 6.52203560e-01 1.25642216e+00 2.95701456e+00
      -1.54843077e-01 -4.11380857e-01 1.95959155e-02 2.53082824e+00
      -6.74379230e-01 -9.68402863e-01 -6.21907532e-01 2.01451755e+00
      2.11860031e-01 7.97902271e-02 1.98312059e-01 -7.99902260e-01
      -3.58590968e-02 -1.38071686e-01 -1.67454258e-02 -7.74844468e-01
      6.92992061e-02 8.00767243e-02 1.23894541e-02 -8.43353927e-01
      9.89636686e-03 -1.78203613e-01 2.31641252e-02 -7.78120518e-01
      -1.21997990e-01 -2.60614514e-01 -1.12381525e-01 -7.63051927e-01
      -2.31199600e-02 3.48381773e-02 -7.45666176e-02 -8.63872707e-01
      2.09713764e-02 -1.43156156e-01 2.80442964e-02 -8.00026000e-01
      -8.60032812e-02 -2.71947116e-01 -7.12082013e-02 -7.60358751e-01</_>
    <_>
      -2.56581455e-01 -6.84887409e-01 -3.14421326e-01 2.35526967e+00
      -1.31193542e+00 -1.51735473e+00 -1.42532074e+00 9.43565965e-01
      7.82599807e-01 3.85307878e-01 7.40015149e-01 2.73398590e+00
      -4.66726750e-01 -7.72620976e-01 -6.27097309e-01 2.07180595e+00
      -1.04819763e+00 -1.31906450e+00 -1.23349047e+00 1.22440767e+00
      1.32004118e+00 9.95326877e-01 1.29370952e+00 2.87989616e+00
      2.01745391e-01 -9.78580415e-02 5.14572263e-02 2.45774055e+00
      -4.66233104e-01 -8.06733310e-01 -6.86773419e-01 1.94355404e+00
      7.70857930e-02 6.20982610e-02 3.13785560e-02 -9.04953539e-01
      -8.36324915e-02 -9.89335552e-02 -7.76640475e-02 -8.87062490e-01
      -7.22695589e-02 3.81350517e-02 -1.10694714e-01 -9.36224937e-01
      -8.38794932e-02 -1.44130155e-01 -5.50352335e-02 -8.83699417e-01
      -1.63083643e-01 -1.75480261e-01 -1.51824340e-01 -8.71529043e-01
      -1.45854294e-01 -1.62597168e-02 -1.87090069e-01 -9.51489329e-01
      -1.16348915e-01 -1.47477761e-01 -5.45757264e-02 -8.98359895e-01
      -1.68234095e-01 -1.86052084e-01 -1.16589300e-01 -8.65401745e-01</_>
    <_>
      -3.28801453e-01 -8.97091329e-01 -4.91680652e-01 2.44854903e+00
      -1.19142282e+00 -1.40399218e+00 -1.26822138e+00 1.04023337e+00
      6.36213660e-01 9.24247503e-02 4.83227849e-01 2.82578993e+00
      -6.00334108e-01 -9.51929092e-01 -6.99572623e-01 2.16319180e+00
      -9.76272523e-01 -1.27333558e+00 -1.11063266e+00 1.31773365e+00
      1.17097247e+00 6.99232817e-01 1.03649473e+00 2.97095418e+00
      -1.85192246e-02 -3.91259640e-01 -1.22506134e-01 2.54708910e+00
      -5.60684264e-01 -9.50159907e-01 -7.18672872e-01 2.03271556e+00
      1.88180536e-01 1.13423511e-01 1.97967634e-01 -8.30025792e-01
      -2.57043373e-02 -8.62985775e-02 -2.33264081e-02 -8.20402443e-01
      1.57853160e-02 5.45870066e-02 3.43403332e-02 -8.60209405e-01
      9.26105306e-03 -1.33776784e-01 -1.92296151e-02 -8.27387035e-01
      -1.24432191e-01 -2.03403533e-01 -1.21736087e-01 -8.21549892e-01
      -7.41546378e-02 -1.38865202e-03 -5.65405302e-02 -8.72594833e-01
      -7.44206784e-03 -1.29010439e-01 -4.90336344e-02 -8.39474320e-01
      -7.35779479e-02 -1.91991612e-01 -1.09489284e-01 -8.21099699e-01</_>
    <_>
      -1.86533913e-01 -8.69575679e-01 -4.20781016e-01 2.45454860e+00
      -1.18075824e+00 -1.46005476e+00 -1.31280863e+00 1.04729831e+00
      7.23476171e-01 5.77525236e-02 4.70545679e-01 2.83208013e+00
      -5.66093802e-01 -9.40148175e-01 -7.53624320e-01 2.17066741e+00
      -1.02972782e+00 -1.28508222e+00 -1.06584299e+00 1.32559323e+00
      1.19641232e+00 5.90463758e-01 9.47207332e-01 2.97734571e+00
      -4.88795489e-02 -4.11271513e-01 -2.29745120e-01 2.55485249e+00
      -6.45963848e-01 -9.39404428e-01 -6.61167920e-01 2.04111314e+00
      1.55642197e-01 7.93817118e-02 1.67197689e-01 -8.09208989e-01
      -7.78532308e-03 -8.33315775e-02 -1.18753472e-02 -7.96720922e-01
      -3.00643537e-02 7.71237984e-02 6.50028065e-02 -8.43944609e-01
      -2.86278687e-02 -1.52311668e-01 -7.05255009e-03 -8.06616306e-01
      -1.22438774e-01 -1.98028579e-01 -1.24043442e-01 -7.97520757e-01
      -1.26059294e-01 5.07378168e-02 1.58278886e-02 -8.58883798e-01
      -6.32999018e-02 -1.24246992e-01 1.59017723e-02 -8.20919514e-01
      -7.73496255e-02 -2.04169154e-01 -1.16430357e-01 -7.97778845e-01</_>
    <_>
      -1.90437540e-01 -9.66716766e-01 -4.39507037e-01 2.40613413e+00
      -1.06960511e+00 -1.50960076e+00 -1.35213375e+00 1.01442313e+00
      8.10637712e-01 2.89489496e-02 5.30890882e-01 2.77848196e+00
      -4.29673284e-01 -1.10815310e+00 -8.08503270e-01 2.11517239e+00
      -7.79528260e-01 -1.42963493e+00 -1.23026538e+00 1.28105080e+00
      1.35635257e+00 6.23741567e-01 1.05663347e+00 2.92209005e+00
      1.86784506e-01 -5.67436218e-01 -2.48043120e-01 2.49176097e+00
      -3.01472455e-01 -1.13518131e+00 -8.64032328e-01 1.97871447e+00
      2.34231904e-01 3.82956825e-02 1.47725433e-01 -7.87457049e-01
      1.39006637e-02 -7.29087740e-02 -2.57474766e-03 -7.41194427e-01
      3.69943380e-02 -2.61587054e-02 -5.22165969e-02 -8.14822555e-01
      1.38743192e-01 -2.02851802e-01 -6.42985329e-02 -7.65206456e-01
      -5.21208234e-02 -2.03416988e-01 -1.20348752e-01 -7.28954911e-01
      -7.15917721e-02 -5.07304743e-02 -1.41405046e-01 -8.26072216e-01
      1.44965634e-01 -1.92105755e-01 -9.41118449e-02 -7.78413832e-01
      6.92949966e-02 -2.81904191e-01 -1.61916763e-01 -7.43261516e-01</_>
    <_>
      -3.43419433e-01 -1.03358865e+00 -4.00883347e-01 2.50199604e+00
      -1.04423678e+00 -1.35964644e+00 -1.30309641e+00 1.09348428e+00
      4.31240439e-01 -2.62836307e-01 4.32691514e-01 2.88313413e+00
      -6.46817744e-01 -1.02590311e+00 -8.79952252e-01 2.21432805e+00
      -8.36070418e-01 -1.22764218e+00 -1.12207615e+00 1.36953020e+00
      8.74844074e-01 2.27314696e-01 8.97057474e-01 3.03053856e+00
      -2.20106289e-01 -6.29093826e-01 -4.29972708e-01 2.60008550e+00
      -5.21923661e-01 -1.01335168e+00 -8.52125645e-01 2.08270741e+00
      3.27771991e-01 9.20279995e-02 1.75574765e-01 -7.33276367e-01
      3.27605344e-02 -3.47276106e-02 2.79944614e-02 -6.99963272e-01
      1.67206600e-01 9.65567008e-02 2.19580252e-02 -7.69314051e-01
      1.49875820e-01 -1.66059300e-01 -2.73788273e-02 -7.23803997e-01
      -6.02423362e-02 -1.84065327e-01 -1.12367712e-01 -7.02258825e-01
      1.00510709e-01 1.22554779e-01 -4.81799357e-02 -7.84004152e-01
      1.80367753e-01 -1.39826789e-01 -2.44883336e-02 -7.39939928e-01
      5.42916805e-02 -2.53096998e-01 -1.19022459e-01 -7.13645160e-01</_>
    <_>
      -4.05099064e-01 -1.00649190e+00 -4.82249826e-01 2.52484751e+00
      -1.10606301e+00 -1.31761193e+00 -1.25024569e+00 1.10661995e+00
      4.00260478e-01 -2.20675915e-01 3.27256948e-01 2.90628409e+00
      -6.60316110e-01 -9.56673324e-01 -8.18177640e-01 2.23797584e+00
      -8.78548861e-01 -1.20070338e+00 -1.08068979e+00 1.38645577e+00
      8.65622044e-01 2.90296793e-01 7.92826712e-01 3.05296302e+00
      -2.03129947e-01 -5.38729310e-01 -3.66494000e-01 2.62460089e+00
      -5.39101005e-01 -9.68687654e-01 -7.88782954e-01 2.10586619e+00
      2.79924244e-01 1.16931222e-01 2.24001005e-01 -7.45678723e-01
      8.57498217e-03 -5.48006371e-02 -3.24917468e-03 -7.33154476e-01
      1.30398214e-01 1.03718214e-01 1.12777293e-01 -7.82066405e-01
      4.02502567e-02 -1.64093196e-01 -1.42520089e-02 -7.41702616e-01
      -1.11898296e-01 -2.04262495e-01 -1.29154786e-01 -7.34693587e-01
      8.67673382e-02 1.16821900e-01 8.03295970e-02 -7.97472119e-01
      7.13136271e-02 -1.43162236e-01 2.61796694e-02 -7.55141914e-01
      -4.15989645e-02 -2.46912435e-01 -9.48455706e-02 -7.33252823e-01</_>
    <_>
      -2.69240111e-01 -9.47954357e-01 -4.34412926e-01 2.43099380e+00
      -1.14483368e+00 -1.54952312e+00 -1.28940105e+00 1.02962744e+00
      6.69228852e-01 4.12101150e-02 4.94629681e-01 2.80874109e+00
      -5.70783019e-01 -1.08550441e+00 -6.61243737e-01 2.14445472e+00
      -9.34989989e-01 -1.41818595e+00 -1.12629879e+00 1.30415690e+00
      1.16007030e+00 5.99796534e-01 9.77561176e-01 2.95490646e+00
      -2.07540970e-02 -5.27727425e-01 -9.75410193e-02 2.52775979e+00
      -5.34776032e-01 -1.10966444e+00 -7.17046201e-01 2.01387310e+00
      2.41879284e-01 -2.20652646e-03 1.81427896e-01 -7.92213798e-01
      2.72278413e-02 -9.29229409e-02 3.40114683e-02 -7.64775574e-01
      8.49414915e-02 -2.40950175e-02 6.73632249e-02 -8.24099481e-01
      1.25513330e-01 -2.43565336e-01 -5.03952876e-02 -7.70136237e-01
      -4.15494181e-02 -2.05046564e-01 -8.70789513e-02 -7.52379477e-01
      2.84463409e-02 3.56245693e-03 4.13096547e-02 -8.38620603e-01
      1.36519656e-01 -2.30570674e-01 -8.04804564e-02 -7.85513580e-01
      5.54228835e-02 -2.90893793e-01 -1.17577709e-01 -7.50633478e-01</_>
    <_>
      -1.42533794e-01 -7.88559079e-01 -4.10037756e-01 2.33660841e+00
      -1.10781109e+00 -1.60578942e+00 -1.49788284e+00 9.45428669e-01
      8.66452932e-01 2.92117834e-01 6.52767599e-01 2.71017528e+00
      -2.96803445e-01 -9.26798165e-01 -7.10865438e-01 2.05290508e+00
      -8.26769650e-01 -1.46090293e+00 -1.34987414e+00 1.21828413e+00
      1.37838590e+00 8.96523893e-01 1.20359147e+00 2.85488415e+00
      3.28007132e-01 -2.62903303e-01 -3.04069221e-02 2.43312216e+00
      -2.83084244e-01 -9.92418289e-01 -8.16275001e-01 1.92420554e+00
      1.84607118e-01 2.71806773e-03 3.60204540e-02 -8.82981062e-01
      -1.26549480e-02 -1.00007556e-01 -2.49325689e-02 -8.63495708e-01
      3.24323401e-02 -4.58936468e-02 -1.30018532e-01 -9.11278248e-01
      7.96767846e-02 -1.87198296e-01 -1.15079127e-01 -8.70443344e-01
      -6.26701564e-02 -1.95696041e-01 -1.00162327e-01 -8.57913852e-01
      -4.59535196e-02 -6.67029172e-02 -1.79816961e-01 -9.22216535e-01
      8.69513229e-02 -1.85122639e-01 -1.61618039e-01 -8.79139543e-01
      2.11737826e-02 -2.30259180e-01 -1.43133909e-01 -8.52936208e-01</_>
    <_>
      -4.75693077e-01 -8.92442942e-01 -3.31082344e-01 2.44400358e+00
      -1.30646026e+00 -1.38128781e+00 -1.24516618e+00 1.03192019e+00
      4.94724333e-01 9.35692415e-02 6.37527168e-01 2.82430434e+00
      -8.34654510e-01 -9.30424929e-01 -6.65728748e-01 2.15788746e+00
      -1.10760784e+00 -1.24205387e+00 -1.08439779e+00 1.31040394e+00
      1.03287423e+00 6.85739994e-01 1.15666270e+00 2.97116590e+00
      -3.04564804e-01 -3.93175036e-01 -9.85466838e-02 2.54426885e+00
      -7.69153416e-01 -9.13487792e-01 -6.96403205e-01 2.02786279e+00
      1.90244094e-01 1.48817465e-01 2.13480532e-01 -7.86734939e-01
      -4.71201986e-02 -9.90798026e-02 -4.17104103e-02 -7.65479326e-01
      1.53572997e-02 1.12972505e-01 5.57447225e-02 -8.26605082e-01
      1.67108960e-02 -1.12290420e-01 1.18831582e-02 -7.67710507e-01
      -1.48329049e-01 -2.04019874e-01 -1.55506954e-01 -7.53030598e-01
      -6.67443350e-02 7.03212991e-02 -1.00037698e-02 -8.44843388e-01
      4.77443524e-02 -8.02088603e-02 1.29696820e-02 -7.85574257e-01
      -8.32600296e-02 -1.95745021e-01 -1.14576012e-01 -7.48256803e-01</_>
    <_>
      -4.68811579e-02 -8.12174082e-01 -3.82545292e-01 2.28207088e+00
      -1.03696489e+00 -1.69398642e+00 -1.54607356e+00 9.09536660e-01
      9.99454975e-01 3.42848420e-01 7.21632719e-01 2.65378237e+00
      -2.00529844e-01 -1.01666665e+00 -7.54076064e-01 1.99593771e+00
      -7.42389262e-01 -1.55771899e+00 -1.40308154e+00 1.17278194e+00
      1.52758908e+00 9.63830113e-01 1.28352594e+00 2.79818487e+00
      4.44497645e-01 -3.23269486e-01 -5.38381860e-02 2.37214208e+00
      -1.81515291e-01 -1.07951605e+00 -8.68330359e-01 1.86430407e+00
      2.01630086e-01 -7.65657052e-02 7.01678451e-03 -8.42901170e-01
      1.34307602e-02 -1.18969612e-01 -1.40357995e-03 -7.98196256e-01
      -5.01755066e-03 -1.46439090e-01 -2.02102602e-01 -8.77930105e-01
      1.28834292e-01 -2.34063551e-01 -9.05799046e-02 -8.19010258e-01
      -1.69358440e-02 -2.19697133e-01 -8.18594322e-02 -7.90154338e-01
      -1.17038138e-01 -1.53248474e-01 -2.65113145e-01 -8.92479002e-01
      1.03841186e-01 -2.41968870e-01 -1.46698415e-01 -8.34062934e-01
      8.20716098e-02 -2.78696448e-01 -1.22947983e-01 -7.95307517e-01</_>
    <_>
      -3.46910715e-01 -1.06844258e+00 -2.71061897e-01 2.37634778e+00
      -1.08221102e+00 -1.59840643e+00 -1.37045419e+00 9.89199221e-01
      5.85315168e-01 -5.43760173e-02 7.49017119e-01 2.75207114e+00
      -5.27828753e-01 -1.15378547e+00 -6.78940713e-01 2.09156322e+00
      -7.88834691e-01 -1.46864271e+00 -1.24320841e+00 1.25920475e+00
      1.08796918e+00 5.56659997e-01 1.27315831e+00 2.89755368e+00
      -9.98681691e-03 -5.91506720e-01 -5.92869297e-02 2.47174311e+00
      -3.87851566e-01 -1.12168407e+00 -7.90528417e-01 1.96116400e+00
      3.42196673e-01 -1.36889461e-02 1.16824538e-01 -7.95210123e-01
      1.58613771e-02 -9.94455442e-02 4.01492715e-02 -7.65171051e-01
      2.53099471e-01 -3.72582139e-03 -1.23399593e-01 -8.28938186e-01
      2.53480911e-01 -2.56929457e-01 -5.21572493e-02 -7.74210215e-01
      -3.12805064e-02 -2.12693974e-01 -6.65407330e-02 -7.53303707e-01
      1.83820426e-01 1.72609072e-02 -2.04121992e-01 -8.43669653e-01
      3.28177392e-01 -2.03065500e-01 -9.57146287e-02 -7.86229432e-01
      1.28726214e-01 -3.35685968e-01 -1.23156734e-01 -7.48276711e-01</_>
    <_>
      -2.51421750e-01 -8.95255804e-01 -4.37735170e-01 2.40730190e+00
      -1.24945569e+00 -1.47050929e+00 -1.34952843e+00 1.00010693e+00
      7.18680024e-01 1.66535899e-01 5.85280478e-01 2.78493857e+00
      -5.58252692e-01 -8.76937509e-01 -6.77437901e-01 2.12703252e+00
      -1.06719613e+00 -1.30528343e+00 -1.12329781e+00 1.28197408e+00
      1.24094415e+00 7.92426348e-01 1.13998580e+00 2.93012834e+00
      5.78111447e-02 -2.54420578e-01 -4.99574766e-02 2.51195955e+00
      -5.89194357e-01 -8.72893214e-01 -6.49221420e-01 2.00052071e+00
      1.61970749e-01 7.81841949e-02 1.27911612e-01 -8.61881793e-01
      -4.54238653e-02 -8.61325040e-02 -3.85153033e-02 -8.48420680e-01
      2.20611729e-02 7.75811151e-02 -1.03022270e-02 -8.89098227e-01
      -3.77392396e-02 -1.66713327e-01 -3.33861597e-02 -8.45040560e-01
      -1.36487573e-01 -2.01735854e-01 -1.35339335e-01 -8.35676908e-01
      -4.23637852e-02 4.73025814e-02 -6.90063387e-02 -9.01422024e-01
      -7.01069385e-02 -1.36903509e-01 -3.86260897e-02 -8.55026841e-01
      -1.38889804e-01 -2.25366279e-01 -1.05902120e-01 -8.27131927e-01</_>
    <_>
      -3.55632365e-01 -1.05231845e+00 -2.63497412e-01 2.37237358e+00
      -1.11967731e+00 -1.59708846e+00 -1.33836484e+00 9.84627068e-01
      5.83639741e-01 -4.60818559e-02 7.50018060e-01 2.74873805e+00
      -5.86117983e-01 -1.15813482e+00 -6.47507787e-01 2.08722425e+00
      -8.52534235e-01 -1.51198757e+00 -1.18947244e+00 1.25519502e+00
      1.08303976e+00 5.40133238e-01 1.26821816e+00 2.89463425e+00
      -6.42287508e-02 -6.06937349e-01 -4.15333882e-02 2.46789551e+00
      -4.62930650e-01 -1.19819462e+00 -7.40019619e-01 1.95734429e+00
      3.23397607e-01 5.12749283e-03 1.36601776e-01 -7.93222010e-01
      2.20279973e-02 -9.63097885e-02 3.95673290e-02 -7.55427063e-01
      2.27326751e-01 4.24876586e-02 -9.69240740e-02 -8.28649163e-01
      2.47584373e-01 -2.42776737e-01 -2.44734287e-02 -7.69109488e-01
      -2.27322858e-02 -2.28226379e-01 -5.63695803e-02 -7.45424509e-01
      1.73154026e-01 7.70126358e-02 -1.84107497e-01 -8.45572889e-01
      3.19048733e-01 -1.95381805e-01 -7.42164925e-02 -7.84773648e-01
      1.32586300e-01 -3.07103992e-01 -1.10898882e-01 -7.45043576e-01</_>
    <_>
      -2.06609398e-01 -7.43978143e-01 -3.59134316e-01 2.34715700e+00
      -1.23979270e+00 -1.53505635e+00 -1.52281368e+00 9.10541415e-01
      8.44660699e-01 3.59523505e-01 7.34441698e-01 2.73330975e+00
      -3.82457495e-01 -8.39744687e-01 -7.00049639e-01 2.04098749e+00
      -9.77218449e-01 -1.33870661e+00 -1.32846034e+00 1.17747343e+00
      1.36931026e+00 9.72230077e-01 1.29335451e+00 2.88253975e+00
      2.65810162e-01 -1.72828436e-01 -3.62547216e-05 2.43035412e+00
      -4.18945342e-01 -8.65714073e-01 -7.69828916e-01 1.89365792e+00
      1.30865157e-01 3.26822251e-02 1.43045625e-02 -8.98679912e-01
      -5.66824600e-02 -1.17865264e-01 -7.30908886e-02 -8.60560179e-01
      1.04988669e-03 -4.61164629e-03 -1.61901608e-01 -9.35667992e-01
      -1.46656460e-03 -1.31122544e-01 -9.69145373e-02 -8.66171896e-01
      -1.09364241e-01 -1.92516237e-01 -1.51067883e-01 -8.42675924e-01
      -4.85785417e-02 -1.61918327e-02 -2.20343888e-01 -9.51482058e-01
      -3.23036150e-03 -1.16091624e-01 -1.06975652e-01 -8.80024612e-01
      -4.57226783e-02 -1.62368864e-01 -1.46299854e-01 -8.35208952e-01</_>
    <_>
      -1.54291183e-01 -8.10877323e-01 -4.36472297e-01 2.35415483e+00
      -1.21174288e+00 -1.50434995e+00 -1.43747723e+00 9.56333697e-01
      9.13835526e-01 3.03698599e-01 6.55100942e-01 2.72874284e+00
      -4.08705801e-01 -8.56027424e-01 -7.20919847e-01 2.06992006e+00
      -9.33826864e-01 -1.36878812e+00 -1.26976633e+00 1.23116863e+00
      1.45781374e+00 9.46506083e-01 1.23697054e+00 2.87371421e+00
      2.66699553e-01 -1.81857884e-01 -3.57389525e-02 2.45222497e+00
      -3.78556013e-01 -8.95730019e-01 -7.58493125e-01 1.94143045e+00
      7.44021237e-02 5.51499613e-02 7.68511668e-02 -8.63782942e-01
      -6.64160997e-02 -9.79921371e-02 -6.91744387e-02 -8.48393738e-01
      -1.43107653e-01 2.10497109e-03 -1.05681635e-01 -8.96134079e-01
      -3.62784602e-02 -1.36621729e-01 -7.33893588e-02 -8.45890760e-01
      -1.34498820e-01 -1.78768799e-01 -1.41705528e-01 -8.36047947e-01
      -2.35360026e-01 -6.18156530e-02 -2.02759296e-01 -9.10653114e-01
      -6.15388751e-02 -1.25826851e-01 -9.25572291e-02 -8.58348489e-01
      -8.49514157e-02 -1.64811179e-01 -1.33384839e-01 -8.27310741e-01</_>
    <_>
      -1.69455305e-01 -8.37413549e-01 -4.48287696e-01 2.36742210e+00
      -1.14243162e+00 -1.51084137e+00 -1.51070571e+00 9.44710374e-01
      8.70346665e-01 2.31012896e-01 6.16552234e-01 2.74911594e+00
      -3.23861301e-01 -8.93804610e-01 -7.55876660e-01 2.06706405e+00
      -8.61200750e-01 -1.36325169e+00 -1.35079837e+00 1.21208882e+00
      1.39876616e+00 8.41979206e-01 1.17686415e+00 2.89641166e+00
      3.11172336e-01 -2.63648272e-01 -8.28532651e-02 2.45199823e+00
      -3.24222058e-01 -9.30534303e-01 -8.29817712e-01 1.92294955e+00
      1.55647486e-01 6.22955225e-02 4.10778672e-02 -8.78457129e-01
      -5.11999354e-02 -1.03924401e-01 -5.16823977e-02 -8.51778984e-01
      1.18997348e-02 2.44321916e-02 -1.06670678e-01 -9.10122871e-01
      2.69962363e-02 -1.57481760e-01 -1.08865850e-01 -8.53948295e-01
      -1.01305842e-01 -1.85173377e-01 -1.38670042e-01 -8.36115003e-01
      -5.22837304e-02 -6.10335357e-03 -1.49846986e-01 -9.23405468e-01
      2.99015269e-02 -1.57104358e-01 -1.24118522e-01 -8.63755226e-01
      -6.87615480e-03 -2.01185003e-01 -1.65113166e-01 -8.26511919e-01</_>
    <_>
      -3.61337870e-01 -8.05520475e-01 -3.53645831e-01 2.37582684e+00
      -1.35509694e+00 -1.52916741e+00 -1.27484787e+00 9.61852252e-01
      6.79872334e-01 2.78203875e-01 6.88541889e-01 2.75368309e+00
      -5.90584934e-01 -8.74056220e-01 -5.17949402e-01 2.08914828e+00
      -1.13639450e+00 -1.36134756e+00 -1.07665825e+00 1.24039948e+00
      1.23918760e+00 9.09454226e-01 1.26318693e+00 2.89947462e+00
      6.78948611e-02 -2.18706354e-01 1.39148369e-01 2.47494483e+00
      -6.10265732e-01 -8.87101531e-01 -5.48531294e-01 1.95963097e+00
      9.42534655e-02 3.80398072e-02 1.71342179e-01 -8.95247936e-01
      -3.57944705e-02 -1.52117446e-01 -3.23460102e-02 -8.79154921e-01
      -7.01942742e-02 3.43140587e-02 2.47794762e-02 -9.25979078e-01
      -6.10727817e-02 -1.97583646e-01 2.02631168e-02 -8.74946833e-01
      -9.65048596e-02 -2.45963901e-01 -7.89804459e-02 -8.63458872e-01
      -1.34277612e-01 3.03887902e-03 -6.80148825e-02 -9.40055132e-01
      -8.25857595e-02 -1.64719179e-01 1.65119078e-02 -8.88540924e-01
      -8.11837763e-02 -2.70493418e-01 -2.58203167e-02 -8.56744826e-01</_>
    <_>
      -3.38715196e-01 -9.86014366e-01 -3.84304881e-01 2.43601227e+00
      -1.24546981e+00 -1.42099631e+00 -1.23795593e+00 1.03716362e+00
      6.22794151e-01 -3.29246409e-02 5.51385880e-01 2.81228375e+00
      -7.29767025e-01 -1.02393079e+00 -6.98320806e-01 2.15550137e+00
      -1.06768000e+00 -1.27496374e+00 -1.08477199e+00 1.31647658e+00
      1.13622355e+00 5.38436830e-01 1.05349290e+00 2.95681524e+00
      -2.06161946e-01 -5.28803587e-01 -1.63343430e-01 2.53743577e+00
      -7.31689155e-01 -9.94646847e-01 -7.20187008e-01 2.02842879e+00
      2.17306077e-01 1.30360320e-01 2.52366930e-01 -7.79348671e-01
      -1.79541074e-02 -9.54730809e-02 -1.89380422e-02 -7.61339426e-01
      3.25883403e-02 1.43366426e-01 1.18255831e-01 -8.20828855e-01
      4.39515561e-02 -1.12896055e-01 2.16568522e-02 -7.67995298e-01
      -1.20331556e-01 -2.06797227e-01 -1.28938019e-01 -7.56550848e-01
      -6.06071986e-02 1.22249730e-01 5.86528406e-02 -8.39207172e-01
      4.53340970e-02 -8.11454281e-02 2.08178088e-02 -7.86821246e-01
      -6.76574856e-02 -2.36773685e-01 -1.03811800e-01 -7.55295098e-01</_>
    <_>
      -2.38763973e-01 -7.99485683e-01 -3.61206681e-01 2.36327171e+00
      -1.23342621e+00 -1.53912783e+00 -1.43817759e+00 9.57145095e-01
      7.74144113e-01 2.75946230e-01 6.98741913e-01 2.74115825e+00
      -4.34248924e-01 -8.68700922e-01 -7.03587055e-01 2.08220887e+00
      -9.57873642e-01 -1.38941979e+00 -1.26775575e+00 1.23838091e+00
      1.30664849e+00 8.86125922e-01 1.24288166e+00 2.88671613e+00
      2.19386250e-01 -2.28221834e-01 -6.15712889e-02 2.46731400e+00
      -3.98849517e-01 -9.38768446e-01 -7.86213756e-01 1.95567048e+00
      1.58530504e-01 4.56005968e-02 5.49501032e-02 -8.61493945e-01
      -3.78630497e-02 -9.81087908e-02 -3.35838348e-02 -8.42208743e-01
      4.42550704e-03 1.71084460e-02 -1.57085955e-01 -9.00927603e-01
      1.72077492e-03 -1.70030460e-01 -4.59353104e-02 -8.42865407e-01
      -1.00520276e-01 -2.00702712e-01 -1.19156957e-01 -8.31214964e-01
      -7.18392506e-02 -2.06800997e-02 -2.28497818e-01 -9.19044733e-01
      -2.24465020e-02 -1.43065497e-01 -4.29801531e-02 -8.60702097e-01
      -7.24258125e-02 -1.93444073e-01 -8.88665691e-02 -8.26986194e-01</_>
    <_>
      -2.11372808e-01 -7.82965302e-01 -3.20215136e-01 2.32614422e+00
      -1.21820927e+00 -1.57660604e+00 -1.43933880e+00 9.34737682e-01
      8.46609890e-01 3.44091535e-01 7.64819503e-01 2.69977617e+00
      -3.78915727e-01 -8.71904075e-01 -6.50620461e-01 2.04494190e+00
      -9.23807383e-01 -1.40695655e+00 -1.28730845e+00 1.20970953e+00
      1.39273334e+00 9.90024388e-01 1.34108186e+00 2.84400177e+00
      2.89611101e-01 -1.80336595e-01 4.36117649e-02 2.42549324e+00
      -3.44050795e-01 -9.04856205e-01 -7.48289466e-01 1.91744626e+00
      1.33528128e-01 2.38530226e-02 3.45640033e-02 -8.92069101e-01
      -3.96943949e-02 -1.12498179e-01 -3.93349156e-02 -8.80675972e-01
      -3.75582799e-02 -3.44743915e-02 -1.97984755e-01 -9.23200607e-01
      9.25534870e-03 -1.56577289e-01 -5.65680042e-02 -8.80376160e-01
      -9.81028304e-02 -1.92064375e-01 -1.03054598e-01 -8.72690439e-01
      -1.25944346e-01 -1.12217590e-01 -3.24192792e-01 -9.36168134e-01
      -5.70777105e-03 -1.49418265e-01 -9.70151350e-02 -8.91536415e-01
      -5.94563372e-02 -2.04950333e-01 -8.09694454e-02 -8.65780890e-01</_>
    <_>
      -1.63580537e-01 -7.92226255e-01 -3.52386206e-01 2.31843805e+00
      -1.16790080e+00 -1.58619475e+00 -1.53996563e+00 9.06635225e-01
      9.13047373e-01 3.79053086e-01 7.85758793e-01 2.69902611e+00
      -3.39311868e-01 -8.66835058e-01 -7.04889536e-01 2.02186108e+00
      -8.78521740e-01 -1.38005364e+00 -1.35840964e+00 1.17425656e+00
      1.46897197e+00 1.02359390e+00 1.36543226e+00 2.84655786e+00
      3.38410646e-01 -1.57758504e-01 3.18958759e-02 2.40741491e+00
      -3.01733404e-01 -8.58578146e-01 -7.74462402e-01 1.88343918e+00
      1.40140682e-01 -2.19330899e-02 -1.89500786e-02 -8.76914859e-01
      -3.31502482e-02 -1.06640704e-01 -4.20724340e-02 -8.34885895e-01
      -7.52074420e-02 -1.28039062e-01 -2.65264452e-01 -9.13349450e-01
      5.44742979e-02 -1.69970110e-01 -1.11326732e-01 -8.43095183e-01
      -6.74636960e-02 -1.59535944e-01 -1.11849107e-01 -8.16924691e-01
      -1.91169351e-01 -1.76004842e-01 -3.57390016e-01 -9.30035770e-01
      2.49725729e-02 -1.77904382e-01 -1.66137055e-01 -8.59610140e-01
      1.52017805e-03 -1.62047684e-01 -1.31403401e-01 -8.13816905e-01</_>
    <_>
      -1.07197752e-02 -9.45890009e-01 -4.59760308e-01 2.30312204e+00
      -9.04184818e-01 -1.66597235e+00 -1.53782940e+00 9.45808768e-01
      1.01967633e+00 1.63573965e-01 6.00574136e-01 2.66859865e+00
      -6.52281046e-02 -1.08113194e+00 -8.36566031e-01 2.02146244e+00
      -5.57100117e-01 -1.60903752e+00 -1.44147456e+00 1.20833027e+00
      1.54940522e+00 7.98584819e-01 1.15970242e+00 2.80979943e+00
      5.82276165e-01 -4.17349637e-01 -1.63056657e-01 2.39016891e+00
      2.51405798e-02 -1.17458892e+00 -9.51702714e-01 1.89029634e+00
      2.22412065e-01 -6.13722876e-02 1.66533571e-02 -7.91252434e-01
      -1.15751820e-02 -9.47254226e-02 -2.97067631e-02 -7.34532833e-01
      4.72415462e-02 -8.91310349e-02 -1.70743197e-01 -8.24397683e-01
      8.35166052e-02 -2.77137637e-01 -1.51846498e-01 -7.62829602e-01
      -6.20099977e-02 -2.23691344e-01 -1.34972021e-01 -7.24901974e-01
      -3.79125997e-02 -8.26238990e-02 -2.17116997e-01 -8.37691367e-01
      8.29423070e-02 -2.73395568e-01 -1.74297661e-01 -7.79800594e-01
      3.81105840e-02 -3.18597317e-01 -1.99955806e-01 -7.39586234e-01</_>
    <_>
      -1.58031315e-01 -8.17265391e-01 -4.91350591e-01 2.38033891e+00
      -1.14022434e+00 -1.48335004e+00 -1.48087418e+00 9.67084706e-01
      8.45311999e-01 2.31796563e-01 5.60455382e-01 2.75744438e+00
      -3.48650575e-01 -8.73060286e-01 -7.43355870e-01 2.08676124e+00
      -8.80209029e-01 -1.34519291e+00 -1.33058918e+00 1.23750687e+00
      1.35604823e+00 8.41564178e-01 1.12835252e+00 2.90197897e+00
      2.70450532e-01 -2.48904645e-01 -7.37308413e-02 2.46842360e+00
      -3.54491919e-01 -9.34909880e-01 -8.18968594e-01 1.94726336e+00
      1.55116037e-01 4.53097932e-02 8.77610371e-02 -8.75354707e-01
      -4.47041765e-02 -1.13926798e-01 -5.00074290e-02 -8.60328436e-01
      3.05621568e-02 -3.33284523e-04 -3.87345329e-02 -9.06841218e-01
      2.83860695e-02 -1.70853600e-01 -1.04384251e-01 -8.65220487e-01
      -1.09986834e-01 -2.08122492e-01 -1.43706203e-01 -8.54705155e-01
      -1.94039065e-02 -3.07176542e-02 -8.73793811e-02 -9.21547532e-01
      5.57831042e-02 -1.74877912e-01 -1.23168856e-01 -8.78487825e-01
      -1.22168101e-02 -2.31871635e-01 -1.81610480e-01 -8.52048099e-01</_>
    <_>
      -1.21544242e-01 -8.17564011e-01 -3.71850282e-01 2.29933453e+00
      -1.12444949e+00 -1.66258359e+00 -1.55860031e+00 8.95878255e-01
      9.28643763e-01 3.58081460e-01 7.52984822e-01 2.67967629e+00
      -2.94585794e-01 -9.23114002e-01 -7.14085519e-01 2.00557852e+00
      -8.43610644e-01 -1.49835896e+00 -1.37767720e+00 1.16387606e+00
      1.46741343e+00 1.00695682e+00 1.32367229e+00 2.82753062e+00
      3.60708207e-01 -2.04586253e-01 1.28771029e-02 2.39115405e+00
      -2.75540799e-01 -9.68533337e-01 -7.88728476e-01 1.87118924e+00
      1.81464702e-01 -5.35808653e-02 -7.02601799e-04 -8.60916436e-01
      -1.39421085e-02 -1.09684572e-01 -1.47565650e-02 -8.07965040e-01
      -1.83308721e-02 -1.30444437e-01 -2.26051614e-01 -9.07074511e-01
      1.11203752e-01 -2.27672026e-01 -9.58765000e-02 -8.25093329e-01
      -2.49306671e-02 -1.93116769e-01 -7.77451396e-02 -7.92497098e-01
      -1.30336553e-01 -1.72164068e-01 -2.90541053e-01 -9.27006721e-01
      9.87480879e-02 -2.39952713e-01 -1.33198872e-01 -8.51070523e-01
      7.27167875e-02 -2.37658456e-01 -1.02436140e-01 -7.99529493e-01</_>
    <_>
      -3.67161036e-01 -9.49339747e-01 -4.62795675e-01 2.43902588e+00
      -1.19623518e+00 -1.41593587e+00 -1.24185324e+00 1.04421067e+00
      6.14442945e-01 4.85774167e-02 5.27632117e-01 2.81395149e+00
      -6.00764394e-01 -9.93670106e-01 -6.64443552e-01 2.15975642e+00
      -9.70559657e-01 -1.31974328e+00 -1.13070321e+00 1.32288337e+00
      1.17116630e+00 6.66591644e-01 1.08693874e+00 2.95869446e+00
      -3.14838858e-03 -4.36988622e-01 -8.20144936e-02 2.54168797e+00
      -5.37586927e-01 -1.00649130e+00 -7.45058119e-01 2.03435183e+00
      1.97696716e-01 9.03407633e-02 2.01054752e-01 -8.09306085e-01
      -2.24679857e-02 -9.47122052e-02 -1.94878653e-02 -7.97705412e-01
      3.85331698e-02 4.91857231e-02 2.12986637e-02 -8.37864161e-01
      2.71138735e-03 -1.48163274e-01 -1.63812339e-02 -8.03791702e-01
      -1.21326201e-01 -2.18042150e-01 -1.15749650e-01 -7.96471536e-01
      -4.65286039e-02 2.50568278e-02 -8.06806386e-02 -8.50058079e-01
      -2.15354050e-03 -1.17494129e-01 -4.16043140e-02 -8.15551162e-01
      -7.65633434e-02 -2.33532622e-01 -7.00286180e-02 -7.95631886e-01</_>
    <_>
      -3.55827123e-01 -1.02307022e+00 -3.98262352e-01 2.50592899e+00
      -1.09207475e+00 -1.35427713e+00 -1.27736795e+00 1.08997428e+00
      4.29207027e-01 -2.37024710e-01 4.45060492e-01 2.88833523e+00
      -6.78921998e-01 -1.01073432e+00 -8.53000760e-01 2.21665502e+00
      -8.65751505e-01 -1.21412027e+00 -1.09503710e+00 1.36741948e+00
      8.68798077e-01 2.56297290e-01 9.11477268e-01 3.03622842e+00
      -2.49660030e-01 -6.04265392e-01 -3.99983674e-01 2.60386777e+00
      -5.37417412e-01 -9.86029923e-01 -8.11132014e-01 2.08397102e+00
      2.92467386e-01 1.01814955e-01 1.80735439e-01 -7.48831809e-01
      2.95784865e-02 -3.89911495e-02 1.60021540e-02 -7.13939726e-01
      1.34516910e-01 9.95543897e-02 2.29323134e-02 -7.82918572e-01
      1.22650020e-01 -1.54335842e-01 -1.34256463e-02 -7.36484766e-01
      -6.25520274e-02 -1.83122933e-01 -1.19873762e-01 -7.13337660e-01
      8.44641179e-02 1.22022003e-01 -4.62659039e-02 -7.96787739e-01
      1.59222066e-01 -1.39231771e-01 3.26437876e-03 -7.50562251e-01
      3.73974219e-02 -2.43804306e-01 -9.87048894e-02 -7.22713053e-01</_>
    <_>
      -4.49242711e-01 -9.97868001e-01 -3.89586121e-01 2.45723891e+00
      -1.19464314e+00 -1.41265273e+00 -1.22683454e+00 1.05502546e+00
      5.44902802e-01 -3.51628847e-02 5.60996890e-01 2.83363605e+00
      -6.32193387e-01 -9.83599365e-01 -6.37313247e-01 2.17299557e+00
      -9.57336009e-01 -1.31731832e+00 -1.10454059e+00 1.33161271e+00
      1.10260892e+00 5.63627362e-01 1.08813882e+00 2.97863865e+00
      -5.00159524e-02 -4.44007009e-01 -6.40814081e-02 2.55525398e+00
      -5.40781558e-01 -1.01477337e+00 -7.02739656e-01 2.04321170e+00
      2.26007015e-01 9.16023552e-02 2.00645387e-01 -7.95423090e-01
      -2.74053905e-02 -8.06672424e-02 -3.21449600e-02 -7.73929954e-01
      7.45104924e-02 6.63276538e-02 5.68967611e-02 -8.27812254e-01
      1.00086164e-02 -1.72536299e-01 -6.03747144e-02 -7.91861713e-01
      -1.35255054e-01 -1.89889431e-01 -1.45664051e-01 -7.80161917e-01
      9.12070088e-03 5.46323732e-02 -7.69006275e-03 -8.41023624e-01
      3.55313569e-02 -1.76894635e-01 -8.09960812e-02 -8.04846585e-01
      -6.93185404e-02 -2.29254112e-01 -1.51098937e-01 -7.84231365e-01</_>
    <_>
      -1.61068410e-01 -7.89683938e-01 -3.60045046e-01 2.33474660e+00
      -1.19784141e+00 -1.68157268e+00 -1.50619888e+00 9.29823756e-01
      7.82934964e-01 2.98810184e-01 7.04894304e-01 2.71162271e+00
      -3.70367944e-01 -8.97152305e-01 -6.71234071e-01 2.05228949e+00
      -9.28515136e-01 -1.48597741e+00 -1.27169919e+00 1.20912921e+00
      1.25602448e+00 8.83287966e-01 1.23745048e+00 2.85742378e+00
      2.28246123e-01 -2.19505668e-01 1.22215867e-03 2.43790436e+00
      -3.72237980e-01 -9.70104158e-01 -7.15575397e-01 1.92611861e+00
      1.82165518e-01 -2.11803410e-02 2.18725428e-02 -8.85365367e-01
      -3.16109397e-02 -1.06027797e-01 -2.57578399e-02 -8.64137471e-01
      1.20687857e-01 5.62676415e-02 -1.11970238e-01 -9.24988925e-01
      3.09377778e-02 -2.33575016e-01 -6.88524693e-02 -8.67747664e-01
      -9.20448303e-02 -2.24235907e-01 -1.00762121e-01 -8.57451677e-01
      1.15658745e-01 1.06442697e-01 -1.39872894e-01 -9.43456471e-01
      5.74576259e-02 -1.94051370e-01 -5.80228716e-02 -8.86909246e-01
      -7.14386702e-02 -2.74578035e-01 -1.05650090e-01 -8.54951560e-01</_>
    <_>
      -1.14193588e-01 -7.57745683e-01 -3.75781596e-01 2.31020260e+00
      -1.18152380e+00 -1.63772774e+00 -1.50142133e+00 9.18814600e-01
      9.09459949e-01 3.66192371e-01 7.24657655e-01 2.68443632e+00
      -3.26473445e-01 -9.05890644e-01 -6.71301365e-01 2.03110075e+00
      -9.04791117e-01 -1.49155760e+00 -1.31783402e+00 1.19614923e+00
      1.43352568e+00 9.77798045e-01 1.28961992e+00 2.82912612e+00
      3.32315922e-01 -2.27016076e-01 2.14947462e-02 2.41264391e+00
      -3.21060508e-01 -9.99882281e-01 -7.69116461e-01 1.90548313e+00
      1.47772923e-01 -3.08562238e-02 1.16923945e-02 -8.64003897e-01
      -3.07061449e-02 -1.14610098e-01 -2.21516322e-02 -8.43938649e-01
      2.71332148e-03 -5.48401587e-02 -1.58643961e-01 -9.08256590e-01
      3.53003331e-02 -2.06086352e-01 -8.51739496e-02 -8.46398234e-01
      -6.53281361e-02 -2.09657297e-01 -8.64616930e-02 -8.35394263e-01
      -7.56885782e-02 -7.29763135e-02 -2.31742054e-01 -9.30011570e-01
      1.32107735e-02 -1.87665373e-01 -1.24837928e-01 -8.68073344e-01
      -3.14073078e-02 -2.35397860e-01 -9.68401805e-02 -8.33245814e-01</_>
    <_>
      -2.67935961e-01 -9.77188230e-01 -3.87739301e-01 2.40168309e+00
      -1.04634178e+00 -1.56424296e+00 -1.43999958e+00 1.00175071e+00
      6.38503373e-01 -1.52818067e-02 5.89045227e-01 2.77898669e+00
      -4.15931374e-01 -1.07547963e+00 -8.21232915e-01 2.11345959e+00
      -7.62455106e-01 -1.41100466e+00 -1.29877532e+00 1.27312219e+00
      1.10785007e+00 5.38419783e-01 1.10179687e+00 2.92520046e+00
      9.85887200e-02 -5.42043090e-01 -2.32663408e-01 2.49689054e+00
      -3.37310165e-01 -1.05937755e+00 -8.75318766e-01 1.98129582e+00
      3.27965200e-01 8.74669757e-03 7.87934959e-02 -8.07963431e-01
      2.29231603e-02 -6.68581352e-02 2.13328414e-02 -7.74000347e-01
      2.28471622e-01 1.42446207e-02 -1.33502439e-01 -8.40510964e-01
      2.17300549e-01 -2.23655209e-01 -9.51210484e-02 -7.89363086e-01
      -3.40662338e-02 -1.69542924e-01 -9.71295312e-02 -7.68589735e-01
      1.89972803e-01 5.84380366e-02 -1.79547057e-01 -8.54829073e-01
      2.95080721e-01 -1.65386423e-01 -1.06121674e-01 -8.04441094e-01
      1.34566590e-01 -2.77127236e-01 -1.52320623e-01 -7.74031818e-01</_>
    <_>
      -2.94348687e-01 -9.88212228e-01 -4.18919414e-01 2.44972849e+00
      -1.09105372e+00 -1.45464003e+00 -1.38886273e+00 1.03142154e+00
      6.05994701e-01 -8.84829983e-02 5.11554718e-01 2.83239365e+00
      -5.06996274e-01 -1.02088332e+00 -8.43061328e-01 2.15698791e+00
      -8.32228124e-01 -1.31452465e+00 -1.22554874e+00 1.30592191e+00
      1.08190465e+00 4.41506922e-01 1.01151884e+00 2.98088455e+00
      -5.92056313e-04 -5.35458088e-01 -2.93947250e-01 2.54525924e+00
      -4.28042293e-01 -1.01938319e+00 -8.40608537e-01 2.02212977e+00
      2.85902977e-01 6.07079603e-02 1.07600600e-01 -7.92809606e-01
      7.63373356e-03 -5.72815128e-02 -6.34962833e-03 -7.55305111e-01
      1.63587064e-01 4.82640602e-02 -5.79540431e-02 -8.28275204e-01
      1.49483413e-01 -1.71210200e-01 -9.72061679e-02 -7.72098899e-01
      -6.52051046e-02 -1.75997958e-01 -1.16185844e-01 -7.47656941e-01
      1.27451032e-01 9.39905867e-02 -9.93338227e-02 -8.44202042e-01
      2.11489335e-01 -1.28420413e-01 -9.24619958e-02 -7.89822936e-01
      6.89110383e-02 -2.11728305e-01 -1.51350603e-01 -7.55578697e-01</_>
    <_>
      -3.09123963e-01 -9.69559908e-01 -3.78421396e-01 2.39963579e+00
      -1.10168636e+00 -1.58295965e+00 -1.42646790e+00 9.90462720e-01
      6.12823069e-01 3.36489901e-02 6.14430964e-01 2.77901793e+00
      -4.47905719e-01 -1.02303231e+00 -7.86433756e-01 2.10951519e+00
      -8.63954008e-01 -1.42372131e+00 -1.25317740e+00 1.26367319e+00
      1.09340060e+00 6.02426529e-01 1.12499237e+00 2.92597461e+00
      8.77003819e-02 -4.52528805e-01 -1.95484042e-01 2.49510121e+00
      -4.26218003e-01 -1.03532577e+00 -8.11140656e-01 1.97632372e+00
      2.92592347e-01 -2.00049044e-03 7.44083449e-02 -8.30813587e-01
      8.46511684e-03 -7.33644664e-02 7.50211114e-03 -7.93537319e-01
      1.94096893e-01 3.37981768e-02 -1.41078085e-01 -8.62853587e-01
      1.65237889e-01 -2.19384775e-01 -5.96069135e-02 -8.07710409e-01
      -3.16455029e-02 -1.71182901e-01 -7.85968676e-02 -7.85493731e-01
      1.66805506e-01 1.09581620e-01 -1.64425448e-01 -8.77793610e-01
      2.40224019e-01 -1.53277710e-01 -3.42173874e-02 -8.23642790e-01
      1.26927286e-01 -2.50143528e-01 -9.00297388e-02 -7.90826797e-01</_>
    <_>
      -7.40665793e-02 -8.04595768e-01 -4.12204236e-01 2.32023740e+00
      -1.08267081e+00 -1.60442126e+00 -1.53023028e+00 9.37535703e-01
      9.46898222e-01 3.16866100e-01 6.68797612e-01 2.69205475e+00
      -2.85633862e-01 -9.37021911e-01 -7.50509739e-01 2.03657103e+00
      -7.96907961e-01 -1.46893215e+00 -1.37763917e+00 1.20661604e+00
      1.45855463e+00 9.34031010e-01 1.23731482e+00 2.83528328e+00
      3.39309752e-01 -2.72775680e-01 -6.01369850e-02 2.41311145e+00
      -2.60073304e-01 -1.00368106e+00 -8.52671802e-01 1.90500963e+00
      1.68495387e-01 -9.36887134e-03 1.81362927e-02 -8.55627894e-01
      -2.53252201e-02 -9.53378230e-02 -3.79342623e-02 -8.37728262e-01
      -1.96548533e-02 -6.77937865e-02 -1.55095086e-01 -8.91721427e-01
      9.33476463e-02 -1.79697007e-01 -1.15415566e-01 -8.48156095e-01
      -6.97584376e-02 -1.82741880e-01 -1.31857798e-01 -8.37689459e-01
      -1.05778962e-01 -8.83105993e-02 -2.20591679e-01 -9.06643629e-01
      1.03827477e-01 -1.78734601e-01 -1.54722750e-01 -8.60997319e-01
      4.04523201e-02 -2.12742612e-01 -1.73742980e-01 -8.35108697e-01</_>
    <_>
      -1.90674007e-01 -9.36719000e-01 -5.79506516e-01 2.42601919e+00
      -1.17660224e+00 -1.46314120e+00 -1.32814980e+00 1.02299106e+00
      7.49014616e-01 6.21950552e-02 3.86783570e-01 2.80228519e+00
      -5.13906658e-01 -9.40186501e-01 -7.14853287e-01 2.14558840e+00
      -9.43255365e-01 -1.33479333e+00 -1.16030288e+00 1.30335391e+00
      1.25294161e+00 6.64576590e-01 9.40883517e-01 2.94728041e+00
      8.21486190e-02 -3.46687764e-01 -1.17694683e-01 2.52931261e+00
      -4.73324060e-01 -9.62140799e-01 -7.41652787e-01 2.01914167e+00
      1.89873666e-01 8.10210258e-02 1.75471425e-01 -8.45913351e-01
      -2.78952997e-02 -7.70481825e-02 -2.26639062e-02 -8.36138487e-01
      6.08175658e-02 8.82972851e-02 8.89962837e-02 -8.72082591e-01
      1.83470622e-02 -1.72474727e-01 -7.19686300e-02 -8.39784384e-01
      -1.14101417e-01 -1.99814320e-01 -1.27626508e-01 -8.33689213e-01
      1.50804510e-02 9.68564153e-02 3.42431031e-02 -8.83894980e-01
      1.24376388e-02 -1.54600680e-01 -1.08321570e-01 -8.49244356e-01
      -7.26440474e-02 -2.14574173e-01 -1.16925173e-01 -8.30961287e-01</_>
    <_>
      -1.73360437e-01 -9.03830469e-01 -5.61855137e-01 2.42142582e+00
      -1.15087855e+00 -1.41887784e+00 -1.37599385e+00 1.02445555e+00
      8.04622829e-01 1.14007086e-01 4.34968263e-01 2.79588532e+00
      -4.80497718e-01 -9.15197134e-01 -8.03112864e-01 2.14064169e+00
      -9.40102875e-01 -1.27604795e+00 -1.21603763e+00 1.30170894e+00
      1.32293069e+00 7.29452789e-01 9.95632052e-01 2.93965888e+00
      1.22775659e-01 -3.28325629e-01 -1.97500810e-01 2.52152014e+00
      -4.81993258e-01 -9.03067589e-01 -8.04490149e-01 2.01216269e+00
      1.70534775e-01 1.06683902e-01 1.47666708e-01 -8.34638715e-01
      -3.10042668e-02 -6.96267113e-02 -4.31797318e-02 -8.25170279e-01
      -3.08651794e-02 2.99740527e-02 3.25893797e-02 -8.62229884e-01
      8.27383809e-03 -1.14871040e-01 -7.33145326e-02 -8.28699708e-01
      -1.25893652e-01 -1.58661127e-01 -1.51361391e-01 -8.22128654e-01
      -1.22137487e-01 -1.89929642e-02 -2.85595711e-02 -8.73971820e-01
      -8.40263814e-03 -1.16257668e-01 -7.97558799e-02 -8.38971555e-01
      -5.13802916e-02 -1.59775570e-01 -1.57302395e-01 -8.19248676e-01</_>
    <_>
      -4.17061970e-02 -8.59853923e-01 -4.12107646e-01 2.30655384e+00
      -9.80428636e-01 -1.64050722e+00 -1.57278562e+00 9.30625618e-01
      9.71194327e-01 2.41599828e-01 6.65430725e-01 2.67762899e+00
      -1.72144830e-01 -1.02075994e+00 -8.00114155e-01 2.01891637e+00
      -6.61205173e-01 -1.52935171e+00 -1.45245290e+00 1.19307685e+00
      1.48313475e+00 8.55202317e-01 1.21974802e+00 2.82111168e+00
      4.49584395e-01 -3.65917027e-01 -1.17936239e-01 2.39367914e+00
      -1.15569428e-01 -1.08192205e+00 -9.34147656e-01 1.88408053e+00
      2.26002395e-01 -4.45243828e-02 -9.63969622e-03 -8.32298040e-01
      -7.48527562e-03 -1.05954677e-01 -1.98032185e-02 -7.99106717e-01
      5.89646474e-02 -9.69035104e-02 -1.97719440e-01 -8.63661766e-01
      1.41756520e-01 -2.41537377e-01 -1.29706904e-01 -8.10542226e-01
      -3.89600769e-02 -2.19418049e-01 -1.14961050e-01 -7.89679646e-01
      -2.06613448e-02 -8.86727720e-02 -2.40656704e-01 -8.76832128e-01
      1.59713298e-01 -2.39794016e-01 -1.71789154e-01 -8.20729017e-01
      1.01806395e-01 -2.97481567e-01 -1.75925344e-01 -7.86456406e-01</_>
    <_>
      -4.07514423e-01 -1.03296423e+00 -3.10093999e-01 2.41283894e+00
      -1.20179963e+00 -1.50056732e+00 -1.26342809e+00 1.01424730e+00
      5.31860888e-01 -9.80754942e-02 6.64725244e-01 2.78978157e+00
      -7.32632995e-01 -1.12778246e+00 -6.28292263e-01 2.12670636e+00
      -9.69282389e-01 -1.37814808e+00 -1.11398077e+00 1.28784418e+00
      1.02409363e+00 4.67812330e-01 1.17128444e+00 2.93591976e+00
      -2.36399055e-01 -6.36163592e-01 -6.14559688e-02 2.50952411e+00
      -6.24971211e-01 -1.10743451e+00 -7.07304120e-01 1.99654198e+00
      2.92608857e-01 7.09898472e-02 2.08035350e-01 -7.87072182e-01
      6.49063615e-03 -9.54912156e-02 2.81672440e-02 -7.58171320e-01
      1.53050810e-01 8.59799981e-02 3.57015654e-02 -8.25919926e-01
      1.98334590e-01 -1.72343776e-01 7.92805944e-03 -7.70581841e-01
      -5.93510009e-02 -2.08669424e-01 -6.93214610e-02 -7.51877308e-01
      9.24665630e-02 9.88712534e-02 -4.21800055e-02 -8.43009114e-01
      2.70190030e-01 -1.30092740e-01 -2.85027623e-02 -7.88885713e-01
      8.14074054e-02 -2.51609683e-01 -8.88377577e-02 -7.53195584e-01</_>
    <_>
      -2.75091290e-01 -7.39356756e-01 -3.27106476e-01 2.34971714e+00
      -1.30279517e+00 -1.48109663e+00 -1.40533769e+00 9.34360981e-01
      8.42710555e-01 4.08223063e-01 7.93360591e-01 2.72760463e+00
      -5.06395578e-01 -7.87772596e-01 -5.87079167e-01 2.05659580e+00
      -1.03230274e+00 -1.25042081e+00 -1.20774281e+00 1.20646846e+00
      1.42517996e+00 1.06147981e+00 1.37949252e+00 2.87347221e+00
      2.04481140e-01 -8.79936218e-02 1.35172755e-01 2.44096923e+00
      -4.63554621e-01 -7.43412375e-01 -6.33891344e-01 1.91979969e+00
      8.09611827e-02 2.16920599e-02 3.33001427e-02 -8.99324656e-01
      -7.10033178e-02 -1.27427369e-01 -7.55863264e-02 -8.85724723e-01
      -1.48644477e-01 -7.31424317e-02 -1.86981425e-01 -9.29270685e-01
      -4.40228321e-02 -1.47162259e-01 -1.14865251e-01 -8.80262196e-01
      -1.38031423e-01 -1.79662392e-01 -1.52700901e-01 -8.69773805e-01
      -2.50419557e-01 -1.43536299e-01 -2.71564484e-01 -9.41554368e-01
      -6.78496882e-02 -1.46170065e-01 -1.64962500e-01 -8.87407541e-01
      -9.87092182e-02 -1.47390291e-01 -1.65800333e-01 -8.54741037e-01</_>
    <_>
      -3.12311202e-01 -9.89902675e-01 -3.22948426e-01 2.37109923e+00
      -1.09612548e+00 -1.63499367e+00 -1.44254208e+00 9.53842402e-01
      6.78132057e-01 8.91419724e-02 7.45338619e-01 2.75707150e+00
      -4.49584901e-01 -1.10890973e+00 -7.09885895e-01 2.07183051e+00
      -8.30226481e-01 -1.50582409e+00 -1.30053270e+00 1.22128880e+00
      1.20652306e+00 7.23128974e-01 1.29083371e+00 2.90800905e+00
      1.30184054e-01 -4.82620716e-01 -4.73057590e-02 2.46226430e+00
      -3.68159890e-01 -1.12036884e+00 -8.07323456e-01 1.93316567e+00
      3.10339302e-01 -2.18617059e-02 7.23785758e-02 -7.66052544e-01
      -9.18437727e-03 -1.14090696e-01 2.68838950e-03 -6.88418448e-01
      1.82065398e-01 -4.93992008e-02 -1.71233892e-01 -8.29421580e-01
      1.65184125e-01 -2.50061244e-01 -9.60480198e-02 -7.14609265e-01
      -4.26505394e-02 -2.19461188e-01 -9.87613872e-02 -6.67452574e-01
      1.10406011e-01 -5.20189032e-02 -2.45959744e-01 -8.57191205e-01
      2.13643268e-01 -2.40675867e-01 -1.50684237e-01 -7.59194851e-01
      1.02689311e-01 -2.91798681e-01 -1.52300432e-01 -6.83151722e-01</_>
    <_>
      -1.51817635e-01 -7.47065187e-01 -3.98788869e-01 2.33733392e+00
      -1.17003524e+00 -1.57827413e+00 -1.47343218e+00 9.41677749e-01
      8.64658713e-01 3.63113344e-01 6.88660622e-01 2.71196938e+00
      -3.25006068e-01 -8.48840833e-01 -6.65373266e-01 2.05747795e+00
      -9.14222836e-01 -1.38674605e+00 -1.29255843e+00 1.22053063e+00
      1.39305806e+00 9.81563509e-01 1.25616705e+00 2.85639381e+00
      3.18882644e-01 -1.64666817e-01 2.37795562e-02 2.43894958e+00
      -3.44556183e-01 -8.78685892e-01 -7.37072349e-01 1.93166876e+00
      1.25629291e-01 1.62956901e-02 4.35815379e-02 -9.03354764e-01
      -3.61223370e-02 -1.11602306e-01 -4.58364002e-02 -8.89449954e-01
      -5.57405651e-02 -2.45074909e-02 -1.14541605e-01 -9.31839943e-01
      -3.11347023e-02 -1.79863065e-01 -7.78768733e-02 -8.92155051e-01
      -1.03593498e-01 -1.82723641e-01 -1.14837684e-01 -8.82985711e-01
      -1.56778991e-01 -8.40480700e-02 -2.07826421e-01 -9.44877326e-01
      -6.06071204e-02 -1.79255679e-01 -1.00148961e-01 -9.03344929e-01
      -6.78546876e-02 -2.12365493e-01 -1.19874291e-01 -8.79102230e-01</_>
    <_>
      -1.76803768e-01 -7.22178757e-01 -3.41091007e-01 2.33193207e+00
      -1.23711407e+00 -1.57721472e+00 -1.42601478e+00 9.34715807e-01
      8.72172296e-01 3.70899826e-01 7.33983338e-01 2.70613813e+00
      -4.00568277e-01 -8.72986197e-01 -6.23259246e-01 2.05043697e+00
      -9.94768441e-01 -1.41501331e+00 -1.24107122e+00 1.21220839e+00
      1.39956081e+00 9.75999832e-01 1.28534079e+00 2.85029840e+00
      2.58696914e-01 -2.08414018e-01 3.93780731e-02 2.43195391e+00
      -4.29404616e-01 -9.36382532e-01 -7.22139835e-01 1.92317998e+00
      1.13871060e-01 1.01219602e-02 5.05198017e-02 -8.94675076e-01
      -3.25198993e-02 -1.00990951e-01 -2.99452059e-02 -8.79985154e-01
      -8.64758715e-02 -3.56389061e-02 -1.55673504e-01 -9.27474439e-01
      -1.29921855e-02 -1.41186669e-01 -6.82034045e-02 -8.80684614e-01
      -9.41924676e-02 -1.95774391e-01 -1.06934108e-01 -8.71821165e-01
      -1.68985099e-01 -6.19841516e-02 -2.40245163e-01 -9.41515207e-01
      -3.37047018e-02 -9.51733515e-02 -1.03902943e-01 -8.92521203e-01
      -5.93879670e-02 -1.67089015e-01 -8.23306665e-02 -8.64975989e-01</_>
    <_>
      -1.53698236e-01 -8.04222286e-01 -3.93948615e-01 2.34513235e+00
      -1.18478703e+00 -1.63834929e+00 -1.48044217e+00 9.40756440e-01
      8.12382102e-01 2.59548873e-01 6.47099614e-01 2.72090101e+00
      -3.76805067e-01 -9.36393142e-01 -7.07354367e-01 2.05977535e+00
      -9.21128452e-01 -1.47770905e+00 -1.28599215e+00 1.21578133e+00
      1.30560350e+00 8.33780885e-01 1.18126309e+00 2.86599851e+00
      2.36145809e-01 -2.94475228e-01 -5.32758236e-02 2.44360590e+00
      -3.87102336e-01 -1.03038239e+00 -7.73296595e-01 1.92922509e+00
      1.86947420e-01 -2.16526771e-03 5.26543185e-02 -8.74358296e-01
      -1.80090014e-02 -9.03562680e-02 -1.47124575e-02 -8.52742851e-01
      1.00957461e-01 5.95039502e-02 -8.04051384e-02 -9.09209013e-01
      5.48583530e-02 -2.10516050e-01 -7.71880671e-02 -8.49940836e-01
      -7.82925263e-02 -1.92672849e-01 -1.08137935e-01 -8.34535539e-01
      8.38211328e-02 1.19646311e-01 -1.12900935e-01 -9.25625563e-01
      7.59398490e-02 -1.92744911e-01 -9.76491123e-02 -8.66573930e-01
      -1.69389006e-02 -2.45587140e-01 -1.51219144e-01 -8.29484582e-01</_>
    <_>
      -3.51048172e-01 -1.02081275e+00 -3.99877280e-01 2.51474237e+00
      -1.08048916e+00 -1.34016907e+00 -1.27432287e+00 1.10071743e+00
      4.22069132e-01 -2.61699259e-01 4.24021959e-01 2.89758182e+00
      -6.74469709e-01 -1.00244331e+00 -8.53802204e-01 2.22700000e+00
      -8.89447093e-01 -1.18605530e+00 -1.06818736e+00 1.37788081e+00
      8.58632743e-01 1.91187635e-01 8.56627047e-01 3.04509926e+00
      -2.57856995e-01 -6.22066319e-01 -4.36475962e-01 2.61369395e+00
      -5.87290525e-01 -9.73446846e-01 -7.99842834e-01 2.09395838e+00
      2.95106918e-01 1.07364148e-01 1.85743093e-01 -7.37717211e-01
      2.53449809e-02 -3.42946947e-02 1.93077140e-02 -7.15610266e-01
      1.37037396e-01 9.49638486e-02 4.58290949e-02 -7.72233248e-01
      1.06414810e-01 -1.44550219e-01 4.71166149e-03 -7.32561350e-01
      -7.12541714e-02 -1.86515749e-01 -1.06980309e-01 -7.19867349e-01
      7.05345199e-02 1.19651183e-01 -8.52759555e-03 -7.85918593e-01
      1.33833230e-01 -1.37348890e-01 2.97042970e-02 -7.43353903e-01
      3.48043144e-02 -2.41688520e-01 -9.48832259e-02 -7.20455289e-01</_>
    <_>
      -2.49156997e-01 -7.35622227e-01 -3.92385215e-01 2.37773180e+00
      -1.26716542e+00 -1.44468784e+00 -1.44566667e+00 9.45333719e-01
      7.74606228e-01 3.20974082e-01 6.79025233e-01 2.76024628e+00
      -4.54755038e-01 -7.89204478e-01 -6.47531569e-01 2.07981610e+00
      -1.01118052e+00 -1.27383637e+00 -1.27251232e+00 1.21858692e+00
      1.30678940e+00 9.34459746e-01 1.25327992e+00 2.90650296e+00
      1.89720437e-01 -1.58295944e-01 3.86657491e-02 2.46634030e+00
      -4.69121516e-01 -8.31939876e-01 -7.33354926e-01 1.93709099e+00
      1.14284150e-01 7.73654133e-02 5.47885150e-02 -9.08008635e-01
      -8.99924412e-02 -1.17171481e-01 -8.09286833e-02 -8.91096830e-01
      9.37009323e-03 4.15936932e-02 -8.67947713e-02 -9.40719306e-01
      -4.04579788e-02 -1.17664956e-01 -1.15722902e-01 -8.90497327e-01
      -1.65076882e-01 -1.87562078e-01 -1.78522557e-01 -8.78902018e-01
      -4.41185124e-02 8.51322617e-03 -1.60571799e-01 -9.55700219e-01
      -2.37478018e-02 -1.01406664e-01 -1.36359274e-01 -9.02024090e-01
      -1.07767865e-01 -1.45791724e-01 -1.82370663e-01 -8.69690478e-01</_>
    <_>
      -8.18337202e-02 -9.93722081e-01 -4.42564994e-01 2.33741903e+00
      -9.28916872e-01 -1.63143265e+00 -1.47850025e+00 9.70126331e-01
      9.41858113e-01 1.02206439e-01 5.78930080e-01 2.70438695e+00
      -1.64565146e-01 -1.09821892e+00 -8.40599597e-01 2.05136538e+00
      -5.73950648e-01 -1.55937302e+00 -1.40468001e+00 1.23236156e+00
      1.48961270e+00 7.59488285e-01 1.13433135e+00 2.84597015e+00
      4.81933922e-01 -4.50535625e-01 -1.96724638e-01 2.42162538e+00
      -1.30802030e-02 -1.15586054e+00 -9.57162261e-01 1.91725445e+00
      2.53967822e-01 -5.02820387e-02 5.02579585e-02 -7.80067086e-01
      3.81222740e-03 -9.26861390e-02 -1.35913491e-02 -7.24756896e-01
