<?xml version="1.0"?>
<opencv_storage>
<my_svm type_id="opencv-ml-svm">
  <svm_type>C_SVC</svm_type>
  <kernel><type>RBF</type>
    <gamma>2.</gamma></kernel>
  <C>2.</C>
  <term_criteria><epsilon>2.2204460492503131e-16</epsilon>
    <iterations>100</iterations></term_criteria>
  <var_all>64</var_all>
  <var_count>64</var_count>
  <class_count>8</class_count>
  <class_labels type_id="opencv-matrix">
    <rows>1</rows>
    <cols>8</cols>
    <dt>i</dt>
    <data>
      0 1 2 3 4 5 6 7</data></class_labels>
  <sv_total>1107</sv_total>
  <support_vectors>
    <_>
      1.99107789e-02 -8.83367300e-01 -4.34457541e-01 2.28947210e+00
      -9.11813855e-01 -1.67401457e+00 -1.59575927e+00 9.27204669e-01
      1.01693356e+00 2.22223327e-01 6.52312577e-01 2.65677738e+00
      -8.58403444e-02 -1.05769467e+00 -8.43729496e-01 2.00379395e+00
      -5.87530673e-01 -1.57617307e+00 -1.48069203e+00 1.18720996e+00
      1.52742577e+00 8.37305069e-01 1.20158839e+00 2.79893637e+00
      5.38176119e-01 -3.98334175e-01 -1.62873313e-01 2.37481642e+00
      -2.60977466e-02 -1.13691235e+00 -9.73769128e-01 1.87059963e+00
      2.42651761e-01 -7.76961595e-02 -3.99284763e-03 -8.10118198e-01
      5.31772338e-03 -9.90523025e-02 -1.60899665e-02 -7.58304000e-01
      7.47984424e-02 -1.05148233e-01 -2.04855070e-01 -8.43253732e-01
      1.43420205e-01 -2.73639530e-01 -1.40090168e-01 -7.82117426e-01
      -3.87198925e-02 -2.32405439e-01 -1.15547821e-01 -7.49565303e-01
      -2.24559065e-02 -8.78290311e-02 -2.37830028e-01 -8.56331587e-01
      1.43097788e-01 -2.80390382e-01 -1.74302921e-01 -7.96694696e-01
      8.86749923e-02 -3.42798859e-01 -1.87071249e-01 -7.57286727e-01</_>
    <_>
      -3.75370026e-01 -8.41241300e-01 -3.35848570e-01 2.37665486e+00
      -1.30419064e+00 -1.55953348e+00 -1.31249595e+00 9.62148845e-01
      6.52641714e-01 2.53242373e-01 7.02294767e-01 2.75546932e+00
      -5.57646096e-01 -9.23476994e-01 -5.61585009e-01 2.08816719e+00
      -1.08614552e+00 -1.40790415e+00 -1.11173570e+00 1.23874044e+00
      1.20896852e+00 8.80613387e-01 1.25812340e+00 2.90130234e+00
      8.89461860e-02 -2.73743600e-01 9.11226869e-02 2.47337937e+00
      -5.70873857e-01 -9.67236519e-01 -5.94684184e-01 1.95530260e+00
      1.63090184e-01 1.31902043e-02 1.32424161e-01 -8.77934039e-01
      -1.61499698e-02 -1.45338461e-01 -1.00316936e-02 -8.56229484e-01
      3.84968147e-02 -7.00180978e-03 -3.47874202e-02 -9.10584748e-01
      9.82830208e-03 -2.06262678e-01 -4.52690665e-03 -8.55816007e-01
      -7.08706453e-02 -2.46559769e-01 -6.51912391e-02 -8.40488851e-01
      -2.00681742e-02 -3.15610878e-02 -1.00912414e-01 -9.25228894e-01
      3.03929020e-03 -1.86049715e-01 -2.00750437e-02 -8.68840873e-01
      -3.01574096e-02 -2.63421178e-01 -3.63492370e-02 -8.33037972e-01</_>
    <_>
      -1.16704851e-01 -6.97063148e-01 -3.74295890e-01 2.31468415e+00
      -1.19222581e+00 -1.59316921e+00 -1.58572674e+00 8.85512948e-01
      9.21544433e-01 4.39801455e-01 7.51924098e-01 2.70061421e+00
      -3.16863030e-01 -8.42320204e-01 -7.16055453e-01 2.00865436e+00
      -9.20336485e-01 -1.41729665e+00 -1.37981701e+00 1.15056157e+00
      1.44574928e+00 1.05670178e+00 1.31813693e+00 2.85059214e+00
      3.34606051e-01 -1.52183086e-01 5.81635209e-03 2.39794111e+00
      -3.41126651e-01 -9.11089182e-01 -7.98170984e-01 1.86306894e+00
      1.16996288e-01 7.71624781e-03 -2.57248525e-02 -8.84376884e-01
      -5.45705706e-02 -9.86223072e-02 -6.64158165e-02 -8.35959733e-01
      -3.49374972e-02 -7.06446543e-02 -2.07231209e-01 -9.27764058e-01
      1.82516221e-02 -1.36338621e-01 -1.22724339e-01 -8.46426189e-01
      -9.68616530e-02 -1.57096207e-01 -1.40760109e-01 -8.19449723e-01
      -1.09235555e-01 -1.10746145e-01 -2.75030524e-01 -9.46787059e-01
      1.47814183e-02 -1.37587473e-01 -1.45678356e-01 -8.65446270e-01
      -2.02545580e-02 -1.44890592e-01 -1.53020725e-01 -8.14629376e-01</_>
    <_>
      -4.68654521e-02 -9.41264153e-01 -5.52606404e-01 2.35805702e+00
      -9.31226492e-01 -1.60573030e+00 -1.51847458e+00 9.83985007e-01
      9.10374582e-01 1.15778364e-01 4.75899726e-01 2.72772336e+00
      -1.71084285e-01 -1.03075564e+00 -8.63063276e-01 2.07349133e+00
      -6.42908812e-01 -1.50431991e+00 -1.38150978e+00 1.24892986e+00
      1.40762615e+00 7.25964367e-01 1.03584516e+00 2.87044930e+00
      4.09838974e-01 -4.08952117e-01 -2.22582906e-01 2.44744635e+00
      -1.31927997e-01 -1.10353851e+00 -9.18566346e-01 1.94103122e+00
      2.34217405e-01 -2.01751757e-02 5.65123148e-02 -8.08778822e-01
      -1.82549842e-02 -8.23636651e-02 -2.74455491e-02 -7.85453379e-01
      9.89343002e-02 -1.33967614e-02 -6.56484962e-02 -8.37799370e-01
      1.02581590e-01 -2.56625354e-01 -1.37133226e-01 -7.95631409e-01
      -6.85509071e-02 -1.96258575e-01 -1.42357022e-01 -7.81537831e-01
      3.05647105e-02 -6.44123508e-03 -1.00933760e-01 -8.50612819e-01
      1.40257224e-01 -2.51875281e-01 -1.24805100e-01 -8.07186067e-01
      5.90808094e-02 -3.10148984e-01 -2.08627805e-01 -7.81170309e-01</_>
    <_>
      -1.83804452e-01 -8.54624689e-01 -4.56281483e-01 2.36686444e+00
      -1.18023777e+00 -1.58056438e+00 -1.49017048e+00 9.53026891e-01
      7.78590858e-01 2.05658346e-01 6.04085028e-01 2.74613237e+00
      -3.92573386e-01 -8.92550409e-01 -7.28980422e-01 2.08268833e+00
      -9.01122272e-01 -1.43024707e+00 -1.32105136e+00 1.23307610e+00
      1.27118337e+00 7.89607406e-01 1.15178096e+00 2.89225554e+00
      2.10248455e-01 -2.56325841e-01 -7.48937950e-02 2.46966147e+00
      -3.68243217e-01 -9.67700183e-01 -8.20932031e-01 1.95323479e+00
      1.77684784e-01 1.83754582e-02 4.86596115e-02 -8.62118542e-01
      -3.87331955e-02 -9.31149498e-02 -2.58506462e-02 -8.40244591e-01
      8.79993662e-02 6.84323087e-02 -8.64288285e-02 -9.01987612e-01
      4.97835018e-02 -1.99983969e-01 -9.58115831e-02 -8.36355984e-01
      -9.19027179e-02 -1.98143423e-01 -1.07226156e-01 -8.23319256e-01
      6.79652020e-02 1.22504108e-01 -1.19227603e-01 -9.20611620e-01
      9.33516845e-02 -1.63596928e-01 -1.02506079e-01 -8.54350567e-01
      -3.15451846e-02 -2.22267270e-01 -1.11965917e-01 -8.15254450e-01</_>
    <_>
      -2.90244728e-01 -7.41080284e-01 -2.98241854e-01 2.36442041e+00
      -1.31217360e+00 -1.52725708e+00 -1.39338803e+00 9.50471520e-01
      7.41250455e-01 3.31050098e-01 7.50414491e-01 2.74259567e+00
      -4.87640530e-01 -8.03760111e-01 -6.14100218e-01 2.07822847e+00
      -1.06725979e+00 -1.33977604e+00 -1.20569587e+00 1.22935855e+00
      1.28576624e+00 9.38364267e-01 1.29775190e+00 2.88834023e+00
      1.69906974e-01 -1.42830178e-01 5.23041785e-02 2.46394110e+00
      -5.08243978e-01 -8.37966323e-01 -6.72249734e-01 1.94815111e+00
      9.52109098e-02 5.88324666e-02 5.22458442e-02 -8.96770239e-01
      -5.77760004e-02 -1.09239921e-01 -5.46487309e-02 -8.78488183e-01
      -4.79420573e-02 4.67272475e-02 -1.30240098e-01 -9.29464459e-01
      -6.95855543e-02 -1.53673172e-01 -3.59158143e-02 -8.75662804e-01
      -1.27865881e-01 -1.82193726e-01 -1.21802866e-01 -8.63334775e-01
      -1.35951295e-01 2.76462012e-03 -2.06845328e-01 -9.44725096e-01
      -1.09414078e-01 -1.34393439e-01 -3.37542370e-02 -8.90437305e-01
      -1.27116054e-01 -1.96876004e-01 -7.51783475e-02 -8.56892824e-01</_>
    <_>
      5.04839234e-02 -9.27604139e-01 -4.54840958e-01 2.27893591e+00
      -8.92710328e-01 -1.71613371e+00 -1.58051813e+00 9.30312872e-01
      1.02997172e+00 1.98919415e-01 6.15958631e-01 2.64415383e+00
      -8.79233107e-02 -1.11051118e+00 -8.58321548e-01 1.99950135e+00
      -5.84003150e-01 -1.60578871e+00 -1.46802723e+00 1.19112575e+00
      1.52442181e+00 8.16743255e-01 1.16272819e+00 2.78589535e+00
      5.15499711e-01 -4.47911829e-01 -1.91614702e-01 2.36937881e+00
      -3.92920524e-02 -1.16770613e+00 -9.82205749e-01 1.87203312e+00
      2.41245821e-01 -8.92660394e-02 1.84387118e-02 -8.00818801e-01
      1.50946826e-02 -1.03817999e-01 -3.19162174e-03 -7.57342577e-01
      6.45923838e-02 -1.02116890e-01 -1.48547873e-01 -8.36855352e-01
      1.60610691e-01 -2.76915759e-01 -1.09086350e-01 -7.83459008e-01
      -1.74720045e-02 -2.09289327e-01 -9.34535787e-02 -7.56091654e-01
      -2.42485646e-02 -7.41305500e-02 -1.82483733e-01 -8.52622390e-01
      1.72675565e-01 -2.51225829e-01 -1.33238658e-01 -8.01127672e-01
      1.13031559e-01 -3.28848660e-01 -1.53043628e-01 -7.67946005e-01</_>
    <_>
      -2.75732756e-01 -1.05420196e+00 -4.65482146e-01 2.49625444e+00
      -9.90940809e-01 -1.40659654e+00 -1.32541943e+00 1.09877229e+00
      4.89333302e-01 -2.40060374e-01 3.59132499e-01 2.87553167e+00
      -5.74448466e-01 -1.05120957e+00 -9.19901729e-01 2.21310854e+00
      -7.57852852e-01 -1.26794088e+00 -1.14041555e+00 1.37448180e+00
      9.32438076e-01 2.81734586e-01 8.20178151e-01 3.02215838e+00
      -1.39527708e-01 -6.15789175e-01 -4.74527031e-01 2.59681153e+00
      -4.23167884e-01 -1.04509425e+00 -8.79418552e-01 2.08430648e+00
      3.44077229e-01 5.81842177e-02 1.67454943e-01 -7.15309441e-01
      3.86999436e-02 -2.44838614e-02 2.04818062e-02 -6.88869178e-01
      1.79537311e-01 8.49034116e-02 2.71175802e-02 -7.54491627e-01
      1.52060390e-01 -2.09837213e-01 -6.24024607e-02 -7.12096334e-01
      -6.07628375e-02 -1.69783905e-01 -1.31668344e-01 -6.99759781e-01
      1.09100461e-01 1.16374671e-01 -2.38411613e-02 -7.70286679e-01
      1.79455012e-01 -1.94904312e-01 -4.42643426e-02 -7.28714347e-01
      3.77598070e-02 -2.66227514e-01 -1.45760924e-01 -7.08256721e-01</_>
    <_>
      -9.58361924e-02 -9.13518727e-01 -4.38626826e-01 2.33818483e+00
      -9.63120520e-01 -1.64829648e+00 -1.53214395e+00 9.61433589e-01
      8.51809084e-01 1.25213414e-01 5.94170570e-01 2.71067095e+00
      -2.03344405e-01 -1.08469570e+00 -8.41548979e-01 2.05476189e+00
      -6.74231350e-01 -1.52561069e+00 -1.39207780e+00 1.22825205e+00
      1.34400582e+00 7.16499627e-01 1.11848116e+00 2.85509062e+00
      3.87632787e-01 -4.79533166e-01 -2.10641742e-01 2.43269849e+00
      -1.48273602e-01 -1.14273906e+00 -9.33915794e-01 1.92568636e+00
      2.79835343e-01 -5.94226271e-02 2.98270751e-02 -8.15407336e-01
      1.42011428e-02 -9.32616517e-02 4.01467783e-03 -7.78857052e-01
      1.65988579e-01 -3.84446159e-02 -1.18064106e-01 -8.49385142e-01
      1.49702504e-01 -2.55691439e-01 -1.01963565e-01 -7.97573328e-01
      -3.30515467e-02 -2.07912490e-01 -8.71900022e-02 -7.76818931e-01
      1.12523727e-01 -4.08787979e-03 -1.31937131e-01 -8.64086986e-01
      1.63534760e-01 -2.45474324e-01 -1.11649930e-01 -8.12476575e-01
      7.79847354e-02 -3.14994127e-01 -1.34197593e-01 -7.82100439e-01</_>
    <_>
      -3.05268854e-01 -9.74137723e-01 -4.47127044e-01 2.44127798e+00
      -1.23546839e+00 -1.38319182e+00 -1.29860568e+00 1.03084970e+00
      6.75645351e-01 3.85415517e-02 5.51677048e-01 2.82025814e+00
      -6.19893610e-01 -8.82972181e-01 -7.16322005e-01 2.15767765e+00
      -1.03890502e+00 -1.25178075e+00 -1.10606658e+00 1.31178188e+00
      1.20989954e+00 6.75882220e-01 1.11026990e+00 2.96665192e+00
      -3.38638462e-02 -2.96361506e-01 -1.17710635e-01 2.54392123e+00
      -6.16575599e-01 -8.78238082e-01 -6.86779857e-01 2.03054404e+00
      1.57008022e-01 1.34646997e-01 1.56117931e-01 -8.19264770e-01
      -4.18561548e-02 -7.75667801e-02 -5.11703640e-02 -8.03821445e-01
      -5.22563346e-02 1.19040452e-01 -1.50950933e-02 -8.53178918e-01
      -4.63518128e-02 -1.27469093e-01 -3.69773619e-02 -8.07106793e-01
      -1.39257863e-01 -1.98054209e-01 -1.43840611e-01 -7.97348738e-01
      -1.45012498e-01 8.02443624e-02 -9.62573215e-02 -8.68119717e-01
      -6.14792779e-02 -1.01665139e-01 -2.59481054e-02 -8.21561873e-01
      -1.03572682e-01 -1.97500885e-01 -9.73634124e-02 -7.93569684e-01</_>
    <_>
      -2.60365427e-01 -8.04179072e-01 -4.16952074e-01 2.36540461e+00
      -1.24372351e+00 -1.50189221e+00 -1.40407133e+00 9.54836369e-01
      7.91046619e-01 3.08894128e-01 6.62260175e-01 2.74329376e+00
      -4.73632932e-01 -8.52599144e-01 -6.49126768e-01 2.07919621e+00
      -1.01950657e+00 -1.32080019e+00 -1.21077955e+00 1.23228467e+00
      1.35560417e+00 9.47770357e-01 1.24516249e+00 2.88914490e+00
      1.86191097e-01 -1.87768057e-01 3.46242413e-02 2.46442747e+00
      -4.94959235e-01 -8.48569036e-01 -6.75646603e-01 1.94903493e+00
      1.20173827e-01 4.10661921e-02 1.00395441e-01 -8.98257554e-01
      -4.95009050e-02 -1.09078161e-01 -5.24125956e-02 -8.84336710e-01
      -7.25927949e-02 -2.01118784e-03 -6.93435222e-02 -9.28552747e-01
      -2.25323401e-02 -1.36356130e-01 -5.69302626e-02 -8.82939339e-01
      -1.09115876e-01 -1.72215894e-01 -1.18577875e-01 -8.72925460e-01
      -1.88176930e-01 -6.48662001e-02 -1.65231645e-01 -9.41673756e-01
      -5.80878146e-02 -1.10890508e-01 -7.45840594e-02 -8.94290924e-01
      -5.33787385e-02 -1.43732995e-01 -1.08149983e-01 -8.65497291e-01</_>
    <_>
      -2.21329033e-01 -1.04069269e+00 -4.12115157e-01 2.36912894e+00
      -1.04668665e+00 -1.60246503e+00 -1.41251361e+00 9.82225001e-01
      7.79514730e-01 6.39120722e-03 6.03923798e-01 2.74318743e+00
      -3.98578584e-01 -1.13226092e+00 -7.92417645e-01 2.08076000e+00
      -7.33343244e-01 -1.52026725e+00 -1.30191445e+00 1.25072277e+00
      1.32124865e+00 6.52785361e-01 1.14701962e+00 2.88842702e+00
      1.99031889e-01 -5.23893714e-01 -1.72857046e-01 2.45935106e+00
      -2.63882875e-01 -1.16579425e+00 -8.80499303e-01 1.94867003e+00
      3.03516567e-01 -2.77117193e-02 9.48247313e-02 -7.65759408e-01
      2.37305835e-02 -8.66424963e-02 1.84302554e-02 -7.07081079e-01
      1.34237736e-01 -2.87997443e-02 -1.20417781e-01 -8.11514974e-01
      2.16944128e-01 -2.64299303e-01 -8.37425143e-02 -7.36881137e-01
      -6.56733662e-03 -2.07765505e-01 -8.01969767e-02 -7.03754425e-01
      3.22918408e-02 -3.93260121e-02 -1.89280182e-01 -8.30297649e-01
      2.49519542e-01 -2.63284743e-01 -1.39057681e-01 -7.64876008e-01
      1.56966731e-01 -3.20798039e-01 -1.40677750e-01 -7.22605824e-01</_>
    <_>
      -4.26992476e-01 -9.71633434e-01 -4.11998779e-01 2.45065546e+00
      -1.20110250e+00 -1.42464995e+00 -1.19814253e+00 1.05483723e+00
      5.61307967e-01 1.80814657e-02 5.50998688e-01 2.82534695e+00
      -6.59285426e-01 -1.03705776e+00 -6.27084792e-01 2.16768384e+00
      -9.75029528e-01 -1.35771036e+00 -1.07063568e+00 1.33026695e+00
      1.12202322e+00 6.17317259e-01 1.08960438e+00 2.97012639e+00
      -8.00504461e-02 -5.03117979e-01 -5.80313019e-02 2.54896379e+00
      -5.78982770e-01 -1.07783675e+00 -6.75559640e-01 2.03934455e+00
      2.13932410e-01 6.39132783e-02 2.14677513e-01 -7.79232919e-01
      -1.93713401e-02 -9.21207890e-02 -9.95145831e-03 -7.55164683e-01
      6.81792796e-02 3.60345724e-03 3.27860638e-02 -8.13893199e-01
      3.93405147e-02 -1.97386876e-01 -2.43297610e-02 -7.71133184e-01
      -1.11638755e-01 -2.23853424e-01 -1.09337404e-01 -7.57043183e-01
      6.52761757e-03 -1.31964637e-02 -3.31181213e-02 -8.27829659e-01
      6.64150119e-02 -1.83822319e-01 -3.95078994e-02 -7.87287831e-01
      -4.38180715e-02 -2.66343296e-01 -1.00360006e-01 -7.61290729e-01</_>
    <_>
      -5.74985035e-02 -8.20926249e-01 -4.11247790e-01 2.31868386e+00
      -1.05414331e+00 -1.60621965e+00 -1.53370535e+00 9.39408064e-01
      9.55295742e-01 2.86033273e-01 6.77333415e-01 2.68924522e+00
      -2.36368746e-01 -9.57182348e-01 -7.58499861e-01 2.03567576e+00
      -7.78910875e-01 -1.47488737e+00 -1.37232077e+00 1.20733058e+00
      1.47110975e+00 9.05865133e-01 1.23959041e+00 2.83202720e+00
      3.90267968e-01 -3.00725847e-01 -7.34963417e-02 2.41117954e+00
      -2.31916100e-01 -1.02315319e+00 -8.45964730e-01 1.90396297e+00
      1.74895063e-01 -1.77314505e-02 1.30632706e-02 -8.54577005e-01
      -2.16869470e-02 -1.08078696e-01 -3.51904891e-02 -8.37278843e-01
      3.37896426e-03 -6.87828213e-02 -1.60670638e-01 -8.89311135e-01
      7.85727128e-02 -1.96771145e-01 -1.11878984e-01 -8.49654078e-01
      -6.39385283e-02 -2.01351911e-01 -1.15226179e-01 -8.38289976e-01
      -9.56980661e-02 -1.00125514e-01 -2.18577027e-01 -9.03751194e-01
      7.77402297e-02 -1.86653540e-01 -1.47709072e-01 -8.61764848e-01
      3.87766995e-02 -2.22188741e-01 -1.67711467e-01 -8.37670326e-01</_>
    <_>
      -1.46024689e-01 -7.47394681e-01 -4.13996726e-01 2.33548331e+00
      -1.21127057e+00 -1.58093190e+00 -1.42287624e+00 9.51711297e-01
      8.82029235e-01 3.69527400e-01 6.55384600e-01 2.70726442e+00
      -3.82130027e-01 -8.73884320e-01 -6.64130270e-01 2.05940604e+00
      -9.62086439e-01 -1.43797386e+00 -1.27035654e+00 1.22891271e+00
      1.41853166e+00 1.00165582e+00 1.23398530e+00 2.84996128e+00
      2.79839456e-01 -1.81343123e-01 1.09052639e-02 2.43761134e+00
      -4.03533101e-01 -9.53190207e-01 -7.60965228e-01 1.93465102e+00
      1.00638419e-01 2.24018525e-02 8.19278732e-02 -8.66117060e-01
      -5.39173894e-02 -9.33133140e-02 -5.74885048e-02 -8.55703652e-01
      -7.01367557e-02 -3.32568400e-02 -6.33086786e-02 -9.04480398e-01
      -3.15171070e-02 -1.56937465e-01 -6.58384562e-02 -8.62516046e-01
      -1.21338822e-01 -1.71149299e-01 -1.38034344e-01 -8.54915917e-01
      -1.61229849e-01 -8.60263705e-02 -1.52647123e-01 -9.20306742e-01
      -5.76234646e-02 -1.69950038e-01 -9.04861167e-02 -8.77897203e-01
      -8.09545740e-02 -1.84364378e-01 -1.14802808e-01 -8.53481889e-01</_>
    <_>
      -1.85938090e-01 -8.49274218e-01 -3.42772990e-01 2.31518340e+00
      -1.16170692e+00 -1.67699444e+00 -1.46486783e+00 9.21337366e-01
      8.43193412e-01 2.70185947e-01 7.36072361e-01 2.69137788e+00
      -3.71005088e-01 -1.00060189e+00 -6.70956254e-01 2.02735734e+00
      -9.09582257e-01 -1.52571225e+00 -1.28213847e+00 1.19080901e+00
      1.36420548e+00 8.91441762e-01 1.28858709e+00 2.83768296e+00
      2.62935013e-01 -3.31267834e-01 -5.40740904e-04 2.41019344e+00
      -3.73375982e-01 -1.06849754e+00 -7.57574379e-01 1.89720225e+00
      2.20523715e-01 -6.60810769e-02 5.39275929e-02 -8.60546887e-01
      2.96206158e-02 -1.26919150e-01 3.41346636e-02 -8.25950146e-01
      5.60144484e-02 -9.00251418e-02 -1.49676651e-01 -8.96576464e-01
      1.33638158e-01 -2.65733957e-01 -1.10009843e-02 -8.35646391e-01
      7.26803998e-03 -2.41924942e-01 -2.04155650e-02 -8.13904166e-01
      -7.63249537e-03 -9.25946981e-02 -2.18080118e-01 -9.13372695e-01
      1.31257460e-01 -2.58195966e-01 -4.80983630e-02 -8.51330817e-01
      9.98682529e-02 -3.14259499e-01 -2.06202902e-02 -8.12623918e-01</_>
    <_>
      1.34305283e-02 -9.23915505e-01 -4.26304519e-01 2.27523708e+00
      -9.51994300e-01 -1.74037504e+00 -1.56112742e+00 9.19859350e-01
      1.01044095e+00 2.15666905e-01 6.58923984e-01 2.64268637e+00
      -1.43199936e-01 -1.09207761e+00 -8.18590522e-01 1.99415135e+00
      -6.45873904e-01 -1.60548556e+00 -1.43552983e+00 1.18204570e+00
      1.51411116e+00 8.38983297e-01 1.21400952e+00 2.78538013e+00
      4.82471138e-01 -4.12789196e-01 -1.35633931e-01 2.36592937e+00
      -9.38002244e-02 -1.14273107e+00 -9.31778967e-01 1.86621416e+00
      2.37450868e-01 -8.55415389e-02 2.85455473e-02 -8.20256591e-01
      2.44851820e-02 -1.12422653e-01 1.07827354e-02 -7.76001632e-01
      5.24657369e-02 -8.43021274e-02 -1.62219509e-01 -8.55833352e-01
      1.68728366e-01 -2.68606186e-01 -7.80838132e-02 -8.02174568e-01
      -2.53027515e-03 -2.03696638e-01 -6.95920065e-02 -7.76514053e-01
      -5.07880524e-02 -7.19982684e-02 -2.20545858e-01 -8.72215092e-01
      1.59887403e-01 -2.47332036e-01 -1.20969832e-01 -8.20351005e-01
      1.17664829e-01 -3.12082022e-01 -1.16557702e-01 -7.87729502e-01</_>
    <_>
      -2.55150735e-01 -9.70596015e-01 -5.02453446e-01 2.43309760e+00
      -1.21698415e+00 -1.42703629e+00 -1.30077422e+00 1.03256404e+00
      7.05210924e-01 3.11785843e-02 4.84436065e-01 2.80859995e+00
      -6.01212800e-01 -9.35451925e-01 -7.35047460e-01 2.15196300e+00
      -9.96326089e-01 -1.31417000e+00 -1.14497983e+00 1.31157207e+00
      1.21412516e+00 6.45156562e-01 1.03982341e+00 2.95356274e+00
      -2.73175873e-02 -3.63530606e-01 -1.58364654e-01 2.53513360e+00
      -5.74325800e-01 -9.53607321e-01 -7.56430209e-01 2.02542377e+00
      1.81327343e-01 1.20359093e-01 1.70093462e-01 -8.09817672e-01
      -3.10640559e-02 -6.97732866e-02 -3.02665681e-02 -7.94063091e-01
      1.36787193e-02 1.25104174e-01 1.09029068e-02 -8.43860567e-01
      4.55900654e-03 -1.21917665e-01 -4.84403409e-02 -8.00476015e-01
      -1.21825412e-01 -1.75477505e-01 -1.46258727e-01 -7.92833984e-01
      -5.27737774e-02 1.02169387e-01 -7.38937184e-02 -8.60551000e-01
      1.70908831e-02 -8.30954686e-02 -4.46381047e-02 -8.17596197e-01
      -6.42769188e-02 -1.80310905e-01 -1.26011446e-01 -7.94150710e-01</_>
    <_>
      -5.11327207e-01 -1.00775337e+00 -2.39543274e-01 2.42881536e+00
      -1.25926316e+00 -1.43264258e+00 -1.17232740e+00 1.03135467e+00
      4.40896302e-01 -1.04699969e-01 6.93654418e-01 2.80561304e+00
      -8.21482956e-01 -1.12016940e+00 -5.87224066e-01 2.14376974e+00
      -1.02043903e+00 -1.31125975e+00 -1.05396068e+00 1.30516660e+00
      9.53362644e-01 4.51350331e-01 1.16830575e+00 2.95064592e+00
      -3.24290544e-01 -6.70841575e-01 -6.68017417e-02 2.52469301e+00
      -6.96903825e-01 -1.09142971e+00 -6.98928893e-01 2.01210475e+00
      2.68555194e-01 1.08175211e-01 2.51903921e-01 -7.83068299e-01
      -8.79019778e-03 -1.01205364e-01 1.88221689e-02 -7.57411122e-01
      1.54601485e-01 1.16472200e-01 7.62119517e-02 -8.21254969e-01
      1.25049144e-01 -1.30251601e-01 4.28775325e-02 -7.73981810e-01
      -9.92165655e-02 -2.06216410e-01 -9.20111910e-02 -7.57099926e-01
      9.76271480e-02 1.07383795e-01 1.71791203e-02 -8.37232292e-01
      1.87860757e-01 -8.61175582e-02 3.97463748e-03 -7.90349483e-01
      1.40973600e-02 -2.27105185e-01 -7.77296126e-02 -7.60193467e-01</_>
    <_>
      -3.25946838e-01 -7.95884073e-01 -3.81744772e-01 2.42992377e+00
      -1.32359445e+00 -1.48409700e+00 -1.26440036e+00 1.00477123e+00
      6.33015215e-01 1.89811409e-01 5.56973457e-01 2.81234217e+00
      -6.39764786e-01 -8.74886990e-01 -5.96371710e-01 2.14067078e+00
      -1.14247274e+00 -1.31036019e+00 -1.04059553e+00 1.28484619e+00
      1.14525342e+00 7.49199927e-01 1.06895804e+00 2.95952630e+00
      -5.98976873e-02 -2.93807298e-01 -1.68816075e-02 2.52935219e+00
      -6.92283094e-01 -9.12799656e-01 -5.76621473e-01 2.00793481e+00
      1.34843692e-01 6.27278760e-02 1.88087091e-01 -8.54153275e-01
      -2.67899651e-02 -1.02099851e-01 -1.91607848e-02 -8.37431014e-01
      -1.52708925e-02 4.97183576e-02 5.92608079e-02 -8.94612372e-01
      -4.47693840e-02 -1.48991093e-01 -8.78118444e-03 -8.45858395e-01
      -1.22140199e-01 -2.17808992e-01 -1.12845451e-01 -8.36864591e-01
      -9.60766301e-02 3.14179361e-02 5.62395295e-03 -9.12631989e-01
      -6.03354238e-02 -1.15959376e-01 9.82415769e-03 -8.65041912e-01
      -9.16598663e-02 -2.00472176e-01 -5.43098785e-02 -8.37607861e-01</_>
    <_>
      -3.83588672e-01 -1.03479373e+00 -4.63001639e-01 2.53876448e+00
      -1.06851912e+00 -1.26561356e+00 -1.23754871e+00 1.12938702e+00
      3.80773664e-01 -3.38234276e-01 3.03952396e-01 2.91759086e+00
      -6.57332420e-01 -9.56951201e-01 -8.53837311e-01 2.25471926e+00
      -8.42817187e-01 -1.15536797e+00 -1.06567144e+00 1.40865302e+00
      8.19287956e-01 1.06827162e-01 7.31377721e-01 3.06296682e+00
      -2.35231221e-01 -5.87909997e-01 -4.42210287e-01 2.63828158e+00
      -5.38491130e-01 -9.64105129e-01 -8.03404748e-01 2.12342668e+00
      3.18967521e-01 1.49244860e-01 2.10802346e-01 -7.31331408e-01
      1.40172737e-02 -2.24267021e-02 1.27169853e-02 -7.22434580e-01
      1.91162974e-01 1.23182602e-01 7.60414824e-02 -7.63629913e-01
      8.28988180e-02 -1.21706247e-01 -4.85000946e-02 -7.33409166e-01
      -1.06339745e-01 -1.81152314e-01 -1.28910556e-01 -7.28964806e-01
      1.39079913e-01 1.29909962e-01 2.28507593e-02 -7.76307642e-01
      1.17505156e-01 -1.43878117e-01 -4.40181084e-02 -7.42740214e-01
      -4.94016381e-03 -2.27753475e-01 -1.55070633e-01 -7.26245582e-01</_>
    <_>
      -1.03959814e-01 -9.56752121e-01 -4.20151204e-01 2.32864332e+00
      -1.02042627e+00 -1.68747282e+00 -1.54501534e+00 9.37484622e-01
      8.58245492e-01 1.41691789e-01 6.63546920e-01 2.70711303e+00
      -3.00026864e-01 -1.07753456e+00 -7.80350327e-01 2.04123998e+00
      -7.44492531e-01 -1.54566824e+00 -1.37846756e+00 1.20806420e+00
      1.36066759e+00 7.65246868e-01 1.21530831e+00 2.85435772e+00
      2.76879847e-01 -4.26583290e-01 -1.07722364e-01 2.42457581e+00
      -2.55152196e-01 -1.11368704e+00 -8.63170922e-01 1.91169763e+00
      2.69054532e-01 -5.70391603e-02 2.35414635e-02 -7.97020912e-01
      1.26874782e-02 -9.08577070e-02 2.03415770e-02 -7.35991359e-01
      1.19970255e-01 -4.53166589e-02 -1.69709772e-01 -8.49824548e-01
      1.93924621e-01 -2.60251611e-01 -1.03496775e-01 -7.60296047e-01
      -1.33497156e-02 -1.92577913e-01 -6.93437457e-02 -7.28209734e-01
      3.06790303e-02 -3.90332825e-02 -2.26928011e-01 -8.72815073e-01
      2.19515353e-01 -2.50067949e-01 -1.50742486e-01 -7.93760478e-01
      1.28657714e-01 -2.96720237e-01 -1.41624078e-01 -7.41524160e-01</_>
    <_>
      -3.95780385e-01 -1.02383769e+00 -5.21099746e-01 2.53753829e+00
      -1.08049047e+00 -1.31148744e+00 -1.23284125e+00 1.12123668e+00
      3.58597368e-01 -3.02747518e-01 2.52747059e-01 2.91854334e+00
      -6.82235241e-01 -9.79453504e-01 -8.15625310e-01 2.25164390e+00
      -8.64746332e-01 -1.15404308e+00 -1.06717074e+00 1.40121949e+00
      7.92258322e-01 1.57266453e-01 6.95045948e-01 3.06477261e+00
      -2.68934250e-01 -5.94532192e-01 -3.98162812e-01 2.63752270e+00
      -5.57390332e-01 -9.38546538e-01 -8.00310671e-01 2.11974907e+00
      3.13412607e-01 1.21657200e-01 2.40688398e-01 -7.33825207e-01
      1.52593357e-02 -3.44101898e-02 1.73527896e-02 -7.21266568e-01
      1.64522588e-01 1.26753226e-01 1.40683532e-01 -7.69642651e-01
      7.49233887e-02 -1.48933366e-01 -1.48579618e-02 -7.32381284e-01
      -1.00073732e-01 -1.87752411e-01 -1.24380700e-01 -7.25829661e-01
      1.14554077e-01 1.54742584e-01 1.13565318e-01 -7.84393370e-01
      1.05487272e-01 -1.24899656e-01 1.89837236e-02 -7.45029867e-01
      -2.79778503e-02 -2.42139027e-01 -9.78753492e-02 -7.25623012e-01</_>
    <_>
      -1.09158680e-01 -7.51493573e-01 -4.86296862e-01 2.34580660e+00
      -1.16803372e+00 -1.55000365e+00 -1.47139859e+00 9.51316178e-01
      8.87970030e-01 3.33643049e-01 5.68530738e-01 2.71925259e+00
      -3.62698495e-01 -8.66706192e-01 -7.29463816e-01 2.06383705e+00
      -9.37933087e-01 -1.39556205e+00 -1.28100169e+00 1.22682953e+00
      1.40381253e+00 9.42643821e-01 1.14771152e+00 2.86360168e+00
      2.63870001e-01 -2.12367281e-01 -5.60990125e-02 2.44480252e+00
      -4.14723754e-01 -9.46916699e-01 -7.73766398e-01 1.93596542e+00
      1.19614586e-01 3.59026417e-02 8.58650431e-02 -9.01972473e-01
      -3.59267108e-02 -7.68921152e-02 -4.49943654e-02 -8.92959893e-01
      -6.28555566e-02 -5.08090341e-03 -4.46833000e-02 -9.24236476e-01
      1.10602928e-02 -1.20632187e-01 -6.59603104e-02 -8.91395032e-01
      -1.00376487e-01 -1.50953442e-01 -1.19755276e-01 -8.84133399e-01
      -1.58830836e-01 -5.16281873e-02 -1.25126690e-01 -9.34559226e-01
      6.40896091e-04 -1.17383949e-01 -8.25252831e-02 -8.98837149e-01
      -2.00086255e-02 -1.37544379e-01 -1.10994898e-01 -8.78806055e-01</_>
    <_>
      -3.46910715e-01 -1.06844258e+00 -2.71061897e-01 2.37634778e+00
      -1.08221102e+00 -1.59840643e+00 -1.37045419e+00 9.89199221e-01
      5.85315168e-01 -5.43760173e-02 7.49017119e-01 2.75207114e+00
      -5.27828753e-01 -1.15378547e+00 -6.78940713e-01 2.09156322e+00
      -7.88834691e-01 -1.46864271e+00 -1.24320841e+00 1.25920475e+00
      1.08796918e+00 5.56659997e-01 1.27315831e+00 2.89755368e+00
      -9.98681691e-03 -5.91506720e-01 -5.92869297e-02 2.47174311e+00
      -3.87851566e-01 -1.12168407e+00 -7.90528417e-01 1.96116400e+00
      3.42196673e-01 -1.36889461e-02 1.16824538e-01 -7.95210123e-01
      1.58613771e-02 -9.94455442e-02 4.01492715e-02 -7.65171051e-01
      2.53099471e-01 -3.72582139e-03 -1.23399593e-01 -8.28938186e-01
      2.53480911e-01 -2.56929457e-01 -5.21572493e-02 -7.74210215e-01
      -3.12805064e-02 -2.12693974e-01 -6.65407330e-02 -7.53303707e-01
      1.83820426e-01 1.72609072e-02 -2.04121992e-01 -8.43669653e-01
      3.28177392e-01 -2.03065500e-01 -9.57146287e-02 -7.86229432e-01
      1.28726214e-01 -3.35685968e-01 -1.23156734e-01 -7.48276711e-01</_>
    <_>
      -3.86052698e-01 -9.60332930e-01 -4.13445026e-01 2.44253612e+00
      -1.18821096e+00 -1.48621678e+00 -1.23133671e+00 1.04173446e+00
      5.78623235e-01 3.80997770e-02 5.18398941e-01 2.81920481e+00
      -5.68544328e-01 -1.03464150e+00 -6.24260366e-01 2.15888786e+00
      -9.62306380e-01 -1.41409099e+00 -1.09285426e+00 1.31900978e+00
      1.11431324e+00 6.29963934e-01 1.03005970e+00 2.96466804e+00
      1.70446970e-02 -4.88823861e-01 -5.86872436e-02 2.54193401e+00
      -5.35616934e-01 -1.11567068e+00 -6.95171416e-01 2.03085637e+00
      2.16952458e-01 2.95352098e-02 2.09362015e-01 -7.82384455e-01
      -1.26497615e-02 -9.82150584e-02 -5.00899227e-03 -7.57290483e-01
      1.16528384e-01 4.04111343e-03 7.17558339e-02 -8.23706150e-01
      3.00172828e-02 -2.31478408e-01 -2.48997789e-02 -7.74518728e-01
      -1.08118325e-01 -2.34572932e-01 -1.08430967e-01 -7.60466456e-01
      8.14209729e-02 6.30270923e-03 7.80214975e-03 -8.41203868e-01
      6.12094104e-02 -2.19125047e-01 -4.87397164e-02 -7.94752359e-01
      -3.62304300e-02 -2.90803105e-01 -1.05022267e-01 -7.66382635e-01</_>
    <_>
      -1.22504041e-01 -8.10494125e-01 -4.35143322e-01 2.34062076e+00
      -1.16209793e+00 -1.61926997e+00 -1.48897076e+00 9.48857784e-01
      8.41914833e-01 2.56747901e-01 6.20583594e-01 2.71410775e+00
      -3.68327141e-01 -9.26479280e-01 -7.27963328e-01 2.06386399e+00
      -8.98669362e-01 -1.47386706e+00 -1.28913975e+00 1.22839570e+00
      1.32501030e+00 8.27383995e-01 1.15773642e+00 2.85803485e+00
      2.46713564e-01 -2.85449773e-01 -7.79043213e-02 2.44540620e+00
      -3.59765202e-01 -1.02278388e+00 -7.86035955e-01 1.93993390e+00
      1.78092077e-01 6.47210190e-03 6.32786378e-02 -8.75694394e-01
      -1.94200967e-02 -8.65655839e-02 -1.55249164e-02 -8.61489058e-01
      6.10231869e-02 5.47378920e-02 -6.62297830e-02 -9.10543978e-01
      4.55522910e-02 -1.98309749e-01 -5.62076680e-02 -8.65110457e-01
      -7.93843865e-02 -2.03215495e-01 -1.00789942e-01 -8.57331455e-01
      4.63102981e-02 1.05856575e-01 -9.93695557e-02 -9.25791740e-01
      5.38861528e-02 -1.76044300e-01 -4.84634899e-02 -8.80234659e-01
      -3.92589681e-02 -2.49109775e-01 -1.06802888e-01 -8.54762852e-01</_>
    <_>
      -1.82128042e-01 -6.96232736e-01 -3.28211457e-01 2.32473803e+00
      -1.26551402e+00 -1.61048305e+00 -1.44371963e+00 9.21576262e-01
      8.57101679e-01 3.96705210e-01 7.55380869e-01 2.70135856e+00
      -4.04931486e-01 -8.57929468e-01 -5.99654078e-01 2.04342055e+00
      -1.01250625e+00 -1.40116119e+00 -1.23630309e+00 1.20189643e+00
      1.37762201e+00 9.84454930e-01 1.29811728e+00 2.84677601e+00
      2.52640307e-01 -1.82815224e-01 7.13458732e-02 2.42760825e+00
      -4.32485193e-01 -8.79670680e-01 -6.81961536e-01 1.91739988e+00
      1.03979819e-01 6.96014846e-04 2.45422479e-02 -9.09098029e-01
      -3.26615460e-02 -1.14622712e-01 -2.06531659e-02 -8.93474281e-01
      -7.40510002e-02 -2.20113657e-02 -1.50754943e-01 -9.45546448e-01
      -1.17185013e-03 -1.46887884e-01 -6.45488426e-02 -8.96105409e-01
      -8.54860619e-02 -1.85371250e-01 -1.00781985e-01 -8.88356388e-01
      -1.58541486e-01 -3.98473889e-02 -2.29301944e-01 -9.61862803e-01
      -2.92253029e-02 -9.51671675e-02 -9.82721895e-02 -9.11756098e-01
      -6.18051998e-02 -1.94793165e-01 -9.58686545e-02 -8.83628130e-01</_>
    <_>
      -2.07127213e-01 -8.66420984e-01 -3.62855494e-01 2.32531118e+00
      -1.18040955e+00 -1.67786634e+00 -1.42327881e+00 9.30831850e-01
      8.20774853e-01 2.60336459e-01 7.10487843e-01 2.70120859e+00
      -4.12551641e-01 -1.02571881e+00 -6.46736145e-01 2.03727698e+00
      -9.37714458e-01 -1.54332638e+00 -1.23902214e+00 1.20107138e+00
      1.35216630e+00 8.95953894e-01 1.27534258e+00 2.84770584e+00
      2.20242113e-01 -3.55496168e-01 2.74623726e-02 2.42001891e+00
      -4.17143792e-01 -1.08971417e+00 -7.15690374e-01 1.90728533e+00
      2.12217227e-01 -6.43892288e-02 9.27575603e-02 -8.48554373e-01
      3.40897739e-02 -1.25360757e-01 3.76365520e-02 -8.15571368e-01
      3.39810289e-02 -9.67286974e-02 -1.18874438e-01 -8.83735001e-01
      1.32461935e-01 -2.56452292e-01 -1.39868129e-02 -8.17899168e-01
      8.37794878e-03 -2.45118678e-01 -1.80806201e-02 -7.94436812e-01
      -4.58126478e-02 -1.10186137e-01 -1.94099888e-01 -9.01314259e-01
      1.26022294e-01 -2.44028494e-01 -5.33127151e-02 -8.34210217e-01
      9.97782797e-02 -3.18551600e-01 -2.01690253e-02 -7.88853467e-01</_>
    <_>
      -2.57438689e-01 -1.00870407e+00 -6.21399879e-01 2.50730205e+00
      -1.09420669e+00 -1.37161505e+00 -1.26370132e+00 1.09063113e+00
      5.87289274e-01 -1.99896947e-01 1.95014119e-01 2.88778949e+00
      -5.65671325e-01 -9.59256411e-01 -7.79308617e-01 2.22144842e+00
      -8.87619138e-01 -1.21733260e+00 -1.07768464e+00 1.37090647e+00
      1.05645168e+00 3.23410869e-01 6.78434074e-01 3.03414297e+00
      -7.88830966e-02 -4.95856285e-01 -2.94234276e-01 2.60759354e+00
      -5.16730666e-01 -9.30854142e-01 -7.33013690e-01 2.09006524e+00
      2.09399715e-01 1.32750064e-01 2.41403118e-01 -7.84091055e-01
      -9.21825226e-03 -6.28561974e-02 -1.08968392e-02 -7.74425626e-01
      1.81861483e-02 1.66399986e-01 2.05056086e-01 -8.16705108e-01
      -2.30050869e-02 -1.48289710e-01 -2.15645563e-02 -7.83044219e-01
      -1.24489076e-01 -1.88471496e-01 -1.34297997e-01 -7.77150571e-01
      -5.22532091e-02 1.83274940e-01 1.90575629e-01 -8.29409003e-01
      -3.26673798e-02 -1.04915462e-01 2.37497129e-02 -7.94741631e-01
      -8.72748047e-02 -2.15554714e-01 -1.16760246e-01 -7.75784969e-01</_>
    <_>
      -3.38965029e-01 -1.04906714e+00 -4.49953586e-01 2.51522923e+00
      -1.04967988e+00 -1.33227122e+00 -1.30795062e+00 1.09771252e+00
      4.41789269e-01 -3.27000707e-01 3.57221484e-01 2.89882159e+00
      -6.30378008e-01 -1.00604367e+00 -9.07673597e-01 2.22467184e+00
      -8.25909317e-01 -1.17265558e+00 -1.13029671e+00 1.37360740e+00
      8.73451948e-01 1.17328994e-01 7.84431756e-01 3.04701090e+00
      -2.19911411e-01 -6.29242718e-01 -4.87030715e-01 2.61238861e+00
      -5.16009688e-01 -9.62116420e-01 -8.66571486e-01 2.08993816e+00
      3.32591504e-01 1.16082370e-01 1.64587304e-01 -7.33215153e-01
      1.58416815e-02 -2.33649630e-02 8.20249412e-03 -7.02522457e-01
      2.06371903e-01 1.12534873e-01 4.86609936e-02 -7.67950714e-01
      1.42914444e-01 -1.28101334e-01 -6.78291768e-02 -7.18102276e-01
      -7.71885961e-02 -1.55717999e-01 -1.29540443e-01 -7.00221539e-01
      1.49294302e-01 1.49901643e-01 2.41329353e-02 -7.83109128e-01
      1.96022213e-01 -1.13673545e-01 -4.60941456e-02 -7.32866883e-01
      3.99135239e-02 -2.00099394e-01 -1.48567155e-01 -7.03763545e-01</_>
    <_>
      -3.37546974e-01 -9.88525510e-01 -3.85488093e-01 2.39620876e+00
      -1.13348973e+00 -1.56083000e+00 -1.36476707e+00 9.88122344e-01
      6.65797472e-01 5.81633747e-02 6.24867439e-01 2.77831054e+00
      -5.06413400e-01 -1.09335804e+00 -7.22107947e-01 2.10312271e+00
      -8.69604111e-01 -1.48495758e+00 -1.25243676e+00 1.26027882e+00
      1.21250165e+00 6.83971584e-01 1.17359209e+00 2.92745018e+00
      8.93131569e-02 -4.97685343e-01 -9.82322469e-02 2.49133325e+00
      -4.31362092e-01 -1.15284836e+00 -8.13632965e-01 1.97189963e+00
      2.53968000e-01 2.11421773e-02 1.24678038e-01 -7.56609559e-01
      8.17426108e-03 -1.07925572e-01 -9.29725182e-04 -6.89755201e-01
      1.07772976e-01 -1.02869803e-02 -4.72625457e-02 -8.14877689e-01
      1.42968804e-01 -2.43267447e-01 -6.67807981e-02 -7.19888508e-01
      -3.14809531e-02 -2.39923880e-01 -9.24278945e-02 -6.89176619e-01
      4.22650501e-02 -4.88912640e-03 -9.86314937e-02 -8.38729084e-01
      1.56333476e-01 -2.35067070e-01 -9.49647427e-02 -7.58412600e-01
      9.46829617e-02 -3.15307379e-01 -1.19595259e-01 -7.07442641e-01</_>
    <_>
      -3.12311202e-01 -9.89902675e-01 -3.22948426e-01 2.37109923e+00
      -1.09612548e+00 -1.63499367e+00 -1.44254208e+00 9.53842402e-01
      6.78132057e-01 8.91419724e-02 7.45338619e-01 2.75707150e+00
      -4.49584901e-01 -1.10890973e+00 -7.09885895e-01 2.07183051e+00
      -8.30226481e-01 -1.50582409e+00 -1.30053270e+00 1.22128880e+00
      1.20652306e+00 7.23128974e-01 1.29083371e+00 2.90800905e+00
      1.30184054e-01 -4.82620716e-01 -4.73057590e-02 2.46226430e+00
      -3.68159890e-01 -1.12036884e+00 -8.07323456e-01 1.93316567e+00
      3.10339302e-01 -2.18617059e-02 7.23785758e-02 -7.66052544e-01
      -9.18437727e-03 -1.14090696e-01 2.68838950e-03 -6.88418448e-01
      1.82065398e-01 -4.93992008e-02 -1.71233892e-01 -8.29421580e-01
      1.65184125e-01 -2.50061244e-01 -9.60480198e-02 -7.14609265e-01
      -4.26505394e-02 -2.19461188e-01 -9.87613872e-02 -6.67452574e-01
      1.10406011e-01 -5.20189032e-02 -2.45959744e-01 -8.57191205e-01
      2.13643268e-01 -2.40675867e-01 -1.50684237e-01 -7.59194851e-01
      1.02689311e-01 -2.91798681e-01 -1.52300432e-01 -6.83151722e-01</_>
    <_>
      -1.53698236e-01 -8.04222286e-01 -3.93948615e-01 2.34513235e+00
      -1.18478703e+00 -1.63834929e+00 -1.48044217e+00 9.40756440e-01
      8.12382102e-01 2.59548873e-01 6.47099614e-01 2.72090101e+00
      -3.76805067e-01 -9.36393142e-01 -7.07354367e-01 2.05977535e+00
      -9.21128452e-01 -1.47770905e+00 -1.28599215e+00 1.21578133e+00
      1.30560350e+00 8.33780885e-01 1.18126309e+00 2.86599851e+00
      2.36145809e-01 -2.94475228e-01 -5.32758236e-02 2.44360590e+00
      -3.87102336e-01 -1.03038239e+00 -7.73296595e-01 1.92922509e+00
      1.86947420e-01 -2.16526771e-03 5.26543185e-02 -8.74358296e-01
      -1.80090014e-02 -9.03562680e-02 -1.47124575e-02 -8.52742851e-01
      1.00957461e-01 5.95039502e-02 -8.04051384e-02 -9.09209013e-01
      5.48583530e-02 -2.10516050e-01 -7.71880671e-02 -8.49940836e-01
      -7.82925263e-02 -1.92672849e-01 -1.08137935e-01 -8.34535539e-01
      8.38211328e-02 1.19646311e-01 -1.12900935e-01 -9.25625563e-01
      7.59398490e-02 -1.92744911e-01 -9.76491123e-02 -8.66573930e-01
      -1.69389006e-02 -2.45587140e-01 -1.51219144e-01 -8.29484582e-01</_>
    <_>
      -3.55632365e-01 -1.05231845e+00 -2.63497412e-01 2.37237358e+00
      -1.11967731e+00 -1.59708846e+00 -1.33836484e+00 9.84627068e-01
      5.83639741e-01 -4.60818559e-02 7.50018060e-01 2.74873805e+00
      -5.86117983e-01 -1.15813482e+00 -6.47507787e-01 2.08722425e+00
      -8.52534235e-01 -1.51198757e+00 -1.18947244e+00 1.25519502e+00
      1.08303976e+00 5.40133238e-01 1.26821816e+00 2.89463425e+00
      -6.42287508e-02 -6.06937349e-01 -4.15333882e-02 2.46789551e+00
      -4.62930650e-01 -1.19819462e+00 -7.40019619e-01 1.95734429e+00
      3.23397607e-01 5.12749283e-03 1.36601776e-01 -7.93222010e-01
      2.20279973e-02 -9.63097885e-02 3.95673290e-02 -7.55427063e-01
      2.27326751e-01 4.24876586e-02 -9.69240740e-02 -8.28649163e-01
      2.47584373e-01 -2.42776737e-01 -2.44734287e-02 -7.69109488e-01
      -2.27322858e-02 -2.28226379e-01 -5.63695803e-02 -7.45424509e-01
      1.73154026e-01 7.70126358e-02 -1.84107497e-01 -8.45572889e-01
      3.19048733e-01 -1.95381805e-01 -7.42164925e-02 -7.84773648e-01
      1.32586300e-01 -3.07103992e-01 -1.10898882e-01 -7.45043576e-01</_>
    <_>
      -5.11533916e-01 -9.67526853e-01 -2.37785742e-01 2.42796850e+00
      -1.30356336e+00 -1.46110737e+00 -1.21394002e+00 1.01333046e+00
      4.84191775e-01 2.69648340e-02 7.33743727e-01 2.80938315e+00
      -7.33597577e-01 -9.73138034e-01 -5.69005668e-01 2.14267302e+00
      -1.08007145e+00 -1.31761169e+00 -1.06045377e+00 1.29403508e+00
      1.04614019e+00 6.52203560e-01 1.25642216e+00 2.95701456e+00
      -1.54843077e-01 -4.11380857e-01 1.95959155e-02 2.53082824e+00
      -6.74379230e-01 -9.68402863e-01 -6.21907532e-01 2.01451755e+00
      2.11860031e-01 7.97902271e-02 1.98312059e-01 -7.99902260e-01
      -3.58590968e-02 -1.38071686e-01 -1.67454258e-02 -7.74844468e-01
      6.92992061e-02 8.00767243e-02 1.23894541e-02 -8.43353927e-01
      9.89636686e-03 -1.78203613e-01 2.31641252e-02 -7.78120518e-01
      -1.21997990e-01 -2.60614514e-01 -1.12381525e-01 -7.63051927e-01
      -2.31199600e-02 3.48381773e-02 -7.45666176e-02 -8.63872707e-01
      2.09713764e-02 -1.43156156e-01 2.80442964e-02 -8.00026000e-01
      -8.60032812e-02 -2.71947116e-01 -7.12082013e-02 -7.60358751e-01</_>
    <_>
      -3.43419433e-01 -1.03358865e+00 -4.00883347e-01 2.50199604e+00
      -1.04423678e+00 -1.35964644e+00 -1.30309641e+00 1.09348428e+00
      4.31240439e-01 -2.62836307e-01 4.32691514e-01 2.88313413e+00
      -6.46817744e-01 -1.02590311e+00 -8.79952252e-01 2.21432805e+00
      -8.36070418e-01 -1.22764218e+00 -1.12207615e+00 1.36953020e+00
      8.74844074e-01 2.27314696e-01 8.97057474e-01 3.03053856e+00
      -2.20106289e-01 -6.29093826e-01 -4.29972708e-01 2.60008550e+00
      -5.21923661e-01 -1.01335168e+00 -8.52125645e-01 2.08270741e+00
      3.27771991e-01 9.20279995e-02 1.75574765e-01 -7.33276367e-01
      3.27605344e-02 -3.47276106e-02 2.79944614e-02 -6.99963272e-01
      1.67206600e-01 9.65567008e-02 2.19580252e-02 -7.69314051e-01
      1.49875820e-01 -1.66059300e-01 -2.73788273e-02 -7.23803997e-01
      -6.02423362e-02 -1.84065327e-01 -1.12367712e-01 -7.02258825e-01
      1.00510709e-01 1.22554779e-01 -4.81799357e-02 -7.84004152e-01
      1.80367753e-01 -1.39826789e-01 -2.44883336e-02 -7.39939928e-01
      5.42916805e-02 -2.53096998e-01 -1.19022459e-01 -7.13645160e-01</_>
    <_>
      -1.40983649e-02 -9.70620215e-01 -4.62127090e-01 2.30885863e+00
      -8.77391279e-01 -1.67740715e+00 -1.51276481e+00 9.58258808e-01
      9.89935994e-01 1.45796388e-01 5.73652804e-01 2.67237782e+00
      -8.76877457e-02 -1.13434052e+00 -8.64940822e-01 2.02742791e+00
      -5.25624752e-01 -1.61146140e+00 -1.43613994e+00 1.21914291e+00
      1.52687132e+00 8.01696658e-01 1.13337243e+00 2.81287980e+00
      5.50123692e-01 -4.61680740e-01 -2.06010982e-01 2.39416504e+00
      2.88990233e-02 -1.18966043e+00 -9.76700544e-01 1.89699006e+00
      2.60889053e-01 -7.11917654e-02 3.85730602e-02 -7.67252922e-01
      1.37983810e-03 -9.71914530e-02 -1.66061930e-02 -7.08568513e-01
      8.20843652e-02 -1.22350983e-01 -1.59798473e-01 -8.00995708e-01
      1.37267888e-01 -3.08377653e-01 -1.50620222e-01 -7.39602804e-01
      -4.39580642e-02 -2.25449681e-01 -1.28155917e-01 -6.98384166e-01
      -3.30029652e-02 -1.37734413e-01 -2.20252454e-01 -8.14197600e-01
      1.39067784e-01 -3.00564736e-01 -1.95258677e-01 -7.57155895e-01
      8.70124996e-02 -3.54273349e-01 -2.11998075e-01 -7.15124369e-01</_>
    <_>
      -2.58132428e-01 -8.85093153e-01 -4.60925192e-01 2.39199615e+00
      -1.20990789e+00 -1.48732913e+00 -1.37023854e+00 9.89162743e-01
      7.65685678e-01 1.89160019e-01 5.62596262e-01 2.76772785e+00
      -4.70332891e-01 -9.11377668e-01 -7.11925983e-01 2.10734200e+00
      -9.78139937e-01 -1.35257101e+00 -1.19847918e+00 1.26534581e+00
      1.31157541e+00 8.41609478e-01 1.14320517e+00 2.91270638e+00
      1.78543925e-01 -2.67104894e-01 -6.57138303e-02 2.49009252e+00
      -4.62865919e-01 -9.33194876e-01 -7.22641766e-01 1.97781217e+00
      1.44041672e-01 6.57914504e-02 1.34693265e-01 -8.65613639e-01
      -2.95861233e-02 -1.01439424e-01 -4.17565480e-02 -8.50591183e-01
      -3.43170725e-02 4.91832606e-02 1.03949569e-02 -8.92075896e-01
      -3.29633765e-02 -1.69358522e-01 -1.61182508e-02 -8.51461232e-01
      -1.03700705e-01 -1.91569656e-01 -1.19758986e-01 -8.41330111e-01
      -1.19631939e-01 3.14503006e-04 -7.64547065e-02 -9.03458714e-01
      -7.76457861e-02 -1.59369737e-01 -6.86001312e-03 -8.61185074e-01
      -8.34794492e-02 -1.99994937e-01 -8.77975151e-02 -8.35487962e-01</_>
    <_>
      -1.25628099e-01 -9.13115919e-01 -4.19169545e-01 2.33930016e+00
      -9.80780065e-01 -1.66371822e+00 -1.50675154e+00 9.62507129e-01
      8.30690622e-01 1.23306811e-01 6.08179569e-01 2.71206594e+00
      -2.37320811e-01 -1.10307515e+00 -8.17116737e-01 2.05578446e+00
      -6.93551004e-01 -1.53939247e+00 -1.38300812e+00 1.22927463e+00
      1.32732689e+00 7.08866835e-01 1.13580441e+00 2.85677600e+00
      3.49785954e-01 -4.90314692e-01 -1.87913477e-01 2.43390203e+00
      -1.82743892e-01 -1.15005326e+00 -9.25533175e-01 1.92670596e+00
      2.87919044e-01 -6.24579564e-02 5.21900430e-02 -8.12165141e-01
      2.47391015e-02 -9.91299376e-02 1.37006510e-02 -7.74313509e-01
      1.71554610e-01 -3.91861759e-02 -1.12866580e-01 -8.46561849e-01
      1.59081742e-01 -2.68084735e-01 -8.87212381e-02 -7.93900728e-01
      -2.06761695e-02 -2.25249246e-01 -8.10227841e-02 -7.71216214e-01
      1.09938473e-01 -6.73980825e-03 -1.39210433e-01 -8.61131191e-01
      1.60804093e-01 -2.34311193e-01 -1.00128911e-01 -8.07888567e-01
      8.36559460e-02 -3.11065376e-01 -1.13546178e-01 -7.75100827e-01</_>
    <_>
      -1.49951305e-03 -8.55866790e-01 -4.08017904e-01 2.27598786e+00
      -9.96898532e-01 -1.76250398e+00 -1.58125401e+00 9.05279160e-01
      9.88684952e-01 3.01696867e-01 7.03157604e-01 2.64829969e+00
      -1.59611017e-01 -1.04510403e+00 -7.49386609e-01 1.99248600e+00
      -7.45890617e-01 -1.61810613e+00 -1.40743434e+00 1.17074728e+00
      1.48680770e+00 9.33127642e-01 1.26600289e+00 2.79317689e+00
      4.55338448e-01 -3.42483968e-01 -4.63978276e-02 2.36989427e+00
      -2.02057511e-01 -1.12870955e+00 -8.57002676e-01 1.86400747e+00
      2.18646631e-01 -1.12080403e-01 -3.92327458e-03 -8.18885446e-01
      1.78896766e-02 -1.12446882e-01 1.92039572e-02 -7.69981265e-01
      3.40637304e-02 -1.29037544e-01 -1.95483774e-01 -8.62704217e-01
      1.22296624e-01 -2.61047065e-01 -8.79184082e-02 -7.88628161e-01
      -2.17946450e-04 -2.10271731e-01 -5.88394105e-02 -7.62603879e-01
      -5.54039218e-02 -1.31419718e-01 -2.53127962e-01 -8.82007718e-01
      1.02910899e-01 -2.57279664e-01 -1.30290434e-01 -8.11495245e-01
      1.04514033e-01 -3.03256273e-01 -1.00193508e-01 -7.67451406e-01</_>
    <_>
      -3.61337870e-01 -8.05520475e-01 -3.53645831e-01 2.37582684e+00
      -1.35509694e+00 -1.52916741e+00 -1.27484787e+00 9.61852252e-01
      6.79872334e-01 2.78203875e-01 6.88541889e-01 2.75368309e+00
      -5.90584934e-01 -8.74056220e-01 -5.17949402e-01 2.08914828e+00
      -1.13639450e+00 -1.36134756e+00 -1.07665825e+00 1.24039948e+00
      1.23918760e+00 9.09454226e-01 1.26318693e+00 2.89947462e+00
      6.78948611e-02 -2.18706354e-01 1.39148369e-01 2.47494483e+00
      -6.10265732e-01 -8.87101531e-01 -5.48531294e-01 1.95963097e+00
      9.42534655e-02 3.80398072e-02 1.71342179e-01 -8.95247936e-01
      -3.57944705e-02 -1.52117446e-01 -3.23460102e-02 -8.79154921e-01
      -7.01942742e-02 3.43140587e-02 2.47794762e-02 -9.25979078e-01
      -6.10727817e-02 -1.97583646e-01 2.02631168e-02 -8.74946833e-01
      -9.65048596e-02 -2.45963901e-01 -7.89804459e-02 -8.63458872e-01
      -1.34277612e-01 3.03887902e-03 -6.80148825e-02 -9.40055132e-01
      -8.25857595e-02 -1.64719179e-01 1.65119078e-02 -8.88540924e-01
      -8.11837763e-02 -2.70493418e-01 -2.58203167e-02 -8.56744826e-01</_>
    <_>
      -3.38715196e-01 -9.86014366e-01 -3.84304881e-01 2.43601227e+00
      -1.24546981e+00 -1.42099631e+00 -1.23795593e+00 1.03716362e+00
      6.22794151e-01 -3.29246409e-02 5.51385880e-01 2.81228375e+00
      -7.29767025e-01 -1.02393079e+00 -6.98320806e-01 2.15550137e+00
      -1.06768000e+00 -1.27496374e+00 -1.08477199e+00 1.31647658e+00
      1.13622355e+00 5.38436830e-01 1.05349290e+00 2.95681524e+00
      -2.06161946e-01 -5.28803587e-01 -1.63343430e-01 2.53743577e+00
      -7.31689155e-01 -9.94646847e-01 -7.20187008e-01 2.02842879e+00
      2.17306077e-01 1.30360320e-01 2.52366930e-01 -7.79348671e-01
      -1.79541074e-02 -9.54730809e-02 -1.89380422e-02 -7.61339426e-01
      3.25883403e-02 1.43366426e-01 1.18255831e-01 -8.20828855e-01
      4.39515561e-02 -1.12896055e-01 2.16568522e-02 -7.67995298e-01
      -1.20331556e-01 -2.06797227e-01 -1.28938019e-01 -7.56550848e-01
      -6.06071986e-02 1.22249730e-01 5.86528406e-02 -8.39207172e-01
      4.53340970e-02 -8.11454281e-02 2.08178088e-02 -7.86821246e-01
      -6.76574856e-02 -2.36773685e-01 -1.03811800e-01 -7.55295098e-01</_>
    <_>
      -1.18810214e-01 -7.77645051e-01 -4.49207485e-01 2.35105515e+00
      -1.16297448e+00 -1.53891349e+00 -1.46417928e+00 9.49002445e-01
      8.87303412e-01 2.97605425e-01 6.03353679e-01 2.72525525e+00
      -3.38878483e-01 -8.77999842e-01 -6.94561303e-01 2.06357622e+00
      -9.10750091e-01 -1.39675462e+00 -1.31026101e+00 1.22114241e+00
      1.39442360e+00 9.16522622e-01 1.17094707e+00 2.86903000e+00
      2.83334643e-01 -2.28088811e-01 -1.78310554e-02 2.44397140e+00
      -3.76224190e-01 -9.45284188e-01 -7.87141562e-01 1.92947853e+00
      1.22658864e-01 4.00940515e-02 8.76901820e-02 -8.99164975e-01
      -3.95362079e-02 -1.21184848e-01 -3.21507715e-02 -8.89019549e-01
      -3.91049571e-02 1.34449042e-02 -4.24542986e-02 -9.26087618e-01
      7.18208635e-03 -1.63115695e-01 -6.12822548e-02 -8.87949705e-01
      -1.02689646e-01 -2.15298787e-01 -1.09235600e-01 -8.80482316e-01
      -1.17508113e-01 -3.08519527e-02 -1.09872408e-01 -9.38552916e-01
      -2.96123489e-03 -1.45927981e-01 -9.02390108e-02 -8.98470759e-01
      -4.07130532e-02 -2.16579124e-01 -1.05863653e-01 -8.75268996e-01</_>
    <_>
      -4.51781839e-01 -9.20423985e-01 -2.49240741e-01 2.40670848e+00
      -1.18429375e+00 -1.50353444e+00 -1.30851758e+00 9.95978773e-01
      5.15859604e-01 8.54283944e-02 7.60995805e-01 2.78941369e+00
      -6.41932189e-01 -1.07864201e+00 -6.54728591e-01 2.11384964e+00
      -9.10804987e-01 -1.41787124e+00 -1.19575119e+00 1.26756132e+00
      1.04020131e+00 6.86911821e-01 1.27818012e+00 2.93790197e+00
      -1.01033159e-01 -5.26191473e-01 -5.84768578e-02 2.49992537e+00
      -5.18772781e-01 -1.10145795e+00 -7.72350430e-01 1.97806644e+00
      2.82425940e-01 5.07808179e-02 1.27807856e-01 -7.84515023e-01
      -1.32239023e-02 -9.65035185e-02 6.78798277e-03 -7.47792304e-01
      1.94796488e-01 -9.31413472e-03 -1.22376047e-01 -8.27593684e-01
      1.60954922e-01 -2.02212036e-01 -5.07592596e-02 -7.57689059e-01
      -6.33199960e-02 -2.17318475e-01 -9.65021029e-02 -7.35996127e-01
      1.52924225e-01 -2.85026841e-02 -2.13123158e-01 -8.47190380e-01
      2.18476534e-01 -1.87952667e-01 -1.01617306e-01 -7.77999997e-01
      7.47669265e-02 -2.81179875e-01 -1.34178042e-01 -7.34039724e-01</_>
    <_>
      -3.55827123e-01 -1.02307022e+00 -3.98262352e-01 2.50592899e+00
      -1.09207475e+00 -1.35427713e+00 -1.27736795e+00 1.08997428e+00
      4.29207027e-01 -2.37024710e-01 4.45060492e-01 2.88833523e+00
      -6.78921998e-01 -1.01073432e+00 -8.53000760e-01 2.21665502e+00
      -8.65751505e-01 -1.21412027e+00 -1.09503710e+00 1.36741948e+00
      8.68798077e-01 2.56297290e-01 9.11477268e-01 3.03622842e+00
      -2.49660030e-01 -6.04265392e-01 -3.99983674e-01 2.60386777e+00
      -5.37417412e-01 -9.86029923e-01 -8.11132014e-01 2.08397102e+00
      2.92467386e-01 1.01814955e-01 1.80735439e-01 -7.48831809e-01
      2.95784865e-02 -3.89911495e-02 1.60021540e-02 -7.13939726e-01
      1.34516910e-01 9.95543897e-02 2.29323134e-02 -7.82918572e-01
      1.22650020e-01 -1.54335842e-01 -1.34256463e-02 -7.36484766e-01
      -6.25520274e-02 -1.83122933e-01 -1.19873762e-01 -7.13337660e-01
      8.44641179e-02 1.22022003e-01 -4.62659039e-02 -7.96787739e-01
      1.59222066e-01 -1.39231771e-01 3.26437876e-03 -7.50562251e-01
      3.73974219e-02 -2.43804306e-01 -9.87048894e-02 -7.22713053e-01</_>
    <_>
      -2.42283493e-01 -8.74580622e-01 -4.51485753e-01 2.39772010e+00
      -1.21026480e+00 -1.51663780e+00 -1.31198287e+00 1.00059009e+00
      7.53892541e-01 1.75939500e-01 5.67432880e-01 2.77232480e+00
      -5.30067265e-01 -9.57812369e-01 -6.71540320e-01 2.11810327e+00
      -1.03015089e+00 -1.40632606e+00 -1.10318255e+00 1.28006661e+00
      1.27492070e+00 7.78569281e-01 1.11349666e+00 2.91675067e+00
      6.98793977e-02 -3.55722547e-01 -7.08575100e-02 2.50021887e+00
      -5.70347428e-01 -1.02307940e+00 -6.70496464e-01 1.99262619e+00
      1.53398782e-01 6.91855252e-02 1.39724448e-01 -8.46613765e-01
      -2.40837205e-02 -8.52427706e-02 -2.44555958e-02 -8.33975494e-01
      -3.48562673e-02 3.25774848e-02 -3.04393694e-02 -8.75306249e-01
      1.48362070e-02 -1.22794323e-01 -2.66331304e-02 -8.34264278e-01
      -1.03011899e-01 -2.02584237e-01 -1.06213890e-01 -8.25528264e-01
      -1.04735196e-01 1.25499880e-02 -1.08377740e-01 -8.88240576e-01
      1.70740187e-02 -6.97219670e-02 -4.61379364e-02 -8.45345020e-01
      -4.05773707e-02 -1.78361759e-01 -7.73839802e-02 -8.20174813e-01</_>
    <_>
      -2.98954248e-01 -6.79556251e-01 -2.76740640e-01 2.35555887e+00
      -1.34414423e+00 -1.48697019e+00 -1.42968178e+00 9.24691319e-01
      7.45717704e-01 4.09869701e-01 8.05946827e-01 2.73942924e+00
      -5.22563279e-01 -7.80243576e-01 -5.99728167e-01 2.05766535e+00
      -1.12465632e+00 -1.31917334e+00 -1.21578693e+00 1.19749343e+00
      1.28718817e+00 1.01651847e+00 1.35642624e+00 2.88680172e+00
      1.32064626e-01 -1.34831131e-01 8.49041939e-02 2.44541335e+00
      -5.78921020e-01 -8.47095728e-01 -6.64972901e-01 1.91582596e+00
      9.90381613e-02 6.98019639e-02 2.73627546e-02 -8.95964861e-01
      -8.89003053e-02 -1.13073073e-01 -8.41786265e-02 -8.67573500e-01
      -3.27594802e-02 1.03809526e-02 -1.60932273e-01 -9.35034692e-01
      -6.18852340e-02 -1.06582358e-01 -7.99631253e-02 -8.64957392e-01
      -1.56889126e-01 -1.73667639e-01 -1.65760234e-01 -8.44231665e-01
      -8.86580572e-02 -3.58962938e-02 -2.39974931e-01 -9.53554153e-01
      -4.68566343e-02 -8.74573961e-02 -8.17361921e-02 -8.83185089e-01
      -1.09933838e-01 -1.35240912e-01 -1.33394971e-01 -8.35837126e-01</_>
    <_>
      -3.06469470e-01 -8.54995430e-01 -4.47326124e-01 2.40917420e+00
      -1.23793256e+00 -1.50202441e+00 -1.32534397e+00 1.00041282e+00
      6.66421950e-01 1.77633435e-01 5.48364580e-01 2.78731489e+00
      -5.55432498e-01 -9.00209606e-01 -6.42394006e-01 2.12816548e+00
      -1.02789247e+00 -1.37625265e+00 -1.13195062e+00 1.28307855e+00
      1.19667244e+00 7.82538772e-01 1.09437561e+00 2.93306518e+00
      5.71325384e-02 -2.82824814e-01 -2.64709331e-02 2.51378226e+00
      -5.49408555e-01 -9.57103789e-01 -6.63003623e-01 2.00238419e+00
      1.67384088e-01 5.46675511e-02 1.42238006e-01 -8.65697205e-01
      -3.12940218e-02 -9.09235403e-02 -2.63814945e-02 -8.52320671e-01
      2.37446632e-02 5.29499911e-02 1.54419178e-02 -8.93721282e-01
      2.32181721e-03 -1.75895289e-01 -5.11278249e-02 -8.52051377e-01
      -1.07163429e-01 -1.99378669e-01 -1.10092163e-01 -8.42956543e-01
      -3.31920832e-02 5.26431762e-02 -3.25205065e-02 -9.06434774e-01
      1.22264735e-02 -1.36876270e-01 -4.82632443e-02 -8.63407314e-01
      -5.30728959e-02 -2.15382159e-01 -9.11451355e-02 -8.37801278e-01</_>
    <_>
      -7.40665793e-02 -8.04595768e-01 -4.12204236e-01 2.32023740e+00
      -1.08267081e+00 -1.60442126e+00 -1.53023028e+00 9.37535703e-01
      9.46898222e-01 3.16866100e-01 6.68797612e-01 2.69205475e+00
      -2.85633862e-01 -9.37021911e-01 -7.50509739e-01 2.03657103e+00
      -7.96907961e-01 -1.46893215e+00 -1.37763917e+00 1.20661604e+00
      1.45855463e+00 9.34031010e-01 1.23731482e+00 2.83528328e+00
      3.39309752e-01 -2.72775680e-01 -6.01369850e-02 2.41311145e+00
      -2.60073304e-01 -1.00368106e+00 -8.52671802e-01 1.90500963e+00
      1.68495387e-01 -9.36887134e-03 1.81362927e-02 -8.55627894e-01
      -2.53252201e-02 -9.53378230e-02 -3.79342623e-02 -8.37728262e-01
      -1.96548533e-02 -6.77937865e-02 -1.55095086e-01 -8.91721427e-01
      9.33476463e-02 -1.79697007e-01 -1.15415566e-01 -8.48156095e-01
      -6.97584376e-02 -1.82741880e-01 -1.31857798e-01 -8.37689459e-01
      -1.05778962e-01 -8.83105993e-02 -2.20591679e-01 -9.06643629e-01
      1.03827477e-01 -1.78734601e-01 -1.54722750e-01 -8.60997319e-01
      4.04523201e-02 -2.12742612e-01 -1.73742980e-01 -8.35108697e-01</_>
    <_>
      -4.31202412e-01 -9.27330315e-01 -2.79662967e-01 2.41330600e+00
      -1.15611804e+00 -1.48923111e+00 -1.32867086e+00 1.00326645e+00
      5.38857877e-01 6.16694614e-02 7.17551529e-01 2.79615569e+00
      -6.34596109e-01 -1.07615006e+00 -7.18919218e-01 2.11937380e+00
      -8.78094912e-01 -1.39788878e+00 -1.23280895e+00 1.27407968e+00
      1.06364655e+00 6.49165928e-01 1.23514462e+00 2.94476366e+00
      -1.05459474e-01 -5.42845190e-01 -1.34434640e-01 2.50550795e+00
      -4.93456125e-01 -1.10984492e+00 -8.46110821e-01 1.98368680e+00
      3.03462118e-01 8.08533952e-02 1.20055065e-01 -7.68506050e-01
      -6.60298485e-03 -8.15916881e-02 4.88977320e-03 -7.25943506e-01
      1.80843472e-01 2.12434232e-02 -1.18124403e-01 -8.12369406e-01
      1.73887804e-01 -1.92928508e-01 -6.51309118e-02 -7.39072263e-01
      -5.47733754e-02 -2.11990371e-01 -1.10290915e-01 -7.13336468e-01
      1.17252320e-01 3.34555772e-03 -2.00263813e-01 -8.31832945e-01
      2.32722104e-01 -1.92065224e-01 -1.12287872e-01 -7.59955347e-01
      8.71368423e-02 -2.95167863e-01 -1.43192455e-01 -7.13616788e-01</_>
    <_>
      -3.05077404e-01 -1.02213025e+00 -4.24480200e-01 2.47614169e+00
      -1.04274678e+00 -1.45649171e+00 -1.32653797e+00 1.07560432e+00
      5.11630833e-01 -1.55268118e-01 4.34458822e-01 2.85582399e+00
      -5.78359246e-01 -1.04450929e+00 -8.73497725e-01 2.19169402e+00
      -8.08932900e-01 -1.31146824e+00 -1.15277600e+00 1.35141408e+00
      9.70311940e-01 3.78471881e-01 9.02579069e-01 3.00276685e+00
      -1.13958679e-01 -5.68973958e-01 -4.01417851e-01 2.57646585e+00
      -4.52424318e-01 -1.03827667e+00 -8.56284082e-01 2.06295156e+00
      3.13412756e-01 3.80978659e-02 1.65496200e-01 -7.44482160e-01
      3.75594087e-02 -4.73583117e-02 1.26334783e-02 -7.15839565e-01
      1.61454648e-01 6.89764842e-02 1.63386874e-02 -7.81959057e-01
      1.45150408e-01 -2.14087412e-01 -3.94959375e-02 -7.38449514e-01
      -5.20021766e-02 -1.81999370e-01 -1.14856102e-01 -7.22648680e-01
      1.01262145e-01 1.06145293e-01 -3.03278919e-02 -7.97482550e-01
      1.80435613e-01 -1.82400063e-01 -1.54823279e-02 -7.54897654e-01
      5.32228872e-02 -2.81319052e-01 -1.09464303e-01 -7.32337415e-01</_>
    <_>
      -8.68020654e-02 -8.71128678e-01 -5.84819019e-01 2.43418741e+00
      -1.14605176e+00 -1.49295008e+00 -1.39464366e+00 1.02212870e+00
      8.07261169e-01 4.21105139e-02 3.37125033e-01 2.81298780e+00
      -5.11370838e-01 -9.52786088e-01 -7.74125159e-01 2.14835882e+00
      -8.89526606e-01 -1.33935988e+00 -1.27123475e+00 1.29983616e+00
      1.25412679e+00 5.52573860e-01 8.27688158e-01 2.95876646e+00
      -1.53443078e-04 -4.11759764e-01 -2.23870158e-01 2.53382373e+00
      -4.61129755e-01 -9.64525640e-01 -8.80943596e-01 2.01692939e+00
      1.64900541e-01 7.30674490e-02 1.42242432e-01 -8.02591741e-01
      -2.23678611e-02 -4.40352038e-02 -7.01355422e-03 -7.83707559e-01
      2.37250198e-02 1.10950328e-01 9.30722877e-02 -8.43908846e-01
      7.61883855e-02 -1.63286522e-01 -1.11180082e-01 -7.89296269e-01
      -1.21961087e-01 -1.61555842e-01 -1.53786376e-01 -7.77477920e-01
      -1.01445140e-02 1.65030509e-01 9.36512426e-02 -8.61702561e-01
      1.46729261e-01 -1.15259819e-01 -1.15464926e-01 -8.06781113e-01
      -3.80344391e-02 -2.13822857e-01 -1.62688643e-01 -7.74212658e-01</_>
    <_>
      -2.75091290e-01 -7.39356756e-01 -3.27106476e-01 2.34971714e+00
      -1.30279517e+00 -1.48109663e+00 -1.40533769e+00 9.34360981e-01
      8.42710555e-01 4.08223063e-01 7.93360591e-01 2.72760463e+00
      -5.06395578e-01 -7.87772596e-01 -5.87079167e-01 2.05659580e+00
      -1.03230274e+00 -1.25042081e+00 -1.20774281e+00 1.20646846e+00
      1.42517996e+00 1.06147981e+00 1.37949252e+00 2.87347221e+00
      2.04481140e-01 -8.79936218e-02 1.35172755e-01 2.44096923e+00
      -4.63554621e-01 -7.43412375e-01 -6.33891344e-01 1.91979969e+00
      8.09611827e-02 2.16920599e-02 3.33001427e-02 -8.99324656e-01
      -7.10033178e-02 -1.27427369e-01 -7.55863264e-02 -8.85724723e-01
      -1.48644477e-01 -7.31424317e-02 -1.86981425e-01 -9.29270685e-01
      -4.40228321e-02 -1.47162259e-01 -1.14865251e-01 -8.80262196e-01
      -1.38031423e-01 -1.79662392e-01 -1.52700901e-01 -8.69773805e-01
      -2.50419557e-01 -1.43536299e-01 -2.71564484e-01 -9.41554368e-01
      -6.78496882e-02 -1.46170065e-01 -1.64962500e-01 -8.87407541e-01
      -9.87092182e-02 -1.47390291e-01 -1.65800333e-01 -8.54741037e-01</_>
    <_>
      -1.39450565e-01 -8.65201890e-01 -6.24692321e-01 2.42784333e+00
      -1.13931632e+00 -1.39912701e+00 -1.36486411e+00 1.03101909e+00
      8.49117875e-01 1.36850953e-01 3.57286304e-01 2.80276966e+00
      -4.78617877e-01 -8.84168267e-01 -8.00218999e-01 2.14670801e+00
      -8.97710204e-01 -1.28648448e+00 -1.21044052e+00 1.30834067e+00
      1.37453520e+00 7.43829727e-01 9.31316435e-01 2.94751143e+00
      1.37845904e-01 -2.96373457e-01 -1.98462144e-01 2.52907205e+00
      -4.24627185e-01 -9.20821965e-01 -8.14454734e-01 2.01990867e+00
      1.48104325e-01 1.03568710e-01 1.47702277e-01 -8.27875972e-01
      -4.78269942e-02 -6.37681857e-02 -4.89564873e-02 -8.19213629e-01
      -6.82902858e-02 5.83086088e-02 3.98899280e-02 -8.54397058e-01
      -1.46593060e-03 -1.25102654e-01 -9.11055878e-02 -8.21841419e-01
      -1.43893018e-01 -1.65678307e-01 -1.54276937e-01 -8.15247655e-01
      -1.85859188e-01 -2.05826014e-03 -4.01998907e-02 -8.65942240e-01
      -2.85512488e-02 -1.38477728e-01 -1.11631945e-01 -8.32575321e-01
      -9.02911201e-02 -1.78216934e-01 -1.60714716e-01 -8.13038528e-01</_>
    <_>
      -1.51817635e-01 -7.47065187e-01 -3.98788869e-01 2.33733392e+00
      -1.17003524e+00 -1.57827413e+00 -1.47343218e+00 9.41677749e-01
      8.64658713e-01 3.63113344e-01 6.88660622e-01 2.71196938e+00
      -3.25006068e-01 -8.48840833e-01 -6.65373266e-01 2.05747795e+00
      -9.14222836e-01 -1.38674605e+00 -1.29255843e+00 1.22053063e+00
      1.39305806e+00 9.81563509e-01 1.25616705e+00 2.85639381e+00
      3.18882644e-01 -1.64666817e-01 2.37795562e-02 2.43894958e+00
      -3.44556183e-01 -8.78685892e-01 -7.37072349e-01 1.93166876e+00
      1.25629291e-01 1.62956901e-02 4.35815379e-02 -9.03354764e-01
      -3.61223370e-02 -1.11602306e-01 -4.58364002e-02 -8.89449954e-01
      -5.57405651e-02 -2.45074909e-02 -1.14541605e-01 -9.31839943e-01
      -3.11347023e-02 -1.79863065e-01 -7.78768733e-02 -8.92155051e-01
      -1.03593498e-01 -1.82723641e-01 -1.14837684e-01 -8.82985711e-01
      -1.56778991e-01 -8.40480700e-02 -2.07826421e-01 -9.44877326e-01
      -6.06071204e-02 -1.79255679e-01 -1.00148961e-01 -9.03344929e-01
      -6.78546876e-02 -2.12365493e-01 -1.19874291e-01 -8.79102230e-01</_>
    <_>
      -1.76803768e-01 -7.22178757e-01 -3.41091007e-01 2.33193207e+00
      -1.23711407e+00 -1.57721472e+00 -1.42601478e+00 9.34715807e-01
      8.72172296e-01 3.70899826e-01 7.33983338e-01 2.70613813e+00
      -4.00568277e-01 -8.72986197e-01 -6.23259246e-01 2.05043697e+00
      -9.94768441e-01 -1.41501331e+00 -1.24107122e+00 1.21220839e+00
      1.39956081e+00 9.75999832e-01 1.28534079e+00 2.85029840e+00
      2.58696914e-01 -2.08414018e-01 3.93780731e-02 2.43195391e+00
      -4.29404616e-01 -9.36382532e-01 -7.22139835e-01 1.92317998e+00
      1.13871060e-01 1.01219602e-02 5.05198017e-02 -8.94675076e-01
      -3.25198993e-02 -1.00990951e-01 -2.99452059e-02 -8.79985154e-01
      -8.64758715e-02 -3.56389061e-02 -1.55673504e-01 -9.27474439e-01
      -1.29921855e-02 -1.41186669e-01 -6.82034045e-02 -8.80684614e-01
      -9.41924676e-02 -1.95774391e-01 -1.06934108e-01 -8.71821165e-01
      -1.68985099e-01 -6.19841516e-02 -2.40245163e-01 -9.41515207e-01
      -3.37047018e-02 -9.51733515e-02 -1.03902943e-01 -8.92521203e-01
      -5.93879670e-02 -1.67089015e-01 -8.23306665e-02 -8.64975989e-01</_>
    <_>
      -2.77271569e-01 -9.35349643e-01 -4.45742458e-01 2.43216705e+00
      -1.13018513e+00 -1.45358872e+00 -1.35967338e+00 1.01682389e+00
      7.15630054e-01 1.95858199e-02 5.38393021e-01 2.81103373e+00
      -5.24468839e-01 -1.03859282e+00 -8.00441861e-01 2.13542271e+00
      -8.60842764e-01 -1.31815839e+00 -1.23247588e+00 1.28748071e+00
      1.23670888e+00 5.83424270e-01 1.06958246e+00 2.95772791e+00
      4.69617173e-02 -5.22016883e-01 -2.37293199e-01 2.51922894e+00
      -4.24507171e-01 -1.01629722e+00 -8.51589322e-01 1.99710441e+00
      2.51709461e-01 7.51713961e-02 1.33084372e-01 -8.07292879e-01
      2.54280400e-03 -7.47921392e-02 -1.44719472e-02 -7.59837270e-01
      8.69461671e-02 5.74002508e-03 -7.13998601e-02 -8.33333850e-01
      1.44354120e-01 -1.58721685e-01 -9.67637375e-02 -7.79365361e-01
      -6.73793629e-02 -1.75473779e-01 -1.39865875e-01 -7.45516360e-01
      1.52811166e-02 2.88550509e-04 -1.46019995e-01 -8.44769597e-01
      1.90316826e-01 -1.44628644e-01 -1.21958323e-01 -7.90541470e-01
      6.45791441e-02 -2.06854418e-01 -1.75565526e-01 -7.54242182e-01</_>
    <_>
      -3.51048172e-01 -1.02081275e+00 -3.99877280e-01 2.51474237e+00
      -1.08048916e+00 -1.34016907e+00 -1.27432287e+00 1.10071743e+00
      4.22069132e-01 -2.61699259e-01 4.24021959e-01 2.89758182e+00
      -6.74469709e-01 -1.00244331e+00 -8.53802204e-01 2.22700000e+00
      -8.89447093e-01 -1.18605530e+00 -1.06818736e+00 1.37788081e+00
      8.58632743e-01 1.91187635e-01 8.56627047e-01 3.04509926e+00
      -2.57856995e-01 -6.22066319e-01 -4.36475962e-01 2.61369395e+00
      -5.87290525e-01 -9.73446846e-01 -7.99842834e-01 2.09395838e+00
      2.95106918e-01 1.07364148e-01 1.85743093e-01 -7.37717211e-01
      2.53449809e-02 -3.42946947e-02 1.93077140e-02 -7.15610266e-01
      1.37037396e-01 9.49638486e-02 4.58290949e-02 -7.72233248e-01
      1.06414810e-01 -1.44550219e-01 4.71166149e-03 -7.32561350e-01
      -7.12541714e-02 -1.86515749e-01 -1.06980309e-01 -7.19867349e-01
      7.05345199e-02 1.19651183e-01 -8.52759555e-03 -7.85918593e-01
      1.33833230e-01 -1.37348890e-01 2.97042970e-02 -7.43353903e-01
      3.48043144e-02 -2.41688520e-01 -9.48832259e-02 -7.20455289e-01</_>
    <_>
      -3.37849796e-01 -9.67016399e-01 -3.83267432e-01 2.43232465e+00
      -1.22389233e+00 -1.43042839e+00 -1.31406069e+00 1.02802527e+00
      6.24543548e-01 1.53722158e-02 6.17461920e-01 2.81055593e+00
      -6.30956233e-01 -9.63389754e-01 -7.18703449e-01 2.15197611e+00
      -9.86208022e-01 -1.29691648e+00 -1.16194165e+00 1.30962241e+00
      1.14606035e+00 6.21402979e-01 1.16242313e+00 2.95659995e+00
      -5.82270473e-02 -4.05789554e-01 -1.25990093e-01 2.53756785e+00
      -5.58028996e-01 -9.56927001e-01 -7.53746510e-01 2.02697158e+00
      1.99231878e-01 1.03898875e-01 1.46377817e-01 -7.91468859e-01
      -2.47075930e-02 -8.29871222e-02 -2.14756746e-02 -7.68983424e-01
      4.44959290e-02 9.55560207e-02 -6.43601492e-02 -8.34221423e-01
      2.60176100e-02 -1.58529654e-01 -2.60748956e-02 -7.77691841e-01
      -1.10946648e-01 -2.10963592e-01 -1.09080464e-01 -7.64573574e-01
      -1.49783958e-02 7.47444257e-02 -1.53574243e-01 -8.53916585e-01
      3.83384600e-02 -1.37357101e-01 -2.69935708e-02 -8.00435722e-01
      -6.66509271e-02 -2.50415117e-01 -7.81608149e-02 -7.67681658e-01</_>
    <_>
      -2.49156997e-01 -7.35622227e-01 -3.92385215e-01 2.37773180e+00
      -1.26716542e+00 -1.44468784e+00 -1.44566667e+00 9.45333719e-01
      7.74606228e-01 3.20974082e-01 6.79025233e-01 2.76024628e+00
      -4.54755038e-01 -7.89204478e-01 -6.47531569e-01 2.07981610e+00
      -1.01118052e+00 -1.27383637e+00 -1.27251232e+00 1.21858692e+00
      1.30678940e+00 9.34459746e-01 1.25327992e+00 2.90650296e+00
      1.89720437e-01 -1.58295944e-01 3.86657491e-02 2.46634030e+00
      -4.69121516e-01 -8.31939876e-01 -7.33354926e-01 1.93709099e+00
      1.14284150e-01 7.73654133e-02 5.47885150e-02 -9.08008635e-01
      -8.99924412e-02 -1.17171481e-01 -8.09286833e-02 -8.91096830e-01
      9.37009323e-03 4.15936932e-02 -8.67947713e-02 -9.40719306e-01
      -4.04579788e-02 -1.17664956e-01 -1.15722902e-01 -8.90497327e-01
      -1.65076882e-01 -1.87562078e-01 -1.78522557e-01 -8.78902018e-01
      -4.41185124e-02 8.51322617e-03 -1.60571799e-01 -9.55700219e-01
      -2.37478018e-02 -1.01406664e-01 -1.36359274e-01 -9.02024090e-01
      -1.07767865e-01 -1.45791724e-01 -1.82370663e-01 -8.69690478e-01</_>
    <_>
      -3.53757411e-01 -9.01262939e-01 -3.96422029e-01 2.43454838e+00
      -1.29083025e+00 -1.39846981e+00 -1.29154241e+00 1.02797663e+00
      5.96502006e-01 7.84329176e-02 5.74995756e-01 2.81301546e+00
      -7.55035341e-01 -9.20004845e-01 -7.24789202e-01 2.15342665e+00
      -1.07720292e+00 -1.28309810e+00 -1.11126816e+00 1.30919814e+00
      1.10347819e+00 6.65903687e-01 1.08673358e+00 2.95872951e+00
      -2.12572083e-01 -3.77696484e-01 -1.73536181e-01 2.53871465e+00
      -6.97965086e-01 -9.46811378e-01 -7.30807900e-01 2.02684927e+00
      1.86189696e-01 1.43911555e-01 1.93000585e-01 -7.97619104e-01
      -4.65499051e-02 -8.44266713e-02 -3.93250436e-02 -7.80043721e-01
      3.62487100e-02 1.47907600e-01 4.20682617e-02 -8.35876763e-01
      1.95326805e-02 -1.19159311e-01 2.04400741e-03 -7.80882418e-01
      -1.40455365e-01 -2.02696964e-01 -1.45444453e-01 -7.69327223e-01
      -2.24630497e-02 1.27822399e-01 -2.24983264e-02 -8.53172839e-01
      4.60629389e-02 -7.59498626e-02 1.51577489e-02 -7.97548711e-01
      -9.59136114e-02 -2.05810606e-01 -1.05955131e-01 -7.64259815e-01</_>
    <_>
      -2.47560188e-01 -7.56019294e-01 -2.37946704e-01 2.33514214e+00
      -1.33255982e+00 -1.58787763e+00 -1.36773336e+00 9.36189950e-01
      7.93821812e-01 3.42766941e-01 8.10852647e-01 2.71092558e+00
      -4.99347478e-01 -8.72264624e-01 -5.84905863e-01 2.05392790e+00
      -1.06676221e+00 -1.41599739e+00 -1.16564238e+00 1.21431839e+00
      1.32156682e+00 9.50585902e-01 1.34979773e+00 2.85603237e+00
      1.60166562e-01 -2.09448114e-01 7.07935691e-02 2.43752265e+00
      -4.97242659e-01 -9.28078055e-01 -6.43699884e-01 1.92785800e+00
      1.00737445e-01 8.07773694e-03 6.93608299e-02 -8.86655569e-01
      -2.45075636e-02 -1.32535130e-01 -2.26851981e-02 -8.69411528e-01
      -5.08371815e-02 -1.38856750e-02 -1.41846418e-01 -9.25306439e-01
      -2.81066597e-02 -1.75489306e-01 -2.52539001e-04 -8.73833001e-01
      -8.95113647e-02 -2.18983144e-01 -8.10572654e-02 -8.63781035e-01
      -1.20881349e-01 -4.30888347e-02 -2.39867538e-01 -9.41108167e-01
      -4.99521159e-02 -1.29418120e-01 -1.65027864e-02 -8.90150964e-01
      -9.20458585e-02 -2.19056219e-01 -3.68065014e-02 -8.59795928e-01</_>
    <_>
      -3.78767431e-01 -9.68390465e-01 -3.54295045e-01 2.44091058e+00
      -1.23039949e+00 -1.41351461e+00 -1.29836905e+00 1.03514588e+00
      5.76830924e-01 -1.18581881e-03 6.22736394e-01 2.81902051e+00
      -6.85480833e-01 -9.69462752e-01 -7.14356661e-01 2.15761590e+00
      -9.84152853e-01 -1.27911556e+00 -1.12596166e+00 1.31445813e+00
      1.10295939e+00 6.01542294e-01 1.16427815e+00 2.96547961e+00
      -1.21281154e-01 -4.35685575e-01 -1.26293510e-01 2.54336834e+00
      -5.81238091e-01 -9.46346879e-01 -7.19821334e-01 2.03115273e+00
      2.16412902e-01 1.07089654e-01 1.52621269e-01 -7.99231529e-01
      -2.69109868e-02 -8.22834596e-02 -7.71311112e-03 -7.81662345e-01
      6.40994608e-02 8.75023007e-02 -5.16723990e-02 -8.33631933e-01
      5.33628725e-02 -1.46614924e-01 -1.26771778e-02 -7.84094095e-01
      -1.14582479e-01 -2.06397817e-01 -1.10808447e-01 -7.73324907e-01
      -7.27790035e-03 6.33351877e-02 -1.59962043e-01 -8.49584520e-01
      6.53947517e-02 -1.24915458e-01 -2.37720944e-02 -7.99780011e-01
      -5.35358377e-02 -2.46350765e-01 -8.45198631e-02 -7.69894540e-01</_>
    <_>
      -1.63773239e-01 -7.48246133e-01 -4.03478980e-01 2.32868958e+00
      -1.18613970e+00 -1.59453189e+00 -1.47047758e+00 9.35625792e-01
      8.66761088e-01 3.59130263e-01 6.90107524e-01 2.70227408e+00
      -3.34162265e-01 -8.80100667e-01 -6.57460332e-01 2.04774785e+00
      -9.22779262e-01 -1.41525662e+00 -1.28050625e+00 1.21185255e+00
      1.40355897e+00 9.83255863e-01 1.26672995e+00 2.84642577e+00
      3.30568820e-01 -2.00049058e-01 3.96157280e-02 2.42848420e+00
      -3.42275679e-01 -9.25410330e-01 -7.29118288e-01 1.92086852e+00
      1.19140327e-01 -3.91566101e-03 5.36093637e-02 -9.06047463e-01
      -3.02636307e-02 -1.14876837e-01 -2.92920638e-02 -8.92030180e-01
      -4.79952432e-02 -4.66067642e-02 -1.08735584e-01 -9.32340920e-01
      -1.09120887e-02 -1.85863778e-01 -5.76210432e-02 -8.91779065e-01
      -8.45467523e-02 -1.81844875e-01 -8.82226229e-02 -8.82049978e-01
      -1.30694762e-01 -8.90788659e-02 -1.85826272e-01 -9.44386780e-01
      -4.99035120e-02 -1.76024184e-01 -8.82051215e-02 -9.02508616e-01
      -6.08910248e-02 -2.00552091e-01 -8.05546716e-02 -8.77109826e-01</_>
    <_>
      -3.19370590e-02 -8.72557938e-01 -4.87768084e-01 2.32098341e+00
      -9.50893998e-01 -1.63844717e+00 -1.62510431e+00 9.32849169e-01
      9.32893813e-01 2.05036670e-01 5.89098454e-01 2.69633508e+00
      -1.26747757e-01 -9.77362454e-01 -8.47918570e-01 2.03286362e+00
      -6.48916066e-01 -1.50683355e+00 -1.47266316e+00 1.20044208e+00
      1.41976035e+00 8.05290222e-01 1.13681948e+00 2.84231639e+00
      4.73480344e-01 -3.35721284e-01 -1.70490474e-01 2.41335988e+00
      -9.55374241e-02 -1.05627334e+00 -9.48544800e-01 1.90116131e+00
      2.48920336e-01 -3.90100367e-02 -1.39830606e-02 -8.39720905e-01
      -1.32583417e-02 -8.96726400e-02 -2.71860957e-02 -7.97079325e-01
      1.16738178e-01 -3.97692956e-02 -1.58951536e-01 -8.73249114e-01
      1.15812548e-01 -2.40741968e-01 -1.49701104e-01 -8.12941432e-01
      -5.45817874e-02 -2.02863440e-01 -1.17313892e-01 -7.89798915e-01
      4.99143675e-02 -2.25114021e-02 -1.77913502e-01 -8.88694704e-01
      1.19549125e-01 -2.30774462e-01 -1.62939310e-01 -8.27945650e-01
      5.38757667e-02 -2.82466620e-01 -1.69094518e-01 -7.91620195e-01</_>
    <_>
      -4.75693077e-01 -8.92442942e-01 -3.31082344e-01 2.44400358e+00
      -1.30646026e+00 -1.38128781e+00 -1.24516618e+00 1.03192019e+00
      4.94724333e-01 9.35692415e-02 6.37527168e-01 2.82430434e+00
      -8.34654510e-01 -9.30424929e-01 -6.65728748e-01 2.15788746e+00
      -1.10760784e+00 -1.24205387e+00 -1.08439779e+00 1.31040394e+00
      1.03287423e+00 6.85739994e-01 1.15666270e+00 2.97116590e+00
      -3.04564804e-01 -3.93175036e-01 -9.85466838e-02 2.54426885e+00
      -7.69153416e-01 -9.13487792e-01 -6.96403205e-01 2.02786279e+00
      1.90244094e-01 1.48817465e-01 2.13480532e-01 -7.86734939e-01
      -4.71201986e-02 -9.90798026e-02 -4.17104103e-02 -7.65479326e-01
      1.53572997e-02 1.12972505e-01 5.57447225e-02 -8.26605082e-01
      1.67108960e-02 -1.12290420e-01 1.18831582e-02 -7.67710507e-01
      -1.48329049e-01 -2.04019874e-01 -1.55506954e-01 -7.53030598e-01
      -6.67443350e-02 7.03212991e-02 -1.00037698e-02 -8.44843388e-01
      4.77443524e-02 -8.02088603e-02 1.29696820e-02 -7.85574257e-01
      -8.32600296e-02 -1.95745021e-01 -1.14576012e-01 -7.48256803e-01</_>
    <_>
      -1.26462534e-01 -8.76221180e-01 -4.76469278e-01 2.36921906e+00
      -1.07606983e+00 -1.51610684e+00 -1.51450002e+00 9.60810184e-01
      8.94289017e-01 1.57959208e-01 5.64978182e-01 2.74638748e+00
      -2.63087779e-01 -9.36166286e-01 -8.04223418e-01 2.07254696e+00
      -7.71930456e-01 -1.39650714e+00 -1.38496029e+00 1.22691190e+00
      1.41735423e+00 7.60198116e-01 1.12293875e+00 2.89202809e+00
      3.59187543e-01 -3.19960803e-01 -1.42503157e-01 2.45389581e+00
      -2.32457563e-01 -9.91027236e-01 -8.85344505e-01 1.93186915e+00
      1.87116489e-01 3.35486047e-02 5.94285876e-02 -8.55377614e-01
      -3.66486572e-02 -1.04617812e-01 -4.38658670e-02 -8.29498529e-01
      4.13451605e-02 4.88318317e-03 -8.97612199e-02 -8.86697233e-01
      5.88943698e-02 -1.91256538e-01 -1.29206404e-01 -8.36030960e-01
      -8.86378437e-02 -1.93887964e-01 -1.42035037e-01 -8.19864988e-01
      -2.27397997e-02 7.25411717e-03 -1.40640318e-01 -8.99414182e-01
      8.30805451e-02 -1.83283821e-01 -1.43484682e-01 -8.46547544e-01
      2.28735674e-02 -2.28119597e-01 -1.88988134e-01 -8.14395785e-01</_>
    <_>
      -4.80683714e-01 -1.03654242e+00 -2.89756417e-01 2.42538953e+00
      -1.20996666e+00 -1.45493019e+00 -1.23172092e+00 1.02881694e+00
      4.56710935e-01 -1.05834246e-01 6.61092281e-01 2.80219841e+00
      -7.54774034e-01 -1.10963678e+00 -6.36885345e-01 2.14086890e+00
      -9.77430463e-01 -1.37053609e+00 -1.06835735e+00 1.30317974e+00
      9.72354829e-01 4.68761355e-01 1.15798032e+00 2.94761729e+00
      -2.56248116e-01 -6.23475015e-01 -8.59115124e-02 2.52240062e+00
      -6.49259388e-01 -1.12630856e+00 -6.81873560e-01 2.01063585e+00
      2.85726011e-01 1.01270221e-01 2.13519901e-01 -7.82749355e-01
      -6.28473796e-03 -8.76924396e-02 1.63557213e-02 -7.54938781e-01
      1.82140186e-01 9.59927961e-02 4.76704463e-02 -8.21232021e-01
      1.59349740e-01 -1.49708062e-01 1.99722126e-02 -7.73605585e-01
      -7.13928044e-02 -2.09076464e-01 -7.82568678e-02 -7.56319225e-01
      1.22576900e-01 7.86963627e-02 -1.76779050e-02 -8.37006152e-01
      2.28251293e-01 -1.24318518e-01 -1.13369059e-02 -7.89952815e-01
      6.41768575e-02 -2.39652202e-01 -9.21840295e-02 -7.60190129e-01</_>
    <_>
      -2.19928622e-01 -9.21589315e-01 -4.42421019e-01 2.49241233e+00
      -1.16227257e+00 -1.33515608e+00 -1.28744173e+00 1.08441126e+00
      6.73790574e-01 -1.02182329e-01 3.99571955e-01 2.87073970e+00
      -6.34497702e-01 -9.35688972e-01 -8.29071283e-01 2.20786667e+00
      -9.24258947e-01 -1.19404590e+00 -1.09140611e+00 1.36275208e+00
      1.14878285e+00 3.73617023e-01 8.49812388e-01 3.01637101e+00
      -1.54183090e-01 -4.97308314e-01 -3.71051013e-01 2.59196830e+00
      -5.70464253e-01 -9.20078158e-01 -7.60881722e-01 2.07784438e+00
      1.78833589e-01 1.47955209e-01 1.83685064e-01 -7.77023137e-01
      -1.22852698e-02 -4.81069461e-02 -2.19998937e-02 -7.68753946e-01
      -1.29893655e-02 1.16774186e-01 6.05932511e-02 -8.08663189e-01
      2.84438650e-03 -1.08910330e-01 -3.22648771e-02 -7.78015018e-01
      -1.35601953e-01 -1.72626227e-01 -1.49530157e-01 -7.72874832e-01
      -1.20295390e-01 9.67943743e-02 1.20483590e-02 -8.20797265e-01
      2.95404484e-03 -8.80359188e-02 -6.35589845e-03 -7.87014723e-01
      -8.67024139e-02 -1.79200828e-01 -1.41647145e-01 -7.68800616e-01</_>
    <_>
      -2.77617238e-02 -6.89109981e-01 -3.70727867e-01 2.27110410e+00
      -1.13668013e+00 -1.66865611e+00 -1.61750138e+00 8.67464364e-01
      1.02015007e+00 4.86761361e-01 7.69235253e-01 2.65177345e+00
      -2.11399063e-01 -8.71362567e-01 -7.19669402e-01 1.97472775e+00
      -8.56399119e-01 -1.49151516e+00 -1.42044759e+00 1.13176322e+00
      1.53562772e+00 1.10237217e+00 1.33771837e+00 2.79971838e+00
      4.49666589e-01 -1.56109393e-01 1.73798092e-02 2.35877132e+00
      -2.59042263e-01 -9.51783299e-01 -8.21188629e-01 1.83543479e+00
      1.08905621e-01 -3.53049710e-02 -4.91109602e-02 -8.73764336e-01
      -3.24889198e-02 -9.31051299e-02 -4.06136848e-02 -8.33645105e-01
      -8.41598660e-02 -1.21944100e-01 -2.57991552e-01 -9.18336093e-01
      3.27129066e-02 -1.45313278e-01 -1.24379367e-01 -8.38255167e-01
      -5.53429686e-02 -1.54088736e-01 -1.09849282e-01 -8.15084517e-01
      -1.84467047e-01 -1.59144923e-01 -3.27362716e-01 -9.38692689e-01
      -2.11768248e-03 -1.57541946e-01 -1.69259951e-01 -8.57779682e-01
      1.17254453e-02 -1.69900075e-01 -1.38018161e-01 -8.06596100e-01</_>
    <_>
      -2.71326393e-01 -7.05224991e-01 -3.86384547e-01 2.35638380e+00
      -1.32487810e+00 -1.51778591e+00 -1.41619718e+00 9.36053038e-01
      8.00199747e-01 4.15061325e-01 6.93847358e-01 2.73593807e+00
      -4.92526472e-01 -7.85803318e-01 -6.25203967e-01 2.06655741e+00
      -1.09896970e+00 -1.33228743e+00 -1.20035207e+00 1.21414042e+00
      1.35598385e+00 1.04199946e+00 1.27133548e+00 2.88303804e+00
      1.85634956e-01 -1.05590045e-01 5.57921641e-02 2.45527482e+00
      -5.33597231e-01 -8.24904501e-01 -6.58562839e-01 1.93658710e+00
      6.00261725e-02 6.18005283e-02 7.69019648e-02 -8.85828614e-01
      -7.18625858e-02 -1.03390150e-01 -8.22569132e-02 -8.62091720e-01
      -1.30872667e-01 1.81266014e-02 -6.40635565e-02 -9.26466763e-01
      -9.24638733e-02 -1.14768721e-01 -6.82312474e-02 -8.57216835e-01
      -1.55909285e-01 -1.58944383e-01 -1.53973803e-01 -8.42013001e-01
      -2.08439797e-01 -3.98256108e-02 -1.41837180e-01 -9.46157098e-01
      -1.29129663e-01 -1.05557978e-01 -6.79161251e-02 -8.78040612e-01
      -1.51978835e-01 -1.40457779e-01 -1.25185579e-01 -8.36207211e-01</_>
    <_>
      -1.99042991e-01 -7.20343649e-01 -2.83189327e-01 2.32520676e+00
      -1.29731226e+00 -1.58809960e+00 -1.41058207e+00 9.26931441e-01
      8.43755484e-01 3.86295557e-01 7.78449595e-01 2.70141602e+00
      -4.52116668e-01 -8.70504618e-01 -6.19475007e-01 2.04338932e+00
      -1.05144525e+00 -1.42137218e+00 -1.21552825e+00 1.20420671e+00
      1.38219285e+00 9.87155974e-01 1.32585549e+00 2.84702516e+00
      2.18551069e-01 -2.09806696e-01 4.28782478e-02 2.42746902e+00
      -4.92242932e-01 -9.60500121e-01 -6.97586894e-01 1.91711044e+00
      9.82783809e-02 2.61843950e-02 4.94184084e-02 -8.79722178e-01
      -2.95604970e-02 -1.09480143e-01 -3.05319875e-02 -8.61467659e-01
      -7.17237592e-02 -1.43733630e-02 -1.41114503e-01 -9.20436800e-01
      -2.84211952e-02 -1.46389961e-01 -2.11848225e-02 -8.63719881e-01
      -8.88482034e-02 -1.90813273e-01 -9.87647921e-02 -8.53034556e-01
      -1.52716860e-01 -5.47053441e-02 -2.32636437e-01 -9.39182699e-01
      -7.36031383e-02 -1.39479265e-01 -4.40645218e-02 -8.83348882e-01
      -7.27549866e-02 -1.76600680e-01 -7.38892928e-02 -8.50051939e-01</_>
    <_>
      -3.33954751e-01 -1.00608063e+00 -3.68594646e-01 2.42548418e+00
      -1.07736850e+00 -1.54647481e+00 -1.35479045e+00 1.02549219e+00
      5.53692400e-01 -4.87285443e-02 5.49153268e-01 2.80305123e+00
      -4.90201741e-01 -1.07699049e+00 -8.09537590e-01 2.13836694e+00
      -7.93197513e-01 -1.42856765e+00 -1.22434628e+00 1.29866195e+00
      1.03171051e+00 5.44297814e-01 1.05906856e+00 2.94937515e+00
      2.39265542e-02 -5.32996356e-01 -2.62182355e-01 2.52180433e+00
      -3.68983179e-01 -1.09083200e+00 -8.50300491e-01 2.00750589e+00
      3.14667702e-01 2.33489946e-02 1.17307127e-01 -7.86346138e-01
      2.01891847e-02 -6.83103800e-02 2.13308595e-02 -7.53278613e-01
      2.16977581e-01 4.98941503e-02 -7.39354193e-02 -8.21432471e-01
      1.70384109e-01 -2.36442626e-01 -5.96937872e-02 -7.70328879e-01
      -2.86862440e-02 -1.90842181e-01 -8.18774179e-02 -7.50671089e-01
      1.82205856e-01 7.31664002e-02 -1.41363323e-01 -8.37303102e-01
      2.44406492e-01 -1.80880234e-01 -6.58125654e-02 -7.87278354e-01
      1.05874188e-01 -3.12797576e-01 -1.02246515e-01 -7.57688403e-01</_>
    <_>
      -2.06123963e-01 -9.82317090e-01 -3.87515277e-01 2.39569902e+00
      -1.07060897e+00 -1.53104067e+00 -1.33552802e+00 1.01235354e+00
      8.03682268e-01 2.11235378e-02 5.77204466e-01 2.76633096e+00
      -4.35286283e-01 -1.13464630e+00 -7.81410694e-01 2.10817385e+00
      -7.82820761e-01 -1.46196818e+00 -1.22467804e+00 1.27937293e+00
      1.35328162e+00 6.21973932e-01 1.09826005e+00 2.90932584e+00
      1.82458192e-01 -5.87348521e-01 -2.16110572e-01 2.48299956e+00
      -3.09703290e-01 -1.17641842e+00 -8.57897282e-01 1.97401774e+00
      2.55680889e-01 1.27561064e-02 1.49989739e-01 -7.80833781e-01
      2.81414930e-02 -8.46416056e-02 5.70607092e-03 -7.32566774e-01
      5.24559729e-02 -4.03032415e-02 -5.40323593e-02 -8.08486700e-01
      1.43261403e-01 -2.28144914e-01 -5.68147376e-02 -7.58603454e-01
      -4.00934443e-02 -2.09850729e-01 -1.15190454e-01 -7.21289515e-01
      -6.15734272e-02 -4.94144000e-02 -1.34584010e-01 -8.19518626e-01
      1.41780645e-01 -2.10470438e-01 -9.57990810e-02 -7.71683097e-01
      7.37200901e-02 -3.01264614e-01 -1.56643808e-01 -7.36524403e-01</_>
    <_>
      3.25323902e-02 -7.99546719e-01 -4.32273269e-01 2.26346469e+00
      -1.00124919e+00 -1.74022996e+00 -1.66217113e+00 8.75794351e-01
      1.02252769e+00 3.68223786e-01 6.95687294e-01 2.63849759e+00
      -1.11801773e-01 -9.67168450e-01 -8.12048256e-01 1.97028184e+00
      -7.18376517e-01 -1.58047688e+00 -1.49523485e+00 1.13908112e+00
      1.51795483e+00 9.93534267e-01 1.26050007e+00 2.78537846e+00
      5.12668312e-01 -2.50138044e-01 -9.35826600e-02 2.35035157e+00
      -1.40016973e-01 -1.05844855e+00 -9.29762900e-01 1.83526433e+00
      1.98295876e-01 -6.26080632e-02 -3.21470872e-02 -8.47672522e-01
      5.28499344e-03 -1.03831112e-01 -1.35034313e-02 -7.85905480e-01
      3.50431465e-02 -8.88206288e-02 -2.30726108e-01 -8.89768779e-01
      1.00028083e-01 -2.23949343e-01 -1.12028360e-01 -8.05234790e-01
      -2.67903190e-02 -1.79560229e-01 -9.35650021e-02 -7.66815722e-01
      -6.29408583e-02 -9.91350710e-02 -2.73922205e-01 -9.10354555e-01
      7.41366744e-02 -2.23335937e-01 -1.40349358e-01 -8.30319166e-01
      5.73656820e-02 -2.34511673e-01 -1.24468237e-01 -7.77107060e-01</_>
    <_>
      -4.21092570e-01 -1.01185596e+00 -2.12485537e-01 2.39643931e+00
      -1.19694400e+00 -1.52256417e+00 -1.23529029e+00 1.00298357e+00
      5.38907647e-01 -5.67291528e-02 7.62301981e-01 2.77428365e+00
      -7.01629639e-01 -1.18836677e+00 -5.96079648e-01 2.10854506e+00
      -9.41492796e-01 -1.43208802e+00 -1.10618865e+00 1.27262700e+00
      1.04550219e+00 4.97083664e-01 1.25718784e+00 2.92057419e+00
      -1.96785629e-01 -7.21236348e-01 -3.45019512e-02 2.48954082e+00
      -5.98305643e-01 -1.20758140e+00 -7.14533925e-01 1.97518563e+00
      2.89994061e-01 5.69416806e-02 1.79353237e-01 -7.70801067e-01
      1.89109202e-02 -1.04933619e-01 4.16512638e-02 -7.38283157e-01
      1.69877321e-01 4.47573736e-02 -5.09131253e-02 -8.10241699e-01
      1.91003010e-01 -1.93439841e-01 9.61976219e-03 -7.52226055e-01
      -3.97025347e-02 -2.28794083e-01 -6.37586266e-02 -7.31722832e-01
      1.21616252e-01 5.83628975e-02 -1.38112575e-01 -8.26818764e-01
      2.65731603e-01 -1.39285699e-01 -4.05464955e-02 -7.66480446e-01
      1.10172309e-01 -2.95993745e-01 -8.17552283e-02 -7.29592443e-01</_>
    <_>
      -2.57658333e-01 -9.73957300e-01 -4.26350266e-01 2.41816926e+00
      -1.06607509e+00 -1.50605667e+00 -1.44484496e+00 1.00904131e+00
      6.59072280e-01 -3.14856023e-02 5.41213155e-01 2.79866290e+00
      -4.34495121e-01 -1.01028955e+00 -8.52672517e-01 2.12835312e+00
      -7.95652807e-01 -1.35983300e+00 -1.28908265e+00 1.28254282e+00
      1.13650906e+00 5.31743884e-01 1.06513429e+00 2.94614840e+00
      8.57330561e-02 -4.76063818e-01 -2.67730206e-01 2.51454401e+00
      -3.75177145e-01 -1.01520205e+00 -8.74301612e-01 1.99538922e+00
      2.89087296e-01 3.89910117e-02 7.07052797e-02 -8.10219169e-01
      1.07968680e-03 -6.84751123e-02 -4.50772932e-03 -7.76307225e-01
      1.81316480e-01 3.99390869e-02 -1.12118110e-01 -8.43636632e-01
      1.72986045e-01 -1.95236430e-01 -9.93162766e-02 -7.91881263e-01
      -4.78131510e-02 -1.80068180e-01 -1.12650745e-01 -7.71486878e-01
      1.42161235e-01 8.30614418e-02 -1.64124385e-01 -8.58388662e-01
      2.50942111e-01 -1.47622660e-01 -8.53723213e-02 -8.07126462e-01
      1.21439882e-01 -2.43985862e-01 -1.50135487e-01 -7.76564598e-01</_>
    <_>
      -3.83620501e-01 -1.01707900e+00 -4.01357859e-01 2.44300532e+00
      -1.24166608e+00 -1.39919496e+00 -1.21292245e+00 1.04480016e+00
      5.65160990e-01 -1.01640232e-01 5.31893671e-01 2.81987405e+00
      -7.59415865e-01 -1.04532909e+00 -6.70450866e-01 2.16299129e+00
      -1.05424964e+00 -1.26512885e+00 -1.04951692e+00 1.32439387e+00
      1.07844985e+00 4.77716058e-01 1.05176842e+00 2.96506310e+00
      -2.53766596e-01 -5.65813541e-01 -1.41124740e-01 2.54602098e+00
      -7.36174166e-01 -9.98207271e-01 -6.88391268e-01 2.03724623e+00
      2.18476474e-01 1.48384720e-01 2.61122972e-01 -7.83681095e-01
      -1.20322546e-02 -9.17277038e-02 -9.64697637e-03 -7.66866982e-01
      3.63021567e-02 1.48907632e-01 1.22033194e-01 -8.23470056e-01
      7.52936825e-02 -1.12547502e-01 5.18739335e-02 -7.77893245e-01
      -1.07321210e-01 -1.95041642e-01 -1.21312067e-01 -7.67514646e-01
      -5.08316644e-02 1.09987475e-01 2.75890995e-02 -8.40227604e-01
      9.96678174e-02 -7.60165006e-02 5.10543697e-02 -7.95434713e-01
      -1.92451980e-02 -2.06953228e-01 -8.75451043e-02 -7.68718362e-01</_>
    <_>
      -4.38750535e-01 -9.37808275e-01 -3.78770232e-01 2.43947458e+00
      -1.30872118e+00 -1.43070281e+00 -1.23671293e+00 1.02070320e+00
      5.25351942e-01 3.75155285e-02 5.94545424e-01 2.82242680e+00
      -7.25945830e-01 -9.43305254e-01 -6.17231131e-01 2.15676165e+00
      -1.06352437e+00 -1.29303336e+00 -1.10104430e+00 1.30585492e+00
      1.05752146e+00 6.40363276e-01 1.13985956e+00 2.97038555e+00
      -1.51125565e-01 -3.90615314e-01 -3.48905027e-02 2.54689431e+00
      -6.33808970e-01 -9.41556513e-01 -6.90647423e-01 2.03115916e+00
      1.94384798e-01 1.07052796e-01 2.20229968e-01 -7.99840093e-01
      -4.26132455e-02 -1.30979344e-01 -3.07790991e-02 -7.77370214e-01
      7.76698440e-02 1.12539776e-01 5.81223927e-02 -8.46877694e-01
      -5.89927752e-03 -1.55658275e-01 -8.96902662e-03 -7.83870459e-01
      -1.34929210e-01 -2.43443608e-01 -1.20542675e-01 -7.71861136e-01
      3.14588137e-02 9.37271863e-02 -3.47580239e-02 -8.68430495e-01
      2.57307049e-02 -1.05931319e-01 -2.02941783e-02 -8.06786656e-01
      -1.12849973e-01 -2.52826333e-01 -6.55205026e-02 -7.70508170e-01</_>
    <_>
      -3.78398001e-01 -9.53751564e-01 -2.68103361e-01 2.38584042e+00
      -1.17250133e+00 -1.59716892e+00 -1.36424351e+00 9.70774949e-01
      6.17816865e-01 1.01049133e-01 7.66653419e-01 2.77158451e+00
      -5.45017540e-01 -1.10310686e+00 -6.56284630e-01 2.09131908e+00
      -9.02003169e-01 -1.47638309e+00 -1.21443367e+00 1.24293339e+00
      1.15537453e+00 7.17755616e-01 1.30312622e+00 2.92215109e+00
      3.13936956e-02 -5.14884830e-01 -1.56210847e-02 2.48113179e+00
      -4.56901431e-01 -1.12152863e+00 -7.43345201e-01 1.95661318e+00
      2.66230255e-01 -2.13125348e-02 9.26666483e-02 -7.61761367e-01
      -1.16618155e-02 -1.17871411e-01 4.99134092e-03 -6.94867611e-01
      1.59152389e-01 -6.03642724e-02 -1.26180872e-01 -8.26870799e-01
      1.32432967e-01 -2.44897619e-01 -4.92398217e-02 -7.27536738e-01
      -6.17391542e-02 -2.27283612e-01 -8.54963511e-02 -6.93129659e-01
      9.50489640e-02 -6.68248162e-02 -2.03884691e-01 -8.54663253e-01
      1.76421776e-01 -2.29405925e-01 -8.09132010e-02 -7.67115772e-01
      5.34878261e-02 -3.01262230e-01 -9.10050571e-02 -7.06984818e-01</_>
    <_>
      -2.96952814e-01 -9.83066320e-01 -4.54528362e-01 2.44083691e+00
      -1.20724630e+00 -1.41942239e+00 -1.28333557e+00 1.04237771e+00
      6.54225111e-01 -4.53423038e-02 4.98752862e-01 2.81707931e+00
      -6.64935052e-01 -1.01496041e+00 -7.57659137e-01 2.16213369e+00
      -1.04377699e+00 -1.27154291e+00 -1.09201896e+00 1.32357955e+00
      1.16185904e+00 5.24486601e-01 1.01248693e+00 2.96235204e+00
      -1.37515038e-01 -5.05690694e-01 -2.28445798e-01 2.54577923e+00
      -6.92914009e-01 -9.65648592e-01 -7.31274009e-01 2.03825212e+00
      2.21838593e-01 1.23412095e-01 2.12113023e-01 -7.80506194e-01
      -1.47126056e-02 -7.71703199e-02 -1.57187153e-02 -7.63542414e-01
      3.79062295e-02 1.34548545e-01 6.45686612e-02 -8.21388006e-01
      3.91645171e-02 -1.24203376e-01 2.29876563e-02 -7.70809650e-01
      -1.10585660e-01 -1.88879654e-01 -1.32226229e-01 -7.61065602e-01
      -5.08962199e-02 1.32233232e-01 -9.98554006e-03 -8.38843405e-01
      4.30194438e-02 -7.45714307e-02 3.58183645e-02 -7.88618445e-01
      -5.10795154e-02 -2.13666305e-01 -1.07770599e-01 -7.59296119e-01</_>
    <_>
      -2.24166550e-02 -8.35596383e-01 -4.78620589e-01 2.30172038e+00
      -9.54799056e-01 -1.67001545e+00 -1.61852491e+00 9.22282040e-01
      9.57403421e-01 2.61196554e-01 6.06781602e-01 2.67518806e+00
      -9.79039669e-02 -9.71895039e-01 -8.26312959e-01 2.01786828e+00
      -6.43636346e-01 -1.52739608e+00 -1.46780407e+00 1.19005489e+00
      1.45602036e+00 8.71336281e-01 1.16607463e+00 2.82034135e+00
      5.19393146e-01 -2.99470007e-01 -1.27015799e-01 2.39707232e+00
      -6.75348938e-02 -1.04665387e+00 -9.21746373e-01 1.88896179e+00
      2.29911610e-01 -5.00332825e-02 -9.22647305e-03 -8.56515586e-01
      -2.06160657e-02 -9.81598645e-02 -3.01437881e-02 -8.18645120e-01
      9.44331065e-02 -5.95020093e-02 -1.60948545e-01 -8.88445497e-01
      9.42185000e-02 -2.27556169e-01 -1.48245171e-01 -8.37094724e-01
      -6.83525503e-02 -1.85067698e-01 -1.20972387e-01 -8.15502644e-01
      1.59505662e-02 -6.03986122e-02 -1.98355377e-01 -9.02292430e-01
      9.97925177e-02 -2.20067069e-01 -1.70911267e-01 -8.50321531e-01
      3.38664018e-02 -2.51997441e-01 -1.73482433e-01 -8.19671392e-01</_>
    <_>
      -5.49239330e-02 -8.52738142e-01 -3.87648821e-01 2.28772640e+00
      -1.04208088e+00 -1.75957239e+00 -1.51853395e+00 9.17363703e-01
      9.52825844e-01 3.14012915e-01 7.08336115e-01 2.65987325e+00
      -2.02116936e-01 -1.05347240e+00 -7.23250449e-01 2.00477195e+00
      -7.79710054e-01 -1.64135063e+00 -1.34779024e+00 1.18411660e+00
      1.46321785e+00 9.55410898e-01 1.27660871e+00 2.80498028e+00
      4.26136494e-01 -3.39383394e-01 -2.59858929e-02 2.38233399e+00
      -2.34606117e-01 -1.16086733e+00 -8.08258414e-01 1.87759662e+00
      2.05382377e-01 -1.11945137e-01 2.35302560e-02 -8.01810384e-01
      1.28663788e-02 -1.27506003e-01 9.48446523e-03 -7.51479089e-01
      3.61458622e-02 -1.26183510e-01 -1.74271256e-01 -8.50573003e-01
      8.89529288e-02 -2.96134204e-01 -6.75158650e-02 -7.74677277e-01
      -2.13901475e-02 -2.48409286e-01 -6.15106970e-02 -7.49517500e-01
      -4.66679819e-02 -1.21425964e-01 -2.27585644e-01 -8.72803509e-01
      6.79964274e-02 -2.80192822e-01 -9.41933617e-02 -8.03763628e-01
      6.81035817e-02 -3.36645693e-01 -8.67775902e-02 -7.62504458e-01</_>
    <_>
      -3.67030412e-01 -8.61273050e-01 -4.67621624e-01 2.44908643e+00
      -1.15665615e+00 -1.38750350e+00 -1.36574829e+00 1.02868354e+00
      6.38115168e-01 1.16423607e-01 5.08027256e-01 2.82966781e+00
      -5.28704047e-01 -9.04208064e-01 -7.72851467e-01 2.15702629e+00
      -8.95102203e-01 -1.28360021e+00 -1.23197603e+00 1.30375397e+00
      1.18267691e+00 6.98203444e-01 1.04742682e+00 2.97617054e+00
      5.56750372e-02 -3.48040104e-01 -1.74381763e-01 2.54316998e+00
      -4.57107514e-01 -9.49749053e-01 -8.16562533e-01 2.02069855e+00
      2.10365593e-01 1.09021485e-01 1.40942350e-01 -8.19148183e-01
      -5.59164211e-02 -9.00630057e-02 -5.21326289e-02 -8.02913666e-01
      6.11366518e-02 4.69865166e-02 1.54938744e-02 -8.49362671e-01
      1.80869866e-02 -1.56045809e-01 -1.00750603e-01 -8.03938091e-01
      -1.50523275e-01 -2.07854837e-01 -1.83491841e-01 -7.92394638e-01
      -6.93113543e-03 2.98652072e-02 -8.14134907e-03 -8.62691641e-01
      5.46976291e-02 -1.54368415e-01 -8.96020755e-02 -8.13672245e-01
      -5.34695908e-02 -2.22342864e-01 -2.13374823e-01 -7.84155965e-01</_>
    <_>
      -4.05411810e-01 -8.09155941e-01 -2.65495002e-01 2.37250519e+00
      -1.25553215e+00 -1.50105584e+00 -1.35510683e+00 9.63805556e-01
      6.50031090e-01 3.07657123e-01 8.15219641e-01 2.75072956e+00
      -5.79062343e-01 -8.77499580e-01 -5.79376936e-01 2.08377481e+00
      -1.00251627e+00 -1.37526393e+00 -1.17875755e+00 1.23860121e+00
      1.22495699e+00 9.52914894e-01 1.36623073e+00 2.89719057e+00
      7.16421381e-02 -2.01764241e-01 9.95968878e-02 2.46845102e+00
      -5.11082470e-01 -9.28719759e-01 -6.48074329e-01 1.95187581e+00
      1.90469965e-01 2.24645883e-02 5.77562302e-02 -8.64223540e-01
      -3.80084738e-02 -1.16948485e-01 -3.35217975e-02 -8.47379327e-01
      5.59556223e-02 -5.72739057e-02 -1.90935388e-01 -8.94817472e-01
      5.95264025e-02 -1.80442989e-01 -9.43588093e-02 -8.45621109e-01
      -1.06607504e-01 -2.16275319e-01 -1.18569128e-01 -8.33510339e-01
      -1.10550728e-02 -1.11044824e-01 -2.71286547e-01 -9.08174694e-01
      6.80372939e-02 -2.14104548e-01 -1.50158122e-01 -8.55447292e-01
      -3.08848955e-02 -2.38189295e-01 -1.43038809e-01 -8.23640883e-01</_>
    <_>
      -5.15913427e-01 -9.31898296e-01 -3.03355366e-01 2.43889427e+00
      -1.25591576e+00 -1.43110979e+00 -1.27617538e+00 1.01626754e+00
      4.55534607e-01 5.46630546e-02 6.75620973e-01 2.82302618e+00
      -7.69417107e-01 -9.95896041e-01 -6.66172326e-01 2.14432573e+00
      -1.01690888e+00 -1.31348097e+00 -1.13745356e+00 1.29045522e+00
      9.95882094e-01 6.59456372e-01 1.20057797e+00 2.97169185e+00
      -2.33783215e-01 -4.51290041e-01 -8.98503363e-02 2.53312302e+00
      -6.57598257e-01 -1.00276315e+00 -7.40378261e-01 2.00802255e+00
      2.52093673e-01 1.29726782e-01 1.77909523e-01 -7.74090171e-01
      -4.04402204e-02 -1.01487085e-01 -2.96506938e-02 -7.33902395e-01
      1.37621969e-01 9.16135982e-02 -8.27024970e-03 -8.26051354e-01
      1.01596534e-01 -1.40939444e-01 -4.58843336e-02 -7.47696042e-01
      -1.14922471e-01 -2.25344256e-01 -1.32137239e-01 -7.23043859e-01
      6.90497532e-02 5.96669838e-02 -8.76404047e-02 -8.48041117e-01
      1.60228118e-01 -1.31133616e-01 -7.20666945e-02 -7.74881601e-01
      8.54732655e-03 -2.49671876e-01 -1.34197116e-01 -7.24743247e-01</_>
    <_>
      3.12337298e-02 -7.81172991e-01 -4.03026968e-01 2.25656223e+00
      -1.01035404e+00 -1.77275062e+00 -1.62539196e+00 8.81005943e-01
      1.03103900e+00 3.84478003e-01 7.13628531e-01 2.62924266e+00
      -1.32308394e-01 -9.96529996e-01 -7.72248805e-01 1.96877599e+00
      -7.36754477e-01 -1.62106502e+00 -1.45147407e+00 1.14484406e+00
      1.52623212e+00 1.00337672e+00 1.27394962e+00 2.77459955e+00
      4.91328746e-01 -2.76372701e-01 -6.19020686e-02 2.34640741e+00
      -1.65514410e-01 -1.09580636e+00 -8.89074326e-01 1.83743942e+00
      1.98970303e-01 -1.07948132e-01 -1.80971026e-02 -8.40085268e-01
      2.42141001e-02 -1.10364139e-01 1.30932676e-02 -7.78886080e-01
      1.14017008e-02 -1.50463313e-01 -2.21239597e-01 -8.81762326e-01
      1.17549099e-01 -2.46425122e-01 -9.01710987e-02 -8.01280618e-01
      6.52543269e-03 -1.98808417e-01 -6.19392209e-02 -7.67075658e-01
      -8.30287114e-02 -1.60025403e-01 -2.81524628e-01 -9.00364757e-01
      9.71091688e-02 -2.45219931e-01 -1.40717641e-01 -8.24651480e-01
      9.23806876e-02 -2.67705083e-01 -1.09802879e-01 -7.76053786e-01</_>
    <_>
      -4.49242711e-01 -9.97868001e-01 -3.89586121e-01 2.45723891e+00
      -1.19464314e+00 -1.41265273e+00 -1.22683454e+00 1.05502546e+00
      5.44902802e-01 -3.51628847e-02 5.60996890e-01 2.83363605e+00
      -6.32193387e-01 -9.83599365e-01 -6.37313247e-01 2.17299557e+00
      -9.57336009e-01 -1.31731832e+00 -1.10454059e+00 1.33161271e+00
      1.10260892e+00 5.63627362e-01 1.08813882e+00 2.97863865e+00
      -5.00159524e-02 -4.44007009e-01 -6.40814081e-02 2.55525398e+00
      -5.40781558e-01 -1.01477337e+00 -7.02739656e-01 2.04321170e+00
      2.26007015e-01 9.16023552e-02 2.00645387e-01 -7.95423090e-01
      -2.74053905e-02 -8.06672424e-02 -3.21449600e-02 -7.73929954e-01
      7.45104924e-02 6.63276538e-02 5.68967611e-02 -8.27812254e-01
      1.00086164e-02 -1.72536299e-01 -6.03747144e-02 -7.91861713e-01
      -1.35255054e-01 -1.89889431e-01 -1.45664051e-01 -7.80161917e-01
      9.12070088e-03 5.46323732e-02 -7.69006275e-03 -8.41023624e-01
      3.55313569e-02 -1.76894635e-01 -8.09960812e-02 -8.04846585e-01
      -6.93185404e-02 -2.29254112e-01 -1.51098937e-01 -7.84231365e-01</_>
    <_>
      -2.19835415e-01 -9.04134929e-01 -5.08441746e-01 2.41089964e+00
      -1.15487790e+00 -1.51327014e+00 -1.43060637e+00 9.98099864e-01
      7.22701371e-01 1.30406350e-01 5.26631296e-01 2.78901029e+00
      -4.68500853e-01 -9.45516706e-01 -7.70966589e-01 2.12470889e+00
      -9.24939454e-01 -1.35847378e+00 -1.23510766e+00 1.27567673e+00
      1.22090435e+00 7.26507545e-01 1.07978451e+00 2.93465734e+00
      1.12810515e-01 -3.34672958e-01 -1.42292038e-01 2.51046133e+00
      -4.56675887e-01 -9.50172782e-01 -7.69805431e-01 1.99348819e+00
      2.21024022e-01 5.16647995e-02 8.91751498e-02 -8.20980966e-01
      -5.29389381e-02 -8.77902433e-02 -4.54765782e-02 -7.95905054e-01
