<?xml version="1.0"?>
<opencv_storage>
<my_svm type_id="opencv-ml-svm">
  <svm_type>C_SVC</svm_type>
  <kernel><type>RBF</type>
    <gamma>1.0000000000000000e-02</gamma></kernel>
  <C>7.</C>
  <term_criteria><epsilon>9.9999999747524271e-07</epsilon>
    <iterations>1000000</iterations></term_criteria>
  <var_all>64</var_all>
  <var_count>64</var_count>
  <class_count>8</class_count>
  <class_labels type_id="opencv-matrix">
    <rows>1</rows>
    <cols>8</cols>
    <dt>i</dt>
    <data>
      0 1 2 3 4 5 6 7</data></class_labels>
  <sv_total>2082</sv_total>
  <support_vectors>
    <_>
      -3.52102220e-01 -1.03324854e+00 -4.17837173e-01 2.52778840e+00
      -1.08064032e+00 -1.31122482e+00 -1.26510620e+00 1.10773361e+00
      4.16156948e-01 -3.20757121e-01 3.98131400e-01 2.91239905e+00
      -6.92278028e-01 -9.85540867e-01 -8.51949036e-01 2.23689175e+00
      -8.76716256e-01 -1.15714836e+00 -1.08727849e+00 1.38442910e+00
      8.35791111e-01 1.11243844e-01 8.16404104e-01 3.06097865e+00
      -2.95027077e-01 -6.18912995e-01 -4.49304193e-01 2.62521076e+00
      -5.82643092e-01 -9.52033222e-01 -8.30688417e-01 2.10189486e+00
      2.94883132e-01 1.09158576e-01 1.96572334e-01 -7.23728716e-01
      2.29796562e-02 -3.51059102e-02 1.20219057e-02 -6.89142764e-01
      1.51306584e-01 1.01975776e-01 6.32387698e-02 -7.60487616e-01
      1.16893515e-01 -1.44178212e-01 -3.68599929e-02 -7.08142340e-01
      -7.66947344e-02 -1.81687236e-01 -1.25436500e-01 -6.88961864e-01
      9.53897834e-02 1.33052960e-01 2.06721611e-02 -7.75546849e-01
      1.52997479e-01 -1.41987875e-01 -1.98791176e-02 -7.23822534e-01
      2.06605978e-02 -2.16134712e-01 -1.24152660e-01 -6.94470763e-01</_>
    <_>
      -2.32316256e-01 -8.83943796e-01 -4.04459596e-01 2.45541692e+00
      -1.20160520e+00 -1.40793872e+00 -1.32404816e+00 1.03898406e+00
      7.08255112e-01 3.83555219e-02 5.04576445e-01 2.83559084e+00
      -5.38514555e-01 -8.84958029e-01 -7.73890734e-01 2.16829610e+00
      -9.58979130e-01 -1.27449942e+00 -1.14886653e+00 1.31791461e+00
      1.20425749e+00 5.97922981e-01 1.01241076e+00 2.98248315e+00
      1.05123296e-02 -3.48193079e-01 -2.27706209e-01 2.55562973e+00
      -5.27921855e-01 -9.20026064e-01 -7.46909678e-01 2.03780842e+00
      1.69974551e-01 1.11174464e-01 1.39734328e-01 -8.13953757e-01
      -2.03348231e-02 -7.21576139e-02 -2.33697090e-02 -7.99859643e-01
      -1.02560669e-02 8.57689902e-02 -1.37347709e-02 -8.51654649e-01
      -9.74468235e-03 -1.42740771e-01 -3.82519215e-02 -8.07751298e-01
      -1.33386493e-01 -1.95568189e-01 -1.30229354e-01 -7.99957216e-01
      -1.18363962e-01 2.76297983e-02 -9.96131152e-02 -8.68135571e-01
      -2.69517489e-02 -1.39476910e-01 -4.86322679e-02 -8.24493468e-01
      -9.10658166e-02 -2.07045615e-01 -1.12020135e-01 -7.99169779e-01</_>
    <_>
      -4.24862415e-01 -8.89888167e-01 -3.03455263e-01 2.39944386e+00
      -1.25257814e+00 -1.46280992e+00 -1.31024814e+00 9.88474667e-01
      6.10029161e-01 1.96930647e-01 7.48474061e-01 2.77906251e+00
      -5.96268475e-01 -9.17539597e-01 -5.97075045e-01 2.11092734e+00
      -1.02932012e+00 -1.38140070e+00 -1.14234579e+00 1.26399267e+00
      1.17891216e+00 8.46131265e-01 1.30528796e+00 2.92623448e+00
      3.50912698e-02 -2.84840643e-01 5.65606281e-02 2.49729991e+00
      -5.67034304e-01 -9.91688728e-01 -6.49869919e-01 1.97975373e+00
      1.98684260e-01 6.76181316e-02 1.12550534e-01 -8.30836892e-01
      -4.20932211e-02 -1.13503449e-01 -3.00590191e-02 -8.02776277e-01
      5.65405302e-02 -4.54340316e-03 -1.22299619e-01 -8.68904412e-01
      2.48281006e-02 -1.72922999e-01 -7.09272400e-02 -8.11808407e-01
      -1.09732501e-01 -2.32831255e-01 -1.19057752e-01 -7.94630110e-01
      -1.35991890e-02 -5.30417375e-02 -2.27789953e-01 -8.85060430e-01
      4.27291654e-02 -1.76575556e-01 -1.26307115e-01 -8.27565551e-01
      -2.45420672e-02 -2.36142263e-01 -1.35340050e-01 -7.91441381e-01</_>
    <_>
      -1.78458430e-02 -8.30049992e-01 -4.32115853e-01 2.30471706e+00
      -9.96806085e-01 -1.63768613e+00 -1.55496776e+00 9.38748956e-01
      9.77739334e-01 2.79096067e-01 6.54687166e-01 2.67241549e+00
      -1.90967187e-01 -1.00724828e+00 -7.84039795e-01 2.02491045e+00
      -7.02998042e-01 -1.51799476e+00 -1.41012406e+00 1.20498526e+00
      1.48517740e+00 8.94036770e-01 1.22427380e+00 2.81485415e+00
      4.29624170e-01 -3.53286386e-01 -9.54120085e-02 2.39848161e+00
      -1.56343073e-01 -1.07801557e+00 -8.93639863e-01 1.89645755e+00
      1.99620366e-01 -4.56374213e-02 1.63372811e-02 -8.37649345e-01
      -9.50448122e-03 -1.05794929e-01 -2.17648558e-02 -8.19260299e-01
      3.70793268e-02 -1.02114677e-01 -1.62223130e-01 -8.70696664e-01
      1.12868607e-01 -2.27467567e-01 -1.08430542e-01 -8.32567632e-01
      -4.69138101e-02 -2.14273542e-01 -1.11925580e-01 -8.19064319e-01
      -4.83861156e-02 -1.23114072e-01 -2.30160415e-01 -8.84565949e-01
      1.14576422e-01 -2.19711289e-01 -1.47446632e-01 -8.44105840e-01
      6.27237633e-02 -2.71682262e-01 -1.59485340e-01 -8.19923878e-01</_>
    <_>
      -1.61597356e-01 -7.82681286e-01 -4.36961532e-01 2.35449743e+00
      -1.18997836e+00 -1.55893993e+00 -1.45390689e+00 9.54771340e-01
      8.06247234e-01 2.69073814e-01 5.92508793e-01 2.73000026e+00
      -3.74256074e-01 -8.58915687e-01 -7.03569591e-01 2.07578135e+00
      -9.48344350e-01 -1.42181611e+00 -1.26737952e+00 1.23568583e+00
      1.31584799e+00 8.73581767e-01 1.14359725e+00 2.87440109e+00
      2.61343390e-01 -2.12394685e-01 -5.65052368e-02 2.45844364e+00
      -3.96953613e-01 -9.64115143e-01 -7.65334070e-01 1.95020974e+00
      1.66485339e-01 3.78245376e-02 7.63144270e-02 -9.02693152e-01
      -2.80675180e-02 -8.90184790e-02 -3.12784687e-02 -8.91096175e-01
      7.09622055e-02 4.78148237e-02 -4.66734432e-02 -9.30154979e-01
      3.99413751e-03 -1.82002097e-01 -6.11537322e-02 -8.92486989e-01
      -8.97610709e-02 -1.94021091e-01 -1.12124473e-01 -8.83341908e-01
      2.58171316e-02 3.00469864e-02 -1.00576557e-01 -9.42892790e-01
      -7.90619105e-03 -1.73995197e-01 -7.05404580e-02 -9.03369904e-01
      -5.43083735e-02 -2.18541697e-01 -1.15183957e-01 -8.80411804e-01</_>
    <_>
      -1.38266742e-01 -7.50137329e-01 -3.98970962e-01 2.32817507e+00
      -1.14956820e+00 -1.58152425e+00 -1.46298289e+00 9.40546393e-01
      8.95716667e-01 3.59446108e-01 6.76615596e-01 2.70028234e+00
      -3.04251790e-01 -8.83715093e-01 -6.88359559e-01 2.04733133e+00
      -8.82723153e-01 -1.43115616e+00 -1.31726313e+00 1.21473455e+00
      1.42941988e+00 9.80411351e-01 1.24784791e+00 2.84400988e+00
      3.58501226e-01 -1.98590294e-01 -1.21762892e-02 2.42627096e+00
      -3.05734187e-01 -9.47882056e-01 -8.10004652e-01 1.91976440e+00
      1.38478443e-01 1.05273789e-02 5.18862456e-02 -8.94339740e-01
      -3.44850756e-02 -1.02569386e-01 -3.29722129e-02 -8.82853270e-01
      -4.50674482e-02 -5.02031036e-02 -1.35200694e-01 -9.18898642e-01
      3.48776439e-03 -1.51358545e-01 -8.38413984e-02 -8.81898463e-01
      -9.43383947e-02 -1.90650418e-01 -1.10606827e-01 -8.73601854e-01
      -1.49979442e-01 -1.00752950e-01 -2.41410553e-01 -9.30289090e-01
      -4.11075167e-02 -1.48132250e-01 -1.35896221e-01 -8.90096009e-01
      -5.46246134e-02 -1.71751767e-01 -9.57090706e-02 -8.67511988e-01</_>
    <_>
      -3.55583638e-01 -9.69092727e-01 -4.40818608e-01 2.45574260e+00
      -1.13183010e+00 -1.45557642e+00 -1.26063347e+00 1.05600095e+00
      5.93912005e-01 -2.74234638e-02 4.69357759e-01 2.83231068e+00
      -5.50378382e-01 -1.07184124e+00 -6.95257843e-01 2.17088699e+00
      -8.98754537e-01 -1.36512077e+00 -1.14195263e+00 1.33200181e+00
      1.10879266e+00 5.30340731e-01 9.71414566e-01 2.97761130e+00
      1.04597257e-02 -5.59748232e-01 -1.48383811e-01 2.55309796e+00
      -4.93229389e-01 -1.10235882e+00 -7.79826820e-01 2.04190660e+00
      2.56548584e-01 5.41695952e-02 1.83460534e-01 -7.64182210e-01
      -7.89752696e-03 -7.88050592e-02 -6.85792509e-03 -7.40147173e-01
      1.39718458e-01 2.14234293e-02 5.63904904e-02 -8.07371914e-01
      7.50792474e-02 -1.97669402e-01 -6.03343099e-02 -7.60240793e-01
      -1.05394959e-01 -2.28454024e-01 -1.26349926e-01 -7.47541130e-01
      1.03705786e-01 3.14661451e-02 -5.30339824e-03 -8.23783576e-01
      1.17856957e-01 -1.86907068e-01 -8.17339644e-02 -7.79025257e-01
      -7.55169708e-03 -2.89971203e-01 -1.38017237e-01 -7.52304912e-01</_>
    <_>
      -4.16172355e-01 -1.05313694e+00 -3.59043598e-01 2.44147205e+00
      -1.12731850e+00 -1.46530080e+00 -1.20034182e+00 1.05661666e+00
      5.46912789e-01 -1.00813106e-01 5.72302878e-01 2.81572270e+00
      -6.06930614e-01 -1.13784122e+00 -6.59814298e-01 2.16039133e+00
      -8.73490810e-01 -1.41381013e+00 -1.10498238e+00 1.33025134e+00
      1.09992731e+00 5.06829083e-01 1.07795370e+00 2.96051240e+00
      -4.59600128e-02 -6.23172224e-01 -1.34635344e-01 2.54020691e+00
      -4.80826885e-01 -1.16767192e+00 -7.62109697e-01 2.03374934e+00
      2.76982605e-01 3.72851901e-02 2.03121528e-01 -7.52111793e-01
      1.57478452e-02 -7.32400566e-02 1.41958725e-02 -7.20476210e-01
      1.37847185e-01 2.95440666e-02 3.57717788e-03 -7.85842538e-01
      1.27506763e-01 -2.07700074e-01 -5.04826903e-02 -7.42169797e-01
      -6.74766451e-02 -2.20488206e-01 -1.08945675e-01 -7.24643350e-01
      6.32826611e-02 3.56857330e-02 -7.74751827e-02 -8.01019311e-01
      1.59297332e-01 -1.86179727e-01 -9.35702026e-02 -7.58548439e-01
      4.39158343e-02 -3.08205396e-01 -1.45419911e-01 -7.33470261e-01</_>
    <_>
      -2.37315193e-01 -1.02671134e+00 -3.77853215e-01 2.37535357e+00
      -1.05654621e+00 -1.58272564e+00 -1.36609304e+00 9.94241655e-01
      7.69287705e-01 3.64355557e-02 6.32212222e-01 2.74668813e+00
      -4.13914531e-01 -1.12938309e+00 -7.51105785e-01 2.09002137e+00
      -7.64973760e-01 -1.51169920e+00 -1.25219798e+00 1.26291871e+00
      1.31618583e+00 6.75910473e-01 1.17547417e+00 2.89048886e+00
      1.89265206e-01 -5.32842875e-01 -1.34388179e-01 2.46644711e+00
      -2.98613667e-01 -1.17159820e+00 -8.31036687e-01 1.95929134e+00
      2.75029629e-01 -2.47135684e-02 1.00794360e-01 -7.82003582e-01
      1.94577463e-02 -9.93736610e-02 1.65121499e-02 -7.32667804e-01
      9.75225419e-02 -5.08228503e-02 -1.09910510e-01 -8.16402853e-01
      1.73546717e-01 -2.75388658e-01 -6.69760182e-02 -7.59371817e-01
      -1.98699497e-02 -2.15808079e-01 -8.66216943e-02 -7.24685371e-01
      8.60286527e-04 -4.60857973e-02 -1.85681686e-01 -8.31149518e-01
      1.99107796e-01 -2.48618662e-01 -1.08423010e-01 -7.79887974e-01
      1.30519643e-01 -3.23883086e-01 -1.23424336e-01 -7.42803812e-01</_>
    <_>
      -6.22232305e-03 -8.77598166e-01 -4.40646440e-01 2.30139756e+00
      -9.39490438e-01 -1.66157782e+00 -1.58493280e+00 9.31092083e-01
      9.98859465e-01 2.27420181e-01 6.34272218e-01 2.67119503e+00
      -1.24065869e-01 -1.03957462e+00 -8.34801257e-01 2.01413178e+00
      -6.03625655e-01 -1.55070865e+00 -1.47762001e+00 1.19270146e+00
      1.50569546e+00 8.43633294e-01 1.18641555e+00 2.81431913e+00
      4.98272896e-01 -3.70507091e-01 -1.53230593e-01 2.38737679e+00
      -4.55040559e-02 -1.09487891e+00 -9.71687019e-01 1.88005471e+00
      2.30364367e-01 -6.50281981e-02 -9.45814827e-04 -8.16059232e-01
      -4.39083437e-03 -1.09143890e-01 -2.01604497e-02 -7.69129097e-01
      6.60597607e-02 -9.68340561e-02 -1.83924243e-01 -8.51016819e-01
      1.36431411e-01 -2.62564749e-01 -1.57347649e-01 -7.90573776e-01
      -4.38732058e-02 -2.27378964e-01 -1.12634949e-01 -7.62192667e-01
      -8.10862053e-03 -7.69576281e-02 -2.12930143e-01 -8.64969552e-01
      1.61043257e-01 -2.62140274e-01 -2.03332573e-01 -8.05837274e-01
      8.96548554e-02 -3.24872911e-01 -1.92642808e-01 -7.68729508e-01</_>
    <_>
      -1.90674007e-01 -9.36719000e-01 -5.79506516e-01 2.42601919e+00
      -1.17660224e+00 -1.46314120e+00 -1.32814980e+00 1.02299106e+00
      7.49014616e-01 6.21950552e-02 3.86783570e-01 2.80228519e+00
      -5.13906658e-01 -9.40186501e-01 -7.14853287e-01 2.14558840e+00
      -9.43255365e-01 -1.33479333e+00 -1.16030288e+00 1.30335391e+00
      1.25294161e+00 6.64576590e-01 9.40883517e-01 2.94728041e+00
      8.21486190e-02 -3.46687764e-01 -1.17694683e-01 2.52931261e+00
      -4.73324060e-01 -9.62140799e-01 -7.41652787e-01 2.01914167e+00
      1.89873666e-01 8.10210258e-02 1.75471425e-01 -8.45913351e-01
      -2.78952997e-02 -7.70481825e-02 -2.26639062e-02 -8.36138487e-01
      6.08175658e-02 8.82972851e-02 8.89962837e-02 -8.72082591e-01
      1.83470622e-02 -1.72474727e-01 -7.19686300e-02 -8.39784384e-01
      -1.14101417e-01 -1.99814320e-01 -1.27626508e-01 -8.33689213e-01
      1.50804510e-02 9.68564153e-02 3.42431031e-02 -8.83894980e-01
      1.24376388e-02 -1.54600680e-01 -1.08321570e-01 -8.49244356e-01
      -7.26440474e-02 -2.14574173e-01 -1.16925173e-01 -8.30961287e-01</_>
    <_>
      -1.68114230e-01 -7.19800055e-01 -3.32994908e-01 2.33571887e+00
      -1.25451529e+00 -1.58644962e+00 -1.44209957e+00 9.32425439e-01
      8.61036301e-01 3.74545902e-01 7.38538742e-01 2.71254754e+00
      -4.13355529e-01 -8.40047002e-01 -6.05736196e-01 2.05574155e+00
      -1.01893735e+00 -1.39422882e+00 -1.20998287e+00 1.21403205e+00
      1.37961984e+00 9.74590063e-01 1.28202736e+00 2.85808659e+00
      2.33296603e-01 -1.73581839e-01 6.48692623e-02 2.44048834e+00
      -4.54362720e-01 -8.91791940e-01 -6.54468298e-01 1.93094456e+00
      8.46344680e-02 1.25548569e-02 4.43289988e-02 -9.01737571e-01
      -4.18674201e-02 -1.18611529e-01 -4.30262685e-02 -8.84635031e-01
      -1.04542337e-01 -6.82949368e-03 -1.27930015e-01 -9.36712682e-01
      -2.58555319e-02 -1.51991874e-01 -7.22003654e-02 -8.85322750e-01
      -1.06004648e-01 -1.89877495e-01 -1.20920718e-01 -8.75093460e-01
      -1.91787690e-01 -3.27735282e-02 -1.97369933e-01 -9.53507483e-01
      -5.06459065e-02 -1.20117426e-01 -8.31853375e-02 -9.02001560e-01
      -7.41646364e-02 -1.81755766e-01 -1.17085487e-01 -8.72007608e-01</_>
    <_>
      -4.20844048e-01 -1.05444109e+00 -3.49902928e-01 2.44694257e+00
      -1.12841308e+00 -1.45873797e+00 -1.21197927e+00 1.05973458e+00
      5.37899733e-01 -8.25284421e-02 5.81952214e-01 2.82123971e+00
      -6.11381948e-01 -1.07959461e+00 -6.58568501e-01 2.16600800e+00
      -8.80101502e-01 -1.39728856e+00 -1.09448040e+00 1.33404529e+00
      1.09354377e+00 5.23560464e-01 1.09491444e+00 2.96583652e+00
      -5.14909141e-02 -5.45074046e-01 -1.18387267e-01 2.54606438e+00
      -4.83741313e-01 -1.13244915e+00 -7.26674139e-01 2.03906226e+00
      2.67671227e-01 5.14588617e-02 1.88873440e-01 -7.67336965e-01
      7.09711341e-03 -7.07762688e-02 3.66184115e-03 -7.42568374e-01
      1.21539012e-01 3.00963260e-02 -1.02029182e-02 -7.96768785e-01
      1.04828991e-01 -2.25400060e-01 -4.33691517e-02 -7.59064555e-01
      -7.40146413e-02 -2.05564752e-01 -1.18140809e-01 -7.44363546e-01
      4.39552180e-02 2.64389105e-02 -8.94995704e-02 -8.10082614e-01
      1.36897966e-01 -2.38735333e-01 -6.57900646e-02 -7.72144258e-01
      2.29614265e-02 -3.05180967e-01 -1.40938029e-01 -7.50263035e-01</_>
    <_>
      -2.21239984e-01 -8.11473668e-01 -4.06303376e-01 2.36886287e+00
      -1.23493958e+00 -1.50808275e+00 -1.40887880e+00 9.65273082e-01
      8.13203454e-01 2.92413980e-01 6.60806298e-01 2.74577451e+00
      -4.98430550e-01 -8.92158329e-01 -7.09644079e-01 2.08581042e+00
      -1.02930582e+00 -1.34077489e+00 -1.19796216e+00 1.24354184e+00
      1.35283649e+00 9.17908013e-01 1.22938395e+00 2.89144921e+00
      1.38757929e-01 -2.51955330e-01 -5.40676266e-02 2.47070694e+00
      -5.37674189e-01 -8.99889886e-01 -7.00837255e-01 1.95895410e+00
      1.40870243e-01 4.64641303e-02 9.18010771e-02 -8.61355245e-01
      -3.02375574e-02 -8.96560177e-02 -3.25631760e-02 -8.41975510e-01
      -7.10663050e-02 -1.82194542e-02 -1.06898159e-01 -8.97140920e-01
      3.84173170e-03 -1.33749247e-01 -4.32677381e-02 -8.43667209e-01
      -9.38564241e-02 -1.74117520e-01 -1.07896917e-01 -8.31721663e-01
      -1.69806466e-01 -7.31285289e-02 -2.02522561e-01 -9.13890839e-01
      -2.50272527e-02 -1.08277917e-01 -5.80139458e-02 -8.60564709e-01
      -3.55622955e-02 -1.61508232e-01 -1.00826368e-01 -8.28523755e-01</_>
    <_>
      -4.89435159e-02 -8.49392831e-01 -4.26272601e-01 2.30625987e+00
      -9.82012749e-01 -1.62715805e+00 -1.57524192e+00 9.28361773e-01
      9.78278518e-01 2.49001652e-01 6.57001555e-01 2.67892098e+00
      -1.53923482e-01 -9.97958302e-01 -8.21420431e-01 2.01816916e+00
      -6.61679983e-01 -1.51813400e+00 -1.46496069e+00 1.19145632e+00
      1.49318624e+00 8.70171547e-01 1.21667624e+00 2.82327437e+00
      4.71612185e-01 -3.43402773e-01 -1.38586387e-01 2.39436626e+00
      -1.05444312e-01 -1.07592642e+00 -9.55500245e-01 1.88379943e+00
      2.25072280e-01 -3.83559056e-02 4.37761890e-03 -8.32456589e-01
      -2.17166939e-03 -1.05932437e-01 -1.56195275e-02 -7.95847356e-01
      4.47129682e-02 -9.43193957e-02 -1.89668968e-01 -8.64679217e-01
      1.21457785e-01 -2.40765050e-01 -1.30801708e-01 -8.06873858e-01
      -4.82371449e-02 -2.17980444e-01 -1.10642321e-01 -7.84118056e-01
      -3.90127301e-02 -1.07539698e-01 -2.39378870e-01 -8.79057288e-01
      1.33129418e-01 -2.41843402e-01 -1.70620665e-01 -8.19909215e-01
      7.76783302e-02 -2.95991331e-01 -1.66857943e-01 -7.82324851e-01</_>
    <_>
      -2.58003086e-01 -8.94713998e-01 -4.65931147e-01 2.40940857e+00
      -1.15363753e+00 -1.48367310e+00 -1.36366868e+00 1.00880575e+00
      7.37288296e-01 1.32460967e-01 5.30103505e-01 2.78525877e+00
      -4.84329998e-01 -9.34823334e-01 -7.09318399e-01 2.12618685e+00
      -9.33587968e-01 -1.35372639e+00 -1.21855485e+00 1.28607559e+00
      1.27672338e+00 7.35677481e-01 1.08238661e+00 2.93034482e+00
      1.19825654e-01 -3.39507431e-01 -9.47922692e-02 2.50851130e+00
      -4.71122175e-01 -9.65555847e-01 -7.76754856e-01 1.99769855e+00
      1.85016111e-01 6.72411844e-02 1.39552012e-01 -8.46507192e-01
      -3.71243395e-02 -8.51797163e-02 -3.44438441e-02 -8.34840834e-01
      2.04928350e-02 5.29260412e-02 1.32312803e-02 -8.73439610e-01
      2.56263725e-02 -1.60559773e-01 -7.70930871e-02 -8.36133420e-01
      -1.22257136e-01 -1.94761723e-01 -1.42158732e-01 -8.27094793e-01
      -6.65527657e-02 4.81489375e-02 -4.01922278e-02 -8.85526180e-01
      2.96599418e-02 -1.30782798e-01 -8.08043629e-02 -8.46501231e-01
      -3.79732363e-02 -2.15340227e-01 -1.49232075e-01 -8.22450340e-01</_>
    <_>
      -4.09189820e-01 -1.05033672e+00 -4.25185472e-01 2.43856478e+00
      -1.13281107e+00 -1.48333430e+00 -1.27009749e+00 1.03836608e+00
      5.56529462e-01 -4.76034358e-02 5.34305334e-01 2.81772685e+00
      -5.73152781e-01 -1.06922042e+00 -7.12032259e-01 2.15302968e+00
      -8.85934949e-01 -1.42378056e+00 -1.14514685e+00 1.31379545e+00
      1.11645651e+00 5.78556478e-01 1.07820690e+00 2.96464181e+00
      4.00190428e-03 -5.11975586e-01 -1.37949422e-01 2.53791356e+00
      -4.66856837e-01 -1.12397170e+00 -7.60253549e-01 2.02455306e+00
      2.82382905e-01 3.43468748e-02 1.80723876e-01 -7.53192067e-01
      8.40004347e-03 -8.72191563e-02 6.14026096e-03 -7.08105087e-01
      1.41715676e-01 9.30757355e-03 3.35819880e-03 -7.97613084e-01
      1.15135700e-01 -2.59508222e-01 -3.28278877e-02 -7.31254101e-01
      -5.88039905e-02 -2.36072481e-01 -9.96837765e-02 -7.10279226e-01
      6.69031963e-02 1.24668777e-02 -6.29758909e-02 -8.17012489e-01
      1.40589491e-01 -2.51983494e-01 -4.96464223e-02 -7.57426023e-01
      4.39457521e-02 -3.26434076e-01 -1.11877978e-01 -7.21315682e-01</_>
    <_>
      -3.41950178e-01 -8.45461071e-01 -3.15751761e-01 2.40308189e+00
      -1.28123140e+00 -1.52272511e+00 -1.33066964e+00 9.86633956e-01
      6.41620338e-01 1.81961775e-01 6.60050631e-01 2.78256369e+00
      -6.01570785e-01 -9.10506308e-01 -6.42767727e-01 2.11460686e+00
      -1.05237997e+00 -1.36938393e+00 -1.12874150e+00 1.26456785e+00
      1.16511798e+00 7.68087149e-01 1.18533111e+00 2.92854333e+00
      -1.57945491e-02 -3.16653401e-01 -3.42513248e-02 2.49985528e+00
      -5.96926332e-01 -9.65705812e-01 -6.47070110e-01 1.98123193e+00
      1.71371028e-01 4.07550111e-02 1.10342771e-01 -8.48711848e-01
      -1.49351722e-02 -1.02026016e-01 -1.38421152e-02 -8.30514431e-01
      2.70376168e-02 3.48446369e-02 -6.73331097e-02 -8.90501022e-01
      5.59606664e-02 -1.92930937e-01 -2.46820822e-02 -8.41080606e-01
      -7.16973543e-02 -2.04859719e-01 -9.51071978e-02 -8.31733108e-01
      -3.47799473e-02 3.61692533e-02 -1.13108844e-01 -9.09187376e-01
      8.41720775e-02 -1.55412883e-01 8.04148789e-04 -8.60686004e-01
      1.08730718e-02 -2.19946280e-01 -5.85158467e-02 -8.34451199e-01</_>
    <_>
      -3.30076218e-01 -1.04339349e+00 -4.29527640e-01 2.48670173e+00
      -1.07238328e+00 -1.36683035e+00 -1.33450341e+00 1.07183993e+00
      5.14628172e-01 -2.49628291e-01 4.35385108e-01 2.86930132e+00
      -5.86554646e-01 -1.03127193e+00 -8.98077250e-01 2.19629240e+00
      -8.38654280e-01 -1.21728647e+00 -1.16889322e+00 1.34687042e+00
      9.78630722e-01 2.37326354e-01 9.11447048e-01 3.01711369e+00
      -1.27146289e-01 -6.14598453e-01 -4.13001359e-01 2.58310843e+00
      -4.97751474e-01 -9.76021767e-01 -8.55921209e-01 2.06154180e+00
      3.17365825e-01 1.01325274e-01 1.56124294e-01 -7.54928052e-01
      1.51257934e-02 -3.66343595e-02 1.42092351e-02 -7.27403641e-01
      1.97605222e-01 9.18386132e-02 6.05015503e-03 -7.88881063e-01
      1.47865042e-01 -1.36272028e-01 -6.59616143e-02 -7.38290668e-01
      -7.20797405e-02 -1.66845798e-01 -1.20487779e-01 -7.21636951e-01
      1.31378427e-01 1.26659960e-01 -5.02492264e-02 -8.04482281e-01
      1.96506143e-01 -1.14119992e-01 -6.63420185e-02 -7.53228843e-01
      5.02199270e-02 -2.10994422e-01 -1.59075886e-01 -7.23025382e-01</_>
    <_>
      -2.83650577e-01 -9.47774649e-01 -4.07053441e-01 2.40382242e+00
      -1.09115314e+00 -1.51222801e+00 -1.33775318e+00 1.00972259e+00
      7.31156647e-01 7.52691180e-02 5.76363266e-01 2.77936292e+00
      -4.47333157e-01 -1.05645823e+00 -7.41440117e-01 2.11551070e+00
      -7.98467398e-01 -1.44069064e+00 -1.24039423e+00 1.27880919e+00
      1.29036033e+00 6.97115839e-01 1.12065876e+00 2.92430282e+00
      1.72830656e-01 -4.74685937e-01 -1.44472793e-01 2.49604130e+00
      -3.16573590e-01 -1.11416554e+00 -8.39688838e-01 1.98228276e+00
      2.49907866e-01 2.81365514e-02 1.51924625e-01 -8.01856816e-01
      -1.08988974e-02 -1.07207909e-01 -2.26725470e-02 -7.69008160e-01
      8.46020058e-02 -3.24678198e-02 -3.24684754e-02 -8.31960022e-01
      1.10676594e-01 -2.26264194e-01 -7.72907883e-02 -7.87609458e-01
      -7.22872242e-02 -2.05174699e-01 -1.19505368e-01 -7.67966151e-01
      -1.61220636e-02 -6.48278594e-02 -1.23671018e-01 -8.44437957e-01
      1.26923025e-01 -2.36697406e-01 -1.16081603e-01 -7.98722446e-01
      4.14117463e-02 -2.71907061e-01 -1.44129932e-01 -7.71972001e-01</_>
    <_>
      -2.95888662e-01 -9.89082038e-01 -4.07151759e-01 2.46111703e+00
      -1.13673151e+00 -1.41181624e+00 -1.34804296e+00 1.04370165e+00
      6.23363137e-01 -9.50299948e-02 5.20779252e-01 2.84201908e+00
      -5.15089512e-01 -9.74494874e-01 -8.11702192e-01 2.17249537e+00
      -9.02020037e-01 -1.27024937e+00 -1.17764568e+00 1.32200456e+00
      1.12481725e+00 4.56843525e-01 1.02168894e+00 2.98836756e+00
      2.86872238e-02 -4.83730733e-01 -2.71782964e-01 2.55824161e+00
      -4.75252122e-01 -9.68969941e-01 -8.02286446e-01 2.03876305e+00
      2.36024305e-01 9.13463086e-02 1.34847015e-01 -7.88744688e-01
      -6.03696657e-03 -6.73597157e-02 -1.91904940e-02 -7.67883480e-01
      9.75306183e-02 7.29380846e-02 -3.94975282e-02 -8.30726802e-01
      5.33815995e-02 -1.60222828e-01 -4.91442494e-02 -7.78145671e-01
      -1.02067828e-01 -1.97023436e-01 -1.25448048e-01 -7.68024147e-01
      3.34505104e-02 7.09587038e-02 -1.00604236e-01 -8.48250985e-01
      8.58423039e-02 -1.49585962e-01 -3.85690778e-02 -7.97192276e-01
      -8.27232655e-03 -2.20968321e-01 -1.10177092e-01 -7.69105613e-01</_>
    <_>
      -4.48138624e-01 -9.69166815e-01 -2.45744482e-01 2.40703726e+00
      -1.17295480e+00 -1.50097644e+00 -1.30837691e+00 1.00082445e+00
      5.02894700e-01 9.54286195e-03 7.40910470e-01 2.78879738e+00
      -6.74571216e-01 -1.09219980e+00 -6.83884025e-01 2.11464643e+00
      -8.95366549e-01 -1.41404605e+00 -1.19949925e+00 1.27130997e+00
      1.01254857e+00 5.84758639e-01 1.24456322e+00 2.93697095e+00
      -1.61342129e-01 -5.76889932e-01 -1.11955553e-01 2.49973774e+00
      -5.20382702e-01 -1.13679087e+00 -8.08043063e-01 1.97974539e+00
      3.13953698e-01 6.94368258e-02 1.54574543e-01 -7.77746856e-01
      1.57094724e-03 -9.22570899e-02 1.27889644e-02 -7.37620652e-01
      2.19401911e-01 4.60910536e-02 -8.74148011e-02 -8.18327308e-01
      2.00915650e-01 -1.98807493e-01 -4.42397371e-02 -7.49949455e-01
      -5.73950522e-02 -2.13222787e-01 -1.04699403e-01 -7.23555267e-01
      1.73179999e-01 4.61752862e-02 -1.77498087e-01 -8.36440265e-01
      2.86347955e-01 -1.81682840e-01 -8.42905641e-02 -7.67299116e-01
      9.59078744e-02 -2.85394877e-01 -1.35385975e-01 -7.21075952e-01</_>
    <_>
      -8.31996873e-02 -8.82059216e-01 -3.94808322e-01 2.31004405e+00
      -1.06912446e+00 -1.74802458e+00 -1.47081256e+00 9.37494278e-01
      9.14532304e-01 2.71336734e-01 6.64684594e-01 2.68124628e+00
      -2.62614548e-01 -1.06268036e+00 -7.21297681e-01 2.02609515e+00
      -7.98869789e-01 -1.63268268e+00 -1.31026173e+00 1.20436108e+00
      1.42079699e+00 9.18601811e-01 1.22907424e+00 2.82597876e+00
      3.57320219e-01 -3.62279803e-01 -4.80921306e-02 2.40336418e+00
      -2.67237127e-01 -1.16277444e+00 -8.01402092e-01 1.89855123e+00
      2.02706620e-01 -1.03453644e-01 5.54581396e-02 -8.00659895e-01
      1.33581161e-02 -1.28145278e-01 6.63567986e-03 -7.49269247e-01
      4.89324257e-02 -9.95463952e-02 -1.14762872e-01 -8.44196320e-01
      9.96219441e-02 -3.10072452e-01 -5.74834980e-02 -7.73411095e-01
      -2.76124775e-02 -2.50365466e-01 -7.18757808e-02 -7.46506393e-01
      -1.76093914e-02 -9.30790678e-02 -1.73868477e-01 -8.64813507e-01
      1.02484547e-01 -2.74769604e-01 -7.27525502e-02 -8.00694108e-01
      6.20396174e-02 -3.50617409e-01 -8.95039886e-02 -7.61428714e-01</_>
    <_>
      -2.09570915e-01 -9.77608144e-01 -4.19721633e-01 2.39590335e+00
      -1.06094897e+00 -1.55143499e+00 -1.38356972e+00 9.97436881e-01
      8.06976616e-01 5.56183048e-02 5.51690936e-01 2.77155209e+00
      -3.67897719e-01 -1.07061172e+00 -7.74567306e-01 2.10391116e+00
      -7.39785016e-01 -1.48210633e+00 -1.28656840e+00 1.26573467e+00
      1.34759676e+00 6.87020063e-01 1.08798099e+00 2.91698194e+00
      2.48652905e-01 -4.64766294e-01 -1.70455649e-01 2.48352170e+00
      -2.40832865e-01 -1.12668049e+00 -8.64481330e-01 1.96692348e+00
      2.31972128e-01 2.34224908e-02 1.27222016e-01 -7.92314649e-01
      -6.06669905e-03 -9.65495706e-02 -2.13140119e-02 -7.40079165e-01
      5.76903597e-02 -4.44498518e-03 -4.41164300e-02 -8.24209213e-01
      9.57778469e-02 -2.47807413e-01 -1.03680395e-01 -7.63167381e-01
      -8.49020407e-02 -2.20214680e-01 -1.44435510e-01 -7.26632953e-01
      -1.92214213e-02 -7.32260011e-03 -1.04548439e-01 -8.37201059e-01
      1.19577624e-01 -2.46517763e-01 -1.31029159e-01 -7.77397633e-01
      3.38426605e-02 -3.02083373e-01 -2.03609854e-01 -7.36533403e-01</_>
    <_>
      -1.57293484e-01 -8.24223459e-01 -3.69931906e-01 2.34566069e+00
      -1.12094808e+00 -1.61232817e+00 -1.48159504e+00 9.56099033e-01
      8.30501199e-01 2.51683056e-01 6.83754146e-01 2.71890879e+00
      -3.36780280e-01 -9.69577849e-01 -7.21050978e-01 2.06241226e+00
      -8.41461480e-01 -1.45941865e+00 -1.31722474e+00 1.22842622e+00
      1.34376228e+00 8.63998652e-01 1.22708714e+00 2.86272502e+00
      2.93452829e-01 -3.15955967e-01 -5.92448488e-02 2.44120121e+00
      -2.94556886e-01 -1.01654840e+00 -8.09363067e-01 1.93246293e+00
      1.93275303e-01 -2.02682223e-02 4.35565226e-02 -8.59173775e-01
      -5.76289278e-03 -1.07692465e-01 -1.65176075e-02 -8.32655609e-01
      7.07154199e-02 -2.98970640e-02 -1.17908768e-01 -8.92145514e-01
      6.38680086e-02 -2.31591105e-01 -7.58554116e-02 -8.45577478e-01
      -7.37632886e-02 -2.09936857e-01 -9.57258716e-02 -8.29676330e-01
      1.95201151e-02 -3.32237370e-02 -1.61451265e-01 -9.05804574e-01
      5.95323220e-02 -2.35880092e-01 -1.00244209e-01 -8.58358860e-01
      -1.98687986e-02 -2.78317392e-01 -1.18617930e-01 -8.29184592e-01</_>
    <_>
      -1.66999117e-01 -8.03259194e-01 -2.82509655e-01 2.29980421e+00
      -1.17383718e+00 -1.64462090e+00 -1.45079160e+00 9.16813910e-01
      8.88043880e-01 3.76084507e-01 8.29163134e-01 2.67028117e+00
      -3.92770946e-01 -9.42355454e-01 -6.03648484e-01 2.01349425e+00
      -9.17981386e-01 -1.48869336e+00 -1.26589489e+00 1.18363845e+00
      1.42834699e+00 1.02779412e+00 1.38994265e+00 2.81348157e+00
      2.65316933e-01 -2.27763280e-01 1.10253401e-01 2.38984609e+00
      -3.79930675e-01 -9.95456278e-01 -6.96627259e-01 1.88108099e+00
      1.80789784e-01 -6.02274090e-02 3.85225266e-02 -8.79897237e-01
      -2.65253801e-03 -1.31623656e-01 2.99977348e-03 -8.60911727e-01
      -2.22356357e-02 -1.36608422e-01 -2.06395671e-01 -9.09825504e-01
      1.10011123e-01 -2.27451056e-01 -6.73026219e-02 -8.67264330e-01
      -2.85340659e-02 -2.09404483e-01 -6.30809143e-02 -8.53289843e-01
      -1.26288846e-01 -1.88461944e-01 -2.94864953e-01 -9.21895921e-01
      9.51128528e-02 -2.59295642e-01 -1.47337496e-01 -8.76317978e-01
      6.17390722e-02 -2.58227646e-01 -9.19289514e-02 -8.48097086e-01</_>
    <_>
      -4.62647453e-02 -8.94221485e-01 -4.62676078e-01 2.32089782e+00
      -9.21417832e-01 -1.63150334e+00 -1.58389544e+00 9.46192205e-01
      9.15729463e-01 1.76801786e-01 6.00688636e-01 2.69321012e+00
      -1.11020617e-01 -1.01462793e+00 -8.54250252e-01 2.03795671e+00
      -6.08644783e-01 -1.52762389e+00 -1.44668639e+00 1.21354175e+00
      1.41440773e+00 7.85518050e-01 1.15228593e+00 2.83818555e+00
      4.96830970e-01 -3.79091948e-01 -1.83449432e-01 2.41636777e+00
      -5.52118607e-02 -1.10835159e+00 -9.50308919e-01 1.91059077e+00
      2.80704588e-01 -4.56084721e-02 -1.25325518e-02 -8.23833466e-01
      -7.84845930e-03 -7.88184181e-02 -1.21978223e-02 -7.86743581e-01
      1.43723130e-01 -5.64845055e-02 -1.88820064e-01 -8.57536316e-01
      1.13855816e-01 -2.52336830e-01 -1.54959917e-01 -8.06471288e-01
      -6.36359826e-02 -2.03845873e-01 -1.22335002e-01 -7.85806596e-01
      7.18084127e-02 -4.20409031e-02 -2.15632692e-01 -8.72805417e-01
      1.13857202e-01 -2.56628007e-01 -1.76942214e-01 -8.21738183e-01
      4.45188619e-02 -2.88935602e-01 -1.81769684e-01 -7.92118967e-01</_>
    <_>
      -1.45879865e-01 -8.11445117e-01 -4.00295526e-01 2.34819794e+00
      -1.15126193e+00 -1.58505213e+00 -1.46754730e+00 9.57200229e-01
      8.77624691e-01 2.88849324e-01 6.71619892e-01 2.72027612e+00
      -3.19954842e-01 -9.08106327e-01 -7.30066299e-01 2.06484747e+00
      -8.51263881e-01 -1.42129970e+00 -1.33231509e+00 1.22973311e+00
      1.40156209e+00 9.08931017e-01 1.23783875e+00 2.86436844e+00
      3.34943414e-01 -2.29723558e-01 -4.47425395e-02 2.44528747e+00
      -2.74762958e-01 -9.26154256e-01 -8.12780321e-01 1.93695307e+00
      1.34095296e-01 1.51528092e-02 3.28048579e-02 -8.65818918e-01
      -5.30973189e-02 -8.62636194e-02 -6.00272454e-02 -8.49668503e-01
      -1.35636879e-02 8.37674364e-03 -1.58197522e-01 -8.94991696e-01
      -2.23555490e-02 -1.92806602e-01 -1.04265079e-01 -8.46464574e-01
      -1.22256197e-01 -1.66379780e-01 -1.36379078e-01 -8.33193123e-01
      -8.40094164e-02 -1.83218601e-03 -2.26593688e-01 -9.06635046e-01
      -3.19507122e-02 -1.72867849e-01 -1.18647568e-01 -8.56093347e-01
      -9.36166421e-02 -2.07228824e-01 -1.37266636e-01 -8.23541045e-01</_>
    <_>
      -7.41968006e-02 -7.42360175e-01 -3.69844079e-01 2.30307412e+00
      -1.18486392e+00 -1.62046027e+00 -1.48376715e+00 9.17715251e-01
      9.63140547e-01 3.93503487e-01 7.33760715e-01 2.67555928e+00
      -3.11624229e-01 -8.93648684e-01 -6.68839633e-01 2.02390456e+00
      -9.19070780e-01 -1.48440957e+00 -1.29078162e+00 1.19271874e+00
      1.48322070e+00 1.01114619e+00 1.30000174e+00 2.81928039e+00
      3.56262028e-01 -2.08685011e-01 2.13882253e-02 2.40366721e+00
      -3.42041045e-01 -9.91536796e-01 -7.51121700e-01 1.89837098e+00
      9.21838507e-02 1.85909367e-03 4.76101749e-02 -8.74270320e-01
      -3.65824141e-02 -1.13639206e-01 -3.49092372e-02 -8.52311432e-01
      -1.10659957e-01 -6.51811361e-02 -1.59550577e-01 -9.16677177e-01
      -4.74505825e-03 -1.57293603e-01 -5.78511991e-02 -8.59162807e-01
      -9.16417688e-02 -1.91735506e-01 -9.76204723e-02 -8.47213745e-01
      -2.04511210e-01 -1.15165129e-01 -2.57107913e-01 -9.35124695e-01
      -4.26619276e-02 -1.40720844e-01 -1.06031463e-01 -8.79927337e-01
      -4.02538441e-02 -1.68344021e-01 -9.38540027e-02 -8.46367538e-01</_>
    <_>
      -2.33400941e-01 -8.31974268e-01 -3.77612352e-01 2.35067964e+00
      -1.22253489e+00 -1.58881974e+00 -1.38115633e+00 9.51545179e-01
      8.09595942e-01 2.90819287e-01 6.92126453e-01 2.72515011e+00
      -4.13185686e-01 -9.02726233e-01 -6.01446748e-01 2.06655431e+00
      -9.72221017e-01 -1.43398702e+00 -1.20387518e+00 1.22667432e+00
      1.35770535e+00 9.34576333e-01 1.26506472e+00 2.86958718e+00
      2.52442926e-01 -2.18242079e-01 8.20577070e-02 2.44824958e+00
      -4.20476675e-01 -9.43938792e-01 -6.58681631e-01 1.93729889e+00
      1.39892057e-01 2.33089505e-03 1.00760534e-01 -8.91438365e-01
      -3.58901285e-02 -1.36466786e-01 -2.97090020e-02 -8.77662003e-01
      -3.24777067e-02 -1.43960062e-02 -6.44432530e-02 -9.17972147e-01
      -7.76437204e-03 -2.14742765e-01 -3.59495319e-02 -8.73018563e-01
      -9.61328298e-02 -2.21247450e-01 -8.94738436e-02 -8.62246692e-01
      -1.25651658e-01 -6.91960528e-02 -1.59123406e-01 -9.30013657e-01
      -3.98359448e-02 -1.92099884e-01 -6.63717166e-02 -8.82757485e-01
      -5.38395122e-02 -2.49789089e-01 -7.55386427e-02 -8.53583574e-01</_>
    <_>
      -1.25210777e-01 -7.76015341e-01 -3.94111574e-01 2.31408668e+00
      -1.11819565e+00 -1.61045694e+00 -1.50969279e+00 9.29804146e-01
      9.22319472e-01 3.45522523e-01 7.01124430e-01 2.68683028e+00
      -2.82408714e-01 -9.28090036e-01 -7.21687675e-01 2.03089070e+00
      -8.19767594e-01 -1.47460401e+00 -1.35522568e+00 1.20001447e+00
      1.45953500e+00 9.71425235e-01 1.27159703e+00 2.83015323e+00
      3.75824630e-01 -2.41541743e-01 -2.44562868e-02 2.40804720e+00
      -2.54086763e-01 -9.92364526e-01 -8.08532655e-01 1.89980161e+00
      1.74247578e-01 -1.95651613e-02 3.65728848e-02 -8.67989302e-01
      -2.41810605e-02 -1.16254285e-01 -2.28532385e-02 -8.49512935e-01
      -6.55496866e-03 -9.17357281e-02 -1.67187989e-01 -9.03801978e-01
      7.18886331e-02 -1.88302264e-01 -8.38193372e-02 -8.59258056e-01
      -7.69608170e-02 -1.94710672e-01 -9.83076245e-02 -8.48152816e-01
      -1.15012690e-01 -1.32105693e-01 -2.56441712e-01 -9.17976201e-01
      6.14788495e-02 -1.95236593e-01 -1.42876118e-01 -8.71646523e-01
      1.25542218e-02 -2.31683195e-01 -1.40535191e-01 -8.44607592e-01</_>
    <_>
      -1.69674784e-01 -7.96744049e-01 -3.36015701e-01 2.34044766e+00
      -1.15237617e+00 -1.56920457e+00 -1.46677649e+00 9.55615461e-01
      8.59501719e-01 3.02840561e-01 7.39758313e-01 2.71297717e+00
      -3.52224410e-01 -9.24529433e-01 -7.18506753e-01 2.06292391e+00
      -8.69170964e-01 -1.41354525e+00 -1.31014919e+00 1.23181307e+00
      1.39875746e+00 9.20513988e-01 1.29436970e+00 2.85683155e+00
      3.01521361e-01 -2.66304702e-01 -5.00940457e-02 2.44228005e+00
      -3.20878536e-01 -9.60194290e-01 -8.14042151e-01 1.93770194e+00
      1.59138709e-01 2.84504052e-03 2.61256639e-02 -8.53465319e-01
      -2.95024496e-02 -9.76792276e-02 -3.94708253e-02 -8.39420557e-01
      -1.66213531e-02 -5.87694421e-02 -2.03526542e-01 -8.85508358e-01
      3.02594677e-02 -1.69103205e-01 -7.62707368e-02 -8.38027000e-01
      -8.86329561e-02 -1.93663567e-01 -1.24791034e-01 -8.28218281e-01
      -1.24706022e-01 -1.02236062e-01 -2.99053103e-01 -8.99313271e-01
      -4.01185034e-03 -1.69639587e-01 -1.09880112e-01 -8.48749876e-01
      -2.85206847e-02 -2.09057674e-01 -1.28623992e-01 -8.19328249e-01</_>
    <_>
      -3.96010846e-01 -9.79129612e-01 -3.81610543e-01 2.43577337e+00
      -1.18919396e+00 -1.45664084e+00 -1.25485122e+00 1.03862083e+00
      5.96061587e-01 1.29056927e-02 5.84501863e-01 2.81093097e+00
      -5.92143834e-01 -1.00775743e+00 -6.53573692e-01 2.15201211e+00
      -9.42233860e-01 -1.37468100e+00 -1.12726355e+00 1.31381321e+00
      1.14422667e+00 6.21428907e-01 1.11253107e+00 2.95571542e+00
      -2.41886266e-03 -4.51180905e-01 -6.62133098e-02 2.53306055e+00
      -5.10890663e-01 -1.04661882e+00 -7.06574023e-01 2.02246141e+00
      2.23535553e-01 6.27999976e-02 1.82457715e-01 -8.05163443e-01
      -2.72713210e-02 -8.08682367e-02 -2.70216987e-02 -7.84591675e-01
      9.50502977e-02 6.49033859e-02 2.12898068e-02 -8.35257649e-01
      3.20994630e-02 -1.91891059e-01 -5.25924526e-02 -7.98095286e-01
      -1.23563468e-01 -2.03361422e-01 -1.40363500e-01 -7.86947012e-01
      4.08978313e-02 6.79628104e-02 -3.55676450e-02 -8.47152054e-01
      5.74679822e-02 -1.89374611e-01 -6.33856505e-02 -8.08627784e-01
      -4.34503816e-02 -2.69768685e-01 -1.42819166e-01 -7.86387503e-01</_>
    <_>
      -3.84393871e-01 -9.84524012e-01 -4.94515628e-01 2.51187563e+00
      -1.13216138e+00 -1.34940577e+00 -1.24014080e+00 1.09524786e+00
      4.46873873e-01 -1.80934921e-01 3.32196623e-01 2.89230800e+00
      -6.60091698e-01 -9.77323949e-01 -7.83417940e-01 2.22558212e+00
      -8.90051961e-01 -1.23561954e+00 -1.07641017e+00 1.37521541e+00
      9.24610972e-01 3.58285010e-01 8.29746604e-01 3.03889847e+00
      -1.76336184e-01 -5.26432514e-01 -2.94506520e-01 2.61222506e+00
      -5.26997924e-01 -9.93309855e-01 -7.55810976e-01 2.09479094e+00
      2.50994354e-01 1.23398960e-01 2.36240461e-01 -7.61131585e-01
      3.93459760e-03 -6.60454333e-02 -3.50495288e-03 -7.48287439e-01
      1.05268173e-01 1.07228220e-01 1.10220946e-01 -7.95667887e-01
      4.33578268e-02 -1.65172368e-01 -1.81281809e-02 -7.55520105e-01
      -1.09856799e-01 -2.15038195e-01 -1.33400366e-01 -7.47782111e-01
      6.09591492e-02 1.17968895e-01 6.23703450e-02 -8.10276449e-01
      7.69587904e-02 -1.31061777e-01 3.92768811e-03 -7.68187404e-01
      -4.67883423e-02 -2.51727253e-01 -1.05313450e-01 -7.45409250e-01</_>
    <_>
      -1.63042501e-01 -9.58950043e-01 -4.70234156e-01 2.47291732e+00
      -1.06178570e+00 -1.42917669e+00 -1.35709405e+00 1.07425380e+00
      6.79016650e-01 -1.06704287e-01 4.04280424e-01 2.85001850e+00
      -5.16695499e-01 -9.72108662e-01 -8.25220644e-01 2.19312668e+00
      -8.54358792e-01 -1.25191474e+00 -1.17582357e+00 1.35379159e+00
      1.16117775e+00 4.25040334e-01 8.91095161e-01 2.99546003e+00
      -4.76309890e-03 -4.78346854e-01 -3.18738103e-01 2.57608223e+00
      -4.61520106e-01 -9.33074117e-01 -8.36779535e-01 2.06664968e+00
      2.24514186e-01 9.68934894e-02 1.49733976e-01 -7.74510741e-01
      1.84920721e-03 -5.50623797e-02 -1.77213387e-03 -7.63843179e-01
      3.17060351e-02 1.21202178e-01 5.02580404e-02 -8.09749424e-01
      1.34806773e-02 -1.60549000e-01 -4.60407920e-02 -7.77490735e-01
      -1.24038167e-01 -1.86042607e-01 -1.37260199e-01 -7.73202538e-01
      -9.25539061e-02 9.83707532e-02 -2.00867895e-02 -8.24084997e-01
      -3.84326875e-02 -1.29417345e-01 -3.29548083e-02 -7.91385174e-01
      -8.87924880e-02 -2.23586515e-01 -1.28395751e-01 -7.75335312e-01</_>
    <_>
      -2.60389090e-01 -7.63243318e-01 -3.05153996e-01 2.34687948e+00
      -1.32751703e+00 -1.57457614e+00 -1.31981719e+00 9.46284533e-01
      7.84001470e-01 3.48302513e-01 7.57353663e-01 2.72155380e+00
      -5.38689256e-01 -8.92708719e-01 -5.24397075e-01 2.06275463e+00
      -1.10652864e+00 -1.42244911e+00 -1.10861814e+00 1.22163200e+00
      1.31902099e+00 9.71470416e-01 1.31753361e+00 2.86577392e+00
      1.18046917e-01 -2.35363156e-01 1.36412725e-01 2.44454455e+00
      -5.71536005e-01 -9.55776751e-01 -5.79401910e-01 1.93272638e+00
      1.13824166e-01 3.15435673e-03 1.16900250e-01 -8.86584878e-01
      -3.41225564e-02 -1.38517037e-01 -2.87593417e-02 -8.70569825e-01
      -5.99916726e-02 -1.92004852e-02 -8.18339735e-02 -9.18761194e-01
      -1.59813613e-02 -1.73368856e-01 -3.18994895e-02 -8.70572805e-01
      -1.08902439e-01 -2.30090171e-01 -1.00024611e-01 -8.59435558e-01
      -1.25354484e-01 -5.39213233e-02 -1.82924479e-01 -9.32765305e-01
      -2.49909498e-02 -1.15591317e-01 -6.03999905e-02 -8.83448601e-01
      -8.10372904e-02 -2.24081770e-01 -7.56634101e-02 -8.53209674e-01</_>
    <_>
      -2.90838033e-01 -8.55044603e-01 -4.59469169e-01 2.40845037e+00
      -1.23343205e+00 -1.49218202e+00 -1.35686505e+00 9.91738677e-01
      6.85506165e-01 1.66443959e-01 5.58319271e-01 2.78912425e+00
      -5.15163004e-01 -9.14812267e-01 -6.73159957e-01 2.12348557e+00
      -9.65406537e-01 -1.35674179e+00 -1.19985497e+00 1.27310193e+00
      1.21058106e+00 7.63093948e-01 1.11064398e+00 2.93571997e+00
      1.07399397e-01 -3.14983279e-01 -4.90087494e-02 2.51061153e+00
      -4.34767127e-01 -9.48546648e-01 -7.43592262e-01 1.99399471e+00
      1.78379729e-01 5.78736067e-02 1.30405203e-01 -8.59110951e-01
      -3.68799046e-02 -9.77075994e-02 -3.54742557e-02 -8.44336033e-01
      6.39027581e-02 4.95941192e-02 -1.36747267e-02 -8.92682076e-01
      -3.88743379e-03 -1.61689952e-01 -5.95483370e-02 -8.45930338e-01
      -1.15979180e-01 -2.05417946e-01 -1.22148931e-01 -8.36022854e-01
      3.21286619e-02 5.45716584e-02 -6.80417046e-02 -9.07766044e-01
      7.08360318e-03 -1.17989622e-01 -6.91953301e-02 -8.59601259e-01
      -1.07008733e-01 -2.07188591e-01 -9.94863585e-02 -8.31518114e-01</_>
    <_>
      -3.35512578e-01 -1.02959359e+00 -4.27056670e-01 2.51140308e+00
      -1.01072598e+00 -1.34329212e+00 -1.30835330e+00 1.10704195e+00
      4.13445503e-01 -2.64561862e-01 3.79594952e-01 2.89190745e+00
      -6.26323521e-01 -1.01390362e+00 -9.30719972e-01 2.22625422e+00
      -7.76268005e-01 -1.21404636e+00 -1.13322079e+00 1.38378239e+00
      8.50023568e-01 2.24561736e-01 8.28123510e-01 3.03897476e+00
      -2.09820315e-01 -6.20798767e-01 -5.09964585e-01 2.61135340e+00
      -4.52808768e-01 -1.00946403e+00 -8.90205026e-01 2.09638786e+00
      3.36055070e-01 9.47248414e-02 1.65200979e-01 -7.22219825e-01
      3.13675627e-02 -1.43754426e-02 1.25685092e-02 -6.96756124e-01
      1.84187308e-01 9.19483900e-02 3.19640860e-02 -7.57941246e-01
      1.40469298e-01 -1.61100283e-01 -4.06377129e-02 -7.18650877e-01
      -6.80594593e-02 -1.72190920e-01 -1.31407052e-01 -7.03442156e-01
      1.26400948e-01 1.04534991e-01 -2.52804682e-02 -7.72467315e-01
      1.86034814e-01 -1.52471796e-01 -2.10107174e-02 -7.32631564e-01
      3.02747376e-02 -2.48323947e-01 -1.41334191e-01 -7.11644828e-01</_>
    <_>
      -1.86533913e-01 -8.69575679e-01 -4.20781016e-01 2.45454860e+00
      -1.18075824e+00 -1.46005476e+00 -1.31280863e+00 1.04729831e+00
      7.23476171e-01 5.77525236e-02 4.70545679e-01 2.83208013e+00
      -5.66093802e-01 -9.40148175e-01 -7.53624320e-01 2.17066741e+00
      -1.02972782e+00 -1.28508222e+00 -1.06584299e+00 1.32559323e+00
      1.19641232e+00 5.90463758e-01 9.47207332e-01 2.97734571e+00
      -4.88795489e-02 -4.11271513e-01 -2.29745120e-01 2.55485249e+00
      -6.45963848e-01 -9.39404428e-01 -6.61167920e-01 2.04111314e+00
      1.55642197e-01 7.93817118e-02 1.67197689e-01 -8.09208989e-01
      -7.78532308e-03 -8.33315775e-02 -1.18753472e-02 -7.96720922e-01
      -3.00643537e-02 7.71237984e-02 6.50028065e-02 -8.43944609e-01
      -2.86278687e-02 -1.52311668e-01 -7.05255009e-03 -8.06616306e-01
      -1.22438774e-01 -1.98028579e-01 -1.24043442e-01 -7.97520757e-01
      -1.26059294e-01 5.07378168e-02 1.58278886e-02 -8.58883798e-01
      -6.32999018e-02 -1.24246992e-01 1.59017723e-02 -8.20919514e-01
      -7.73496255e-02 -2.04169154e-01 -1.16430357e-01 -7.97778845e-01</_>
    <_>
      -2.56581455e-01 -6.84887409e-01 -3.14421326e-01 2.35526967e+00
      -1.31193542e+00 -1.51735473e+00 -1.42532074e+00 9.43565965e-01
      7.82599807e-01 3.85307878e-01 7.40015149e-01 2.73398590e+00
      -4.66726750e-01 -7.72620976e-01 -6.27097309e-01 2.07180595e+00
      -1.04819763e+00 -1.31906450e+00 -1.23349047e+00 1.22440767e+00
      1.32004118e+00 9.95326877e-01 1.29370952e+00 2.87989616e+00
      2.01745391e-01 -9.78580415e-02 5.14572263e-02 2.45774055e+00
      -4.66233104e-01 -8.06733310e-01 -6.86773419e-01 1.94355404e+00
      7.70857930e-02 6.20982610e-02 3.13785560e-02 -9.04953539e-01
      -8.36324915e-02 -9.89335552e-02 -7.76640475e-02 -8.87062490e-01
      -7.22695589e-02 3.81350517e-02 -1.10694714e-01 -9.36224937e-01
      -8.38794932e-02 -1.44130155e-01 -5.50352335e-02 -8.83699417e-01
      -1.63083643e-01 -1.75480261e-01 -1.51824340e-01 -8.71529043e-01
      -1.45854294e-01 -1.62597168e-02 -1.87090069e-01 -9.51489329e-01
      -1.16348915e-01 -1.47477761e-01 -5.45757264e-02 -8.98359895e-01
      -1.68234095e-01 -1.86052084e-01 -1.16589300e-01 -8.65401745e-01</_>
    <_>
      -3.09123963e-01 -9.69559908e-01 -3.78421396e-01 2.39963579e+00
      -1.10168636e+00 -1.58295965e+00 -1.42646790e+00 9.90462720e-01
      6.12823069e-01 3.36489901e-02 6.14430964e-01 2.77901793e+00
      -4.47905719e-01 -1.02303231e+00 -7.86433756e-01 2.10951519e+00
      -8.63954008e-01 -1.42372131e+00 -1.25317740e+00 1.26367319e+00
      1.09340060e+00 6.02426529e-01 1.12499237e+00 2.92597461e+00
      8.77003819e-02 -4.52528805e-01 -1.95484042e-01 2.49510121e+00
      -4.26218003e-01 -1.03532577e+00 -8.11140656e-01 1.97632372e+00
      2.92592347e-01 -2.00049044e-03 7.44083449e-02 -8.30813587e-01
      8.46511684e-03 -7.33644664e-02 7.50211114e-03 -7.93537319e-01
      1.94096893e-01 3.37981768e-02 -1.41078085e-01 -8.62853587e-01
      1.65237889e-01 -2.19384775e-01 -5.96069135e-02 -8.07710409e-01
      -3.16455029e-02 -1.71182901e-01 -7.85968676e-02 -7.85493731e-01
      1.66805506e-01 1.09581620e-01 -1.64425448e-01 -8.77793610e-01
      2.40224019e-01 -1.53277710e-01 -3.42173874e-02 -8.23642790e-01
      1.26927286e-01 -2.50143528e-01 -9.00297388e-02 -7.90826797e-01</_>
    <_>
      -3.03927481e-01 -9.64763522e-01 -3.86127442e-01 2.41767621e+00
      -1.15332091e+00 -1.51340270e+00 -1.30242884e+00 1.01771307e+00
      6.84709430e-01 2.90632956e-02 5.91154158e-01 2.79394293e+00
      -5.50631881e-01 -1.06366062e+00 -6.61863148e-01 2.12890172e+00
      -8.96769464e-01 -1.39866412e+00 -1.17236888e+00 1.28851140e+00
      1.21596014e+00 6.14573061e-01 1.12053251e+00 2.93935061e+00
      3.90074849e-02 -5.16135812e-01 -6.46198466e-02 2.51066256e+00
      -4.64101225e-01 -1.09091043e+00 -7.51488864e-01 1.99548972e+00
      2.35433832e-01 1.53814619e-02 1.50745124e-01 -8.11030269e-01
      1.02830203e-02 -7.72863254e-02 1.55179007e-02 -7.86686599e-01
      7.90579617e-02 -1.77201033e-02 -2.53406949e-02 -8.36169362e-01
      1.25270471e-01 -2.07989633e-01 -6.24961555e-02 -7.88463473e-01
      -5.45309074e-02 -1.96278855e-01 -9.79770198e-02 -7.69934893e-01
      1.01163220e-02 -6.99389493e-03 -9.53607112e-02 -8.48025143e-01
      1.46468222e-01 -2.18676627e-01 -1.01463526e-01 -7.98434734e-01
      5.73923811e-02 -2.77970850e-01 -1.33865163e-01 -7.65035212e-01</_>
    <_>
      -2.39176750e-01 -7.85100758e-01 -4.01318818e-01 2.38340664e+00
      -1.23761356e+00 -1.47254491e+00 -1.35862815e+00 9.85519707e-01
      8.04064095e-01 2.79153436e-01 6.29719615e-01 2.75819159e+00
      -4.92033064e-01 -9.04530704e-01 -6.88347876e-01 2.10217619e+00
      -9.95783210e-01 -1.35092819e+00 -1.21481872e+00 1.26348090e+00
      1.34986794e+00 8.92898262e-01 1.18377960e+00 2.90297031e+00
      1.55969620e-01 -2.91366249e-01 -6.76618144e-02 2.48455191e+00
      -4.84645486e-01 -9.57335353e-01 -7.73955166e-01 1.97553194e+00
      1.13762133e-01 7.01954216e-02 1.10286132e-01 -8.48448157e-01
      -5.68774715e-02 -1.01677790e-01 -6.16218634e-02 -8.33900750e-01
      -6.71555400e-02 8.08004476e-03 -6.51498362e-02 -8.79711926e-01
      -3.50838155e-02 -1.20870039e-01 -7.25407675e-02 -8.33493233e-01
      -1.45278007e-01 -1.82419643e-01 -1.51348084e-01 -8.23772311e-01
      -1.44933909e-01 -2.32761744e-02 -1.38507649e-01 -8.94782424e-01
      -3.94226536e-02 -8.74838382e-02 -9.12630111e-02 -8.46281469e-01
      -1.07740924e-01 -1.48528114e-01 -1.18183255e-01 -8.18064034e-01</_>
    <_>
      -7.27021247e-02 -7.95734465e-01 -3.89255702e-01 2.30223036e+00
      -1.11354303e+00 -1.61730230e+00 -1.47760129e+00 9.28783059e-01
      9.72166777e-01 3.44655633e-01 7.00291097e-01 2.67113376e+00
      -2.57671893e-01 -9.28353548e-01 -6.82545781e-01 2.02492356e+00
      -8.36947918e-01 -1.48115635e+00 -1.32299209e+00 1.20077157e+00
      1.50001276e+00 9.76265967e-01 1.27606618e+00 2.81349206e+00
      4.08164889e-01 -2.39426032e-01 1.17703192e-02 2.40047383e+00
      -2.64124066e-01 -1.00369895e+00 -7.89233208e-01 1.89932036e+00
      1.27441674e-01 -2.74396990e-03 5.97125702e-02 -8.85610759e-01
      -2.03216821e-02 -1.13972187e-01 -2.38860752e-02 -8.75540912e-01
      -8.08294192e-02 -7.48304427e-02 -1.32214978e-01 -9.15050685e-01
      1.49877025e-02 -1.75099254e-01 -6.23126701e-02 -8.80825877e-01
      -8.35184082e-02 -1.78961441e-01 -8.65574256e-02 -8.74475420e-01
      -1.83164492e-01 -1.40054822e-01 -2.46623993e-01 -9.27231073e-01
      -1.66952871e-02 -1.79714367e-01 -1.29039481e-01 -8.91587555e-01
      -1.87498946e-02 -1.87446207e-01 -1.01632148e-01 -8.71684253e-01</_>
    <_>
      -1.83676705e-01 -9.14224148e-01 -4.96142715e-01 2.38853431e+00
      -1.14725876e+00 -1.50878990e+00 -1.34769619e+00 1.00277519e+00
      8.29157829e-01 1.66085303e-01 5.33164442e-01 2.76118112e+00
      -4.28949326e-01 -9.49926078e-01 -7.16577649e-01 2.11050820e+00
      -9.28118706e-01 -1.39255142e+00 -1.20981812e+00 1.27900279e+00
      1.37087119e+00 7.98851073e-01 1.10605788e+00 2.90490389e+00
      2.01904356e-01 -3.25825065e-01 -9.48286429e-02 2.48988271e+00
      -4.32347357e-01 -9.95417058e-01 -7.78594613e-01 1.98528266e+00
      1.63205147e-01 5.39636463e-02 1.34023696e-01 -8.38589013e-01
      -3.45868394e-02 -7.84148499e-02 -3.20052430e-02 -8.27470899e-01
      -4.89091761e-02 9.19167697e-03 -5.66717563e-03 -8.66720617e-01
      -2.30378192e-03 -1.47836491e-01 -6.67160526e-02 -8.32170248e-01
      -1.09455168e-01 -1.94548771e-01 -1.28152460e-01 -8.24134946e-01
      -1.58079326e-01 -2.91552786e-02 -7.97916949e-02 -8.78198564e-01
      -3.35903168e-02 -1.23553649e-01 -8.11206698e-02 -8.42520356e-01
      -4.36290503e-02 -2.01764822e-01 -1.07245900e-01 -8.21473002e-01</_>
    <_>
      -2.88403243e-01 -9.31362689e-01 -4.92877245e-01 2.43445301e+00
      -1.09785247e+00 -1.44489944e+00 -1.37674654e+00 1.02828193e+00
      6.86207175e-01 1.75465439e-02 4.74800259e-01 2.81269860e+00
      -4.81922716e-01 -1.01118660e+00 -8.06999445e-01 2.14641809e+00
      -8.15576434e-01 -1.32568347e+00 -1.25681055e+00 1.30235350e+00
      1.21982300e+00 5.89001834e-01 1.00434756e+00 2.95836306e+00
      1.06375501e-01 -4.67510253e-01 -2.30749756e-01 2.52953553e+00
      -3.58809620e-01 -1.01473999e+00 -8.72895718e-01 2.01297641e+00
      2.68004686e-01 1.02244906e-01 1.26956388e-01 -8.01505089e-01
      -2.26138346e-02 -6.98250607e-02 -3.14885154e-02 -7.77467489e-01
      1.28929123e-01 4.86730635e-02 -4.41733152e-02 -8.33871186e-01
      1.11708000e-01 -1.43585399e-01 -1.25721246e-01 -7.94990718e-01
      -1.03240997e-01 -1.78403631e-01 -1.53803408e-01 -7.76872396e-01
      5.78741208e-02 4.20934670e-02 -8.91614035e-02 -8.47246528e-01
      1.45912707e-01 -1.44182652e-01 -1.45141199e-01 -8.07549298e-01
      1.15515916e-02 -2.14717001e-01 -2.03815758e-01 -7.82727599e-01</_>
    <_>
      -3.00717112e-02 -8.32775712e-01 -4.36303824e-01 2.28468108e+00
      -9.95938182e-01 -1.69405079e+00 -1.60224998e+00 9.07413185e-01
      9.90766108e-01 2.98423588e-01 6.77742779e-01 2.65957189e+00
      -1.53130472e-01 -1.03324139e+00 -8.21052670e-01 1.99943542e+00
      -7.19604075e-01 -1.55098617e+00 -1.45943320e+00 1.17293143e+00
      1.49988842e+00 9.19118166e-01 1.23845840e+00 2.80535722e+00
      4.87177372e-01 -3.60962987e-01 -1.28252134e-01 2.37835312e+00
      -1.50900826e-01 -1.10266101e+00 -9.43701386e-01 1.86873293e+00
      2.22844765e-01 -7.34223127e-02 -1.52790388e-02 -8.15477431e-01
      5.62324247e-04 -1.00432664e-01 -5.76300174e-03 -7.75181055e-01
      5.26853092e-02 -1.20377563e-01 -2.07856178e-01 -8.62276912e-01
      1.07372887e-01 -2.24583656e-01 -1.03423044e-01 -7.86109567e-01
      -2.85228323e-02 -1.92591310e-01 -7.68103451e-02 -7.59229839e-01
      -1.67269874e-02 -1.31536394e-01 -2.46994138e-01 -8.83071482e-01
      8.96760747e-02 -2.19081610e-01 -1.44228697e-01 -8.09170485e-01
      6.79293200e-02 -2.42109448e-01 -1.15378067e-01 -7.58171320e-01</_>
    <_>
      -3.67161036e-01 -9.49339747e-01 -4.62795675e-01 2.43902588e+00
      -1.19623518e+00 -1.41593587e+00 -1.24185324e+00 1.04421067e+00
      6.14442945e-01 4.85774167e-02 5.27632117e-01 2.81395149e+00
      -6.00764394e-01 -9.93670106e-01 -6.64443552e-01 2.15975642e+00
      -9.70559657e-01 -1.31974328e+00 -1.13070321e+00 1.32288337e+00
      1.17116630e+00 6.66591644e-01 1.08693874e+00 2.95869446e+00
      -3.14838858e-03 -4.36988622e-01 -8.20144936e-02 2.54168797e+00
      -5.37586927e-01 -1.00649130e+00 -7.45058119e-01 2.03435183e+00
      1.97696716e-01 9.03407633e-02 2.01054752e-01 -8.09306085e-01
      -2.24679857e-02 -9.47122052e-02 -1.94878653e-02 -7.97705412e-01
      3.85331698e-02 4.91857231e-02 2.12986637e-02 -8.37864161e-01
      2.71138735e-03 -1.48163274e-01 -1.63812339e-02 -8.03791702e-01
      -1.21326201e-01 -2.18042150e-01 -1.15749650e-01 -7.96471536e-01
      -4.65286039e-02 2.50568278e-02 -8.06806386e-02 -8.50058079e-01
      -2.15354050e-03 -1.17494129e-01 -4.16043140e-02 -8.15551162e-01
      -7.65633434e-02 -2.33532622e-01 -7.00286180e-02 -7.95631886e-01</_>
    <_>
      -4.05099064e-01 -1.00649190e+00 -4.82249826e-01 2.52484751e+00
      -1.10606301e+00 -1.31761193e+00 -1.25024569e+00 1.10661995e+00
      4.00260478e-01 -2.20675915e-01 3.27256948e-01 2.90628409e+00
      -6.60316110e-01 -9.56673324e-01 -8.18177640e-01 2.23797584e+00
      -8.78548861e-01 -1.20070338e+00 -1.08068979e+00 1.38645577e+00
      8.65622044e-01 2.90296793e-01 7.92826712e-01 3.05296302e+00
      -2.03129947e-01 -5.38729310e-01 -3.66494000e-01 2.62460089e+00
      -5.39101005e-01 -9.68687654e-01 -7.88782954e-01 2.10586619e+00
      2.79924244e-01 1.16931222e-01 2.24001005e-01 -7.45678723e-01
      8.57498217e-03 -5.48006371e-02 -3.24917468e-03 -7.33154476e-01
      1.30398214e-01 1.03718214e-01 1.12777293e-01 -7.82066405e-01
      4.02502567e-02 -1.64093196e-01 -1.42520089e-02 -7.41702616e-01
      -1.11898296e-01 -2.04262495e-01 -1.29154786e-01 -7.34693587e-01
      8.67673382e-02 1.16821900e-01 8.03295970e-02 -7.97472119e-01
      7.13136271e-02 -1.43162236e-01 2.61796694e-02 -7.55141914e-01
      -4.15989645e-02 -2.46912435e-01 -9.48455706e-02 -7.33252823e-01</_>
    <_>
      -1.21544242e-01 -8.17564011e-01 -3.71850282e-01 2.29933453e+00
      -1.12444949e+00 -1.66258359e+00 -1.55860031e+00 8.95878255e-01
      9.28643763e-01 3.58081460e-01 7.52984822e-01 2.67967629e+00
      -2.94585794e-01 -9.23114002e-01 -7.14085519e-01 2.00557852e+00
      -8.43610644e-01 -1.49835896e+00 -1.37767720e+00 1.16387606e+00
      1.46741343e+00 1.00695682e+00 1.32367229e+00 2.82753062e+00
      3.60708207e-01 -2.04586253e-01 1.28771029e-02 2.39115405e+00
      -2.75540799e-01 -9.68533337e-01 -7.88728476e-01 1.87118924e+00
      1.81464702e-01 -5.35808653e-02 -7.02601799e-04 -8.60916436e-01
      -1.39421085e-02 -1.09684572e-01 -1.47565650e-02 -8.07965040e-01
      -1.83308721e-02 -1.30444437e-01 -2.26051614e-01 -9.07074511e-01
      1.11203752e-01 -2.27672026e-01 -9.58765000e-02 -8.25093329e-01
      -2.49306671e-02 -1.93116769e-01 -7.77451396e-02 -7.92497098e-01
      -1.30336553e-01 -1.72164068e-01 -2.90541053e-01 -9.27006721e-01
      9.87480879e-02 -2.39952713e-01 -1.33198872e-01 -8.51070523e-01
      7.27167875e-02 -2.37658456e-01 -1.02436140e-01 -7.99529493e-01</_>
    <_>
      -2.22989276e-01 -9.19031441e-01 -5.28260708e-01 2.47583866e+00
      -1.19422114e+00 -1.37473691e+00 -1.31981635e+00 1.05703342e+00
      6.85663819e-01 -3.86579372e-02 3.52652133e-01 2.85649562e+00
      -5.95100701e-01 -8.85548055e-01 -7.99387634e-01 2.18868971e+00
      -9.44813967e-01 -1.23117471e+00 -1.12250125e+00 1.33686471e+00
      1.18321276e+00 5.17412961e-01 8.71689260e-01 3.00319219e+00
      -5.29417545e-02 -3.62461776e-01 -2.53687114e-01 2.57573271e+00
      -5.28865874e-01 -8.87480378e-01 -7.25696862e-01 2.05738282e+00
      1.58425689e-01 1.38626769e-01 1.96519479e-01 -8.09499443e-01
      -2.39607356e-02 -5.82439974e-02 -2.51545142e-02 -7.97381103e-01
      -2.60996502e-02 1.21456280e-01 9.27826539e-02 -8.43873441e-01
      -8.14368576e-03 -1.34034038e-01 -3.42822410e-02 -8.04990649e-01
      -1.28674656e-01 -1.87206402e-01 -1.38990194e-01 -7.97891974e-01
      -1.23195365e-01 8.34135413e-02 2.90930197e-02 -8.58514190e-01
      -1.06937476e-02 -1.36120573e-01 -2.82073859e-02 -8.18805754e-01
      -7.67487735e-02 -1.93965837e-01 -1.32980824e-01 -7.97145426e-01</_>
    <_>
      -1.46816626e-01 -8.11752975e-01 -3.55875880e-01 2.31639218e+00
      -1.11406660e+00 -1.63867807e+00 -1.45798373e+00 9.40667927e-01
      8.95166516e-01 3.10736299e-01 7.14744329e-01 2.68504906e+00
      -3.05512369e-01 -9.83827055e-01 -6.79363370e-01 2.03499055e+00
      -8.28629971e-01 -1.51320577e+00 -1.31766522e+00 1.20938921e+00
      1.42291427e+00 9.33559537e-01 1.26990151e+00 2.82764101e+00
      3.32854539e-01 -3.19586098e-01 4.07770788e-03 2.41038895e+00
      -2.89674550e-01 -1.05939174e+00 -7.92109191e-01 1.90649498e+00
      1.85072243e-01 -2.68245172e-02 6.11190759e-02 -8.67699385e-01
      -9.86586604e-03 -1.12374611e-01 -1.25345597e-02 -8.52954924e-01
      6.45655766e-03 -9.10025761e-02 -1.39104277e-01 -8.95701289e-01
      8.77592191e-02 -2.09692612e-01 -8.47091079e-02 -8.59022081e-01
      -5.19986786e-02 -2.07514286e-01 -8.98662433e-02 -8.48482609e-01
      -7.99085498e-02 -1.26843080e-01 -2.09029481e-01 -9.07741308e-01
      1.00339390e-01 -1.96162641e-01 -1.30612776e-01 -8.68610084e-01
      5.23326658e-02 -2.49338627e-01 -1.20915927e-01 -8.45398307e-01</_>
    <_>
      -3.08597445e-01 -9.27933276e-01 -4.03409302e-01 2.41682434e+00
      -1.23660958e+00 -1.45212793e+00 -1.31568646e+00 1.01374114e+00
      6.83236837e-01 8.51413980e-02 5.97970545e-01 2.79395485e+00
      -5.95361888e-01 -9.10001218e-01 -6.59991264e-01 2.13489556e+00
      -1.03402305e+00 -1.32040823e+00 -1.13343620e+00 1.29303229e+00
      1.21889639e+00 6.84673607e-01 1.13803077e+00 2.93938923e+00
      9.79244150e-03 -3.22248161e-01 -4.57215980e-02 2.51854229e+00
      -5.88565886e-01 -9.41029310e-01 -6.88831627e-01 2.00746155e+00
      1.75435171e-01 1.02412939e-01 1.67166561e-01 -8.43263268e-01
      -3.41293253e-02 -9.07441080e-02 -3.39378715e-02 -8.29854906e-01
      1.64141096e-02 1.01809256e-01 2.86773723e-02 -8.71488154e-01
      -6.75965007e-03 -1.50357008e-01 -4.57916185e-02 -8.33167434e-01
      -1.26737848e-01 -2.04036713e-01 -1.31587297e-01 -8.24531913e-01
      -7.08690435e-02 8.24574456e-02 -3.38008069e-02 -8.82732153e-01
      -3.81392427e-02 -1.37617439e-01 -5.75041883e-02 -8.41886342e-01
      -9.31273922e-02 -2.18094215e-01 -1.08235888e-01 -8.17580044e-01</_>
    <_>
      -4.18844432e-01 -8.03911805e-01 -3.56733650e-01 2.42661405e+00
      -1.26811469e+00 -1.40742433e+00 -1.34001684e+00 9.98332620e-01
      6.02289200e-01 2.41670758e-01 6.69510663e-01 2.80847406e+00
      -6.31321371e-01 -8.56229246e-01 -6.50233507e-01 2.13140726e+00
      -1.00453603e+00 -1.25153852e+00 -1.20027614e+00 1.27327275e+00
      1.15961170e+00 8.64181876e-01 1.22316909e+00 2.95551705e+00
      -2.46602707e-02 -2.41065279e-01 -1.73236951e-02 2.51893902e+00
      -5.50006449e-01 -8.48746419e-01 -7.24695325e-01 1.99292827e+00
      1.47901833e-01 1.07065268e-01 1.00076124e-01 -8.53063285e-01
      -7.89511129e-02 -1.02232590e-01 -7.52157941e-02 -8.37140977e-01
      1.85697395e-02 4.31633703e-02 -8.02639052e-02 -8.83110046e-01
      -9.95614473e-03 -1.17674939e-01 -1.11340895e-01 -8.31855237e-01
      -1.63829803e-01 -1.78564906e-01 -1.82116672e-01 -8.18988860e-01
      -3.51329558e-02 -1.32826171e-04 -1.50109634e-01 -8.96465480e-01
      2.97591109e-02 -1.08619787e-01 -1.25958085e-01 -8.40922475e-01
      -9.30401161e-02 -1.44700199e-01 -1.91116601e-01 -8.06272388e-01</_>
    <_>
      -1.85180068e-01 -9.31769192e-01 -4.70441431e-01 2.48881292e+00
      -1.10258472e+00 -1.39668715e+00 -1.32436776e+00 1.08399439e+00
      6.73420489e-01 -9.56957191e-02 3.86622250e-01 2.86552453e+00
      -5.62814236e-01 -9.57118273e-01 -8.31844628e-01 2.20506930e+00
      -9.00840938e-01 -1.22846735e+00 -1.12354028e+00 1.36125314e+00
      1.10927570e+00 3.81460100e-01 8.47951710e-01 3.01007748e+00
      -1.00802854e-01 -5.03807664e-01 -3.51889133e-01 2.58740044e+00
      -5.41078508e-01 -9.33640599e-01 -7.78758347e-01 2.07426524e+00
      2.01299861e-01 1.03740789e-01 1.64950922e-01 -7.73271739e-01
      -1.03456173e-02 -5.58633283e-02 -9.61429533e-03 -7.65237212e-01
      1.94221325e-02 1.17055655e-01 7.64461681e-02 -8.08116853e-01
      1.50576578e-02 -1.50942966e-01 -3.41230072e-02 -7.76959956e-01
      -1.21666260e-01 -1.87747225e-01 -1.36912078e-01 -7.71039784e-01
      -7.23844692e-02 1.18587926e-01 4.12016734e-02 -8.21130753e-01
      -5.42870304e-03 -1.21291913e-01 2.86285509e-03 -7.88183153e-01
      -7.57829398e-02 -2.29278415e-01 -1.29121333e-01 -7.69982457e-01</_>
    <_>
      -1.28365725e-01 -7.01655507e-01 -3.34306389e-01 2.32095838e+00
      -1.27123010e+00 -1.59475791e+00 -1.40829253e+00 9.26189959e-01
      8.99146974e-01 3.84038806e-01 7.19250858e-01 2.69369197e+00
      -4.25928086e-01 -8.86506259e-01 -5.95448792e-01 2.03725052e+00
      -1.03864825e+00 -1.46110630e+00 -1.20629525e+00 1.19951439e+00
      1.41050887e+00 9.82177496e-01 1.26974475e+00 2.83726335e+00
      2.17756480e-01 -2.26197124e-01 7.30991885e-02 2.41733313e+00
      -4.93620366e-01 -1.01079869e+00 -6.70281172e-01 1.90717185e+00
      7.40466937e-02 1.51314242e-02 9.61255431e-02 -9.03754532e-01
      -1.63027868e-02 -1.31209910e-01 -1.41539834e-02 -8.89088035e-01
      -1.14636615e-01 -5.06373215e-03 -5.52503504e-02 -9.32437539e-01
      -2.14951858e-03 -1.65942058e-01 -1.62445661e-02 -8.86418462e-01
      -8.92451331e-02 -2.29114234e-01 -7.69673809e-02 -8.74882996e-01
      -1.94626361e-01 -3.48033495e-02 -1.41954482e-01 -9.46280956e-01
      -1.82148740e-02 -1.49851203e-01 -4.86232974e-02 -8.98902893e-01
      -4.98647802e-02 -2.17269063e-01 -5.43531738e-02 -8.69355857e-01</_>
    <_>
      -1.31782621e-01 -8.60747516e-01 -3.63180280e-01 2.32050967e+00
      -1.08648062e+00 -1.62016296e+00 -1.47010636e+00 9.46392596e-01
      8.90414536e-01 2.31515393e-01 6.97158456e-01 2.68870187e+00
      -2.95549691e-01 -1.00954604e+00 -7.16482341e-01 2.03921294e+00
      -7.93849826e-01 -1.51666367e+00 -1.34266543e+00 1.21452153e+00
      1.40983820e+00 8.43076646e-01 1.24634862e+00 2.83079624e+00
      3.30784410e-01 -3.74241561e-01 -3.89598534e-02 2.41325784e+00
      -2.67278939e-01 -1.10351193e+00 -8.21794569e-01 1.90969324e+00
      2.14719981e-01 -2.55077742e-02 6.62299469e-02 -8.59456241e-01
      1.93651533e-03 -1.03615783e-01 6.76627737e-03 -8.46308410e-01
      4.65680920e-02 -7.73211569e-02 -1.21505402e-01 -8.88761997e-01
      1.18955396e-01 -2.17538401e-01 -7.47715980e-02 -8.54034424e-01
      -4.38379645e-02 -2.04410329e-01 -8.18629712e-02 -8.44478905e-01
      -3.37395482e-02 -9.70187336e-02 -1.81623414e-01 -9.00630057e-01
      1.38965830e-01 -2.12631539e-01 -1.23456009e-01 -8.62484574e-01
      8.72662291e-02 -2.54792482e-01 -1.30812734e-01 -8.40025961e-01</_>
    <_>
      -3.25749993e-01 -1.02586997e+00 -5.24806499e-01 2.51627779e+00
      -1.04657567e+00 -1.32364905e+00 -1.28627348e+00 1.10706210e+00
      4.61973846e-01 -2.47249261e-01 2.91580379e-01 2.89531231e+00
      -5.90912461e-01 -9.55113351e-01 -8.47992778e-01 2.23191953e+00
      -8.11490834e-01 -1.23339057e+00 -1.13376081e+00 1.38622928e+00
      9.34257805e-01 2.75478601e-01 7.80617654e-01 3.04136658e+00
      -1.10234663e-01 -5.25292277e-01 -3.69446307e-01 2.61687374e+00
      -4.48057115e-01 -1.00308979e+00 -8.38046849e-01 2.10231805e+00
      2.89803505e-01 1.20045878e-01 1.91421375e-01 -7.44788349e-01
      -5.49217034e-03 -3.60126607e-02 -2.51746085e-03 -7.31622279e-01
      1.49351001e-01 1.20779939e-01 8.67065787e-02 -7.80639172e-01
      6.85156584e-02 -1.67038590e-01 -6.72730953e-02 -7.44587123e-01
      -1.09937139e-01 -1.92947611e-01 -1.43539816e-01 -7.38653958e-01
      9.75211188e-02 1.35950834e-01 4.37953062e-02 -7.95204639e-01
      1.03816390e-01 -1.64086804e-01 -5.23534082e-02 -7.58725643e-01
      -8.32357164e-03 -2.55843282e-01 -1.61472857e-01 -7.40913808e-01</_>
    <_>
      -4.64785933e-01 -9.51048493e-01 -3.69004935e-01 2.43667006e+00
      -1.21730220e+00 -1.43971455e+00 -1.22892630e+00 1.03669393e+00
      5.35891354e-01 3.23528387e-02 5.98041475e-01 2.81253982e+00
      -6.70288980e-01 -1.03891516e+00 -6.44962728e-01 2.15181947e+00
      -9.73017514e-01 -1.36406553e+00 -1.10235798e+00 1.31232929e+00
      1.09881020e+00 6.39937758e-01 1.13106012e+00 2.95809555e+00
      -8.38927627e-02 -4.95845377e-01 -5.96153401e-02 2.53466797e+00
      -5.62811255e-01 -1.07519484e+00 -6.93464637e-01 2.02350926e+00
      2.28103235e-01 6.19269162e-02 1.95986688e-01 -7.97608376e-01
      -1.77114271e-02 -9.82167050e-02 -3.80833587e-03 -7.72689998e-01
      8.60186368e-02 7.62699964e-03 1.39326099e-02 -8.28862011e-01
      8.10112879e-02 -1.74430564e-01 -1.12921316e-02 -7.87681699e-01
      -8.76538604e-02 -2.28938997e-01 -9.21137258e-02 -7.72794962e-01
      2.34878156e-02 -7.57810986e-03 -3.99183333e-02 -8.42545569e-01
      1.07900731e-01 -1.77153513e-01 -3.31873856e-02 -7.98636496e-01
      4.76942584e-03 -2.47404680e-01 -8.54391977e-02 -7.72303045e-01</_>
    <_>
      -4.76966590e-01 -9.99893427e-01 -2.12610990e-01 2.40029669e+00
      -1.20746481e+00 -1.51479697e+00 -1.25268483e+00 9.96930540e-01
      4.97355640e-01 -2.88068373e-02 7.78502584e-01 2.78140831e+00
      -7.18277395e-01 -1.14689565e+00 -6.06258094e-01 2.10952234e+00
      -9.49164510e-01 -1.40583026e+00 -1.13111877e+00 1.26770175e+00
      1.01969433e+00 5.38424313e-01 1.27517664e+00 2.92917824e+00
      -1.92059994e-01 -6.50356591e-01 -3.86439227e-02 2.49396157e+00
      -5.84725082e-01 -1.13767564e+00 -7.29043365e-01 1.97536528e+00
      2.99889594e-01 6.50171936e-02 1.80827886e-01 -7.82658815e-01
      5.63140446e-03 -1.05923101e-01 2.55072918e-02 -7.46613324e-01
      1.92602620e-01 4.84260842e-02 -6.10187501e-02 -8.22529852e-01
      1.94889203e-01 -1.91975817e-01 -8.82958341e-03 -7.59521365e-01
      -5.42481393e-02 -2.19936818e-01 -8.07519183e-02 -7.35924661e-01
      1.40323162e-01 5.40030785e-02 -1.52200416e-01 -8.39717567e-01
      2.69457221e-01 -1.43655509e-01 -5.36462814e-02 -7.74774909e-01
      9.00656432e-02 -2.77808428e-01 -1.01800278e-01 -7.33349264e-01</_>
    <_>
      -3.17054927e-01 -1.01166022e+00 -4.15493309e-01 2.45695448e+00
      -1.05471349e+00 -1.49253798e+00 -1.34763527e+00 1.05311286e+00
      5.26745677e-01 -1.10228695e-01 4.63595927e-01 2.83660603e+00
      -5.28218865e-01 -1.04335511e+00 -8.64174306e-01 2.16950417e+00
      -8.05635750e-01 -1.37651002e+00 -1.18593180e+00 1.32750940e+00
      9.95113194e-01 4.50710624e-01 9.44762826e-01 2.98382497e+00
      -4.16739024e-02 -5.27619481e-01 -3.61980319e-01 2.55482030e+00
      -4.22758311e-01 -1.07439423e+00 -8.57222974e-01 2.03915119e+00
      3.11505795e-01 2.58883424e-02 1.45789236e-01 -7.57412255e-01
      1.76386815e-02 -5.75390533e-02 8.45922437e-03 -7.22459435e-01
      1.98481262e-01 5.99952154e-02 -5.53408696e-04 -7.98149943e-01
      1.60572290e-01 -2.34656960e-01 -5.10834828e-02 -7.45700121e-01
      -4.91989926e-02 -1.92091793e-01 -1.07292332e-01 -7.26037383e-01
      1.56530395e-01 1.04385033e-01 -3.92927863e-02 -8.15816939e-01
      2.23800480e-01 -2.09430069e-01 -3.13229337e-02 -7.67058134e-01
      8.94902423e-02 -3.07164550e-01 -1.14723742e-01 -7.39164531e-01</_>
    <_>
      -4.36322719e-01 -9.45713699e-01 -2.57630050e-01 2.39920616e+00
      -1.15165925e+00 -1.52456760e+00 -1.32583427e+00 9.94288206e-01
      5.36368906e-01 6.02841042e-02 7.58774459e-01 2.78130817e+00
      -5.83484292e-01 -1.08621669e+00 -6.69365644e-01 2.10899806e+00
      -8.71910393e-01 -1.42947948e+00 -1.21231163e+00 1.26646793e+00
      1.05950558e+00 6.53370380e-01 1.27859235e+00 2.92959380e+00
      -3.94642130e-02 -5.43938994e-01 -7.04663470e-02 2.49540854e+00
      -4.59462762e-01 -1.11430907e+00 -7.98220277e-01 1.97678709e+00
      3.08023721e-01 2.92893387e-02 1.19803600e-01 -7.88170874e-01
      -6.40760874e-03 -9.68419239e-02 1.70088466e-02 -7.48865426e-01
      2.06217930e-01 -1.61318779e-02 -1.33673802e-01 -8.29606235e-01
      1.62494570e-01 -2.18573213e-01 -4.53403108e-02 -7.68876433e-01
      -5.05203232e-02 -2.22052515e-01 -8.72911736e-02 -7.45599985e-01
      1.53771237e-01 -2.01939642e-02 -2.23538607e-01 -8.47754538e-01
      2.20259666e-01 -1.93502530e-01 -9.93260667e-02 -7.87486255e-01
      7.67052621e-02 -2.89489925e-01 -1.02517731e-01 -7.50409186e-01</_>
    <_>
      -1.56900927e-01 -9.87139702e-01 -5.24118721e-01 2.40671134e+00
      -1.00871456e+00 -1.49075353e+00 -1.43348634e+00 1.00687528e+00
      8.22315812e-01 -3.04286107e-02 4.42227304e-01 2.78124070e+00
      -3.39117020e-01 -1.06265450e+00 -8.60621333e-01 2.11318159e+00
      -7.19176292e-01 -1.39186692e+00 -1.33702779e+00 1.27364683e+00
      1.34322059e+00 5.46243370e-01 9.69280720e-01 2.92597723e+00
      2.45906070e-01 -5.33753455e-01 -2.93212742e-01 2.49230075e+00
      -2.49598086e-01 -1.08617687e+00 -9.55474138e-01 1.97500539e+00
      2.68929720e-01 5.93946166e-02 9.65999514e-02 -8.02131772e-01
      -1.07958205e-02 -6.18338995e-02 -1.69436540e-02 -7.58334994e-01
      1.21761382e-01 4.39669825e-02 -4.25373763e-02 -8.27063799e-01
      1.45536661e-01 -1.83753327e-01 -1.44476920e-01 -7.75594056e-01
      -6.54846430e-02 -1.70054346e-01 -1.46191359e-01 -7.39673674e-01
      5.62788025e-02 4.56894487e-02 -7.14229941e-02 -8.37494969e-01
      1.99334428e-01 -1.84025854e-01 -1.57487080e-01 -7.86461830e-01
      8.86511952e-02 -2.49865457e-01 -2.30885714e-01 -7.47541010e-01</_>
    <_>
      -1.18810214e-01 -7.77645051e-01 -4.49207485e-01 2.35105515e+00
      -1.16297448e+00 -1.53891349e+00 -1.46417928e+00 9.49002445e-01
      8.87303412e-01 2.97605425e-01 6.03353679e-01 2.72525525e+00
      -3.38878483e-01 -8.77999842e-01 -6.94561303e-01 2.06357622e+00
      -9.10750091e-01 -1.39675462e+00 -1.31026101e+00 1.22114241e+00
      1.39442360e+00 9.16522622e-01 1.17094707e+00 2.86903000e+00
      2.83334643e-01 -2.28088811e-01 -1.78310554e-02 2.44397140e+00
      -3.76224190e-01 -9.45284188e-01 -7.87141562e-01 1.92947853e+00
      1.22658864e-01 4.00940515e-02 8.76901820e-02 -8.99164975e-01
      -3.95362079e-02 -1.21184848e-01 -3.21507715e-02 -8.89019549e-01
      -3.91049571e-02 1.34449042e-02 -4.24542986e-02 -9.26087618e-01
      7.18208635e-03 -1.63115695e-01 -6.12822548e-02 -8.87949705e-01
      -1.02689646e-01 -2.15298787e-01 -1.09235600e-01 -8.80482316e-01
      -1.17508113e-01 -3.08519527e-02 -1.09872408e-01 -9.38552916e-01
      -2.96123489e-03 -1.45927981e-01 -9.02390108e-02 -8.98470759e-01
      -4.07130532e-02 -2.16579124e-01 -1.05863653e-01 -8.75268996e-01</_>
    <_>
      -2.98377723e-01 -7.84662306e-01 -2.96361923e-01 2.35051489e+00
      -1.25506592e+00 -1.56701744e+00 -1.42506850e+00 9.36399698e-01
      7.36364782e-01 3.22617859e-01 7.84466803e-01 2.72978854e+00
      -5.06613791e-01 -8.68001223e-01 -5.94919086e-01 2.06100464e+00
      -9.87896800e-01 -1.38939750e+00 -1.22160149e+00 1.21182048e+00
      1.28227830e+00 9.36887145e-01 1.33337879e+00 2.87594175e+00
      1.31077603e-01 -2.00159669e-01 9.30772126e-02 2.44633818e+00
      -4.69119310e-01 -8.97091031e-01 -6.58621788e-01 1.92735243e+00
      1.73041731e-01 7.43900007e-03 4.95273396e-02 -8.97818506e-01
      -3.30014639e-02 -1.13443747e-01 -2.93397866e-02 -8.76546681e-01
      2.17271857e-02 -3.98764312e-02 -1.52862236e-01 -9.31362331e-01
      7.69737065e-02 -1.85881644e-01 -7.58793801e-02 -8.78353834e-01
      -7.15090185e-02 -2.07611218e-01 -1.00974143e-01 -8.63834679e-01
      -6.83919415e-02 -6.56713396e-02 -2.33010992e-01 -9.46570754e-01
      9.37274545e-02 -1.78349927e-01 -1.19339682e-01 -8.92366409e-01
      2.11568195e-02 -2.37786025e-01 -1.24564998e-01 -8.58579934e-01</_>
    <_>
      -3.95765573e-01 -1.04592264e+00 -2.22528622e-01 2.38494945e+00
      -1.13487458e+00 -1.55245256e+00 -1.28336620e+00 1.00077212e+00
      5.46658039e-01 -6.19722903e-02 7.60595262e-01 2.76054788e+00
      -6.32665873e-01 -1.19340229e+00 -6.25087440e-01 2.10088086e+00
      -8.77697945e-01 -1.47554278e+00 -1.15807688e+00 1.27084231e+00
      1.05601752e+00 5.03604650e-01 1.25910294e+00 2.90584302e+00
      -1.32553533e-01 -6.91468835e-01 -4.69721854e-02 2.47997189e+00
      -5.30280888e-01 -1.22000396e+00 -7.49476969e-01 1.97059858e+00
      3.20358902e-01 3.54071818e-02 1.54088169e-01 -7.74409652e-01
      2.90815309e-02 -9.30091813e-02 4.29142565e-02 -7.40496993e-01
      2.09879652e-01 1.75574552e-02 -6.17323965e-02 -8.12246323e-01
      2.27007553e-01 -2.17428133e-01 4.08844231e-03 -7.58278430e-01
      -1.71026029e-02 -2.21680582e-01 -5.20132333e-02 -7.37256765e-01
      1.40564084e-01 2.32671555e-02 -1.43517464e-01 -8.29220355e-01
      2.80988395e-01 -1.79843649e-01 -5.05715385e-02 -7.73978889e-01
      1.35343671e-01 -3.03046227e-01 -8.55921656e-02 -7.39394248e-01</_>
    <_>
      -1.40983649e-02 -9.70620215e-01 -4.62127090e-01 2.30885863e+00
      -8.77391279e-01 -1.67740715e+00 -1.51276481e+00 9.58258808e-01
      9.89935994e-01 1.45796388e-01 5.73652804e-01 2.67237782e+00
      -8.76877457e-02 -1.13434052e+00 -8.64940822e-01 2.02742791e+00
      -5.25624752e-01 -1.61146140e+00 -1.43613994e+00 1.21914291e+00
      1.52687132e+00 8.01696658e-01 1.13337243e+00 2.81287980e+00
      5.50123692e-01 -4.61680740e-01 -2.06010982e-01 2.39416504e+00
      2.88990233e-02 -1.18966043e+00 -9.76700544e-01 1.89699006e+00
      2.60889053e-01 -7.11917654e-02 3.85730602e-02 -7.67252922e-01
      1.37983810e-03 -9.71914530e-02 -1.66061930e-02 -7.08568513e-01
      8.20843652e-02 -1.22350983e-01 -1.59798473e-01 -8.00995708e-01
      1.37267888e-01 -3.08377653e-01 -1.50620222e-01 -7.39602804e-01
      -4.39580642e-02 -2.25449681e-01 -1.28155917e-01 -6.98384166e-01
      -3.30029652e-02 -1.37734413e-01 -2.20252454e-01 -8.14197600e-01
      1.39067784e-01 -3.00564736e-01 -1.95258677e-01 -7.57155895e-01
      8.70124996e-02 -3.54273349e-01 -2.11998075e-01 -7.15124369e-01</_>
    <_>
      -2.50845462e-01 -9.19186532e-01 -4.15065497e-01 2.38442850e+00
      -1.15552020e+00 -1.55958700e+00 -1.37844825e+00 9.94514704e-01
      7.41486013e-01 1.41576201e-01 6.06766641e-01 2.75734901e+00
      -4.82708335e-01 -1.01193380e+00 -7.11674631e-01 2.10126257e+00
      -9.11229610e-01 -1.42932451e+00 -1.21056247e+00 1.26704872e+00
      1.27372456e+00 7.66260982e-01 1.16165352e+00 2.90135860e+00
      1.23117194e-01 -3.96832138e-01 -8.10628831e-02 2.48064208e+00
      -4.38084930e-01 -1.03592551e+00 -7.50932992e-01 1.97205186e+00
      2.20581532e-01 2.53969040e-02 1.01521738e-01 -8.28959405e-01
      -1.73971802e-02 -9.86447930e-02 -2.11492162e-02 -8.10149372e-01
      7.00312108e-02 2.40190215e-02 -4.12518196e-02 -8.62614810e-01
      8.40275660e-02 -2.12439463e-01 -5.77433482e-02 -8.23312223e-01
      -7.44452775e-02 -2.14246482e-01 -9.46191475e-02 -8.11892748e-01
      2.00592354e-03 2.58966461e-02 -9.06236768e-02 -8.76804292e-01
      9.06263143e-02 -1.82086125e-01 -4.76760566e-02 -8.37044597e-01
      7.93710444e-03 -2.74299294e-01 -9.53658670e-02 -8.13594997e-01</_>
    <_>
      -2.57438689e-01 -1.00870407e+00 -6.21399879e-01 2.50730205e+00
      -1.09420669e+00 -1.37161505e+00 -1.26370132e+00 1.09063113e+00
      5.87289274e-01 -1.99896947e-01 1.95014119e-01 2.88778949e+00
      -5.65671325e-01 -9.59256411e-01 -7.79308617e-01 2.22144842e+00
      -8.87619138e-01 -1.21733260e+00 -1.07768464e+00 1.37090647e+00
      1.05645168e+00 3.23410869e-01 6.78434074e-01 3.03414297e+00
      -7.88830966e-02 -4.95856285e-01 -2.94234276e-01 2.60759354e+00
      -5.16730666e-01 -9.30854142e-01 -7.33013690e-01 2.09006524e+00
      2.09399715e-01 1.32750064e-01 2.41403118e-01 -7.84091055e-01
      -9.21825226e-03 -6.28561974e-02 -1.08968392e-02 -7.74425626e-01
      1.81861483e-02 1.66399986e-01 2.05056086e-01 -8.16705108e-01
      -2.30050869e-02 -1.48289710e-01 -2.15645563e-02 -7.83044219e-01
      -1.24489076e-01 -1.88471496e-01 -1.34297997e-01 -7.77150571e-01
      -5.22532091e-02 1.83274940e-01 1.90575629e-01 -8.29409003e-01
      -3.26673798e-02 -1.04915462e-01 2.37497129e-02 -7.94741631e-01
      -8.72748047e-02 -2.15554714e-01 -1.16760246e-01 -7.75784969e-01</_>
    <_>
      -2.90244728e-01 -7.41080284e-01 -2.98241854e-01 2.36442041e+00
      -1.31217360e+00 -1.52725708e+00 -1.39338803e+00 9.50471520e-01
      7.41250455e-01 3.31050098e-01 7.50414491e-01 2.74259567e+00
      -4.87640530e-01 -8.03760111e-01 -6.14100218e-01 2.07822847e+00
      -1.06725979e+00 -1.33977604e+00 -1.20569587e+00 1.22935855e+00
      1.28576624e+00 9.38364267e-01 1.29775190e+00 2.88834023e+00
      1.69906974e-01 -1.42830178e-01 5.23041785e-02 2.46394110e+00
      -5.08243978e-01 -8.37966323e-01 -6.72249734e-01 1.94815111e+00
      9.52109098e-02 5.88324666e-02 5.22458442e-02 -8.96770239e-01
      -5.77760004e-02 -1.09239921e-01 -5.46487309e-02 -8.78488183e-01
      -4.79420573e-02 4.67272475e-02 -1.30240098e-01 -9.29464459e-01
      -6.95855543e-02 -1.53673172e-01 -3.59158143e-02 -8.75662804e-01
      -1.27865881e-01 -1.82193726e-01 -1.21802866e-01 -8.63334775e-01
      -1.35951295e-01 2.76462012e-03 -2.06845328e-01 -9.44725096e-01
      -1.09414078e-01 -1.34393439e-01 -3.37542370e-02 -8.90437305e-01
      -1.27116054e-01 -1.96876004e-01 -7.51783475e-02 -8.56892824e-01</_>
    <_>
      -2.42283493e-01 -8.74580622e-01 -4.51485753e-01 2.39772010e+00
      -1.21026480e+00 -1.51663780e+00 -1.31198287e+00 1.00059009e+00
      7.53892541e-01 1.75939500e-01 5.67432880e-01 2.77232480e+00
      -5.30067265e-01 -9.57812369e-01 -6.71540320e-01 2.11810327e+00
      -1.03015089e+00 -1.40632606e+00 -1.10318255e+00 1.28006661e+00
      1.27492070e+00 7.78569281e-01 1.11349666e+00 2.91675067e+00
      6.98793977e-02 -3.55722547e-01 -7.08575100e-02 2.50021887e+00
      -5.70347428e-01 -1.02307940e+00 -6.70496464e-01 1.99262619e+00
      1.53398782e-01 6.91855252e-02 1.39724448e-01 -8.46613765e-01
      -2.40837205e-02 -8.52427706e-02 -2.44555958e-02 -8.33975494e-01
      -3.48562673e-02 3.25774848e-02 -3.04393694e-02 -8.75306249e-01
      1.48362070e-02 -1.22794323e-01 -2.66331304e-02 -8.34264278e-01
      -1.03011899e-01 -2.02584237e-01 -1.06213890e-01 -8.25528264e-01
      -1.04735196e-01 1.25499880e-02 -1.08377740e-01 -8.88240576e-01
      1.70740187e-02 -6.97219670e-02 -4.61379364e-02 -8.45345020e-01
      -4.05773707e-02 -1.78361759e-01 -7.73839802e-02 -8.20174813e-01</_>
    <_>
      -4.45428863e-03 -9.33155954e-01 -4.15318251e-01 2.29449701e+00
      -9.50519502e-01 -1.69260848e+00 -1.57492316e+00 9.29577172e-01
      9.83588755e-01 1.99158043e-01 6.74624801e-01 2.66409636e+00
      -1.67417035e-01 -1.07404923e+00 -8.25787783e-01 2.01004076e+00
      -6.60921574e-01 -1.54797447e+00 -1.44829679e+00 1.19153845e+00
      1.49175358e+00 8.28966618e-01 1.23171496e+00 2.80752683e+00
      4.41961706e-01 -4.07451957e-01 -1.37606010e-01 2.38345718e+00
      -1.30831778e-01 -1.09648061e+00 -9.36802149e-01 1.87848794e+00
      2.49592185e-01 -8.50773975e-02 8.07799771e-03 -8.12945962e-01
      1.55973183e-02 -9.76579860e-02 3.65279568e-03 -7.68044114e-01
      6.29495457e-02 -1.08359106e-01 -1.96394011e-01 -8.48069847e-01
      1.75180644e-01 -2.60963440e-01 -1.14130363e-01 -7.88189888e-01
      -1.65350921e-02 -1.93841904e-01 -9.50272977e-02 -7.61511147e-01
      -3.86576727e-02 -1.07104011e-01 -2.51934081e-01 -8.64479899e-01
      1.84302375e-01 -2.38476962e-01 -1.54249340e-01 -8.05574119e-01
      1.20754451e-01 -2.93060899e-01 -1.57871947e-01 -7.68342018e-01</_>
    <_>
      -1.69882789e-01 -7.69707143e-01 -3.78548831e-01 2.34728193e+00
      -1.16765368e+00 -1.56949770e+00 -1.45154274e+00 9.52895105e-01
      8.69201362e-01 3.31878334e-01 6.94068372e-01 2.72186661e+00
      -3.20956439e-01 -8.40751469e-01 -6.72373235e-01 2.06680179e+00
      -9.17723179e-01 -1.42332661e+00 -1.26768982e+00 1.23058558e+00
      1.41177106e+00 9.64565158e-01 1.27035999e+00 2.86708951e+00
      3.36042583e-01 -1.58551708e-01 1.63133871e-02 2.44961286e+00
      -3.47087264e-01 -9.23544884e-01 -7.24464595e-01 1.94220638e+00
      1.22931287e-01 6.10253401e-03 4.31708917e-02 -8.67876053e-01
      -4.97588217e-02 -1.08346798e-01 -5.23744375e-02 -8.51064563e-01
      -6.05927743e-02 -1.59383845e-02 -1.20468348e-01 -8.99908423e-01
      -5.28639406e-02 -2.32968718e-01 -8.32307041e-02 -8.49450827e-01
      -1.22549824e-01 -2.15734974e-01 -1.36230975e-01 -8.38561356e-01
      -1.67216986e-01 -6.60442114e-02 -2.00931579e-01 -9.15221453e-01
      -9.78518799e-02 -2.45425507e-01 -8.70081559e-02 -8.64734530e-01
      -1.07710354e-01 -2.61166394e-01 -1.36187747e-01 -8.34023893e-01</_>
    <_>
      -2.43121952e-01 -8.57502878e-01 -3.57773066e-01 2.36401772e+00
      -1.14505041e+00 -1.57893097e+00 -1.43438530e+00 9.64199483e-01
      7.72455037e-01 2.16473058e-01 6.78256810e-01 2.74014735e+00
      -3.51657838e-01 -9.43183124e-01 -7.10600734e-01 2.07728457e+00
      -9.06358719e-01 -1.46078253e+00 -1.27561831e+00 1.23675621e+00
      1.30358636e+00 8.26807439e-01 1.21451032e+00 2.88568687e+00
      2.78955102e-01 -3.02211791e-01 -6.19973503e-02 2.45941901e+00
      -3.79073203e-01 -1.02831376e+00 -7.81212628e-01 1.94563806e+00
      2.13562414e-01 2.07519671e-03 5.93058020e-02 -8.55184913e-01
      -1.41724329e-02 -1.12449035e-01 -1.51015781e-02 -8.30182254e-01
      7.60310888e-02 -4.63507930e-03 -1.12669073e-01 -8.88335347e-01
      1.51585722e-02 -2.16726914e-01 -5.25867604e-02 -8.38409185e-01
      -7.95086622e-02 -2.31737614e-01 -1.02644995e-01 -8.22374344e-01
      1.27071263e-02 -1.12411976e-02 -1.49681389e-01 -9.02036488e-01
      8.15782580e-04 -1.98059559e-01 -5.21878116e-02 -8.50268781e-01
      -1.87963676e-02 -2.61492223e-01 -8.79520997e-02 -8.17640603e-01</_>
    <_>
      -2.58132428e-01 -8.85093153e-01 -4.60925192e-01 2.39199615e+00
      -1.20990789e+00 -1.48732913e+00 -1.37023854e+00 9.89162743e-01
      7.65685678e-01 1.89160019e-01 5.62596262e-01 2.76772785e+00
      -4.70332891e-01 -9.11377668e-01 -7.11925983e-01 2.10734200e+00
      -9.78139937e-01 -1.35257101e+00 -1.19847918e+00 1.26534581e+00
      1.31157541e+00 8.41609478e-01 1.14320517e+00 2.91270638e+00
      1.78543925e-01 -2.67104894e-01 -6.57138303e-02 2.49009252e+00
      -4.62865919e-01 -9.33194876e-01 -7.22641766e-01 1.97781217e+00
      1.44041672e-01 6.57914504e-02 1.34693265e-01 -8.65613639e-01
      -2.95861233e-02 -1.01439424e-01 -4.17565480e-02 -8.50591183e-01
      -3.43170725e-02 4.91832606e-02 1.03949569e-02 -8.92075896e-01
      -3.29633765e-02 -1.69358522e-01 -1.61182508e-02 -8.51461232e-01
      -1.03700705e-01 -1.91569656e-01 -1.19758986e-01 -8.41330111e-01
      -1.19631939e-01 3.14503006e-04 -7.64547065e-02 -9.03458714e-01
      -7.76457861e-02 -1.59369737e-01 -6.86001312e-03 -8.61185074e-01
      -8.34794492e-02 -1.99994937e-01 -8.77975151e-02 -8.35487962e-01</_>
    <_>
      -1.74600303e-01 -7.31274307e-01 -3.79273117e-01 2.33596420e+00
      -1.21921265e+00 -1.57018018e+00 -1.44491422e+00 9.44830358e-01
      8.70103359e-01 3.81211847e-01 6.94353700e-01 2.70962763e+00
      -3.87600482e-01 -8.62401187e-01 -6.80728912e-01 2.05636883e+00
      -9.48090434e-01 -1.39094019e+00 -1.29171216e+00 1.22111964e+00
      1.40838289e+00 1.00209665e+00 1.26371884e+00 2.85302711e+00
      2.74208844e-01 -1.82898164e-01 -6.60437066e-03 2.43599844e+00
      -3.85234654e-01 -9.00179684e-01 -7.76367724e-01 1.92867386e+00
      1.07328691e-01 2.91464832e-02 6.31228760e-02 -8.80988538e-01
      -3.71891558e-02 -9.38536674e-02 -4.18502055e-02 -8.67631614e-01
      -7.97037929e-02 -4.63578627e-02 -1.12870432e-01 -9.15609181e-01
      -1.78622548e-02 -1.51398361e-01 -4.96003814e-02 -8.69841099e-01
      -1.05686948e-01 -1.77184537e-01 -1.16548933e-01 -8.60470474e-01
      -1.86318308e-01 -1.16671391e-01 -2.10482344e-01 -9.29893315e-01
      -6.35890961e-02 -1.49813056e-01 -7.11781457e-02 -8.83348405e-01
      -8.19916800e-02 -1.95351750e-01 -7.85519406e-02 -8.55234861e-01</_>
    <_>
      -4.35274571e-01 -9.44667399e-01 -3.28103155e-01 2.42356324e+00
      -1.29133666e+00 -1.45055938e+00 -1.24137497e+00 1.01551020e+00
      5.44588923e-01 6.27318025e-02 6.58107758e-01 2.80267811e+00
      -7.25061178e-01 -9.71062005e-01 -6.33072853e-01 2.14018965e+00
      -1.05643296e+00 -1.33461714e+00 -1.07980669e+00 1.29627883e+00
      1.08837354e+00 6.79490209e-01 1.20419836e+00 2.94963670e+00
      -1.58590734e-01 -4.12876606e-01 -3.94117460e-02 2.52714825e+00
      -6.51637316e-01 -9.91663754e-01 -6.57420993e-01 2.01487684e+00
      1.86965317e-01 1.15313105e-01 2.05945998e-01 -8.06458712e-01
      -4.04350162e-02 -1.15949787e-01 -3.44786420e-02 -7.85181940e-01
      2.94898674e-02 1.24103166e-01 3.08810566e-02 -8.44976485e-01
      1.68255356e-03 -1.54200986e-01 3.40694599e-02 -7.88523972e-01
      -1.21108718e-01 -2.29279101e-01 -1.21605054e-01 -7.76417196e-01
      -5.03039770e-02 8.63925219e-02 -6.58274740e-02 -8.62820089e-01
      1.92216709e-02 -1.11634150e-01 4.15068343e-02 -8.07364643e-01
      -8.48655552e-02 -2.42196172e-01 -6.24151677e-02 -7.73931086e-01</_>
    <_>
      -2.91003734e-01 -9.31623280e-01 -4.63105917e-01 2.42386007e+00
      -1.20878553e+00 -1.43125951e+00 -1.33494675e+00 1.02475023e+00
      7.07206488e-01 7.40540251e-02 5.27674377e-01 2.79950476e+00
      -5.64479887e-01 -9.24676120e-01 -7.49508917e-01 2.14364266e+00
      -9.85951960e-01 -1.27872539e+00 -1.19609594e+00 1.30383432e+00
      1.25790918e+00 6.86518610e-01 1.08466959e+00 2.94379711e+00
      5.50927892e-02 -3.42363179e-01 -1.51882902e-01 2.52556324e+00
      -5.29413521e-01 -9.09784555e-01 -7.94162452e-01 2.01621580e+00
      1.82188734e-01 1.14217699e-01 1.48264825e-01 -8.19549978e-01
      -3.61553691e-02 -8.28204378e-02 -3.66901942e-02 -8.08263004e-01
      1.20867789e-02 1.02811091e-01 -9.31038614e-03 -8.52497101e-01
      1.77818735e-03 -1.32852614e-01 -3.37526649e-02 -8.12221467e-01
      -1.29746571e-01 -1.80629194e-01 -1.28207877e-01 -8.04806828e-01
      -9.45317596e-02 7.08058923e-02 -1.03641458e-01 -8.66943657e-01
      -2.54656710e-02 -1.05054572e-01 -4.50823680e-02 -8.25658619e-01
      -8.47362429e-02 -2.00837508e-01 -9.70377326e-02 -8.02183568e-01</_>
    <_>
      -1.85683832e-01 -8.15267265e-01 -3.33382785e-01 2.31771207e+00
      -1.14229679e+00 -1.58893263e+00 -1.49712038e+00 9.28302765e-01
      8.70990336e-01 3.12240750e-01 7.66754866e-01 2.69062734e+00
      -3.14505965e-01 -9.12761033e-01 -6.95939898e-01 2.03236771e+00
      -8.42584252e-01 -1.44824827e+00 -1.34629345e+00 1.19854677e+00
      1.41181326e+00 9.41031992e-01 1.33298385e+00 2.83483696e+00
      3.30996901e-01 -2.42449164e-01 7.41591537e-03 2.41112447e+00
      -2.84939170e-01 -9.74015892e-01 -7.97213137e-01 1.90098155e+00
      1.86399937e-01 -1.49744712e-02 2.48696934e-02 -8.80862951e-01
      -1.89154316e-02 -1.17017053e-01 -2.03225221e-02 -8.65484655e-01
      2.06718147e-02 -8.68938789e-02 -2.13426024e-01 -9.11560357e-01
      8.77198204e-02 -2.04751939e-01 -7.25989342e-02 -8.67775261e-01
      -6.68635517e-02 -2.10387975e-01 -9.68335420e-02 -8.57263803e-01
      -7.72024095e-02 -1.29257068e-01 -3.00889194e-01 -9.24265385e-01
      9.91285145e-02 -2.00281695e-01 -1.19669780e-01 -8.76233876e-01
      3.66924331e-02 -2.31281787e-01 -1.09854236e-01 -8.47708046e-01</_>
    <_>
      -1.25628099e-01 -9.13115919e-01 -4.19169545e-01 2.33930016e+00
      -9.80780065e-01 -1.66371822e+00 -1.50675154e+00 9.62507129e-01
      8.30690622e-01 1.23306811e-01 6.08179569e-01 2.71206594e+00
      -2.37320811e-01 -1.10307515e+00 -8.17116737e-01 2.05578446e+00
      -6.93551004e-01 -1.53939247e+00 -1.38300812e+00 1.22927463e+00
      1.32732689e+00 7.08866835e-01 1.13580441e+00 2.85677600e+00
      3.49785954e-01 -4.90314692e-01 -1.87913477e-01 2.43390203e+00
      -1.82743892e-01 -1.15005326e+00 -9.25533175e-01 1.92670596e+00
      2.87919044e-01 -6.24579564e-02 5.21900430e-02 -8.12165141e-01
      2.47391015e-02 -9.91299376e-02 1.37006510e-02 -7.74313509e-01
      1.71554610e-01 -3.91861759e-02 -1.12866580e-01 -8.46561849e-01
      1.59081742e-01 -2.68084735e-01 -8.87212381e-02 -7.93900728e-01
      -2.06761695e-02 -2.25249246e-01 -8.10227841e-02 -7.71216214e-01
      1.09938473e-01 -6.73980825e-03 -1.39210433e-01 -8.61131191e-01
      1.60804093e-01 -2.34311193e-01 -1.00128911e-01 -8.07888567e-01
      8.36559460e-02 -3.11065376e-01 -1.13546178e-01 -7.75100827e-01</_>
    <_>
      -8.68020654e-02 -8.71128678e-01 -5.84819019e-01 2.43418741e+00
      -1.14605176e+00 -1.49295008e+00 -1.39464366e+00 1.02212870e+00
      8.07261169e-01 4.21105139e-02 3.37125033e-01 2.81298780e+00
      -5.11370838e-01 -9.52786088e-01 -7.74125159e-01 2.14835882e+00
      -8.89526606e-01 -1.33935988e+00 -1.27123475e+00 1.29983616e+00
      1.25412679e+00 5.52573860e-01 8.27688158e-01 2.95876646e+00
      -1.53443078e-04 -4.11759764e-01 -2.23870158e-01 2.53382373e+00
      -4.61129755e-01 -9.64525640e-01 -8.80943596e-01 2.01692939e+00
      1.64900541e-01 7.30674490e-02 1.42242432e-01 -8.02591741e-01
      -2.23678611e-02 -4.40352038e-02 -7.01355422e-03 -7.83707559e-01
      2.37250198e-02 1.10950328e-01 9.30722877e-02 -8.43908846e-01
      7.61883855e-02 -1.63286522e-01 -1.11180082e-01 -7.89296269e-01
      -1.21961087e-01 -1.61555842e-01 -1.53786376e-01 -7.77477920e-01
      -1.01445140e-02 1.65030509e-01 9.36512426e-02 -8.61702561e-01
      1.46729261e-01 -1.15259819e-01 -1.15464926e-01 -8.06781113e-01
      -3.80344391e-02 -2.13822857e-01 -1.62688643e-01 -7.74212658e-01</_>
    <_>
      -1.80460125e-01 -7.64172256e-01 -3.07009399e-01 2.30725718e+00
      -1.21957135e+00 -1.63958275e+00 -1.48335040e+00 9.06757176e-01
      8.56865466e-01 3.83139789e-01 7.91367948e-01 2.68307137e+00
      -3.72348994e-01 -8.91543329e-01 -6.33058131e-01 2.01888514e+00
      -9.72106576e-01 -1.47927988e+00 -1.29118073e+00 1.17791045e+00
      1.38625157e+00 1.00986266e+00 1.34895754e+00 2.82875347e+00
      2.74251789e-01 -1.94201499e-01 6.65966719e-02 2.40151858e+00
      -4.20977145e-01 -9.73531604e-01 -7.25744665e-01 1.88639474e+00
      1.56311274e-01 -2.19883230e-02 2.12088879e-02 -8.95193040e-01
      -1.22624794e-02 -1.18531473e-01 -1.04420511e-02 -8.76144528e-01
      -5.45289554e-03 -6.27718642e-02 -1.82777926e-01 -9.26839352e-01
      4.17817496e-02 -1.78607494e-01 -5.88701665e-02 -8.69342625e-01
      -5.31703830e-02 -1.94739670e-01 -7.09650666e-02 -8.54950309e-01
      -8.22808072e-02 -9.16108564e-02 -2.58253515e-01 -9.40871179e-01
      2.44827606e-02 -1.69502497e-01 -9.92039591e-02 -8.79142821e-01
      8.66608601e-03 -1.99705213e-01 -7.85332024e-02 -8.40019763e-01</_>
    <_>
      -1.49951305e-03 -8.55866790e-01 -4.08017904e-01 2.27598786e+00
      -9.96898532e-01 -1.76250398e+00 -1.58125401e+00 9.05279160e-01
      9.88684952e-01 3.01696867e-01 7.03157604e-01 2.64829969e+00
      -1.59611017e-01 -1.04510403e+00 -7.49386609e-01 1.99248600e+00
      -7.45890617e-01 -1.61810613e+00 -1.40743434e+00 1.17074728e+00
      1.48680770e+00 9.33127642e-01 1.26600289e+00 2.79317689e+00
      4.55338448e-01 -3.42483968e-01 -4.63978276e-02 2.36989427e+00
      -2.02057511e-01 -1.12870955e+00 -8.57002676e-01 1.86400747e+00
      2.18646631e-01 -1.12080403e-01 -3.92327458e-03 -8.18885446e-01
      1.78896766e-02 -1.12446882e-01 1.92039572e-02 -7.69981265e-01
      3.40637304e-02 -1.29037544e-01 -1.95483774e-01 -8.62704217e-01
      1.22296624e-01 -2.61047065e-01 -8.79184082e-02 -7.88628161e-01
      -2.17946450e-04 -2.10271731e-01 -5.88394105e-02 -7.62603879e-01
      -5.54039218e-02 -1.31419718e-01 -2.53127962e-01 -8.82007718e-01
      1.02910899e-01 -2.57279664e-01 -1.30290434e-01 -8.11495245e-01
      1.04514033e-01 -3.03256273e-01 -1.00193508e-01 -7.67451406e-01</_>
    <_>
      5.04839234e-02 -9.27604139e-01 -4.54840958e-01 2.27893591e+00
      -8.92710328e-01 -1.71613371e+00 -1.58051813e+00 9.30312872e-01
      1.02997172e+00 1.98919415e-01 6.15958631e-01 2.64415383e+00
      -8.79233107e-02 -1.11051118e+00 -8.58321548e-01 1.99950135e+00
      -5.84003150e-01 -1.60578871e+00 -1.46802723e+00 1.19112575e+00
      1.52442181e+00 8.16743255e-01 1.16272819e+00 2.78589535e+00
      5.15499711e-01 -4.47911829e-01 -1.91614702e-01 2.36937881e+00
      -3.92920524e-02 -1.16770613e+00 -9.82205749e-01 1.87203312e+00
      2.41245821e-01 -8.92660394e-02 1.84387118e-02 -8.00818801e-01
      1.50946826e-02 -1.03817999e-01 -3.19162174e-03 -7.57342577e-01
      6.45923838e-02 -1.02116890e-01 -1.48547873e-01 -8.36855352e-01
      1.60610691e-01 -2.76915759e-01 -1.09086350e-01 -7.83459008e-01
      -1.74720045e-02 -2.09289327e-01 -9.34535787e-02 -7.56091654e-01
      -2.42485646e-02 -7.41305500e-02 -1.82483733e-01 -8.52622390e-01
      1.72675565e-01 -2.51225829e-01 -1.33238658e-01 -8.01127672e-01
      1.13031559e-01 -3.28848660e-01 -1.53043628e-01 -7.67946005e-01</_>
    <_>
      -6.61820769e-02 -9.57243919e-01 -4.21808153e-01 2.32051802e+00
      -1.01240754e+00 -1.65679729e+00 -1.46898317e+00 9.61634696e-01
      9.35966015e-01 1.77502736e-01 6.32212818e-01 2.68813086e+00
      -2.58174926e-01 -1.06714404e+00 -7.86406398e-01 2.04353786e+00
      -7.23097324e-01 -1.56786013e+00 -1.33837879e+00 1.22910345e+00
      1.46670544e+00 8.34207356e-01 1.19572401e+00 2.83063960e+00
      3.79878134e-01 -3.92518640e-01 -1.22055620e-01 2.41694069e+00
      -1.90628111e-01 -1.13374758e+00 -8.61327946e-01 1.91931653e+00
      2.32427359e-01 -4.61027846e-02 7.41012916e-02 -8.02862525e-01
      7.56181357e-03 -9.94996279e-02 -2.62933550e-03 -7.64605761e-01
      4.57261726e-02 -7.08206221e-02 -1.20720826e-01 -8.37161541e-01
      1.22415625e-01 -2.83968240e-01 -8.80309865e-02 -7.90086031e-01
      -3.79064754e-02 -2.13272318e-01 -8.31136778e-02 -7.67519236e-01
      -6.97735325e-02 -8.99537206e-02 -1.97657228e-01 -8.52413297e-01
      1.02265060e-01 -2.77774423e-01 -1.18368693e-01 -8.07339489e-01
      5.54320365e-02 -3.22044522e-01 -1.23773143e-01 -7.79787719e-01</_>
    <_>
      -3.78398001e-01 -9.53751564e-01 -2.68103361e-01 2.38584042e+00
      -1.17250133e+00 -1.59716892e+00 -1.36424351e+00 9.70774949e-01
      6.17816865e-01 1.01049133e-01 7.66653419e-01 2.77158451e+00
      -5.45017540e-01 -1.10310686e+00 -6.56284630e-01 2.09131908e+00
      -9.02003169e-01 -1.47638309e+00 -1.21443367e+00 1.24293339e+00
      1.15537453e+00 7.17755616e-01 1.30312622e+00 2.92215109e+00
      3.13936956e-02 -5.14884830e-01 -1.56210847e-02 2.48113179e+00
      -4.56901431e-01 -1.12152863e+00 -7.43345201e-01 1.95661318e+00
      2.66230255e-01 -2.13125348e-02 9.26666483e-02 -7.61761367e-01
      -1.16618155e-02 -1.17871411e-01 4.99134092e-03 -6.94867611e-01
      1.59152389e-01 -6.03642724e-02 -1.26180872e-01 -8.26870799e-01
      1.32432967e-01 -2.44897619e-01 -4.92398217e-02 -7.27536738e-01
      -6.17391542e-02 -2.27283612e-01 -8.54963511e-02 -6.93129659e-01
      9.50489640e-02 -6.68248162e-02 -2.03884691e-01 -8.54663253e-01
      1.76421776e-01 -2.29405925e-01 -8.09132010e-02 -7.67115772e-01
      5.34878261e-02 -3.01262230e-01 -9.10050571e-02 -7.06984818e-01</_>
    <_>
      -2.13993043e-01 -7.83809245e-01 -3.84339362e-01 2.33558774e+00
      -1.23459339e+00 -1.59707630e+00 -1.37820435e+00 9.42961693e-01
      8.29441309e-01 3.34917039e-01 6.88665390e-01 2.70939302e+00
      -4.20976102e-01 -9.47984815e-01 -6.21171474e-01 2.05386496e+00
      -1.01353502e+00 -1.46478951e+00 -1.20554054e+00 1.21856046e+00
      1.37535787e+00 9.74009752e-01 1.27070761e+00 2.85416460e+00
      2.35779762e-01 -2.84620196e-01 5.06288223e-02 2.43541002e+00
      -4.80358988e-01 -1.03718734e+00 -7.03019500e-01 1.92739844e+00
      1.32845566e-01 2.39810106e-04 1.20088026e-01 -8.60375881e-01
      -1.90904383e-02 -1.27825633e-01 -1.53428745e-02 -8.44241202e-01
      -5.57470061e-02 -4.66200970e-02 -5.56878671e-02 -9.00407135e-01
      -1.60705633e-02 -1.84499994e-01 5.23855211e-03 -8.48730445e-01
      -7.48618469e-02 -2.10989401e-01 -7.77200907e-02 -8.39080632e-01
      -1.52251169e-01 -1.00139059e-01 -1.62050366e-01 -9.19732571e-01
      -6.23321645e-02 -1.57966778e-01 -1.75105799e-02 -8.69279981e-01
      -3.28592807e-02 -2.15075999e-01 -1.72084775e-02 -8.40363920e-01</_>
    <_>
      -2.14450002e-01 -7.56201506e-01 -3.39287907e-01 2.33615160e+00
      -1.26623309e+00 -1.59752953e+00 -1.39540613e+00 9.43905234e-01
      8.43452573e-01 3.78689140e-01 7.29919374e-01 2.71040297e+00
      -4.18075800e-01 -8.71184468e-01 -6.17787242e-01 2.05578065e+00
      -9.92543459e-01 -1.44270372e+00 -1.22215438e+00 1.21951044e+00
      1.40149546e+00 1.01115227e+00 1.29396415e+00 2.85433102e+00
      2.70110846e-01 -1.77222371e-01 6.02820851e-02 2.43615341e+00
      -4.10344183e-01 -9.38722253e-01 -6.92259312e-01 1.92759693e+00
      1.00245215e-01 1.87768675e-02 6.88180476e-02 -8.75745416e-01
      -4.76580076e-02 -9.73492488e-02 -4.71360274e-02 -8.58417332e-01
      -6.22941554e-02 -4.41266224e-02 -1.03093505e-01 -9.07495856e-01
      -4.76573370e-02 -1.71891868e-01 -6.12258092e-02 -8.55062008e-01
      -1.15188025e-01 -1.80953577e-01 -1.16922148e-01 -8.41664076e-01
      -1.55226052e-01 -1.14124984e-01 -1.99238002e-01 -9.21767771e-01
      -9.08197761e-02 -1.79133996e-01 -9.15843546e-02 -8.68309319e-01
      -1.13051012e-01 -2.03026503e-01 -1.04347058e-01 -8.34122837e-01</_>
    <_>
      -2.75732756e-01 -1.05420196e+00 -4.65482146e-01 2.49625444e+00
      -9.90940809e-01 -1.40659654e+00 -1.32541943e+00 1.09877229e+00
      4.89333302e-01 -2.40060374e-01 3.59132499e-01 2.87553167e+00
      -5.74448466e-01 -1.05120957e+00 -9.19901729e-01 2.21310854e+00
      -7.57852852e-01 -1.26794088e+00 -1.14041555e+00 1.37448180e+00
      9.32438076e-01 2.81734586e-01 8.20178151e-01 3.02215838e+00
      -1.39527708e-01 -6.15789175e-01 -4.74527031e-01 2.59681153e+00
      -4.23167884e-01 -1.04509425e+00 -8.79418552e-01 2.08430648e+00
      3.44077229e-01 5.81842177e-02 1.67454943e-01 -7.15309441e-01
      3.86999436e-02 -2.44838614e-02 2.04818062e-02 -6.88869178e-01
      1.79537311e-01 8.49034116e-02 2.71175802e-02 -7.54491627e-01
      1.52060390e-01 -2.09837213e-01 -6.24024607e-02 -7.12096334e-01
      -6.07628375e-02 -1.69783905e-01 -1.31668344e-01 -6.99759781e-01
      1.09100461e-01 1.16374671e-01 -2.38411613e-02 -7.70286679e-01
      1.79455012e-01 -1.94904312e-01 -4.42643426e-02 -7.28714347e-01
      3.77598070e-02 -2.66227514e-01 -1.45760924e-01 -7.08256721e-01</_>
    <_>
      -1.25712767e-01 -9.90325332e-01 -4.48118806e-01 2.36929274e+00
      -1.02473581e+00 -1.58877110e+00 -1.39450061e+00 9.97562110e-01
      8.84669483e-01 7.49868751e-02 5.37513554e-01 2.73885608e+00
      -3.12409222e-01 -1.08081818e+00 -8.02657664e-01 2.08823133e+00
      -7.29633868e-01 -1.52788961e+00 -1.28267610e+00 1.26636815e+00
      1.42484021e+00 7.19845533e-01 1.08179402e+00 2.88217998e+00
      3.15045923e-01 -4.48599517e-01 -1.99550673e-01 2.46319723e+00
      -2.18642518e-01 -1.15054667e+00 -8.74733806e-01 1.96025121e+00
      2.30436280e-01 -1.58142932e-02 1.13828845e-01 -7.81805933e-01
