<?xml version="1.0"?>
<opencv_storage>
<my_svm type_id="opencv-ml-svm">
  <svm_type>C_SVC</svm_type>
  <kernel><type>RBF</type>
    <gamma>1.0000000000000000e-02</gamma></kernel>
  <C>7.</C>
  <term_criteria><epsilon>9.9999999747524271e-07</epsilon>
    <iterations>1000000</iterations></term_criteria>
  <var_all>64</var_all>
  <var_count>64</var_count>
  <class_count>8</class_count>
  <class_labels type_id="opencv-matrix">
    <rows>1</rows>
    <cols>8</cols>
    <dt>i</dt>
    <data>
      0 1 2 3 4 5 6 7</data></class_labels>
  <sv_total>2069</sv_total>
  <support_vectors>
    <_>
      -3.52102220e-01 -1.03324854e+00 -4.17837173e-01 2.52778840e+00
      -1.08064032e+00 -1.31122482e+00 -1.26510620e+00 1.10773361e+00
      4.16156948e-01 -3.20757121e-01 3.98131400e-01 2.91239905e+00
      -6.92278028e-01 -9.85540867e-01 -8.51949036e-01 2.23689175e+00
      -8.76716256e-01 -1.15714836e+00 -1.08727849e+00 1.38442910e+00
      8.35791111e-01 1.11243844e-01 8.16404104e-01 3.06097865e+00
      -2.95027077e-01 -6.18912995e-01 -4.49304193e-01 2.62521076e+00
      -5.82643092e-01 -9.52033222e-01 -8.30688417e-01 2.10189486e+00
      2.94883132e-01 1.09158576e-01 1.96572334e-01 -7.23728716e-01
      2.29796562e-02 -3.51059102e-02 1.20219057e-02 -6.89142764e-01
      1.51306584e-01 1.01975776e-01 6.32387698e-02 -7.60487616e-01
      1.16893515e-01 -1.44178212e-01 -3.68599929e-02 -7.08142340e-01
      -7.66947344e-02 -1.81687236e-01 -1.25436500e-01 -6.88961864e-01
      9.53897834e-02 1.33052960e-01 2.06721611e-02 -7.75546849e-01
      1.52997479e-01 -1.41987875e-01 -1.98791176e-02 -7.23822534e-01
      2.06605978e-02 -2.16134712e-01 -1.24152660e-01 -6.94470763e-01</_>
    <_>
      -2.32316256e-01 -8.83943796e-01 -4.04459596e-01 2.45541692e+00
      -1.20160520e+00 -1.40793872e+00 -1.32404816e+00 1.03898406e+00
      7.08255112e-01 3.83555219e-02 5.04576445e-01 2.83559084e+00
      -5.38514555e-01 -8.84958029e-01 -7.73890734e-01 2.16829610e+00
      -9.58979130e-01 -1.27449942e+00 -1.14886653e+00 1.31791461e+00
      1.20425749e+00 5.97922981e-01 1.01241076e+00 2.98248315e+00
      1.05123296e-02 -3.48193079e-01 -2.27706209e-01 2.55562973e+00
      -5.27921855e-01 -9.20026064e-01 -7.46909678e-01 2.03780842e+00
      1.69974551e-01 1.11174464e-01 1.39734328e-01 -8.13953757e-01
      -2.03348231e-02 -7.21576139e-02 -2.33697090e-02 -7.99859643e-01
      -1.02560669e-02 8.57689902e-02 -1.37347709e-02 -8.51654649e-01
      -9.74468235e-03 -1.42740771e-01 -3.82519215e-02 -8.07751298e-01
      -1.33386493e-01 -1.95568189e-01 -1.30229354e-01 -7.99957216e-01
      -1.18363962e-01 2.76297983e-02 -9.96131152e-02 -8.68135571e-01
      -2.69517489e-02 -1.39476910e-01 -4.86322679e-02 -8.24493468e-01
      -9.10658166e-02 -2.07045615e-01 -1.12020135e-01 -7.99169779e-01</_>
    <_>
      -1.78458430e-02 -8.30049992e-01 -4.32115853e-01 2.30471706e+00
      -9.96806085e-01 -1.63768613e+00 -1.55496776e+00 9.38748956e-01
      9.77739334e-01 2.79096067e-01 6.54687166e-01 2.67241549e+00
      -1.90967187e-01 -1.00724828e+00 -7.84039795e-01 2.02491045e+00
      -7.02998042e-01 -1.51799476e+00 -1.41012406e+00 1.20498526e+00
      1.48517740e+00 8.94036770e-01 1.22427380e+00 2.81485415e+00
      4.29624170e-01 -3.53286386e-01 -9.54120085e-02 2.39848161e+00
      -1.56343073e-01 -1.07801557e+00 -8.93639863e-01 1.89645755e+00
      1.99620366e-01 -4.56374213e-02 1.63372811e-02 -8.37649345e-01
      -9.50448122e-03 -1.05794929e-01 -2.17648558e-02 -8.19260299e-01
      3.70793268e-02 -1.02114677e-01 -1.62223130e-01 -8.70696664e-01
      1.12868607e-01 -2.27467567e-01 -1.08430542e-01 -8.32567632e-01
      -4.69138101e-02 -2.14273542e-01 -1.11925580e-01 -8.19064319e-01
      -4.83861156e-02 -1.23114072e-01 -2.30160415e-01 -8.84565949e-01
      1.14576422e-01 -2.19711289e-01 -1.47446632e-01 -8.44105840e-01
      6.27237633e-02 -2.71682262e-01 -1.59485340e-01 -8.19923878e-01</_>
    <_>
      -1.61597356e-01 -7.82681286e-01 -4.36961532e-01 2.35449743e+00
      -1.18997836e+00 -1.55893993e+00 -1.45390689e+00 9.54771340e-01
      8.06247234e-01 2.69073814e-01 5.92508793e-01 2.73000026e+00
      -3.74256074e-01 -8.58915687e-01 -7.03569591e-01 2.07578135e+00
      -9.48344350e-01 -1.42181611e+00 -1.26737952e+00 1.23568583e+00
      1.31584799e+00 8.73581767e-01 1.14359725e+00 2.87440109e+00
      2.61343390e-01 -2.12394685e-01 -5.65052368e-02 2.45844364e+00
      -3.96953613e-01 -9.64115143e-01 -7.65334070e-01 1.95020974e+00
      1.66485339e-01 3.78245376e-02 7.63144270e-02 -9.02693152e-01
      -2.80675180e-02 -8.90184790e-02 -3.12784687e-02 -8.91096175e-01
      7.09622055e-02 4.78148237e-02 -4.66734432e-02 -9.30154979e-01
      3.99413751e-03 -1.82002097e-01 -6.11537322e-02 -8.92486989e-01
      -8.97610709e-02 -1.94021091e-01 -1.12124473e-01 -8.83341908e-01
      2.58171316e-02 3.00469864e-02 -1.00576557e-01 -9.42892790e-01
      -7.90619105e-03 -1.73995197e-01 -7.05404580e-02 -9.03369904e-01
      -5.43083735e-02 -2.18541697e-01 -1.15183957e-01 -8.80411804e-01</_>
    <_>
      -1.38266742e-01 -7.50137329e-01 -3.98970962e-01 2.32817507e+00
      -1.14956820e+00 -1.58152425e+00 -1.46298289e+00 9.40546393e-01
      8.95716667e-01 3.59446108e-01 6.76615596e-01 2.70028234e+00
      -3.04251790e-01 -8.83715093e-01 -6.88359559e-01 2.04733133e+00
      -8.82723153e-01 -1.43115616e+00 -1.31726313e+00 1.21473455e+00
      1.42941988e+00 9.80411351e-01 1.24784791e+00 2.84400988e+00
      3.58501226e-01 -1.98590294e-01 -1.21762892e-02 2.42627096e+00
      -3.05734187e-01 -9.47882056e-01 -8.10004652e-01 1.91976440e+00
      1.38478443e-01 1.05273789e-02 5.18862456e-02 -8.94339740e-01
      -3.44850756e-02 -1.02569386e-01 -3.29722129e-02 -8.82853270e-01
      -4.50674482e-02 -5.02031036e-02 -1.35200694e-01 -9.18898642e-01
      3.48776439e-03 -1.51358545e-01 -8.38413984e-02 -8.81898463e-01
      -9.43383947e-02 -1.90650418e-01 -1.10606827e-01 -8.73601854e-01
      -1.49979442e-01 -1.00752950e-01 -2.41410553e-01 -9.30289090e-01
      -4.11075167e-02 -1.48132250e-01 -1.35896221e-01 -8.90096009e-01
      -5.46246134e-02 -1.71751767e-01 -9.57090706e-02 -8.67511988e-01</_>
    <_>
      -3.55583638e-01 -9.69092727e-01 -4.40818608e-01 2.45574260e+00
      -1.13183010e+00 -1.45557642e+00 -1.26063347e+00 1.05600095e+00
      5.93912005e-01 -2.74234638e-02 4.69357759e-01 2.83231068e+00
      -5.50378382e-01 -1.07184124e+00 -6.95257843e-01 2.17088699e+00
      -8.98754537e-01 -1.36512077e+00 -1.14195263e+00 1.33200181e+00
      1.10879266e+00 5.30340731e-01 9.71414566e-01 2.97761130e+00
      1.04597257e-02 -5.59748232e-01 -1.48383811e-01 2.55309796e+00
      -4.93229389e-01 -1.10235882e+00 -7.79826820e-01 2.04190660e+00
      2.56548584e-01 5.41695952e-02 1.83460534e-01 -7.64182210e-01
      -7.89752696e-03 -7.88050592e-02 -6.85792509e-03 -7.40147173e-01
      1.39718458e-01 2.14234293e-02 5.63904904e-02 -8.07371914e-01
      7.50792474e-02 -1.97669402e-01 -6.03343099e-02 -7.60240793e-01
      -1.05394959e-01 -2.28454024e-01 -1.26349926e-01 -7.47541130e-01
      1.03705786e-01 3.14661451e-02 -5.30339824e-03 -8.23783576e-01
      1.17856957e-01 -1.86907068e-01 -8.17339644e-02 -7.79025257e-01
      -7.55169708e-03 -2.89971203e-01 -1.38017237e-01 -7.52304912e-01</_>
    <_>
      -4.16172355e-01 -1.05313694e+00 -3.59043598e-01 2.44147205e+00
      -1.12731850e+00 -1.46530080e+00 -1.20034182e+00 1.05661666e+00
      5.46912789e-01 -1.00813106e-01 5.72302878e-01 2.81572270e+00
      -6.06930614e-01 -1.13784122e+00 -6.59814298e-01 2.16039133e+00
      -8.73490810e-01 -1.41381013e+00 -1.10498238e+00 1.33025134e+00
      1.09992731e+00 5.06829083e-01 1.07795370e+00 2.96051240e+00
      -4.59600128e-02 -6.23172224e-01 -1.34635344e-01 2.54020691e+00
      -4.80826885e-01 -1.16767192e+00 -7.62109697e-01 2.03374934e+00
      2.76982605e-01 3.72851901e-02 2.03121528e-01 -7.52111793e-01
      1.57478452e-02 -7.32400566e-02 1.41958725e-02 -7.20476210e-01
      1.37847185e-01 2.95440666e-02 3.57717788e-03 -7.85842538e-01
      1.27506763e-01 -2.07700074e-01 -5.04826903e-02 -7.42169797e-01
      -6.74766451e-02 -2.20488206e-01 -1.08945675e-01 -7.24643350e-01
      6.32826611e-02 3.56857330e-02 -7.74751827e-02 -8.01019311e-01
      1.59297332e-01 -1.86179727e-01 -9.35702026e-02 -7.58548439e-01
      4.39158343e-02 -3.08205396e-01 -1.45419911e-01 -7.33470261e-01</_>
    <_>
      -6.22232305e-03 -8.77598166e-01 -4.40646440e-01 2.30139756e+00
      -9.39490438e-01 -1.66157782e+00 -1.58493280e+00 9.31092083e-01
      9.98859465e-01 2.27420181e-01 6.34272218e-01 2.67119503e+00
      -1.24065869e-01 -1.03957462e+00 -8.34801257e-01 2.01413178e+00
      -6.03625655e-01 -1.55070865e+00 -1.47762001e+00 1.19270146e+00
      1.50569546e+00 8.43633294e-01 1.18641555e+00 2.81431913e+00
      4.98272896e-01 -3.70507091e-01 -1.53230593e-01 2.38737679e+00
      -4.55040559e-02 -1.09487891e+00 -9.71687019e-01 1.88005471e+00
      2.30364367e-01 -6.50281981e-02 -9.45814827e-04 -8.16059232e-01
      -4.39083437e-03 -1.09143890e-01 -2.01604497e-02 -7.69129097e-01
      6.60597607e-02 -9.68340561e-02 -1.83924243e-01 -8.51016819e-01
      1.36431411e-01 -2.62564749e-01 -1.57347649e-01 -7.90573776e-01
      -4.38732058e-02 -2.27378964e-01 -1.12634949e-01 -7.62192667e-01
      -8.10862053e-03 -7.69576281e-02 -2.12930143e-01 -8.64969552e-01
      1.61043257e-01 -2.62140274e-01 -2.03332573e-01 -8.05837274e-01
      8.96548554e-02 -3.24872911e-01 -1.92642808e-01 -7.68729508e-01</_>
    <_>
      -1.90674007e-01 -9.36719000e-01 -5.79506516e-01 2.42601919e+00
      -1.17660224e+00 -1.46314120e+00 -1.32814980e+00 1.02299106e+00
      7.49014616e-01 6.21950552e-02 3.86783570e-01 2.80228519e+00
      -5.13906658e-01 -9.40186501e-01 -7.14853287e-01 2.14558840e+00
      -9.43255365e-01 -1.33479333e+00 -1.16030288e+00 1.30335391e+00
      1.25294161e+00 6.64576590e-01 9.40883517e-01 2.94728041e+00
      8.21486190e-02 -3.46687764e-01 -1.17694683e-01 2.52931261e+00
      -4.73324060e-01 -9.62140799e-01 -7.41652787e-01 2.01914167e+00
      1.89873666e-01 8.10210258e-02 1.75471425e-01 -8.45913351e-01
      -2.78952997e-02 -7.70481825e-02 -2.26639062e-02 -8.36138487e-01
      6.08175658e-02 8.82972851e-02 8.89962837e-02 -8.72082591e-01
      1.83470622e-02 -1.72474727e-01 -7.19686300e-02 -8.39784384e-01
      -1.14101417e-01 -1.99814320e-01 -1.27626508e-01 -8.33689213e-01
      1.50804510e-02 9.68564153e-02 3.42431031e-02 -8.83894980e-01
      1.24376388e-02 -1.54600680e-01 -1.08321570e-01 -8.49244356e-01
      -7.26440474e-02 -2.14574173e-01 -1.16925173e-01 -8.30961287e-01</_>
    <_>
      -1.68114230e-01 -7.19800055e-01 -3.32994908e-01 2.33571887e+00
      -1.25451529e+00 -1.58644962e+00 -1.44209957e+00 9.32425439e-01
      8.61036301e-01 3.74545902e-01 7.38538742e-01 2.71254754e+00
      -4.13355529e-01 -8.40047002e-01 -6.05736196e-01 2.05574155e+00
      -1.01893735e+00 -1.39422882e+00 -1.20998287e+00 1.21403205e+00
      1.37961984e+00 9.74590063e-01 1.28202736e+00 2.85808659e+00
      2.33296603e-01 -1.73581839e-01 6.48692623e-02 2.44048834e+00
      -4.54362720e-01 -8.91791940e-01 -6.54468298e-01 1.93094456e+00
      8.46344680e-02 1.25548569e-02 4.43289988e-02 -9.01737571e-01
      -4.18674201e-02 -1.18611529e-01 -4.30262685e-02 -8.84635031e-01
      -1.04542337e-01 -6.82949368e-03 -1.27930015e-01 -9.36712682e-01
      -2.58555319e-02 -1.51991874e-01 -7.22003654e-02 -8.85322750e-01
      -1.06004648e-01 -1.89877495e-01 -1.20920718e-01 -8.75093460e-01
      -1.91787690e-01 -3.27735282e-02 -1.97369933e-01 -9.53507483e-01
      -5.06459065e-02 -1.20117426e-01 -8.31853375e-02 -9.02001560e-01
      -7.41646364e-02 -1.81755766e-01 -1.17085487e-01 -8.72007608e-01</_>
    <_>
      -4.20844048e-01 -1.05444109e+00 -3.49902928e-01 2.44694257e+00
      -1.12841308e+00 -1.45873797e+00 -1.21197927e+00 1.05973458e+00
      5.37899733e-01 -8.25284421e-02 5.81952214e-01 2.82123971e+00
      -6.11381948e-01 -1.07959461e+00 -6.58568501e-01 2.16600800e+00
      -8.80101502e-01 -1.39728856e+00 -1.09448040e+00 1.33404529e+00
      1.09354377e+00 5.23560464e-01 1.09491444e+00 2.96583652e+00
      -5.14909141e-02 -5.45074046e-01 -1.18387267e-01 2.54606438e+00
      -4.83741313e-01 -1.13244915e+00 -7.26674139e-01 2.03906226e+00
      2.67671227e-01 5.14588617e-02 1.88873440e-01 -7.67336965e-01
      7.09711341e-03 -7.07762688e-02 3.66184115e-03 -7.42568374e-01
      1.21539012e-01 3.00963260e-02 -1.02029182e-02 -7.96768785e-01
      1.04828991e-01 -2.25400060e-01 -4.33691517e-02 -7.59064555e-01
      -7.40146413e-02 -2.05564752e-01 -1.18140809e-01 -7.44363546e-01
      4.39552180e-02 2.64389105e-02 -8.94995704e-02 -8.10082614e-01
      1.36897966e-01 -2.38735333e-01 -6.57900646e-02 -7.72144258e-01
      2.29614265e-02 -3.05180967e-01 -1.40938029e-01 -7.50263035e-01</_>
    <_>
      -2.21239984e-01 -8.11473668e-01 -4.06303376e-01 2.36886287e+00
      -1.23493958e+00 -1.50808275e+00 -1.40887880e+00 9.65273082e-01
      8.13203454e-01 2.92413980e-01 6.60806298e-01 2.74577451e+00
      -4.98430550e-01 -8.92158329e-01 -7.09644079e-01 2.08581042e+00
      -1.02930582e+00 -1.34077489e+00 -1.19796216e+00 1.24354184e+00
      1.35283649e+00 9.17908013e-01 1.22938395e+00 2.89144921e+00
      1.38757929e-01 -2.51955330e-01 -5.40676266e-02 2.47070694e+00
      -5.37674189e-01 -8.99889886e-01 -7.00837255e-01 1.95895410e+00
      1.40870243e-01 4.64641303e-02 9.18010771e-02 -8.61355245e-01
      -3.02375574e-02 -8.96560177e-02 -3.25631760e-02 -8.41975510e-01
      -7.10663050e-02 -1.82194542e-02 -1.06898159e-01 -8.97140920e-01
      3.84173170e-03 -1.33749247e-01 -4.32677381e-02 -8.43667209e-01
      -9.38564241e-02 -1.74117520e-01 -1.07896917e-01 -8.31721663e-01
      -1.69806466e-01 -7.31285289e-02 -2.02522561e-01 -9.13890839e-01
      -2.50272527e-02 -1.08277917e-01 -5.80139458e-02 -8.60564709e-01
      -3.55622955e-02 -1.61508232e-01 -1.00826368e-01 -8.28523755e-01</_>
    <_>
      -4.89435159e-02 -8.49392831e-01 -4.26272601e-01 2.30625987e+00
      -9.82012749e-01 -1.62715805e+00 -1.57524192e+00 9.28361773e-01
      9.78278518e-01 2.49001652e-01 6.57001555e-01 2.67892098e+00
      -1.53923482e-01 -9.97958302e-01 -8.21420431e-01 2.01816916e+00
      -6.61679983e-01 -1.51813400e+00 -1.46496069e+00 1.19145632e+00
      1.49318624e+00 8.70171547e-01 1.21667624e+00 2.82327437e+00
      4.71612185e-01 -3.43402773e-01 -1.38586387e-01 2.39436626e+00
      -1.05444312e-01 -1.07592642e+00 -9.55500245e-01 1.88379943e+00
      2.25072280e-01 -3.83559056e-02 4.37761890e-03 -8.32456589e-01
      -2.17166939e-03 -1.05932437e-01 -1.56195275e-02 -7.95847356e-01
      4.47129682e-02 -9.43193957e-02 -1.89668968e-01 -8.64679217e-01
      1.21457785e-01 -2.40765050e-01 -1.30801708e-01 -8.06873858e-01
      -4.82371449e-02 -2.17980444e-01 -1.10642321e-01 -7.84118056e-01
      -3.90127301e-02 -1.07539698e-01 -2.39378870e-01 -8.79057288e-01
      1.33129418e-01 -2.41843402e-01 -1.70620665e-01 -8.19909215e-01
      7.76783302e-02 -2.95991331e-01 -1.66857943e-01 -7.82324851e-01</_>
    <_>
      -2.58003086e-01 -8.94713998e-01 -4.65931147e-01 2.40940857e+00
      -1.15363753e+00 -1.48367310e+00 -1.36366868e+00 1.00880575e+00
      7.37288296e-01 1.32460967e-01 5.30103505e-01 2.78525877e+00
      -4.84329998e-01 -9.34823334e-01 -7.09318399e-01 2.12618685e+00
      -9.33587968e-01 -1.35372639e+00 -1.21855485e+00 1.28607559e+00
      1.27672338e+00 7.35677481e-01 1.08238661e+00 2.93034482e+00
      1.19825654e-01 -3.39507431e-01 -9.47922692e-02 2.50851130e+00
      -4.71122175e-01 -9.65555847e-01 -7.76754856e-01 1.99769855e+00
      1.85016111e-01 6.72411844e-02 1.39552012e-01 -8.46507192e-01
      -3.71243395e-02 -8.51797163e-02 -3.44438441e-02 -8.34840834e-01
      2.04928350e-02 5.29260412e-02 1.32312803e-02 -8.73439610e-01
      2.56263725e-02 -1.60559773e-01 -7.70930871e-02 -8.36133420e-01
      -1.22257136e-01 -1.94761723e-01 -1.42158732e-01 -8.27094793e-01
      -6.65527657e-02 4.81489375e-02 -4.01922278e-02 -8.85526180e-01
      2.96599418e-02 -1.30782798e-01 -8.08043629e-02 -8.46501231e-01
      -3.79732363e-02 -2.15340227e-01 -1.49232075e-01 -8.22450340e-01</_>
    <_>
      -4.09189820e-01 -1.05033672e+00 -4.25185472e-01 2.43856478e+00
      -1.13281107e+00 -1.48333430e+00 -1.27009749e+00 1.03836608e+00
      5.56529462e-01 -4.76034358e-02 5.34305334e-01 2.81772685e+00
      -5.73152781e-01 -1.06922042e+00 -7.12032259e-01 2.15302968e+00
      -8.85934949e-01 -1.42378056e+00 -1.14514685e+00 1.31379545e+00
      1.11645651e+00 5.78556478e-01 1.07820690e+00 2.96464181e+00
      4.00190428e-03 -5.11975586e-01 -1.37949422e-01 2.53791356e+00
      -4.66856837e-01 -1.12397170e+00 -7.60253549e-01 2.02455306e+00
      2.82382905e-01 3.43468748e-02 1.80723876e-01 -7.53192067e-01
      8.40004347e-03 -8.72191563e-02 6.14026096e-03 -7.08105087e-01
      1.41715676e-01 9.30757355e-03 3.35819880e-03 -7.97613084e-01
      1.15135700e-01 -2.59508222e-01 -3.28278877e-02 -7.31254101e-01
      -5.88039905e-02 -2.36072481e-01 -9.96837765e-02 -7.10279226e-01
      6.69031963e-02 1.24668777e-02 -6.29758909e-02 -8.17012489e-01
      1.40589491e-01 -2.51983494e-01 -4.96464223e-02 -7.57426023e-01
      4.39457521e-02 -3.26434076e-01 -1.11877978e-01 -7.21315682e-01</_>
    <_>
      -3.41950178e-01 -8.45461071e-01 -3.15751761e-01 2.40308189e+00
      -1.28123140e+00 -1.52272511e+00 -1.33066964e+00 9.86633956e-01
      6.41620338e-01 1.81961775e-01 6.60050631e-01 2.78256369e+00
      -6.01570785e-01 -9.10506308e-01 -6.42767727e-01 2.11460686e+00
      -1.05237997e+00 -1.36938393e+00 -1.12874150e+00 1.26456785e+00
      1.16511798e+00 7.68087149e-01 1.18533111e+00 2.92854333e+00
      -1.57945491e-02 -3.16653401e-01 -3.42513248e-02 2.49985528e+00
      -5.96926332e-01 -9.65705812e-01 -6.47070110e-01 1.98123193e+00
      1.71371028e-01 4.07550111e-02 1.10342771e-01 -8.48711848e-01
      -1.49351722e-02 -1.02026016e-01 -1.38421152e-02 -8.30514431e-01
      2.70376168e-02 3.48446369e-02 -6.73331097e-02 -8.90501022e-01
      5.59606664e-02 -1.92930937e-01 -2.46820822e-02 -8.41080606e-01
      -7.16973543e-02 -2.04859719e-01 -9.51071978e-02 -8.31733108e-01
      -3.47799473e-02 3.61692533e-02 -1.13108844e-01 -9.09187376e-01
      8.41720775e-02 -1.55412883e-01 8.04148789e-04 -8.60686004e-01
      1.08730718e-02 -2.19946280e-01 -5.85158467e-02 -8.34451199e-01</_>
    <_>
      -3.30076218e-01 -1.04339349e+00 -4.29527640e-01 2.48670173e+00
      -1.07238328e+00 -1.36683035e+00 -1.33450341e+00 1.07183993e+00
      5.14628172e-01 -2.49628291e-01 4.35385108e-01 2.86930132e+00
      -5.86554646e-01 -1.03127193e+00 -8.98077250e-01 2.19629240e+00
      -8.38654280e-01 -1.21728647e+00 -1.16889322e+00 1.34687042e+00
      9.78630722e-01 2.37326354e-01 9.11447048e-01 3.01711369e+00
      -1.27146289e-01 -6.14598453e-01 -4.13001359e-01 2.58310843e+00
      -4.97751474e-01 -9.76021767e-01 -8.55921209e-01 2.06154180e+00
      3.17365825e-01 1.01325274e-01 1.56124294e-01 -7.54928052e-01
      1.51257934e-02 -3.66343595e-02 1.42092351e-02 -7.27403641e-01
      1.97605222e-01 9.18386132e-02 6.05015503e-03 -7.88881063e-01
      1.47865042e-01 -1.36272028e-01 -6.59616143e-02 -7.38290668e-01
      -7.20797405e-02 -1.66845798e-01 -1.20487779e-01 -7.21636951e-01
      1.31378427e-01 1.26659960e-01 -5.02492264e-02 -8.04482281e-01
      1.96506143e-01 -1.14119992e-01 -6.63420185e-02 -7.53228843e-01
      5.02199270e-02 -2.10994422e-01 -1.59075886e-01 -7.23025382e-01</_>
    <_>
      -2.83650577e-01 -9.47774649e-01 -4.07053441e-01 2.40382242e+00
      -1.09115314e+00 -1.51222801e+00 -1.33775318e+00 1.00972259e+00
      7.31156647e-01 7.52691180e-02 5.76363266e-01 2.77936292e+00
      -4.47333157e-01 -1.05645823e+00 -7.41440117e-01 2.11551070e+00
      -7.98467398e-01 -1.44069064e+00 -1.24039423e+00 1.27880919e+00
      1.29036033e+00 6.97115839e-01 1.12065876e+00 2.92430282e+00
      1.72830656e-01 -4.74685937e-01 -1.44472793e-01 2.49604130e+00
      -3.16573590e-01 -1.11416554e+00 -8.39688838e-01 1.98228276e+00
      2.49907866e-01 2.81365514e-02 1.51924625e-01 -8.01856816e-01
      -1.08988974e-02 -1.07207909e-01 -2.26725470e-02 -7.69008160e-01
      8.46020058e-02 -3.24678198e-02 -3.24684754e-02 -8.31960022e-01
      1.10676594e-01 -2.26264194e-01 -7.72907883e-02 -7.87609458e-01
      -7.22872242e-02 -2.05174699e-01 -1.19505368e-01 -7.67966151e-01
      -1.61220636e-02 -6.48278594e-02 -1.23671018e-01 -8.44437957e-01
      1.26923025e-01 -2.36697406e-01 -1.16081603e-01 -7.98722446e-01
      4.14117463e-02 -2.71907061e-01 -1.44129932e-01 -7.71972001e-01</_>
    <_>
      -2.95888662e-01 -9.89082038e-01 -4.07151759e-01 2.46111703e+00
      -1.13673151e+00 -1.41181624e+00 -1.34804296e+00 1.04370165e+00
      6.23363137e-01 -9.50299948e-02 5.20779252e-01 2.84201908e+00
      -5.15089512e-01 -9.74494874e-01 -8.11702192e-01 2.17249537e+00
      -9.02020037e-01 -1.27024937e+00 -1.17764568e+00 1.32200456e+00
      1.12481725e+00 4.56843525e-01 1.02168894e+00 2.98836756e+00
      2.86872238e-02 -4.83730733e-01 -2.71782964e-01 2.55824161e+00
      -4.75252122e-01 -9.68969941e-01 -8.02286446e-01 2.03876305e+00
      2.36024305e-01 9.13463086e-02 1.34847015e-01 -7.88744688e-01
      -6.03696657e-03 -6.73597157e-02 -1.91904940e-02 -7.67883480e-01
      9.75306183e-02 7.29380846e-02 -3.94975282e-02 -8.30726802e-01
      5.33815995e-02 -1.60222828e-01 -4.91442494e-02 -7.78145671e-01
      -1.02067828e-01 -1.97023436e-01 -1.25448048e-01 -7.68024147e-01
      3.34505104e-02 7.09587038e-02 -1.00604236e-01 -8.48250985e-01
      8.58423039e-02 -1.49585962e-01 -3.85690778e-02 -7.97192276e-01
      -8.27232655e-03 -2.20968321e-01 -1.10177092e-01 -7.69105613e-01</_>
    <_>
      -4.48138624e-01 -9.69166815e-01 -2.45744482e-01 2.40703726e+00
      -1.17295480e+00 -1.50097644e+00 -1.30837691e+00 1.00082445e+00
      5.02894700e-01 9.54286195e-03 7.40910470e-01 2.78879738e+00
      -6.74571216e-01 -1.09219980e+00 -6.83884025e-01 2.11464643e+00
      -8.95366549e-01 -1.41404605e+00 -1.19949925e+00 1.27130997e+00
      1.01254857e+00 5.84758639e-01 1.24456322e+00 2.93697095e+00
      -1.61342129e-01 -5.76889932e-01 -1.11955553e-01 2.49973774e+00
      -5.20382702e-01 -1.13679087e+00 -8.08043063e-01 1.97974539e+00
      3.13953698e-01 6.94368258e-02 1.54574543e-01 -7.77746856e-01
      1.57094724e-03 -9.22570899e-02 1.27889644e-02 -7.37620652e-01
      2.19401911e-01 4.60910536e-02 -8.74148011e-02 -8.18327308e-01
      2.00915650e-01 -1.98807493e-01 -4.42397371e-02 -7.49949455e-01
      -5.73950522e-02 -2.13222787e-01 -1.04699403e-01 -7.23555267e-01
      1.73179999e-01 4.61752862e-02 -1.77498087e-01 -8.36440265e-01
      2.86347955e-01 -1.81682840e-01 -8.42905641e-02 -7.67299116e-01
      9.59078744e-02 -2.85394877e-01 -1.35385975e-01 -7.21075952e-01</_>
    <_>
      -8.31996873e-02 -8.82059216e-01 -3.94808322e-01 2.31004405e+00
      -1.06912446e+00 -1.74802458e+00 -1.47081256e+00 9.37494278e-01
      9.14532304e-01 2.71336734e-01 6.64684594e-01 2.68124628e+00
      -2.62614548e-01 -1.06268036e+00 -7.21297681e-01 2.02609515e+00
      -7.98869789e-01 -1.63268268e+00 -1.31026173e+00 1.20436108e+00
      1.42079699e+00 9.18601811e-01 1.22907424e+00 2.82597876e+00
      3.57320219e-01 -3.62279803e-01 -4.80921306e-02 2.40336418e+00
      -2.67237127e-01 -1.16277444e+00 -8.01402092e-01 1.89855123e+00
      2.02706620e-01 -1.03453644e-01 5.54581396e-02 -8.00659895e-01
      1.33581161e-02 -1.28145278e-01 6.63567986e-03 -7.49269247e-01
      4.89324257e-02 -9.95463952e-02 -1.14762872e-01 -8.44196320e-01
      9.96219441e-02 -3.10072452e-01 -5.74834980e-02 -7.73411095e-01
      -2.76124775e-02 -2.50365466e-01 -7.18757808e-02 -7.46506393e-01
      -1.76093914e-02 -9.30790678e-02 -1.73868477e-01 -8.64813507e-01
      1.02484547e-01 -2.74769604e-01 -7.27525502e-02 -8.00694108e-01
      6.20396174e-02 -3.50617409e-01 -8.95039886e-02 -7.61428714e-01</_>
    <_>
      -2.09570915e-01 -9.77608144e-01 -4.19721633e-01 2.39590335e+00
      -1.06094897e+00 -1.55143499e+00 -1.38356972e+00 9.97436881e-01
      8.06976616e-01 5.56183048e-02 5.51690936e-01 2.77155209e+00
      -3.67897719e-01 -1.07061172e+00 -7.74567306e-01 2.10391116e+00
      -7.39785016e-01 -1.48210633e+00 -1.28656840e+00 1.26573467e+00
      1.34759676e+00 6.87020063e-01 1.08798099e+00 2.91698194e+00
      2.48652905e-01 -4.64766294e-01 -1.70455649e-01 2.48352170e+00
      -2.40832865e-01 -1.12668049e+00 -8.64481330e-01 1.96692348e+00
      2.31972128e-01 2.34224908e-02 1.27222016e-01 -7.92314649e-01
      -6.06669905e-03 -9.65495706e-02 -2.13140119e-02 -7.40079165e-01
      5.76903597e-02 -4.44498518e-03 -4.41164300e-02 -8.24209213e-01
      9.57778469e-02 -2.47807413e-01 -1.03680395e-01 -7.63167381e-01
      -8.49020407e-02 -2.20214680e-01 -1.44435510e-01 -7.26632953e-01
      -1.92214213e-02 -7.32260011e-03 -1.04548439e-01 -8.37201059e-01
      1.19577624e-01 -2.46517763e-01 -1.31029159e-01 -7.77397633e-01
      3.38426605e-02 -3.02083373e-01 -2.03609854e-01 -7.36533403e-01</_>
    <_>
      -1.57293484e-01 -8.24223459e-01 -3.69931906e-01 2.34566069e+00
      -1.12094808e+00 -1.61232817e+00 -1.48159504e+00 9.56099033e-01
      8.30501199e-01 2.51683056e-01 6.83754146e-01 2.71890879e+00
      -3.36780280e-01 -9.69577849e-01 -7.21050978e-01 2.06241226e+00
      -8.41461480e-01 -1.45941865e+00 -1.31722474e+00 1.22842622e+00
      1.34376228e+00 8.63998652e-01 1.22708714e+00 2.86272502e+00
      2.93452829e-01 -3.15955967e-01 -5.92448488e-02 2.44120121e+00
      -2.94556886e-01 -1.01654840e+00 -8.09363067e-01 1.93246293e+00
      1.93275303e-01 -2.02682223e-02 4.35565226e-02 -8.59173775e-01
      -5.76289278e-03 -1.07692465e-01 -1.65176075e-02 -8.32655609e-01
      7.07154199e-02 -2.98970640e-02 -1.17908768e-01 -8.92145514e-01
      6.38680086e-02 -2.31591105e-01 -7.58554116e-02 -8.45577478e-01
      -7.37632886e-02 -2.09936857e-01 -9.57258716e-02 -8.29676330e-01
      1.95201151e-02 -3.32237370e-02 -1.61451265e-01 -9.05804574e-01
      5.95323220e-02 -2.35880092e-01 -1.00244209e-01 -8.58358860e-01
      -1.98687986e-02 -2.78317392e-01 -1.18617930e-01 -8.29184592e-01</_>
    <_>
      -1.66999117e-01 -8.03259194e-01 -2.82509655e-01 2.29980421e+00
      -1.17383718e+00 -1.64462090e+00 -1.45079160e+00 9.16813910e-01
      8.88043880e-01 3.76084507e-01 8.29163134e-01 2.67028117e+00
      -3.92770946e-01 -9.42355454e-01 -6.03648484e-01 2.01349425e+00
      -9.17981386e-01 -1.48869336e+00 -1.26589489e+00 1.18363845e+00
      1.42834699e+00 1.02779412e+00 1.38994265e+00 2.81348157e+00
      2.65316933e-01 -2.27763280e-01 1.10253401e-01 2.38984609e+00
      -3.79930675e-01 -9.95456278e-01 -6.96627259e-01 1.88108099e+00
      1.80789784e-01 -6.02274090e-02 3.85225266e-02 -8.79897237e-01
      -2.65253801e-03 -1.31623656e-01 2.99977348e-03 -8.60911727e-01
      -2.22356357e-02 -1.36608422e-01 -2.06395671e-01 -9.09825504e-01
      1.10011123e-01 -2.27451056e-01 -6.73026219e-02 -8.67264330e-01
      -2.85340659e-02 -2.09404483e-01 -6.30809143e-02 -8.53289843e-01
      -1.26288846e-01 -1.88461944e-01 -2.94864953e-01 -9.21895921e-01
      9.51128528e-02 -2.59295642e-01 -1.47337496e-01 -8.76317978e-01
      6.17390722e-02 -2.58227646e-01 -9.19289514e-02 -8.48097086e-01</_>
    <_>
      -4.62647453e-02 -8.94221485e-01 -4.62676078e-01 2.32089782e+00
      -9.21417832e-01 -1.63150334e+00 -1.58389544e+00 9.46192205e-01
      9.15729463e-01 1.76801786e-01 6.00688636e-01 2.69321012e+00
      -1.11020617e-01 -1.01462793e+00 -8.54250252e-01 2.03795671e+00
      -6.08644783e-01 -1.52762389e+00 -1.44668639e+00 1.21354175e+00
      1.41440773e+00 7.85518050e-01 1.15228593e+00 2.83818555e+00
      4.96830970e-01 -3.79091948e-01 -1.83449432e-01 2.41636777e+00
      -5.52118607e-02 -1.10835159e+00 -9.50308919e-01 1.91059077e+00
      2.80704588e-01 -4.56084721e-02 -1.25325518e-02 -8.23833466e-01
      -7.84845930e-03 -7.88184181e-02 -1.21978223e-02 -7.86743581e-01
      1.43723130e-01 -5.64845055e-02 -1.88820064e-01 -8.57536316e-01
      1.13855816e-01 -2.52336830e-01 -1.54959917e-01 -8.06471288e-01
      -6.36359826e-02 -2.03845873e-01 -1.22335002e-01 -7.85806596e-01
      7.18084127e-02 -4.20409031e-02 -2.15632692e-01 -8.72805417e-01
      1.13857202e-01 -2.56628007e-01 -1.76942214e-01 -8.21738183e-01
      4.45188619e-02 -2.88935602e-01 -1.81769684e-01 -7.92118967e-01</_>
    <_>
      -1.45879865e-01 -8.11445117e-01 -4.00295526e-01 2.34819794e+00
      -1.15126193e+00 -1.58505213e+00 -1.46754730e+00 9.57200229e-01
      8.77624691e-01 2.88849324e-01 6.71619892e-01 2.72027612e+00
      -3.19954842e-01 -9.08106327e-01 -7.30066299e-01 2.06484747e+00
      -8.51263881e-01 -1.42129970e+00 -1.33231509e+00 1.22973311e+00
      1.40156209e+00 9.08931017e-01 1.23783875e+00 2.86436844e+00
      3.34943414e-01 -2.29723558e-01 -4.47425395e-02 2.44528747e+00
      -2.74762958e-01 -9.26154256e-01 -8.12780321e-01 1.93695307e+00
      1.34095296e-01 1.51528092e-02 3.28048579e-02 -8.65818918e-01
      -5.30973189e-02 -8.62636194e-02 -6.00272454e-02 -8.49668503e-01
      -1.35636879e-02 8.37674364e-03 -1.58197522e-01 -8.94991696e-01
      -2.23555490e-02 -1.92806602e-01 -1.04265079e-01 -8.46464574e-01
      -1.22256197e-01 -1.66379780e-01 -1.36379078e-01 -8.33193123e-01
      -8.40094164e-02 -1.83218601e-03 -2.26593688e-01 -9.06635046e-01
      -3.19507122e-02 -1.72867849e-01 -1.18647568e-01 -8.56093347e-01
      -9.36166421e-02 -2.07228824e-01 -1.37266636e-01 -8.23541045e-01</_>
    <_>
      -7.41968006e-02 -7.42360175e-01 -3.69844079e-01 2.30307412e+00
      -1.18486392e+00 -1.62046027e+00 -1.48376715e+00 9.17715251e-01
      9.63140547e-01 3.93503487e-01 7.33760715e-01 2.67555928e+00
      -3.11624229e-01 -8.93648684e-01 -6.68839633e-01 2.02390456e+00
      -9.19070780e-01 -1.48440957e+00 -1.29078162e+00 1.19271874e+00
      1.48322070e+00 1.01114619e+00 1.30000174e+00 2.81928039e+00
      3.56262028e-01 -2.08685011e-01 2.13882253e-02 2.40366721e+00
      -3.42041045e-01 -9.91536796e-01 -7.51121700e-01 1.89837098e+00
      9.21838507e-02 1.85909367e-03 4.76101749e-02 -8.74270320e-01
      -3.65824141e-02 -1.13639206e-01 -3.49092372e-02 -8.52311432e-01
      -1.10659957e-01 -6.51811361e-02 -1.59550577e-01 -9.16677177e-01
      -4.74505825e-03 -1.57293603e-01 -5.78511991e-02 -8.59162807e-01
      -9.16417688e-02 -1.91735506e-01 -9.76204723e-02 -8.47213745e-01
      -2.04511210e-01 -1.15165129e-01 -2.57107913e-01 -9.35124695e-01
      -4.26619276e-02 -1.40720844e-01 -1.06031463e-01 -8.79927337e-01
      -4.02538441e-02 -1.68344021e-01 -9.38540027e-02 -8.46367538e-01</_>
    <_>
      -2.33400941e-01 -8.31974268e-01 -3.77612352e-01 2.35067964e+00
      -1.22253489e+00 -1.58881974e+00 -1.38115633e+00 9.51545179e-01
      8.09595942e-01 2.90819287e-01 6.92126453e-01 2.72515011e+00
      -4.13185686e-01 -9.02726233e-01 -6.01446748e-01 2.06655431e+00
      -9.72221017e-01 -1.43398702e+00 -1.20387518e+00 1.22667432e+00
      1.35770535e+00 9.34576333e-01 1.26506472e+00 2.86958718e+00
      2.52442926e-01 -2.18242079e-01 8.20577070e-02 2.44824958e+00
      -4.20476675e-01 -9.43938792e-01 -6.58681631e-01 1.93729889e+00
      1.39892057e-01 2.33089505e-03 1.00760534e-01 -8.91438365e-01
      -3.58901285e-02 -1.36466786e-01 -2.97090020e-02 -8.77662003e-01
      -3.24777067e-02 -1.43960062e-02 -6.44432530e-02 -9.17972147e-01
      -7.76437204e-03 -2.14742765e-01 -3.59495319e-02 -8.73018563e-01
      -9.61328298e-02 -2.21247450e-01 -8.94738436e-02 -8.62246692e-01
      -1.25651658e-01 -6.91960528e-02 -1.59123406e-01 -9.30013657e-01
      -3.98359448e-02 -1.92099884e-01 -6.63717166e-02 -8.82757485e-01
      -5.38395122e-02 -2.49789089e-01 -7.55386427e-02 -8.53583574e-01</_>
    <_>
      -1.25210777e-01 -7.76015341e-01 -3.94111574e-01 2.31408668e+00
      -1.11819565e+00 -1.61045694e+00 -1.50969279e+00 9.29804146e-01
      9.22319472e-01 3.45522523e-01 7.01124430e-01 2.68683028e+00
      -2.82408714e-01 -9.28090036e-01 -7.21687675e-01 2.03089070e+00
      -8.19767594e-01 -1.47460401e+00 -1.35522568e+00 1.20001447e+00
      1.45953500e+00 9.71425235e-01 1.27159703e+00 2.83015323e+00
      3.75824630e-01 -2.41541743e-01 -2.44562868e-02 2.40804720e+00
      -2.54086763e-01 -9.92364526e-01 -8.08532655e-01 1.89980161e+00
      1.74247578e-01 -1.95651613e-02 3.65728848e-02 -8.67989302e-01
      -2.41810605e-02 -1.16254285e-01 -2.28532385e-02 -8.49512935e-01
      -6.55496866e-03 -9.17357281e-02 -1.67187989e-01 -9.03801978e-01
      7.18886331e-02 -1.88302264e-01 -8.38193372e-02 -8.59258056e-01
      -7.69608170e-02 -1.94710672e-01 -9.83076245e-02 -8.48152816e-01
      -1.15012690e-01 -1.32105693e-01 -2.56441712e-01 -9.17976201e-01
      6.14788495e-02 -1.95236593e-01 -1.42876118e-01 -8.71646523e-01
      1.25542218e-02 -2.31683195e-01 -1.40535191e-01 -8.44607592e-01</_>
    <_>
      -1.69674784e-01 -7.96744049e-01 -3.36015701e-01 2.34044766e+00
      -1.15237617e+00 -1.56920457e+00 -1.46677649e+00 9.55615461e-01
      8.59501719e-01 3.02840561e-01 7.39758313e-01 2.71297717e+00
      -3.52224410e-01 -9.24529433e-01 -7.18506753e-01 2.06292391e+00
      -8.69170964e-01 -1.41354525e+00 -1.31014919e+00 1.23181307e+00
      1.39875746e+00 9.20513988e-01 1.29436970e+00 2.85683155e+00
      3.01521361e-01 -2.66304702e-01 -5.00940457e-02 2.44228005e+00
      -3.20878536e-01 -9.60194290e-01 -8.14042151e-01 1.93770194e+00
      1.59138709e-01 2.84504052e-03 2.61256639e-02 -8.53465319e-01
      -2.95024496e-02 -9.76792276e-02 -3.94708253e-02 -8.39420557e-01
      -1.66213531e-02 -5.87694421e-02 -2.03526542e-01 -8.85508358e-01
      3.02594677e-02 -1.69103205e-01 -7.62707368e-02 -8.38027000e-01
      -8.86329561e-02 -1.93663567e-01 -1.24791034e-01 -8.28218281e-01
      -1.24706022e-01 -1.02236062e-01 -2.99053103e-01 -8.99313271e-01
      -4.01185034e-03 -1.69639587e-01 -1.09880112e-01 -8.48749876e-01
      -2.85206847e-02 -2.09057674e-01 -1.28623992e-01 -8.19328249e-01</_>
    <_>
      -3.96010846e-01 -9.79129612e-01 -3.81610543e-01 2.43577337e+00
      -1.18919396e+00 -1.45664084e+00 -1.25485122e+00 1.03862083e+00
      5.96061587e-01 1.29056927e-02 5.84501863e-01 2.81093097e+00
      -5.92143834e-01 -1.00775743e+00 -6.53573692e-01 2.15201211e+00
      -9.42233860e-01 -1.37468100e+00 -1.12726355e+00 1.31381321e+00
      1.14422667e+00 6.21428907e-01 1.11253107e+00 2.95571542e+00
      -2.41886266e-03 -4.51180905e-01 -6.62133098e-02 2.53306055e+00
      -5.10890663e-01 -1.04661882e+00 -7.06574023e-01 2.02246141e+00
      2.23535553e-01 6.27999976e-02 1.82457715e-01 -8.05163443e-01
      -2.72713210e-02 -8.08682367e-02 -2.70216987e-02 -7.84591675e-01
      9.50502977e-02 6.49033859e-02 2.12898068e-02 -8.35257649e-01
      3.20994630e-02 -1.91891059e-01 -5.25924526e-02 -7.98095286e-01
      -1.23563468e-01 -2.03361422e-01 -1.40363500e-01 -7.86947012e-01
      4.08978313e-02 6.79628104e-02 -3.55676450e-02 -8.47152054e-01
      5.74679822e-02 -1.89374611e-01 -6.33856505e-02 -8.08627784e-01
      -4.34503816e-02 -2.69768685e-01 -1.42819166e-01 -7.86387503e-01</_>
    <_>
      -3.84393871e-01 -9.84524012e-01 -4.94515628e-01 2.51187563e+00
      -1.13216138e+00 -1.34940577e+00 -1.24014080e+00 1.09524786e+00
      4.46873873e-01 -1.80934921e-01 3.32196623e-01 2.89230800e+00
      -6.60091698e-01 -9.77323949e-01 -7.83417940e-01 2.22558212e+00
      -8.90051961e-01 -1.23561954e+00 -1.07641017e+00 1.37521541e+00
      9.24610972e-01 3.58285010e-01 8.29746604e-01 3.03889847e+00
      -1.76336184e-01 -5.26432514e-01 -2.94506520e-01 2.61222506e+00
      -5.26997924e-01 -9.93309855e-01 -7.55810976e-01 2.09479094e+00
      2.50994354e-01 1.23398960e-01 2.36240461e-01 -7.61131585e-01
      3.93459760e-03 -6.60454333e-02 -3.50495288e-03 -7.48287439e-01
      1.05268173e-01 1.07228220e-01 1.10220946e-01 -7.95667887e-01
      4.33578268e-02 -1.65172368e-01 -1.81281809e-02 -7.55520105e-01
      -1.09856799e-01 -2.15038195e-01 -1.33400366e-01 -7.47782111e-01
      6.09591492e-02 1.17968895e-01 6.23703450e-02 -8.10276449e-01
      7.69587904e-02 -1.31061777e-01 3.92768811e-03 -7.68187404e-01
      -4.67883423e-02 -2.51727253e-01 -1.05313450e-01 -7.45409250e-01</_>
    <_>
      -1.63042501e-01 -9.58950043e-01 -4.70234156e-01 2.47291732e+00
      -1.06178570e+00 -1.42917669e+00 -1.35709405e+00 1.07425380e+00
      6.79016650e-01 -1.06704287e-01 4.04280424e-01 2.85001850e+00
      -5.16695499e-01 -9.72108662e-01 -8.25220644e-01 2.19312668e+00
      -8.54358792e-01 -1.25191474e+00 -1.17582357e+00 1.35379159e+00
      1.16117775e+00 4.25040334e-01 8.91095161e-01 2.99546003e+00
      -4.76309890e-03 -4.78346854e-01 -3.18738103e-01 2.57608223e+00
      -4.61520106e-01 -9.33074117e-01 -8.36779535e-01 2.06664968e+00
      2.24514186e-01 9.68934894e-02 1.49733976e-01 -7.74510741e-01
      1.84920721e-03 -5.50623797e-02 -1.77213387e-03 -7.63843179e-01
      3.17060351e-02 1.21202178e-01 5.02580404e-02 -8.09749424e-01
      1.34806773e-02 -1.60549000e-01 -4.60407920e-02 -7.77490735e-01
      -1.24038167e-01 -1.86042607e-01 -1.37260199e-01 -7.73202538e-01
      -9.25539061e-02 9.83707532e-02 -2.00867895e-02 -8.24084997e-01
      -3.84326875e-02 -1.29417345e-01 -3.29548083e-02 -7.91385174e-01
      -8.87924880e-02 -2.23586515e-01 -1.28395751e-01 -7.75335312e-01</_>
    <_>
      -2.60389090e-01 -7.63243318e-01 -3.05153996e-01 2.34687948e+00
      -1.32751703e+00 -1.57457614e+00 -1.31981719e+00 9.46284533e-01
      7.84001470e-01 3.48302513e-01 7.57353663e-01 2.72155380e+00
      -5.38689256e-01 -8.92708719e-01 -5.24397075e-01 2.06275463e+00
      -1.10652864e+00 -1.42244911e+00 -1.10861814e+00 1.22163200e+00
      1.31902099e+00 9.71470416e-01 1.31753361e+00 2.86577392e+00
      1.18046917e-01 -2.35363156e-01 1.36412725e-01 2.44454455e+00
      -5.71536005e-01 -9.55776751e-01 -5.79401910e-01 1.93272638e+00
      1.13824166e-01 3.15435673e-03 1.16900250e-01 -8.86584878e-01
      -3.41225564e-02 -1.38517037e-01 -2.87593417e-02 -8.70569825e-01
      -5.99916726e-02 -1.92004852e-02 -8.18339735e-02 -9.18761194e-01
      -1.59813613e-02 -1.73368856e-01 -3.18994895e-02 -8.70572805e-01
      -1.08902439e-01 -2.30090171e-01 -1.00024611e-01 -8.59435558e-01
      -1.25354484e-01 -5.39213233e-02 -1.82924479e-01 -9.32765305e-01
      -2.49909498e-02 -1.15591317e-01 -6.03999905e-02 -8.83448601e-01
      -8.10372904e-02 -2.24081770e-01 -7.56634101e-02 -8.53209674e-01</_>
    <_>
      -2.90838033e-01 -8.55044603e-01 -4.59469169e-01 2.40845037e+00
      -1.23343205e+00 -1.49218202e+00 -1.35686505e+00 9.91738677e-01
      6.85506165e-01 1.66443959e-01 5.58319271e-01 2.78912425e+00
      -5.15163004e-01 -9.14812267e-01 -6.73159957e-01 2.12348557e+00
      -9.65406537e-01 -1.35674179e+00 -1.19985497e+00 1.27310193e+00
      1.21058106e+00 7.63093948e-01 1.11064398e+00 2.93571997e+00
      1.07399397e-01 -3.14983279e-01 -4.90087494e-02 2.51061153e+00
      -4.34767127e-01 -9.48546648e-01 -7.43592262e-01 1.99399471e+00
      1.78379729e-01 5.78736067e-02 1.30405203e-01 -8.59110951e-01
      -3.68799046e-02 -9.77075994e-02 -3.54742557e-02 -8.44336033e-01
      6.39027581e-02 4.95941192e-02 -1.36747267e-02 -8.92682076e-01
      -3.88743379e-03 -1.61689952e-01 -5.95483370e-02 -8.45930338e-01
      -1.15979180e-01 -2.05417946e-01 -1.22148931e-01 -8.36022854e-01
      3.21286619e-02 5.45716584e-02 -6.80417046e-02 -9.07766044e-01
      7.08360318e-03 -1.17989622e-01 -6.91953301e-02 -8.59601259e-01
      -1.07008733e-01 -2.07188591e-01 -9.94863585e-02 -8.31518114e-01</_>
    <_>
      -3.35512578e-01 -1.02959359e+00 -4.27056670e-01 2.51140308e+00
      -1.01072598e+00 -1.34329212e+00 -1.30835330e+00 1.10704195e+00
      4.13445503e-01 -2.64561862e-01 3.79594952e-01 2.89190745e+00
      -6.26323521e-01 -1.01390362e+00 -9.30719972e-01 2.22625422e+00
      -7.76268005e-01 -1.21404636e+00 -1.13322079e+00 1.38378239e+00
      8.50023568e-01 2.24561736e-01 8.28123510e-01 3.03897476e+00
      -2.09820315e-01 -6.20798767e-01 -5.09964585e-01 2.61135340e+00
      -4.52808768e-01 -1.00946403e+00 -8.90205026e-01 2.09638786e+00
      3.36055070e-01 9.47248414e-02 1.65200979e-01 -7.22219825e-01
      3.13675627e-02 -1.43754426e-02 1.25685092e-02 -6.96756124e-01
      1.84187308e-01 9.19483900e-02 3.19640860e-02 -7.57941246e-01
      1.40469298e-01 -1.61100283e-01 -4.06377129e-02 -7.18650877e-01
      -6.80594593e-02 -1.72190920e-01 -1.31407052e-01 -7.03442156e-01
      1.26400948e-01 1.04534991e-01 -2.52804682e-02 -7.72467315e-01
      1.86034814e-01 -1.52471796e-01 -2.10107174e-02 -7.32631564e-01
      3.02747376e-02 -2.48323947e-01 -1.41334191e-01 -7.11644828e-01</_>
    <_>
      -1.86533913e-01 -8.69575679e-01 -4.20781016e-01 2.45454860e+00
      -1.18075824e+00 -1.46005476e+00 -1.31280863e+00 1.04729831e+00
      7.23476171e-01 5.77525236e-02 4.70545679e-01 2.83208013e+00
      -5.66093802e-01 -9.40148175e-01 -7.53624320e-01 2.17066741e+00
      -1.02972782e+00 -1.28508222e+00 -1.06584299e+00 1.32559323e+00
      1.19641232e+00 5.90463758e-01 9.47207332e-01 2.97734571e+00
      -4.88795489e-02 -4.11271513e-01 -2.29745120e-01 2.55485249e+00
      -6.45963848e-01 -9.39404428e-01 -6.61167920e-01 2.04111314e+00
      1.55642197e-01 7.93817118e-02 1.67197689e-01 -8.09208989e-01
      -7.78532308e-03 -8.33315775e-02 -1.18753472e-02 -7.96720922e-01
      -3.00643537e-02 7.71237984e-02 6.50028065e-02 -8.43944609e-01
      -2.86278687e-02 -1.52311668e-01 -7.05255009e-03 -8.06616306e-01
      -1.22438774e-01 -1.98028579e-01 -1.24043442e-01 -7.97520757e-01
      -1.26059294e-01 5.07378168e-02 1.58278886e-02 -8.58883798e-01
      -6.32999018e-02 -1.24246992e-01 1.59017723e-02 -8.20919514e-01
      -7.73496255e-02 -2.04169154e-01 -1.16430357e-01 -7.97778845e-01</_>
    <_>
      -2.56581455e-01 -6.84887409e-01 -3.14421326e-01 2.35526967e+00
      -1.31193542e+00 -1.51735473e+00 -1.42532074e+00 9.43565965e-01
      7.82599807e-01 3.85307878e-01 7.40015149e-01 2.73398590e+00
      -4.66726750e-01 -7.72620976e-01 -6.27097309e-01 2.07180595e+00
      -1.04819763e+00 -1.31906450e+00 -1.23349047e+00 1.22440767e+00
      1.32004118e+00 9.95326877e-01 1.29370952e+00 2.87989616e+00
      2.01745391e-01 -9.78580415e-02 5.14572263e-02 2.45774055e+00
      -4.66233104e-01 -8.06733310e-01 -6.86773419e-01 1.94355404e+00
      7.70857930e-02 6.20982610e-02 3.13785560e-02 -9.04953539e-01
      -8.36324915e-02 -9.89335552e-02 -7.76640475e-02 -8.87062490e-01
      -7.22695589e-02 3.81350517e-02 -1.10694714e-01 -9.36224937e-01
      -8.38794932e-02 -1.44130155e-01 -5.50352335e-02 -8.83699417e-01
      -1.63083643e-01 -1.75480261e-01 -1.51824340e-01 -8.71529043e-01
      -1.45854294e-01 -1.62597168e-02 -1.87090069e-01 -9.51489329e-01
      -1.16348915e-01 -1.47477761e-01 -5.45757264e-02 -8.98359895e-01
      -1.68234095e-01 -1.86052084e-01 -1.16589300e-01 -8.65401745e-01</_>
    <_>
      -3.09123963e-01 -9.69559908e-01 -3.78421396e-01 2.39963579e+00
      -1.10168636e+00 -1.58295965e+00 -1.42646790e+00 9.90462720e-01
      6.12823069e-01 3.36489901e-02 6.14430964e-01 2.77901793e+00
      -4.47905719e-01 -1.02303231e+00 -7.86433756e-01 2.10951519e+00
      -8.63954008e-01 -1.42372131e+00 -1.25317740e+00 1.26367319e+00
      1.09340060e+00 6.02426529e-01 1.12499237e+00 2.92597461e+00
      8.77003819e-02 -4.52528805e-01 -1.95484042e-01 2.49510121e+00
      -4.26218003e-01 -1.03532577e+00 -8.11140656e-01 1.97632372e+00
      2.92592347e-01 -2.00049044e-03 7.44083449e-02 -8.30813587e-01
      8.46511684e-03 -7.33644664e-02 7.50211114e-03 -7.93537319e-01
      1.94096893e-01 3.37981768e-02 -1.41078085e-01 -8.62853587e-01
      1.65237889e-01 -2.19384775e-01 -5.96069135e-02 -8.07710409e-01
      -3.16455029e-02 -1.71182901e-01 -7.85968676e-02 -7.85493731e-01
      1.66805506e-01 1.09581620e-01 -1.64425448e-01 -8.77793610e-01
      2.40224019e-01 -1.53277710e-01 -3.42173874e-02 -8.23642790e-01
      1.26927286e-01 -2.50143528e-01 -9.00297388e-02 -7.90826797e-01</_>
    <_>
      -2.39176750e-01 -7.85100758e-01 -4.01318818e-01 2.38340664e+00
      -1.23761356e+00 -1.47254491e+00 -1.35862815e+00 9.85519707e-01
      8.04064095e-01 2.79153436e-01 6.29719615e-01 2.75819159e+00
      -4.92033064e-01 -9.04530704e-01 -6.88347876e-01 2.10217619e+00
      -9.95783210e-01 -1.35092819e+00 -1.21481872e+00 1.26348090e+00
      1.34986794e+00 8.92898262e-01 1.18377960e+00 2.90297031e+00
      1.55969620e-01 -2.91366249e-01 -6.76618144e-02 2.48455191e+00
      -4.84645486e-01 -9.57335353e-01 -7.73955166e-01 1.97553194e+00
      1.13762133e-01 7.01954216e-02 1.10286132e-01 -8.48448157e-01
      -5.68774715e-02 -1.01677790e-01 -6.16218634e-02 -8.33900750e-01
      -6.71555400e-02 8.08004476e-03 -6.51498362e-02 -8.79711926e-01
      -3.50838155e-02 -1.20870039e-01 -7.25407675e-02 -8.33493233e-01
      -1.45278007e-01 -1.82419643e-01 -1.51348084e-01 -8.23772311e-01
      -1.44933909e-01 -2.32761744e-02 -1.38507649e-01 -8.94782424e-01
      -3.94226536e-02 -8.74838382e-02 -9.12630111e-02 -8.46281469e-01
      -1.07740924e-01 -1.48528114e-01 -1.18183255e-01 -8.18064034e-01</_>
    <_>
      -7.27021247e-02 -7.95734465e-01 -3.89255702e-01 2.30223036e+00
      -1.11354303e+00 -1.61730230e+00 -1.47760129e+00 9.28783059e-01
      9.72166777e-01 3.44655633e-01 7.00291097e-01 2.67113376e+00
      -2.57671893e-01 -9.28353548e-01 -6.82545781e-01 2.02492356e+00
      -8.36947918e-01 -1.48115635e+00 -1.32299209e+00 1.20077157e+00
      1.50001276e+00 9.76265967e-01 1.27606618e+00 2.81349206e+00
      4.08164889e-01 -2.39426032e-01 1.17703192e-02 2.40047383e+00
      -2.64124066e-01 -1.00369895e+00 -7.89233208e-01 1.89932036e+00
      1.27441674e-01 -2.74396990e-03 5.97125702e-02 -8.85610759e-01
      -2.03216821e-02 -1.13972187e-01 -2.38860752e-02 -8.75540912e-01
      -8.08294192e-02 -7.48304427e-02 -1.32214978e-01 -9.15050685e-01
      1.49877025e-02 -1.75099254e-01 -6.23126701e-02 -8.80825877e-01
      -8.35184082e-02 -1.78961441e-01 -8.65574256e-02 -8.74475420e-01
      -1.83164492e-01 -1.40054822e-01 -2.46623993e-01 -9.27231073e-01
      -1.66952871e-02 -1.79714367e-01 -1.29039481e-01 -8.91587555e-01
      -1.87498946e-02 -1.87446207e-01 -1.01632148e-01 -8.71684253e-01</_>
    <_>
      -1.83676705e-01 -9.14224148e-01 -4.96142715e-01 2.38853431e+00
      -1.14725876e+00 -1.50878990e+00 -1.34769619e+00 1.00277519e+00
      8.29157829e-01 1.66085303e-01 5.33164442e-01 2.76118112e+00
      -4.28949326e-01 -9.49926078e-01 -7.16577649e-01 2.11050820e+00
      -9.28118706e-01 -1.39255142e+00 -1.20981812e+00 1.27900279e+00
      1.37087119e+00 7.98851073e-01 1.10605788e+00 2.90490389e+00
      2.01904356e-01 -3.25825065e-01 -9.48286429e-02 2.48988271e+00
      -4.32347357e-01 -9.95417058e-01 -7.78594613e-01 1.98528266e+00
      1.63205147e-01 5.39636463e-02 1.34023696e-01 -8.38589013e-01
      -3.45868394e-02 -7.84148499e-02 -3.20052430e-02 -8.27470899e-01
      -4.89091761e-02 9.19167697e-03 -5.66717563e-03 -8.66720617e-01
      -2.30378192e-03 -1.47836491e-01 -6.67160526e-02 -8.32170248e-01
      -1.09455168e-01 -1.94548771e-01 -1.28152460e-01 -8.24134946e-01
      -1.58079326e-01 -2.91552786e-02 -7.97916949e-02 -8.78198564e-01
      -3.35903168e-02 -1.23553649e-01 -8.11206698e-02 -8.42520356e-01
      -4.36290503e-02 -2.01764822e-01 -1.07245900e-01 -8.21473002e-01</_>
    <_>
      -2.88403243e-01 -9.31362689e-01 -4.92877245e-01 2.43445301e+00
      -1.09785247e+00 -1.44489944e+00 -1.37674654e+00 1.02828193e+00
      6.86207175e-01 1.75465439e-02 4.74800259e-01 2.81269860e+00
      -4.81922716e-01 -1.01118660e+00 -8.06999445e-01 2.14641809e+00
      -8.15576434e-01 -1.32568347e+00 -1.25681055e+00 1.30235350e+00
      1.21982300e+00 5.89001834e-01 1.00434756e+00 2.95836306e+00
      1.06375501e-01 -4.67510253e-01 -2.30749756e-01 2.52953553e+00
      -3.58809620e-01 -1.01473999e+00 -8.72895718e-01 2.01297641e+00
      2.68004686e-01 1.02244906e-01 1.26956388e-01 -8.01505089e-01
      -2.26138346e-02 -6.98250607e-02 -3.14885154e-02 -7.77467489e-01
      1.28929123e-01 4.86730635e-02 -4.41733152e-02 -8.33871186e-01
      1.11708000e-01 -1.43585399e-01 -1.25721246e-01 -7.94990718e-01
      -1.03240997e-01 -1.78403631e-01 -1.53803408e-01 -7.76872396e-01
      5.78741208e-02 4.20934670e-02 -8.91614035e-02 -8.47246528e-01
      1.45912707e-01 -1.44182652e-01 -1.45141199e-01 -8.07549298e-01
      1.15515916e-02 -2.14717001e-01 -2.03815758e-01 -7.82727599e-01</_>
    <_>
      -3.00717112e-02 -8.32775712e-01 -4.36303824e-01 2.28468108e+00
      -9.95938182e-01 -1.69405079e+00 -1.60224998e+00 9.07413185e-01
      9.90766108e-01 2.98423588e-01 6.77742779e-01 2.65957189e+00
      -1.53130472e-01 -1.03324139e+00 -8.21052670e-01 1.99943542e+00
      -7.19604075e-01 -1.55098617e+00 -1.45943320e+00 1.17293143e+00
      1.49988842e+00 9.19118166e-01 1.23845840e+00 2.80535722e+00
      4.87177372e-01 -3.60962987e-01 -1.28252134e-01 2.37835312e+00
      -1.50900826e-01 -1.10266101e+00 -9.43701386e-01 1.86873293e+00
      2.22844765e-01 -7.34223127e-02 -1.52790388e-02 -8.15477431e-01
      5.62324247e-04 -1.00432664e-01 -5.76300174e-03 -7.75181055e-01
      5.26853092e-02 -1.20377563e-01 -2.07856178e-01 -8.62276912e-01
      1.07372887e-01 -2.24583656e-01 -1.03423044e-01 -7.86109567e-01
      -2.85228323e-02 -1.92591310e-01 -7.68103451e-02 -7.59229839e-01
      -1.67269874e-02 -1.31536394e-01 -2.46994138e-01 -8.83071482e-01
      8.96760747e-02 -2.19081610e-01 -1.44228697e-01 -8.09170485e-01
      6.79293200e-02 -2.42109448e-01 -1.15378067e-01 -7.58171320e-01</_>
    <_>
      -3.67161036e-01 -9.49339747e-01 -4.62795675e-01 2.43902588e+00
      -1.19623518e+00 -1.41593587e+00 -1.24185324e+00 1.04421067e+00
      6.14442945e-01 4.85774167e-02 5.27632117e-01 2.81395149e+00
      -6.00764394e-01 -9.93670106e-01 -6.64443552e-01 2.15975642e+00
      -9.70559657e-01 -1.31974328e+00 -1.13070321e+00 1.32288337e+00
      1.17116630e+00 6.66591644e-01 1.08693874e+00 2.95869446e+00
      -3.14838858e-03 -4.36988622e-01 -8.20144936e-02 2.54168797e+00
      -5.37586927e-01 -1.00649130e+00 -7.45058119e-01 2.03435183e+00
      1.97696716e-01 9.03407633e-02 2.01054752e-01 -8.09306085e-01
      -2.24679857e-02 -9.47122052e-02 -1.94878653e-02 -7.97705412e-01
      3.85331698e-02 4.91857231e-02 2.12986637e-02 -8.37864161e-01
      2.71138735e-03 -1.48163274e-01 -1.63812339e-02 -8.03791702e-01
      -1.21326201e-01 -2.18042150e-01 -1.15749650e-01 -7.96471536e-01
      -4.65286039e-02 2.50568278e-02 -8.06806386e-02 -8.50058079e-01
      -2.15354050e-03 -1.17494129e-01 -4.16043140e-02 -8.15551162e-01
      -7.65633434e-02 -2.33532622e-01 -7.00286180e-02 -7.95631886e-01</_>
    <_>
      -4.05099064e-01 -1.00649190e+00 -4.82249826e-01 2.52484751e+00
      -1.10606301e+00 -1.31761193e+00 -1.25024569e+00 1.10661995e+00
      4.00260478e-01 -2.20675915e-01 3.27256948e-01 2.90628409e+00
      -6.60316110e-01 -9.56673324e-01 -8.18177640e-01 2.23797584e+00
      -8.78548861e-01 -1.20070338e+00 -1.08068979e+00 1.38645577e+00
      8.65622044e-01 2.90296793e-01 7.92826712e-01 3.05296302e+00
      -2.03129947e-01 -5.38729310e-01 -3.66494000e-01 2.62460089e+00
      -5.39101005e-01 -9.68687654e-01 -7.88782954e-01 2.10586619e+00
      2.79924244e-01 1.16931222e-01 2.24001005e-01 -7.45678723e-01
      8.57498217e-03 -5.48006371e-02 -3.24917468e-03 -7.33154476e-01
      1.30398214e-01 1.03718214e-01 1.12777293e-01 -7.82066405e-01
      4.02502567e-02 -1.64093196e-01 -1.42520089e-02 -7.41702616e-01
      -1.11898296e-01 -2.04262495e-01 -1.29154786e-01 -7.34693587e-01
      8.67673382e-02 1.16821900e-01 8.03295970e-02 -7.97472119e-01
      7.13136271e-02 -1.43162236e-01 2.61796694e-02 -7.55141914e-01
      -4.15989645e-02 -2.46912435e-01 -9.48455706e-02 -7.33252823e-01</_>
    <_>
      -1.21544242e-01 -8.17564011e-01 -3.71850282e-01 2.29933453e+00
      -1.12444949e+00 -1.66258359e+00 -1.55860031e+00 8.95878255e-01
      9.28643763e-01 3.58081460e-01 7.52984822e-01 2.67967629e+00
      -2.94585794e-01 -9.23114002e-01 -7.14085519e-01 2.00557852e+00
      -8.43610644e-01 -1.49835896e+00 -1.37767720e+00 1.16387606e+00
      1.46741343e+00 1.00695682e+00 1.32367229e+00 2.82753062e+00
      3.60708207e-01 -2.04586253e-01 1.28771029e-02 2.39115405e+00
      -2.75540799e-01 -9.68533337e-01 -7.88728476e-01 1.87118924e+00
      1.81464702e-01 -5.35808653e-02 -7.02601799e-04 -8.60916436e-01
      -1.39421085e-02 -1.09684572e-01 -1.47565650e-02 -8.07965040e-01
      -1.83308721e-02 -1.30444437e-01 -2.26051614e-01 -9.07074511e-01
      1.11203752e-01 -2.27672026e-01 -9.58765000e-02 -8.25093329e-01
      -2.49306671e-02 -1.93116769e-01 -7.77451396e-02 -7.92497098e-01
      -1.30336553e-01 -1.72164068e-01 -2.90541053e-01 -9.27006721e-01
      9.87480879e-02 -2.39952713e-01 -1.33198872e-01 -8.51070523e-01
      7.27167875e-02 -2.37658456e-01 -1.02436140e-01 -7.99529493e-01</_>
    <_>
      -2.22989276e-01 -9.19031441e-01 -5.28260708e-01 2.47583866e+00
      -1.19422114e+00 -1.37473691e+00 -1.31981635e+00 1.05703342e+00
      6.85663819e-01 -3.86579372e-02 3.52652133e-01 2.85649562e+00
      -5.95100701e-01 -8.85548055e-01 -7.99387634e-01 2.18868971e+00
      -9.44813967e-01 -1.23117471e+00 -1.12250125e+00 1.33686471e+00
      1.18321276e+00 5.17412961e-01 8.71689260e-01 3.00319219e+00
      -5.29417545e-02 -3.62461776e-01 -2.53687114e-01 2.57573271e+00
      -5.28865874e-01 -8.87480378e-01 -7.25696862e-01 2.05738282e+00
      1.58425689e-01 1.38626769e-01 1.96519479e-01 -8.09499443e-01
      -2.39607356e-02 -5.82439974e-02 -2.51545142e-02 -7.97381103e-01
      -2.60996502e-02 1.21456280e-01 9.27826539e-02 -8.43873441e-01
      -8.14368576e-03 -1.34034038e-01 -3.42822410e-02 -8.04990649e-01
      -1.28674656e-01 -1.87206402e-01 -1.38990194e-01 -7.97891974e-01
      -1.23195365e-01 8.34135413e-02 2.90930197e-02 -8.58514190e-01
      -1.06937476e-02 -1.36120573e-01 -2.82073859e-02 -8.18805754e-01
      -7.67487735e-02 -1.93965837e-01 -1.32980824e-01 -7.97145426e-01</_>
    <_>
      -1.46816626e-01 -8.11752975e-01 -3.55875880e-01 2.31639218e+00
      -1.11406660e+00 -1.63867807e+00 -1.45798373e+00 9.40667927e-01
      8.95166516e-01 3.10736299e-01 7.14744329e-01 2.68504906e+00
      -3.05512369e-01 -9.83827055e-01 -6.79363370e-01 2.03499055e+00
      -8.28629971e-01 -1.51320577e+00 -1.31766522e+00 1.20938921e+00
      1.42291427e+00 9.33559537e-01 1.26990151e+00 2.82764101e+00
      3.32854539e-01 -3.19586098e-01 4.07770788e-03 2.41038895e+00
      -2.89674550e-01 -1.05939174e+00 -7.92109191e-01 1.90649498e+00
      1.85072243e-01 -2.68245172e-02 6.11190759e-02 -8.67699385e-01
      -9.86586604e-03 -1.12374611e-01 -1.25345597e-02 -8.52954924e-01
      6.45655766e-03 -9.10025761e-02 -1.39104277e-01 -8.95701289e-01
      8.77592191e-02 -2.09692612e-01 -8.47091079e-02 -8.59022081e-01
      -5.19986786e-02 -2.07514286e-01 -8.98662433e-02 -8.48482609e-01
      -7.99085498e-02 -1.26843080e-01 -2.09029481e-01 -9.07741308e-01
      1.00339390e-01 -1.96162641e-01 -1.30612776e-01 -8.68610084e-01
      5.23326658e-02 -2.49338627e-01 -1.20915927e-01 -8.45398307e-01</_>
    <_>
      -3.08597445e-01 -9.27933276e-01 -4.03409302e-01 2.41682434e+00
      -1.23660958e+00 -1.45212793e+00 -1.31568646e+00 1.01374114e+00
      6.83236837e-01 8.51413980e-02 5.97970545e-01 2.79395485e+00
      -5.95361888e-01 -9.10001218e-01 -6.59991264e-01 2.13489556e+00
      -1.03402305e+00 -1.32040823e+00 -1.13343620e+00 1.29303229e+00
      1.21889639e+00 6.84673607e-01 1.13803077e+00 2.93938923e+00
      9.79244150e-03 -3.22248161e-01 -4.57215980e-02 2.51854229e+00
      -5.88565886e-01 -9.41029310e-01 -6.88831627e-01 2.00746155e+00
      1.75435171e-01 1.02412939e-01 1.67166561e-01 -8.43263268e-01
      -3.41293253e-02 -9.07441080e-02 -3.39378715e-02 -8.29854906e-01
      1.64141096e-02 1.01809256e-01 2.86773723e-02 -8.71488154e-01
      -6.75965007e-03 -1.50357008e-01 -4.57916185e-02 -8.33167434e-01
      -1.26737848e-01 -2.04036713e-01 -1.31587297e-01 -8.24531913e-01
      -7.08690435e-02 8.24574456e-02 -3.38008069e-02 -8.82732153e-01
      -3.81392427e-02 -1.37617439e-01 -5.75041883e-02 -8.41886342e-01
      -9.31273922e-02 -2.18094215e-01 -1.08235888e-01 -8.17580044e-01</_>
    <_>
      -4.18844432e-01 -8.03911805e-01 -3.56733650e-01 2.42661405e+00
      -1.26811469e+00 -1.40742433e+00 -1.34001684e+00 9.98332620e-01
      6.02289200e-01 2.41670758e-01 6.69510663e-01 2.80847406e+00
      -6.31321371e-01 -8.56229246e-01 -6.50233507e-01 2.13140726e+00
      -1.00453603e+00 -1.25153852e+00 -1.20027614e+00 1.27327275e+00
      1.15961170e+00 8.64181876e-01 1.22316909e+00 2.95551705e+00
      -2.46602707e-02 -2.41065279e-01 -1.73236951e-02 2.51893902e+00
      -5.50006449e-01 -8.48746419e-01 -7.24695325e-01 1.99292827e+00
      1.47901833e-01 1.07065268e-01 1.00076124e-01 -8.53063285e-01
      -7.89511129e-02 -1.02232590e-01 -7.52157941e-02 -8.37140977e-01
      1.85697395e-02 4.31633703e-02 -8.02639052e-02 -8.83110046e-01
      -9.95614473e-03 -1.17674939e-01 -1.11340895e-01 -8.31855237e-01
      -1.63829803e-01 -1.78564906e-01 -1.82116672e-01 -8.18988860e-01
      -3.51329558e-02 -1.32826171e-04 -1.50109634e-01 -8.96465480e-01
      2.97591109e-02 -1.08619787e-01 -1.25958085e-01 -8.40922475e-01
      -9.30401161e-02 -1.44700199e-01 -1.91116601e-01 -8.06272388e-01</_>
    <_>
      -1.85180068e-01 -9.31769192e-01 -4.70441431e-01 2.48881292e+00
      -1.10258472e+00 -1.39668715e+00 -1.32436776e+00 1.08399439e+00
      6.73420489e-01 -9.56957191e-02 3.86622250e-01 2.86552453e+00
      -5.62814236e-01 -9.57118273e-01 -8.31844628e-01 2.20506930e+00
      -9.00840938e-01 -1.22846735e+00 -1.12354028e+00 1.36125314e+00
      1.10927570e+00 3.81460100e-01 8.47951710e-01 3.01007748e+00
      -1.00802854e-01 -5.03807664e-01 -3.51889133e-01 2.58740044e+00
      -5.41078508e-01 -9.33640599e-01 -7.78758347e-01 2.07426524e+00
      2.01299861e-01 1.03740789e-01 1.64950922e-01 -7.73271739e-01
      -1.03456173e-02 -5.58633283e-02 -9.61429533e-03 -7.65237212e-01
      1.94221325e-02 1.17055655e-01 7.64461681e-02 -8.08116853e-01
      1.50576578e-02 -1.50942966e-01 -3.41230072e-02 -7.76959956e-01
      -1.21666260e-01 -1.87747225e-01 -1.36912078e-01 -7.71039784e-01
      -7.23844692e-02 1.18587926e-01 4.12016734e-02 -8.21130753e-01
      -5.42870304e-03 -1.21291913e-01 2.86285509e-03 -7.88183153e-01
      -7.57829398e-02 -2.29278415e-01 -1.29121333e-01 -7.69982457e-01</_>
    <_>
      -1.28365725e-01 -7.01655507e-01 -3.34306389e-01 2.32095838e+00
      -1.27123010e+00 -1.59475791e+00 -1.40829253e+00 9.26189959e-01
      8.99146974e-01 3.84038806e-01 7.19250858e-01 2.69369197e+00
      -4.25928086e-01 -8.86506259e-01 -5.95448792e-01 2.03725052e+00
      -1.03864825e+00 -1.46110630e+00 -1.20629525e+00 1.19951439e+00
      1.41050887e+00 9.82177496e-01 1.26974475e+00 2.83726335e+00
      2.17756480e-01 -2.26197124e-01 7.30991885e-02 2.41733313e+00
      -4.93620366e-01 -1.01079869e+00 -6.70281172e-01 1.90717185e+00
      7.40466937e-02 1.51314242e-02 9.61255431e-02 -9.03754532e-01
      -1.63027868e-02 -1.31209910e-01 -1.41539834e-02 -8.89088035e-01
      -1.14636615e-01 -5.06373215e-03 -5.52503504e-02 -9.32437539e-01
      -2.14951858e-03 -1.65942058e-01 -1.62445661e-02 -8.86418462e-01
      -8.92451331e-02 -2.29114234e-01 -7.69673809e-02 -8.74882996e-01
      -1.94626361e-01 -3.48033495e-02 -1.41954482e-01 -9.46280956e-01
      -1.82148740e-02 -1.49851203e-01 -4.86232974e-02 -8.98902893e-01
      -4.98647802e-02 -2.17269063e-01 -5.43531738e-02 -8.69355857e-01</_>
    <_>
      -1.31782621e-01 -8.60747516e-01 -3.63180280e-01 2.32050967e+00
      -1.08648062e+00 -1.62016296e+00 -1.47010636e+00 9.46392596e-01
      8.90414536e-01 2.31515393e-01 6.97158456e-01 2.68870187e+00
      -2.95549691e-01 -1.00954604e+00 -7.16482341e-01 2.03921294e+00
      -7.93849826e-01 -1.51666367e+00 -1.34266543e+00 1.21452153e+00
      1.40983820e+00 8.43076646e-01 1.24634862e+00 2.83079624e+00
      3.30784410e-01 -3.74241561e-01 -3.89598534e-02 2.41325784e+00
      -2.67278939e-01 -1.10351193e+00 -8.21794569e-01 1.90969324e+00
      2.14719981e-01 -2.55077742e-02 6.62299469e-02 -8.59456241e-01
      1.93651533e-03 -1.03615783e-01 6.76627737e-03 -8.46308410e-01
      4.65680920e-02 -7.73211569e-02 -1.21505402e-01 -8.88761997e-01
      1.18955396e-01 -2.17538401e-01 -7.47715980e-02 -8.54034424e-01
      -4.38379645e-02 -2.04410329e-01 -8.18629712e-02 -8.44478905e-01
      -3.37395482e-02 -9.70187336e-02 -1.81623414e-01 -9.00630057e-01
      1.38965830e-01 -2.12631539e-01 -1.23456009e-01 -8.62484574e-01
      8.72662291e-02 -2.54792482e-01 -1.30812734e-01 -8.40025961e-01</_>
    <_>
      -3.25749993e-01 -1.02586997e+00 -5.24806499e-01 2.51627779e+00
      -1.04657567e+00 -1.32364905e+00 -1.28627348e+00 1.10706210e+00
      4.61973846e-01 -2.47249261e-01 2.91580379e-01 2.89531231e+00
      -5.90912461e-01 -9.55113351e-01 -8.47992778e-01 2.23191953e+00
      -8.11490834e-01 -1.23339057e+00 -1.13376081e+00 1.38622928e+00
      9.34257805e-01 2.75478601e-01 7.80617654e-01 3.04136658e+00
      -1.10234663e-01 -5.25292277e-01 -3.69446307e-01 2.61687374e+00
      -4.48057115e-01 -1.00308979e+00 -8.38046849e-01 2.10231805e+00
      2.89803505e-01 1.20045878e-01 1.91421375e-01 -7.44788349e-01
      -5.49217034e-03 -3.60126607e-02 -2.51746085e-03 -7.31622279e-01
      1.49351001e-01 1.20779939e-01 8.67065787e-02 -7.80639172e-01
      6.85156584e-02 -1.67038590e-01 -6.72730953e-02 -7.44587123e-01
      -1.09937139e-01 -1.92947611e-01 -1.43539816e-01 -7.38653958e-01
      9.75211188e-02 1.35950834e-01 4.37953062e-02 -7.95204639e-01
      1.03816390e-01 -1.64086804e-01 -5.23534082e-02 -7.58725643e-01
      -8.32357164e-03 -2.55843282e-01 -1.61472857e-01 -7.40913808e-01</_>
    <_>
      -4.64785933e-01 -9.51048493e-01 -3.69004935e-01 2.43667006e+00
      -1.21730220e+00 -1.43971455e+00 -1.22892630e+00 1.03669393e+00
      5.35891354e-01 3.23528387e-02 5.98041475e-01 2.81253982e+00
      -6.70288980e-01 -1.03891516e+00 -6.44962728e-01 2.15181947e+00
      -9.73017514e-01 -1.36406553e+00 -1.10235798e+00 1.31232929e+00
      1.09881020e+00 6.39937758e-01 1.13106012e+00 2.95809555e+00
      -8.38927627e-02 -4.95845377e-01 -5.96153401e-02 2.53466797e+00
      -5.62811255e-01 -1.07519484e+00 -6.93464637e-01 2.02350926e+00
      2.28103235e-01 6.19269162e-02 1.95986688e-01 -7.97608376e-01
      -1.77114271e-02 -9.82167050e-02 -3.80833587e-03 -7.72689998e-01
      8.60186368e-02 7.62699964e-03 1.39326099e-02 -8.28862011e-01
      8.10112879e-02 -1.74430564e-01 -1.12921316e-02 -7.87681699e-01
      -8.76538604e-02 -2.28938997e-01 -9.21137258e-02 -7.72794962e-01
      2.34878156e-02 -7.57810986e-03 -3.99183333e-02 -8.42545569e-01
      1.07900731e-01 -1.77153513e-01 -3.31873856e-02 -7.98636496e-01
      4.76942584e-03 -2.47404680e-01 -8.54391977e-02 -7.72303045e-01</_>
    <_>
      -4.76966590e-01 -9.99893427e-01 -2.12610990e-01 2.40029669e+00
      -1.20746481e+00 -1.51479697e+00 -1.25268483e+00 9.96930540e-01
      4.97355640e-01 -2.88068373e-02 7.78502584e-01 2.78140831e+00
      -7.18277395e-01 -1.14689565e+00 -6.06258094e-01 2.10952234e+00
      -9.49164510e-01 -1.40583026e+00 -1.13111877e+00 1.26770175e+00
      1.01969433e+00 5.38424313e-01 1.27517664e+00 2.92917824e+00
      -1.92059994e-01 -6.50356591e-01 -3.86439227e-02 2.49396157e+00
      -5.84725082e-01 -1.13767564e+00 -7.29043365e-01 1.97536528e+00
      2.99889594e-01 6.50171936e-02 1.80827886e-01 -7.82658815e-01
      5.63140446e-03 -1.05923101e-01 2.55072918e-02 -7.46613324e-01
      1.92602620e-01 4.84260842e-02 -6.10187501e-02 -8.22529852e-01
      1.94889203e-01 -1.91975817e-01 -8.82958341e-03 -7.59521365e-01
      -5.42481393e-02 -2.19936818e-01 -8.07519183e-02 -7.35924661e-01
      1.40323162e-01 5.40030785e-02 -1.52200416e-01 -8.39717567e-01
      2.69457221e-01 -1.43655509e-01 -5.36462814e-02 -7.74774909e-01
      9.00656432e-02 -2.77808428e-01 -1.01800278e-01 -7.33349264e-01</_>
    <_>
      -3.75370026e-01 -8.41241300e-01 -3.35848570e-01 2.37665486e+00
      -1.30419064e+00 -1.55953348e+00 -1.31249595e+00 9.62148845e-01
      6.52641714e-01 2.53242373e-01 7.02294767e-01 2.75546932e+00
      -5.57646096e-01 -9.23476994e-01 -5.61585009e-01 2.08816719e+00
      -1.08614552e+00 -1.40790415e+00 -1.11173570e+00 1.23874044e+00
      1.20896852e+00 8.80613387e-01 1.25812340e+00 2.90130234e+00
      8.89461860e-02 -2.73743600e-01 9.11226869e-02 2.47337937e+00
      -5.70873857e-01 -9.67236519e-01 -5.94684184e-01 1.95530260e+00
      1.63090184e-01 1.31902043e-02 1.32424161e-01 -8.77934039e-01
      -1.61499698e-02 -1.45338461e-01 -1.00316936e-02 -8.56229484e-01
      3.84968147e-02 -7.00180978e-03 -3.47874202e-02 -9.10584748e-01
      9.82830208e-03 -2.06262678e-01 -4.52690665e-03 -8.55816007e-01
      -7.08706453e-02 -2.46559769e-01 -6.51912391e-02 -8.40488851e-01
      -2.00681742e-02 -3.15610878e-02 -1.00912414e-01 -9.25228894e-01
      3.03929020e-03 -1.86049715e-01 -2.00750437e-02 -8.68840873e-01
      -3.01574096e-02 -2.63421178e-01 -3.63492370e-02 -8.33037972e-01</_>
    <_>
      -2.38763973e-01 -7.99485683e-01 -3.61206681e-01 2.36327171e+00
      -1.23342621e+00 -1.53912783e+00 -1.43817759e+00 9.57145095e-01
      7.74144113e-01 2.75946230e-01 6.98741913e-01 2.74115825e+00
      -4.34248924e-01 -8.68700922e-01 -7.03587055e-01 2.08220887e+00
      -9.57873642e-01 -1.38941979e+00 -1.26775575e+00 1.23838091e+00
      1.30664849e+00 8.86125922e-01 1.24288166e+00 2.88671613e+00
      2.19386250e-01 -2.28221834e-01 -6.15712889e-02 2.46731400e+00
      -3.98849517e-01 -9.38768446e-01 -7.86213756e-01 1.95567048e+00
      1.58530504e-01 4.56005968e-02 5.49501032e-02 -8.61493945e-01
      -3.78630497e-02 -9.81087908e-02 -3.35838348e-02 -8.42208743e-01
      4.42550704e-03 1.71084460e-02 -1.57085955e-01 -9.00927603e-01
      1.72077492e-03 -1.70030460e-01 -4.59353104e-02 -8.42865407e-01
      -1.00520276e-01 -2.00702712e-01 -1.19156957e-01 -8.31214964e-01
      -7.18392506e-02 -2.06800997e-02 -2.28497818e-01 -9.19044733e-01
      -2.24465020e-02 -1.43065497e-01 -4.29801531e-02 -8.60702097e-01
      -7.24258125e-02 -1.93444073e-01 -8.88665691e-02 -8.26986194e-01</_>
    <_>
      -1.23662323e-01 -8.89879227e-01 -4.30589229e-01 2.34518361e+00
      -1.02055335e+00 -1.64228022e+00 -1.50592828e+00 9.60473299e-01
      8.49529088e-01 1.70531869e-01 6.04554176e-01 2.72053671e+00
      -2.54428983e-01 -1.05364907e+00 -8.05348575e-01 2.06058955e+00
      -7.40258157e-01 -1.50293648e+00 -1.36091316e+00 1.22966301e+00
      1.36256182e+00 7.71298349e-01 1.14076328e+00 2.86635709e+00
      3.57363045e-01 -4.32144135e-01 -1.74755275e-01 2.44114327e+00
      -2.08802015e-01 -1.10447776e+00 -8.98038626e-01 1.93141925e+00
      2.59479463e-01 -6.14447519e-02 4.70887944e-02 -8.14313173e-01
      1.52226379e-02 -1.03634849e-01 5.52422460e-03 -7.72678077e-01
      1.33859128e-01 -6.86459169e-02 -1.26610339e-01 -8.51416051e-01
      1.27768368e-01 -2.66629666e-01 -9.23608989e-02 -7.94736683e-01
      -3.41851525e-02 -2.18444899e-01 -8.17090198e-02 -7.71740556e-01
      7.32258782e-02 -4.68718410e-02 -1.60255805e-01 -8.68075013e-01
      1.33318752e-01 -2.51366735e-01 -1.05428211e-01 -8.11476469e-01
      5.66902272e-02 -3.18071812e-01 -1.17666654e-01 -7.77737439e-01</_>
    <_>
      -3.89713764e-01 -1.00832307e+00 -4.22997624e-01 2.51929140e+00
      -1.11920273e+00 -1.30661464e+00 -1.25409245e+00 1.10314310e+00
      4.59867358e-01 -2.41610751e-01 3.98143500e-01 2.89996600e+00
      -6.52368903e-01 -9.77950931e-01 -8.18264842e-01 2.23244619e+00
      -8.71785700e-01 -1.15977216e+00 -1.09898853e+00 1.38273275e+00
      9.29366767e-01 2.48834103e-01 8.56638193e-01 3.04630542e+00
      -1.91881835e-01 -5.67633331e-01 -3.59698653e-01 2.61801481e+00
      -5.20702422e-01 -9.24962103e-01 -7.86602378e-01 2.10007691e+00
      2.77655959e-01 1.34363368e-01 1.95665717e-01 -7.52406418e-01
      3.80215934e-03 -5.18767163e-02 7.39353345e-05 -7.38850892e-01
      1.37684569e-01 1.01507254e-01 3.50157097e-02 -7.88110077e-01
      6.51171133e-02 -1.39610261e-01 -5.88430278e-02 -7.49618292e-01
      -1.22120373e-01 -1.86009124e-01 -1.50207460e-01 -7.43391573e-01
      9.31301191e-02 1.15769848e-01 -1.67672597e-02 -8.02448571e-01
      1.12803496e-01 -1.16570622e-01 -4.07315195e-02 -7.62830615e-01
      -4.36021127e-02 -2.28643298e-01 -1.59425646e-01 -7.42185235e-01</_>
    <_>
      -5.46701029e-02 -8.91788363e-01 -4.49395955e-01 2.31768489e+00
      -9.53642786e-01 -1.66580272e+00 -1.54015183e+00 9.47735667e-01
      9.24702585e-01 1.88788176e-01 6.12040937e-01 2.68815088e+00
      -1.57175153e-01 -1.06132400e+00 -8.29888880e-01 2.03549576e+00
      -6.61149502e-01 -1.55809140e+00 -1.40378535e+00 1.21370304e+00
      1.42533827e+00 7.91644871e-01 1.15835381e+00 2.83230710e+00
      4.55721200e-01 -4.20186102e-01 -1.72222391e-01 2.41248965e+00
      -1.09499075e-01 -1.13991952e+00 -9.17669117e-01 1.90867889e+00
      2.51231313e-01 -6.30183965e-02 1.27573600e-02 -8.20681334e-01
      9.30203684e-03 -1.04012497e-01 -2.96358392e-03 -7.82674670e-01
      1.07395887e-01 -6.60278648e-02 -1.58693507e-01 -8.53920341e-01
      1.26400262e-01 -2.59904504e-01 -1.08828992e-01 -8.02902341e-01
      -3.32085118e-02 -2.19430432e-01 -9.02218297e-02 -7.80751586e-01
      4.05935533e-02 -4.37993780e-02 -1.82458028e-01 -8.68645370e-01
      1.27449885e-01 -2.48819470e-01 -1.21501654e-01 -8.18544030e-01
      6.58179671e-02 -3.11659515e-01 -1.36037737e-01 -7.88716614e-01</_>
    <_>
      -1.82321593e-01 -8.39063644e-01 -3.27837199e-01 2.32121897e+00
      -1.16023552e+00 -1.63234520e+00 -1.45597935e+00 9.33121324e-01
      8.55131090e-01 3.03534120e-01 7.57122695e-01 2.69309664e+00
      -3.69291067e-01 -9.38652694e-01 -6.28975272e-01 2.03552794e+00
      -8.85943294e-01 -1.50988662e+00 -1.27953064e+00 1.20198369e+00
      1.39290547e+00 9.45313275e-01 1.31638908e+00 2.83658004e+00
      2.79488295e-01 -2.40672186e-01 6.90804943e-02 2.41322565e+00
      -3.49064052e-01 -1.02312994e+00 -7.15267658e-01 1.90319812e+00
      1.82229981e-01 -4.09829915e-02 5.58754802e-02 -8.77099216e-01
      -2.23236196e-02 -1.28282607e-01 -1.07436832e-02 -8.57540488e-01
      1.31183360e-02 -6.51225597e-02 -1.18129142e-01 -9.05640066e-01
      8.58917087e-02 -2.53937811e-01 -6.42392561e-02 -8.60369027e-01
      -5.37810959e-02 -2.32376367e-01 -7.66708404e-02 -8.46097767e-01
      -8.07825029e-02 -9.64940339e-02 -1.91452280e-01 -9.18402076e-01
      8.07652995e-02 -2.71316946e-01 -1.06697887e-01 -8.70648265e-01
      3.52436528e-02 -2.76413441e-01 -1.05964623e-01 -8.40337157e-01</_>
    <_>
      -2.19158918e-01 -7.56040990e-01 -3.27497929e-01 2.34456110e+00
      -1.26866972e+00 -1.58411729e+00 -1.40298736e+00 9.41406131e-01
      8.02317142e-01 3.43261570e-01 7.37933576e-01 2.72162437e+00
      -4.45036530e-01 -8.81413698e-01 -6.05508387e-01 2.06256652e+00
      -9.95566130e-01 -1.41659927e+00 -1.22316396e+00 1.22022760e+00
      1.32104659e+00 9.57217634e-01 1.29503655e+00 2.86699271e+00
      2.05017924e-01 -2.12827876e-01 6.49293661e-02 2.44705772e+00
      -4.30398494e-01 -9.32363510e-01 -6.96230054e-01 1.93537688e+00
      1.17042415e-01 1.26589201e-02 6.02657758e-02 -8.84255588e-01
      -4.33577783e-02 -1.14953175e-01 -4.09988612e-02 -8.67534935e-01
      -5.20201167e-03 -2.06015650e-02 -1.26848713e-01 -9.23448026e-01
      -3.49131343e-03 -1.65441036e-01 -7.12800100e-02 -8.71856809e-01
      -1.08824313e-01 -2.03659624e-01 -1.15767702e-01 -8.61969113e-01
      -4.93352525e-02 -4.53880019e-02 -2.03959465e-01 -9.39846456e-01
      -5.73994406e-03 -1.39840469e-01 -1.04848236e-01 -8.88523340e-01
      -8.62221122e-02 -2.10164860e-01 -9.72444117e-02 -8.58357131e-01</_>
    <_>
      -4.68654521e-02 -9.41264153e-01 -5.52606404e-01 2.35805702e+00
      -9.31226492e-01 -1.60573030e+00 -1.51847458e+00 9.83985007e-01
      9.10374582e-01 1.15778364e-01 4.75899726e-01 2.72772336e+00
      -1.71084285e-01 -1.03075564e+00 -8.63063276e-01 2.07349133e+00
      -6.42908812e-01 -1.50431991e+00 -1.38150978e+00 1.24892986e+00
      1.40762615e+00 7.25964367e-01 1.03584516e+00 2.87044930e+00
      4.09838974e-01 -4.08952117e-01 -2.22582906e-01 2.44744635e+00
      -1.31927997e-01 -1.10353851e+00 -9.18566346e-01 1.94103122e+00
      2.34217405e-01 -2.01751757e-02 5.65123148e-02 -8.08778822e-01
      -1.82549842e-02 -8.23636651e-02 -2.74455491e-02 -7.85453379e-01
      9.89343002e-02 -1.33967614e-02 -6.56484962e-02 -8.37799370e-01
      1.02581590e-01 -2.56625354e-01 -1.37133226e-01 -7.95631409e-01
      -6.85509071e-02 -1.96258575e-01 -1.42357022e-01 -7.81537831e-01
      3.05647105e-02 -6.44123508e-03 -1.00933760e-01 -8.50612819e-01
      1.40257224e-01 -2.51875281e-01 -1.24805100e-01 -8.07186067e-01
      5.90808094e-02 -3.10148984e-01 -2.08627805e-01 -7.81170309e-01</_>
    <_>
      -1.70799598e-01 -7.75478184e-01 -3.19877863e-01 2.31711340e+00
      -1.17315066e+00 -1.64487076e+00 -1.47175705e+00 9.24944997e-01
      8.89130950e-01 3.69058520e-01 7.80676603e-01 2.69302797e+00
      -3.63429278e-01 -9.58990037e-01 -6.73237026e-01 2.03045201e+00
      -8.99647295e-01 -1.48043990e+00 -1.31743634e+00 1.19448376e+00
      1.43560028e+00 1.01286876e+00 1.34781575e+00 2.83806944e+00
      2.95876622e-01 -2.65549481e-01 1.53221488e-02 2.41100264e+00
      -3.46093595e-01 -1.00204480e+00 -7.90507317e-01 1.89797330e+00
      1.62674040e-01 -4.47894596e-02 2.09543109e-02 -8.32774520e-01
      -1.00828195e-02 -1.25621840e-01 -1.29048694e-02 -7.96657443e-01
      -1.76954418e-02 -1.04556583e-01 -1.89177588e-01 -8.81086290e-01
      5.48165254e-02 -2.02063337e-01 -8.56066421e-02 -8.04751277e-01
      -6.24106787e-02 -2.11146474e-01 -8.76825452e-02 -7.79759228e-01
      -1.13535054e-01 -1.77446857e-01 -2.87305355e-01 -9.02299523e-01
      2.45150253e-02 -2.08129898e-01 -1.53455526e-01 -8.29549551e-01
      -6.99780183e-03 -2.39139378e-01 -1.17142782e-01 -7.79299021e-01</_>
    <_>
      -4.75693077e-01 -8.92442942e-01 -3.31082344e-01 2.44400358e+00
      -1.30646026e+00 -1.38128781e+00 -1.24516618e+00 1.03192019e+00
      4.94724333e-01 9.35692415e-02 6.37527168e-01 2.82430434e+00
      -8.34654510e-01 -9.30424929e-01 -6.65728748e-01 2.15788746e+00
      -1.10760784e+00 -1.24205387e+00 -1.08439779e+00 1.31040394e+00
      1.03287423e+00 6.85739994e-01 1.15666270e+00 2.97116590e+00
      -3.04564804e-01 -3.93175036e-01 -9.85466838e-02 2.54426885e+00
      -7.69153416e-01 -9.13487792e-01 -6.96403205e-01 2.02786279e+00
      1.90244094e-01 1.48817465e-01 2.13480532e-01 -7.86734939e-01
      -4.71201986e-02 -9.90798026e-02 -4.17104103e-02 -7.65479326e-01
      1.53572997e-02 1.12972505e-01 5.57447225e-02 -8.26605082e-01
      1.67108960e-02 -1.12290420e-01 1.18831582e-02 -7.67710507e-01
      -1.48329049e-01 -2.04019874e-01 -1.55506954e-01 -7.53030598e-01
      -6.67443350e-02 7.03212991e-02 -1.00037698e-02 -8.44843388e-01
      4.77443524e-02 -8.02088603e-02 1.29696820e-02 -7.85574257e-01
      -8.32600296e-02 -1.95745021e-01 -1.14576012e-01 -7.48256803e-01</_>
    <_>
      -1.93437338e-02 -8.86863828e-01 -4.02455837e-01 2.30135036e+00
      -1.00687540e+00 -1.69500470e+00 -1.56222701e+00 9.19929028e-01
      9.97891486e-01 2.39720717e-01 6.88365221e-01 2.67451549e+00
      -1.88228548e-01 -1.06872904e+00 -8.00456882e-01 2.00985479e+00
      -7.08175600e-01 -1.53644156e+00 -1.43179810e+00 1.18184376e+00
      1.51896560e+00 8.64350021e-01 1.24773598e+00 2.81975698e+00
      4.49964464e-01 -4.08945799e-01 -1.15072891e-01 2.38739371e+00
      -1.50453821e-01 -1.09697473e+00 -9.26631331e-01 1.87462378e+00
      2.19519541e-01 -8.62169787e-02 -1.57566334e-03 -8.05072188e-01
      1.06288772e-02 -1.07843637e-01 -4.44812328e-03 -7.35559106e-01
      2.80638710e-02 -1.30535826e-01 -1.93160206e-01 -8.47489119e-01
      1.42085359e-01 -2.55764157e-01 -1.12489484e-01 -7.61703908e-01
      -2.91661806e-02 -2.03732550e-01 -1.00166038e-01 -7.21065998e-01
      -7.86616132e-02 -1.31970808e-01 -2.44255528e-01 -8.65719914e-01
      1.31207854e-01 -2.46611908e-01 -1.58420756e-01 -7.87246943e-01
      8.50919262e-02 -2.94328064e-01 -1.51966587e-01 -7.33008623e-01</_>
    <_>
      -1.60327092e-01 -8.09045196e-01 -3.91829669e-01 2.33113337e+00
      -1.15441906e+00 -1.62089241e+00 -1.51445043e+00 9.25962090e-01
      8.80890310e-01 3.39539051e-01 7.21423507e-01 2.70829415e+00
      -3.44952285e-01 -9.34072018e-01 -7.15931833e-01 2.03986216e+00
      -8.93830180e-01 -1.46184289e+00 -1.33931506e+00 1.19698262e+00
      1.41622519e+00 9.87015188e-01 1.29896879e+00 2.85477161e+00
      3.05222034e-01 -2.38475651e-01 -1.04654515e-02 2.42469096e+00
      -3.46275479e-01 -9.73580241e-01 -7.88346767e-01 1.90754199e+00
      1.66954830e-01 -2.83744968e-02 2.67563593e-02 -8.30930531e-01
      -2.43079327e-02 -1.22981854e-01 -2.66873762e-02 -7.92080462e-01
      -2.88312440e-03 -9.05967131e-02 -1.52547821e-01 -8.83786082e-01
      5.13764322e-02 -2.20929518e-01 -8.84170160e-02 -7.98806250e-01
      -7.46413767e-02 -2.23941296e-01 -9.25813764e-02 -7.76983798e-01
      -8.46592113e-02 -1.37840152e-01 -2.19256341e-01 -9.07357931e-01
      2.55904365e-02 -2.26181448e-01 -1.22398138e-01 -8.28622162e-01
      -1.17598744e-02 -2.54555345e-01 -1.10399902e-01 -7.76641488e-01</_>
    <_>
      -1.73360437e-01 -9.03830469e-01 -5.61855137e-01 2.42142582e+00
      -1.15087855e+00 -1.41887784e+00 -1.37599385e+00 1.02445555e+00
      8.04622829e-01 1.14007086e-01 4.34968263e-01 2.79588532e+00
      -4.80497718e-01 -9.15197134e-01 -8.03112864e-01 2.14064169e+00
      -9.40102875e-01 -1.27604795e+00 -1.21603763e+00 1.30170894e+00
      1.32293069e+00 7.29452789e-01 9.95632052e-01 2.93965888e+00
      1.22775659e-01 -3.28325629e-01 -1.97500810e-01 2.52152014e+00
      -4.81993258e-01 -9.03067589e-01 -8.04490149e-01 2.01216269e+00
      1.70534775e-01 1.06683902e-01 1.47666708e-01 -8.34638715e-01
      -3.10042668e-02 -6.96267113e-02 -4.31797318e-02 -8.25170279e-01
      -3.08651794e-02 2.99740527e-02 3.25893797e-02 -8.62229884e-01
      8.27383809e-03 -1.14871040e-01 -7.33145326e-02 -8.28699708e-01
      -1.25893652e-01 -1.58661127e-01 -1.51361391e-01 -8.22128654e-01
      -1.22137487e-01 -1.89929642e-02 -2.85595711e-02 -8.73971820e-01
      -8.40263814e-03 -1.16257668e-01 -7.97558799e-02 -8.38971555e-01
      -5.13802916e-02 -1.59775570e-01 -1.57302395e-01 -8.19248676e-01</_>
    <_>
      -1.60195813e-01 -8.19974303e-01 -3.91450226e-01 2.35042310e+00
      -1.08513510e+00 -1.58116663e+00 -1.46806335e+00 9.65459168e-01
      8.50051999e-01 2.66452014e-01 6.81193113e-01 2.72286510e+00
      -3.07601035e-01 -9.60324526e-01 -7.21105158e-01 2.06813765e+00
      -8.16064775e-01 -1.44821012e+00 -1.33582842e+00 1.23730731e+00
      1.37887979e+00 8.97877276e-01 1.24101484e+00 2.86717701e+00
      3.25719029e-01 -3.04049909e-01 -4.79571298e-02 2.44723940e+00
      -2.75081664e-01 -1.01799142e+00 -8.35070372e-01 1.94045055e+00
      2.00412795e-01 -3.42378505e-02 2.61480547e-02 -8.37201059e-01
      -2.33097412e-02 -1.14205308e-01 -2.32770052e-02 -8.11235189e-01
      5.77310957e-02 -8.58953148e-02 -1.59099624e-01 -8.72319400e-01
      5.25654480e-02 -2.26897478e-01 -1.13019556e-01 -8.25328887e-01
      -8.96658748e-02 -2.21754223e-01 -1.18111581e-01 -8.09820712e-01
      -9.63992905e-03 -1.10120192e-01 -2.11843804e-01 -8.86783063e-01
      5.18464707e-02 -2.20963299e-01 -1.65534154e-01 -8.40012074e-01
      -2.41538864e-02 -2.60253698e-01 -1.48741439e-01 -8.10256958e-01</_>
    <_>
      -2.32353106e-01 -7.45380342e-01 -3.08038533e-01 2.33480811e+00
      -1.28983831e+00 -1.61739480e+00 -1.36159801e+00 9.35778439e-01
      8.04143846e-01 3.48525643e-01 7.44172215e-01 2.71073365e+00
      -4.97440130e-01 -9.51545000e-01 -5.60528517e-01 2.05315518e+00
      -1.06404161e+00 -1.46512580e+00 -1.17947340e+00 1.21429455e+00
      1.32619894e+00 9.62530255e-01 1.29407382e+00 2.85613108e+00
      1.41663343e-01 -2.93731481e-01 9.77055877e-02 2.43718171e+00
      -5.38828552e-01 -1.01996279e+00 -6.61103666e-01 1.92769146e+00
      1.31755292e-01 8.86781141e-03 7.56264552e-02 -8.58217478e-01
      -2.95339487e-02 -1.25038326e-01 -2.19301563e-02 -8.38165045e-01
      -3.03583592e-02 -5.33646997e-03 -1.02647796e-01 -9.06803071e-01
      2.67399270e-02 -1.67089507e-01 -4.86821868e-02 -8.46222401e-01
      -9.52181518e-02 -2.16969237e-01 -8.70946720e-02 -8.36439312e-01
      -9.08871517e-02 -2.01509669e-02 -1.72424480e-01 -9.29709136e-01
      3.60936262e-02 -1.23473577e-01 -7.95361772e-02 -8.72870922e-01
      -3.15814242e-02 -2.42550969e-01 -6.20327182e-02 -8.40523481e-01</_>
    <_>
      -4.68811579e-02 -8.12174082e-01 -3.82545292e-01 2.28207088e+00
      -1.03696489e+00 -1.69398642e+00 -1.54607356e+00 9.09536660e-01
      9.99454975e-01 3.42848420e-01 7.21632719e-01 2.65378237e+00
      -2.00529844e-01 -1.01666665e+00 -7.54076064e-01 1.99593771e+00
      -7.42389262e-01 -1.55771899e+00 -1.40308154e+00 1.17278194e+00
      1.52758908e+00 9.63830113e-01 1.28352594e+00 2.79818487e+00
      4.44497645e-01 -3.23269486e-01 -5.38381860e-02 2.37214208e+00
      -1.81515291e-01 -1.07951605e+00 -8.68330359e-01 1.86430407e+00
      2.01630086e-01 -7.65657052e-02 7.01678451e-03 -8.42901170e-01
      1.34307602e-02 -1.18969612e-01 -1.40357995e-03 -7.98196256e-01
      -5.01755066e-03 -1.46439090e-01 -2.02102602e-01 -8.77930105e-01
      1.28834292e-01 -2.34063551e-01 -9.05799046e-02 -8.19010258e-01
      -1.69358440e-02 -2.19697133e-01 -8.18594322e-02 -7.90154338e-01
      -1.17038138e-01 -1.53248474e-01 -2.65113145e-01 -8.92479002e-01
      1.03841186e-01 -2.41968870e-01 -1.46698415e-01 -8.34062934e-01
      8.20716098e-02 -2.78696448e-01 -1.22947983e-01 -7.95307517e-01</_>
    <_>
      -2.81530797e-01 -9.10933912e-01 -4.51895028e-01 2.41636777e+00
      -1.15384758e+00 -1.50121129e+00 -1.28643036e+00 1.02982283e+00
      7.06881583e-01 1.10682644e-01 5.26883245e-01 2.78922272e+00
      -4.88284349e-01 -1.02846801e+00 -6.69218898e-01 2.13910508e+00
      -9.18890893e-01 -1.39834595e+00 -1.14440382e+00 1.30771589e+00
      1.24488616e+00 7.21644759e-01 1.08553839e+00 2.93305969e+00
      1.15844928e-01 -4.43607032e-01 -5.76347895e-02 2.51858163e+00
      -4.59558964e-01 -1.06707132e+00 -7.24478900e-01 2.01493049e+00
      1.78131059e-01 2.67789178e-02 1.75699517e-01 -8.15956891e-01
      -3.52097414e-02 -1.07916035e-01 -2.44231597e-02 -7.98267603e-01
      3.88310887e-02 9.49313119e-03 4.04953323e-02 -8.44326675e-01
      -2.33100471e-03 -2.05760539e-01 -4.04626206e-02 -8.10219347e-01
      -1.19065262e-01 -2.21896261e-01 -1.20896265e-01 -8.00887048e-01
      -2.09249500e-02 9.57731716e-03 -4.53016758e-02 -8.56379509e-01
      9.29474365e-03 -1.87924027e-01 -5.10139652e-02 -8.22711468e-01
      -5.62341996e-02 -2.63766289e-01 -1.09039776e-01 -8.02742839e-01</_>
    <_>
      -3.46910715e-01 -1.06844258e+00 -2.71061897e-01 2.37634778e+00
      -1.08221102e+00 -1.59840643e+00 -1.37045419e+00 9.89199221e-01
      5.85315168e-01 -5.43760173e-02 7.49017119e-01 2.75207114e+00
      -5.27828753e-01 -1.15378547e+00 -6.78940713e-01 2.09156322e+00
      -7.88834691e-01 -1.46864271e+00 -1.24320841e+00 1.25920475e+00
      1.08796918e+00 5.56659997e-01 1.27315831e+00 2.89755368e+00
      -9.98681691e-03 -5.91506720e-01 -5.92869297e-02 2.47174311e+00
      -3.87851566e-01 -1.12168407e+00 -7.90528417e-01 1.96116400e+00
      3.42196673e-01 -1.36889461e-02 1.16824538e-01 -7.95210123e-01
      1.58613771e-02 -9.94455442e-02 4.01492715e-02 -7.65171051e-01
      2.53099471e-01 -3.72582139e-03 -1.23399593e-01 -8.28938186e-01
      2.53480911e-01 -2.56929457e-01 -5.21572493e-02 -7.74210215e-01
      -3.12805064e-02 -2.12693974e-01 -6.65407330e-02 -7.53303707e-01
      1.83820426e-01 1.72609072e-02 -2.04121992e-01 -8.43669653e-01
      3.28177392e-01 -2.03065500e-01 -9.57146287e-02 -7.86229432e-01
      1.28726214e-01 -3.35685968e-01 -1.23156734e-01 -7.48276711e-01</_>
    <_>
      -1.01429513e-02 -8.67017925e-01 -4.89804715e-01 2.30712080e+00
      -9.52165425e-01 -1.65965784e+00 -1.62297559e+00 9.26204562e-01
      9.58291709e-01 2.30635017e-01 6.06219411e-01 2.68094730e+00
      -1.10720508e-01 -9.72760677e-01 -8.28670084e-01 2.02184057e+00
      -6.52684927e-01 -1.52440083e+00 -1.47038460e+00 1.19333541e+00
      1.44881010e+00 8.49159777e-01 1.16799641e+00 2.82630086e+00
      4.98799980e-01 -3.02742779e-01 -1.25947893e-01 2.40119791e+00
      -9.31409523e-02 -1.04969406e+00 -9.24806714e-01 1.89203727e+00
      2.42502823e-01 -5.08300178e-02 -1.72029845e-02 -8.43262672e-01
      -6.96491590e-03 -9.42401662e-02 -1.85655188e-02 -8.00687015e-01
      1.06287740e-01 -6.28905892e-02 -1.80070773e-01 -8.76531422e-01
      1.11312702e-01 -2.47012749e-01 -1.53409287e-01 -8.18365037e-01
      -4.31696847e-02 -2.04552293e-01 -1.13152966e-01 -7.94076800e-01
      2.74484735e-02 -5.80919869e-02 -2.09929809e-01 -8.91181350e-01
      1.14449784e-01 -2.52749264e-01 -1.89666569e-01 -8.33696246e-01
      6.66133612e-02 -2.84156412e-01 -1.77056491e-01 -7.98280656e-01</_>
    <_>
      -2.69240111e-01 -9.47954357e-01 -4.34412926e-01 2.43099380e+00
      -1.14483368e+00 -1.54952312e+00 -1.28940105e+00 1.02962744e+00
      6.69228852e-01 4.12101150e-02 4.94629681e-01 2.80874109e+00
      -5.70783019e-01 -1.08550441e+00 -6.61243737e-01 2.14445472e+00
      -9.34989989e-01 -1.41818595e+00 -1.12629879e+00 1.30415690e+00
      1.16007030e+00 5.99796534e-01 9.77561176e-01 2.95490646e+00
      -2.07540970e-02 -5.27727425e-01 -9.75410193e-02 2.52775979e+00
      -5.34776032e-01 -1.10966444e+00 -7.17046201e-01 2.01387310e+00
      2.41879284e-01 -2.20652646e-03 1.81427896e-01 -7.92213798e-01
      2.72278413e-02 -9.29229409e-02 3.40114683e-02 -7.64775574e-01
      8.49414915e-02 -2.40950175e-02 6.73632249e-02 -8.24099481e-01
      1.25513330e-01 -2.43565336e-01 -5.03952876e-02 -7.70136237e-01
      -4.15494181e-02 -2.05046564e-01 -8.70789513e-02 -7.52379477e-01
      2.84463409e-02 3.56245693e-03 4.13096547e-02 -8.38620603e-01
      1.36519656e-01 -2.30570674e-01 -8.04804564e-02 -7.85513580e-01
      5.54228835e-02 -2.90893793e-01 -1.17577709e-01 -7.50633478e-01</_>
    <_>
      -3.55632365e-01 -1.05231845e+00 -2.63497412e-01 2.37237358e+00
      -1.11967731e+00 -1.59708846e+00 -1.33836484e+00 9.84627068e-01
      5.83639741e-01 -4.60818559e-02 7.50018060e-01 2.74873805e+00
      -5.86117983e-01 -1.15813482e+00 -6.47507787e-01 2.08722425e+00
      -8.52534235e-01 -1.51198757e+00 -1.18947244e+00 1.25519502e+00
      1.08303976e+00 5.40133238e-01 1.26821816e+00 2.89463425e+00
      -6.42287508e-02 -6.06937349e-01 -4.15333882e-02 2.46789551e+00
      -4.62930650e-01 -1.19819462e+00 -7.40019619e-01 1.95734429e+00
      3.23397607e-01 5.12749283e-03 1.36601776e-01 -7.93222010e-01
      2.20279973e-02 -9.63097885e-02 3.95673290e-02 -7.55427063e-01
      2.27326751e-01 4.24876586e-02 -9.69240740e-02 -8.28649163e-01
      2.47584373e-01 -2.42776737e-01 -2.44734287e-02 -7.69109488e-01
      -2.27322858e-02 -2.28226379e-01 -5.63695803e-02 -7.45424509e-01
      1.73154026e-01 7.70126358e-02 -1.84107497e-01 -8.45572889e-01
      3.19048733e-01 -1.95381805e-01 -7.42164925e-02 -7.84773648e-01
      1.32586300e-01 -3.07103992e-01 -1.10898882e-01 -7.45043576e-01</_>
    <_>
      -5.15913427e-01 -9.31898296e-01 -3.03355366e-01 2.43889427e+00
      -1.25591576e+00 -1.43110979e+00 -1.27617538e+00 1.01626754e+00
      4.55534607e-01 5.46630546e-02 6.75620973e-01 2.82302618e+00
      -7.69417107e-01 -9.95896041e-01 -6.66172326e-01 2.14432573e+00
      -1.01690888e+00 -1.31348097e+00 -1.13745356e+00 1.29045522e+00
      9.95882094e-01 6.59456372e-01 1.20057797e+00 2.97169185e+00
      -2.33783215e-01 -4.51290041e-01 -8.98503363e-02 2.53312302e+00
      -6.57598257e-01 -1.00276315e+00 -7.40378261e-01 2.00802255e+00
      2.52093673e-01 1.29726782e-01 1.77909523e-01 -7.74090171e-01
      -4.04402204e-02 -1.01487085e-01 -2.96506938e-02 -7.33902395e-01
      1.37621969e-01 9.16135982e-02 -8.27024970e-03 -8.26051354e-01
      1.01596534e-01 -1.40939444e-01 -4.58843336e-02 -7.47696042e-01
      -1.14922471e-01 -2.25344256e-01 -1.32137239e-01 -7.23043859e-01
      6.90497532e-02 5.96669838e-02 -8.76404047e-02 -8.48041117e-01
      1.60228118e-01 -1.31133616e-01 -7.20666945e-02 -7.74881601e-01
      8.54732655e-03 -2.49671876e-01 -1.34197116e-01 -7.24743247e-01</_>
    <_>
      -3.86052698e-01 -9.60332930e-01 -4.13445026e-01 2.44253612e+00
      -1.18821096e+00 -1.48621678e+00 -1.23133671e+00 1.04173446e+00
      5.78623235e-01 3.80997770e-02 5.18398941e-01 2.81920481e+00
      -5.68544328e-01 -1.03464150e+00 -6.24260366e-01 2.15888786e+00
      -9.62306380e-01 -1.41409099e+00 -1.09285426e+00 1.31900978e+00
      1.11431324e+00 6.29963934e-01 1.03005970e+00 2.96466804e+00
      1.70446970e-02 -4.88823861e-01 -5.86872436e-02 2.54193401e+00
      -5.35616934e-01 -1.11567068e+00 -6.95171416e-01 2.03085637e+00
      2.16952458e-01 2.95352098e-02 2.09362015e-01 -7.82384455e-01
      -1.26497615e-02 -9.82150584e-02 -5.00899227e-03 -7.57290483e-01
      1.16528384e-01 4.04111343e-03 7.17558339e-02 -8.23706150e-01
      3.00172828e-02 -2.31478408e-01 -2.48997789e-02 -7.74518728e-01
      -1.08118325e-01 -2.34572932e-01 -1.08430967e-01 -7.60466456e-01
      8.14209729e-02 6.30270923e-03 7.80214975e-03 -8.41203868e-01
      6.12094104e-02 -2.19125047e-01 -4.87397164e-02 -7.94752359e-01
      -3.62304300e-02 -2.90803105e-01 -1.05022267e-01 -7.66382635e-01</_>
    <_>
      -3.52001160e-01 -9.97801304e-01 -2.61927307e-01 2.38297677e+00
      -1.14485228e+00 -1.58993399e+00 -1.34498727e+00 9.84735370e-01
      6.29008532e-01 2.13920325e-02 7.54088283e-01 2.76234460e+00
      -5.51697850e-01 -1.11411321e+00 -6.49399400e-01 2.09410906e+00
      -8.70545268e-01 -1.46844387e+00 -1.21666312e+00 1.25537634e+00
      1.14881945e+00 6.11181557e-01 1.27083027e+00 2.90977502e+00
      6.23194641e-03 -5.57881057e-01 -3.40330191e-02 2.47786260e+00
      -4.43918765e-01 -1.12812781e+00 -7.59652138e-01 1.96183562e+00
      2.86985308e-01 -9.34403669e-03 1.13344587e-01 -7.88039982e-01
      6.40125712e-03 -1.08089328e-01 2.06693467e-02 -7.50683248e-01
      1.67044774e-01 -1.69637594e-02 -1.20852068e-01 -8.29024851e-01
      1.97924241e-01 -2.39364177e-01 -5.62488735e-02 -7.63068855e-01
      -4.10793386e-02 -2.32682124e-01 -7.88169652e-02 -7.39292681e-01
      1.07140854e-01 1.06645301e-02 -1.90566763e-01 -8.47555816e-01
      2.59664237e-01 -1.93624213e-01 -9.88321826e-02 -7.81764507e-01
      1.01172827e-01 -3.18939656e-01 -1.12179369e-01 -7.38587797e-01</_>
    <_>
      -5.35955906e-01 -9.64034081e-01 -2.71412402e-01 2.42839098e+00
      -1.27182293e+00 -1.43785250e+00 -1.23139608e+00 1.01144266e+00
      4.35826302e-01 3.51610258e-02 7.22367883e-01 2.81014729e+00
      -7.76240468e-01 -1.00405777e+00 -5.75007617e-01 2.13710499e+00
      -1.04239273e+00 -1.34057033e+00 -1.07176697e+00 1.28633142e+00
      9.86417174e-01 6.58837497e-01 1.25250542e+00 2.95785308e+00
      -2.31306478e-01 -4.62224424e-01 1.05766496e-02 2.52412605e+00
      -6.71613157e-01 -1.02587700e+00 -6.53024077e-01 2.00253081e+00
      2.42474660e-01 9.50950757e-02 1.88100532e-01 -8.06157351e-01
      -3.18594575e-02 -1.14832290e-01 -1.54297948e-02 -7.78601885e-01
      1.24334127e-01 5.91937862e-02 -7.53669534e-03 -8.44133496e-01
      1.01356350e-01 -1.50370598e-01 -1.05254408e-02 -7.84575582e-01
      -9.62216482e-02 -2.31377065e-01 -1.10798523e-01 -7.65591860e-01
      5.20320088e-02 2.02355683e-02 -1.02079459e-01 -8.60091627e-01
      1.50244817e-01 -1.10792011e-01 -4.02012765e-02 -7.99006343e-01
      1.50926597e-02 -2.24340022e-01 -9.76314843e-02 -7.59069681e-01</_>
    <_>
      -1.87805593e-01 -7.01403379e-01 -2.99658835e-01 2.30096984e+00
      -1.31011248e+00 -1.61208713e+00 -1.38570404e+00 9.11810279e-01
      8.86833310e-01 4.47417438e-01 7.91385829e-01 2.67488027e+00
      -4.33410466e-01 -8.61323535e-01 -5.59436977e-01 2.02144814e+00
      -1.09498262e+00 -1.46151030e+00 -1.18013060e+00 1.18800759e+00
      1.44205201e+00 1.08399093e+00 1.36390042e+00 2.81961870e+00
      2.65945554e-01 -1.55538648e-01 1.34839594e-01 2.40315413e+00
      -5.13220668e-01 -9.64413881e-01 -6.30419374e-01 1.89677680e+00
      6.44268319e-02 -1.15451962e-02 7.25180432e-02 -8.82648706e-01
      -1.64968148e-02 -1.31870940e-01 -1.77504588e-02 -8.64073932e-01
      -1.51004747e-01 -6.74196780e-02 -1.22904122e-01 -9.23142612e-01
      -4.26541604e-02 -1.67414814e-01 3.26401764e-03 -8.65471423e-01
      -7.25555122e-02 -2.18691200e-01 -5.76388761e-02 -8.53172123e-01
      -2.69036233e-01 -1.49323553e-01 -2.46721670e-01 -9.41358328e-01
      -1.31520167e-01 -1.61652282e-01 -4.38794419e-02 -8.84634256e-01
      -7.73932561e-02 -1.86757535e-01 -1.36149917e-02 -8.49734068e-01</_>
    <_>
      -3.95780385e-01 -1.02383769e+00 -5.21099746e-01 2.53753829e+00
      -1.08049047e+00 -1.31148744e+00 -1.23284125e+00 1.12123668e+00
      3.58597368e-01 -3.02747518e-01 2.52747059e-01 2.91854334e+00
      -6.82235241e-01 -9.79453504e-01 -8.15625310e-01 2.25164390e+00
      -8.64746332e-01 -1.15404308e+00 -1.06717074e+00 1.40121949e+00
      7.92258322e-01 1.57266453e-01 6.95045948e-01 3.06477261e+00
      -2.68934250e-01 -5.94532192e-01 -3.98162812e-01 2.63752270e+00
      -5.57390332e-01 -9.38546538e-01 -8.00310671e-01 2.11974907e+00
      3.13412607e-01 1.21657200e-01 2.40688398e-01 -7.33825207e-01
      1.52593357e-02 -3.44101898e-02 1.73527896e-02 -7.21266568e-01
      1.64522588e-01 1.26753226e-01 1.40683532e-01 -7.69642651e-01
      7.49233887e-02 -1.48933366e-01 -1.48579618e-02 -7.32381284e-01
      -1.00073732e-01 -1.87752411e-01 -1.24380700e-01 -7.25829661e-01
      1.14554077e-01 1.54742584e-01 1.13565318e-01 -7.84393370e-01
      1.05487272e-01 -1.24899656e-01 1.89837236e-02 -7.45029867e-01
      -2.79778503e-02 -2.42139027e-01 -9.78753492e-02 -7.25623012e-01</_>
    <_>
      -4.80683714e-01 -1.03654242e+00 -2.89756417e-01 2.42538953e+00
      -1.20996666e+00 -1.45493019e+00 -1.23172092e+00 1.02881694e+00
      4.56710935e-01 -1.05834246e-01 6.61092281e-01 2.80219841e+00
      -7.54774034e-01 -1.10963678e+00 -6.36885345e-01 2.14086890e+00
      -9.77430463e-01 -1.37053609e+00 -1.06835735e+00 1.30317974e+00
      9.72354829e-01 4.68761355e-01 1.15798032e+00 2.94761729e+00
      -2.56248116e-01 -6.23475015e-01 -8.59115124e-02 2.52240062e+00
      -6.49259388e-01 -1.12630856e+00 -6.81873560e-01 2.01063585e+00
      2.85726011e-01 1.01270221e-01 2.13519901e-01 -7.82749355e-01
      -6.28473796e-03 -8.76924396e-02 1.63557213e-02 -7.54938781e-01
      1.82140186e-01 9.59927961e-02 4.76704463e-02 -8.21232021e-01
      1.59349740e-01 -1.49708062e-01 1.99722126e-02 -7.73605585e-01
      -7.13928044e-02 -2.09076464e-01 -7.82568678e-02 -7.56319225e-01
      1.22576900e-01 7.86963627e-02 -1.76779050e-02 -8.37006152e-01
      2.28251293e-01 -1.24318518e-01 -1.13369059e-02 -7.89952815e-01
      6.41768575e-02 -2.39652202e-01 -9.21840295e-02 -7.60190129e-01</_>
    <_>
      -6.61779493e-02 -9.15399671e-01 -4.27013874e-01 2.33038235e+00
      -9.99633372e-01 -1.70285189e+00 -1.47900689e+00 9.64466810e-01
      9.14360464e-01 2.09844172e-01 6.09394252e-01 2.70029545e+00
      -2.19910488e-01 -1.05805242e+00 -7.75826097e-01 2.05035377e+00
      -7.25325525e-01 -1.58886278e+00 -1.33275855e+00 1.23146558e+00
      1.41741753e+00 8.42258394e-01 1.16637897e+00 2.84381151e+00
      3.80553275e-01 -3.75171959e-01 -1.22620888e-01 2.42556000e+00
      -2.01408252e-01 -1.12763834e+00 -8.50246489e-01 1.92361295e+00
      2.09954455e-01 -9.33449417e-02 5.65463342e-02 -7.95453548e-01
      -3.89947905e-03 -1.14006884e-01 -1.44912852e-02 -7.54314601e-01
      6.55404031e-02 -7.38122985e-02 -9.83400643e-02 -8.34263980e-01
      8.86174887e-02 -3.17506462e-01 -8.30195472e-02 -7.78856039e-01
      -5.32872826e-02 -2.28097066e-01 -9.95572433e-02 -7.56511450e-01
      -9.32848733e-03 -5.99746108e-02 -1.72841236e-01 -8.51564765e-01
      1.07090741e-01 -2.81984627e-01 -9.43193212e-02 -8.00819457e-01
      5.31863645e-02 -3.51673216e-01 -1.31816193e-01 -7.70101666e-01</_>
    <_>
      -2.76719391e-01 -8.26493144e-01 -4.45651084e-01 2.41371775e+00
      -1.19235849e+00 -1.41983116e+00 -1.37169576e+00 1.00737143e+00
      7.31064022e-01 1.93547547e-01 5.75003505e-01 2.79085732e+00
      -5.16384184e-01 -8.79128158e-01 -7.38390148e-01 2.12859797e+00
      -9.61400092e-01 -1.27669990e+00 -1.24239755e+00 1.28464866e+00
      1.27397251e+00 7.96841085e-01 1.12529743e+00 2.93611860e+00
      9.46184322e-02 -2.93378323e-01 -1.22164823e-01 2.51213622e+00
      -4.92609531e-01 -9.04987514e-01 -8.23068261e-01 1.99838591e+00
      1.63519070e-01 1.20954722e-01 1.31305978e-01 -8.47171485e-01
      -5.45481257e-02 -8.90604258e-02 -6.34693801e-02 -8.35760474e-01
      -1.07652638e-02 6.05126880e-02 -2.57989317e-02 -8.75244856e-01
      -1.16165392e-02 -1.14821576e-01 -9.02304500e-02 -8.35324049e-01
      -1.47513598e-01 -1.86587542e-01 -1.74938992e-01 -8.26474130e-01
      -9.82472748e-02 1.49271283e-02 -8.91991481e-02 -8.87288809e-01
      -8.93293321e-03 -1.06296293e-01 -1.04710422e-01 -8.45248282e-01
      -8.29079598e-02 -1.76272303e-01 -1.61654636e-01 -8.19956481e-01</_>
    <_>
      -1.07197752e-02 -9.45890009e-01 -4.59760308e-01 2.30312204e+00
      -9.04184818e-01 -1.66597235e+00 -1.53782940e+00 9.45808768e-01
      1.01967633e+00 1.63573965e-01 6.00574136e-01 2.66859865e+00
      -6.52281046e-02 -1.08113194e+00 -8.36566031e-01 2.02146244e+00
      -5.57100117e-01 -1.60903752e+00 -1.44147456e+00 1.20833027e+00
      1.54940522e+00 7.98584819e-01 1.15970242e+00 2.80979943e+00
      5.82276165e-01 -4.17349637e-01 -1.63056657e-01 2.39016891e+00
      2.51405798e-02 -1.17458892e+00 -9.51702714e-01 1.89029634e+00
      2.22412065e-01 -6.13722876e-02 1.66533571e-02 -7.91252434e-01
      -1.15751820e-02 -9.47254226e-02 -2.97067631e-02 -7.34532833e-01
      4.72415462e-02 -8.91310349e-02 -1.70743197e-01 -8.24397683e-01
      8.35166052e-02 -2.77137637e-01 -1.51846498e-01 -7.62829602e-01
      -6.20099977e-02 -2.23691344e-01 -1.34972021e-01 -7.24901974e-01
      -3.79125997e-02 -8.26238990e-02 -2.17116997e-01 -8.37691367e-01
      8.29423070e-02 -2.73395568e-01 -1.74297661e-01 -7.79800594e-01
      3.81105840e-02 -3.18597317e-01 -1.99955806e-01 -7.39586234e-01</_>
    <_>
      -1.58031315e-01 -8.17265391e-01 -4.91350591e-01 2.38033891e+00
      -1.14022434e+00 -1.48335004e+00 -1.48087418e+00 9.67084706e-01
      8.45311999e-01 2.31796563e-01 5.60455382e-01 2.75744438e+00
      -3.48650575e-01 -8.73060286e-01 -7.43355870e-01 2.08676124e+00
      -8.80209029e-01 -1.34519291e+00 -1.33058918e+00 1.23750687e+00
      1.35604823e+00 8.41564178e-01 1.12835252e+00 2.90197897e+00
      2.70450532e-01 -2.48904645e-01 -7.37308413e-02 2.46842360e+00
      -3.54491919e-01 -9.34909880e-01 -8.18968594e-01 1.94726336e+00
      1.55116037e-01 4.53097932e-02 8.77610371e-02 -8.75354707e-01
      -4.47041765e-02 -1.13926798e-01 -5.00074290e-02 -8.60328436e-01
      3.05621568e-02 -3.33284523e-04 -3.87345329e-02 -9.06841218e-01
      2.83860695e-02 -1.70853600e-01 -1.04384251e-01 -8.65220487e-01
      -1.09986834e-01 -2.08122492e-01 -1.43706203e-01 -8.54705155e-01
      -1.94039065e-02 -3.07176542e-02 -8.73793811e-02 -9.21547532e-01
      5.57831042e-02 -1.74877912e-01 -1.23168856e-01 -8.78487825e-01
      -1.22168101e-02 -2.31871635e-01 -1.81610480e-01 -8.52048099e-01</_>
    <_>
      -3.83194000e-01 -9.41912532e-01 -3.60173374e-01 2.43247890e+00
      -1.22890544e+00 -1.45182502e+00 -1.25305688e+00 1.02738106e+00
      5.88551164e-01 6.06243201e-02 6.25181854e-01 2.80879903e+00
      -6.81641877e-01 -9.96072471e-01 -6.31905019e-01 2.14570904e+00
      -9.98895466e-01 -1.32484698e+00 -1.08731794e+00 1.30185604e+00
      1.11934769e+00 6.65229142e-01 1.16448164e+00 2.95306492e+00
      -1.16920911e-01 -4.40526962e-01 -3.88054959e-02 2.52748942e+00
      -6.08408511e-01 -9.96663332e-01 -6.62692487e-01 2.01255918e+00
      2.17567325e-01 6.55918866e-02 1.65621132e-01 -8.18304241e-01
