<?xml version="1.0"?>
<opencv_storage>
<my_svm type_id="opencv-ml-svm">
  <svm_type>C_SVC</svm_type>
  <kernel><type>RBF</type>
    <gamma>7.8125000000000000e-03</gamma></kernel>
  <C>32.</C>
  <term_criteria><epsilon>2.2204460492503131e-16</epsilon>
    <iterations>100</iterations></term_criteria>
  <var_all>128</var_all>
  <var_count>128</var_count>
  <class_count>8</class_count>
  <class_labels type_id="opencv-matrix">
    <rows>1</rows>
    <cols>8</cols>
    <dt>i</dt>
    <data>
      0 1 2 3 4 5 6 7</data></class_labels>
  <sv_total>1001</sv_total>
  <support_vectors>
    <_>
      5. 0. 0. 0. 4. 6. 0. 0. 0. 4. 3. 0. 0. 0. 0. 0. 1. 0. 0. 0. 1. 3.
      0. 0. 0. 3. 6. 0. 0. 0. 6. 3. 1. 0. 0. 0. 7. 4. 0. 0. 0. 0. 0. 0.
      0. 0. 1. 5. 0. 0. 0. 0. 0. 3. 0. 0. 0. 0. 0. 0. 0. 0. 0. 1. 3. 0.
      0. 0. 3. 4. 0. 0. 0. 4. 4. 0. 0. 0. 0. 0. 2. 0. 0. 0. 2. 4. 1. 0.
      0. 4. 5. 0. 0. 0. 5. 4. 1. 0. 0. 0. 4. 4. 0. 0. 0. 1. 1. 1. 0. 0.
      1. 4. 0. 0. 0. 0. 0. 2. 0. 0. 0. 1. 0. 0. 0. 0. 0. 1.</_>
    <_>
      4. 4. 0. 0. 0. 3. 3. 0. 0. 0. 0. 0. 0. 0. 0. 0. 7. 1. 0. 0. 0. 1.
      1. 0. 0. 0. 5. 2. 0. 0. 0. 4. 0. 0. 0. 0. 1. 4. 0. 0. 0. 0. 0. 1.
      0. 0. 0. 8. 0. 0. 0. 0. 0. 0. 0. 0. 0. 0. 0. 0. 0. 0. 0. 2. 3. 3.
      0. 0. 0. 4. 3. 0. 0. 0. 1. 0. 0. 0. 0. 0. 3. 2. 0. 0. 1. 3. 3. 0.
      0. 0. 5. 4. 0. 0. 1. 5. 1. 0. 0. 0. 5. 6. 1. 0. 0. 0. 3. 3. 0. 0.
      1. 5. 0. 0. 0. 0. 0. 0. 0. 0. 0. 0. 0. 0. 0. 0. 0. 2.</_>
    <_>
      5. 0. 0. 0. 2. 5. 0. 0. 0. 4. 1. 0. 0. 0. 0. 0. 1. 0. 0. 0. 1. 3.
      0. 0. 0. 2. 7. 0. 0. 0. 5. 2. 2. 0. 0. 0. 6. 5. 0. 0. 0. 0. 0. 0.
      0. 0. 1. 7. 0. 0. 0. 0. 0. 0. 0. 0. 0. 0. 0. 0. 0. 0. 0. 1. 3. 0.
      0. 0. 3. 4. 0. 0. 0. 4. 3. 0. 0. 0. 0. 0. 3. 0. 0. 0. 3. 4. 0. 0.
      0. 4. 5. 0. 0. 0. 4. 3. 4. 0. 0. 0. 5. 3. 1. 0. 0. 0. 1. 0. 0. 0.
      1. 4. 0. 0. 0. 0. 0. 0. 0. 0. 0. 0. 0. 0. 0. 0. 0. 1.</_>
    <_>
      1. 0. 0. 0. 0. 0. 0. 0. 0. 0. 0. 0. 0. 0. 0. 0. 1. 5. 0. 0. 0. 2.
      7. 2. 0. 0. 1. 6. 0. 0. 0. 0. 3. 0. 0. 0. 5. 6. 1. 0. 0. 0. 0. 4.
      0. 0. 0. 3. 0. 0. 0. 0. 0. 3. 0. 0. 0. 0. 0. 0. 0. 0. 0. 4. 1. 0.
      0. 0. 0. 1. 0. 0. 0. 0. 0. 0. 0. 0. 0. 0. 3. 4. 1. 0. 0. 4. 5. 3.
      0. 0. 4. 6. 0. 0. 0. 1. 3. 1. 0. 0. 4. 5. 4. 1. 0. 0. 1. 5. 0. 0.
      0. 4. 0. 0. 0. 0. 0. 2. 0. 0. 0. 0. 0. 0. 0. 0. 0. 2.</_>
    <_>
      4. 1. 0. 0. 0. 0. 0. 0. 0. 0. 0. 0. 0. 0. 0. 0. 6. 1. 0. 0. 0. 5.
      4. 0. 0. 0. 6. 2. 0. 0. 0. 0. 5. 0. 0. 0. 3. 0. 0. 0. 0. 0. 1. 3.
      0. 0. 0. 6. 0. 0. 0. 0. 0. 0. 0. 0. 0. 0. 0. 0. 0. 0. 0. 3. 2. 3.
      0. 0. 0. 1. 1. 0. 0. 0. 0. 0. 0. 0. 0. 0. 6. 3. 0. 0. 1. 5. 5. 0.
      0. 0. 6. 5. 0. 0. 0. 0. 6. 0. 0. 0. 2. 1. 1. 0. 0. 0. 3. 6. 0. 0.
      0. 6. 0. 0. 0. 0. 0. 0. 0. 0. 0. 0. 0. 0. 0. 0. 0. 4.</_>
    <_>
      1. 0. 0. 0. 0. 0. 1. 0. 0. 0. 0. 0. 0. 0. 0. 0. 5. 0. 0. 0. 0. 1.
      1. 0. 0. 0. 6. 0. 0. 0. 2. 5. 1. 0. 0. 0. 5. 1. 0. 0. 0. 0. 1. 0.
      0. 0. 0. 8. 0. 0. 0. 0. 0. 0. 0. 0. 0. 0. 0. 0. 0. 0. 0. 2. 1. 1.
      0. 0. 0. 1. 1. 0. 0. 1. 1. 0. 0. 0. 0. 0. 4. 0. 0. 0. 2. 4. 1. 0.
      0. 1. 5. 0. 0. 0. 5. 5. 4. 0. 0. 0. 5. 4. 0. 0. 0. 1. 3. 0. 0. 0.
      1. 5. 0. 0. 0. 0. 0. 0. 0. 0. 0. 0. 0. 0. 0. 0. 0. 2.</_>
    <_>
      0. 1. 1. 0. 0. 1. 3. 0. 0. 0. 0. 0. 0. 0. 0. 0. 6. 3. 1. 0. 0. 1.
      5. 0. 0. 0. 6. 6. 0. 0. 1. 3. 6. 0. 0. 0. 0. 0. 0. 0. 0. 0. 0. 1.
      0. 0. 0. 7. 0. 0. 0. 0. 0. 0. 0. 0. 0. 0. 0. 0. 0. 0. 0. 5. 0. 2.
      2. 0. 0. 2. 4. 0. 0. 1. 1. 0. 0. 0. 0. 0. 4. 4. 1. 0. 1. 3. 5. 0.
      0. 1. 5. 5. 0. 0. 1. 4. 4. 1. 0. 0. 1. 1. 0. 0. 0. 1. 1. 2. 0. 0.
      1. 5. 0. 0. 0. 0. 0. 0. 0. 0. 0. 0. 0. 0. 0. 0. 0. 3.</_>
    <_>
      0. 0. 0. 0. 0. 1. 0. 0. 0. 0. 0. 0. 0. 0. 0. 0. 5. 0. 0. 0. 0. 1.
      2. 0. 0. 0. 7. 4. 0. 0. 1. 6. 2. 0. 0. 0. 5. 0. 0. 0. 0. 0. 1. 0.
      0. 0. 0. 6. 0. 0. 0. 0. 0. 0. 0. 0. 0. 0. 0. 0. 0. 0. 0. 0. 1. 1.
      0. 0. 0. 1. 1. 0. 0. 0. 1. 0. 0. 0. 0. 0. 5. 1. 0. 0. 1. 4. 3. 0.
      0. 1. 6. 6. 0. 0. 2. 6. 5. 0. 0. 0. 5. 3. 0. 0. 0. 1. 1. 1. 0. 0.
      0. 5. 0. 0. 0. 0. 0. 0. 0. 0. 0. 0. 0. 0. 0. 0. 0. 1.</_>
    <_>
      0. 0. 0. 0. 0. 0. 0. 0. 0. 0. 0. 0. 0. 0. 0. 0. 3. 1. 0. 0. 0. 4.
      3. 0. 0. 0. 7. 2. 0. 0. 1. 5. 1. 0. 0. 0. 4. 6. 0. 0. 0. 0. 1. 0.
      0. 0. 0. 7. 0. 0. 0. 0. 0. 0. 0. 0. 0. 0. 0. 0. 0. 0. 0. 1. 0. 0.
      0. 0. 0. 1. 1. 0. 0. 0. 1. 0. 0. 0. 0. 0. 5. 2. 0. 0. 1. 5. 5. 0.
      0. 1. 6. 4. 0. 0. 3. 5. 4. 0. 0. 0. 5. 4. 1. 0. 0. 1. 1. 1. 0. 0.
      0. 4. 0. 0. 0. 0. 0. 0. 0. 0. 0. 0. 0. 0. 0. 0. 0. 2.</_>
    <_>
      0. 4. 4. 0. 0. 0. 4. 0. 0. 0. 0. 0. 0. 0. 0. 0. 6. 4. 1. 0. 0. 1.
      5. 0. 0. 0. 6. 5. 0. 0. 1. 3. 4. 0. 0. 0. 5. 0. 0. 0. 0. 0. 0. 2.
      0. 0. 0. 6. 0. 0. 0. 0. 0. 0. 0. 0. 0. 0. 0. 0. 0. 0. 0. 1. 0. 4.
      3. 0. 0. 1. 4. 0. 0. 1. 1. 0. 0. 0. 0. 0. 5. 4. 1. 0. 1. 3. 5. 1.
      0. 0. 5. 5. 0. 0. 1. 3. 5. 0. 0. 0. 4. 1. 0. 0. 0. 0. 2. 3. 0. 0.
      1. 4. 0. 0. 0. 0. 0. 0. 0. 0. 0. 0. 0. 0. 0. 0. 0. 1.</_>
    <_>
      0. 0. 0. 0. 0. 1. 0. 0. 0. 0. 0. 0. 0. 0. 0. 0. 6. 0. 0. 0. 0. 1.
      0. 0. 0. 0. 7. 0. 0. 0. 3. 5. 3. 0. 0. 0. 5. 0. 0. 0. 0. 0. 1. 0.
      0. 0. 0. 8. 0. 0. 0. 0. 0. 0. 0. 0. 0. 0. 0. 0. 0. 0. 0. 1. 0. 0.
      0. 0. 0. 1. 1. 0. 0. 0. 0. 0. 0. 0. 0. 0. 5. 0. 0. 0. 1. 4. 1. 0.
      0. 1. 5. 0. 0. 0. 5. 5. 5. 0. 0. 0. 4. 1. 0. 0. 0. 0. 1. 1. 0. 0.
      1. 5. 0. 0. 0. 0. 0. 0. 0. 0. 0. 0. 0. 0. 0. 0. 0. 1.</_>
    <_>
      5. 0. 0. 0. 3. 6. 0. 0. 0. 2. 1. 0. 0. 0. 0. 0. 1. 0. 0. 0. 1. 2.
      0. 0. 0. 4. 7. 0. 0. 0. 6. 2. 3. 0. 0. 0. 7. 0. 0. 0. 0. 0. 0. 0.
      0. 0. 1. 6. 0. 0. 0. 0. 0. 0. 0. 0. 0. 0. 0. 0. 0. 0. 0. 1. 3. 0.
      0. 0. 3. 4. 0. 0. 0. 4. 2. 0. 0. 0. 0. 0. 3. 0. 0. 0. 2. 4. 1. 0.
      0. 5. 5. 0. 0. 0. 5. 4. 3. 0. 0. 0. 4. 1. 1. 0. 0. 1. 1. 0. 0. 0.
      2. 4. 0. 0. 0. 0. 0. 0. 0. 0. 0. 0. 0. 0. 0. 0. 0. 2.</_>
    <_>
      0. 0. 0. 0. 0. 0. 0. 0. 0. 0. 1. 0. 0. 0. 0. 0. 1. 2. 0. 0. 0. 4.
      6. 0. 0. 0. 3. 3. 0. 0. 0. 1. 1. 0. 0. 0. 7. 6. 1. 0. 0. 0. 4. 5.
      0. 0. 0. 4. 0. 0. 0. 0. 0. 5. 0. 0. 0. 0. 0. 0. 0. 0. 0. 3. 1. 0.
      0. 0. 0. 1. 1. 0. 0. 0. 1. 0. 0. 0. 0. 0. 2. 4. 0. 0. 1. 4. 5. 0.
      0. 1. 5. 4. 0. 0. 0. 1. 2. 1. 0. 0. 5. 5. 3. 0. 0. 1. 5. 6. 0. 0.
      1. 5. 0. 0. 0. 0. 0. 3. 0. 0. 0. 0. 1. 0. 0. 0. 0. 3.</_>
    <_>
      3. 0. 0. 0. 0. 1. 0. 0. 0. 0. 0. 0. 0. 0. 0. 0. 5. 0. 0. 0. 0. 4.
      0. 0. 0. 0. 6. 2. 0. 0. 0. 5. 5. 0. 0. 0. 4. 0. 0. 0. 0. 0. 1. 0.
      0. 0. 0. 8. 0. 0. 0. 0. 0. 0. 0. 0. 0. 0. 0. 0. 0. 0. 0. 5. 2. 1.
      0. 0. 1. 2. 1. 0. 0. 0. 1. 0. 0. 0. 0. 0. 5. 1. 0. 0. 1. 4. 2. 0.
      0. 1. 4. 4. 0. 0. 0. 4. 5. 0. 0. 0. 5. 1. 0. 0. 0. 0. 1. 1. 0. 0.
      0. 5. 0. 0. 0. 0. 0. 0. 0. 0. 0. 0. 0. 0. 0. 0. 0. 3.</_>
    <_>
      1. 0. 0. 0. 0. 3. 3. 0. 0. 0. 1. 0. 0. 0. 0. 0. 6. 0. 0. 0. 0. 3.
      6. 2. 0. 0. 6. 6. 0. 0. 0. 4. 0. 0. 0. 0. 1. 5. 0. 0. 0. 0. 0. 3.
      0. 0. 0. 6. 0. 0. 0. 0. 0. 0. 0. 0. 0. 0. 0. 0. 0. 0. 0. 1. 1. 1.
      0. 0. 0. 3. 3. 0. 0. 0. 2. 0. 0. 0. 0. 0. 3. 1. 1. 0. 1. 4. 5. 3.
      0. 0. 5. 6. 0. 0. 0. 5. 1. 0. 0. 0. 4. 6. 1. 0. 0. 0. 1. 3. 0. 0.
      0. 4. 0. 0. 0. 0. 0. 0. 0. 0. 0. 0. 0. 0. 0. 0. 0. 1.</_>
    <_>
      0. 0. 0. 0. 0. 0. 0. 0. 0. 0. 0. 0. 0. 0. 0. 0. 0. 1. 0. 0. 0. 3.
      6. 0. 0. 0. 4. 3. 0. 0. 0. 0. 0. 0. 0. 0. 0. 7. 1. 0. 0. 0. 0. 5.
      0. 0. 0. 4. 0. 0. 0. 0. 0. 6. 0. 0. 0. 2. 0. 0. 0. 0. 0. 3. 0. 0.
      0. 0. 0. 1. 1. 0. 0. 0. 1. 0. 0. 0. 0. 0. 0. 3. 0. 0. 0. 4. 6. 0.
      0. 0. 5. 5. 0. 0. 0. 1. 0. 0. 0. 0. 1. 5. 3. 0. 0. 0. 3. 5. 0. 0.
      0. 4. 0. 0. 0. 0. 0. 6. 1. 0. 0. 5. 1. 0. 0. 0. 0. 2.</_>
    <_>
      1. 0. 0. 0. 0. 0. 0. 0. 0. 0. 0. 0. 0. 0. 0. 0. 2. 3. 0. 0. 0. 5.
      5. 0. 0. 0. 3. 1. 0. 0. 0. 0. 0. 0. 0. 0. 1. 8. 0. 0. 0. 0. 4. 5.
      0. 0. 0. 4. 0. 0. 0. 0. 0. 4. 0. 0. 0. 0. 0. 0. 0. 0. 0. 4. 2. 0.
      0. 0. 0. 1. 1. 0. 0. 0. 1. 0. 0. 0. 0. 0. 3. 4. 0. 0. 1. 4. 5. 0.
      0. 1. 5. 2. 0. 0. 1. 1. 1. 1. 0. 0. 2. 5. 2. 0. 0. 1. 4. 6. 0. 0.
      1. 5. 0. 0. 0. 0. 0. 3. 0. 0. 0. 0. 0. 1. 0. 0. 0. 3.</_>
    <_>
      1. 0. 0. 0. 0. 0. 0. 0. 0. 0. 0. 0. 0. 0. 0. 0. 7. 0. 0. 0. 0. 3.
      2. 0. 0. 0. 4. 1. 0. 0. 0. 0. 3. 0. 0. 0. 4. 0. 0. 0. 0. 0. 1. 1.
      0. 0. 0. 7. 0. 0. 0. 0. 0. 0. 0. 0. 0. 0. 0. 0. 0. 0. 0. 6. 2. 1.
      0. 0. 0. 0. 0. 0. 0. 0. 0. 0. 0. 0. 0. 0. 4. 1. 0. 0. 1. 4. 4. 0.
      0. 0. 5. 4. 0. 0. 0. 1. 4. 1. 0. 0. 4. 2. 1. 0. 0. 0. 4. 5. 0. 0.
      0. 6. 0. 0. 0. 0. 0. 0. 0. 0. 0. 0. 0. 0. 0. 0. 0. 5.</_>
    <_>
      0. 0. 0. 0. 0. 4. 0. 0. 0. 5. 3. 0. 0. 0. 0. 0. 4. 0. 0. 0. 0. 3.
      0. 0. 0. 2. 7. 0. 0. 0. 6. 4. 0. 0. 0. 0. 4. 6. 0. 0. 0. 0. 1. 0.
      0. 0. 0. 5. 0. 0. 0. 0. 0. 0. 0. 0. 0. 0. 0. 0. 0. 0. 0. 1. 0. 0.
      0. 0. 1. 4. 0. 0. 0. 4. 5. 0. 0. 0. 0. 0. 5. 0. 0. 0. 3. 5. 1. 0.
      0. 4. 6. 0. 0. 0. 5. 4. 3. 0. 0. 0. 4. 4. 0. 0. 0. 0. 1. 0. 0. 0.
      1. 4. 0. 0. 0. 0. 0. 0. 0. 0. 0. 0. 0. 0. 0. 0. 0. 1.</_>
    <_>
      5. 0. 0. 0. 4. 6. 0. 0. 0. 4. 3. 0. 0. 0. 0. 0. 1. 0. 0. 0. 1. 4.
      0. 0. 0. 4. 7. 0. 0. 0. 6. 3. 1. 0. 0. 0. 7. 5. 0. 0. 0. 0. 0. 0.
      0. 0. 1. 5. 0. 0. 0. 0. 0. 3. 0. 0. 0. 0. 0. 0. 0. 0. 0. 1. 3. 0.
      0. 0. 3. 4. 0. 0. 0. 4. 4. 0. 0. 0. 0. 0. 2. 0. 0. 0. 2. 4. 0. 0.
      0. 4. 5. 0. 0. 0. 5. 4. 1. 0. 0. 0. 4. 4. 1. 0. 0. 1. 1. 1. 0. 0.
      1. 4. 0. 0. 0. 0. 0. 2. 0. 0. 0. 1. 0. 0. 0. 0. 0. 2.</_>
    <_>
      0. 0. 0. 0. 0. 0. 1. 0. 0. 0. 0. 0. 0. 0. 0. 0. 3. 3. 0. 0. 0. 2.
      6. 0. 0. 0. 4. 6. 0. 0. 0. 2. 4. 0. 0. 0. 6. 0. 0. 0. 0. 0. 1. 1.
      0. 0. 0. 7. 0. 0. 0. 0. 0. 0. 0. 0. 0. 0. 0. 0. 0. 0. 0. 2. 0. 0.
      0. 0. 0. 1. 1. 0. 0. 0. 0. 0. 0. 0. 0. 0. 5. 4. 1. 0. 0. 4. 5. 0.
      0. 1. 5. 6. 0. 0. 1. 5. 5. 1. 0. 0. 4. 3. 1. 0. 0. 0. 2. 4. 0. 0.
      1. 6. 0. 0. 0. 0. 0. 0. 0. 0. 0. 0. 0. 0. 0. 0. 0. 3.</_>
    <_>
      0. 1. 2. 0. 0. 1. 5. 0. 0. 0. 1. 0. 0. 0. 0. 0. 7. 3. 1. 0. 0. 1.
      6. 1. 0. 0. 4. 5. 0. 0. 0. 4. 1. 0. 0. 0. 5. 1. 0. 0. 0. 0. 0. 1.
      0. 0. 0. 7. 0. 0. 0. 0. 0. 0. 0. 0. 0. 0. 0. 0. 0. 0. 0. 2. 0. 2.
      2. 0. 0. 1. 4. 0. 0. 0. 1. 0. 0. 0. 0. 0. 5. 3. 2. 0. 1. 3. 5. 1.
      0. 0. 5. 5. 0. 0. 0. 4. 4. 1. 0. 0. 5. 4. 1. 0. 0. 0. 3. 2. 0. 0.
      0. 4. 0. 0. 0. 0. 0. 0. 0. 0. 0. 0. 0. 0. 0. 0. 0. 2.</_>
    <_>
      0. 0. 0. 0. 0. 0. 0. 0. 0. 0. 0. 0. 0. 0. 0. 0. 6. 0. 0. 0. 0. 1.
      1. 0. 0. 0. 3. 1. 0. 0. 0. 0. 6. 0. 0. 0. 1. 0. 0. 0. 0. 0. 1. 1.
      0. 0. 0. 8. 0. 0. 0. 0. 0. 0. 0. 0. 0. 0. 0. 0. 0. 0. 0. 6. 0. 0.
      0. 0. 0. 1. 1. 0. 0. 0. 1. 0. 0. 0. 0. 0. 4. 1. 0. 0. 0. 4. 4. 0.
      0. 0. 5. 4. 0. 0. 0. 1. 4. 1. 0. 0. 1. 1. 1. 0. 0. 0. 4. 5. 0. 0.
      0. 6. 0. 0. 0. 0. 0. 0. 0. 0. 0. 0. 0. 0. 0. 0. 0. 5.</_>
    <_>
      0. 0. 0. 0. 0. 1. 0. 0. 0. 0. 1. 0. 0. 0. 0. 0. 0. 0. 0. 0. 0. 1.
      7. 0. 0. 0. 6. 5. 0. 0. 0. 0. 0. 0. 0. 0. 0. 7. 1. 0. 0. 0. 0. 5.
      0. 0. 0. 4. 0. 0. 0. 0. 0. 2. 0. 0. 0. 0. 0. 0. 0. 0. 0. 3. 0. 1.
      0. 0. 0. 1. 1. 0. 0. 0. 1. 0. 0. 0. 0. 0. 0. 1. 0. 0. 0. 4. 6. 0.
      0. 0. 6. 6. 0. 0. 0. 1. 0. 0. 0. 0. 2. 5. 3. 0. 0. 0. 3. 6. 0. 0.
      0. 5. 0. 0. 0. 0. 0. 3. 0. 0. 0. 1. 0. 0. 0. 0. 0. 3.</_>
    <_>
      3. 1. 0. 0. 0. 0. 0. 0. 0. 0. 0. 0. 0. 0. 0. 0. 1. 6. 0. 0. 0. 3.
      7. 1. 0. 0. 2. 5. 0. 0. 0. 0. 1. 0. 0. 0. 1. 6. 1. 1. 0. 0. 0. 5.
      0. 0. 0. 1. 0. 0. 0. 0. 0. 3. 0. 0. 0. 5. 0. 0. 0. 0. 0. 4. 3. 2.
      0. 0. 0. 1. 0. 0. 0. 0. 0. 0. 0. 0. 0. 0. 3. 5. 1. 0. 1. 5. 5. 2.
      0. 0. 4. 5. 0. 0. 0. 0. 1. 0. 0. 0. 2. 4. 4. 1. 0. 0. 2. 5. 0. 0.
      0. 4. 0. 0. 0. 0. 0. 4. 0. 0. 0. 3. 0. 1. 0. 0. 0. 3.</_>
    <_>
      2. 0. 0. 0. 0. 0. 0. 0. 0. 0. 0. 0. 0. 0. 0. 0. 2. 4. 0. 0. 0. 3.
      6. 0. 0. 0. 1. 1. 0. 0. 0. 0. 0. 0. 0. 0. 1. 8. 1. 0. 0. 0. 1. 5.
      0. 0. 0. 4. 0. 0. 0. 0. 0. 0. 0. 0. 0. 4. 1. 0. 0. 0. 0. 4. 2. 0.
      0. 0. 0. 1. 0. 0. 0. 0. 0. 0. 0. 0. 0. 0. 3. 4. 0. 0. 1. 5. 5. 1.
      0. 0. 3. 3. 0. 0. 0. 0. 1. 0. 0. 0. 1. 4. 3. 0. 0. 1. 4. 5. 0. 0.
      0. 4. 0. 0. 0. 0. 0. 2. 0. 0. 0. 3. 2. 1. 0. 0. 0. 3.</_>
    <_>
      6. 5. 0. 0. 0. 1. 1. 0. 0. 0. 0. 0. 0. 0. 0. 0. 1. 3. 0. 0. 0. 2.
      6. 0. 0. 0. 4. 4. 0. 0. 0. 2. 1. 0. 0. 0. 6. 5. 0. 0. 0. 0. 0. 1.
      0. 0. 0. 6. 0. 0. 0. 0. 0. 0. 0. 0. 0. 0. 0. 0. 0. 0. 0. 5. 3. 4.
      0. 0. 0. 3. 2. 0. 0. 0. 0. 0. 0. 0. 0. 0. 3. 4. 0. 0. 1. 4. 5. 0.
      0. 0. 5. 4. 0. 0. 0. 4. 3. 1. 0. 0. 5. 5. 1. 0. 0. 1. 2. 2. 0. 0.
      1. 5. 0. 0. 0. 0. 0. 0. 0. 0. 0. 0. 0. 0. 0. 0. 0. 4.</_>
    <_>
      2. 0. 0. 0. 0. 0. 0. 0. 0. 0. 0. 0. 0. 0. 0. 0. 1. 0. 0. 0. 0. 4.
      8. 4. 0. 0. 1. 6. 0. 0. 0. 0. 1. 0. 0. 0. 2. 7. 0. 0. 0. 0. 0. 5.
      0. 0. 0. 2. 0. 0. 0. 0. 0. 2. 0. 0. 0. 0. 0. 0. 0. 0. 0. 4. 2. 0.
      0. 0. 1. 1. 1. 0. 0. 0. 0. 0. 0. 0. 0. 0. 1. 1. 0. 0. 1. 3. 5. 5.
      0. 0. 3. 5. 0. 0. 0. 1. 1. 0. 0. 0. 3. 4. 3. 1. 0. 1. 1. 5. 0. 0.
      0. 4. 0. 0. 0. 0. 0. 2. 0. 0. 0. 0. 1. 0. 0. 0. 0. 3.</_>
    <_>
      1. 0. 0. 0. 0. 0. 0. 0. 0. 0. 0. 0. 0. 0. 0. 0. 2. 4. 0. 0. 0. 3.
      6. 0. 0. 0. 2. 1. 0. 0. 0. 0. 0. 0. 0. 0. 7. 6. 1. 0. 0. 0. 1. 5.
      0. 0. 0. 4. 0. 0. 0. 0. 0. 3. 0. 0. 0. 6. 0. 0. 0. 0. 0. 3. 1. 0.
      0. 0. 0. 1. 1. 0. 0. 0. 1. 0. 0. 0. 0. 0. 2. 4. 0. 0. 1. 4. 5. 0.
      0. 0. 4. 4. 0. 0. 0. 1. 1. 0. 0. 0. 5. 5. 4. 0. 0. 0. 4. 5. 0. 0.
      0. 4. 0. 0. 0. 0. 0. 4. 1. 0. 0. 3. 1. 0. 0. 0. 0. 3.</_>
    <_>
      3. 0. 0. 0. 0. 1. 0. 0. 0. 0. 0. 0. 0. 0. 0. 0. 5. 0. 0. 0. 0. 5.
      0. 0. 0. 1. 7. 0. 0. 0. 3. 4. 5. 0. 0. 0. 5. 1. 0. 0. 0. 0. 0. 0.
      0. 0. 0. 7. 0. 0. 0. 0. 0. 0. 0. 0. 0. 0. 0. 0. 0. 0. 0. 1. 2. 0.
      0. 0. 1. 2. 0. 0. 0. 1. 0. 0. 0. 0. 0. 0. 5. 0. 0. 0. 2. 4. 1. 0.
      0. 3. 4. 0. 0. 0. 4. 4. 6. 0. 0. 0. 5. 1. 0. 0. 0. 1. 1. 0. 0. 0.
      1. 4. 0. 0. 0. 0. 0. 0. 0. 0. 0. 0. 0. 0. 0. 0. 0. 2.</_>
    <_>
      1. 0. 0. 0. 0. 0. 0. 0. 0. 0. 0. 0. 0. 0. 0. 0. 6. 1. 0. 0. 0. 5.
      4. 0. 0. 0. 7. 4. 0. 0. 1. 5. 1. 0. 0. 0. 2. 5. 0. 0. 0. 0. 1. 1.
      0. 0. 0. 6. 0. 0. 0. 0. 0. 0. 0. 0. 0. 0. 0. 0. 0. 0. 0. 0. 1. 0.
      0. 0. 0. 1. 1. 0. 0. 0. 0. 0. 0. 0. 0. 0. 4. 3. 0. 0. 1. 4. 4. 0.
      0. 1. 6. 5. 0. 0. 2. 5. 3. 0. 0. 0. 4. 5. 0. 0. 0. 1. 3. 3. 0. 0.
      1. 5. 0. 0. 0. 0. 0. 0. 0. 0. 0. 0. 0. 0. 0. 0. 0. 1.</_>
    <_>
      0. 0. 0. 0. 0. 1. 5. 0. 0. 0. 0. 0. 0. 0. 0. 0. 5. 2. 3. 0. 0. 1.
      6. 2. 0. 0. 3. 6. 0. 0. 0. 4. 3. 0. 0. 0. 6. 1. 0. 0. 0. 0. 0. 3.
      0. 0. 0. 6. 0. 0. 0. 0. 0. 0. 0. 0. 0. 0. 0. 0. 0. 0. 0. 0. 0. 0.
      1. 0. 0. 1. 5. 1. 0. 0. 1. 1. 0. 0. 0. 0. 5. 3. 4. 0. 1. 4. 6. 4.
      0. 0. 4. 5. 0. 0. 1. 5. 5. 1. 0. 0. 5. 3. 0. 0. 0. 0. 1. 3. 0. 0.
      0. 4. 0. 0. 0. 0. 0. 0. 0. 0. 0. 0. 0. 0. 0. 0. 0. 1.</_>
    <_>
      3. 0. 0. 0. 0. 2. 0. 0. 0. 0. 0. 0. 0. 0. 0. 0. 5. 0. 0. 0. 0. 5.
      0. 0. 0. 1. 7. 0. 0. 0. 1. 4. 6. 0. 0. 0. 5. 0. 0. 0. 0. 0. 0. 0.
      0. 0. 0. 7. 0. 0. 0. 0. 0. 0. 0. 0. 0. 0. 0. 0. 0. 0. 0. 3. 2. 1.
      0. 0. 1. 3. 0. 0. 0. 0. 0. 0. 0. 0. 0. 0. 5. 0. 0. 0. 2. 4. 1. 0.
      0. 3. 4. 0. 0. 0. 4. 4. 6. 0. 0. 0. 5. 1. 0. 0. 0. 0. 1. 0. 0. 0.
      1. 4. 0. 0. 0. 0. 0. 0. 0. 0. 0. 0. 0. 0. 0. 0. 0. 2.</_>
    <_>
      5. 6. 3. 0. 0. 0. 1. 0. 0. 0. 0. 0. 0. 0. 0. 0. 2. 3. 1. 0. 0. 4.
      6. 0. 0. 0. 5. 5. 0. 0. 0. 1. 4. 0. 0. 0. 7. 3. 0. 0. 0. 0. 1. 4.
      0. 0. 0. 6. 0. 0. 0. 0. 0. 0. 0. 0. 0. 0. 0. 0. 0. 0. 0. 3. 3. 4.
      3. 0. 0. 1. 3. 0. 0. 0. 0. 0. 0. 0. 0. 0. 3. 4. 1. 0. 1. 3. 4. 1.
      0. 1. 4. 4. 0. 0. 1. 1. 3. 1. 0. 0. 4. 4. 1. 0. 0. 1. 2. 4. 0. 0.
      1. 4. 0. 0. 0. 0. 0. 0. 0. 0. 0. 0. 0. 0. 0. 0. 0. 3.</_>
    <_>
      0. 0. 0. 0. 0. 1. 0. 0. 0. 0. 0. 0. 0. 0. 0. 0. 6. 0. 0. 0. 0. 1.
      1. 0. 0. 0. 4. 3. 0. 0. 0. 1. 3. 0. 0. 0. 4. 0. 0. 0. 0. 0. 1. 3.
      0. 0. 0. 8. 0. 0. 0. 0. 0. 0. 0. 0. 0. 0. 0. 0. 0. 0. 0. 1. 1. 1.
      0. 0. 0. 1. 1. 0. 0. 0. 1. 0. 0. 0. 0. 0. 5. 1. 0. 0. 1. 4. 4. 0.
      0. 0. 6. 6. 0. 0. 0. 3. 5. 1. 0. 0. 4. 2. 1. 0. 0. 0. 4. 6. 0. 0.
      0. 6. 0. 0. 0. 0. 0. 0. 0. 0. 0. 0. 0. 0. 0. 0. 0. 3.</_>
    <_>
      0. 0. 2. 0. 0. 0. 2. 0. 0. 0. 0. 0. 0. 0. 0. 0. 1. 6. 4. 0. 0. 0.
      6. 3. 0. 0. 2. 6. 0. 0. 0. 4. 0. 0. 0. 0. 3. 7. 0. 0. 0. 0. 1. 4.
      0. 0. 0. 5. 0. 0. 0. 0. 0. 0. 0. 0. 0. 0. 0. 0. 0. 0. 0. 0. 0. 1.
      3. 0. 0. 0. 3. 0. 0. 0. 0. 0. 0. 0. 0. 0. 2. 4. 4. 0. 0. 1. 5. 3.
      0. 0. 4. 5. 0. 0. 1. 4. 1. 1. 0. 0. 5. 5. 1. 0. 0. 0. 2. 4. 0. 0.
      1. 4. 0. 0. 0. 0. 0. 0. 0. 0. 0. 0. 0. 0. 0. 0. 0. 0.</_>
    <_>
      0. 0. 0. 0. 0. 0. 0. 0. 0. 0. 0. 0. 0. 0. 0. 0. 2. 0. 0. 0. 0. 4.
      5. 0. 0. 0. 6. 5. 0. 0. 0. 5. 1. 0. 0. 0. 4. 6. 0. 0. 0. 0. 2. 1.
      0. 0. 0. 7. 0. 0. 0. 0. 0. 0. 0. 0. 0. 0. 0. 0. 0. 0. 0. 1. 0. 0.
      0. 0. 0. 1. 1. 0. 0. 0. 0. 0. 0. 0. 0. 0. 4. 1. 0. 0. 1. 4. 5. 0.
      0. 1. 6. 5. 0. 0. 1. 5. 5. 0. 0. 0. 5. 4. 1. 0. 0. 0. 3. 3. 0. 0.
      0. 5. 0. 0. 0. 0. 0. 0. 0. 0. 0. 0. 0. 0. 0. 0. 0. 1.</_>
    <_>
      1. 0. 0. 0. 0. 0. 0. 0. 0. 0. 0. 0. 0. 0. 0. 0. 3. 4. 0. 0. 0. 3.
      6. 0. 0. 0. 1. 1. 0. 0. 0. 0. 0. 0. 0. 0. 0. 8. 1. 0. 0. 0. 1. 5.
      0. 0. 0. 4. 0. 0. 0. 0. 0. 1. 0. 0. 0. 1. 4. 0. 0. 0. 0. 4. 2. 0.
      0. 0. 0. 0. 0. 0. 0. 0. 0. 0. 0. 0. 0. 0. 3. 4. 0. 0. 1. 5. 5. 1.
      0. 0. 4. 3. 0. 0. 0. 0. 1. 0. 0. 0. 1. 4. 3. 0. 0. 1. 3. 5. 0. 0.
      0. 4. 0. 0. 0. 0. 0. 2. 0. 0. 0. 4. 4. 1. 0. 0. 0. 3.</_>
    <_>
      5. 0. 0. 0. 2. 6. 0. 0. 0. 5. 4. 0. 0. 0. 0. 0. 1. 0. 0. 0. 1. 3.
      0. 0. 0. 3. 7. 0. 0. 0. 5. 2. 1. 0. 0. 0. 6. 5. 0. 0. 0. 0. 0. 0.
      0. 0. 1. 6. 0. 0. 0. 0. 0. 1. 0. 0. 0. 0. 0. 0. 0. 0. 0. 1. 3. 0.
      0. 0. 3. 4. 0. 0. 0. 4. 4. 0. 0. 0. 0. 0. 2. 0. 0. 0. 3. 4. 0. 0.
      0. 4. 5. 0. 0. 0. 5. 4. 4. 0. 0. 0. 5. 4. 0. 0. 0. 0. 1. 1. 0. 0.
      2. 4. 0. 0. 0. 0. 0. 1. 0. 0. 0. 0. 0. 0. 0. 0. 0. 2.</_>
    <_>
      0. 0. 0. 0. 0. 1. 1. 0. 0. 0. 0. 0. 0. 0. 0. 0. 1. 0. 0. 0. 0. 3.
      4. 0. 0. 0. 7. 4. 0. 0. 0. 6. 1. 0. 0. 0. 5. 4. 0. 0. 0. 0. 0. 1.
      0. 0. 0. 6. 0. 0. 0. 0. 0. 0. 0. 0. 0. 0. 0. 0. 0. 0. 0. 1. 1. 1.
      0. 0. 0. 1. 2. 0. 0. 0. 1. 0. 0. 0. 0. 0. 5. 1. 0. 0. 2. 5. 5. 0.
      0. 1. 6. 6. 0. 0. 1. 6. 4. 1. 0. 0. 5. 5. 0. 0. 0. 1. 2. 3. 0. 0.
      0. 5. 0. 0. 0. 0. 0. 0. 0. 0. 0. 0. 0. 0. 0. 0. 0. 1.</_>
    <_>
      3. 5. 3. 0. 0. 0. 3. 0. 0. 0. 0. 0. 0. 0. 0. 0. 7. 1. 0. 0. 0. 3.
      5. 0. 0. 0. 5. 5. 0. 0. 0. 1. 3. 0. 0. 0. 3. 0. 0. 0. 0. 0. 1. 2.
      0. 0. 0. 7. 0. 0. 0. 0. 0. 0. 0. 0. 0. 0. 0. 0. 0. 0. 0. 4. 2. 3.
      3. 0. 0. 1. 3. 0. 0. 0. 1. 0. 0. 0. 0. 0. 5. 3. 1. 0. 1. 3. 5. 1.
      0. 1. 5. 5. 0. 0. 1. 3. 4. 1. 0. 0. 2. 1. 0. 0. 0. 0. 1. 3. 0. 0.
      1. 4. 0. 0. 0. 0. 0. 0. 0. 0. 0. 0. 0. 0. 0. 0. 0. 2.</_>
    <_>
      2. 0. 0. 0. 0. 0. 0. 0. 0. 0. 0. 0. 0. 0. 0. 0. 1. 1. 0. 0. 1. 6.
      4. 0. 0. 1. 6. 1. 0. 0. 0. 0. 1. 0. 0. 0. 6. 7. 0. 0. 0. 0. 2. 4.
      0. 0. 1. 6. 0. 0. 0. 0. 0. 1. 0. 0. 0. 0. 0. 0. 0. 0. 0. 4. 2. 0.
      0. 0. 0. 1. 1. 0. 0. 0. 1. 0. 0. 0. 0. 0. 3. 2. 0. 0. 2. 4. 4. 0.
      0. 2. 5. 3. 0. 0. 1. 1. 1. 1. 0. 0. 6. 6. 1. 0. 0. 1. 4. 5. 0. 0.
      2. 5. 0. 0. 0. 0. 0. 1. 0. 0. 0. 0. 0. 0. 0. 0. 0. 3.</_>
    <_>
      3. 0. 0. 0. 0. 1. 0. 0. 0. 0. 0. 0. 0. 0. 0. 0. 2. 2. 0. 0. 1. 5.
      3. 0. 0. 1. 6. 0. 0. 0. 1. 0. 3. 0. 0. 0. 8. 5. 1. 0. 0. 0. 1. 2.
      0. 0. 1. 6. 0. 0. 0. 0. 0. 3. 0. 0. 0. 1. 0. 0. 0. 0. 0. 4. 2. 1.
      0. 0. 0. 1. 1. 0. 0. 0. 1. 0. 0. 0. 0. 0. 3. 3. 0. 0. 2. 4. 4. 0.
      0. 2. 5. 1. 0. 0. 2. 1. 3. 1. 0. 0. 5. 5. 1. 0. 0. 0. 3. 4. 0. 0.
      1. 4. 0. 0. 0. 0. 0. 3. 0. 0. 0. 2. 0. 0. 0. 0. 0. 3.</_>
    <_>
      1. 0. 0. 0. 0. 0. 0. 0. 0. 0. 0. 0. 0. 0. 0. 0. 7. 0. 0. 0. 0. 4.
      1. 0. 0. 0. 7. 4. 0. 0. 1. 5. 4. 0. 0. 0. 4. 0. 0. 0. 0. 0. 1. 0.
      0. 0. 0. 6. 0. 0. 0. 0. 0. 0. 0. 0. 0. 0. 0. 0. 0. 0. 0. 1. 1. 0.
      0. 0. 0. 1. 0. 0. 0. 0. 0. 0. 0. 0. 0. 0. 4. 1. 0. 0. 1. 4. 2. 0.
      0. 2. 6. 5. 0. 0. 3. 5. 4. 0. 0. 0. 4. 2. 0. 0. 0. 0. 3. 1. 0. 0.
      0. 5. 0. 0. 0. 0. 0. 0. 0. 0. 0. 0. 0. 0. 0. 0. 0. 1.</_>
    <_>
      0. 0. 0. 0. 0. 0. 0. 0. 0. 0. 0. 0. 0. 0. 0. 0. 0. 0. 0. 0. 0. 1.
      7. 1. 0. 0. 4. 7. 0. 0. 0. 1. 0. 0. 0. 0. 4. 6. 1. 0. 0. 0. 0. 5.
      0. 0. 0. 3. 0. 0. 0. 0. 0. 1. 0. 0. 0. 0. 0. 0. 0. 0. 0. 3. 0. 1.
      0. 0. 0. 1. 1. 0. 0. 0. 1. 0. 0. 0. 0. 0. 0. 0. 0. 0. 0. 3. 6. 3.
      0. 0. 5. 6. 0. 0. 0. 1. 1. 1. 0. 0. 5. 6. 4. 1. 0. 0. 1. 5. 0. 0.
      0. 4. 0. 0. 0. 0. 0. 3. 0. 0. 0. 1. 0. 1. 0. 0. 0. 3.</_>
    <_>
      0. 0. 0. 0. 0. 0. 0. 0. 0. 0. 0. 0. 0. 0. 0. 0. 4. 0. 0. 0. 0. 1.
      1. 0. 0. 0. 4. 2. 0. 0. 0. 0. 1. 0. 0. 0. 4. 6. 0. 0. 0. 0. 1. 2.
      0. 0. 0. 8. 0. 0. 0. 0. 0. 0. 0. 0. 0. 0. 0. 0. 0. 0. 0. 7. 0. 0.
      0. 0. 0. 1. 1. 0. 0. 0. 0. 0. 0. 0. 0. 0. 4. 1. 0. 0. 1. 3. 4. 0.
      0. 0. 5. 5. 0. 0. 0. 1. 3. 0. 0. 0. 4. 4. 1. 0. 0. 0. 4. 5. 0. 0.
      0. 6. 0. 0. 0. 0. 0. 0. 0. 0. 0. 0. 0. 0. 0. 0. 0. 5.</_>
    <_>
      1. 0. 0. 0. 0. 0. 0. 0. 0. 0. 0. 0. 0. 0. 0. 0. 7. 0. 0. 0. 0. 4.
      2. 0. 0. 0. 5. 2. 0. 0. 0. 1. 0. 0. 0. 0. 4. 5. 0. 0. 0. 0. 1. 2.
      0. 0. 0. 7. 0. 0. 0. 0. 0. 0. 0. 0. 0. 0. 0. 0. 0. 0. 0. 4. 1. 1.
      0. 0. 0. 1. 1. 0. 0. 0. 0. 0. 0. 0. 0. 0. 4. 2. 0. 0. 1. 4. 4. 0.
      0. 0. 5. 5. 0. 0. 0. 2. 2. 0. 0. 0. 4. 4. 1. 0. 0. 0. 3. 5. 0. 0.
      0. 6. 0. 0. 0. 0. 0. 0. 0. 0. 0. 0. 0. 0. 0. 0. 0. 4.</_>
    <_>
      0. 0. 0. 0. 0. 1. 0. 0. 0. 0. 0. 0. 0. 0. 0. 0. 4. 0. 0. 0. 0. 3.
      0. 0. 0. 0. 6. 0. 0. 0. 3. 5. 1. 0. 0. 0. 3. 6. 0. 0. 0. 0. 1. 0.
      0. 0. 0. 8. 0. 0. 0. 0. 0. 0. 0. 0. 0. 0. 0. 0. 0. 0. 0. 2. 0. 0.
      0. 0. 0. 1. 1. 0. 0. 0. 1. 0. 0. 0. 0. 0. 5. 0. 0. 0. 2. 4. 1. 0.
      0. 2. 5. 1. 0. 0. 5. 5. 4. 0. 0. 0. 5. 4. 0. 0. 0. 1. 1. 1. 0. 0.
      1. 5. 0. 0. 0. 0. 0. 0. 0. 0. 0. 0. 0. 0. 0. 0. 0. 2.</_>
    <_>
      0. 0. 0. 0. 0. 2. 0. 0. 0. 3. 3. 0. 0. 0. 0. 0. 3. 0. 0. 0. 0. 3.
      0. 0. 0. 3. 7. 0. 0. 0. 7. 1. 1. 0. 0. 0. 5. 3. 0. 0. 0. 0. 1. 0.
      0. 0. 1. 5. 0. 0. 0. 0. 0. 0. 0. 0. 0. 0. 0. 0. 0. 0. 0. 0. 1. 1.
      0. 0. 0. 3. 0. 0. 0. 4. 4. 0. 0. 0. 0. 0. 5. 0. 0. 0. 3. 5. 1. 0.
      0. 5. 6. 0. 0. 0. 5. 3. 4. 0. 0. 0. 6. 5. 0. 0. 0. 1. 1. 1. 0. 0.
      2. 4. 0. 0. 0. 0. 0. 0. 0. 0. 0. 0. 0. 0. 0. 0. 0. 0.</_>
    <_>
      3. 0. 1. 0. 0. 0. 1. 0. 0. 0. 0. 0. 0. 0. 0. 0. 1. 4. 1. 0. 0. 5.
      6. 1. 0. 0. 3. 5. 0. 0. 0. 0. 0. 0. 0. 0. 0. 7. 1. 0. 0. 0. 1. 5.
      0. 0. 0. 1. 0. 0. 0. 0. 0. 1. 0. 0. 0. 4. 2. 0. 0. 0. 0. 4. 3. 1.
      1. 0. 0. 0. 1. 0. 0. 0. 0. 0. 0. 0. 0. 0. 3. 4. 2. 0. 1. 4. 6. 3.
      0. 0. 5. 6. 0. 0. 0. 0. 1. 1. 0. 0. 1. 4. 3. 1. 0. 1. 3. 6. 0. 0.
      0. 4. 0. 0. 0. 0. 0. 2. 0. 0. 0. 4. 3. 1. 0. 0. 0. 3.</_>
    <_>
      2. 0. 0. 0. 0. 0. 0. 0. 0. 0. 0. 0. 0. 0. 0. 0. 3. 4. 0. 0. 0. 4.
      6. 0. 0. 0. 2. 1. 0. 0. 0. 0. 0. 0. 0. 0. 0. 8. 1. 0. 0. 0. 0. 5.
      0. 0. 0. 4. 0. 0. 0. 0. 0. 2. 0. 0. 0. 3. 4. 0. 0. 0. 0. 4. 2. 1.
      0. 0. 0. 0. 0. 0. 0. 0. 0. 0. 0. 0. 0. 0. 4. 4. 1. 0. 1. 5. 5. 0.
      0. 0. 4. 3. 0. 0. 0. 0. 1. 0. 0. 0. 1. 4. 3. 0. 0. 1. 3. 5. 0. 0.
      0. 4. 0. 0. 0. 0. 0. 2. 0. 0. 0. 3. 3. 0. 0. 0. 0. 3.</_>
    <_>
      1. 1. 0. 0. 0. 2. 1. 0. 0. 0. 0. 0. 0. 0. 0. 0. 6. 1. 0. 0. 0. 1.
      1. 0. 0. 0. 7. 4. 0. 0. 1. 6. 2. 0. 0. 0. 4. 0. 0. 0. 0. 0. 1. 0.
      0. 0. 0. 6. 0. 0. 0. 0. 0. 0. 0. 0. 0. 0. 0. 0. 0. 0. 0. 0. 1. 1.
      0. 0. 0. 3. 2. 0. 0. 1. 1. 0. 0. 0. 0. 0. 5. 1. 0. 0. 1. 4. 3. 0.
      0. 1. 6. 6. 0. 0. 2. 6. 4. 0. 0. 0. 5. 3. 1. 0. 0. 1. 3. 1. 0. 0.
      1. 5. 0. 0. 0. 0. 0. 0. 0. 0. 0. 0. 0. 0. 0. 0. 0. 1.</_>
    <_>
      3. 5. 4. 0. 0. 0. 2. 0. 0. 0. 0. 0. 0. 0. 0. 0. 4. 5. 1. 0. 0. 2.
      6. 1. 0. 0. 4. 6. 0. 0. 0. 1. 6. 0. 0. 0. 2. 6. 0. 0. 0. 0. 1. 4.
      0. 0. 0. 6. 0. 0. 0. 0. 0. 0. 0. 0. 0. 0. 0. 0. 0. 0. 0. 0. 2. 4.
      4. 0. 0. 0. 3. 0. 0. 0. 0. 0. 0. 0. 0. 0. 5. 4. 3. 0. 1. 3. 5. 3.
      0. 0. 4. 5. 0. 0. 1. 3. 5. 1. 0. 0. 3. 4. 0. 0. 0. 1. 2. 4. 0. 0.
      1. 4. 0. 0. 0. 0. 0. 0. 0. 0. 0. 0. 0. 0. 0. 0. 0. 1.</_>
    <_>
      5. 3. 0. 0. 0. 0. 0. 0. 0. 0. 0. 0. 0. 0. 0. 0. 1. 5. 0. 0. 0. 2.
      7. 0. 0. 0. 1. 6. 0. 0. 0. 1. 0. 0. 0. 0. 0. 6. 1. 0. 0. 0. 0. 3.
      0. 0. 0. 6. 0. 0. 0. 0. 0. 1. 0. 0. 0. 4. 4. 0. 0. 0. 0. 4. 3. 3.
      0. 0. 0. 1. 1. 0. 0. 0. 0. 0. 0. 0. 0. 0. 2. 4. 1. 0. 1. 4. 5. 1.
      0. 0. 4. 5. 0. 0. 0. 2. 1. 1. 0. 0. 1. 5. 3. 0. 0. 1. 2. 4. 0. 0.
      0. 5. 0. 0. 0. 0. 0. 4. 0. 0. 0. 4. 3. 1. 0. 0. 0. 4.</_>
    <_>
      4. 1. 0. 0. 0. 0. 0. 0. 0. 0. 0. 0. 0. 0. 0. 0. 3. 1. 0. 0. 0. 4.
      3. 0. 0. 0. 5. 1. 0. 0. 0. 0. 6. 0. 0. 0. 3. 4. 0. 0. 0. 0. 1. 3.
      0. 0. 0. 7. 0. 0. 0. 0. 0. 0. 0. 0. 0. 0. 0. 0. 0. 0. 0. 6. 2. 2.
      0. 0. 0. 1. 0. 0. 0. 0. 0. 0. 0. 0. 0. 0. 4. 3. 0. 0. 1. 4. 4. 0.
      0. 0. 5. 3. 0. 0. 0. 1. 6. 1. 0. 0. 5. 3. 1. 0. 0. 0. 4. 5. 0. 0.
      0. 6. 0. 0. 0. 0. 0. 0. 0. 0. 0. 0. 0. 0. 0. 0. 0. 5.</_>
    <_>
      6. 5. 0. 0. 0. 0. 0. 0. 0. 0. 0. 0. 0. 0. 0. 0. 1. 4. 0. 0. 0. 3.
      6. 0. 0. 0. 4. 4. 0. 0. 0. 1. 1. 0. 0. 0. 3. 7. 0. 0. 0. 0. 0. 1.
      0. 0. 0. 6. 0. 0. 0. 0. 0. 3. 0. 0. 0. 0. 0. 0. 0. 0. 0. 5. 3. 4.
      0. 0. 0. 1. 1. 0. 0. 0. 0. 0. 0. 0. 0. 0. 3. 4. 0. 0. 1. 4. 5. 0.
      0. 0. 5. 4. 0. 0. 0. 3. 2. 1. 0. 0. 4. 5. 1. 0. 0. 1. 2. 3. 0. 0.
      0. 5. 0. 0. 0. 0. 0. 3. 0. 0. 0. 0. 0. 0. 0. 0. 0. 4.</_>
    <_>
      0. 0. 0. 0. 0. 1. 0. 0. 0. 0. 0. 0. 0. 0. 0. 0. 6. 0. 0. 0. 0. 1.
      1. 0. 0. 0. 4. 3. 0. 0. 0. 1. 2. 0. 0. 0. 2. 1. 0. 0. 0. 0. 1. 2.
      0. 0. 0. 8. 0. 0. 0. 0. 0. 0. 0. 0. 0. 0. 0. 0. 0. 0. 0. 4. 1. 1.
      0. 0. 0. 1. 1. 0. 0. 0. 1. 0. 0. 0. 0. 0. 5. 1. 0. 0. 1. 4. 4. 0.
      0. 0. 5. 5. 0. 0. 0. 3. 5. 0. 0. 0. 4. 3. 1. 0. 0. 0. 4. 5. 0. 0.
      0. 6. 0. 0. 0. 0. 0. 0. 0. 0. 0. 0. 0. 0. 0. 0. 0. 4.</_>
    <_>
      0. 0. 0. 0. 0. 0. 1. 0. 0. 0. 0. 0. 0. 0. 0. 0. 7. 0. 0. 0. 0. 1.
      0. 0. 0. 0. 6. 0. 0. 0. 2. 5. 6. 0. 0. 0. 1. 0. 0. 0. 0. 0. 0. 0.
      0. 0. 0. 8. 0. 0. 0. 0. 0. 0. 0. 0. 0. 0. 0. 0. 0. 0. 0. 1. 0. 0.
      0. 0. 0. 1. 1. 0. 0. 0. 1. 0. 0. 0. 0. 0. 4. 0. 0. 0. 1. 4. 1. 0.
      0. 1. 5. 0. 0. 0. 4. 5. 4. 0. 0. 0. 1. 0. 0. 0. 0. 0. 1. 1. 0. 0.
      1. 5. 0. 0. 0. 0. 0. 0. 0. 0. 0. 0. 0. 0. 0. 0. 0. 1.</_>
    <_>
      0. 0. 0. 0. 0. 0. 0. 0. 0. 0. 0. 0. 0. 0. 0. 0. 6. 0. 0. 0. 0. 1.
      1. 0. 0. 0. 7. 3. 0. 0. 1. 6. 6. 0. 0. 0. 1. 0. 0. 0. 0. 0. 0. 1.
      0. 0. 0. 6. 0. 0. 0. 0. 0. 0. 0. 0. 0. 0. 0. 0. 0. 0. 0. 1. 0. 0.
      0. 0. 0. 1. 1. 0. 0. 0. 1. 0. 0. 0. 0. 0. 4. 1. 0. 0. 1. 4. 2. 0.
      0. 1. 6. 6. 0. 0. 3. 6. 4. 1. 0. 0. 2. 1. 0. 0. 0. 1. 1. 1. 0. 0.
      1. 5. 0. 0. 0. 0. 0. 0. 0. 0. 0. 0. 0. 0. 0. 0. 0. 1.</_>
    <_>
      1. 0. 0. 0. 0. 0. 0. 0. 0. 0. 0. 0. 0. 0. 0. 0. 2. 4. 0. 0. 0. 3.
      6. 0. 0. 0. 2. 2. 0. 0. 0. 0. 0. 0. 0. 0. 7. 6. 1. 0. 0. 0. 1. 5.
      0. 0. 0. 4. 0. 0. 0. 0. 0. 4. 0. 0. 0. 6. 0. 0. 0. 0. 0. 3. 1. 0.
      0. 0. 0. 0. 1. 0. 0. 0. 1. 0. 0. 0. 0. 0. 2. 4. 0. 0. 1. 4. 5. 0.
      0. 0. 4. 4. 0. 0. 0. 1. 1. 1. 0. 0. 5. 6. 4. 0. 0. 0. 4. 5. 0. 0.
      0. 4. 0. 0. 0. 0. 0. 5. 1. 0. 0. 4. 1. 0. 0. 0. 0. 2.</_>
    <_>
      0. 0. 0. 0. 0. 1. 0. 0. 0. 0. 0. 0. 0. 0. 0. 0. 4. 0. 0. 0. 0. 1.
      0. 0. 0. 0. 6. 0. 0. 0. 3. 5. 1. 0. 0. 0. 4. 6. 0. 0. 0. 0. 1. 0.
      0. 0. 0. 8. 0. 0. 0. 0. 0. 0. 0. 0. 0. 0. 0. 0. 0. 0. 0. 3. 0. 0.
      0. 0. 0. 1. 0. 0. 0. 0. 1. 0. 0. 0. 0. 0. 5. 0. 0. 0. 2. 4. 1. 0.
      0. 2. 5. 0. 0. 0. 5. 5. 4. 0. 0. 0. 5. 4. 0. 0. 0. 1. 2. 1. 0. 0.
      1. 5. 0. 0. 0. 0. 0. 0. 0. 0. 0. 0. 0. 0. 0. 0. 0. 2.</_>
    <_>
      0. 0. 0. 0. 0. 0. 0. 0. 0. 0. 0. 0. 0. 0. 0. 0. 0. 3. 0. 0. 0. 1.
      7. 1. 0. 0. 3. 7. 0. 0. 0. 1. 1. 0. 0. 0. 4. 6. 1. 0. 0. 0. 0. 4.
      0. 0. 0. 3. 0. 0. 0. 0. 0. 0. 0. 0. 0. 0. 0. 0. 0. 0. 0. 3. 0. 0.
      0. 0. 0. 1. 1. 0. 0. 0. 0. 0. 0. 0. 0. 0. 1. 3. 1. 0. 0. 3. 6. 4.
      0. 0. 4. 6. 0. 0. 0. 1. 4. 1. 0. 0. 5. 5. 3. 1. 0. 0. 1. 5. 0. 0.
      0. 4. 0. 0. 0. 0. 0. 2. 0. 0. 0. 0. 0. 0. 0. 0. 0. 2.</_>
    <_>
      1. 0. 0. 0. 0. 1. 0. 0. 0. 3. 4. 0. 0. 0. 0. 0. 3. 0. 0. 0. 0. 4.
      0. 0. 0. 4. 7. 0. 0. 0. 7. 2. 1. 0. 0. 0. 4. 6. 0. 0. 0. 0. 1. 0.
      0. 0. 0. 5. 0. 0. 0. 0. 0. 0. 0. 0. 0. 0. 0. 0. 0. 0. 0. 0. 1. 1.
      0. 0. 0. 3. 0. 0. 0. 4. 5. 0. 0. 0. 0. 0. 4. 0. 0. 0. 3. 5. 1. 0.
      0. 4. 6. 1. 0. 0. 5. 3. 4. 0. 0. 0. 5. 4. 0. 0. 0. 0. 1. 1. 0. 0.
      1. 4. 0. 0. 0. 0. 0. 0. 0. 0. 0. 0. 0. 0. 0. 0. 0. 1.</_>
    <_>
      5. 5. 0. 0. 0. 0. 2. 0. 0. 0. 0. 0. 0. 0. 0. 0. 1. 5. 0. 0. 0. 3.
      6. 0. 0. 0. 5. 4. 0. 0. 0. 2. 1. 0. 0. 0. 5. 5. 0. 0. 0. 0. 0. 1.
      0. 0. 0. 6. 0. 0. 0. 0. 0. 0. 0. 0. 0. 0. 0. 0. 0. 0. 0. 3. 3. 5.
      0. 0. 0. 1. 3. 0. 0. 0. 0. 0. 0. 0. 0. 0. 2. 5. 1. 0. 1. 5. 5. 0.
      0. 1. 5. 5. 0. 0. 1. 3. 2. 1. 0. 0. 4. 5. 1. 0. 0. 1. 3. 2. 0. 0.
      1. 5. 0. 0. 0. 0. 0. 1. 0. 0. 0. 0. 0. 0. 0. 0. 0. 3.</_>
    <_>
      0. 0. 0. 0. 0. 0. 0. 0. 0. 0. 1. 0. 0. 0. 0. 0. 0. 1. 0. 0. 0. 3.
      6. 0. 0. 0. 5. 5. 0. 0. 0. 0. 1. 0. 0. 0. 3. 7. 1. 0. 0. 0. 2. 5.
      0. 0. 0. 4. 0. 0. 0. 0. 0. 1. 0. 0. 0. 0. 0. 0. 0. 0. 0. 3. 0. 0.
      0. 0. 0. 1. 1. 0. 0. 0. 1. 0. 0. 0. 0. 0. 1. 1. 0. 0. 0. 4. 6. 1.
      0. 0. 6. 6. 0. 0. 0. 1. 3. 0. 0. 0. 4. 5. 3. 0. 0. 0. 4. 6. 0. 0.
      0. 5. 0. 0. 0. 0. 0. 2. 0. 0. 0. 0. 1. 1. 0. 0. 0. 2.</_>
    <_>
      4. 4. 1. 0. 0. 0. 1. 0. 0. 0. 0. 0. 0. 0. 0. 0. 1. 5. 4. 0. 0. 1.
      7. 4. 0. 0. 1. 4. 0. 0. 0. 0. 0. 0. 0. 0. 0. 7. 1. 0. 0. 0. 1. 6.
      0. 0. 0. 3. 0. 0. 0. 0. 0. 1. 0. 0. 0. 3. 2. 0. 0. 0. 0. 3. 2. 4.
      1. 0. 0. 0. 1. 0. 0. 0. 0. 0. 0. 0. 0. 0. 1. 5. 4. 0. 1. 1. 5. 4.
      0. 0. 1. 4. 0. 0. 0. 1. 1. 1. 0. 0. 1. 4. 2. 1. 0. 1. 3. 5. 0. 0.
      0. 4. 0. 0. 0. 0. 0. 2. 0. 0. 0. 3. 2. 1. 0. 0. 0. 3.</_>
    <_>
      0. 1. 1. 0. 0. 0. 4. 0. 0. 0. 0. 0. 0. 0. 0. 0. 7. 1. 0. 0. 0. 0.
      3. 0. 0. 0. 4. 5. 0. 0. 0. 5. 3. 0. 0. 0. 5. 0. 0. 0. 0. 0. 0. 0.
      0. 0. 0. 8. 0. 0. 0. 0. 0. 0. 0. 0. 0. 0. 0. 0. 0. 0. 0. 2. 0. 2.
      2. 0. 0. 1. 3. 0. 0. 0. 1. 0. 0. 0. 0. 0. 5. 3. 1. 0. 1. 3. 4. 1.
      0. 0. 5. 5. 0. 0. 0. 5. 5. 1. 0. 0. 5. 1. 1. 0. 0. 0. 1. 1. 0. 0.
      0. 5. 0. 0. 0. 0. 0. 0. 0. 0. 0. 0. 0. 0. 0. 0. 0. 2.</_>
    <_>
      0. 4. 1. 0. 0. 1. 4. 0. 0. 0. 1. 0. 0. 0. 0. 0. 6. 2. 1. 0. 0. 1.
      5. 0. 0. 0. 6. 6. 0. 0. 1. 3. 1. 0. 0. 0. 3. 0. 0. 0. 0. 0. 1. 2.
      0. 0. 0. 7. 0. 0. 0. 0. 0. 0. 0. 0. 0. 0. 0. 0. 0. 0. 0. 4. 1. 3.
      2. 0. 0. 2. 4. 0. 0. 0. 1. 0. 0. 0. 0. 0. 5. 3. 1. 0. 1. 3. 5. 0.
      0. 1. 5. 5. 0. 0. 1. 4. 4. 1. 0. 0. 4. 2. 1. 0. 0. 1. 2. 3. 0. 0.
      1. 4. 0. 0. 0. 0. 0. 0. 0. 0. 0. 0. 0. 0. 0. 0. 0. 3.</_>
    <_>
      3. 0. 0. 0. 0. 1. 0. 0. 0. 0. 0. 0. 0. 0. 0. 0. 2. 3. 0. 0. 1. 5.
      5. 0. 0. 1. 5. 0. 0. 0. 1. 0. 0. 0. 0. 0. 6. 7. 1. 0. 0. 0. 1. 3.
      0. 0. 1. 6. 0. 0. 0. 0. 0. 2. 0. 0. 0. 1. 0. 0. 0. 0. 0. 5. 2. 1.
      0. 0. 0. 1. 1. 0. 0. 0. 1. 0. 0. 0. 0. 0. 3. 4. 0. 0. 1. 4. 4. 0.
      0. 1. 5. 1. 0. 0. 1. 1. 1. 0. 0. 0. 6. 6. 1. 0. 0. 1. 4. 4. 0. 0.
      1. 5. 0. 0. 0. 0. 0. 4. 0. 0. 0. 3. 0. 0. 0. 0. 0. 3.</_>
    <_>
      5. 2. 0. 0. 0. 1. 0. 0. 0. 0. 0. 0. 0. 0. 0. 0. 1. 1. 0. 0. 0. 5.
      5. 0. 0. 0. 6. 2. 0. 0. 0. 4. 2. 0. 0. 0. 6. 4. 0. 0. 0. 0. 0. 0.
      0. 0. 0. 7. 0. 0. 0. 0. 0. 3. 0. 0. 0. 0. 0. 0. 0. 0. 0. 5. 3. 3.
      0. 0. 0. 2. 1. 0. 0. 0. 0. 0. 0. 0. 0. 0. 3. 3. 0. 0. 1. 5. 5. 0.
      0. 0. 5. 4. 0. 0. 0. 4. 2. 1. 0. 0. 4. 4. 1. 0. 0. 1. 1. 1. 0. 0.
      1. 5. 0. 0. 0. 0. 0. 3. 0. 0. 0. 1. 0. 0. 0. 0. 0. 4.</_>
    <_>
      0. 0. 0. 0. 0. 0. 0. 0. 0. 0. 0. 0. 0. 0. 0. 0. 1. 0. 0. 0. 0. 2.
      7. 5. 0. 0. 1. 6. 0. 0. 0. 1. 4. 0. 0. 0. 7. 4. 0. 0. 0. 0. 1. 5.
      0. 0. 0. 4. 0. 0. 0. 0. 0. 0. 0. 0. 0. 0. 0. 0. 0. 0. 0. 1. 1. 0.
      0. 0. 0. 0. 1. 1. 0. 0. 0. 0. 0. 0. 0. 0. 2. 1. 0. 0. 1. 3. 5. 5.
      0. 0. 2. 5. 0. 0. 0. 1. 5. 0. 0. 0. 5. 4. 1. 0. 0. 0. 2. 5. 0. 0.
      0. 4. 0. 0. 0. 0. 0. 0. 0. 0. 0. 0. 0. 0. 0. 0. 0. 3.</_>
    <_>
      5. 6. 0. 0. 0. 2. 3. 0. 0. 0. 0. 0. 0. 0. 0. 0. 1. 4. 0. 0. 0. 4.
      4. 0. 0. 0. 6. 3. 0. 0. 1. 4. 4. 0. 0. 0. 6. 5. 0. 0. 0. 0. 0. 1.
      0. 0. 0. 7. 0. 0. 0. 0. 0. 1. 0. 0. 0. 0. 0. 0. 0. 0. 0. 3. 3. 4.
      0. 0. 0. 4. 4. 0. 0. 0. 0. 0. 0. 0. 0. 0. 3. 4. 0. 0. 1. 4. 5. 0.
      0. 1. 5. 4. 0. 0. 2. 4. 3. 1. 0. 0. 4. 4. 1. 0. 0. 1. 2. 2. 0. 0.
      1. 5. 0. 0. 0. 0. 0. 1. 0. 0. 0. 0. 0. 0. 0. 0. 0. 2.</_>
    <_>
      1. 1. 1. 0. 0. 0. 4. 0. 0. 0. 0. 0. 0. 0. 0. 0. 6. 2. 2. 0. 0. 5.
      7. 2. 0. 0. 3. 6. 0. 0. 0. 1. 2. 0. 0. 0. 1. 6. 0. 0. 0. 0. 0. 3.
      0. 0. 0. 6. 0. 0. 0. 0. 0. 0. 0. 0. 0. 0. 0. 0. 0. 0. 0. 2. 1. 1.
      2. 0. 0. 1. 5. 1. 0. 0. 0. 0. 0. 0. 0. 0. 4. 4. 3. 0. 1. 4. 6. 3.
      0. 1. 4. 5. 0. 0. 0. 3. 4. 1. 0. 0. 4. 4. 1. 0. 0. 0. 2. 3. 0. 0.
      0. 4. 0. 0. 0. 0. 0. 0. 0. 0. 0. 0. 0. 0. 0. 0. 0. 1.</_>
    <_>
      0. 0. 0. 0. 0. 0. 0. 0. 0. 0. 1. 0. 0. 0. 0. 0. 0. 0. 0. 0. 0. 3.
      7. 0. 0. 0. 4. 4. 0. 0. 0. 1. 0. 0. 0. 0. 1. 7. 1. 0. 0. 0. 1. 6.
      0. 0. 0. 4. 0. 0. 0. 0. 0. 4. 0. 0. 0. 0. 0. 0. 0. 0. 0. 3. 0. 0.
      0. 0. 0. 1. 1. 0. 0. 0. 1. 0. 0. 0. 0. 0. 0. 1. 0. 0. 0. 4. 5. 1.
      0. 0. 5. 5. 0. 0. 0. 1. 1. 0. 0. 0. 4. 6. 3. 0. 0. 0. 3. 6. 0. 0.
      0. 5. 0. 0. 0. 0. 0. 4. 0. 0. 0. 0. 0. 0. 0. 0. 0. 3.</_>
    <_>
      1. 0. 0. 0. 0. 0. 1. 0. 0. 0. 0. 0. 0. 0. 0. 0. 2. 0. 0. 0. 0. 3.
      8. 5. 0. 0. 1. 6. 0. 0. 0. 1. 6. 0. 0. 0. 5. 5. 0. 0. 0. 0. 0. 4.
      0. 0. 0. 5. 0. 0. 0. 0. 0. 0. 0. 0. 0. 0. 0. 0. 0. 0. 0. 3. 1. 0.
      0. 0. 0. 0. 2. 1. 0. 0. 0. 0. 0. 0. 0. 0. 2. 1. 1. 0. 1. 3. 5. 5.
      0. 0. 2. 5. 0. 0. 0. 2. 4. 1. 0. 0. 5. 5. 1. 0. 0. 1. 2. 4. 0. 0.
      0. 5. 0. 0. 0. 0. 0. 0. 0. 0. 0. 0. 0. 0. 0. 0. 0. 3.</_>
    <_>
      5. 5. 0. 0. 0. 2. 1. 0. 0. 0. 0. 0. 0. 0. 0. 0. 7. 1. 0. 0. 0. 2.
      4. 0. 0. 0. 5. 4. 0. 0. 0. 4. 3. 0. 0. 0. 0. 0. 0. 0. 0. 0. 0. 0.
      0. 0. 0. 7. 0. 0. 0. 0. 0. 0. 0. 0. 0. 0. 0. 0. 0. 0. 0. 3. 3. 4.
      0. 0. 0. 4. 3. 0. 0. 0. 1. 0. 0. 0. 0. 0. 4. 3. 0. 0. 1. 4. 5. 0.
      0. 1. 5. 5. 0. 0. 1. 5. 3. 1. 0. 0. 1. 1. 0. 0. 0. 0. 1. 1. 0. 0.
      1. 5. 0. 0. 0. 0. 0. 0. 0. 0. 0. 0. 0. 0. 0. 0. 0. 2.</_>
    <_>
      3. 1. 0. 0. 0. 0. 1. 0. 0. 0. 0. 0. 0. 0. 0. 0. 1. 5. 1. 0. 0. 4.
      6. 1. 0. 0. 4. 5. 0. 0. 0. 0. 1. 0. 0. 0. 1. 7. 0. 0. 0. 0. 1. 5.
      0. 0. 0. 1. 0. 0. 0. 0. 0. 1. 0. 0. 0. 5. 1. 0. 0. 0. 0. 4. 3. 2.
      1. 0. 0. 0. 2. 0. 0. 0. 0. 0. 0. 0. 0. 0. 3. 5. 2. 0. 0. 4. 6. 3.
      0. 0. 5. 6. 0. 0. 0. 0. 1. 0. 0. 0. 2. 4. 3. 1. 0. 1. 3. 6. 0. 0.
      0. 3. 0. 0. 0. 0. 0. 3. 0. 0. 0. 4. 2. 1. 0. 0. 0. 3.</_>
    <_>
      0. 0. 0. 0. 0. 0. 0. 0. 0. 0. 0. 0. 0. 0. 0. 0. 6. 0. 0. 0. 0. 1.
      1. 0. 0. 0. 3. 2. 0. 0. 0. 1. 2. 0. 0. 0. 4. 1. 0. 0. 0. 0. 3. 2.
      0. 0. 0. 8. 0. 0. 0. 0. 0. 0. 0. 0. 0. 0. 0. 0. 0. 0. 0. 4. 1. 1.
      0. 0. 0. 1. 1. 0. 0. 0. 1. 0. 0. 0. 0. 0. 5. 1. 0. 0. 1. 4. 4. 0.
      0. 0. 5. 5. 0. 0. 0. 2. 5. 0. 0. 0. 4. 3. 1. 0. 0. 0. 4. 5. 0. 0.
      0. 6. 0. 0. 0. 0. 0. 0. 0. 0. 0. 0. 0. 0. 0. 0. 0. 5.</_>
    <_>
      3. 0. 0. 0. 0. 1. 0. 0. 0. 0. 0. 0. 0. 0. 0. 0. 1. 0. 0. 0. 1. 6.
      3. 0. 0. 1. 6. 1. 0. 0. 1. 0. 1. 0. 0. 0. 8. 4. 0. 0. 0. 0. 1. 3.
      0. 0. 1. 6. 0. 0. 0. 0. 0. 2. 0. 0. 0. 0. 0. 0. 0. 0. 0. 5. 2. 1.
      0. 0. 0. 1. 1. 0. 0. 0. 1. 0. 0. 0. 0. 0. 3. 1. 0. 0. 2. 4. 3. 0.
      0. 2. 5. 2. 0. 0. 1. 1. 2. 0. 0. 0. 5. 5. 1. 0. 0. 0. 4. 4. 0. 0.
      2. 5. 0. 0. 0. 0. 0. 3. 0. 0. 0. 0. 0. 0. 0. 0. 0. 3.</_>
    <_>
      1. 0. 0. 0. 0. 0. 0. 0. 0. 0. 0. 0. 0. 0. 0. 0. 7. 0. 0. 0. 0. 4.
      0. 0. 0. 1. 7. 0. 0. 0. 2. 4. 1. 0. 0. 0. 5. 4. 0. 0. 0. 0. 0. 0.
      0. 0. 0. 8. 0. 0. 0. 0. 0. 0. 0. 0. 0. 0. 0. 0. 0. 0. 0. 2. 1. 0.
      0. 0. 0. 0. 0. 0. 0. 0. 1. 0. 0. 0. 0. 0. 4. 0. 0. 0. 2. 4. 1. 0.
      0. 3. 5. 0. 0. 0. 4. 5. 3. 0. 0. 0. 4. 4. 0. 0. 0. 1. 1. 0. 0. 0.
      1. 5. 0. 0. 0. 0. 0. 0. 0. 0. 0. 0. 0. 0. 0. 0. 0. 2.</_>
    <_>
      1. 1. 0. 0. 0. 2. 1. 0. 0. 0. 0. 0. 0. 0. 0. 0. 5. 1. 0. 0. 0. 4.
      3. 0. 0. 0. 7. 1. 0. 0. 0. 4. 1. 0. 0. 0. 5. 1. 0. 0. 0. 0. 1. 0.
      0. 0. 0. 7. 0. 0. 0. 0. 0. 0. 0. 0. 0. 0. 0. 0. 0. 0. 0. 0. 1. 1.
      0. 0. 0. 4. 4. 0. 0. 1. 2. 0. 0. 0. 0. 0. 5. 2. 0. 0. 1. 5. 5. 0.
      0. 1. 6. 4. 0. 0. 1. 5. 4. 0. 0. 0. 5. 4. 1. 0. 0. 1. 2. 1. 0. 0.
      0. 4. 0. 0. 0. 0. 0. 0. 0. 0. 0. 0. 0. 0. 0. 0. 0. 1.</_>
    <_>
      4. 0. 0. 0. 1. 3. 0. 0. 0. 0. 0. 0. 0. 0. 0. 0. 5. 0. 0. 0. 1. 5.
      0. 0. 0. 2. 7. 0. 0. 0. 2. 4. 5. 0. 0. 0. 4. 5. 0. 0. 0. 0. 0. 0.
      0. 0. 0. 7. 0. 0. 0. 0. 0. 0. 0. 0. 0. 0. 0. 0. 0. 0. 0. 3. 2. 0.
      0. 0. 2. 3. 0. 0. 0. 0. 0. 0. 0. 0. 0. 0. 5. 0. 0. 0. 2. 4. 1. 0.
      0. 3. 4. 0. 0. 0. 4. 4. 5. 0. 0. 0. 5. 3. 0. 0. 0. 1. 1. 0. 0. 0.
      1. 4. 0. 0. 0. 0. 0. 0. 0. 0. 0. 0. 0. 0. 0. 0. 0. 2.</_>
    <_>
      2. 3. 1. 0. 0. 2. 5. 0. 0. 0. 0. 0. 0. 0. 0. 0. 6. 2. 1. 0. 0. 3.
      5. 1. 0. 0. 4. 6. 0. 0. 0. 3. 0. 0. 0. 0. 5. 5. 0. 0. 0. 0. 0. 2.
      0. 0. 0. 7. 0. 0. 0. 0. 0. 0. 0. 0. 0. 0. 0. 0. 0. 0. 0. 1. 1. 3.
      2. 0. 1. 4. 5. 0. 0. 0. 1. 0. 0. 0. 0. 0. 4. 4. 2. 0. 1. 4. 5. 1.
      0. 0. 4. 5. 0. 0. 0. 4. 3. 0. 0. 0. 4. 3. 1. 0. 0. 0. 2. 2. 0. 0.
      0. 5. 0. 0. 0. 0. 0. 0. 0. 0. 0. 0. 0. 0. 0. 0. 0. 1.</_>
    <_>
      5. 4. 0. 0. 0. 1. 0. 0. 0. 0. 0. 0. 0. 0. 0. 0. 1. 1. 0. 0. 0. 4.
      5. 0. 0. 0. 6. 3. 0. 0. 0. 4. 4. 0. 0. 0. 7. 5. 0. 0. 0. 0. 0. 1.
      0. 0. 0. 7. 0. 0. 0. 0. 0. 0. 0. 0. 0. 0. 0. 0. 0. 0. 0. 5. 3. 4.
      0. 0. 0. 3. 1. 0. 0. 0. 0. 0. 0. 0. 0. 0. 3. 3. 0. 0. 1. 5. 4. 0.
      0. 1. 4. 4. 0. 0. 0. 4. 3. 1. 0. 0. 4. 4. 1. 0. 0. 0. 1. 1. 0. 0.
      0. 5. 0. 0. 0. 0. 0. 0. 0. 0. 0. 0. 0. 0. 0. 0. 0. 4.</_>
    <_>
      0. 0. 0. 0. 0. 1. 1. 0. 0. 0. 0. 0. 0. 0. 0. 0. 0. 1. 0. 0. 0. 2.
      7. 2. 0. 0. 3. 7. 0. 0. 0. 0. 0. 0. 0. 0. 1. 7. 1. 0. 0. 0. 1. 4.
      0. 0. 0. 2. 0. 0. 0. 0. 0. 1. 0. 0. 0. 0. 0. 0. 0. 0. 0. 3. 1. 1.
      1. 0. 0. 1. 2. 0. 0. 0. 1. 0. 0. 0. 0. 0. 0. 2. 1. 0. 0. 3. 6. 4.
      0. 0. 5. 6. 0. 0. 0. 1. 0. 0. 0. 0. 4. 6. 3. 0. 0. 0. 3. 5. 0. 0.
      0. 4. 0. 0. 0. 0. 0. 2. 0. 0. 0. 0. 0. 0. 0. 0. 0. 2.</_>
    <_>
      2. 0. 0. 0. 0. 0. 0. 0. 0. 0. 0. 0. 0. 0. 0. 0. 1. 1. 0. 0. 0. 5.
      5. 0. 0. 0. 6. 4. 0. 0. 0. 3. 0. 0. 0. 0. 5. 6. 0. 0. 0. 0. 0. 1.
      0. 0. 0. 6. 0. 0. 0. 0. 0. 1. 0. 0. 0. 1. 0. 0. 0. 0. 0. 4. 2. 1.
      0. 0. 0. 1. 1. 0. 0. 0. 0. 0. 0. 0. 0. 0. 2. 2. 0. 0. 1. 4. 5. 0.
      0. 1. 5. 5. 0. 0. 1. 4. 1. 0. 0. 0. 4. 5. 1. 0. 0. 1. 2. 4. 0. 0.
      1. 6. 0. 0. 0. 0. 0. 3. 0. 0. 0. 2. 0. 0. 0. 0. 0. 4.</_>
    <_>
      0. 0. 0. 0. 0. 0. 0. 0. 0. 2. 3. 0. 0. 0. 0. 0. 6. 0. 0. 0. 1. 4.
      0. 0. 0. 4. 7. 0. 0. 0. 6. 3. 6. 0. 0. 0. 1. 0. 0. 0. 0. 0. 1. 0.
      0. 0. 0. 5. 0. 0. 0. 0. 0. 0. 0. 0. 0. 0. 0. 0. 0. 0. 0. 0. 1. 1.
      0. 0. 0. 1. 0. 0. 0. 4. 4. 0. 0. 0. 0. 0. 4. 0. 0. 0. 3. 5. 1. 0.
      0. 5. 6. 1. 0. 0. 5. 4. 4. 0. 0. 0. 3. 0. 0. 0. 0. 0. 1. 1. 0. 0.
      1. 4. 0. 0. 0. 0. 0. 0. 0. 0. 0. 0. 0. 0. 0. 0. 0. 1.</_>
    <_>
      3. 0. 0. 0. 0. 1. 0. 0. 0. 0. 0. 0. 0. 0. 0. 0. 5. 0. 0. 0. 0. 4.
      2. 0. 0. 0. 6. 3. 0. 0. 0. 5. 5. 0. 0. 0. 3. 4. 0. 0. 0. 0. 1. 0.
      0. 0. 0. 8. 0. 0. 0. 0. 0. 0. 0. 0. 0. 0. 0. 0. 0. 0. 0. 5. 2. 0.
      0. 0. 1. 2. 0. 0. 0. 0. 0. 0. 0. 0. 0. 0. 5. 1. 0. 0. 1. 4. 3. 0.
      0. 1. 4. 4. 0. 0. 0. 4. 5. 1. 0. 0. 5. 3. 1. 0. 0. 0. 1. 1. 0. 0.
      0. 5. 0. 0. 0. 0. 0. 0. 0. 0. 0. 0. 0. 0. 0. 0. 0. 4.</_>
    <_>
      0. 0. 0. 0. 0. 0. 0. 0. 0. 0. 0. 0. 0. 0. 0. 0. 1. 0. 0. 0. 0. 1.
      7. 0. 0. 0. 5. 6. 0. 0. 0. 1. 5. 0. 0. 0. 5. 3. 0. 0. 0. 0. 0. 4.
      0. 0. 0. 5. 0. 0. 0. 0. 0. 0. 0. 0. 0. 0. 0. 0. 0. 0. 0. 3. 0. 0.
      0. 0. 0. 1. 1. 0. 0. 0. 1. 0. 0. 0. 0. 0. 3. 1. 1. 0. 0. 4. 6. 1.
      0. 0. 6. 6. 0. 0. 0. 4. 5. 1. 0. 0. 5. 5. 1. 0. 0. 0. 1. 5. 0. 0.
      0. 5. 0. 0. 0. 0. 0. 0. 0. 0. 0. 0. 0. 0. 0. 0. 0. 2.</_>
    <_>
      2. 0. 0. 0. 1. 5. 0. 0. 0. 3. 2. 0. 0. 0. 0. 0. 5. 0. 0. 0. 0. 2.
      0. 0. 0. 2. 7. 0. 0. 0. 6. 4. 1. 0. 0. 0. 1. 6. 0. 0. 0. 0. 1. 0.
      0. 0. 1. 6. 0. 0. 0. 0. 0. 0. 0. 0. 0. 0. 0. 0. 0. 0. 0. 1. 3. 1.
      0. 0. 3. 4. 1. 0. 0. 3. 4. 0. 0. 0. 0. 0. 5. 0. 0. 0. 2. 4. 1. 0.
      0. 4. 6. 1. 0. 0. 5. 5. 3. 0. 0. 0. 3. 4. 0. 0. 0. 1. 3. 1. 0. 0.
      2. 5. 0. 0. 0. 0. 0. 0. 0. 0. 0. 0. 0. 0. 0. 0. 0. 2.</_>
    <_>
      4. 2. 1. 0. 0. 5. 5. 0. 0. 0. 0. 0. 0. 0. 0. 0. 4. 1. 0. 0. 0. 3.
      6. 0. 0. 0. 5. 5. 0. 0. 0. 3. 6. 0. 0. 0. 5. 5. 0. 0. 0. 0. 0. 3.
      0. 0. 0. 6. 0. 0. 0. 0. 0. 0. 0. 0. 0. 0. 0. 0. 0. 0. 0. 1. 2. 3.
      1. 0. 1. 4. 5. 0. 0. 0. 0. 0. 0. 0. 0. 0. 4. 3. 1. 0. 1. 4. 5. 1.
      0. 0. 4. 5. 0. 0. 0. 3. 5. 1. 0. 0. 5. 3. 1. 0. 0. 0. 1. 3. 0. 0.
      0. 4. 0. 0. 0. 0. 0. 0. 0. 0. 0. 0. 0. 0. 0. 0. 0. 1.</_>
    <_>
      0. 4. 1. 0. 0. 1. 1. 0. 0. 0. 0. 0. 0. 0. 0. 0. 3. 4. 1. 0. 0. 1.
      6. 1. 0. 0. 4. 6. 0. 0. 0. 1. 1. 0. 0. 0. 2. 4. 1. 0. 0. 0. 1. 5.
      0. 0. 0. 4. 0. 0. 0. 0. 0. 4. 0. 0. 0. 0. 0. 0. 0. 0. 0. 4. 1. 3.
      1. 0. 0. 1. 3. 0. 0. 0. 1. 0. 0. 0. 0. 0. 2. 4. 1. 0. 0. 2. 5. 2.
      0. 0. 5. 6. 0. 0. 0. 1. 1. 1. 0. 0. 5. 6. 3. 0. 0. 0. 3. 6. 0. 0.
      0. 5. 0. 0. 0. 0. 0. 5. 1. 0. 0. 3. 1. 1. 0. 0. 0. 3.</_>
    <_>
      3. 0. 0. 0. 1. 3. 0. 0. 0. 0. 0. 0. 0. 0. 0. 0. 5. 0. 0. 0. 0. 4.
      0. 0. 0. 1. 7. 0. 0. 0. 3. 4. 6. 0. 0. 0. 4. 5. 0. 0. 0. 0. 0. 0.
      0. 0. 0. 7. 0. 0. 0. 0. 0. 0. 0. 0. 0. 0. 0. 0. 0. 0. 0. 4. 2. 0.
      0. 0. 2. 3. 0. 0. 0. 0. 0. 0. 0. 0. 0. 0. 5. 0. 0. 0. 2. 4. 1. 0.
      0. 3. 4. 0. 0. 0. 4. 4. 5. 0. 0. 0. 5. 3. 0. 0. 0. 1. 1. 0. 0. 0.
      1. 4. 0. 0. 0. 0. 0. 0. 0. 0. 0. 0. 0. 0. 0. 0. 0. 3.</_>
    <_>
      0. 0. 0. 0. 0. 1. 0. 0. 0. 0. 0. 0. 0. 0. 0. 0. 6. 0. 0. 0. 0. 3.
      0. 0. 0. 0. 6. 0. 0. 0. 1. 5. 1. 0. 0. 0. 2. 0. 0. 0. 0. 0. 1. 0.
      0. 0. 0. 8. 0. 0. 0. 0. 0. 0. 0. 0. 0. 0. 0. 0. 0. 0. 0. 2. 1. 1.
      0. 0. 0. 1. 1. 0. 0. 0. 0. 0. 0. 0. 0. 0. 4. 0. 0. 0. 1. 4. 1. 0.
      0. 1. 5. 1. 0. 0. 4. 5. 4. 0. 0. 0. 4. 2. 0. 0. 0. 1. 3. 1. 0. 0.
      1. 5. 0. 0. 0. 0. 0. 0. 0. 0. 0. 0. 0. 0. 0. 0. 0. 2.</_>
    <_>
      1. 0. 0. 0. 0. 0. 0. 0. 0. 0. 0. 0. 0. 0. 0. 0. 6. 0. 0. 0. 0. 3.
      2. 0. 0. 0. 5. 1. 0. 0. 0. 0. 1. 0. 0. 0. 4. 5. 0. 0. 0. 0. 1. 2.
      0. 0. 0. 7. 0. 0. 0. 0. 0. 0. 0. 0. 0. 0. 0. 0. 0. 0. 0. 7. 1. 0.
      0. 0. 0. 1. 0. 0. 0. 0. 0. 0. 0. 0. 0. 0. 4. 2. 0. 0. 1. 4. 4. 0.
      0. 0. 5. 4. 0. 0. 0. 1. 3. 0. 0. 0. 4. 4. 1. 0. 0. 0. 4. 5. 0. 0.
      0. 6. 0. 0. 0. 0. 0. 0. 0. 0. 0. 0. 0. 0. 0. 0. 0. 5.</_>
    <_>
      0. 0. 0. 0. 0. 1. 1. 0. 0. 0. 0. 0. 0. 0. 0. 0. 6. 0. 0. 0. 0. 1.
      0. 0. 0. 0. 6. 0. 0. 0. 2. 5. 3. 0. 0. 0. 5. 0. 0. 0. 0. 0. 1. 0.
      0. 0. 0. 8. 0. 0. 0. 0. 0. 0. 0. 0. 0. 0. 0. 0. 0. 0. 0. 1. 1. 1.
      0. 0. 0. 1. 1. 0. 0. 0. 1. 0. 0. 0. 0. 0. 5. 0. 0. 0. 1. 4. 1. 0.
      0. 2. 5. 1. 0. 0. 5. 5. 5. 0. 0. 0. 4. 1. 0. 0. 0. 0. 1. 1. 0. 0.
      1. 5. 0. 0. 0. 0. 0. 0. 0. 0. 0. 0. 0. 0. 0. 0. 0. 1.</_>
    <_>
      4. 3. 0. 0. 0. 0. 0. 0. 0. 0. 0. 0. 0. 0. 0. 0. 1. 6. 5. 0. 0. 1.
      7. 4. 0. 0. 0. 3. 0. 0. 0. 1. 0. 0. 0. 0. 1. 6. 1. 1. 0. 0. 1. 6.
      0. 0. 0. 3. 0. 0. 0. 0. 0. 6. 0. 0. 0. 4. 1. 0. 0. 0. 0. 3. 2. 3.
      1. 0. 0. 1. 1. 0. 0. 0. 0. 0. 0. 0. 0. 0. 2. 4. 4. 0. 0. 1. 5. 4.
      0. 0. 1. 4. 0. 0. 0. 1. 1. 1. 0. 0. 1. 5. 3. 2. 0. 0. 2. 5. 0. 0.
      0. 4. 0. 0. 0. 0. 0. 4. 0. 0. 0. 2. 1. 1. 0. 0. 0. 3.</_>
    <_>
      5. 5. 0. 0. 0. 0. 0. 0. 0. 0. 0. 0. 0. 0. 0. 0. 1. 4. 0. 0. 0. 2.
      7. 0. 0. 0. 3. 4. 0. 0. 0. 1. 1. 0. 0. 0. 1. 7. 0. 0. 0. 0. 0. 1.
      0. 0. 0. 6. 0. 0. 0. 0. 0. 3. 0. 0. 0. 4. 0. 0. 0. 0. 0. 4. 3. 4.
      0. 0. 0. 1. 1. 0. 0. 0. 0. 0. 0. 0. 0. 0. 3. 4. 1. 0. 1. 4. 5. 0.
      0. 0. 4. 5. 0. 0. 0. 3. 1. 1. 0. 0. 2. 4. 1. 0. 0. 1. 2. 3. 0. 0.
      1. 5. 0. 0. 0. 0. 0. 4. 0. 0. 0. 4. 1. 0. 0. 0. 0. 4.</_>
    <_>
      5. 0. 0. 0. 3. 5. 0. 0. 0. 1. 1. 0. 0. 0. 0. 0. 1. 0. 0. 0. 0. 2.
      0. 0. 0. 4. 7. 0. 0. 0. 6. 2. 4. 0. 0. 0. 7. 0. 0. 0. 0. 0. 0. 0.
      0. 0. 1. 6. 0. 0. 0. 0. 0. 0. 0. 0. 0. 0. 0. 0. 0. 0. 0. 1. 3. 0.
      0. 0. 3. 4. 0. 0. 0. 3. 1. 0. 0. 0. 0. 0. 2. 0. 0. 0. 3. 4. 1. 0.
      0. 5. 5. 0. 0. 0. 5. 4. 3. 0. 0. 0. 4. 1. 0. 0. 0. 0. 1. 0. 0. 0.
      1. 4. 0. 0. 0. 0. 0. 0. 0. 0. 0. 0. 0. 0. 0. 0. 0. 1.</_>
    <_>
      5. 0. 0. 0. 3. 5. 0. 0. 0. 1. 1. 0. 0. 0. 0. 0. 2. 0. 0. 0. 1. 3.
      0. 0. 0. 4. 7. 0. 0. 0. 6. 2. 4. 0. 0. 0. 7. 0. 0. 0. 0. 0. 0. 0.
      0. 0. 0. 7. 0. 0. 0. 0. 0. 0. 0. 0. 0. 0. 0. 0. 0. 0. 0. 0. 3. 0.
      0. 0. 3. 4. 0. 0. 0. 3. 1. 0. 0. 0. 0. 0. 3. 0. 0. 0. 3. 4. 1. 0.
      0. 5. 5. 0. 0. 0. 4. 4. 4. 0. 0. 0. 4. 1. 0. 0. 0. 0. 1. 0. 0. 0.
      1. 4. 0. 0. 0. 0. 0. 0. 0. 0. 0. 0. 0. 0. 0. 0. 0. 1.</_>
    <_>
      0. 0. 0. 0. 0. 0. 0. 0. 0. 0. 0. 0. 0. 0. 0. 0. 1. 1. 0. 0. 0. 5.
      6. 0. 0. 0. 6. 5. 0. 0. 0. 2. 6. 0. 0. 0. 2. 6. 0. 0. 0. 0. 0. 1.
      0. 0. 0. 7. 0. 0. 0. 0. 0. 0. 0. 0. 0. 0. 0. 0. 0. 0. 0. 3. 1. 0.
      0. 0. 0. 1. 1. 0. 0. 0. 0. 0. 0. 0. 0. 0. 3. 3. 0. 0. 1. 4. 5. 0.
      0. 1. 6. 6. 0. 0. 1. 5. 5. 1. 0. 0. 5. 3. 1. 0. 0. 1. 2. 3. 0. 0.
      1. 5. 0. 0. 0. 0. 0. 1. 0. 0. 0. 0. 0. 0. 0. 0. 0. 3.</_>
    <_>
      2. 0. 0. 0. 0. 0. 0. 0. 0. 0. 0. 0. 0. 0. 0. 0. 7. 1. 0. 0. 0. 3.
      2. 0. 0. 0. 5. 1. 0. 0. 0. 0. 5. 0. 0. 0. 0. 0. 0. 0. 0. 0. 1. 1.
      0. 0. 0. 7. 0. 0. 0. 0. 0. 0. 0. 0. 0. 0. 0. 0. 0. 0. 0. 6. 2. 1.
      0. 0. 0. 1. 0. 0. 0. 0. 0. 0. 0. 0. 0. 0. 4. 2. 0. 0. 1. 4. 4. 0.
      0. 0. 5. 4. 0. 0. 0. 1. 4. 1. 0. 0. 1. 2. 1. 0. 0. 0. 3. 5. 0. 0.
      0. 6. 0. 0. 0. 0. 0. 0. 0. 0. 0. 0. 0. 0. 0. 0. 0. 5.</_>
    <_>
      0. 0. 0. 0. 0. 0. 0. 0. 0. 1. 2. 0. 0. 0. 0. 0. 5. 0. 0. 0. 0. 3.
      0. 0. 0. 4. 7. 0. 0. 0. 7. 3. 2. 0. 0. 0. 6. 1. 0. 0. 0. 0. 1. 0.
      0. 0. 1. 5. 0. 0. 0. 0. 0. 0. 0. 0. 0. 0. 0. 0. 0. 0. 0. 0. 1. 1.
      0. 0. 0. 1. 0. 0. 0. 4. 4. 0. 0. 0. 1. 0. 5. 0. 0. 0. 3. 5. 1. 0.
      0. 5. 6. 0. 0. 0. 5. 4. 5. 0. 0. 0. 5. 2. 0. 0. 0. 0. 1. 1. 0. 0.
      2. 4. 0. 0. 0. 0. 0. 0. 0. 0. 0. 0. 0. 0. 0. 0. 0. 1.</_>
    <_>
      3. 0. 0. 0. 0. 0. 0. 0. 0. 0. 0. 0. 0. 0. 0. 0. 1. 0. 0. 0. 0. 5.
      4. 0. 0. 0. 7. 3. 0. 0. 0. 4. 3. 0. 0. 0. 7. 4. 0. 0. 0. 0. 0. 1.
      0. 0. 0. 7. 0. 0. 0. 0. 0. 2. 0. 0. 0. 0. 0. 0. 0. 0. 0. 4. 2. 1.
      0. 0. 0. 1. 1. 0. 0. 0. 0. 0. 0. 0. 0. 0. 2. 1. 0. 0. 1. 4. 5. 0.
      0. 1. 6. 5. 0. 0. 1. 5. 2. 1. 0. 0. 4. 4. 1. 0. 0. 1. 1. 3. 0. 0.
      1. 5. 0. 0. 0. 0. 0. 2. 0. 0. 0. 1. 0. 0. 0. 0. 0. 3.</_>
    <_>
      1. 0. 0. 0. 0. 1. 0. 0. 0. 0. 0. 0. 0. 0. 0. 0. 6. 0. 0. 0. 0. 5.
      5. 0. 0. 1. 6. 1. 0. 0. 1. 0. 1. 0. 0. 0. 3. 7. 0. 0. 0. 0. 0. 3.
      0. 0. 1. 7. 0. 0. 0. 0. 0. 0. 0. 0. 0. 0. 0. 0. 0. 0. 0. 4. 1. 1.
      0. 0. 0. 1. 1. 0. 0. 0. 1. 0. 0. 0. 0. 0. 5. 1. 0. 0. 1. 5. 5. 0.
      0. 2. 6. 4. 0. 0. 2. 1. 5. 0. 0. 0. 4. 4. 1. 0. 0. 0. 3. 5. 0. 0.
      1. 5. 0. 0. 0. 0. 0. 0. 0. 0. 0. 0. 0. 0. 0. 0. 0. 3.</_>
    <_>
      5. 2. 0. 0. 0. 2. 0. 0. 0. 0. 0. 0. 0. 0. 0. 0. 1. 2. 0. 0. 0. 5.
      4. 0. 0. 0. 6. 2. 0. 0. 0. 4. 3. 0. 0. 0. 6. 5. 0. 0. 0. 0. 0. 0.
      0. 0. 0. 7. 0. 0. 0. 0. 0. 2. 0. 0. 0. 0. 0. 0. 0. 0. 0. 6. 3. 3.
      0. 0. 0. 3. 1. 0. 0. 0. 0. 0. 0. 0. 0. 0. 3. 3. 0. 0. 1. 5. 4. 0.
      0. 1. 5. 4. 0. 0. 0. 4. 2. 1. 0. 0. 4. 4. 1. 0. 0. 1. 2. 1. 0. 0.
      1. 5. 0. 0. 0. 0. 0. 3. 0. 0. 0. 0. 0. 0. 0. 0. 0. 4.</_>
    <_>
      4. 0. 0. 0. 0. 1. 0. 0. 0. 0. 0. 0. 0. 0. 0. 0. 4. 0. 0. 0. 0. 5.
      0. 0. 0. 1. 7. 3. 0. 0. 3. 6. 6. 0. 0. 0. 5. 0. 0. 0. 0. 0. 0. 0.
      0. 0. 0. 6. 0. 0. 0. 0. 0. 0. 0. 0. 0. 0. 0. 0. 0. 0. 0. 1. 3. 0.
      0. 0. 1. 3. 0. 0. 0. 0. 0. 0. 0. 0. 0. 0. 4. 0. 0. 0. 2. 4. 1. 0.
      0. 3. 5. 5. 0. 0. 4. 6. 5. 0. 0. 0. 5. 1. 1. 0. 0. 0. 1. 1. 0. 0.
      0. 5. 0. 0. 0. 0. 0. 0. 0. 0. 0. 0. 0. 0. 0. 0. 0. 2.</_>
    <_>
      0. 0. 0. 0. 0. 1. 3. 0. 0. 0. 0. 0. 0. 0. 0. 0. 5. 1. 2. 0. 0. 1.
      7. 3. 0. 0. 4. 6. 0. 0. 0. 3. 3. 0. 0. 0. 6. 1. 0. 0. 0. 0. 0. 3.
      0. 0. 0. 6. 0. 0. 0. 0. 0. 0. 0. 0. 0. 0. 0. 0. 0. 0. 0. 2. 0. 0.
      0. 0. 0. 1. 4. 1. 0. 0. 1. 0. 0. 0. 0. 0. 5. 3. 3. 0. 1. 3. 6. 4.
      0. 1. 5. 5. 0. 0. 0. 4. 5. 1. 0. 0. 5. 3. 1. 0. 0. 0. 1. 2. 0. 0.
      0. 4. 0. 0. 0. 0. 0. 0. 0. 0. 0. 0. 0. 0. 0. 0. 0. 1.</_>
    <_>
      0. 0. 0. 0. 0. 0. 0. 0. 0. 0. 0. 0. 0. 0. 0. 0. 4. 1. 0. 0. 0. 3.
      5. 0. 0. 0. 6. 5. 0. 0. 0. 4. 2. 0. 0. 0. 5. 2. 0. 0. 0. 0. 2. 1.
      0. 0. 0. 7. 0. 0. 0. 0. 0. 0. 0. 0. 0. 0. 0. 0. 0. 0. 0. 0. 1. 0.
      0. 0. 0. 1. 1. 0. 0. 0. 0. 0. 0. 0. 0. 0. 4. 2. 0. 0. 1. 4. 5. 0.
      0. 1. 6. 6. 0. 0. 1. 6. 4. 1. 0. 0. 5. 5. 1. 0. 0. 0. 3. 3. 0. 0.
      1. 5. 0. 0. 0. 0. 0. 0. 0. 0. 0. 0. 0. 0. 0. 0. 0. 1.</_>
    <_>
      1. 1. 1. 0. 0. 0. 1. 0. 0. 0. 0. 0. 0. 0. 0. 0. 2. 6. 5. 0. 0. 1.
      7. 4. 0. 0. 0. 6. 0. 0. 0. 1. 0. 0. 0. 0. 6. 5. 1. 0. 0. 0. 0. 4.
      0. 0. 0. 5. 0. 0. 0. 0. 0. 2. 0. 0. 0. 2. 0. 0. 0. 0. 0. 2. 1. 3.
      1. 0. 0. 1. 2. 0. 0. 0. 0. 0. 0. 0. 0. 0. 3. 4. 5. 0. 0. 1. 5. 4.
      0. 0. 2. 5. 0. 0. 0. 3. 1. 1. 0. 0. 4. 5. 2. 1. 0. 1. 2. 5. 0. 0.
      0. 4. 0. 0. 0. 0. 0. 4. 1. 0. 0. 2. 1. 0. 0. 0. 0. 2.</_>
    <_>
      4. 3. 0. 0. 0. 2. 1. 0. 0. 0. 0. 0. 0. 0. 0. 0. 1. 4. 0. 0. 0. 5.
      5. 0. 0. 0. 7. 2. 0. 0. 1. 5. 0. 0. 0. 0. 6. 5. 0. 0. 0. 0. 1. 3.
      0. 0. 0. 6. 0. 0. 0. 0. 0. 3. 0. 0. 0. 1. 0. 0. 0. 0. 0. 1. 3. 3.
      0. 0. 1. 4. 1. 0. 0. 0. 0. 0. 0. 0. 0. 0. 3. 4. 0. 0. 1. 5. 4. 0.
      0. 1. 5. 4. 0. 0. 1. 4. 1. 1. 0. 0. 4. 4. 1. 0. 0. 1. 2. 4. 0. 0.
      0. 5. 0. 0. 0. 0. 0. 3. 0. 0. 0. 1. 0. 0. 0. 0. 0. 2.</_>
    <_>
      4. 4. 0. 0. 0. 0. 0. 0. 0. 0. 0. 0. 0. 0. 0. 0. 1. 6. 5. 0. 0. 1.
      7. 4. 0. 0. 0. 3. 0. 0. 0. 0. 0. 0. 0. 0. 0. 6. 1. 0. 0. 0. 1. 6.
      0. 0. 0. 3. 0. 0. 0. 0. 0. 6. 0. 0. 0. 1. 3. 0. 0. 0. 0. 3. 2. 4.
      0. 0. 0. 0. 1. 0. 0. 0. 0. 0. 0. 0. 0. 0. 2. 5. 4. 0. 1. 1. 5. 4.
      0. 0. 1. 4. 0. 0. 0. 1. 1. 1. 0. 0. 1. 5. 3. 1. 0. 1. 2. 5. 0. 0.
      0. 3. 0. 0. 0. 0. 0. 4. 0. 0. 0. 3. 3. 1. 0. 0. 0. 3.</_>
    <_>
      5. 0. 0. 0. 0. 0. 0. 0. 0. 0. 0. 0. 0. 0. 0. 0. 1. 0. 0. 0. 0. 1.
      0. 0. 0. 0. 0. 0. 0. 0. 0. 0. 0. 0. 0. 0. 0. 8. 0. 0. 0. 1. 1. 0.
      0. 0. 0. 0. 0. 0. 0. 0. 0. 1. 0. 0. 0. 7. 4. 0. 0. 0. 1. 3. 4. 0.
      0. 0. 0. 1. 0. 0. 0. 0. 0. 0. 0. 0. 0. 0. 4. 1. 0. 0. 2. 3. 1. 0.
      0. 1. 1. 0. 0. 0. 0. 0. 1. 0. 0. 0. 2. 5. 1. 0. 0. 3. 5. 1. 0. 0.
      1. 1. 0. 0. 0. 0. 0. 3. 0. 0. 0. 6. 6. 1. 0. 0. 4. 4.</_>
    <_>
      2. 0. 0. 0. 0. 1. 0. 0. 0. 0. 0. 0. 0. 0. 0. 0. 6. 0. 0. 0. 0. 4.
      0. 0. 0. 0. 1. 0. 0. 0. 0. 4. 0. 0. 0. 0. 6. 4. 0. 0. 0. 0. 0. 0.
      0. 0. 0. 7. 0. 0. 0. 0. 0. 0. 0. 0. 0. 0. 0. 0. 0. 0. 0. 1. 4. 1.
      0. 0. 1. 4. 1. 0. 0. 1. 2. 0. 0. 0. 1. 0. 5. 1. 0. 0. 4. 5. 1. 0.
      0. 1. 4. 1. 0. 0. 1. 5. 2. 0. 0. 0. 7. 6. 0. 0. 0. 1. 2. 1. 0. 0.
      1. 6. 0. 0. 0. 0. 0. 0. 0. 0. 0. 0. 0. 0. 0. 0. 1. 2.</_>
    <_>
      4. 0. 0. 0. 0. 0. 0. 0. 0. 0. 0. 0. 0. 0. 0. 0. 5. 0. 0. 0. 0. 2.
      0. 0. 0. 0. 0. 0. 0. 0. 0. 0. 1. 0. 0. 0. 1. 1. 0. 0. 0. 0. 2. 0.
      0. 0. 0. 0. 0. 0. 0. 0. 0. 3. 0. 0. 0. 8. 1. 0. 0. 0. 0. 2. 5. 0.
      0. 0. 1. 1. 0. 0. 0. 0. 0. 0. 0. 0. 0. 0. 6. 1. 0. 0. 2. 5. 1. 0.
      0. 1. 1. 0. 0. 0. 0. 0. 2. 0. 0. 0. 2. 4. 1. 0. 0. 1. 4. 0. 0. 0.
      1. 1. 0. 0. 0. 0. 0. 6. 0. 0. 0. 7. 3. 1. 0. 0. 1. 4.</_>
    <_>
      3. 0. 0. 0. 0. 0. 0. 1. 0. 0. 0. 0. 0. 0. 0. 0. 2. 1. 0. 0. 0. 1.
      4. 4. 0. 0. 0. 2. 0. 0. 0. 0. 0. 0. 0. 0. 1. 1. 1. 0. 0. 0. 0. 0.
      0. 0. 0. 0. 0. 0. 0. 0. 0. 9. 0. 0. 0. 0. 0. 0. 0. 0. 0. 0. 4. 1.
      1. 0. 0. 1. 2. 3. 0. 0. 0. 1. 0. 0. 0. 0. 4. 2. 1. 0. 1. 2. 5. 5.
      0. 0. 1. 4. 0. 0. 0. 0. 2. 1. 0. 0. 3. 5. 3. 1. 0. 1. 2. 3. 0. 0.
      0. 1. 0. 0. 0. 0. 0. 5. 1. 0. 0. 1. 2. 1. 0. 0. 1. 3.</_>
    <_>
      5. 0. 0. 0. 0. 1. 0. 0. 0. 0. 1. 0. 0. 0. 0. 0. 1. 0. 0. 0. 0. 1.
      0. 0. 0. 0. 1. 0. 0. 0. 0. 4. 0. 0. 0. 0. 6. 4. 0. 0. 0. 0. 3. 0.
      0. 0. 0. 5. 0. 0. 0. 0. 0. 0. 0. 0. 0. 7. 1. 0. 0. 0. 0. 3. 4. 1.
      0. 0. 0. 3. 1. 0. 0. 0. 1. 0. 0. 0. 0. 0. 4. 1. 0. 0. 2. 4. 1. 0.
      0. 0. 4. 1. 0. 0. 0. 4. 1. 0. 0. 0. 6. 6. 1. 0. 0. 1. 4. 1. 0. 0.
      0. 5. 0. 0. 0. 0. 0. 1. 0. 0. 0. 5. 3. 0. 0. 0. 1. 4.</_>
    <_>
      6. 0. 0. 0. 0. 0. 0. 0. 0. 0. 0. 0. 0. 0. 0. 0. 1. 0. 0. 0. 3. 2.
      0. 0. 0. 1. 0. 0. 0. 0. 0. 0. 0. 0. 0. 0. 0. 7. 1. 0. 0. 6. 1. 0.
      0. 1. 3. 3. 0. 0. 0. 0. 0. 0. 0. 0. 0. 1. 6. 0. 0. 0. 1. 2. 4. 1.
      0. 0. 1. 1. 0. 0. 0. 0. 0. 0. 0. 0. 0. 0. 4. 1. 0. 0. 5. 5. 2. 0.
      1. 3. 1. 0. 0. 0. 0. 0. 1. 0. 0. 0. 1. 5. 3. 0. 0. 6. 4. 1. 0. 2.
      5. 2. 0. 0. 0. 0. 0. 1. 0. 0. 0. 2. 4. 1. 0. 0. 5. 5.</_>
    <_>
      3. 0. 0. 0. 0. 0. 0. 0. 0. 0. 0. 0. 0. 0. 0. 0. 3. 0. 0. 0. 0. 1.
      0. 0. 0. 0. 1. 0. 0. 0. 0. 4. 1. 0. 0. 0. 9. 2. 0. 0. 0. 0. 1. 0.
      0. 0. 0. 6. 0. 0. 0. 0. 0. 0. 0. 0. 0. 0. 0. 0. 0. 0. 0. 1. 4. 1.
      0. 0. 1. 2. 1. 0. 0. 1. 1. 0. 0. 0. 0. 0. 4. 1. 0. 0. 2. 4. 1. 0.
      0. 1. 4. 0. 0. 0. 1. 5. 3. 0. 0. 0. 6. 5. 0. 0. 0. 1. 3. 1. 0. 0.
      1. 5. 0. 0. 0. 0. 0. 0. 0. 0. 0. 0. 1. 0. 0. 0. 1. 2.</_>
    <_>
      5. 0. 0. 0. 0. 0. 0. 0. 0. 0. 0. 0. 0. 0. 0. 0. 1. 0. 0. 0. 1. 1.
      0. 0. 0. 1. 1. 0. 0. 0. 0. 0. 0. 0. 0. 0. 0. 8. 1. 0. 0. 5. 1. 0.
      0. 0. 2. 1. 0. 0. 0. 0. 0. 0. 0. 0. 0. 0. 8. 0. 0. 0. 1. 1. 4. 1.
      0. 0. 1. 1. 0. 0. 0. 0. 0. 0. 0. 0. 0. 0. 4. 1. 0. 0. 4. 4. 1. 0.
      1. 3. 1. 0. 0. 0. 0. 0. 1. 0. 0. 0. 1. 4. 2. 0. 0. 5. 4. 1. 0. 1.
      4. 2. 0. 0. 0. 0. 0. 1. 0. 0. 0. 2. 4. 1. 0. 0. 3. 4.</_>
    <_>
      3. 0. 0. 0. 0. 0. 0. 0. 0. 0. 0. 0. 0. 0. 0. 0. 3. 0. 0. 0. 0. 3.
      0. 0. 0. 0. 0. 0. 0. 0. 0. 0. 0. 0. 0. 0. 0. 6. 0. 0. 0. 0. 1. 0.
      0. 0. 0. 0. 0. 0. 0. 0. 0. 7. 0. 0. 0. 7. 6. 0. 0. 0. 0. 1. 5. 0.
      0. 0. 1. 1. 0. 0. 0. 0. 0. 0. 0. 0. 0. 0. 5. 1. 0. 0. 2. 5. 1. 0.
      0. 1. 1. 1. 0. 0. 0. 0. 1. 0. 0. 0. 2. 6. 1. 0. 0. 1. 4. 1. 0. 0.
      1. 1. 0. 0. 0. 0. 0. 6. 0. 0. 0. 5. 4. 1. 0. 0. 1. 3.</_>
    <_>
      0. 0. 0. 0. 0. 0. 0. 0. 0. 0. 0. 0. 0. 0. 0. 0. 0. 0. 0. 0. 3. 1.
      0. 0. 0. 1. 3. 2. 0. 0. 0. 2. 0. 0. 0. 0. 1. 8. 0. 0. 0. 3. 1. 1.
      0. 1. 5. 3. 0. 0. 0. 0. 0. 4. 0. 0. 0. 0. 0. 0. 0. 0. 0. 4. 1. 1.
      0. 0. 1. 1. 1. 0. 0. 1. 1. 0. 0. 0. 0. 0. 0. 0. 0. 0. 4. 4. 1. 0.
      1. 5. 4. 4. 0. 0. 0. 4. 1. 0. 0. 0. 5. 7. 0. 0. 0. 5. 3. 2. 0. 3.
      5. 4. 0. 0. 0. 0. 0. 6. 0. 0. 0. 1. 1. 0. 0. 0. 2. 3.</_>
    <_>
      4. 0. 0. 0. 0. 0. 0. 0. 0. 0. 0. 0. 0. 0. 0. 0. 1. 0. 0. 0. 0. 1.
      1. 0. 0. 0. 0. 0. 0. 0. 0. 2. 0. 0. 0. 0. 7. 6. 0. 0. 0. 0. 0. 0.
      0. 0. 0. 3. 0. 0. 0. 0. 0. 8. 0. 0. 0. 1. 0. 0. 0. 0. 0. 2. 4. 1.
      0. 0. 0. 2. 1. 0. 0. 0. 1. 0. 0. 0. 0. 0. 4. 1. 0. 0. 2. 4. 1. 1.
      0. 0. 3. 1. 0. 0. 0. 3. 1. 0. 0. 0. 6. 6. 1. 0. 0. 1. 3. 1. 0. 0.
      0. 5. 0. 0. 0. 0. 0. 4. 0. 0. 0. 1. 1. 1. 0. 0. 1. 4.</_>
    <_>
      2. 3. 0. 0. 0. 0. 1. 0. 0. 0. 0. 0. 0. 0. 0. 0. 2. 3. 0. 0. 0. 1.
      6. 1. 0. 0. 0. 4. 0. 0. 0. 0. 0. 0. 0. 0. 1. 5. 1. 0. 0. 0. 0. 1.
      0. 0. 0. 0. 0. 0. 0. 0. 0. 6. 0. 0. 0. 3. 0. 0. 0. 0. 0. 1. 2. 5.
      2. 0. 0. 1. 2. 1. 0. 0. 0. 0. 0. 0. 0. 0. 3. 5. 1. 0. 1. 3. 6. 3.
      0. 0. 1. 3. 0. 0. 0. 0. 2. 1. 0. 0. 3. 5. 2. 1. 0. 1. 3. 4. 0. 0.
      0. 1. 0. 0. 0. 0. 0. 7. 1. 0. 0. 7. 1. 1. 0. 0. 0. 3.</_>
    <_>
      5. 0. 0. 0. 0. 0. 0. 0. 0. 0. 0. 0. 0. 0. 0. 0. 4. 0. 0. 0. 0. 3.
      0. 0. 0. 0. 0. 0. 0. 0. 0. 0. 1. 0. 0. 0. 1. 1. 0. 0. 0. 0. 1. 0.
      0. 0. 0. 0. 0. 0. 0. 0. 0. 9. 0. 0. 0. 2. 1. 0. 0. 0. 0. 5. 5. 1.
      0. 0. 0. 1. 0. 0. 0. 0. 0. 0. 0. 0. 0. 0. 5. 1. 0. 0. 2. 5. 1. 1.
      0. 1. 1. 1. 0. 0. 0. 0. 2. 0. 0. 0. 3. 4. 1. 0. 0. 1. 4. 1. 0. 0.
      1. 1. 0. 0. 0. 0. 0. 6. 0. 0. 0. 4. 2. 1. 0. 0. 1. 4.</_>
    <_>
      5. 1. 0. 0. 0. 0. 1. 0. 0. 0. 0. 0. 0. 0. 0. 0. 1. 4. 1. 0. 0. 1.
      1. 1. 0. 0. 0. 1. 0. 0. 0. 0. 0. 0. 0. 0. 0. 6. 1. 0. 0. 0. 0. 1.
      0. 0. 0. 1. 0. 0. 0. 0. 0. 6. 0. 0. 0. 0. 7. 0. 0. 0. 1. 1. 4. 4.
      1. 0. 0. 0. 2. 0. 0. 0. 0. 0. 0. 0. 0. 0. 4. 5. 1. 0. 1. 3. 4. 3.
      0. 0. 1. 2. 0. 0. 0. 0. 0. 0. 0. 0. 1. 6. 3. 1. 0. 1. 2. 4. 0. 0.
      0. 2. 0. 0. 0. 0. 0. 6. 1. 0. 0. 2. 6. 1. 0. 0. 5. 2.</_>
    <_>
      6. 0. 0. 0. 0. 0. 0. 0. 0. 0. 0. 0. 0. 0. 0. 0. 4. 0. 0. 0. 0. 5.
      1. 0. 0. 0. 0. 0. 0. 0. 0. 0. 1. 0. 0. 0. 2. 7. 0. 0. 0. 0. 3. 0.
      0. 0. 0. 0. 0. 0. 0. 0. 0. 6. 0. 0. 0. 0. 1. 0. 0. 0. 0. 6. 5. 1.
      0. 0. 1. 1. 1. 0. 0. 0. 0. 0. 0. 0. 0. 0. 5. 1. 0. 0. 2. 5. 1. 1.
      0. 1. 1. 1. 0. 0. 0. 0. 3. 0. 0. 0. 4. 6. 1. 0. 0. 1. 5. 1. 0. 0.
      1. 1. 0. 0. 0. 0. 0. 6. 0. 0. 0. 1. 1. 1. 0. 0. 2. 5.</_>
    <_>
      6. 0. 0. 0. 0. 0. 1. 1. 0. 0. 0. 1. 0. 0. 0. 0. 2. 1. 0. 0. 0. 1.
      3. 4. 0. 0. 0. 6. 0. 0. 0. 0. 0. 0. 0. 0. 0. 7. 2. 1. 0. 0. 2. 1.
      0. 0. 0. 0. 0. 0. 0. 0. 0. 1. 0. 0. 0. 1. 5. 0. 0. 0. 0. 4. 4. 1.
      1. 0. 0. 1. 3. 3. 0. 0. 0. 1. 0. 0. 0. 0. 5. 2. 1. 0. 2. 4. 5. 6.
      0. 0. 1. 6. 0. 0. 0. 1. 1. 1. 0. 0. 1. 5. 4. 1. 0. 1. 3. 5. 0. 0.
      1. 3. 0. 0. 0. 0. 0. 1. 1. 0. 0. 3. 4. 1. 0. 0. 1. 5.</_>
    <_>
      4. 1. 0. 0. 0. 1. 0. 0. 0. 0. 0. 0. 0. 0. 0. 0. 1. 0. 0. 0. 0. 5.
      0. 0. 0. 0. 1. 1. 0. 0. 0. 1. 0. 0. 0. 0. 1. 7. 0. 0. 0. 0. 1. 0.
      0. 0. 0. 7. 0. 0. 0. 0. 0. 1. 0. 0. 0. 0. 1. 0. 0. 0. 0. 1. 4. 2.
      0. 0. 1. 4. 1. 0. 0. 0. 2. 0. 0. 0. 0. 0. 3. 1. 0. 0. 1. 4. 1. 0.
      0. 0. 4. 3. 0. 0. 0. 5. 1. 0. 0. 0. 4. 6. 1. 0. 0. 1. 4. 2. 0. 0.
      0. 6. 0. 0. 0. 0. 0. 4. 0. 0. 0. 0. 1. 1. 0. 0. 1. 4.</_>
    <_>
      4. 0. 0. 0. 0. 0. 0. 0. 0. 0. 0. 0. 0. 0. 0. 0. 4. 0. 0. 0. 0. 1.
      0. 0. 0. 0. 0. 0. 0. 0. 0. 5. 8. 0. 0. 0. 1. 0. 0. 0. 0. 0. 0. 0.
      0. 0. 0. 6. 0. 0. 0. 0. 0. 0. 0. 0. 0. 0. 0. 0. 0. 0. 0. 0. 5. 1.
      0. 0. 1. 3. 1. 0. 0. 1. 1. 1. 0. 0. 0. 0. 6. 0. 0. 0. 1. 4. 1. 0.
      0. 1. 3. 0. 0. 0. 1. 6. 7. 0. 0. 0. 5. 1. 0. 0. 0. 1. 2. 1. 0. 0.
      1. 6. 0. 0. 0. 0. 0. 0. 0. 0. 0. 0. 1. 0. 0. 0. 1. 1.</_>
    <_>
      7. 0. 0. 0. 0. 0. 1. 0. 0. 0. 1. 0. 0. 0. 0. 0. 1. 0. 0. 0. 1. 5.
      2. 0. 0. 0. 0. 0. 0. 0. 0. 2. 0. 0. 0. 0. 1. 6. 0. 0. 0. 0. 1. 0.
      0. 0. 0. 6. 0. 0. 0. 0. 0. 0. 0. 0. 0. 4. 4. 0. 0. 0. 0. 3. 4. 1.
      1. 0. 1. 2. 3. 1. 0. 0. 4. 1. 0. 0. 0. 0. 4. 1. 0. 0. 2. 5. 3. 1.
      0. 0. 4. 3. 0. 0. 0. 5. 1. 1. 0. 0. 3. 5. 1. 0. 0. 1. 4. 2. 0. 0.
      0. 6. 0. 0. 0. 0. 0. 1. 0. 0. 0. 4. 4. 1. 0. 0. 1. 5.</_>
    <_>
      0. 0. 0. 0. 0. 0. 1. 0. 0. 0. 1. 0. 0. 0. 0. 0. 0. 0. 0. 0. 1. 1.
      1. 0. 1. 4. 4. 1. 0. 0. 0. 1. 0. 0. 0. 0. 1. 8. 0. 0. 0. 2. 1. 0.
      0. 1. 4. 4. 0. 0. 0. 0. 0. 6. 0. 0. 0. 0. 0. 0. 0. 0. 1. 1. 2. 1.
      0. 0. 1. 2. 1. 0. 0. 0. 2. 1. 0. 0. 0. 0. 1. 1. 0. 0. 3. 4. 3. 0.
      1. 5. 4. 4. 0. 0. 0. 3. 0. 0. 0. 0. 4. 7. 0. 0. 0. 5. 2. 1. 0. 2.
      5. 4. 0. 0. 0. 0. 0. 6. 0. 0. 0. 1. 0. 0. 0. 0. 3. 2.</_>
    <_>
      4. 0. 0. 0. 0. 1. 0. 0. 0. 0. 0. 0. 0. 0. 0. 0. 0. 0. 0. 0. 0. 1.
      1. 0. 0. 0. 0. 0. 0. 0. 0. 3. 1. 0. 0. 0. 8. 6. 0. 0. 0. 0. 0. 0.
      0. 0. 0. 5. 0. 0. 0. 0. 0. 4. 0. 0. 0. 7. 0. 0. 0. 0. 0. 0. 5. 1.
      0. 0. 1. 2. 1. 0. 0. 1. 2. 0. 0. 0. 1. 1. 3. 1. 0. 0. 2. 3. 1. 0.
      0. 1. 3. 1. 0. 0. 1. 4. 1. 0. 0. 0. 6. 5. 0. 0. 0. 1. 2. 1. 0. 0.
      1. 5. 0. 0. 0. 0. 0. 4. 0. 0. 0. 4. 1. 0. 0. 0. 1. 1.</_>
    <_>
      5. 0. 1. 0. 0. 0. 1. 1. 0. 0. 0. 0. 0. 0. 0. 0. 1. 0. 0. 0. 0. 4.
      2. 5. 0. 0. 0. 5. 0. 0. 0. 0. 0. 0. 0. 0. 0. 7. 1. 0. 0. 0. 3. 1.
      0. 0. 0. 0. 0. 0. 0. 0. 0. 1. 0. 0. 0. 1. 5. 0. 0. 0. 0. 4. 4. 1.
      1. 0. 0. 1. 4. 3. 0. 0. 0. 1. 0. 0. 0. 0. 4. 1. 1. 0. 1. 4. 5. 6.
      0. 0. 1. 6. 0. 0. 0. 0. 1. 0. 0. 0. 1. 5. 4. 1. 0. 1. 4. 5. 0. 0.
      0. 2. 0. 0. 0. 0. 0. 1. 1. 0. 0. 4. 5. 1. 0. 0. 1. 5.</_>
    <_>
      3. 0. 0. 0. 0. 0. 0. 0. 0. 0. 0. 0. 0. 0. 0. 0. 1. 0. 0. 0. 2. 4.
      0. 0. 0. 0. 0. 1. 0. 0. 0. 0. 0. 0. 0. 0. 0. 1. 0. 0. 0. 1. 1. 0.
      0. 0. 0. 0. 0. 0. 0. 0. 0. 7. 0. 0. 0. 5. 7. 0. 0. 0. 0. 1. 4. 0.
      0. 0. 1. 0. 0. 0. 0. 0. 0. 0. 0. 0. 0. 0. 4. 1. 0. 0. 4. 5. 1. 1.
      0. 2. 1. 1. 0. 0. 0. 0. 1. 0. 0. 0. 1. 4. 1. 0. 0. 3. 5. 1. 0. 0.
      1. 1. 0. 0. 0. 0. 0. 6. 0. 0. 0. 6. 6. 1. 0. 0. 1. 4.</_>
    <_>
      3. 0. 0. 0. 0. 0. 0. 0. 0. 0. 1. 0. 0. 0. 0. 0. 1. 0. 0. 0. 1. 0.
      0. 0. 0. 1. 2. 1. 0. 0. 0. 1. 1. 0. 0. 0. 1. 1. 0. 0. 0. 5. 1. 0.
      0. 0. 1. 2. 0. 0. 0. 0. 0. 9. 0. 0. 0. 1. 0. 0. 0. 0. 0. 1. 4. 1.
      0. 0. 1. 1. 1. 0. 0. 0. 1. 1. 0. 0. 0. 0. 3. 1. 0. 0. 3. 3. 1. 0.
      1. 3. 2. 2. 0. 0. 0. 2. 2. 0. 0. 0. 3. 4. 1. 0. 0. 5. 3. 1. 0. 1.
      4. 3. 0. 0. 0. 0. 0. 5. 0. 0. 0. 3. 2. 1. 0. 0. 3. 4.</_>
    <_>
      5. 0. 0. 0. 0. 1. 1. 0. 0. 0. 0. 0. 0. 0. 0. 0. 1. 0. 0. 0. 0. 3.
      1. 0. 0. 0. 0. 1. 0. 0. 0. 6. 1. 0. 0. 0. 5. 7. 0. 0. 0. 0. 0. 0.
      0. 0. 0. 6. 0. 0. 0. 0. 0. 0. 0. 0. 0. 0. 0. 0. 0. 0. 0. 0. 5. 2.
      1. 0. 1. 4. 2. 0. 0. 0. 2. 0. 0. 0. 0. 0. 5. 1. 1. 0. 3. 4. 2. 0.
      0. 0. 4. 3. 0. 0. 0. 5. 4. 0. 0. 0. 7. 6. 1. 0. 0. 0. 2. 1. 0. 0.
      0. 6. 0. 0. 0. 0. 0. 0. 0. 0. 0. 0. 0. 0. 0. 0. 0. 2.</_>
    <_>
      5. 0. 0. 0. 0. 1. 1. 0. 0. 0. 0. 0. 0. 0. 0. 0. 5. 0. 0. 0. 1. 4.
      1. 0. 0. 0. 1. 1. 0. 0. 0. 5. 1. 0. 0. 0. 2. 8. 0. 0. 0. 0. 0. 0.
      0. 0. 0. 6. 0. 0. 0. 0. 0. 0. 0. 0. 0. 0. 0. 0. 0. 0. 0. 0. 5. 1.
      1. 0. 1. 3. 2. 0. 0. 0. 3. 1. 0. 0. 0. 0. 5. 1. 1. 0. 3. 4. 2. 0.
      0. 0. 4. 3. 0. 0. 0. 5. 3. 0. 0. 0. 4. 5. 1. 0. 0. 1. 3. 1. 0. 0.
      0. 6. 0. 0. 0. 0. 0. 1. 0. 0. 0. 0. 1. 0. 0. 0. 0. 3.</_>
    <_>
      4. 0. 0. 0. 0. 0. 0. 0. 0. 0. 0. 0. 0. 0. 0. 0. 4. 0. 0. 0. 1. 1.
      1. 0. 0. 0. 0. 0. 0. 0. 0. 0. 0. 0. 0. 0. 0. 8. 0. 0. 0. 1. 1. 0.
      0. 0. 0. 0. 0. 0. 0. 0. 0. 1. 0. 0. 0. 8. 5. 0. 0. 0. 0. 3. 5. 1.
      0. 0. 0. 1. 0. 0. 0. 0. 0. 0. 0. 0. 0. 0. 5. 1. 0. 0. 2. 4. 1. 1.
      0. 0. 1. 0. 0. 0. 0. 0. 1. 0. 0. 0. 1. 6. 1. 0. 0. 1. 4. 1. 0. 0.
      0. 1. 0. 0. 0. 0. 0. 5. 0. 0. 0. 4. 4. 1. 0. 0. 1. 4.</_>
    <_>
      5. 0. 0. 0. 0. 0. 0. 0. 0. 0. 0. 0. 0. 0. 0. 0. 1. 1. 0. 0. 0. 5.
      0. 0. 0. 0. 0. 0. 0. 0. 0. 0. 0. 0. 0. 0. 2. 8. 0. 0. 0. 0. 2. 0.
      0. 0. 0. 0. 0. 0. 0. 0. 0. 1. 0. 0. 0. 0. 0. 0. 0. 0. 0. 6. 5. 1.
      0. 0. 1. 1. 0. 0. 0. 0. 0. 0. 0. 0. 0. 0. 5. 1. 0. 0. 2. 5. 1. 0.
      0. 1. 1. 0. 0. 0. 0. 0. 1. 0. 0. 0. 5. 7. 1. 0. 0. 1. 4. 1. 0. 0.
      1. 1. 0. 0. 0. 0. 0. 4. 0. 0. 0. 0. 1. 1. 0. 0. 1. 5.</_>
    <_>
      3. 0. 0. 0. 0. 0. 0. 0. 0. 0. 0. 0. 0. 0. 0. 0. 2. 0. 0. 0. 0. 1.
      0. 0. 0. 0. 1. 0. 0. 0. 0. 3. 1. 0. 0. 0. 8. 4. 0. 0. 0. 0. 1. 0.
      0. 0. 0. 6. 0. 0. 0. 0. 0. 0. 0. 0. 0. 0. 0. 0. 0. 0. 0. 1. 4. 1.
      0. 0. 0. 2. 0. 0. 0. 1. 1. 0. 0. 0. 1. 1. 4. 1. 0. 0. 2. 4. 1. 0.
      0. 1. 3. 1. 0. 0. 1. 5. 2. 0. 0. 0. 7. 6. 1. 0. 0. 1. 3. 1. 0. 0.
      1. 5. 0. 0. 0. 0. 0. 0. 0. 0. 0. 0. 1. 1. 0. 0. 1. 1.</_>
    <_>
      5. 0. 0. 0. 0. 1. 1. 0. 0. 0. 0. 0. 0. 0. 0. 0. 3. 0. 0. 0. 1. 5.
      1. 0. 0. 0. 1. 0. 0. 0. 0. 4. 0. 0. 0. 0. 3. 7. 0. 0. 0. 0. 1. 1.
      0. 0. 0. 7. 0. 0. 0. 0. 0. 1. 0. 0. 0. 0. 0. 0. 0. 0. 0. 1. 5. 2.
      1. 0. 0. 4. 3. 0. 0. 0. 3. 0. 0. 0. 0. 0. 4. 1. 0. 0. 2. 4. 3. 0.
      0. 0. 4. 3. 0. 0. 0. 6. 1. 0. 0. 0. 5. 6. 1. 0. 0. 1. 4. 2. 0. 0.
      0. 6. 0. 0. 0. 0. 0. 1. 0. 0. 0. 0. 1. 1. 0. 0. 0. 4.</_>
    <_>
      4. 0. 0. 0. 0. 1. 0. 0. 0. 0. 0. 0. 0. 0. 0. 0. 4. 0. 0. 0. 1. 4.
      0. 0. 0. 0. 0. 1. 0. 0. 0. 4. 1. 0. 0. 0. 1. 8. 0. 0. 0. 0. 0. 0.
      0. 0. 0. 7. 0. 0. 0. 0. 0. 0. 0. 0. 0. 0. 0. 0. 0. 0. 0. 2. 4. 1.
      1. 0. 0. 3. 1. 0. 0. 0. 1. 0. 0. 0. 0. 0. 4. 1. 0. 0. 2. 4. 1. 0.
      0. 0. 4. 3. 0. 0. 0. 4. 2. 0. 0. 0. 4. 5. 1. 0. 0. 1. 4. 1. 0. 0.
      0. 6. 0. 0. 0. 0. 0. 2. 0. 0. 0. 1. 1. 1. 0. 0. 1. 3.</_>
    <_>
      4. 0. 0. 0. 0. 0. 0. 0. 0. 0. 0. 0. 0. 0. 0. 0. 4. 0. 0. 0. 6. 5.
      0. 0. 0. 0. 0. 0. 0. 0. 0. 0. 0. 0. 0. 0. 1. 2. 0. 0. 0. 1. 4. 0.
      0. 0. 0. 0. 0. 0. 0. 0. 0. 1. 0. 0. 0. 4. 6. 0. 0. 0. 0. 2. 4. 0.
      0. 0. 1. 1. 0. 0. 0. 0. 0. 0. 0. 0. 0. 0. 5. 0. 0. 0. 5. 6. 1. 0.
      0. 2. 1. 0. 0. 0. 0. 0. 1. 0. 0. 0. 3. 5. 1. 0. 0. 4. 5. 0. 0. 0.
      1. 1. 0. 0. 0. 0. 0. 4. 1. 0. 0. 7. 7. 0. 0. 0. 1. 3.</_>
    <_>
      3. 0. 0. 0. 0. 0. 0. 0. 0. 0. 1. 0. 0. 0. 0. 0. 1. 0. 0. 0. 0. 0.
      0. 0. 0. 0. 0. 0. 0. 0. 0. 3. 3. 0. 0. 0. 8. 7. 0. 0. 0. 0. 1. 0.
      0. 0. 0. 4. 0. 0. 0. 0. 0. 5. 0. 0. 0. 0. 0. 0. 0. 0. 0. 1. 4. 1.
      0. 0. 1. 2. 1. 0. 0. 1. 2. 0. 0. 0. 0. 0. 4. 1. 0. 0. 1. 3. 1. 0.
      0. 1. 3. 1. 0. 0. 1. 4. 4. 0. 0. 0. 5. 6. 1. 0. 0. 1. 3. 1. 0. 0.
      1. 5. 0. 0. 0. 0. 0. 6. 0. 0. 0. 1. 1. 1. 0. 0. 1. 4.</_>
    <_>
      1. 0. 0. 0. 0. 0. 0. 0. 0. 0. 0. 0. 0. 0. 0. 0. 1. 0. 0. 0. 0. 4.
      0. 0. 0. 0. 0. 0. 0. 0. 0. 0. 0. 0. 0. 0. 2. 8. 0. 0. 0. 1. 1. 0.
      0. 0. 0. 0. 0. 0. 0. 0. 0. 1. 0. 0. 0. 0. 1. 0. 0. 0. 3. 6. 3. 0.
      0. 0. 1. 1. 0. 0. 0. 0. 0. 0. 0. 0. 0. 0. 3. 1. 0. 0. 3. 5. 0. 0.
      0. 1. 1. 0. 0. 0. 0. 0. 1. 0. 0. 0. 6. 6. 1. 0. 0. 3. 5. 1. 0. 0.
      1. 0. 0. 0. 0. 0. 0. 1. 0. 0. 0. 0. 3. 0. 0. 0. 5. 5.</_>
    <_>
      5. 0. 0. 0. 0. 0. 0. 0. 0. 0. 0. 0. 0. 0. 0. 0. 1. 0. 0. 0. 0. 1.
      0. 0. 0. 0. 2. 0. 0. 0. 0. 3. 0. 0. 0. 0. 7. 2. 0. 0. 0. 0. 5. 0.
      0. 0. 0. 7. 0. 0. 0. 0. 0. 0. 0. 0. 0. 7. 1. 0. 0. 0. 0. 3. 5. 1.
      0. 0. 1. 3. 0. 0. 0. 1. 1. 0. 0. 0. 0. 0. 4. 0. 0. 0. 2. 4. 1. 0.
      0. 1. 4. 1. 0. 0. 1. 4. 1. 0. 0. 0. 4. 4. 1. 0. 0. 1. 4. 1. 0. 0.
      1. 6. 0. 0. 0. 0. 0. 1. 0. 0. 0. 3. 2. 0. 0. 0. 1. 5.</_>
    <_>
      5. 1. 0. 0. 0. 0. 3. 0. 0. 0. 0. 1. 0. 0. 0. 0. 1. 1. 0. 0. 0. 2.
      3. 0. 0. 0. 1. 1. 0. 0. 0. 0. 0. 0. 0. 0. 1. 7. 1. 0. 0. 0. 0. 0.
      0. 0. 0. 1. 0. 0. 0. 0. 0. 5. 0. 0. 0. 1. 8. 0. 0. 0. 1. 0. 4. 2.
      0. 0. 0. 2. 4. 1. 0. 0. 2. 3. 0. 0. 0. 0. 4. 2. 0. 0. 1. 4. 4. 0.
      0. 0. 3. 4. 0. 0. 0. 2. 1. 1. 0. 0. 2. 6. 2. 0. 0. 1. 3. 1. 0. 0.
      0. 3. 0. 0. 0. 0. 0. 6. 1. 0. 0. 2. 4. 1. 0. 0. 2. 2.</_>
    <_>
      6. 0. 0. 0. 0. 0. 0. 0. 0. 0. 0. 0. 0. 0. 0. 0. 5. 0. 0. 0. 2. 1.
      0. 0. 0. 0. 0. 0. 0. 0. 0. 0. 0. 0. 0. 0. 0. 8. 0. 0. 0. 0. 1. 0.
      0. 0. 0. 0. 0. 0. 0. 0. 0. 0. 0. 0. 0. 1. 8. 0. 0. 0. 0. 5. 5. 0.
      0. 0. 1. 1. 0. 0. 0. 0. 0. 0. 0. 0. 0. 0. 5. 1. 0. 0. 4. 5. 1. 0.
      0. 1. 1. 0. 0. 0. 0. 0. 1. 0. 0. 0. 2. 5. 1. 0. 0. 2. 4. 1. 0. 0.
      0. 1. 0. 0. 0. 0. 0. 1. 0. 0. 0. 3. 4. 1. 0. 0. 1. 4.</_>
    <_>
      4. 0. 0. 0. 0. 1. 0. 0. 0. 0. 0. 0. 0. 0. 0. 0. 5. 0. 0. 0. 0. 4.
      0. 0. 0. 0. 1. 0. 0. 0. 0. 5. 1. 0. 0. 0. 3. 8. 0. 0. 0. 0. 1. 0.
      0. 0. 0. 7. 0. 0. 0. 0. 0. 0. 0. 0. 0. 0. 0. 0. 0. 0. 0. 1. 4. 1.
      0. 0. 1. 4. 1. 0. 0. 1. 2. 0. 0. 0. 1. 0. 4. 1. 0. 0. 2. 5. 1. 0.
      0. 1. 4. 1. 0. 0. 1. 5. 1. 0. 0. 0. 4. 4. 0. 0. 0. 1. 3. 1. 0. 0.
      1. 6. 0. 0. 0. 0. 0. 0. 0. 0. 0. 0. 1. 0. 0. 0. 0. 3.</_>
    <_>
      6. 1. 0. 0. 0. 2. 0. 0. 0. 0. 0. 0. 0. 0. 0. 0. 2. 0. 0. 0. 1. 1.
      0. 0. 0. 0. 1. 0. 0. 0. 0. 5. 1. 0. 0. 0. 3. 6. 0. 0. 0. 0. 1. 0.
      0. 0. 0. 8. 0. 0. 0. 0. 0. 0. 0. 0. 0. 0. 0. 0. 0. 0. 0. 0. 5. 2.
      1. 0. 1. 5. 1. 0. 0. 1. 4. 1. 0. 0. 1. 1. 3. 0. 0. 0. 2. 4. 1. 0.
      0. 1. 5. 1. 0. 0. 1. 6. 1. 0. 0. 0. 4. 5. 1. 0. 0. 1. 4. 1. 0. 0.
      1. 7. 0. 0. 0. 0. 0. 0. 0. 0. 0. 0. 0. 0. 0. 0. 0. 2.</_>
    <_>
      6. 0. 0. 0. 0. 1. 0. 0. 0. 0. 0. 0. 0. 0. 0. 0. 6. 0. 0. 0. 0. 1.
      0. 0. 0. 0. 0. 0. 0. 0. 0. 6. 1. 0. 0. 0. 6. 5. 0. 0. 0. 0. 0. 0.
      0. 0. 0. 4. 0. 0. 0. 0. 0. 0. 0. 0. 0. 0. 0. 0. 0. 0. 0. 2. 5. 2.
      0. 0. 1. 4. 1. 0. 0. 0. 2. 0. 0. 0. 0. 0. 4. 1. 0. 0. 1. 3. 1. 0.
      0. 0. 3. 2. 0. 0. 0. 5. 4. 0. 0. 0. 7. 7. 1. 0. 0. 0. 2. 1. 0. 0.
      0. 5. 0. 0. 0. 0. 0. 0. 0. 0. 0. 0. 1. 0. 0. 0. 1. 3.</_>
    <_>
      2. 0. 0. 0. 0. 0. 0. 0. 0. 0. 0. 0. 0. 0. 0. 0. 5. 0. 0. 0. 0. 5.
      0. 0. 0. 0. 0. 0. 0. 0. 0. 0. 0. 0. 0. 0. 1. 1. 0. 0. 0. 0. 1. 0.
      0. 0. 0. 0. 0. 0. 0. 0. 0. 7. 0. 0. 0. 3. 1. 0. 0. 0. 1. 4. 4. 0.
      0. 0. 1. 1. 0. 0. 0. 0. 0. 0. 0. 0. 0. 0. 6. 1. 0. 0. 2. 5. 1. 0.
      0. 1. 1. 1. 0. 0. 0. 0. 1. 0. 0. 0. 3. 4. 1. 0. 0. 2. 5. 1. 0. 0.
      0. 1. 0. 0. 0. 0. 0. 7. 0. 0. 0. 7. 3. 0. 0. 0. 2. 4.</_>
    <_>
      4. 0. 0. 0. 0. 0. 1. 0. 0. 0. 0. 3. 0. 0. 0. 0. 1. 1. 0. 0. 0. 5.
      1. 0. 0. 0. 1. 3. 0. 0. 0. 0. 0. 0. 0. 0. 1. 6. 0. 0. 0. 0. 2. 0.
      0. 0. 0. 0. 0. 0. 0. 0. 0. 6. 0. 0. 0. 3. 1. 0. 0. 0. 0. 3. 4. 1.
      1. 0. 1. 1. 4. 1. 0. 0. 1. 4. 0. 0. 0. 0. 3. 2. 0. 0. 1. 5. 4. 0.
      0. 1. 3. 5. 0. 0. 0. 1. 1. 1. 0. 0. 3. 5. 2. 0. 0. 1. 3. 2. 0. 0.
      0. 3. 0. 0. 0. 0. 0. 7. 0. 0. 0. 6. 3. 1. 0. 0. 1. 4.</_>
    <_>
      3. 0. 0. 0. 0. 0. 0. 0. 0. 0. 0. 0. 0. 0. 0. 0. 5. 0. 0. 0. 0. 3.
      0. 0. 0. 0. 0. 0. 0. 0. 0. 0. 0. 0. 0. 0. 1. 1. 0. 0. 0. 0. 1. 0.
      0. 0. 0. 0. 0. 0. 0. 0. 0. 7. 0. 0. 0. 6. 2. 0. 0. 0. 0. 1. 4. 0.
      0. 0. 1. 1. 0. 0. 0. 0. 0. 0. 0. 0. 0. 0. 6. 1. 0. 0. 3. 5. 1. 1.
      0. 1. 1. 1. 0. 0. 0. 0. 1. 0. 0. 0. 3. 4. 1. 0. 0. 2. 4. 0. 0. 0.
      1. 0. 0. 0. 0. 0. 0. 7. 0. 0. 0. 7. 3. 0. 0. 0. 1. 3.</_>
    <_>
      4. 0. 0. 0. 0. 0. 0. 0. 0. 0. 0. 0. 0. 0. 0. 0. 5. 0. 0. 0. 0. 2.
      1. 0. 0. 0. 0. 0. 0. 0. 0. 0. 1. 0. 0. 0. 1. 2. 0. 0. 0. 0. 2. 0.
      0. 0. 0. 0. 0. 0. 0. 0. 0. 6. 0. 0. 0. 7. 1. 0. 0. 0. 1. 2. 4. 0.
      0. 0. 0. 0. 0. 0. 0. 0. 0. 0. 0. 0. 0. 0. 6. 1. 0. 0. 3. 5. 1. 1.
      0. 1. 1. 1. 0. 0. 0. 0. 2. 0. 0. 0. 3. 4. 1. 0. 0. 2. 4. 1. 0. 0.
      0. 1. 0. 0. 0. 0. 0. 7. 0. 0. 0. 7. 3. 1. 0. 0. 1. 3.</_>
    <_>
      3. 0. 0. 0. 0. 0. 0. 0. 0. 0. 0. 0. 0. 0. 0. 0. 2. 0. 0. 0. 5. 3.
      0. 0. 0. 1. 0. 0. 0. 0. 0. 0. 0. 0. 0. 0. 1. 1. 0. 0. 0. 1. 1. 0.
      0. 0. 0. 0. 0. 0. 0. 0. 0. 1. 0. 0. 0. 8. 1. 0. 0. 0. 0. 1. 4. 0.
      0. 0. 1. 1. 0. 0. 0. 0. 0. 0. 0. 0. 0. 0. 5. 1. 0. 0. 5. 6. 1. 1.
      0. 3. 1. 0. 0. 0. 0. 0. 1. 0. 0. 0. 2. 4. 1. 1. 0. 4. 4. 1. 0. 0.
      1. 1. 0. 0. 0. 0. 0. 3. 1. 0. 0. 7. 6. 1. 0. 0. 1. 3.</_>
    <_>
      4. 3. 1. 0. 0. 0. 0. 0. 0. 0. 0. 0. 0. 0. 0. 0. 1. 5. 1. 0. 0. 4.
      5. 1. 0. 0. 1. 3. 0. 0. 0. 0. 1. 0. 0. 0. 1. 2. 1. 0. 0. 0. 0. 1.
      0. 0. 0. 0. 0. 0. 0. 0. 0. 1. 0. 0. 0. 8. 1. 0. 0. 0. 0. 1. 4. 5.
      3. 0. 0. 1. 2. 1. 0. 0. 0. 0. 0. 0. 0. 0. 4. 5. 2. 0. 1. 4. 6. 2.
      0. 1. 1. 3. 0. 0. 0. 0. 1. 1. 0. 0. 3. 4. 2. 1. 0. 1. 3. 4. 0. 0.
      0. 1. 0. 0. 0. 0. 0. 4. 1. 0. 0. 6. 5. 1. 0. 0. 0. 3.</_>
    <_>
      4. 0. 0. 0. 0. 1. 0. 0. 0. 0. 0. 0. 0. 0. 0. 0. 7. 0. 0. 0. 0. 3.
      0. 0. 0. 0. 1. 0. 0. 0. 0. 5. 1. 0. 0. 0. 6. 0. 0. 0. 0. 0. 1. 0.
      0. 0. 0. 6. 0. 0. 0. 0. 0. 0. 0. 0. 0. 0. 0. 0. 0. 0. 0. 2. 4. 1.
      0. 0. 1. 4. 1. 0. 0. 1. 1. 1. 0. 0. 0. 0. 6. 1. 0. 0. 3. 5. 1. 0.
      0. 1. 4. 0. 0. 0. 1. 6. 6. 0. 0. 0. 7. 2. 0. 0. 0. 0. 3. 1. 0. 0.
      1. 6. 0. 0. 0. 0. 0. 0. 0. 0. 0. 0. 0. 0. 0. 0. 0. 3.</_>
    <_>
      6. 0. 0. 0. 0. 0. 0. 0. 0. 0. 0. 0. 0. 0. 0. 0. 5. 0. 0. 0. 0. 5.
      1. 1. 0. 0. 0. 1. 0. 0. 0. 0. 1. 0. 0. 0. 3. 4. 0. 0. 0. 0. 2. 0.
      0. 0. 0. 0. 0. 0. 0. 0. 0. 4. 0. 0. 0. 6. 0. 0. 0. 0. 0. 6. 5. 1.
      0. 0. 1. 1. 0. 0. 0. 0. 0. 0. 0. 0. 0. 0. 5. 1. 0. 0. 2. 5. 2. 1.
      0. 1. 1. 1. 0. 0. 0. 0. 4. 0. 0. 0. 4. 5. 1. 0. 0. 1. 4. 1. 0. 0.
      1. 1. 0. 0. 0. 0. 0. 6. 0. 0. 0. 7. 1. 1. 0. 0. 1. 5.</_>
    <_>
      5. 0. 0. 0. 0. 1. 0. 0. 0. 0. 0. 0. 0. 0. 0. 0. 4. 0. 0. 0. 0. 2.
      0. 0. 0. 0. 0. 0. 0. 0. 0. 2. 1. 0. 0. 0. 5. 5. 0. 0. 0. 0. 1. 0.
      0. 0. 0. 7. 0. 0. 0. 0. 0. 0. 0. 0. 0. 0. 0. 0. 0. 0. 0. 1. 4. 2.
      0. 0. 0. 3. 1. 0. 0. 0. 1. 0. 0. 0. 0. 0. 5. 1. 0. 0. 1. 4. 1. 0.
      0. 1. 3. 1. 0. 0. 0. 4. 4. 0. 0. 0. 7. 7. 1. 0. 0. 1. 3. 1. 0. 0.
      0. 5. 0. 0. 0. 0. 0. 0. 0. 0. 0. 0. 1. 1. 0. 0. 0. 2.</_>
    <_>
      4. 0. 0. 0. 0. 0. 0. 1. 0. 0. 0. 0. 0. 0. 0. 0. 3. 1. 0. 0. 0. 1.
      5. 3. 0. 0. 0. 3. 0. 0. 0. 0. 1. 0. 0. 0. 1. 3. 1. 0. 0. 0. 0. 1.
      0. 0. 0. 0. 0. 0. 0. 0. 0. 9. 0. 0. 0. 0. 0. 0. 0. 0. 0. 1. 4. 1.
      1. 0. 0. 1. 2. 3. 0. 0. 0. 0. 0. 0. 0. 0. 4. 2. 1. 0. 1. 3. 5. 5.
      0. 0. 1. 4. 0. 0. 0. 0. 2. 1. 0. 0. 2. 5. 3. 1. 0. 1. 2. 4. 0. 0.
      0. 1. 0. 0. 0. 0. 0. 5. 1. 0. 0. 1. 1. 1. 0. 0. 1. 4.</_>
    <_>
      5. 0. 0. 0. 0. 0. 0. 0. 0. 0. 0. 0. 0. 0. 0. 0. 4. 0. 0. 0. 1. 2.
      0. 0. 0. 0. 0. 0. 0. 0. 0. 0. 0. 0. 0. 0. 0. 8. 0. 0. 0. 1. 1. 0.
      0. 0. 0. 0. 0. 0. 0. 0. 0. 1. 0. 0. 0. 3. 7. 0. 0. 0. 0. 4. 5. 0.
      0. 0. 1. 1. 0. 0. 0. 0. 0. 0. 0. 0. 0. 0. 5. 1. 0. 0. 3. 4. 1. 0.
      0. 0. 1. 0. 0. 0. 0. 0. 1. 0. 0. 0. 2. 5. 1. 0. 0. 2. 3. 1. 0. 0.
      0. 1. 0. 0. 0. 0. 0. 4. 0. 0. 0. 5. 6. 1. 0. 0. 1. 4.</_>
    <_>
      6. 2. 0. 0. 0. 0. 1. 0. 0. 0. 0. 1. 0. 0. 0. 0. 1. 1. 0. 0. 0. 2.
      5. 0. 0. 0. 0. 2. 0. 0. 0. 1. 0. 0. 0. 0. 0. 7. 3. 0. 0. 0. 5. 1.
      0. 0. 0. 1. 0. 0. 0. 0. 0. 1. 0. 0. 0. 1. 7. 0. 0. 0. 0. 2. 4. 4.
      0. 0. 0. 2. 4. 1. 0. 0. 1. 2. 0. 0. 0. 0. 4. 3. 0. 0. 1. 4. 5. 1.
      0. 0. 3. 5. 0. 0. 0. 2. 1. 0. 0. 0. 1. 5. 4. 0. 0. 1. 5. 4. 0. 0.
      1. 4. 0. 0. 0. 0. 0. 3. 1. 0. 0. 3. 4. 1. 0. 0. 2. 4.</_>
    <_>
      1. 3. 2. 0. 0. 0. 1. 0. 0. 0. 0. 0. 0. 0. 0. 0. 1. 3. 0. 0. 0. 3.
      5. 1. 0. 0. 0. 4. 0. 0. 0. 0. 0. 0. 0. 0. 0. 6. 0. 0. 0. 0. 1. 1.
      0. 0. 0. 0. 0. 0. 0. 0. 0. 5. 0. 0. 0. 7. 1. 0. 0. 0. 0. 1. 3. 5.
      3. 0. 0. 1. 2. 1. 0. 0. 0. 0. 0. 0. 0. 0. 3. 5. 1. 0. 1. 4. 5. 3.
      0. 1. 1. 3. 0. 0. 0. 0. 0. 1. 0. 0. 1. 5. 1. 1. 0. 1. 3. 4. 0. 0.
      1. 1. 0. 0. 0. 0. 0. 6. 1. 0. 0. 6. 2. 1. 0. 0. 1. 3.</_>
    <_>
      6. 0. 0. 0. 0. 0. 0. 0. 0. 0. 0. 0. 0. 0. 0. 0. 1. 0. 0. 0. 0. 1.
      0. 0. 0. 0. 0. 0. 0. 0. 0. 0. 0. 0. 0. 0. 0. 8. 0. 0. 0. 3. 2. 0.
      0. 0. 0. 0. 0. 0. 0. 0. 0. 0. 0. 0. 0. 1. 8. 0. 0. 0. 1. 3. 4. 0.
      0. 0. 0. 0. 0. 0. 0. 0. 0. 0. 0. 0. 0. 0. 4. 0. 0. 0. 2. 3. 0. 0.
      0. 0. 0. 0. 0. 0. 0. 0. 1. 0. 0. 0. 1. 5. 1. 0. 0. 4. 5. 1. 0. 0.
      1. 1. 0. 0. 0. 0. 0. 1. 0. 0. 0. 3. 5. 1. 0. 0. 3. 5.</_>
    <_>
      3. 0. 0. 0. 0. 0. 0. 0. 0. 0. 0. 0. 0. 0. 0. 0. 1. 0. 0. 0. 0. 1.
      0. 0. 0. 0. 0. 0. 0. 0. 0. 2. 1. 0. 0. 0. 7. 5. 0. 0. 0. 0. 1. 0.
      0. 0. 0. 4. 0. 0. 0. 0. 0. 7. 0. 0. 0. 0. 0. 0. 0. 0. 0. 1. 4. 1.
      0. 0. 0. 1. 1. 0. 0. 0. 1. 0. 0. 0. 0. 0. 4. 1. 0. 0. 2. 4. 1. 1.
      0. 0. 3. 1. 0. 0. 0. 3. 1. 0. 0. 0. 6. 7. 1. 0. 0. 1. 3. 1. 0. 0.
      0. 5. 0. 0. 0. 0. 0. 6. 0. 0. 0. 1. 1. 1. 0. 0. 1. 3.</_>
    <_>
      3. 0. 0. 0. 0. 0. 0. 0. 0. 0. 0. 0. 0. 0. 0. 0. 2. 0. 0. 0. 0. 1.
      0. 0. 0. 0. 0. 0. 0. 0. 0. 0. 1. 0. 0. 0. 1. 1. 0. 0. 0. 1. 1. 0.
      0. 0. 0. 0. 0. 0. 0. 0. 0. 9. 0. 0. 0. 1. 3. 0. 0. 0. 2. 4. 4. 1.
      0. 0. 0. 0. 0. 0. 0. 0. 0. 0. 0. 0. 0. 0. 4. 1. 0. 0. 2. 4. 0. 0.
      0. 1. 1. 0. 0. 0. 0. 0. 2. 0. 0. 0. 3. 5. 1. 0. 0. 3. 5. 0. 0. 0.
      0. 0. 0. 0. 0. 0. 0. 5. 0. 0. 0. 3. 5. 0. 0. 0. 4. 5.</_>
    <_>
      3. 0. 0. 0. 0. 0. 0. 0. 0. 0. 0. 0. 0. 0. 0. 0. 4. 0. 0. 0. 0. 6.
      0. 0. 0. 0. 0. 0. 0. 0. 0. 0. 0. 0. 0. 0. 1. 5. 0. 0. 0. 0. 2. 0.
      0. 0. 0. 0. 0. 0. 0. 0. 0. 7. 0. 0. 0. 3. 0. 0. 0. 0. 0. 5. 4. 0.
      0. 0. 1. 1. 0. 0. 0. 0. 0. 0. 0. 0. 0. 0. 5. 1. 0. 0. 2. 6. 1. 0.
      0. 1. 1. 0. 0. 0. 0. 0. 1. 0. 0. 0. 3. 5. 1. 0. 0. 1. 5. 1. 0. 0.
      1. 1. 0. 0. 0. 0. 0. 7. 0. 0. 0. 7. 3. 0. 0. 0. 1. 4.</_>
    <_>
      5. 0. 0. 0. 0. 0. 0. 0. 0. 0. 0. 0. 0. 0. 0. 0. 5. 0. 0. 0. 1. 4.
      0. 0. 0. 0. 0. 0. 0. 0. 0. 0. 0. 0. 0. 0. 3. 8. 0. 0. 0. 0. 1. 0.
      0. 0. 0. 0. 0. 0. 0. 0. 0. 0. 0. 0. 0. 0. 0. 0. 0. 0. 1. 7. 4. 1.
      0. 0. 1. 1. 0. 0. 0. 0. 0. 0. 0. 0. 0. 0. 5. 1. 0. 0. 3. 5. 1. 0.
      0. 1. 1. 0. 0. 0. 0. 0. 2. 0. 0. 0. 5. 5. 1. 0. 0. 3. 4. 1. 0. 0.
      1. 1. 0. 0. 0. 0. 0. 1. 0. 0. 0. 0. 3. 1. 0. 0. 4. 6.</_>
    <_>
      5. 4. 1. 0. 0. 0. 1. 0. 0. 0. 0. 0. 0. 0. 0. 0. 3. 6. 0. 0. 0. 1.
      6. 3. 0. 0. 0. 4. 0. 0. 0. 0. 0. 0. 0. 0. 1. 6. 1. 0. 0. 0. 0. 1.
      0. 0. 0. 0. 0. 0. 0. 0. 0. 1. 0. 0. 0. 4. 1. 0. 0. 0. 0. 0. 5. 6.
      2. 0. 0. 1. 2. 1. 0. 0. 0. 0. 0. 0. 0. 0. 4. 6. 1. 0. 1. 4. 6. 4.
      0. 0. 1. 4. 0. 0. 0. 0. 1. 1. 0. 0. 3. 5. 3. 1. 0. 1. 3. 4. 0. 0.
      0. 1. 0. 0. 0. 0. 0. 3. 1. 0. 0. 3. 3. 2. 0. 0. 1. 3.</_>
    <_>
      5. 1. 0. 0. 0. 0. 1. 0. 0. 0. 0. 1. 0. 0. 0. 0. 1. 1. 0. 0. 0. 1.
      3. 0. 0. 0. 1. 1. 0. 0. 0. 0. 0. 0. 0. 0. 1. 7. 1. 0. 0. 0. 4. 1.
      0. 0. 0. 1. 0. 0. 0. 0. 0. 1. 0. 0. 0. 1. 7. 0. 0. 0. 0. 1. 4. 3.
      1. 0. 0. 1. 4. 1. 0. 0. 1. 2. 0. 0. 0. 0. 4. 3. 0. 0. 1. 4. 5. 0.
      0. 1. 3. 4. 0. 0. 0. 1. 1. 1. 0. 0. 2. 6. 3. 0. 0. 2. 5. 3. 0. 0.
      0. 3. 0. 0. 0. 0. 0. 4. 1. 0. 0. 2. 4. 1. 0. 0. 1. 4.</_>
    <_>
      2. 0. 0. 0. 0. 0. 0. 0. 0. 0. 0. 0. 0. 0. 0. 0. 4. 0. 0. 0. 2. 6.
      0. 0. 0. 1. 0. 0. 0. 0. 0. 0. 0. 0. 0. 0. 0. 5. 0. 0. 0. 0. 4. 0.
      0. 0. 0. 0. 0. 0. 0. 0. 0. 3. 0. 0. 0. 6. 1. 0. 0. 0. 0. 2. 4. 0.
      0. 0. 1. 1. 0. 0. 0. 0. 0. 0. 0. 0. 0. 0. 5. 0. 0. 0. 5. 6. 1. 0.
      0. 3. 1. 0. 0. 0. 0. 0. 0. 0. 0. 0. 2. 6. 1. 0. 0. 3. 5. 1. 0. 0.
      1. 1. 0. 0. 0. 0. 0. 6. 0. 0. 0. 6. 5. 0. 0. 0. 1. 3.</_>
    <_>
      5. 0. 0. 0. 0. 0. 0. 0. 0. 0. 0. 0. 0. 0. 0. 0. 3. 0. 0. 0. 1. 6.
      0. 0. 0. 0. 0. 0. 0. 0. 0. 0. 0. 0. 0. 0. 0. 7. 0. 0. 0. 0. 4. 0.
      0. 0. 0. 0. 0. 0. 0. 0. 0. 5. 0. 0. 0. 5. 0. 0. 0. 0. 0. 4. 5. 0.
      0. 0. 1. 1. 0. 0. 0. 0. 0. 0. 0. 0. 0. 0. 5. 1. 0. 0. 3. 6. 0. 0.
      0. 1. 1. 0. 0. 0. 0. 0. 0. 0. 0. 0. 2. 6. 1. 0. 0. 1. 5. 0. 0. 0.
      1. 1. 0. 0. 0. 0. 0. 6. 0. 0. 0. 6. 1. 1. 0. 0. 1. 4.</_>
    <_>
      3. 0. 0. 0. 0. 0. 0. 0. 0. 0. 0. 0. 0. 0. 0. 0. 3. 0. 0. 0. 0. 3.
      0. 0. 0. 0. 0. 0. 0. 0. 0. 0. 1. 0. 0. 0. 3. 8. 0. 0. 0. 1. 1. 0.
      0. 0. 0. 0. 0. 0. 0. 0. 0. 0. 0. 0. 0. 0. 0. 0. 0. 0. 1. 6. 4. 0.
      0. 0. 1. 1. 0. 0. 0. 0. 0. 0. 0. 0. 0. 0. 5. 1. 0. 0. 3. 5. 1. 0.
      0. 1. 1. 0. 0. 0. 0. 0. 2. 0. 0. 0. 5. 6. 1. 0. 0. 3. 4. 0. 0. 0.
      1. 0. 0. 0. 0. 0. 0. 2. 0. 0. 0. 1. 4. 0. 0. 0. 4. 6.</_>
    <_>
      4. 0. 0. 0. 0. 0. 0. 0. 0. 0. 0. 0. 0. 0. 0. 0. 1. 0. 0. 0. 0. 1.
      0. 0. 0. 0. 0. 0. 0. 0. 0. 0. 0. 0. 0. 0. 1. 8. 0. 0. 0. 1. 1. 0.
      0. 0. 0. 0. 0. 0. 0. 0. 0. 3. 0. 0. 0. 8. 2. 0. 0. 0. 1. 5. 4. 0.
      0. 0. 0. 0. 0. 0. 0. 0. 0. 0. 0. 0. 0. 0. 4. 1. 0. 0. 1. 3. 0. 0.
      0. 1. 1. 0. 0. 0. 0. 0. 1. 0. 0. 0. 2. 5. 1. 0. 0. 3. 4. 1. 0. 0.
      0. 0. 0. 0. 0. 0. 0. 3. 0. 0. 0. 4. 4. 1. 0. 0. 4. 5.</_>
    <_>
      2. 0. 0. 0. 0. 1. 0. 0. 0. 0. 0. 0. 0. 0. 0. 0. 7. 0. 0. 0. 0. 3.
      0. 0. 0. 0. 1. 0. 0. 0. 0. 4. 0. 0. 0. 0. 7. 0. 0. 0. 0. 0. 0. 0.
      0. 0. 0. 6. 0. 0. 0. 0. 0. 0. 0. 0. 0. 0. 0. 0. 0. 0. 0. 1. 4. 1.
      0. 0. 1. 4. 1. 0. 0. 1. 1. 0. 0. 0. 0. 1. 5. 0. 0. 0. 3. 5. 0. 0.
      0. 1. 4. 0. 0. 0. 1. 6. 3. 0. 0. 0. 6. 3. 0. 0. 0. 1. 2. 1. 0. 0.
      0. 6. 0. 0. 0. 0. 0. 0. 0. 0. 0. 0. 1. 0. 0. 0. 0. 3.</_>
    <_>
      3. 1. 1. 0. 0. 0. 0. 0. 0. 0. 0. 0. 0. 0. 0. 0. 1. 4. 1. 0. 0. 1.
      3. 1. 0. 0. 1. 4. 0. 0. 0. 0. 0. 0. 0. 0. 1. 1. 0. 0. 0. 0. 0. 0.
      0. 0. 0. 0. 0. 0. 0. 0. 0. 7. 0. 0. 0. 1. 0. 0. 0. 0. 0. 1. 4. 4.
      3. 0. 1. 1. 1. 0. 0. 0. 0. 0. 0. 0. 0. 0. 3. 5. 3. 0. 1. 3. 6. 3.
      0. 0. 2. 4. 0. 0. 0. 0. 1. 1. 0. 0. 2. 4. 2. 1. 0. 1. 3. 4. 0. 0.
      0. 1. 0. 0. 0. 0. 0. 8. 1. 0. 0. 7. 2. 1. 0. 0. 1. 3.</_>
    <_>
      5. 1. 1. 0. 0. 0. 3. 1. 0. 0. 0. 0. 0. 0. 0. 0. 5. 1. 1. 0. 0. 1.
      3. 3. 0. 0. 0. 1. 0. 0. 0. 0. 0. 0. 0. 0. 3. 8. 0. 0. 0. 0. 0. 1.
      0. 0. 0. 0. 0. 0. 0. 0. 0. 1. 0. 0. 0. 0. 0. 0. 0. 0. 0. 1. 4. 4.
      3. 0. 0. 1. 5. 3. 0. 0. 0. 0. 0. 0. 0. 0. 4. 3. 1. 0. 1. 3. 5. 5.
      0. 0. 1. 2. 0. 0. 0. 0. 2. 1. 0. 0. 5. 7. 2. 1. 0. 1. 2. 3. 0. 0.
      1. 1. 0. 0. 0. 0. 0. 5. 1. 0. 0. 1. 1. 1. 0. 0. 1. 4.</_>
    <_>
      1. 0. 0. 0. 0. 0. 0. 0. 0. 0. 0. 0. 0. 0. 0. 0. 5. 0. 0. 0. 5. 6.
      1. 1. 0. 1. 0. 0. 0. 0. 0. 0. 0. 0. 0. 0. 0. 5. 1. 0. 0. 1. 3. 0.
      0. 0. 0. 0. 0. 0. 0. 0. 0. 4. 0. 0. 0. 6. 1. 0. 0. 0. 0. 1. 2. 1.
      0. 0. 1. 0. 0. 0. 0. 0. 0. 0. 0. 0. 0. 0. 5. 1. 0. 0. 6. 6. 2. 1.
      0. 4. 1. 1. 0. 0. 0. 0. 0. 0. 0. 0. 1. 6. 1. 0. 0. 4. 4. 1. 0. 0.
      1. 1. 0. 0. 0. 0. 0. 6. 0. 0. 0. 6. 5. 0. 0. 0. 1. 2.</_>
    <_>
      4. 1. 0. 0. 0. 0. 1. 0. 0. 0. 0. 0. 0. 0. 0. 0. 1. 3. 0. 0. 0. 1.
      1. 1. 0. 0. 0. 1. 0. 0. 0. 0. 0. 0. 0. 0. 0. 5. 1. 0. 0. 0. 1. 1.
      0. 0. 0. 0. 0. 0. 0. 0. 0. 7. 0. 0. 0. 2. 8. 0. 0. 0. 0. 1. 4. 3.
      1. 0. 0. 1. 2. 1. 0. 0. 0. 0. 0. 0. 0. 0. 3. 5. 1. 0. 1. 3. 5. 2.
      0. 0. 1. 2. 0. 0. 0. 0. 1. 1. 0. 0. 1. 6. 3. 1. 0. 1. 3. 3. 0. 0.
      0. 1. 0. 0. 0. 0. 0. 6. 1. 0. 0. 4. 4. 1. 0. 0. 1. 1.</_>
    <_>
      3. 0. 0. 0. 0. 0. 0. 0. 0. 0. 0. 0. 0. 0. 0. 0. 2. 0. 0. 0. 0. 3.
      0. 0. 0. 0. 0. 0. 0. 0. 0. 0. 0. 0. 0. 0. 0. 6. 0. 0. 0. 0. 0. 0.
      0. 0. 0. 0. 0. 0. 0. 0. 0. 7. 0. 0. 0. 7. 6. 0. 0. 0. 0. 1. 5. 0.
      0. 0. 1. 1. 0. 0. 0. 0. 0. 0. 0. 0. 0. 0. 5. 1. 0. 0. 2. 5. 1. 1.
      0. 1. 1. 1. 0. 0. 0. 0. 1. 0. 0. 0. 1. 6. 1. 0. 0. 1. 3. 1. 0. 0.
      1. 1. 0. 0. 0. 0. 0. 6. 0. 0. 0. 4. 4. 1. 0. 0. 1. 3.</_>
    <_>
      4. 0. 0. 0. 0. 0. 3. 1. 0. 0. 0. 0. 0. 0. 0. 0. 1. 0. 0. 0. 0. 1.
      4. 2. 0. 0. 0. 3. 0. 0. 0. 0. 0. 0. 0. 0. 1. 8. 0. 1. 0. 0. 1. 1.
      0. 0. 0. 0. 0. 0. 0. 0. 0. 1. 0. 0. 0. 7. 0. 0. 0. 0. 0. 1. 4. 2.
      1. 0. 0. 1. 4. 1. 0. 0. 0. 1. 0. 0. 0. 0. 4. 2. 1. 0. 1. 3. 5. 5.
      0. 0. 1. 4. 0. 0. 0. 0. 1. 1. 0. 0. 2. 5. 3. 1. 0. 1. 3. 4. 0. 0.
      0. 1. 0. 0. 0. 0. 0. 3. 1. 0. 0. 4. 3. 1. 0. 0. 1. 3.</_>
    <_>
      5. 0. 0. 0. 0. 0. 0. 0. 0. 0. 0. 0. 0. 0. 0. 0. 6. 0. 0. 0. 0. 6.
      0. 0. 0. 0. 0. 0. 0. 0. 0. 0. 0. 0. 0. 0. 1. 6. 0. 0. 0. 0. 4. 0.
      0. 0. 0. 0. 0. 0. 0. 0. 0. 3. 0. 0. 0. 6. 1. 0. 0. 0. 0. 5. 5. 0.
      0. 0. 1. 1. 0. 0. 0. 0. 0. 0. 0. 0. 0. 0. 6. 1. 0. 0. 3. 5. 1. 0.
      0. 1. 1. 0. 0. 0. 0. 0. 1. 0. 0. 0. 3. 6. 1. 0. 0. 2. 5. 1. 0. 0.
      1. 1. 0. 0. 0. 0. 0. 5. 0. 0. 0. 4. 3. 1. 0. 0. 1. 5.</_>
    <_>
      3. 0. 0. 0. 0. 0. 0. 0. 0. 0. 0. 0. 0. 0. 0. 0. 2. 0. 0. 0. 1. 1.
      0. 0. 0. 0. 0. 0. 0. 0. 0. 0. 1. 0. 0. 0. 1. 3. 0. 0. 0. 1. 1. 0.
      0. 0. 0. 0. 0. 0. 0. 0. 0. 9. 0. 0. 0. 1. 2. 0. 0. 0. 3. 4. 4. 0.
      0. 0. 0. 0. 0. 0. 0. 0. 0. 0. 0. 0. 0. 0. 4. 1. 0. 0. 2. 4. 0. 0.
      0. 0. 1. 0. 0. 0. 0. 0. 2. 0. 0. 0. 3. 5. 1. 0. 0. 4. 5. 0. 0. 0.
      1. 1. 0. 0. 0. 0. 0. 6. 0. 0. 0. 4. 5. 0. 0. 0. 4. 5.</_>
    <_>
      3. 2. 0. 0. 0. 0. 4. 0. 0. 0. 1. 1. 0. 0. 0. 0. 2. 1. 0. 0. 0. 6.
      2. 0. 0. 0. 1. 2. 0. 0. 0. 0. 1. 0. 0. 0. 2. 4. 0. 0. 0. 0. 1. 0.
      0. 0. 0. 0. 0. 0. 0. 0. 0. 3. 0. 0. 0. 7. 1. 0. 0. 0. 0. 2. 4. 4.
      1. 0. 1. 2. 5. 0. 0. 0. 2. 3. 0. 0. 0. 0. 4. 3. 0. 0. 1. 6. 5. 0.
      0. 1. 4. 4. 0. 0. 0. 1. 3. 1. 0. 0. 4. 5. 2. 0. 0. 2. 4. 3. 0. 0.
      1. 3. 0. 0. 0. 0. 0. 5. 1. 0. 0. 6. 4. 1. 0. 0. 1. 4.</_>
    <_>
      3. 0. 0. 0. 0. 0. 1. 0. 0. 0. 0. 1. 0. 0. 0. 0. 1. 1. 0. 0. 0. 1.
      3. 0. 0. 0. 0. 1. 0. 0. 0. 0. 0. 0. 0. 0. 0. 6. 0. 0. 0. 0. 1. 0.
      0. 0. 0. 0. 0. 0. 0. 0. 0. 7. 0. 0. 0. 6. 5. 0. 0. 0. 0. 1. 4. 1.
      0. 0. 0. 1. 3. 1. 0. 0. 1. 2. 0. 0. 0. 1. 3. 1. 0. 0. 1. 4. 4. 0.
      0. 0. 2. 3. 0. 0. 0. 1. 1. 1. 0. 0. 1. 6. 2. 0. 0. 1. 4. 2. 0. 0.
      0. 2. 0. 0. 0. 0. 0. 6. 1. 0. 0. 6. 6. 1. 0. 0. 1. 4.</_>
    <_>
      5. 0. 0. 0. 0. 0. 0. 0. 0. 0. 0. 0. 0. 0. 0. 0. 3. 0. 0. 0. 0. 3.
      0. 0. 0. 0. 0. 0. 0. 0. 0. 0. 0. 0. 0. 0. 0. 6. 0. 0. 0. 0. 1. 0.
      0. 0. 0. 0. 0. 0. 0. 0. 0. 7. 0. 0. 0. 4. 8. 0. 0. 0. 0. 1. 5. 0.
      0. 0. 1. 0. 0. 0. 0. 0. 0. 0. 0. 0. 0. 0. 5. 1. 0. 0. 2. 5. 1. 1.
      0. 1. 1. 1. 0. 0. 0. 0. 1. 0. 0. 0. 1. 6. 1. 0. 0. 1. 4. 1. 0. 0.
      0. 1. 0. 0. 0. 0. 0. 6. 0. 0. 0. 4. 5. 1. 0. 0. 1. 3.</_>
    <_>
      5. 0. 0. 0. 0. 0. 4. 3. 0. 0. 0. 0. 0. 0. 0. 0. 0. 0. 1. 0. 0. 1.
      3. 2. 0. 0. 0. 1. 0. 0. 0. 0. 0. 0. 0. 0. 1. 8. 0. 0. 0. 0. 1. 0.
      0. 0. 0. 0. 0. 0. 0. 0. 0. 1. 0. 0. 0. 0. 0. 0. 0. 0. 0. 1. 3. 2.
      1. 0. 0. 1. 5. 4. 0. 0. 0. 0. 0. 0. 0. 0. 1. 1. 2. 0. 1. 3. 6. 5.
      0. 0. 1. 3. 0. 0. 0. 0. 1. 1. 0. 0. 5. 7. 2. 1. 0. 1. 3. 3. 0. 0.
      0. 1. 0. 0. 0. 0. 0. 4. 0. 0. 0. 1. 1. 1. 0. 0. 1. 4.</_>
    <_>
      5. 1. 0. 0. 0. 0. 1. 1. 0. 0. 0. 0. 0. 0. 0. 0. 1. 1. 0. 0. 0. 0.
      5. 3. 0. 0. 0. 4. 0. 0. 0. 0. 1. 0. 0. 0. 2. 7. 1. 0. 0. 0. 0. 1.
      0. 0. 0. 0. 0. 0. 0. 0. 0. 0. 0. 0. 0. 5. 4. 0. 0. 0. 0. 5. 4. 2.
      1. 0. 1. 1. 4. 2. 0. 0. 0. 1. 0. 0. 0. 0. 4. 3. 1. 0. 1. 3. 5. 4.
      0. 0. 1. 5. 0. 0. 0. 0. 1. 0. 0. 0. 4. 6. 3. 1. 0. 1. 2. 4. 0. 0.
      0. 2. 0. 0. 0. 0. 0. 1. 1. 0. 0. 6. 5. 1. 0. 0. 1. 5.</_>
    <_>
      4. 0. 0. 0. 0. 0. 0. 0. 0. 0. 0. 0. 0. 0. 0. 0. 1. 0. 0. 0. 4. 3.
      0. 0. 0. 0. 0. 0. 0. 0. 0. 0. 0. 0. 0. 0. 0. 2. 0. 0. 0. 1. 2. 1.
      0. 0. 0. 0. 0. 0. 0. 0. 0. 7. 0. 0. 0. 5. 5. 0. 0. 0. 7. 1. 4. 0.
      0. 0. 1. 1. 0. 0. 0. 0. 0. 0. 0. 0. 0. 0. 4. 1. 0. 0. 4. 5. 1. 1.
      0. 1. 1. 1. 0. 0. 0. 0. 1. 0. 0. 0. 1. 4. 1. 0. 0. 3. 4. 1. 0. 0.
      1. 1. 0. 0. 0. 0. 0. 6. 1. 0. 0. 5. 6. 1. 0. 0. 6. 3.</_>
    <_>
      5. 0. 0. 0. 0. 0. 0. 0. 0. 0. 0. 0. 0. 0. 0. 0. 4. 0. 0. 0. 0. 2.
      0. 0. 0. 0. 0. 1. 0. 0. 0. 0. 0. 0. 0. 0. 0. 8. 0. 0. 0. 0. 2. 0.
      0. 0. 0. 0. 0. 0. 0. 0. 0. 2. 0. 0. 0. 3. 7. 0. 0. 0. 0. 3. 5. 0.
      0. 0. 0. 1. 1. 0. 0. 0. 0. 0. 0. 0. 0. 0. 5. 1. 0. 0. 2. 5. 1. 0.
      0. 1. 1. 1. 0. 0. 0. 0. 1. 0. 0. 0. 2. 6. 1. 0. 0. 1. 4. 1. 0. 0.
      0. 1. 0. 0. 0. 0. 0. 5. 0. 0. 0. 5. 6. 1. 0. 0. 1. 3.</_>
    <_>
      4. 0. 0. 0. 0. 0. 0. 0. 0. 0. 1. 0. 0. 0. 0. 0. 1. 0. 0. 0. 0. 1.
      0. 0. 0. 0. 0. 0. 0. 0. 0. 2. 3. 0. 0. 0. 8. 8. 0. 0. 0. 0. 1. 0.
      0. 0. 0. 5. 0. 0. 0. 0. 0. 1. 0. 0. 0. 0. 0. 0. 0. 0. 0. 0. 4. 1.
      0. 0. 1. 2. 1. 0. 0. 1. 1. 0. 0. 0. 1. 0. 4. 1. 0. 0. 2. 3. 1. 0.
      0. 1. 3. 1. 0. 0. 1. 4. 4. 0. 0. 0. 5. 5. 1. 0. 0. 1. 3. 1. 0. 0.
      1. 5. 0. 0. 0. 0. 0. 2. 0. 0. 0. 1. 1. 0. 0. 0. 1. 2.</_>
    <_>
      4. 0. 0. 0. 0. 0. 0. 0. 0. 0. 0. 0. 0. 0. 0. 0. 3. 0. 0. 0. 0. 5.
      1. 0. 0. 0. 0. 0. 0. 0. 0. 0. 0. 0. 0. 0. 1. 7. 0. 0. 0. 0. 3. 0.
      0. 0. 0. 0. 0. 0. 0. 0. 0. 5. 0. 0. 0. 0. 0. 0. 0. 0. 0. 6. 5. 1.
      0. 0. 1. 1. 0. 0. 0. 0. 0. 0. 0. 0. 0. 0. 5. 1. 0. 0. 2. 5. 1. 1.
      0. 1. 1. 1. 0. 0. 0. 0. 1. 0. 0. 0. 4. 7. 1. 0. 0. 1. 5. 1. 0. 0.
      1. 1. 0. 0. 0. 0. 0. 7. 0. 0. 0. 2. 1. 1. 0. 0. 1. 5.</_>
    <_>
      4. 0. 0. 0. 0. 0. 0. 0. 0. 0. 0. 0. 0. 0. 0. 0. 4. 0. 0. 0. 0. 7.
      0. 0. 0. 0. 0. 0. 0. 0. 0. 0. 0. 0. 0. 0. 1. 5. 0. 0. 0. 0. 4. 0.
      0. 0. 0. 0. 0. 0. 0. 0. 0. 6. 0. 0. 0. 2. 1. 0. 0. 0. 1. 4. 5. 0.
      0. 0. 1. 1. 0. 0. 0. 0. 0. 0. 0. 0. 0. 0. 5. 1. 0. 0. 3. 6. 0. 0.
      0. 1. 1. 0. 0. 0. 0. 0. 1. 0. 0. 0. 3. 5. 1. 0. 0. 1. 5. 0. 0. 0.
      1. 1. 0. 0. 0. 0. 0. 7. 0. 0. 0. 6. 3. 1. 0. 0. 2. 4.</_>
    <_>
      3. 0. 0. 0. 0. 0. 0. 0. 0. 0. 0. 0. 0. 0. 0. 0. 3. 0. 0. 0. 0. 1.
      0. 0. 0. 0. 0. 0. 0. 0. 0. 0. 1. 0. 0. 0. 1. 3. 0. 0. 0. 1. 1. 0.
      0. 0. 0. 0. 0. 0. 0. 0. 0. 9. 0. 0. 0. 1. 2. 0. 0. 0. 3. 4. 4. 0.
      0. 0. 1. 0. 0. 0. 0. 0. 0. 0. 0. 0. 0. 0. 4. 1. 0. 0. 2. 3. 0. 0.
      0. 0. 0. 0. 0. 0. 0. 0. 3. 0. 0. 0. 3. 5. 0. 0. 0. 4. 5. 0. 0. 0.
      1. 0. 0. 0. 0. 0. 0. 4. 0. 0. 0. 2. 5. 0. 0. 0. 4. 5.</_>
    <_>
      5. 0. 0. 0. 0. 0. 0. 0. 0. 0. 0. 0. 0. 0. 0. 0. 2. 0. 0. 0. 0. 3.
      1. 0. 0. 0. 0. 0. 0. 0. 0. 0. 0. 0. 0. 0. 0. 6. 0. 0. 0. 1. 1. 0.
      0. 0. 0. 0. 0. 0. 0. 0. 0. 7. 0. 0. 0. 2. 8. 0. 0. 0. 0. 1. 5. 0.
      0. 0. 1. 1. 1. 0. 0. 0. 0. 0. 0. 0. 0. 0. 5. 1. 0. 0. 2. 5. 1. 1.
      0. 1. 0. 1. 0. 0. 0. 0. 1. 0. 0. 0. 1. 6. 1. 0. 0. 1. 4. 1. 0. 0.
      1. 1. 0. 0. 0. 0. 0. 6. 0. 0. 0. 4. 5. 0. 0. 0. 1. 2.</_>
    <_>
      5. 0. 0. 0. 0. 0. 0. 0. 0. 0. 0. 0. 0. 0. 0. 0. 6. 0. 0. 0. 0. 5.
      0. 0. 0. 0. 0. 0. 0. 0. 0. 0. 1. 0. 0. 0. 3. 4. 0. 0. 0. 1. 4. 0.
      0. 0. 0. 0. 0. 0. 0. 0. 0. 3. 0. 0. 0. 7. 0. 0. 0. 0. 0. 4. 6. 1.
      0. 0. 1. 1. 0. 0. 0. 0. 0. 0. 0. 0. 0. 0. 6. 1. 0. 0. 2. 5. 1. 0.
      0. 1. 1. 0. 0. 0. 0. 0. 3. 0. 0. 0. 4. 5. 1. 0. 0. 2. 5. 1. 0. 0.
      1. 1. 0. 0. 0. 0. 0. 5. 0. 0. 0. 6. 3. 1. 0. 0. 1. 4.</_>
    <_>
      2. 0. 0. 0. 0. 0. 0. 0. 0. 0. 0. 0. 0. 0. 0. 0. 1. 0. 0. 0. 4. 3.
      0. 0. 0. 0. 0. 0. 0. 0. 0. 0. 0. 0. 0. 0. 0. 1. 0. 0. 0. 1. 1. 1.
      0. 0. 0. 0. 0. 0. 0. 0. 0. 7. 0. 0. 0. 7. 6. 0. 0. 0. 0. 1. 4. 0.
      0. 0. 1. 1. 0. 0. 0. 0. 0. 0. 0. 0. 0. 0. 4. 1. 0. 0. 4. 5. 1. 1.
      0. 2. 1. 1. 0. 0. 0. 0. 1. 0. 0. 0. 2. 4. 1. 1. 0. 4. 4. 1. 0. 0.
      1. 1. 0. 0. 0. 0. 0. 6. 0. 0. 0. 7. 5. 1. 0. 0. 1. 3.</_>
    <_>
      4. 1. 1. 0. 0. 0. 0. 0. 0. 0. 0. 0. 0. 0. 0. 0. 1. 3. 1. 0. 0. 2.
      2. 1. 0. 0. 0. 0. 0. 0. 0. 0. 0. 0. 0. 0. 0. 7. 1. 0. 0. 0. 2. 1.
      0. 0. 0. 0. 0. 0. 0. 0. 0. 3. 0. 0. 0. 1. 7. 0. 0. 0. 1. 1. 4. 3.
      1. 0. 0. 1. 1. 1. 0. 0. 0. 0. 0. 0. 0. 0. 4. 5. 1. 0. 1. 4. 5. 1.
      0. 0. 1. 2. 0. 0. 0. 0. 1. 1. 0. 0. 1. 6. 4. 1. 0. 1. 4. 4. 0. 0.
      0. 1. 0. 0. 0. 0. 0. 5. 0. 0. 0. 1. 5. 1. 0. 0. 4. 3.</_>
    <_>
      5. 0. 0. 0. 0. 0. 0. 0. 0. 0. 0. 0. 0. 0. 0. 0. 1. 0. 0. 0. 1. 2.
      1. 0. 0. 0. 0. 0. 0. 0. 0. 2. 0. 0. 0. 0. 3. 8. 0. 0. 0. 0. 1. 0.
      0. 0. 0. 4. 0. 0. 0. 0. 0. 4. 0. 0. 0. 7. 0. 0. 0. 0. 0. 0. 4. 1.
      0. 0. 0. 2. 1. 0. 0. 0. 2. 0. 0. 0. 0. 0. 4. 1. 1. 0. 2. 4. 1. 1.
      0. 0. 3. 1. 0. 0. 0. 4. 1. 0. 0. 0. 5. 6. 1. 0. 0. 1. 3. 1. 0. 0.
      0. 5. 0. 0. 0. 0. 0. 5. 0. 0. 0. 6. 1. 1. 0. 0. 1. 3.</_>
    <_>
      7. 0. 0. 0. 0. 0. 0. 0. 0. 0. 0. 0. 0. 0. 0. 0. 1. 0. 0. 0. 0. 0.
      0. 0. 0. 0. 0. 0. 0. 0. 0. 0. 0. 0. 0. 0. 0. 7. 0. 0. 0. 1. 1. 0.
      0. 0. 0. 0. 0. 0. 0. 0. 0. 1. 0. 0. 0. 2. 6. 0. 0. 0. 3. 6. 4. 0.
      0. 0. 0. 0. 0. 0. 0. 0. 0. 0. 0. 0. 0. 0. 4. 0. 0. 0. 2. 1. 0. 0.
      0. 0. 0. 0. 0. 0. 0. 0. 0. 0. 0. 0. 2. 5. 0. 0. 0. 4. 5. 0. 0. 0.
      1. 0. 0. 0. 0. 0. 0. 3. 0. 0. 0. 4. 6. 0. 0. 0. 5. 6.</_>
    <_>
      4. 0. 0. 0. 0. 0. 1. 0. 0. 0. 0. 0. 0. 0. 0. 0. 1. 0. 0. 0. 1. 1.
      1. 0. 0. 0. 0. 0. 0. 0. 0. 3. 1. 0. 0. 0. 1. 9. 0. 0. 0. 0. 0. 0.
      0. 0. 0. 6. 0. 0. 0. 0. 0. 1. 0. 0. 0. 0. 0. 0. 0. 0. 0. 1. 5. 1.
      0. 0. 0. 2. 1. 0. 0. 0. 1. 0. 0. 0. 0. 0. 4. 1. 0. 0. 3. 4. 1. 0.
      0. 0. 3. 1. 0. 0. 0. 3. 2. 0. 0. 0. 4. 5. 1. 0. 0. 1. 3. 1. 0. 0.
      0. 5. 0. 0. 0. 0. 0. 1. 0. 0. 0. 1. 1. 1. 0. 0. 1. 3.</_>
    <_>
      6. 0. 0. 0. 0. 0. 0. 0. 0. 0. 0. 0. 0. 0. 0. 0. 5. 0. 0. 0. 0. 6.
      1. 1. 0. 0. 0. 1. 0. 0. 0. 0. 0. 0. 0. 0. 1. 7. 0. 0. 0. 0. 3. 0.
      0. 0. 0. 0. 0. 0. 0. 0. 0. 1. 0. 0. 0. 5. 0. 0. 0. 0. 0. 7. 5. 1.
      0. 0. 1. 1. 0. 0. 0. 0. 0. 0. 0. 0. 0. 0. 6. 1. 0. 0. 3. 5. 3. 1.
      0. 1. 1. 1. 0. 0. 0. 0. 1. 0. 0. 0. 4. 5. 1. 0. 0. 2. 5. 1. 0. 0.
      1. 1. 0. 0. 0. 0. 0. 3. 0. 0. 0. 3. 1. 1. 0. 0. 1. 5.</_>
    <_>
      2. 1. 1. 0. 0. 0. 0. 0. 0. 0. 0. 0. 0. 0. 0. 0. 1. 4. 2. 0. 0. 1.
      3. 1. 0. 0. 1. 4. 0. 0. 0. 0. 0. 0. 0. 0. 0. 1. 0. 0. 0. 0. 0. 1.
      0. 0. 0. 0. 0. 0. 0. 0. 0. 7. 0. 0. 0. 3. 0. 0. 0. 0. 0. 1. 3. 4.
      2. 0. 0. 1. 1. 1. 0. 0. 0. 0. 0. 0. 0. 0. 3. 5. 4. 0. 1. 3. 6. 3.
      0. 1. 2. 4. 0. 0. 0. 0. 1. 1. 0. 0. 2. 4. 2. 1. 0. 1. 3. 4. 0. 0.
      0. 1. 0. 0. 0. 0. 0. 7. 1. 0. 0. 7. 1. 1. 0. 0. 1. 2.</_>
    <_>
      5. 1. 0. 0. 0. 0. 1. 1. 0. 0. 0. 0. 0. 0. 0. 0. 1. 1. 0. 0. 0. 1.
      4. 3. 0. 0. 0. 5. 0. 0. 0. 0. 0. 0. 0. 0. 0. 8. 1. 0. 0. 0. 2. 1.
      0. 0. 0. 0. 0. 0. 0. 0. 0. 0. 0. 0. 0. 1. 7. 0. 0. 0. 0. 1. 4. 1.
      1. 0. 0. 0. 3. 2. 0. 0. 0. 1. 0. 0. 0. 0. 4. 2. 1. 0. 1. 3. 5. 5.
      0. 0. 1. 5. 0. 0. 0. 0. 1. 0. 0. 0. 2. 5. 4. 1. 0. 1. 3. 4. 0. 0.
      0. 2. 0. 0. 0. 0. 0. 1. 1. 0. 0. 3. 4. 1. 0. 0. 1. 4.</_>
    <_>
      3. 0. 0. 0. 0. 0. 1. 0. 0. 0. 1. 0. 0. 0. 0. 0. 1. 0. 0. 0. 2. 1.
      0. 0. 0. 1. 1. 1. 0. 0. 0. 1. 1. 0. 0. 0. 1. 2. 0. 0. 0. 5. 1. 0.
      0. 1. 3. 3. 0. 0. 0. 0. 0. 9. 0. 0. 0. 2. 0. 0. 0. 0. 1. 1. 4. 1.
      0. 0. 1. 1. 1. 0. 0. 0. 1. 1. 0. 0. 0. 0. 4. 1. 0. 0. 4. 3. 1. 0.
      1. 4. 1. 2. 0. 0. 0. 3. 3. 0. 0. 0. 3. 4. 1. 0. 0. 5. 3. 1. 0. 2.
      4. 4. 0. 0. 0. 0. 0. 6. 0. 0. 0. 4. 1. 0. 0. 0. 3. 3.</_>
    <_>
      7. 3. 0. 0. 0. 2. 4. 0. 0. 0. 0. 2. 0. 0. 0. 0. 4. 1. 0. 0. 0. 5.
      4. 0. 0. 0. 1. 1. 0. 0. 0. 1. 0. 0. 0. 0. 1. 6. 1. 0. 0. 1. 1. 0.
      0. 0. 0. 1. 0. 0. 0. 0. 0. 3. 0. 0. 0. 5. 1. 0. 0. 0. 0. 0. 5. 4.
      0. 0. 1. 4. 5. 0. 0. 0. 2. 3. 0. 0. 0. 0. 5. 3. 0. 0. 2. 6. 5. 0.
      0. 0. 3. 4. 0. 0. 0. 3. 1. 0. 0. 0. 2. 6. 3. 0. 0. 1. 2. 2. 0. 0.
      0. 3. 0. 0. 0. 0. 0. 5. 1. 0. 0. 4. 4. 0. 0. 0. 1. 1.</_>
    <_>
      6. 0. 0. 0. 0. 0. 0. 0. 0. 0. 0. 0. 0. 0. 0. 0. 5. 0. 0. 0. 0. 6.
      0. 0. 0. 0. 0. 0. 0. 0. 0. 0. 2. 0. 0. 0. 3. 5. 0. 0. 0. 0. 1. 0.
      0. 0. 0. 0. 0. 0. 0. 0. 0. 6. 0. 0. 0. 2. 0. 0. 0. 0. 1. 7. 5. 0.
      0. 0. 1. 1. 0. 0. 0. 0. 0. 0. 0. 0. 0. 0. 5. 1. 0. 0. 2. 5. 0. 0.
      0. 1. 1. 0. 0. 0. 0. 0. 4. 0. 0. 0. 4. 5. 1. 0. 0. 1. 4. 0. 0. 0.
      1. 1. 0. 0. 0. 0. 0. 7. 0. 0. 0. 6. 1. 1. 0. 0. 1. 5.</_>
    <_>
      4. 1. 0. 0. 0. 1. 0. 0. 0. 0. 0. 0. 0. 0. 0. 0. 2. 0. 0. 0. 5. 3.
      0. 0. 0. 3. 1. 3. 0. 0. 0. 3. 0. 0. 0. 0. 1. 6. 0. 0. 0. 5. 1. 0.
      0. 1. 5. 5. 0. 0. 0. 0. 0. 1. 0. 0. 0. 5. 0. 0. 0. 0. 0. 2. 4. 1.
      0. 0. 1. 2. 1. 0. 0. 0. 1. 1. 0. 0. 0. 0. 4. 1. 0. 0. 4. 5. 1. 0.
      1. 5. 4. 4. 0. 0. 0. 4. 1. 0. 0. 0. 3. 5. 0. 0. 0. 6. 3. 1. 0. 3.
      5. 5. 0. 0. 0. 0. 0. 3. 0. 0. 0. 3. 1. 0. 0. 0. 4. 4.</_>
    <_>
      3. 0. 0. 0. 0. 0. 0. 0. 0. 0. 0. 0. 0. 0. 0. 0. 4. 0. 0. 0. 0. 3.
      0. 0. 0. 0. 0. 0. 0. 0. 0. 0. 1. 0. 0. 0. 1. 7. 0. 0. 0. 2. 6. 0.
      0. 0. 0. 0. 0. 0. 0. 0. 0. 2. 0. 0. 0. 6. 1. 0. 0. 0. 4. 6. 3. 0.
      0. 0. 0. 0. 0. 0. 0. 0. 0. 0. 0. 0. 0. 0. 4. 0. 0. 0. 2. 4. 1. 0.
      0. 0. 1. 0. 0. 0. 0. 0. 1. 0. 0. 0. 3. 6. 1. 0. 0. 5. 6. 0. 0. 0.
      1. 0. 0. 0. 0. 0. 0. 4. 0. 0. 0. 3. 5. 0. 0. 0. 5. 5.</_>
    <_>
      4. 0. 0. 0. 0. 1. 1. 0. 0. 0. 0. 0. 0. 0. 0. 0. 5. 0. 0. 0. 1. 1.
      1. 0. 0. 1. 4. 1. 0. 0. 0. 1. 0. 0. 0. 0. 2. 8. 0. 0. 0. 4. 0. 0.
      0. 2. 4. 3. 0. 0. 0. 0. 0. 1. 0. 0. 0. 0. 0. 0. 0. 0. 0. 3. 4. 1.
      0. 0. 1. 2. 3. 0. 0. 0. 1. 1. 0. 0. 0. 0. 3. 0. 0. 0. 4. 3. 2. 0.
      1. 4. 4. 4. 0. 0. 0. 2. 1. 0. 0. 0. 5. 7. 0. 0. 0. 5. 3. 1. 0. 3.
      5. 4. 0. 0. 0. 0. 0. 5. 0. 0. 0. 1. 1. 0. 0. 0. 2. 3.</_>
    <_>
      5. 1. 0. 0. 0. 0. 3. 0. 0. 0. 1. 1. 0. 0. 0. 0. 1. 1. 0. 0. 0. 3.
      4. 0. 0. 0. 1. 1. 0. 0. 0. 0. 0. 0. 0. 0. 1. 7. 1. 0. 0. 0. 1. 0.
      0. 0. 0. 1. 0. 0. 0. 0. 0. 4. 0. 0. 0. 1. 7. 0. 0. 0. 0. 1. 4. 3.
      0. 0. 0. 2. 4. 0. 0. 0. 3. 3. 0. 0. 0. 0. 4. 2. 0. 0. 1. 5. 4. 0.
      0. 0. 3. 3. 0. 0. 0. 2. 1. 1. 0. 0. 2. 6. 2. 0. 0. 1. 3. 1. 0. 0.
      1. 4. 0. 0. 0. 0. 0. 5. 0. 0. 0. 2. 4. 1. 0. 0. 1. 3.</_>
    <_>
      5. 0. 0. 0. 0. 0. 0. 0. 0. 0. 0. 0. 0. 0. 0. 0. 4. 0. 0. 0. 4. 2.
      0. 0. 0. 0. 0. 0. 0. 0. 0. 0. 0. 0. 0. 0. 0. 3. 0. 0. 0. 1. 1. 0.
      0. 0. 0. 0. 0. 0. 0. 0. 0. 8. 0. 0. 0. 0. 2. 0. 0. 0. 7. 4. 5. 0.
      0. 0. 1. 1. 0. 0. 0. 0. 0. 0. 0. 0. 0. 0. 5. 0. 0. 0. 5. 5. 1. 0.
      0. 1. 1. 0. 0. 0. 0. 0. 1. 0. 0. 0. 1. 5. 1. 0. 0. 3. 5. 1. 0. 0.
      1. 1. 0. 0. 0. 0. 0. 3. 0. 0. 0. 2. 5. 1. 0. 0. 5. 4.</_>
    <_>
      1. 0. 0. 0. 0. 0. 0. 0. 0. 0. 0. 0. 0. 0. 0. 0. 3. 0. 0. 0. 0. 5.
      0. 0. 0. 0. 0. 0. 0. 0. 0. 0. 0. 0. 0. 0. 1. 8. 0. 0. 0. 2. 5. 0.
      0. 0. 0. 0. 0. 0. 0. 0. 0. 5. 0. 0. 0. 0. 1. 0. 0. 0. 3. 6. 3. 0.
      0. 0. 1. 1. 0. 0. 0. 0. 0. 0. 0. 0. 0. 0. 4. 1. 0. 0. 2. 5. 1. 0.
      0. 1. 1. 0. 0. 0. 0. 0. 1. 1. 0. 0. 3. 6. 1. 0. 0. 4. 6. 1. 0. 0.
      1. 1. 0. 0. 0. 0. 0. 5. 0. 0. 0. 1. 4. 1. 0. 0. 4. 6.</_>
    <_>
      3. 0. 0. 0. 0. 0. 0. 0. 0. 0. 0. 0. 0. 0. 0. 0. 3. 0. 0. 0. 0. 2.
      0. 0. 0. 0. 0. 0. 0. 0. 0. 0. 1. 0. 0. 0. 2. 8. 0. 0. 0. 1. 3. 0.
      0. 0. 0. 0. 0. 0. 0. 0. 0. 1. 0. 0. 0. 0. 1. 0. 0. 0. 2. 6. 4. 0.
      0. 0. 1. 1. 0. 0. 0. 0. 0. 0. 0. 0. 0. 0. 4. 1. 0. 0. 2. 5. 0. 0.
      0. 1. 1. 0. 0. 0. 0. 0. 3. 1. 0. 0. 5. 6. 1. 0. 0. 3. 5. 0. 0. 0.
      1. 1. 0. 0. 0. 0. 0. 4. 0. 0. 0. 1. 4. 1. 0. 0. 4. 5.</_>
    <_>
      3. 0. 0. 0. 0. 1. 0. 0. 0. 0. 0. 0. 0. 0. 0. 0. 1. 0. 0. 0. 1. 5.
      0. 0. 0. 0. 1. 0. 0. 0. 0. 2. 0. 0. 0. 0. 4. 7. 0. 0. 0. 0. 1. 0.
      0. 0. 0. 8. 0. 0. 0. 0. 0. 0. 0. 0. 0. 0. 0. 0. 0. 0. 0. 1. 4. 1.
      0. 0. 1. 4. 1. 0. 0. 1. 2. 0. 0. 0. 0. 1. 4. 1. 0. 0. 3. 5. 1. 0.
      0. 1. 4. 1. 0. 0. 1. 5. 1. 0. 0. 0. 6. 6. 0. 0. 0. 1. 3. 1. 0. 0.
      1. 6. 0. 0. 0. 0. 0. 0. 0. 0. 0. 0. 0. 0. 0. 0. 1. 3.</_>
    <_>
      0. 0. 0. 0. 0. 0. 0. 0. 0. 0. 0. 0. 0. 0. 0. 0. 0. 0. 0. 0. 3. 1.
      0. 0. 0. 2. 3. 3. 0. 0. 0. 2. 0. 0. 0. 0. 1. 8. 0. 0. 0. 5. 0. 0.
      0. 2. 1. 4. 0. 0. 0. 0. 0. 6. 0. 0. 0. 0. 0. 0. 0. 0. 0. 4. 0. 1.
      0. 0. 1. 1. 1. 0. 0. 0. 1. 0. 0. 0. 0. 0. 1. 0. 0. 0. 5. 4. 1. 0.
      1. 5. 4. 4. 0. 0. 0. 4. 1. 0. 0. 0. 4. 6. 0. 0. 0. 5. 3. 2. 0. 3.
      4. 5. 0. 0. 0. 0. 0. 6. 0. 0. 0. 3. 1. 0. 0. 0. 2. 4.</_>
    <_>
      7. 0. 0. 0. 0. 0. 0. 0. 0. 0. 1. 0. 0. 0. 0. 0. 0. 0. 0. 0. 0. 1.
      1. 0. 0. 0. 0. 0. 0. 0. 0. 2. 0. 0. 0. 0. 4. 6. 0. 0. 0. 0. 0. 0.
      0. 0. 0. 7. 0. 0. 0. 0. 0. 0. 0. 0. 0. 6. 3. 0. 0. 0. 0. 1. 5. 2.
      1. 0. 1. 3. 1. 0. 0. 1. 4. 1. 0. 0. 1. 1. 3. 1. 0. 0. 2. 3. 2. 1.
      0. 1. 4. 1. 0. 0. 1. 5. 1. 0. 0. 0. 5. 6. 1. 0. 0. 1. 2. 1. 0. 0.
      1. 6. 0. 0. 0. 0. 0. 1. 0. 0. 0. 5. 5. 0. 0. 0. 0. 4.</_>
    <_>
      3. 0. 0. 0. 0. 0. 0. 0. 0. 0. 0. 0. 0. 0. 0. 0. 1. 0. 0. 0. 0. 0.
      0. 0. 0. 0. 0. 0. 0. 0. 0. 1. 2. 0. 0. 0. 8. 8. 0. 0. 0. 0. 1. 0.
      0. 0. 0. 5. 0. 0. 0. 0. 0. 1. 0. 0. 0. 0. 0. 0. 0. 0. 0. 2. 4. 1.
      0. 0. 1. 2. 1. 0. 0. 1. 1. 0. 0. 0. 0. 0. 3. 1. 0. 0. 2. 3. 1. 0.
      0. 1. 2. 1. 0. 0. 1. 4. 4. 0. 0. 0. 5. 5. 1. 0. 0. 1. 3. 1. 0. 0.
      0. 5. 0. 0. 0. 0. 0. 3. 0. 0. 0. 1. 1. 1. 0. 0. 1. 4.</_>
    <_>
      4. 0. 0. 0. 0. 1. 0. 0. 0. 0. 1. 0. 0. 0. 0. 0. 1. 0. 0. 0. 0. 1.
      0. 0. 0. 0. 1. 0. 0. 0. 0. 1. 0. 0. 0. 0. 7. 5. 0. 0. 0. 0. 1. 0.
      0. 0. 0. 6. 0. 0. 0. 0. 0. 6. 0. 0. 0. 4. 0. 0. 0. 0. 0. 0. 5. 1.
      1. 0. 0. 2. 1. 0. 0. 1. 2. 0. 0. 0. 1. 0. 3. 1. 0. 0. 1. 3. 1. 0.
      0. 1. 3. 1. 0. 0. 1. 4. 1. 0. 0. 0. 6. 6. 1. 0. 0. 1. 3. 1. 0. 0.
      1. 5. 0. 0. 0. 0. 0. 6. 0. 0. 0. 6. 1. 1. 0. 0. 1. 2.</_>
    <_>
      6. 0. 0. 0. 0. 0. 0. 0. 0. 0. 0. 0. 0. 0. 0. 0. 2. 0. 0. 0. 0. 4.
      0. 0. 0. 0. 0. 0. 0. 0. 0. 0. 0. 0. 0. 0. 1. 8. 0. 0. 0. 0. 1. 0.
      0. 0. 0. 0. 0. 0. 0. 0. 0. 4. 0. 0. 0. 0. 0. 0. 0. 0. 0. 7. 6. 1.
      0. 0. 1. 1. 0. 0. 0. 0. 0. 0. 0. 0. 0. 0. 5. 1. 0. 0. 2. 5. 0. 0.
      0. 1. 1. 0. 0. 0. 0. 0. 1. 0. 0. 0. 5. 7. 1. 0. 0. 1. 4. 0. 0. 0.
      1. 1. 0. 0. 0. 0. 0. 5. 0. 0. 0. 1. 1. 1. 0. 0. 1. 5.</_>
    <_>
      3. 0. 0. 0. 0. 0. 0. 0. 0. 0. 0. 0. 0. 0. 0. 0. 4. 0. 0. 0. 0. 2.
      0. 0. 0. 0. 0. 0. 0. 0. 0. 0. 0. 0. 0. 0. 0. 7. 0. 0. 0. 0. 1. 0.
      0. 0. 0. 0. 0. 0. 0. 0. 0. 5. 0. 0. 0. 8. 5. 0. 0. 0. 0. 2. 5. 1.
      0. 0. 1. 0. 0. 0. 0. 0. 0. 0. 0. 0. 0. 0. 5. 1. 0. 0. 2. 4. 1. 1.
      0. 1. 1. 1. 0. 0. 0. 0. 1. 0. 0. 0. 2. 6. 1. 0. 0. 1. 3. 1. 0. 0.
      0. 1. 0. 0. 0. 0. 0. 6. 0. 0. 0. 4. 4. 1. 0. 0. 1. 3.</_>
    <_>
      5. 0. 0. 0. 0. 0. 4. 4. 0. 0. 0. 0. 0. 0. 0. 0. 1. 0. 0. 0. 0. 2.
      5. 3. 0. 0. 0. 1. 0. 0. 0. 0. 0. 0. 0. 0. 1. 8. 1. 0. 0. 0. 1. 0.
      0. 0. 0. 0. 0. 0. 0. 0. 0. 2. 0. 0. 0. 0. 0. 0. 0. 0. 0. 2. 4. 2.
      1. 0. 0. 1. 5. 4. 0. 0. 0. 0. 0. 0. 0. 0. 2. 1. 1. 0. 1. 3. 6. 5.
      0. 0. 1. 3. 0. 0. 0. 0. 1. 1. 0. 0. 5. 7. 3. 1. 0. 1. 3. 3. 0. 0.
      0. 1. 0. 0. 0. 0. 0. 4. 0. 0. 0. 0. 1. 1. 0. 0. 0. 4.</_>
    <_>
      5. 0. 0. 0. 0. 0. 0. 0. 0. 0. 0. 0. 0. 0. 0. 0. 2. 0. 0. 0. 0. 4.
      1. 0. 0. 0. 0. 0. 0. 0. 0. 0. 0. 0. 0. 0. 1. 3. 0. 0. 0. 0. 2. 0.
      0. 0. 0. 0. 0. 0. 0. 0. 0. 8. 0. 0. 0. 0. 0. 0. 0. 0. 0. 6. 5. 1.
      0. 0. 1. 1. 0. 0. 0. 0. 0. 0. 0. 0. 0. 0. 5. 1. 0. 0. 2. 5. 1. 1.
      0. 1. 1. 1. 0. 0. 0. 0. 2. 0. 0. 0. 3. 5. 1. 0. 0. 1. 4. 1. 0. 0.
      1. 1. 0. 0. 0. 0. 0. 6. 0. 0. 0. 1. 1. 1. 0. 0. 1. 4.</_>
    <_>
      5. 0. 0. 0. 0. 1. 1. 0. 0. 0. 0. 0. 0. 0. 0. 0. 3. 0. 0. 0. 1. 1.
      0. 0. 0. 0. 0. 0. 0. 0. 0. 4. 2. 0. 0. 0. 8. 1. 0. 0. 0. 0. 0. 0.
      0. 0. 0. 6. 0. 0. 0. 0. 0. 0. 0. 0. 0. 0. 0. 0. 0. 0. 0. 1. 4. 1.
      0. 0. 0. 2. 1. 0. 0. 0. 1. 0. 0. 0. 0. 0. 4. 1. 0. 0. 3. 4. 1. 0.
      0. 1. 3. 1. 0. 0. 0. 5. 5. 0. 0. 0. 7. 4. 1. 0. 0. 1. 3. 1. 0. 0.
      1. 5. 0. 0. 0. 0. 0. 0. 0. 0. 0. 0. 1. 0. 0. 0. 0. 1.</_>
    <_>
      3. 0. 0. 0. 0. 0. 0. 0. 0. 0. 0. 0. 0. 0. 0. 0. 1. 0. 0. 0. 4. 5.
      0. 0. 0. 0. 0. 1. 0. 0. 0. 0. 0. 0. 0. 0. 1. 2. 0. 0. 0. 1. 1. 0.
      0. 0. 0. 0. 0. 0. 0. 0. 0. 1. 0. 0. 0. 9. 0. 0. 0. 0. 0. 1. 4. 0.
      0. 0. 1. 1. 0. 0. 0. 0. 0. 0. 0. 0. 0. 0. 4. 0. 0. 0. 4. 6. 1. 1.
      0. 2. 1. 1. 0. 0. 0. 0. 1. 0. 0. 0. 3. 4. 1. 1. 0. 4. 5. 1. 0. 0.
      1. 1. 0. 0. 0. 0. 1. 3. 0. 0. 0. 6. 4. 1. 0. 0. 1. 3.</_>
    <_>
      4. 0. 0. 0. 0. 0. 1. 2. 0. 0. 0. 0. 0. 0. 0. 0. 3. 0. 0. 0. 0. 1.
      5. 3. 0. 0. 0. 3. 0. 0. 0. 0. 1. 0. 0. 0. 1. 3. 1. 0. 0. 0. 0. 1.
      0. 0. 0. 0. 0. 0. 0. 0. 0. 8. 0. 0. 0. 0. 0. 0. 0. 0. 0. 1. 4. 1.
      1. 0. 0. 1. 2. 4. 0. 0. 0. 1. 0. 0. 0. 0. 4. 2. 1. 0. 1. 3. 5. 5.
      0. 0. 1. 4. 0. 0. 0. 0. 3. 1. 0. 0. 3. 5. 3. 1. 0. 1. 2. 3. 0. 0.
      0. 1. 0. 0. 0. 0. 0. 6. 1. 0. 0. 1. 1. 1. 0. 0. 1. 3.</_>
    <_>
      3. 1. 0. 0. 0. 0. 0. 0. 0. 0. 0. 0. 0. 0. 0. 0. 1. 5. 1. 0. 0. 1.
      2. 0. 0. 0. 0. 3. 0. 0. 0. 0. 0. 0. 0. 0. 1. 2. 0. 0. 0. 0. 0. 0.
      0. 0. 0. 0. 0. 0. 0. 0. 0. 4. 0. 0. 0. 8. 0. 0. 0. 0. 0. 1. 3. 2.
      1. 0. 0. 1. 1. 0. 0. 0. 0. 0. 0. 0. 0. 0. 3. 5. 2. 0. 1. 3. 5. 2.
      0. 0. 1. 3. 0. 0. 0. 0. 2. 1. 0. 0. 2. 4. 2. 1. 0. 1. 2. 4. 0. 0.
      0. 1. 0. 0. 0. 0. 0. 6. 1. 0. 0. 7. 2. 1. 0. 0. 1. 2.</_>
    <_>
      3. 0. 0. 0. 0. 1. 0. 0. 0. 0. 0. 0. 0. 0. 0. 0. 6. 0. 0. 0. 0. 4.
      0. 0. 0. 0. 1. 0. 0. 0. 0. 5. 2. 0. 0. 0. 6. 0. 0. 0. 0. 0. 0. 0.
      0. 0. 0. 6. 0. 0. 0. 0. 0. 0. 0. 0. 0. 0. 0. 0. 0. 0. 0. 1. 4. 1.
      0. 0. 1. 4. 0. 0. 0. 1. 2. 1. 0. 0. 0. 1. 5. 1. 0. 0. 2. 5. 1. 0.
      0. 1. 4. 1. 0. 0. 1. 6. 6. 0. 0. 0. 7. 1. 0. 0. 0. 0. 2. 1. 0. 0.
      1. 6. 0. 0. 0. 0. 0. 0. 0. 0. 0. 0. 1. 0. 0. 0. 0. 2.</_>
    <_>
