<?xml version="1.0"?>
<opencv_storage>
<my_svm type_id="opencv-ml-svm">
  <svm_type>C_SVC</svm_type>
  <kernel><type>RBF</type>
    <gamma>2.</gamma></kernel>
  <C>2.</C>
  <term_criteria><epsilon>2.2204460492503131e-16</epsilon>
    <iterations>100</iterations></term_criteria>
  <var_all>64</var_all>
  <var_count>64</var_count>
  <class_count>8</class_count>
  <class_labels type_id="opencv-matrix">
    <rows>1</rows>
    <cols>8</cols>
    <dt>i</dt>
    <data>
      0 1 2 3 4 5 6 7</data></class_labels>
  <sv_total>1137</sv_total>
  <support_vectors>
    <_>
      -1.22504041e-01 -8.10494125e-01 -4.35143322e-01 2.34062076e+00
      -1.16209793e+00 -1.61926997e+00 -1.48897076e+00 9.48857784e-01
      8.41914833e-01 2.56747901e-01 6.20583594e-01 2.71410775e+00
      -3.68327141e-01 -9.26479280e-01 -7.27963328e-01 2.06386399e+00
      -8.98669362e-01 -1.47386706e+00 -1.28913975e+00 1.22839570e+00
      1.32501030e+00 8.27383995e-01 1.15773642e+00 2.85803485e+00
      2.46713564e-01 -2.85449773e-01 -7.79043213e-02 2.44540620e+00
      -3.59765202e-01 -1.02278388e+00 -7.86035955e-01 1.93993390e+00
      1.78092077e-01 6.47210190e-03 6.32786378e-02 -8.75694394e-01
      -1.94200967e-02 -8.65655839e-02 -1.55249164e-02 -8.61489058e-01
      6.10231869e-02 5.47378920e-02 -6.62297830e-02 -9.10543978e-01
      4.55522910e-02 -1.98309749e-01 -5.62076680e-02 -8.65110457e-01
      -7.93843865e-02 -2.03215495e-01 -1.00789942e-01 -8.57331455e-01
      4.63102981e-02 1.05856575e-01 -9.93695557e-02 -9.25791740e-01
      5.38861528e-02 -1.76044300e-01 -4.84634899e-02 -8.80234659e-01
      -3.92589681e-02 -2.49109775e-01 -1.06802888e-01 -8.54762852e-01</_>
    <_>
      -1.78458430e-02 -8.30049992e-01 -4.32115853e-01 2.30471706e+00
      -9.96806085e-01 -1.63768613e+00 -1.55496776e+00 9.38748956e-01
      9.77739334e-01 2.79096067e-01 6.54687166e-01 2.67241549e+00
      -1.90967187e-01 -1.00724828e+00 -7.84039795e-01 2.02491045e+00
      -7.02998042e-01 -1.51799476e+00 -1.41012406e+00 1.20498526e+00
      1.48517740e+00 8.94036770e-01 1.22427380e+00 2.81485415e+00
      4.29624170e-01 -3.53286386e-01 -9.54120085e-02 2.39848161e+00
      -1.56343073e-01 -1.07801557e+00 -8.93639863e-01 1.89645755e+00
      1.99620366e-01 -4.56374213e-02 1.63372811e-02 -8.37649345e-01
      -9.50448122e-03 -1.05794929e-01 -2.17648558e-02 -8.19260299e-01
      3.70793268e-02 -1.02114677e-01 -1.62223130e-01 -8.70696664e-01
      1.12868607e-01 -2.27467567e-01 -1.08430542e-01 -8.32567632e-01
      -4.69138101e-02 -2.14273542e-01 -1.11925580e-01 -8.19064319e-01
      -4.83861156e-02 -1.23114072e-01 -2.30160415e-01 -8.84565949e-01
      1.14576422e-01 -2.19711289e-01 -1.47446632e-01 -8.44105840e-01
      6.27237633e-02 -2.71682262e-01 -1.59485340e-01 -8.19923878e-01</_>
    <_>
      -1.74600303e-01 -7.31274307e-01 -3.79273117e-01 2.33596420e+00
      -1.21921265e+00 -1.57018018e+00 -1.44491422e+00 9.44830358e-01
      8.70103359e-01 3.81211847e-01 6.94353700e-01 2.70962763e+00
      -3.87600482e-01 -8.62401187e-01 -6.80728912e-01 2.05636883e+00
      -9.48090434e-01 -1.39094019e+00 -1.29171216e+00 1.22111964e+00
      1.40838289e+00 1.00209665e+00 1.26371884e+00 2.85302711e+00
      2.74208844e-01 -1.82898164e-01 -6.60437066e-03 2.43599844e+00
      -3.85234654e-01 -9.00179684e-01 -7.76367724e-01 1.92867386e+00
      1.07328691e-01 2.91464832e-02 6.31228760e-02 -8.80988538e-01
      -3.71891558e-02 -9.38536674e-02 -4.18502055e-02 -8.67631614e-01
      -7.97037929e-02 -4.63578627e-02 -1.12870432e-01 -9.15609181e-01
      -1.78622548e-02 -1.51398361e-01 -4.96003814e-02 -8.69841099e-01
      -1.05686948e-01 -1.77184537e-01 -1.16548933e-01 -8.60470474e-01
      -1.86318308e-01 -1.16671391e-01 -2.10482344e-01 -9.29893315e-01
      -6.35890961e-02 -1.49813056e-01 -7.11781457e-02 -8.83348405e-01
      -8.19916800e-02 -1.95351750e-01 -7.85519406e-02 -8.55234861e-01</_>
    <_>
      -3.78398001e-01 -9.53751564e-01 -2.68103361e-01 2.38584042e+00
      -1.17250133e+00 -1.59716892e+00 -1.36424351e+00 9.70774949e-01
      6.17816865e-01 1.01049133e-01 7.66653419e-01 2.77158451e+00
      -5.45017540e-01 -1.10310686e+00 -6.56284630e-01 2.09131908e+00
      -9.02003169e-01 -1.47638309e+00 -1.21443367e+00 1.24293339e+00
      1.15537453e+00 7.17755616e-01 1.30312622e+00 2.92215109e+00
      3.13936956e-02 -5.14884830e-01 -1.56210847e-02 2.48113179e+00
      -4.56901431e-01 -1.12152863e+00 -7.43345201e-01 1.95661318e+00
      2.66230255e-01 -2.13125348e-02 9.26666483e-02 -7.61761367e-01
      -1.16618155e-02 -1.17871411e-01 4.99134092e-03 -6.94867611e-01
      1.59152389e-01 -6.03642724e-02 -1.26180872e-01 -8.26870799e-01
      1.32432967e-01 -2.44897619e-01 -4.92398217e-02 -7.27536738e-01
      -6.17391542e-02 -2.27283612e-01 -8.54963511e-02 -6.93129659e-01
      9.50489640e-02 -6.68248162e-02 -2.03884691e-01 -8.54663253e-01
      1.76421776e-01 -2.29405925e-01 -8.09132010e-02 -7.67115772e-01
      5.34878261e-02 -3.01262230e-01 -9.10050571e-02 -7.06984818e-01</_>
    <_>
      -2.21329033e-01 -1.04069269e+00 -4.12115157e-01 2.36912894e+00
      -1.04668665e+00 -1.60246503e+00 -1.41251361e+00 9.82225001e-01
      7.79514730e-01 6.39120722e-03 6.03923798e-01 2.74318743e+00
      -3.98578584e-01 -1.13226092e+00 -7.92417645e-01 2.08076000e+00
      -7.33343244e-01 -1.52026725e+00 -1.30191445e+00 1.25072277e+00
      1.32124865e+00 6.52785361e-01 1.14701962e+00 2.88842702e+00
      1.99031889e-01 -5.23893714e-01 -1.72857046e-01 2.45935106e+00
      -2.63882875e-01 -1.16579425e+00 -8.80499303e-01 1.94867003e+00
      3.03516567e-01 -2.77117193e-02 9.48247313e-02 -7.65759408e-01
      2.37305835e-02 -8.66424963e-02 1.84302554e-02 -7.07081079e-01
      1.34237736e-01 -2.87997443e-02 -1.20417781e-01 -8.11514974e-01
      2.16944128e-01 -2.64299303e-01 -8.37425143e-02 -7.36881137e-01
      -6.56733662e-03 -2.07765505e-01 -8.01969767e-02 -7.03754425e-01
      3.22918408e-02 -3.93260121e-02 -1.89280182e-01 -8.30297649e-01
      2.49519542e-01 -2.63284743e-01 -1.39057681e-01 -7.64876008e-01
      1.56966731e-01 -3.20798039e-01 -1.40677750e-01 -7.22605824e-01</_>
    <_>
      -5.11327207e-01 -1.00775337e+00 -2.39543274e-01 2.42881536e+00
      -1.25926316e+00 -1.43264258e+00 -1.17232740e+00 1.03135467e+00
      4.40896302e-01 -1.04699969e-01 6.93654418e-01 2.80561304e+00
      -8.21482956e-01 -1.12016940e+00 -5.87224066e-01 2.14376974e+00
      -1.02043903e+00 -1.31125975e+00 -1.05396068e+00 1.30516660e+00
      9.53362644e-01 4.51350331e-01 1.16830575e+00 2.95064592e+00
      -3.24290544e-01 -6.70841575e-01 -6.68017417e-02 2.52469301e+00
      -6.96903825e-01 -1.09142971e+00 -6.98928893e-01 2.01210475e+00
      2.68555194e-01 1.08175211e-01 2.51903921e-01 -7.83068299e-01
      -8.79019778e-03 -1.01205364e-01 1.88221689e-02 -7.57411122e-01
      1.54601485e-01 1.16472200e-01 7.62119517e-02 -8.21254969e-01
      1.25049144e-01 -1.30251601e-01 4.28775325e-02 -7.73981810e-01
      -9.92165655e-02 -2.06216410e-01 -9.20111910e-02 -7.57099926e-01
      9.76271480e-02 1.07383795e-01 1.71791203e-02 -8.37232292e-01
      1.87860757e-01 -8.61175582e-02 3.97463748e-03 -7.90349483e-01
      1.40973600e-02 -2.27105185e-01 -7.77296126e-02 -7.60193467e-01</_>
    <_>
      -2.58132428e-01 -8.85093153e-01 -4.60925192e-01 2.39199615e+00
      -1.20990789e+00 -1.48732913e+00 -1.37023854e+00 9.89162743e-01
      7.65685678e-01 1.89160019e-01 5.62596262e-01 2.76772785e+00
      -4.70332891e-01 -9.11377668e-01 -7.11925983e-01 2.10734200e+00
      -9.78139937e-01 -1.35257101e+00 -1.19847918e+00 1.26534581e+00
      1.31157541e+00 8.41609478e-01 1.14320517e+00 2.91270638e+00
      1.78543925e-01 -2.67104894e-01 -6.57138303e-02 2.49009252e+00
      -4.62865919e-01 -9.33194876e-01 -7.22641766e-01 1.97781217e+00
      1.44041672e-01 6.57914504e-02 1.34693265e-01 -8.65613639e-01
      -2.95861233e-02 -1.01439424e-01 -4.17565480e-02 -8.50591183e-01
      -3.43170725e-02 4.91832606e-02 1.03949569e-02 -8.92075896e-01
      -3.29633765e-02 -1.69358522e-01 -1.61182508e-02 -8.51461232e-01
      -1.03700705e-01 -1.91569656e-01 -1.19758986e-01 -8.41330111e-01
      -1.19631939e-01 3.14503006e-04 -7.64547065e-02 -9.03458714e-01
      -7.76457861e-02 -1.59369737e-01 -6.86001312e-03 -8.61185074e-01
      -8.34794492e-02 -1.99994937e-01 -8.77975151e-02 -8.35487962e-01</_>
    <_>
      -3.35512578e-01 -1.02959359e+00 -4.27056670e-01 2.51140308e+00
      -1.01072598e+00 -1.34329212e+00 -1.30835330e+00 1.10704195e+00
      4.13445503e-01 -2.64561862e-01 3.79594952e-01 2.89190745e+00
      -6.26323521e-01 -1.01390362e+00 -9.30719972e-01 2.22625422e+00
      -7.76268005e-01 -1.21404636e+00 -1.13322079e+00 1.38378239e+00
      8.50023568e-01 2.24561736e-01 8.28123510e-01 3.03897476e+00
      -2.09820315e-01 -6.20798767e-01 -5.09964585e-01 2.61135340e+00
      -4.52808768e-01 -1.00946403e+00 -8.90205026e-01 2.09638786e+00
      3.36055070e-01 9.47248414e-02 1.65200979e-01 -7.22219825e-01
      3.13675627e-02 -1.43754426e-02 1.25685092e-02 -6.96756124e-01
      1.84187308e-01 9.19483900e-02 3.19640860e-02 -7.57941246e-01
      1.40469298e-01 -1.61100283e-01 -4.06377129e-02 -7.18650877e-01
      -6.80594593e-02 -1.72190920e-01 -1.31407052e-01 -7.03442156e-01
      1.26400948e-01 1.04534991e-01 -2.52804682e-02 -7.72467315e-01
      1.86034814e-01 -1.52471796e-01 -2.10107174e-02 -7.32631564e-01
      3.02747376e-02 -2.48323947e-01 -1.41334191e-01 -7.11644828e-01</_>
    <_>
      -1.68114230e-01 -7.19800055e-01 -3.32994908e-01 2.33571887e+00
      -1.25451529e+00 -1.58644962e+00 -1.44209957e+00 9.32425439e-01
      8.61036301e-01 3.74545902e-01 7.38538742e-01 2.71254754e+00
      -4.13355529e-01 -8.40047002e-01 -6.05736196e-01 2.05574155e+00
      -1.01893735e+00 -1.39422882e+00 -1.20998287e+00 1.21403205e+00
      1.37961984e+00 9.74590063e-01 1.28202736e+00 2.85808659e+00
      2.33296603e-01 -1.73581839e-01 6.48692623e-02 2.44048834e+00
      -4.54362720e-01 -8.91791940e-01 -6.54468298e-01 1.93094456e+00
      8.46344680e-02 1.25548569e-02 4.43289988e-02 -9.01737571e-01
      -4.18674201e-02 -1.18611529e-01 -4.30262685e-02 -8.84635031e-01
      -1.04542337e-01 -6.82949368e-03 -1.27930015e-01 -9.36712682e-01
      -2.58555319e-02 -1.51991874e-01 -7.22003654e-02 -8.85322750e-01
      -1.06004648e-01 -1.89877495e-01 -1.20920718e-01 -8.75093460e-01
      -1.91787690e-01 -3.27735282e-02 -1.97369933e-01 -9.53507483e-01
      -5.06459065e-02 -1.20117426e-01 -8.31853375e-02 -9.02001560e-01
      -7.41646364e-02 -1.81755766e-01 -1.17085487e-01 -8.72007608e-01</_>
    <_>
      -2.71326393e-01 -7.05224991e-01 -3.86384547e-01 2.35638380e+00
      -1.32487810e+00 -1.51778591e+00 -1.41619718e+00 9.36053038e-01
      8.00199747e-01 4.15061325e-01 6.93847358e-01 2.73593807e+00
      -4.92526472e-01 -7.85803318e-01 -6.25203967e-01 2.06655741e+00
      -1.09896970e+00 -1.33228743e+00 -1.20035207e+00 1.21414042e+00
      1.35598385e+00 1.04199946e+00 1.27133548e+00 2.88303804e+00
      1.85634956e-01 -1.05590045e-01 5.57921641e-02 2.45527482e+00
      -5.33597231e-01 -8.24904501e-01 -6.58562839e-01 1.93658710e+00
      6.00261725e-02 6.18005283e-02 7.69019648e-02 -8.85828614e-01
      -7.18625858e-02 -1.03390150e-01 -8.22569132e-02 -8.62091720e-01
      -1.30872667e-01 1.81266014e-02 -6.40635565e-02 -9.26466763e-01
      -9.24638733e-02 -1.14768721e-01 -6.82312474e-02 -8.57216835e-01
      -1.55909285e-01 -1.58944383e-01 -1.53973803e-01 -8.42013001e-01
      -2.08439797e-01 -3.98256108e-02 -1.41837180e-01 -9.46157098e-01
      -1.29129663e-01 -1.05557978e-01 -6.79161251e-02 -8.78040612e-01
      -1.51978835e-01 -1.40457779e-01 -1.25185579e-01 -8.36207211e-01</_>
    <_>
      -3.25749993e-01 -1.02586997e+00 -5.24806499e-01 2.51627779e+00
      -1.04657567e+00 -1.32364905e+00 -1.28627348e+00 1.10706210e+00
      4.61973846e-01 -2.47249261e-01 2.91580379e-01 2.89531231e+00
      -5.90912461e-01 -9.55113351e-01 -8.47992778e-01 2.23191953e+00
      -8.11490834e-01 -1.23339057e+00 -1.13376081e+00 1.38622928e+00
      9.34257805e-01 2.75478601e-01 7.80617654e-01 3.04136658e+00
      -1.10234663e-01 -5.25292277e-01 -3.69446307e-01 2.61687374e+00
      -4.48057115e-01 -1.00308979e+00 -8.38046849e-01 2.10231805e+00
      2.89803505e-01 1.20045878e-01 1.91421375e-01 -7.44788349e-01
      -5.49217034e-03 -3.60126607e-02 -2.51746085e-03 -7.31622279e-01
      1.49351001e-01 1.20779939e-01 8.67065787e-02 -7.80639172e-01
      6.85156584e-02 -1.67038590e-01 -6.72730953e-02 -7.44587123e-01
      -1.09937139e-01 -1.92947611e-01 -1.43539816e-01 -7.38653958e-01
      9.75211188e-02 1.35950834e-01 4.37953062e-02 -7.95204639e-01
      1.03816390e-01 -1.64086804e-01 -5.23534082e-02 -7.58725643e-01
      -8.32357164e-03 -2.55843282e-01 -1.61472857e-01 -7.40913808e-01</_>
    <_>
      -3.89713764e-01 -1.00832307e+00 -4.22997624e-01 2.51929140e+00
      -1.11920273e+00 -1.30661464e+00 -1.25409245e+00 1.10314310e+00
      4.59867358e-01 -2.41610751e-01 3.98143500e-01 2.89996600e+00
      -6.52368903e-01 -9.77950931e-01 -8.18264842e-01 2.23244619e+00
      -8.71785700e-01 -1.15977216e+00 -1.09898853e+00 1.38273275e+00
      9.29366767e-01 2.48834103e-01 8.56638193e-01 3.04630542e+00
      -1.91881835e-01 -5.67633331e-01 -3.59698653e-01 2.61801481e+00
      -5.20702422e-01 -9.24962103e-01 -7.86602378e-01 2.10007691e+00
      2.77655959e-01 1.34363368e-01 1.95665717e-01 -7.52406418e-01
      3.80215934e-03 -5.18767163e-02 7.39353345e-05 -7.38850892e-01
      1.37684569e-01 1.01507254e-01 3.50157097e-02 -7.88110077e-01
      6.51171133e-02 -1.39610261e-01 -5.88430278e-02 -7.49618292e-01
      -1.22120373e-01 -1.86009124e-01 -1.50207460e-01 -7.43391573e-01
      9.31301191e-02 1.15769848e-01 -1.67672597e-02 -8.02448571e-01
      1.12803496e-01 -1.16570622e-01 -4.07315195e-02 -7.62830615e-01
      -4.36021127e-02 -2.28643298e-01 -1.59425646e-01 -7.42185235e-01</_>
    <_>
      -3.53757411e-01 -9.01262939e-01 -3.96422029e-01 2.43454838e+00
      -1.29083025e+00 -1.39846981e+00 -1.29154241e+00 1.02797663e+00
      5.96502006e-01 7.84329176e-02 5.74995756e-01 2.81301546e+00
      -7.55035341e-01 -9.20004845e-01 -7.24789202e-01 2.15342665e+00
      -1.07720292e+00 -1.28309810e+00 -1.11126816e+00 1.30919814e+00
      1.10347819e+00 6.65903687e-01 1.08673358e+00 2.95872951e+00
      -2.12572083e-01 -3.77696484e-01 -1.73536181e-01 2.53871465e+00
      -6.97965086e-01 -9.46811378e-01 -7.30807900e-01 2.02684927e+00
      1.86189696e-01 1.43911555e-01 1.93000585e-01 -7.97619104e-01
      -4.65499051e-02 -8.44266713e-02 -3.93250436e-02 -7.80043721e-01
      3.62487100e-02 1.47907600e-01 4.20682617e-02 -8.35876763e-01
      1.95326805e-02 -1.19159311e-01 2.04400741e-03 -7.80882418e-01
      -1.40455365e-01 -2.02696964e-01 -1.45444453e-01 -7.69327223e-01
      -2.24630497e-02 1.27822399e-01 -2.24983264e-02 -8.53172839e-01
      4.60629389e-02 -7.59498626e-02 1.51577489e-02 -7.97548711e-01
      -9.59136114e-02 -2.05810606e-01 -1.05955131e-01 -7.64259815e-01</_>
    <_>
      -1.01429513e-02 -8.67017925e-01 -4.89804715e-01 2.30712080e+00
      -9.52165425e-01 -1.65965784e+00 -1.62297559e+00 9.26204562e-01
      9.58291709e-01 2.30635017e-01 6.06219411e-01 2.68094730e+00
      -1.10720508e-01 -9.72760677e-01 -8.28670084e-01 2.02184057e+00
      -6.52684927e-01 -1.52440083e+00 -1.47038460e+00 1.19333541e+00
      1.44881010e+00 8.49159777e-01 1.16799641e+00 2.82630086e+00
      4.98799980e-01 -3.02742779e-01 -1.25947893e-01 2.40119791e+00
      -9.31409523e-02 -1.04969406e+00 -9.24806714e-01 1.89203727e+00
      2.42502823e-01 -5.08300178e-02 -1.72029845e-02 -8.43262672e-01
      -6.96491590e-03 -9.42401662e-02 -1.85655188e-02 -8.00687015e-01
      1.06287740e-01 -6.28905892e-02 -1.80070773e-01 -8.76531422e-01
      1.11312702e-01 -2.47012749e-01 -1.53409287e-01 -8.18365037e-01
      -4.31696847e-02 -2.04552293e-01 -1.13152966e-01 -7.94076800e-01
      2.74484735e-02 -5.80919869e-02 -2.09929809e-01 -8.91181350e-01
      1.14449784e-01 -2.52749264e-01 -1.89666569e-01 -8.33696246e-01
      6.66133612e-02 -2.84156412e-01 -1.77056491e-01 -7.98280656e-01</_>
    <_>
      -2.72532523e-01 -9.50873196e-01 -4.17339206e-01 2.41180515e+00
      -1.15153801e+00 -1.56594670e+00 -1.30968654e+00 1.01429272e+00
      6.86203897e-01 7.54195303e-02 5.25699794e-01 2.79021096e+00
      -5.36958098e-01 -1.05231571e+00 -6.65484905e-01 2.12786627e+00
      -9.49777246e-01 -1.47626305e+00 -1.13975060e+00 1.29022980e+00
      1.20050550e+00 6.41429842e-01 1.00394452e+00 2.93648434e+00
      3.34854536e-02 -4.79681224e-01 -9.52013582e-02 2.51163268e+00
      -5.37733376e-01 -1.15312648e+00 -7.21667171e-01 1.99998999e+00
      2.45705590e-01 -8.49982444e-03 1.52301177e-01 -7.93679357e-01
      1.82963293e-02 -8.76880363e-02 1.93991885e-02 -7.54617453e-01
      9.25369188e-02 -8.21514893e-03 5.44454791e-02 -8.30911279e-01
      1.07171848e-01 -2.37761050e-01 -3.31535526e-02 -7.74107277e-01
      -2.55425908e-02 -2.25676894e-01 -8.55357125e-02 -7.54006326e-01
      1.28596229e-02 7.43809715e-03 4.52210717e-02 -8.48423541e-01
      1.00742035e-01 -2.22426713e-01 -5.63850179e-02 -7.95443356e-01
      6.47901744e-02 -2.84966886e-01 -1.02967843e-01 -7.64225006e-01</_>
    <_>
      -2.77276129e-01 -9.70785797e-01 -4.05676663e-01 2.41663480e+00
      -1.12969542e+00 -1.48544431e+00 -1.29745471e+00 1.03485537e+00
      7.01223314e-01 3.92947681e-02 5.74645281e-01 2.78720737e+00
      -5.45540988e-01 -1.07490015e+00 -7.43295014e-01 2.13628650e+00
      -8.73540878e-01 -1.36212754e+00 -1.18402648e+00 1.30706036e+00
      1.24564052e+00 6.66682661e-01 1.12971675e+00 2.92987847e+00
      4.37490083e-02 -5.23971915e-01 -1.48284987e-01 2.51299667e+00
      -4.52507704e-01 -1.06484902e+00 -7.98011959e-01 2.00807309e+00
      2.25590840e-01 5.03904559e-02 1.57374680e-01 -7.84901381e-01
      -9.39574279e-03 -7.95108303e-02 -9.64297634e-03 -7.72737920e-01
      7.39240870e-02 7.62125151e-03 -3.27780619e-02 -8.17157209e-01
      8.94726738e-02 -1.82797730e-01 -5.26248775e-02 -7.83022463e-01
      -7.79629871e-02 -1.94026858e-01 -1.24218062e-01 -7.75923431e-01
      -8.88262410e-03 -3.25323679e-02 -1.31336644e-01 -8.30586731e-01
      1.02098629e-01 -1.66029513e-01 -8.69619697e-02 -7.95577168e-01
      2.55948622e-02 -2.63064146e-01 -1.39774039e-01 -7.77176976e-01</_>
    <_>
      -1.34052485e-01 -8.31099093e-01 -4.67060894e-01 2.35336041e+00
      -1.05395079e+00 -1.58650613e+00 -1.53832507e+00 9.56916988e-01
      8.51171494e-01 2.45820150e-01 5.98791957e-01 2.72864485e+00
      -2.55498528e-01 -9.24507797e-01 -7.74715245e-01 2.06817198e+00
      -7.84609318e-01 -1.43313444e+00 -1.37720549e+00 1.23036182e+00
      1.35701931e+00 8.50597560e-01 1.14863789e+00 2.87375760e+00
      3.50212008e-01 -2.79585451e-01 -1.02647401e-01 2.44950700e+00
      -2.51088887e-01 -9.69163179e-01 -8.49051356e-01 1.93813515e+00
      2.22426340e-01 -1.33292032e-02 3.43954302e-02 -8.64499271e-01
      -1.99419409e-02 -9.37335268e-02 -2.40852721e-02 -8.41663897e-01
      7.28462040e-02 -4.50569801e-02 -1.10875800e-01 -8.96259487e-01
      7.89803490e-02 -2.04525709e-01 -1.21760137e-01 -8.49873960e-01
      -7.67095238e-02 -1.90864041e-01 -1.23545915e-01 -8.36342573e-01
      -1.37755852e-02 -5.02363518e-02 -1.43476695e-01 -9.09917593e-01
      7.68254846e-02 -1.89658716e-01 -1.49998650e-01 -8.61786067e-01
      1.26146320e-02 -2.39356488e-01 -1.82685867e-01 -8.33034039e-01</_>
    <_>
      -4.16172355e-01 -1.05313694e+00 -3.59043598e-01 2.44147205e+00
      -1.12731850e+00 -1.46530080e+00 -1.20034182e+00 1.05661666e+00
      5.46912789e-01 -1.00813106e-01 5.72302878e-01 2.81572270e+00
      -6.06930614e-01 -1.13784122e+00 -6.59814298e-01 2.16039133e+00
      -8.73490810e-01 -1.41381013e+00 -1.10498238e+00 1.33025134e+00
      1.09992731e+00 5.06829083e-01 1.07795370e+00 2.96051240e+00
      -4.59600128e-02 -6.23172224e-01 -1.34635344e-01 2.54020691e+00
      -4.80826885e-01 -1.16767192e+00 -7.62109697e-01 2.03374934e+00
      2.76982605e-01 3.72851901e-02 2.03121528e-01 -7.52111793e-01
      1.57478452e-02 -7.32400566e-02 1.41958725e-02 -7.20476210e-01
      1.37847185e-01 2.95440666e-02 3.57717788e-03 -7.85842538e-01
      1.27506763e-01 -2.07700074e-01 -5.04826903e-02 -7.42169797e-01
      -6.74766451e-02 -2.20488206e-01 -1.08945675e-01 -7.24643350e-01
      6.32826611e-02 3.56857330e-02 -7.74751827e-02 -8.01019311e-01
      1.59297332e-01 -1.86179727e-01 -9.35702026e-02 -7.58548439e-01
      4.39158343e-02 -3.08205396e-01 -1.45419911e-01 -7.33470261e-01</_>
    <_>
      -2.60365427e-01 -8.04179072e-01 -4.16952074e-01 2.36540461e+00
      -1.24372351e+00 -1.50189221e+00 -1.40407133e+00 9.54836369e-01
      7.91046619e-01 3.08894128e-01 6.62260175e-01 2.74329376e+00
      -4.73632932e-01 -8.52599144e-01 -6.49126768e-01 2.07919621e+00
      -1.01950657e+00 -1.32080019e+00 -1.21077955e+00 1.23228467e+00
      1.35560417e+00 9.47770357e-01 1.24516249e+00 2.88914490e+00
      1.86191097e-01 -1.87768057e-01 3.46242413e-02 2.46442747e+00
      -4.94959235e-01 -8.48569036e-01 -6.75646603e-01 1.94903493e+00
      1.20173827e-01 4.10661921e-02 1.00395441e-01 -8.98257554e-01
      -4.95009050e-02 -1.09078161e-01 -5.24125956e-02 -8.84336710e-01
      -7.25927949e-02 -2.01118784e-03 -6.93435222e-02 -9.28552747e-01
      -2.25323401e-02 -1.36356130e-01 -5.69302626e-02 -8.82939339e-01
      -1.09115876e-01 -1.72215894e-01 -1.18577875e-01 -8.72925460e-01
      -1.88176930e-01 -6.48662001e-02 -1.65231645e-01 -9.41673756e-01
      -5.80878146e-02 -1.10890508e-01 -7.45840594e-02 -8.94290924e-01
      -5.33787385e-02 -1.43732995e-01 -1.08149983e-01 -8.65497291e-01</_>
    <_>
      -2.79630512e-01 -9.83512282e-01 -4.91736591e-01 2.48906636e+00
      -1.09176815e+00 -1.41607785e+00 -1.31346953e+00 1.08561838e+00
      5.34462869e-01 -1.39921024e-01 3.49848807e-01 2.86671448e+00
      -6.21807277e-01 -9.58333790e-01 -8.37729275e-01 2.20605779e+00
      -8.68412554e-01 -1.28285968e+00 -1.13365686e+00 1.36398661e+00
      9.93864655e-01 3.98545951e-01 8.37690353e-01 3.01203990e+00
      -1.51260778e-01 -4.73234147e-01 -3.51878881e-01 2.58886576e+00
      -5.08728504e-01 -9.88227546e-01 -8.08579981e-01 2.07671285e+00
      2.55506516e-01 8.06306377e-02 1.87906608e-01 -7.53020704e-01
      1.25315031e-02 -5.18363602e-02 2.08828342e-03 -7.40846574e-01
      1.07887998e-01 1.16590478e-01 8.38620737e-02 -7.93925881e-01
      8.98381025e-02 -2.10129127e-01 -1.78849325e-02 -7.58837879e-01
      -9.44183841e-02 -2.01742813e-01 -1.21951640e-01 -7.54424334e-01
      5.66095635e-02 1.40404582e-01 3.82965282e-02 -8.10292900e-01
      1.32278711e-01 -1.81489334e-01 2.45273300e-02 -7.74793148e-01
      -7.72742927e-03 -2.92713195e-01 -1.06505901e-01 -7.59068012e-01</_>
    <_>
      -2.77617238e-02 -6.89109981e-01 -3.70727867e-01 2.27110410e+00
      -1.13668013e+00 -1.66865611e+00 -1.61750138e+00 8.67464364e-01
      1.02015007e+00 4.86761361e-01 7.69235253e-01 2.65177345e+00
      -2.11399063e-01 -8.71362567e-01 -7.19669402e-01 1.97472775e+00
      -8.56399119e-01 -1.49151516e+00 -1.42044759e+00 1.13176322e+00
      1.53562772e+00 1.10237217e+00 1.33771837e+00 2.79971838e+00
      4.49666589e-01 -1.56109393e-01 1.73798092e-02 2.35877132e+00
      -2.59042263e-01 -9.51783299e-01 -8.21188629e-01 1.83543479e+00
      1.08905621e-01 -3.53049710e-02 -4.91109602e-02 -8.73764336e-01
      -3.24889198e-02 -9.31051299e-02 -4.06136848e-02 -8.33645105e-01
      -8.41598660e-02 -1.21944100e-01 -2.57991552e-01 -9.18336093e-01
      3.27129066e-02 -1.45313278e-01 -1.24379367e-01 -8.38255167e-01
      -5.53429686e-02 -1.54088736e-01 -1.09849282e-01 -8.15084517e-01
      -1.84467047e-01 -1.59144923e-01 -3.27362716e-01 -9.38692689e-01
      -2.11768248e-03 -1.57541946e-01 -1.69259951e-01 -8.57779682e-01
      1.17254453e-02 -1.69900075e-01 -1.38018161e-01 -8.06596100e-01</_>
    <_>
      -2.07127213e-01 -8.66420984e-01 -3.62855494e-01 2.32531118e+00
      -1.18040955e+00 -1.67786634e+00 -1.42327881e+00 9.30831850e-01
      8.20774853e-01 2.60336459e-01 7.10487843e-01 2.70120859e+00
      -4.12551641e-01 -1.02571881e+00 -6.46736145e-01 2.03727698e+00
      -9.37714458e-01 -1.54332638e+00 -1.23902214e+00 1.20107138e+00
      1.35216630e+00 8.95953894e-01 1.27534258e+00 2.84770584e+00
      2.20242113e-01 -3.55496168e-01 2.74623726e-02 2.42001891e+00
      -4.17143792e-01 -1.08971417e+00 -7.15690374e-01 1.90728533e+00
      2.12217227e-01 -6.43892288e-02 9.27575603e-02 -8.48554373e-01
      3.40897739e-02 -1.25360757e-01 3.76365520e-02 -8.15571368e-01
      3.39810289e-02 -9.67286974e-02 -1.18874438e-01 -8.83735001e-01
      1.32461935e-01 -2.56452292e-01 -1.39868129e-02 -8.17899168e-01
      8.37794878e-03 -2.45118678e-01 -1.80806201e-02 -7.94436812e-01
      -4.58126478e-02 -1.10186137e-01 -1.94099888e-01 -9.01314259e-01
      1.26022294e-01 -2.44028494e-01 -5.33127151e-02 -8.34210217e-01
      9.97782797e-02 -3.18551600e-01 -2.01690253e-02 -7.88853467e-01</_>
    <_>
      -1.03959814e-01 -9.56752121e-01 -4.20151204e-01 2.32864332e+00
      -1.02042627e+00 -1.68747282e+00 -1.54501534e+00 9.37484622e-01
      8.58245492e-01 1.41691789e-01 6.63546920e-01 2.70711303e+00
      -3.00026864e-01 -1.07753456e+00 -7.80350327e-01 2.04123998e+00
      -7.44492531e-01 -1.54566824e+00 -1.37846756e+00 1.20806420e+00
      1.36066759e+00 7.65246868e-01 1.21530831e+00 2.85435772e+00
      2.76879847e-01 -4.26583290e-01 -1.07722364e-01 2.42457581e+00
      -2.55152196e-01 -1.11368704e+00 -8.63170922e-01 1.91169763e+00
      2.69054532e-01 -5.70391603e-02 2.35414635e-02 -7.97020912e-01
      1.26874782e-02 -9.08577070e-02 2.03415770e-02 -7.35991359e-01
      1.19970255e-01 -4.53166589e-02 -1.69709772e-01 -8.49824548e-01
      1.93924621e-01 -2.60251611e-01 -1.03496775e-01 -7.60296047e-01
      -1.33497156e-02 -1.92577913e-01 -6.93437457e-02 -7.28209734e-01
      3.06790303e-02 -3.90332825e-02 -2.26928011e-01 -8.72815073e-01
      2.19515353e-01 -2.50067949e-01 -1.50742486e-01 -7.93760478e-01
      1.28657714e-01 -2.96720237e-01 -1.41624078e-01 -7.41524160e-01</_>
    <_>
      5.50282784e-02 -9.22825396e-01 -4.64908987e-01 2.28951979e+00
      -8.65059376e-01 -1.69718277e+00 -1.58672082e+00 9.36541378e-01
      1.03255534e+00 1.73592299e-01 6.05532050e-01 2.65459514e+00
      -5.99246323e-02 -1.10146475e+00 -8.67866874e-01 2.00703073e+00
      -5.45998752e-01 -1.58584619e+00 -1.48361826e+00 1.19645131e+00
      1.52363729e+00 7.94831216e-01 1.15955210e+00 2.79608440e+00
      5.40970802e-01 -4.42496955e-01 -2.05046058e-01 2.37635279e+00
      -4.01459634e-03 -1.15036941e+00 -1.00376356e+00 1.87662423e+00
      2.51820534e-01 -7.00554326e-02 -5.29677724e-04 -7.96225548e-01
      3.50987632e-03 -9.27522779e-02 -9.31965932e-03 -7.42739499e-01
      8.07561725e-02 -7.41126165e-02 -1.88541383e-01 -8.28272164e-01
      1.56259879e-01 -2.67296314e-01 -1.58599928e-01 -7.69916415e-01
      -4.05977964e-02 -2.09882230e-01 -1.23199359e-01 -7.36137390e-01
      -5.13096573e-03 -5.72223812e-02 -2.35449567e-01 -8.41879487e-01
      1.73946723e-01 -2.53949553e-01 -1.96194768e-01 -7.85604715e-01
      9.51571241e-02 -3.43481779e-01 -2.18919918e-01 -7.47231066e-01</_>
    <_>
      -7.27021247e-02 -7.95734465e-01 -3.89255702e-01 2.30223036e+00
      -1.11354303e+00 -1.61730230e+00 -1.47760129e+00 9.28783059e-01
      9.72166777e-01 3.44655633e-01 7.00291097e-01 2.67113376e+00
      -2.57671893e-01 -9.28353548e-01 -6.82545781e-01 2.02492356e+00
      -8.36947918e-01 -1.48115635e+00 -1.32299209e+00 1.20077157e+00
      1.50001276e+00 9.76265967e-01 1.27606618e+00 2.81349206e+00
      4.08164889e-01 -2.39426032e-01 1.17703192e-02 2.40047383e+00
      -2.64124066e-01 -1.00369895e+00 -7.89233208e-01 1.89932036e+00
      1.27441674e-01 -2.74396990e-03 5.97125702e-02 -8.85610759e-01
      -2.03216821e-02 -1.13972187e-01 -2.38860752e-02 -8.75540912e-01
      -8.08294192e-02 -7.48304427e-02 -1.32214978e-01 -9.15050685e-01
      1.49877025e-02 -1.75099254e-01 -6.23126701e-02 -8.80825877e-01
      -8.35184082e-02 -1.78961441e-01 -8.65574256e-02 -8.74475420e-01
      -1.83164492e-01 -1.40054822e-01 -2.46623993e-01 -9.27231073e-01
      -1.66952871e-02 -1.79714367e-01 -1.29039481e-01 -8.91587555e-01
      -1.87498946e-02 -1.87446207e-01 -1.01632148e-01 -8.71684253e-01</_>
    <_>
      -1.28365725e-01 -7.01655507e-01 -3.34306389e-01 2.32095838e+00
      -1.27123010e+00 -1.59475791e+00 -1.40829253e+00 9.26189959e-01
      8.99146974e-01 3.84038806e-01 7.19250858e-01 2.69369197e+00
      -4.25928086e-01 -8.86506259e-01 -5.95448792e-01 2.03725052e+00
      -1.03864825e+00 -1.46110630e+00 -1.20629525e+00 1.19951439e+00
      1.41050887e+00 9.82177496e-01 1.26974475e+00 2.83726335e+00
      2.17756480e-01 -2.26197124e-01 7.30991885e-02 2.41733313e+00
      -4.93620366e-01 -1.01079869e+00 -6.70281172e-01 1.90717185e+00
      7.40466937e-02 1.51314242e-02 9.61255431e-02 -9.03754532e-01
      -1.63027868e-02 -1.31209910e-01 -1.41539834e-02 -8.89088035e-01
      -1.14636615e-01 -5.06373215e-03 -5.52503504e-02 -9.32437539e-01
      -2.14951858e-03 -1.65942058e-01 -1.62445661e-02 -8.86418462e-01
      -8.92451331e-02 -2.29114234e-01 -7.69673809e-02 -8.74882996e-01
      -1.94626361e-01 -3.48033495e-02 -1.41954482e-01 -9.46280956e-01
      -1.82148740e-02 -1.49851203e-01 -4.86232974e-02 -8.98902893e-01
      -4.98647802e-02 -2.17269063e-01 -5.43531738e-02 -8.69355857e-01</_>
    <_>
      -3.08597445e-01 -9.27933276e-01 -4.03409302e-01 2.41682434e+00
      -1.23660958e+00 -1.45212793e+00 -1.31568646e+00 1.01374114e+00
      6.83236837e-01 8.51413980e-02 5.97970545e-01 2.79395485e+00
      -5.95361888e-01 -9.10001218e-01 -6.59991264e-01 2.13489556e+00
      -1.03402305e+00 -1.32040823e+00 -1.13343620e+00 1.29303229e+00
      1.21889639e+00 6.84673607e-01 1.13803077e+00 2.93938923e+00
      9.79244150e-03 -3.22248161e-01 -4.57215980e-02 2.51854229e+00
      -5.88565886e-01 -9.41029310e-01 -6.88831627e-01 2.00746155e+00
      1.75435171e-01 1.02412939e-01 1.67166561e-01 -8.43263268e-01
      -3.41293253e-02 -9.07441080e-02 -3.39378715e-02 -8.29854906e-01
      1.64141096e-02 1.01809256e-01 2.86773723e-02 -8.71488154e-01
      -6.75965007e-03 -1.50357008e-01 -4.57916185e-02 -8.33167434e-01
      -1.26737848e-01 -2.04036713e-01 -1.31587297e-01 -8.24531913e-01
      -7.08690435e-02 8.24574456e-02 -3.38008069e-02 -8.82732153e-01
      -3.81392427e-02 -1.37617439e-01 -5.75041883e-02 -8.41886342e-01
      -9.31273922e-02 -2.18094215e-01 -1.08235888e-01 -8.17580044e-01</_>
    <_>
      -3.36347848e-01 -7.53226578e-01 -3.16505849e-01 2.36559772e+00
      -1.39688635e+00 -1.52267051e+00 -1.28646135e+00 9.49312508e-01
      7.10365832e-01 3.33881497e-01 7.33288348e-01 2.74395919e+00
      -6.17610514e-01 -8.31587613e-01 -4.94325370e-01 2.07959461e+00
      -1.18442023e+00 -1.36615038e+00 -1.05060959e+00 1.23017466e+00
      1.25142360e+00 9.46671665e-01 1.28864288e+00 2.89027953e+00
      3.96112017e-02 -1.85751021e-01 1.63536772e-01 2.46733761e+00
      -6.54309988e-01 -8.92004728e-01 -5.13339818e-01 1.95281553e+00
      6.33918121e-02 3.61637957e-02 1.34798929e-01 -8.93261790e-01
      -4.34533209e-02 -1.49844021e-01 -4.65978161e-02 -8.72746527e-01
      -8.88385475e-02 4.91437130e-02 -2.25073397e-02 -9.30751085e-01
      -6.25412017e-02 -1.80506259e-01 -1.67067032e-02 -8.72226596e-01
      -1.18559942e-01 -2.44604707e-01 -1.04383372e-01 -8.59553516e-01
      -1.34508058e-01 3.35150398e-02 -9.20419395e-02 -9.48322237e-01
      -7.36164674e-02 -1.30443856e-01 -2.16808170e-02 -8.91119182e-01
      -1.10571213e-01 -2.36568004e-01 -5.83932661e-02 -8.56951118e-01</_>
    <_>
      -2.56581455e-01 -6.84887409e-01 -3.14421326e-01 2.35526967e+00
      -1.31193542e+00 -1.51735473e+00 -1.42532074e+00 9.43565965e-01
      7.82599807e-01 3.85307878e-01 7.40015149e-01 2.73398590e+00
      -4.66726750e-01 -7.72620976e-01 -6.27097309e-01 2.07180595e+00
      -1.04819763e+00 -1.31906450e+00 -1.23349047e+00 1.22440767e+00
      1.32004118e+00 9.95326877e-01 1.29370952e+00 2.87989616e+00
      2.01745391e-01 -9.78580415e-02 5.14572263e-02 2.45774055e+00
      -4.66233104e-01 -8.06733310e-01 -6.86773419e-01 1.94355404e+00
      7.70857930e-02 6.20982610e-02 3.13785560e-02 -9.04953539e-01
      -8.36324915e-02 -9.89335552e-02 -7.76640475e-02 -8.87062490e-01
      -7.22695589e-02 3.81350517e-02 -1.10694714e-01 -9.36224937e-01
      -8.38794932e-02 -1.44130155e-01 -5.50352335e-02 -8.83699417e-01
      -1.63083643e-01 -1.75480261e-01 -1.51824340e-01 -8.71529043e-01
      -1.45854294e-01 -1.62597168e-02 -1.87090069e-01 -9.51489329e-01
      -1.16348915e-01 -1.47477761e-01 -5.45757264e-02 -8.98359895e-01
      -1.68234095e-01 -1.86052084e-01 -1.16589300e-01 -8.65401745e-01</_>
    <_>
      -1.86533913e-01 -8.69575679e-01 -4.20781016e-01 2.45454860e+00
      -1.18075824e+00 -1.46005476e+00 -1.31280863e+00 1.04729831e+00
      7.23476171e-01 5.77525236e-02 4.70545679e-01 2.83208013e+00
      -5.66093802e-01 -9.40148175e-01 -7.53624320e-01 2.17066741e+00
      -1.02972782e+00 -1.28508222e+00 -1.06584299e+00 1.32559323e+00
      1.19641232e+00 5.90463758e-01 9.47207332e-01 2.97734571e+00
      -4.88795489e-02 -4.11271513e-01 -2.29745120e-01 2.55485249e+00
      -6.45963848e-01 -9.39404428e-01 -6.61167920e-01 2.04111314e+00
      1.55642197e-01 7.93817118e-02 1.67197689e-01 -8.09208989e-01
      -7.78532308e-03 -8.33315775e-02 -1.18753472e-02 -7.96720922e-01
      -3.00643537e-02 7.71237984e-02 6.50028065e-02 -8.43944609e-01
      -2.86278687e-02 -1.52311668e-01 -7.05255009e-03 -8.06616306e-01
      -1.22438774e-01 -1.98028579e-01 -1.24043442e-01 -7.97520757e-01
      -1.26059294e-01 5.07378168e-02 1.58278886e-02 -8.58883798e-01
      -6.32999018e-02 -1.24246992e-01 1.59017723e-02 -8.20919514e-01
      -7.73496255e-02 -2.04169154e-01 -1.16430357e-01 -7.97778845e-01</_>
    <_>
      -5.74985035e-02 -8.20926249e-01 -4.11247790e-01 2.31868386e+00
      -1.05414331e+00 -1.60621965e+00 -1.53370535e+00 9.39408064e-01
      9.55295742e-01 2.86033273e-01 6.77333415e-01 2.68924522e+00
      -2.36368746e-01 -9.57182348e-01 -7.58499861e-01 2.03567576e+00
      -7.78910875e-01 -1.47488737e+00 -1.37232077e+00 1.20733058e+00
      1.47110975e+00 9.05865133e-01 1.23959041e+00 2.83202720e+00
      3.90267968e-01 -3.00725847e-01 -7.34963417e-02 2.41117954e+00
      -2.31916100e-01 -1.02315319e+00 -8.45964730e-01 1.90396297e+00
      1.74895063e-01 -1.77314505e-02 1.30632706e-02 -8.54577005e-01
      -2.16869470e-02 -1.08078696e-01 -3.51904891e-02 -8.37278843e-01
      3.37896426e-03 -6.87828213e-02 -1.60670638e-01 -8.89311135e-01
      7.85727128e-02 -1.96771145e-01 -1.11878984e-01 -8.49654078e-01
      -6.39385283e-02 -2.01351911e-01 -1.15226179e-01 -8.38289976e-01
      -9.56980661e-02 -1.00125514e-01 -2.18577027e-01 -9.03751194e-01
      7.77402297e-02 -1.86653540e-01 -1.47709072e-01 -8.61764848e-01
      3.87766995e-02 -2.22188741e-01 -1.67711467e-01 -8.37670326e-01</_>
    <_>
      -4.05099064e-01 -1.00649190e+00 -4.82249826e-01 2.52484751e+00
      -1.10606301e+00 -1.31761193e+00 -1.25024569e+00 1.10661995e+00
      4.00260478e-01 -2.20675915e-01 3.27256948e-01 2.90628409e+00
      -6.60316110e-01 -9.56673324e-01 -8.18177640e-01 2.23797584e+00
      -8.78548861e-01 -1.20070338e+00 -1.08068979e+00 1.38645577e+00
      8.65622044e-01 2.90296793e-01 7.92826712e-01 3.05296302e+00
      -2.03129947e-01 -5.38729310e-01 -3.66494000e-01 2.62460089e+00
      -5.39101005e-01 -9.68687654e-01 -7.88782954e-01 2.10586619e+00
      2.79924244e-01 1.16931222e-01 2.24001005e-01 -7.45678723e-01
      8.57498217e-03 -5.48006371e-02 -3.24917468e-03 -7.33154476e-01
      1.30398214e-01 1.03718214e-01 1.12777293e-01 -7.82066405e-01
      4.02502567e-02 -1.64093196e-01 -1.42520089e-02 -7.41702616e-01
      -1.11898296e-01 -2.04262495e-01 -1.29154786e-01 -7.34693587e-01
      8.67673382e-02 1.16821900e-01 8.03295970e-02 -7.97472119e-01
      7.13136271e-02 -1.43162236e-01 2.61796694e-02 -7.55141914e-01
      -4.15989645e-02 -2.46912435e-01 -9.48455706e-02 -7.33252823e-01</_>
    <_>
      -3.05077404e-01 -1.02213025e+00 -4.24480200e-01 2.47614169e+00
      -1.04274678e+00 -1.45649171e+00 -1.32653797e+00 1.07560432e+00
      5.11630833e-01 -1.55268118e-01 4.34458822e-01 2.85582399e+00
      -5.78359246e-01 -1.04450929e+00 -8.73497725e-01 2.19169402e+00
      -8.08932900e-01 -1.31146824e+00 -1.15277600e+00 1.35141408e+00
      9.70311940e-01 3.78471881e-01 9.02579069e-01 3.00276685e+00
      -1.13958679e-01 -5.68973958e-01 -4.01417851e-01 2.57646585e+00
      -4.52424318e-01 -1.03827667e+00 -8.56284082e-01 2.06295156e+00
      3.13412756e-01 3.80978659e-02 1.65496200e-01 -7.44482160e-01
      3.75594087e-02 -4.73583117e-02 1.26334783e-02 -7.15839565e-01
      1.61454648e-01 6.89764842e-02 1.63386874e-02 -7.81959057e-01
      1.45150408e-01 -2.14087412e-01 -3.94959375e-02 -7.38449514e-01
      -5.20021766e-02 -1.81999370e-01 -1.14856102e-01 -7.22648680e-01
      1.01262145e-01 1.06145293e-01 -3.03278919e-02 -7.97482550e-01
      1.80435613e-01 -1.82400063e-01 -1.54823279e-02 -7.54897654e-01
      5.32228872e-02 -2.81319052e-01 -1.09464303e-01 -7.32337415e-01</_>
    <_>
      -4.75693077e-01 -8.92442942e-01 -3.31082344e-01 2.44400358e+00
      -1.30646026e+00 -1.38128781e+00 -1.24516618e+00 1.03192019e+00
      4.94724333e-01 9.35692415e-02 6.37527168e-01 2.82430434e+00
      -8.34654510e-01 -9.30424929e-01 -6.65728748e-01 2.15788746e+00
      -1.10760784e+00 -1.24205387e+00 -1.08439779e+00 1.31040394e+00
      1.03287423e+00 6.85739994e-01 1.15666270e+00 2.97116590e+00
      -3.04564804e-01 -3.93175036e-01 -9.85466838e-02 2.54426885e+00
      -7.69153416e-01 -9.13487792e-01 -6.96403205e-01 2.02786279e+00
      1.90244094e-01 1.48817465e-01 2.13480532e-01 -7.86734939e-01
      -4.71201986e-02 -9.90798026e-02 -4.17104103e-02 -7.65479326e-01
      1.53572997e-02 1.12972505e-01 5.57447225e-02 -8.26605082e-01
      1.67108960e-02 -1.12290420e-01 1.18831582e-02 -7.67710507e-01
      -1.48329049e-01 -2.04019874e-01 -1.55506954e-01 -7.53030598e-01
      -6.67443350e-02 7.03212991e-02 -1.00037698e-02 -8.44843388e-01
      4.77443524e-02 -8.02088603e-02 1.29696820e-02 -7.85574257e-01
      -8.32600296e-02 -1.95745021e-01 -1.14576012e-01 -7.48256803e-01</_>
    <_>
      -2.57438689e-01 -1.00870407e+00 -6.21399879e-01 2.50730205e+00
      -1.09420669e+00 -1.37161505e+00 -1.26370132e+00 1.09063113e+00
      5.87289274e-01 -1.99896947e-01 1.95014119e-01 2.88778949e+00
      -5.65671325e-01 -9.59256411e-01 -7.79308617e-01 2.22144842e+00
      -8.87619138e-01 -1.21733260e+00 -1.07768464e+00 1.37090647e+00
      1.05645168e+00 3.23410869e-01 6.78434074e-01 3.03414297e+00
      -7.88830966e-02 -4.95856285e-01 -2.94234276e-01 2.60759354e+00
      -5.16730666e-01 -9.30854142e-01 -7.33013690e-01 2.09006524e+00
      2.09399715e-01 1.32750064e-01 2.41403118e-01 -7.84091055e-01
      -9.21825226e-03 -6.28561974e-02 -1.08968392e-02 -7.74425626e-01
      1.81861483e-02 1.66399986e-01 2.05056086e-01 -8.16705108e-01
      -2.30050869e-02 -1.48289710e-01 -2.15645563e-02 -7.83044219e-01
      -1.24489076e-01 -1.88471496e-01 -1.34297997e-01 -7.77150571e-01
      -5.22532091e-02 1.83274940e-01 1.90575629e-01 -8.29409003e-01
      -3.26673798e-02 -1.04915462e-01 2.37497129e-02 -7.94741631e-01
      -8.72748047e-02 -2.15554714e-01 -1.16760246e-01 -7.75784969e-01</_>
    <_>
      -1.41187320e-02 -8.54355991e-01 -4.02046144e-01 2.29475570e+00
      -1.00683582e+00 -1.66919076e+00 -1.54047453e+00 9.37484741e-01
      9.86205637e-01 2.67253816e-01 6.80717587e-01 2.66087937e+00
      -1.83824182e-01 -1.00081372e+00 -7.70019293e-01 2.01832366e+00
      -7.18459249e-01 -1.55075336e+00 -1.39776874e+00 1.20374882e+00
      1.49322319e+00 8.95466506e-01 1.25116563e+00 2.80223751e+00
      4.40979123e-01 -3.32055092e-01 -8.44727233e-02 2.38953829e+00
      -1.69544592e-01 -1.09529424e+00 -8.83875728e-01 1.89186287e+00
      1.89989612e-01 -5.12753986e-02 2.38767695e-02 -8.32313538e-01
      8.19065422e-03 -1.07733868e-01 -6.13524020e-03 -8.14408243e-01
      1.19980425e-02 -8.31991881e-02 -1.76085904e-01 -8.67412031e-01
      1.09475926e-01 -2.47979209e-01 -9.74108502e-02 -8.26642752e-01
      -2.35104673e-02 -2.10038424e-01 -8.31768513e-02 -8.15584242e-01
      -8.54148716e-02 -1.20631605e-01 -2.66031504e-01 -8.81018102e-01
      1.00776412e-01 -2.47500628e-01 -1.50597587e-01 -8.39359939e-01
      8.05697888e-02 -2.80943602e-01 -1.34694368e-01 -8.15718591e-01</_>
    <_>
      -2.06609398e-01 -7.43978143e-01 -3.59134316e-01 2.34715700e+00
      -1.23979270e+00 -1.53505635e+00 -1.52281368e+00 9.10541415e-01
      8.44660699e-01 3.59523505e-01 7.34441698e-01 2.73330975e+00
      -3.82457495e-01 -8.39744687e-01 -7.00049639e-01 2.04098749e+00
      -9.77218449e-01 -1.33870661e+00 -1.32846034e+00 1.17747343e+00
      1.36931026e+00 9.72230077e-01 1.29335451e+00 2.88253975e+00
      2.65810162e-01 -1.72828436e-01 -3.62547216e-05 2.43035412e+00
      -4.18945342e-01 -8.65714073e-01 -7.69828916e-01 1.89365792e+00
      1.30865157e-01 3.26822251e-02 1.43045625e-02 -8.98679912e-01
      -5.66824600e-02 -1.17865264e-01 -7.30908886e-02 -8.60560179e-01
      1.04988669e-03 -4.61164629e-03 -1.61901608e-01 -9.35667992e-01
      -1.46656460e-03 -1.31122544e-01 -9.69145373e-02 -8.66171896e-01
      -1.09364241e-01 -1.92516237e-01 -1.51067883e-01 -8.42675924e-01
      -4.85785417e-02 -1.61918327e-02 -2.20343888e-01 -9.51482058e-01
      -3.23036150e-03 -1.16091624e-01 -1.06975652e-01 -8.80024612e-01
      -4.57226783e-02 -1.62368864e-01 -1.46299854e-01 -8.35208952e-01</_>
    <_>
      -3.46910715e-01 -1.06844258e+00 -2.71061897e-01 2.37634778e+00
      -1.08221102e+00 -1.59840643e+00 -1.37045419e+00 9.89199221e-01
      5.85315168e-01 -5.43760173e-02 7.49017119e-01 2.75207114e+00
      -5.27828753e-01 -1.15378547e+00 -6.78940713e-01 2.09156322e+00
      -7.88834691e-01 -1.46864271e+00 -1.24320841e+00 1.25920475e+00
      1.08796918e+00 5.56659997e-01 1.27315831e+00 2.89755368e+00
      -9.98681691e-03 -5.91506720e-01 -5.92869297e-02 2.47174311e+00
      -3.87851566e-01 -1.12168407e+00 -7.90528417e-01 1.96116400e+00
      3.42196673e-01 -1.36889461e-02 1.16824538e-01 -7.95210123e-01
      1.58613771e-02 -9.94455442e-02 4.01492715e-02 -7.65171051e-01
      2.53099471e-01 -3.72582139e-03 -1.23399593e-01 -8.28938186e-01
      2.53480911e-01 -2.56929457e-01 -5.21572493e-02 -7.74210215e-01
      -3.12805064e-02 -2.12693974e-01 -6.65407330e-02 -7.53303707e-01
      1.83820426e-01 1.72609072e-02 -2.04121992e-01 -8.43669653e-01
      3.28177392e-01 -2.03065500e-01 -9.57146287e-02 -7.86229432e-01
      1.28726214e-01 -3.35685968e-01 -1.23156734e-01 -7.48276711e-01</_>
    <_>
      -3.55632365e-01 -1.05231845e+00 -2.63497412e-01 2.37237358e+00
      -1.11967731e+00 -1.59708846e+00 -1.33836484e+00 9.84627068e-01
      5.83639741e-01 -4.60818559e-02 7.50018060e-01 2.74873805e+00
      -5.86117983e-01 -1.15813482e+00 -6.47507787e-01 2.08722425e+00
      -8.52534235e-01 -1.51198757e+00 -1.18947244e+00 1.25519502e+00
      1.08303976e+00 5.40133238e-01 1.26821816e+00 2.89463425e+00
      -6.42287508e-02 -6.06937349e-01 -4.15333882e-02 2.46789551e+00
      -4.62930650e-01 -1.19819462e+00 -7.40019619e-01 1.95734429e+00
      3.23397607e-01 5.12749283e-03 1.36601776e-01 -7.93222010e-01
      2.20279973e-02 -9.63097885e-02 3.95673290e-02 -7.55427063e-01
      2.27326751e-01 4.24876586e-02 -9.69240740e-02 -8.28649163e-01
      2.47584373e-01 -2.42776737e-01 -2.44734287e-02 -7.69109488e-01
      -2.27322858e-02 -2.28226379e-01 -5.63695803e-02 -7.45424509e-01
      1.73154026e-01 7.70126358e-02 -1.84107497e-01 -8.45572889e-01
      3.19048733e-01 -1.95381805e-01 -7.42164925e-02 -7.84773648e-01
      1.32586300e-01 -3.07103992e-01 -1.10898882e-01 -7.45043576e-01</_>
    <_>
      -3.29926014e-01 -1.04919016e+00 -2.77459174e-01 2.37349725e+00
      -1.08850145e+00 -1.61340427e+00 -1.36559510e+00 9.86573398e-01
      6.07059062e-01 -4.77550328e-02 7.46725917e-01 2.74929380e+00
      -5.34134030e-01 -1.16516137e+00 -6.69562280e-01 2.08808351e+00
      -8.13691497e-01 -1.49220133e+00 -1.23508942e+00 1.25546920e+00
      1.10442138e+00 5.35722911e-01 1.26731241e+00 2.89491749e+00
      -1.53124873e-02 -6.09448731e-01 -5.50302863e-02 2.46832633e+00
      -4.15994346e-01 -1.15493345e+00 -7.81193793e-01 1.95680225e+00
      3.37098062e-01 -2.09168680e-02 1.23101301e-01 -7.92257607e-01
      2.32844371e-02 -9.91311669e-02 4.60510142e-02 -7.58532822e-01
      2.25033462e-01 -1.04340806e-03 -1.22629039e-01 -8.25274467e-01
      2.46640980e-01 -2.55033612e-01 -3.87401581e-02 -7.66659439e-01
      -1.15070343e-02 -2.10223645e-01 -6.05817102e-02 -7.43465424e-01
      1.59826428e-01 3.66769657e-02 -2.08270803e-01 -8.40158761e-01
      3.16550225e-01 -1.95410296e-01 -8.73404890e-02 -7.79159784e-01
      1.49443418e-01 -3.18257451e-01 -1.11165687e-01 -7.38567591e-01</_>
    <_>
      -3.21353853e-01 -9.88406777e-01 -3.34962308e-01 2.38140202e+00
      -1.12649167e+00 -1.62122726e+00 -1.40831232e+00 9.62699652e-01
      6.67308450e-01 7.14326352e-02 7.07566023e-01 2.76694918e+00
      -4.81136173e-01 -1.10730541e+00 -7.05392599e-01 2.08244514e+00
      -8.37659776e-01 -1.51204348e+00 -1.26920426e+00 1.23221362e+00
      1.20013511e+00 7.12840617e-01 1.25421977e+00 2.91807938e+00
      9.90268961e-02 -4.95756477e-01 -5.84483035e-02 2.47344518e+00
      -3.89766574e-01 -1.14760888e+00 -7.90457308e-01 1.94602847e+00
      2.81241089e-01 -2.32043359e-02 9.99856293e-02 -7.63113558e-01
      9.10274277e-04 -1.23274200e-01 1.16418749e-02 -6.81415081e-01
      1.63006037e-01 -4.63345051e-02 -1.20231465e-01 -8.22283864e-01
      1.62892163e-01 -2.65948355e-01 -6.26742914e-02 -7.09375143e-01
      -4.43952605e-02 -2.38664731e-01 -7.74113536e-02 -6.63806558e-01
      9.39838216e-02 -6.79370835e-02 -2.02202156e-01 -8.49766672e-01
      1.94681883e-01 -2.53854156e-01 -1.05108313e-01 -7.52592087e-01
      8.49326625e-02 -3.13968956e-01 -1.04228184e-01 -6.81743979e-01</_>
    <_>
      -3.67030412e-01 -8.61273050e-01 -4.67621624e-01 2.44908643e+00
      -1.15665615e+00 -1.38750350e+00 -1.36574829e+00 1.02868354e+00
      6.38115168e-01 1.16423607e-01 5.08027256e-01 2.82966781e+00
      -5.28704047e-01 -9.04208064e-01 -7.72851467e-01 2.15702629e+00
      -8.95102203e-01 -1.28360021e+00 -1.23197603e+00 1.30375397e+00
      1.18267691e+00 6.98203444e-01 1.04742682e+00 2.97617054e+00
      5.56750372e-02 -3.48040104e-01 -1.74381763e-01 2.54316998e+00
      -4.57107514e-01 -9.49749053e-01 -8.16562533e-01 2.02069855e+00
      2.10365593e-01 1.09021485e-01 1.40942350e-01 -8.19148183e-01
      -5.59164211e-02 -9.00630057e-02 -5.21326289e-02 -8.02913666e-01
      6.11366518e-02 4.69865166e-02 1.54938744e-02 -8.49362671e-01
      1.80869866e-02 -1.56045809e-01 -1.00750603e-01 -8.03938091e-01
      -1.50523275e-01 -2.07854837e-01 -1.83491841e-01 -7.92394638e-01
      -6.93113543e-03 2.98652072e-02 -8.14134907e-03 -8.62691641e-01
      5.46976291e-02 -1.54368415e-01 -8.96020755e-02 -8.13672245e-01
      -5.34695908e-02 -2.22342864e-01 -2.13374823e-01 -7.84155965e-01</_>
    <_>
      -2.75732756e-01 -1.05420196e+00 -4.65482146e-01 2.49625444e+00
      -9.90940809e-01 -1.40659654e+00 -1.32541943e+00 1.09877229e+00
      4.89333302e-01 -2.40060374e-01 3.59132499e-01 2.87553167e+00
      -5.74448466e-01 -1.05120957e+00 -9.19901729e-01 2.21310854e+00
      -7.57852852e-01 -1.26794088e+00 -1.14041555e+00 1.37448180e+00
      9.32438076e-01 2.81734586e-01 8.20178151e-01 3.02215838e+00
      -1.39527708e-01 -6.15789175e-01 -4.74527031e-01 2.59681153e+00
      -4.23167884e-01 -1.04509425e+00 -8.79418552e-01 2.08430648e+00
      3.44077229e-01 5.81842177e-02 1.67454943e-01 -7.15309441e-01
      3.86999436e-02 -2.44838614e-02 2.04818062e-02 -6.88869178e-01
      1.79537311e-01 8.49034116e-02 2.71175802e-02 -7.54491627e-01
      1.52060390e-01 -2.09837213e-01 -6.24024607e-02 -7.12096334e-01
      -6.07628375e-02 -1.69783905e-01 -1.31668344e-01 -6.99759781e-01
      1.09100461e-01 1.16374671e-01 -2.38411613e-02 -7.70286679e-01
      1.79455012e-01 -1.94904312e-01 -4.42643426e-02 -7.28714347e-01
      3.77598070e-02 -2.66227514e-01 -1.45760924e-01 -7.08256721e-01</_>
    <_>
      -1.58031315e-01 -8.17265391e-01 -4.91350591e-01 2.38033891e+00
      -1.14022434e+00 -1.48335004e+00 -1.48087418e+00 9.67084706e-01
      8.45311999e-01 2.31796563e-01 5.60455382e-01 2.75744438e+00
      -3.48650575e-01 -8.73060286e-01 -7.43355870e-01 2.08676124e+00
      -8.80209029e-01 -1.34519291e+00 -1.33058918e+00 1.23750687e+00
      1.35604823e+00 8.41564178e-01 1.12835252e+00 2.90197897e+00
      2.70450532e-01 -2.48904645e-01 -7.37308413e-02 2.46842360e+00
      -3.54491919e-01 -9.34909880e-01 -8.18968594e-01 1.94726336e+00
      1.55116037e-01 4.53097932e-02 8.77610371e-02 -8.75354707e-01
      -4.47041765e-02 -1.13926798e-01 -5.00074290e-02 -8.60328436e-01
      3.05621568e-02 -3.33284523e-04 -3.87345329e-02 -9.06841218e-01
      2.83860695e-02 -1.70853600e-01 -1.04384251e-01 -8.65220487e-01
      -1.09986834e-01 -2.08122492e-01 -1.43706203e-01 -8.54705155e-01
      -1.94039065e-02 -3.07176542e-02 -8.73793811e-02 -9.21547532e-01
      5.57831042e-02 -1.74877912e-01 -1.23168856e-01 -8.78487825e-01
      -1.22168101e-02 -2.31871635e-01 -1.81610480e-01 -8.52048099e-01</_>
    <_>
      -1.25628099e-01 -9.13115919e-01 -4.19169545e-01 2.33930016e+00
      -9.80780065e-01 -1.66371822e+00 -1.50675154e+00 9.62507129e-01
      8.30690622e-01 1.23306811e-01 6.08179569e-01 2.71206594e+00
      -2.37320811e-01 -1.10307515e+00 -8.17116737e-01 2.05578446e+00
      -6.93551004e-01 -1.53939247e+00 -1.38300812e+00 1.22927463e+00
      1.32732689e+00 7.08866835e-01 1.13580441e+00 2.85677600e+00
      3.49785954e-01 -4.90314692e-01 -1.87913477e-01 2.43390203e+00
      -1.82743892e-01 -1.15005326e+00 -9.25533175e-01 1.92670596e+00
      2.87919044e-01 -6.24579564e-02 5.21900430e-02 -8.12165141e-01
      2.47391015e-02 -9.91299376e-02 1.37006510e-02 -7.74313509e-01
      1.71554610e-01 -3.91861759e-02 -1.12866580e-01 -8.46561849e-01
      1.59081742e-01 -2.68084735e-01 -8.87212381e-02 -7.93900728e-01
      -2.06761695e-02 -2.25249246e-01 -8.10227841e-02 -7.71216214e-01
      1.09938473e-01 -6.73980825e-03 -1.39210433e-01 -8.61131191e-01
      1.60804093e-01 -2.34311193e-01 -1.00128911e-01 -8.07888567e-01
      8.36559460e-02 -3.11065376e-01 -1.13546178e-01 -7.75100827e-01</_>
    <_>
      -2.13993043e-01 -7.83809245e-01 -3.84339362e-01 2.33558774e+00
      -1.23459339e+00 -1.59707630e+00 -1.37820435e+00 9.42961693e-01
      8.29441309e-01 3.34917039e-01 6.88665390e-01 2.70939302e+00
      -4.20976102e-01 -9.47984815e-01 -6.21171474e-01 2.05386496e+00
      -1.01353502e+00 -1.46478951e+00 -1.20554054e+00 1.21856046e+00
      1.37535787e+00 9.74009752e-01 1.27070761e+00 2.85416460e+00
      2.35779762e-01 -2.84620196e-01 5.06288223e-02 2.43541002e+00
      -4.80358988e-01 -1.03718734e+00 -7.03019500e-01 1.92739844e+00
      1.32845566e-01 2.39810106e-04 1.20088026e-01 -8.60375881e-01
      -1.90904383e-02 -1.27825633e-01 -1.53428745e-02 -8.44241202e-01
      -5.57470061e-02 -4.66200970e-02 -5.56878671e-02 -9.00407135e-01
      -1.60705633e-02 -1.84499994e-01 5.23855211e-03 -8.48730445e-01
      -7.48618469e-02 -2.10989401e-01 -7.77200907e-02 -8.39080632e-01
      -1.52251169e-01 -1.00139059e-01 -1.62050366e-01 -9.19732571e-01
      -6.23321645e-02 -1.57966778e-01 -1.75105799e-02 -8.69279981e-01
      -3.28592807e-02 -2.15075999e-01 -1.72084775e-02 -8.40363920e-01</_>
    <_>
      -2.91003734e-01 -9.31623280e-01 -4.63105917e-01 2.42386007e+00
      -1.20878553e+00 -1.43125951e+00 -1.33494675e+00 1.02475023e+00
      7.07206488e-01 7.40540251e-02 5.27674377e-01 2.79950476e+00
      -5.64479887e-01 -9.24676120e-01 -7.49508917e-01 2.14364266e+00
      -9.85951960e-01 -1.27872539e+00 -1.19609594e+00 1.30383432e+00
      1.25790918e+00 6.86518610e-01 1.08466959e+00 2.94379711e+00
      5.50927892e-02 -3.42363179e-01 -1.51882902e-01 2.52556324e+00
      -5.29413521e-01 -9.09784555e-01 -7.94162452e-01 2.01621580e+00
      1.82188734e-01 1.14217699e-01 1.48264825e-01 -8.19549978e-01
      -3.61553691e-02 -8.28204378e-02 -3.66901942e-02 -8.08263004e-01
      1.20867789e-02 1.02811091e-01 -9.31038614e-03 -8.52497101e-01
      1.77818735e-03 -1.32852614e-01 -3.37526649e-02 -8.12221467e-01
      -1.29746571e-01 -1.80629194e-01 -1.28207877e-01 -8.04806828e-01
      -9.45317596e-02 7.08058923e-02 -1.03641458e-01 -8.66943657e-01
      -2.54656710e-02 -1.05054572e-01 -4.50823680e-02 -8.25658619e-01
      -8.47362429e-02 -2.00837508e-01 -9.70377326e-02 -8.02183568e-01</_>
    <_>
      -3.95765573e-01 -1.04592264e+00 -2.22528622e-01 2.38494945e+00
      -1.13487458e+00 -1.55245256e+00 -1.28336620e+00 1.00077212e+00
      5.46658039e-01 -6.19722903e-02 7.60595262e-01 2.76054788e+00
      -6.32665873e-01 -1.19340229e+00 -6.25087440e-01 2.10088086e+00
      -8.77697945e-01 -1.47554278e+00 -1.15807688e+00 1.27084231e+00
      1.05601752e+00 5.03604650e-01 1.25910294e+00 2.90584302e+00
      -1.32553533e-01 -6.91468835e-01 -4.69721854e-02 2.47997189e+00
      -5.30280888e-01 -1.22000396e+00 -7.49476969e-01 1.97059858e+00
      3.20358902e-01 3.54071818e-02 1.54088169e-01 -7.74409652e-01
      2.90815309e-02 -9.30091813e-02 4.29142565e-02 -7.40496993e-01
      2.09879652e-01 1.75574552e-02 -6.17323965e-02 -8.12246323e-01
      2.27007553e-01 -2.17428133e-01 4.08844231e-03 -7.58278430e-01
      -1.71026029e-02 -2.21680582e-01 -5.20132333e-02 -7.37256765e-01
      1.40564084e-01 2.32671555e-02 -1.43517464e-01 -8.29220355e-01
      2.80988395e-01 -1.79843649e-01 -5.05715385e-02 -7.73978889e-01
      1.35343671e-01 -3.03046227e-01 -8.55921656e-02 -7.39394248e-01</_>
    <_>
      -1.61068410e-01 -7.89683938e-01 -3.60045046e-01 2.33474660e+00
      -1.19784141e+00 -1.68157268e+00 -1.50619888e+00 9.29823756e-01
      7.82934964e-01 2.98810184e-01 7.04894304e-01 2.71162271e+00
      -3.70367944e-01 -8.97152305e-01 -6.71234071e-01 2.05228949e+00
      -9.28515136e-01 -1.48597741e+00 -1.27169919e+00 1.20912921e+00
      1.25602448e+00 8.83287966e-01 1.23745048e+00 2.85742378e+00
      2.28246123e-01 -2.19505668e-01 1.22215867e-03 2.43790436e+00
      -3.72237980e-01 -9.70104158e-01 -7.15575397e-01 1.92611861e+00
      1.82165518e-01 -2.11803410e-02 2.18725428e-02 -8.85365367e-01
      -3.16109397e-02 -1.06027797e-01 -2.57578399e-02 -8.64137471e-01
      1.20687857e-01 5.62676415e-02 -1.11970238e-01 -9.24988925e-01
      3.09377778e-02 -2.33575016e-01 -6.88524693e-02 -8.67747664e-01
      -9.20448303e-02 -2.24235907e-01 -1.00762121e-01 -8.57451677e-01
      1.15658745e-01 1.06442697e-01 -1.39872894e-01 -9.43456471e-01
      5.74576259e-02 -1.94051370e-01 -5.80228716e-02 -8.86909246e-01
      -7.14386702e-02 -2.74578035e-01 -1.05650090e-01 -8.54951560e-01</_>
    <_>
      -2.67935961e-01 -9.77188230e-01 -3.87739301e-01 2.40168309e+00
      -1.04634178e+00 -1.56424296e+00 -1.43999958e+00 1.00175071e+00
      6.38503373e-01 -1.52818067e-02 5.89045227e-01 2.77898669e+00
      -4.15931374e-01 -1.07547963e+00 -8.21232915e-01 2.11345959e+00
      -7.62455106e-01 -1.41100466e+00 -1.29877532e+00 1.27312219e+00
      1.10785007e+00 5.38419783e-01 1.10179687e+00 2.92520046e+00
      9.85887200e-02 -5.42043090e-01 -2.32663408e-01 2.49689054e+00
      -3.37310165e-01 -1.05937755e+00 -8.75318766e-01 1.98129582e+00
      3.27965200e-01 8.74669757e-03 7.87934959e-02 -8.07963431e-01
      2.29231603e-02 -6.68581352e-02 2.13328414e-02 -7.74000347e-01
      2.28471622e-01 1.42446207e-02 -1.33502439e-01 -8.40510964e-01
      2.17300549e-01 -2.23655209e-01 -9.51210484e-02 -7.89363086e-01
      -3.40662338e-02 -1.69542924e-01 -9.71295312e-02 -7.68589735e-01
      1.89972803e-01 5.84380366e-02 -1.79547057e-01 -8.54829073e-01
      2.95080721e-01 -1.65386423e-01 -1.06121674e-01 -8.04441094e-01
      1.34566590e-01 -2.77127236e-01 -1.52320623e-01 -7.74031818e-01</_>
    <_>
      -3.17054927e-01 -1.01166022e+00 -4.15493309e-01 2.45695448e+00
      -1.05471349e+00 -1.49253798e+00 -1.34763527e+00 1.05311286e+00
      5.26745677e-01 -1.10228695e-01 4.63595927e-01 2.83660603e+00
      -5.28218865e-01 -1.04335511e+00 -8.64174306e-01 2.16950417e+00
      -8.05635750e-01 -1.37651002e+00 -1.18593180e+00 1.32750940e+00
      9.95113194e-01 4.50710624e-01 9.44762826e-01 2.98382497e+00
      -4.16739024e-02 -5.27619481e-01 -3.61980319e-01 2.55482030e+00
      -4.22758311e-01 -1.07439423e+00 -8.57222974e-01 2.03915119e+00
      3.11505795e-01 2.58883424e-02 1.45789236e-01 -7.57412255e-01
      1.76386815e-02 -5.75390533e-02 8.45922437e-03 -7.22459435e-01
      1.98481262e-01 5.99952154e-02 -5.53408696e-04 -7.98149943e-01
      1.60572290e-01 -2.34656960e-01 -5.10834828e-02 -7.45700121e-01
      -4.91989926e-02 -1.92091793e-01 -1.07292332e-01 -7.26037383e-01
      1.56530395e-01 1.04385033e-01 -3.92927863e-02 -8.15816939e-01
      2.23800480e-01 -2.09430069e-01 -3.13229337e-02 -7.67058134e-01
      8.94902423e-02 -3.07164550e-01 -1.14723742e-01 -7.39164531e-01</_>
    <_>
      -2.29678620e-02 -9.24567640e-01 -5.20850241e-01 2.34504461e+00
      -9.25083578e-01 -1.64798737e+00 -1.51695657e+00 9.80898976e-01
      9.16510522e-01 1.34159163e-01 5.01723289e-01 2.71319199e+00
      -1.67394608e-01 -1.05895042e+00 -8.62237394e-01 2.06477261e+00
      -6.43921673e-01 -1.55916429e+00 -1.37695956e+00 1.24608588e+00
      1.40263200e+00 7.38089204e-01 1.04620373e+00 2.85550284e+00
      4.10416931e-01 -4.26573485e-01 -2.31446072e-01 2.43773508e+00
      -1.35081202e-01 -1.14572549e+00 -9.16385710e-01 1.93588126e+00
      2.29578063e-01 -5.44697307e-02 5.94808348e-02 -7.98526227e-01
      -2.89008347e-03 -8.95118192e-02 -1.69242490e-02 -7.71000445e-01
      9.96359885e-02 -3.46559398e-02 -7.47126564e-02 -8.28143716e-01
      1.21553265e-01 -2.85464138e-01 -9.97975022e-02 -7.84639895e-01
      -3.90372649e-02 -2.24529669e-01 -1.09275088e-01 -7.68235803e-01
      2.41912436e-02 -2.15474833e-02 -1.17844298e-01 -8.41388822e-01
      1.42745614e-01 -2.67116696e-01 -9.21717733e-02 -7.96953321e-01
      8.47041532e-02 -3.61151785e-01 -1.58385187e-01 -7.70110369e-01</_>
    <_>
      -2.47560188e-01 -7.56019294e-01 -2.37946704e-01 2.33514214e+00
      -1.33255982e+00 -1.58787763e+00 -1.36773336e+00 9.36189950e-01
      7.93821812e-01 3.42766941e-01 8.10852647e-01 2.71092558e+00
      -4.99347478e-01 -8.72264624e-01 -5.84905863e-01 2.05392790e+00
      -1.06676221e+00 -1.41599739e+00 -1.16564238e+00 1.21431839e+00
      1.32156682e+00 9.50585902e-01 1.34979773e+00 2.85603237e+00
      1.60166562e-01 -2.09448114e-01 7.07935691e-02 2.43752265e+00
      -4.97242659e-01 -9.28078055e-01 -6.43699884e-01 1.92785800e+00
      1.00737445e-01 8.07773694e-03 6.93608299e-02 -8.86655569e-01
      -2.45075636e-02 -1.32535130e-01 -2.26851981e-02 -8.69411528e-01
      -5.08371815e-02 -1.38856750e-02 -1.41846418e-01 -9.25306439e-01
      -2.81066597e-02 -1.75489306e-01 -2.52539001e-04 -8.73833001e-01
      -8.95113647e-02 -2.18983144e-01 -8.10572654e-02 -8.63781035e-01
      -1.20881349e-01 -4.30888347e-02 -2.39867538e-01 -9.41108167e-01
      -4.99521159e-02 -1.29418120e-01 -1.65027864e-02 -8.90150964e-01
      -9.20458585e-02 -2.19056219e-01 -3.68065014e-02 -8.59795928e-01</_>
    <_>
      -3.09123963e-01 -9.69559908e-01 -3.78421396e-01 2.39963579e+00
      -1.10168636e+00 -1.58295965e+00 -1.42646790e+00 9.90462720e-01
      6.12823069e-01 3.36489901e-02 6.14430964e-01 2.77901793e+00
      -4.47905719e-01 -1.02303231e+00 -7.86433756e-01 2.10951519e+00
      -8.63954008e-01 -1.42372131e+00 -1.25317740e+00 1.26367319e+00
      1.09340060e+00 6.02426529e-01 1.12499237e+00 2.92597461e+00
      8.77003819e-02 -4.52528805e-01 -1.95484042e-01 2.49510121e+00
      -4.26218003e-01 -1.03532577e+00 -8.11140656e-01 1.97632372e+00
      2.92592347e-01 -2.00049044e-03 7.44083449e-02 -8.30813587e-01
      8.46511684e-03 -7.33644664e-02 7.50211114e-03 -7.93537319e-01
      1.94096893e-01 3.37981768e-02 -1.41078085e-01 -8.62853587e-01
      1.65237889e-01 -2.19384775e-01 -5.96069135e-02 -8.07710409e-01
      -3.16455029e-02 -1.71182901e-01 -7.85968676e-02 -7.85493731e-01
      1.66805506e-01 1.09581620e-01 -1.64425448e-01 -8.77793610e-01
      2.40224019e-01 -1.53277710e-01 -3.42173874e-02 -8.23642790e-01
      1.26927286e-01 -2.50143528e-01 -9.00297388e-02 -7.90826797e-01</_>
    <_>
      -3.74345630e-01 -1.01693308e+00 -4.18765724e-01 2.42039108e+00
      -1.13673890e+00 -1.51584411e+00 -1.31290424e+00 1.01371944e+00
      6.10336900e-01 -5.21215471e-03 5.75959325e-01 2.80231237e+00
      -5.43709934e-01 -1.09180534e+00 -7.15583801e-01 2.13042116e+00
      -9.00600731e-01 -1.45212090e+00 -1.18372536e+00 1.28803170e+00
      1.16191018e+00 6.17867827e-01 1.12678671e+00 2.95097232e+00
      3.94367054e-02 -5.31228483e-01 -1.20282128e-01 2.51823139e+00
      -4.71059054e-01 -1.16003513e+00 -7.77466655e-01 2.00055528e+00
      2.67783523e-01 2.64642779e-02 1.64743140e-01 -7.42516637e-01
      1.11768972e-02 -8.85597542e-02 4.00372688e-03 -6.83946788e-01
      1.15421966e-01 -1.14437025e-02 -1.58365779e-02 -8.00484776e-01
      1.25173882e-01 -2.33344913e-01 -3.90171148e-02 -7.15322077e-01
      -5.10822609e-02 -2.32552290e-01 -9.47464406e-02 -6.89630091e-01
      4.62041534e-02 -3.23381238e-02 -8.16714913e-02 -8.23822439e-01
      1.48038030e-01 -2.42750630e-01 -6.22659065e-02 -7.50995934e-01
      7.23377243e-02 -3.04626226e-01 -1.06438190e-01 -7.06525981e-01</_>
    <_>
      -1.39450565e-01 -8.65201890e-01 -6.24692321e-01 2.42784333e+00
      -1.13931632e+00 -1.39912701e+00 -1.36486411e+00 1.03101909e+00
      8.49117875e-01 1.36850953e-01 3.57286304e-01 2.80276966e+00
      -4.78617877e-01 -8.84168267e-01 -8.00218999e-01 2.14670801e+00
      -8.97710204e-01 -1.28648448e+00 -1.21044052e+00 1.30834067e+00
      1.37453520e+00 7.43829727e-01 9.31316435e-01 2.94751143e+00
      1.37845904e-01 -2.96373457e-01 -1.98462144e-01 2.52907205e+00
      -4.24627185e-01 -9.20821965e-01 -8.14454734e-01 2.01990867e+00
      1.48104325e-01 1.03568710e-01 1.47702277e-01 -8.27875972e-01
      -4.78269942e-02 -6.37681857e-02 -4.89564873e-02 -8.19213629e-01
      -6.82902858e-02 5.83086088e-02 3.98899280e-02 -8.54397058e-01
      -1.46593060e-03 -1.25102654e-01 -9.11055878e-02 -8.21841419e-01
      -1.43893018e-01 -1.65678307e-01 -1.54276937e-01 -8.15247655e-01
      -1.85859188e-01 -2.05826014e-03 -4.01998907e-02 -8.65942240e-01
      -2.85512488e-02 -1.38477728e-01 -1.11631945e-01 -8.32575321e-01
      -9.02911201e-02 -1.78216934e-01 -1.60714716e-01 -8.13038528e-01</_>
    <_>
      -4.38750535e-01 -9.37808275e-01 -3.78770232e-01 2.43947458e+00
      -1.30872118e+00 -1.43070281e+00 -1.23671293e+00 1.02070320e+00
      5.25351942e-01 3.75155285e-02 5.94545424e-01 2.82242680e+00
      -7.25945830e-01 -9.43305254e-01 -6.17231131e-01 2.15676165e+00
      -1.06352437e+00 -1.29303336e+00 -1.10104430e+00 1.30585492e+00
      1.05752146e+00 6.40363276e-01 1.13985956e+00 2.97038555e+00
      -1.51125565e-01 -3.90615314e-01 -3.48905027e-02 2.54689431e+00
      -6.33808970e-01 -9.41556513e-01 -6.90647423e-01 2.03115916e+00
      1.94384798e-01 1.07052796e-01 2.20229968e-01 -7.99840093e-01
      -4.26132455e-02 -1.30979344e-01 -3.07790991e-02 -7.77370214e-01
      7.76698440e-02 1.12539776e-01 5.81223927e-02 -8.46877694e-01
      -5.89927752e-03 -1.55658275e-01 -8.96902662e-03 -7.83870459e-01
      -1.34929210e-01 -2.43443608e-01 -1.20542675e-01 -7.71861136e-01
      3.14588137e-02 9.37271863e-02 -3.47580239e-02 -8.68430495e-01
      2.57307049e-02 -1.05931319e-01 -2.02941783e-02 -8.06786656e-01
      -1.12849973e-01 -2.52826333e-01 -6.55205026e-02 -7.70508170e-01</_>
    <_>
      -3.12311202e-01 -9.89902675e-01 -3.22948426e-01 2.37109923e+00
      -1.09612548e+00 -1.63499367e+00 -1.44254208e+00 9.53842402e-01
      6.78132057e-01 8.91419724e-02 7.45338619e-01 2.75707150e+00
      -4.49584901e-01 -1.10890973e+00 -7.09885895e-01 2.07183051e+00
      -8.30226481e-01 -1.50582409e+00 -1.30053270e+00 1.22128880e+00
      1.20652306e+00 7.23128974e-01 1.29083371e+00 2.90800905e+00
      1.30184054e-01 -4.82620716e-01 -4.73057590e-02 2.46226430e+00
      -3.68159890e-01 -1.12036884e+00 -8.07323456e-01 1.93316567e+00
      3.10339302e-01 -2.18617059e-02 7.23785758e-02 -7.66052544e-01
      -9.18437727e-03 -1.14090696e-01 2.68838950e-03 -6.88418448e-01
      1.82065398e-01 -4.93992008e-02 -1.71233892e-01 -8.29421580e-01
      1.65184125e-01 -2.50061244e-01 -9.60480198e-02 -7.14609265e-01
      -4.26505394e-02 -2.19461188e-01 -9.87613872e-02 -6.67452574e-01
      1.10406011e-01 -5.20189032e-02 -2.45959744e-01 -8.57191205e-01
      2.13643268e-01 -2.40675867e-01 -1.50684237e-01 -7.59194851e-01
      1.02689311e-01 -2.91798681e-01 -1.52300432e-01 -6.83151722e-01</_>
    <_>
      -1.53698236e-01 -8.04222286e-01 -3.93948615e-01 2.34513235e+00
      -1.18478703e+00 -1.63834929e+00 -1.48044217e+00 9.40756440e-01
      8.12382102e-01 2.59548873e-01 6.47099614e-01 2.72090101e+00
      -3.76805067e-01 -9.36393142e-01 -7.07354367e-01 2.05977535e+00
      -9.21128452e-01 -1.47770905e+00 -1.28599215e+00 1.21578133e+00
      1.30560350e+00 8.33780885e-01 1.18126309e+00 2.86599851e+00
      2.36145809e-01 -2.94475228e-01 -5.32758236e-02 2.44360590e+00
      -3.87102336e-01 -1.03038239e+00 -7.73296595e-01 1.92922509e+00
      1.86947420e-01 -2.16526771e-03 5.26543185e-02 -8.74358296e-01
      -1.80090014e-02 -9.03562680e-02 -1.47124575e-02 -8.52742851e-01
      1.00957461e-01 5.95039502e-02 -8.04051384e-02 -9.09209013e-01
      5.48583530e-02 -2.10516050e-01 -7.71880671e-02 -8.49940836e-01
      -7.82925263e-02 -1.92672849e-01 -1.08137935e-01 -8.34535539e-01
      8.38211328e-02 1.19646311e-01 -1.12900935e-01 -9.25625563e-01
      7.59398490e-02 -1.92744911e-01 -9.76491123e-02 -8.66573930e-01
      -1.69389006e-02 -2.45587140e-01 -1.51219144e-01 -8.29484582e-01</_>
    <_>
      -1.72304958e-01 -9.34160054e-01 -6.03817582e-01 2.42739940e+00
      -1.15478599e+00 -1.49023557e+00 -1.37750101e+00 1.02132082e+00
      7.30473459e-01 6.46837652e-02 3.66546839e-01 2.80361247e+00
      -5.24983704e-01 -9.66463387e-01 -7.75285304e-01 2.14397693e+00
      -9.23444211e-01 -1.37285399e+00 -1.20633209e+00 1.29944265e+00
      1.18637574e+00 6.29494131e-01 8.90341282e-01 2.94838166e+00
      9.74188186e-03 -4.01127011e-01 -1.99623093e-01 2.52774549e+00
      -4.97855127e-01 -1.01088560e+00 -8.00487101e-01 2.01468182e+00
      2.19953492e-01 6.37580827e-02 1.58803970e-01 -8.15076053e-01
      -2.14516930e-02 -5.04835658e-02 -2.04661489e-02 -7.95653522e-01
      1.12033620e-01 8.95301849e-02 8.92746896e-02 -8.50088835e-01
      7.05875456e-02 -1.69016227e-01 -9.98406410e-02 -7.98234820e-01
      -1.08150154e-01 -1.74521193e-01 -1.37384504e-01 -7.87800193e-01
      1.06447361e-01 1.44025877e-01 8.90200138e-02 -8.66434574e-01
      1.24880120e-01 -1.25404954e-01 -9.16296244e-02 -8.15393388e-01
      -3.76451910e-02 -2.03885168e-01 -1.65824398e-01 -7.86002457e-01</_>
    <_>
      -4.35274571e-01 -9.44667399e-01 -3.28103155e-01 2.42356324e+00
      -1.29133666e+00 -1.45055938e+00 -1.24137497e+00 1.01551020e+00
      5.44588923e-01 6.27318025e-02 6.58107758e-01 2.80267811e+00
      -7.25061178e-01 -9.71062005e-01 -6.33072853e-01 2.14018965e+00
      -1.05643296e+00 -1.33461714e+00 -1.07980669e+00 1.29627883e+00
      1.08837354e+00 6.79490209e-01 1.20419836e+00 2.94963670e+00
      -1.58590734e-01 -4.12876606e-01 -3.94117460e-02 2.52714825e+00
      -6.51637316e-01 -9.91663754e-01 -6.57420993e-01 2.01487684e+00
      1.86965317e-01 1.15313105e-01 2.05945998e-01 -8.06458712e-01
      -4.04350162e-02 -1.15949787e-01 -3.44786420e-02 -7.85181940e-01
      2.94898674e-02 1.24103166e-01 3.08810566e-02 -8.44976485e-01
      1.68255356e-03 -1.54200986e-01 3.40694599e-02 -7.88523972e-01
      -1.21108718e-01 -2.29279101e-01 -1.21605054e-01 -7.76417196e-01
      -5.03039770e-02 8.63925219e-02 -6.58274740e-02 -8.62820089e-01
      1.92216709e-02 -1.11634150e-01 4.15068343e-02 -8.07364643e-01
      -8.48655552e-02 -2.42196172e-01 -6.24151677e-02 -7.73931086e-01</_>
    <_>
      -3.84393871e-01 -9.84524012e-01 -4.94515628e-01 2.51187563e+00
      -1.13216138e+00 -1.34940577e+00 -1.24014080e+00 1.09524786e+00
      4.46873873e-01 -1.80934921e-01 3.32196623e-01 2.89230800e+00
      -6.60091698e-01 -9.77323949e-01 -7.83417940e-01 2.22558212e+00
      -8.90051961e-01 -1.23561954e+00 -1.07641017e+00 1.37521541e+00
      9.24610972e-01 3.58285010e-01 8.29746604e-01 3.03889847e+00
      -1.76336184e-01 -5.26432514e-01 -2.94506520e-01 2.61222506e+00
      -5.26997924e-01 -9.93309855e-01 -7.55810976e-01 2.09479094e+00
      2.50994354e-01 1.23398960e-01 2.36240461e-01 -7.61131585e-01
      3.93459760e-03 -6.60454333e-02 -3.50495288e-03 -7.48287439e-01
      1.05268173e-01 1.07228220e-01 1.10220946e-01 -7.95667887e-01
      4.33578268e-02 -1.65172368e-01 -1.81281809e-02 -7.55520105e-01
      -1.09856799e-01 -2.15038195e-01 -1.33400366e-01 -7.47782111e-01
      6.09591492e-02 1.17968895e-01 6.23703450e-02 -8.10276449e-01
      7.69587904e-02 -1.31061777e-01 3.92768811e-03 -7.68187404e-01
      -4.67883423e-02 -2.51727253e-01 -1.05313450e-01 -7.45409250e-01</_>
    <_>
      -3.30341309e-01 -7.82329321e-01 -3.14798325e-01 2.37498951e+00
      -1.32769608e+00 -1.52658594e+00 -1.24897063e+00 9.86620307e-01
      7.11148083e-01 3.15807045e-01 7.04744577e-01 2.74773908e+00
      -5.95645130e-01 -8.90247762e-01 -5.26495576e-01 2.09924841e+00
      -1.10443342e+00 -1.40931880e+00 -1.07174659e+00 1.26656771e+00
      1.27222311e+00 9.53417063e-01 1.25766325e+00 2.89090037e+00
      6.86548948e-02 -2.27361992e-01 1.14958316e-01 2.47886634e+00
      -6.03387773e-01 -9.69515443e-01 -5.85505605e-01 1.97597730e+00
      9.63804945e-02 3.36999819e-02 1.52757794e-01 -8.53827298e-01
      -5.11226952e-02 -1.23712420e-01 -4.63284999e-02 -8.38470995e-01
      -5.51385209e-02 -3.04249261e-04 3.07882763e-03 -8.86655748e-01
      -6.70367628e-02 -2.08705157e-01 -2.49840878e-02 -8.44676137e-01
      -1.32714450e-01 -2.25454316e-01 -1.23971686e-01 -8.35047960e-01
      -1.37523443e-01 -5.31674102e-02 -8.87593701e-02 -9.01330411e-01
      -1.06469512e-01 -2.07481340e-01 -3.30420434e-02 -8.59953105e-01
      -1.22661211e-01 -2.55228430e-01 -7.23717660e-02 -8.34924042e-01</_>
    <_>
      -3.78767431e-01 -9.68390465e-01 -3.54295045e-01 2.44091058e+00
      -1.23039949e+00 -1.41351461e+00 -1.29836905e+00 1.03514588e+00
      5.76830924e-01 -1.18581881e-03 6.22736394e-01 2.81902051e+00
      -6.85480833e-01 -9.69462752e-01 -7.14356661e-01 2.15761590e+00
      -9.84152853e-01 -1.27911556e+00 -1.12596166e+00 1.31445813e+00
      1.10295939e+00 6.01542294e-01 1.16427815e+00 2.96547961e+00
      -1.21281154e-01 -4.35685575e-01 -1.26293510e-01 2.54336834e+00
      -5.81238091e-01 -9.46346879e-01 -7.19821334e-01 2.03115273e+00
      2.16412902e-01 1.07089654e-01 1.52621269e-01 -7.99231529e-01
      -2.69109868e-02 -8.22834596e-02 -7.71311112e-03 -7.81662345e-01
      6.40994608e-02 8.75023007e-02 -5.16723990e-02 -8.33631933e-01
      5.33628725e-02 -1.46614924e-01 -1.26771778e-02 -7.84094095e-01
      -1.14582479e-01 -2.06397817e-01 -1.10808447e-01 -7.73324907e-01
      -7.27790035e-03 6.33351877e-02 -1.59962043e-01 -8.49584520e-01
      6.53947517e-02 -1.24915458e-01 -2.37720944e-02 -7.99780011e-01
      -5.35358377e-02 -2.46350765e-01 -8.45198631e-02 -7.69894540e-01</_>
    <_>
      -1.38266742e-01 -7.50137329e-01 -3.98970962e-01 2.32817507e+00
      -1.14956820e+00 -1.58152425e+00 -1.46298289e+00 9.40546393e-01
      8.95716667e-01 3.59446108e-01 6.76615596e-01 2.70028234e+00
      -3.04251790e-01 -8.83715093e-01 -6.88359559e-01 2.04733133e+00
      -8.82723153e-01 -1.43115616e+00 -1.31726313e+00 1.21473455e+00
      1.42941988e+00 9.80411351e-01 1.24784791e+00 2.84400988e+00
      3.58501226e-01 -1.98590294e-01 -1.21762892e-02 2.42627096e+00
      -3.05734187e-01 -9.47882056e-01 -8.10004652e-01 1.91976440e+00
      1.38478443e-01 1.05273789e-02 5.18862456e-02 -8.94339740e-01
      -3.44850756e-02 -1.02569386e-01 -3.29722129e-02 -8.82853270e-01
      -4.50674482e-02 -5.02031036e-02 -1.35200694e-01 -9.18898642e-01
      3.48776439e-03 -1.51358545e-01 -8.38413984e-02 -8.81898463e-01
      -9.43383947e-02 -1.90650418e-01 -1.10606827e-01 -8.73601854e-01
      -1.49979442e-01 -1.00752950e-01 -2.41410553e-01 -9.30289090e-01
      -4.11075167e-02 -1.48132250e-01 -1.35896221e-01 -8.90096009e-01
      -5.46246134e-02 -1.71751767e-01 -9.57090706e-02 -8.67511988e-01</_>
    <_>
      -8.31996873e-02 -8.82059216e-01 -3.94808322e-01 2.31004405e+00
      -1.06912446e+00 -1.74802458e+00 -1.47081256e+00 9.37494278e-01
      9.14532304e-01 2.71336734e-01 6.64684594e-01 2.68124628e+00
      -2.62614548e-01 -1.06268036e+00 -7.21297681e-01 2.02609515e+00
      -7.98869789e-01 -1.63268268e+00 -1.31026173e+00 1.20436108e+00
      1.42079699e+00 9.18601811e-01 1.22907424e+00 2.82597876e+00
      3.57320219e-01 -3.62279803e-01 -4.80921306e-02 2.40336418e+00
      -2.67237127e-01 -1.16277444e+00 -8.01402092e-01 1.89855123e+00
      2.02706620e-01 -1.03453644e-01 5.54581396e-02 -8.00659895e-01
      1.33581161e-02 -1.28145278e-01 6.63567986e-03 -7.49269247e-01
      4.89324257e-02 -9.95463952e-02 -1.14762872e-01 -8.44196320e-01
      9.96219441e-02 -3.10072452e-01 -5.74834980e-02 -7.73411095e-01
      -2.76124775e-02 -2.50365466e-01 -7.18757808e-02 -7.46506393e-01
      -1.76093914e-02 -9.30790678e-02 -1.73868477e-01 -8.64813507e-01
      1.02484547e-01 -2.74769604e-01 -7.27525502e-02 -8.00694108e-01
      6.20396174e-02 -3.50617409e-01 -8.95039886e-02 -7.61428714e-01</_>
    <_>
      -1.99042991e-01 -7.20343649e-01 -2.83189327e-01 2.32520676e+00
      -1.29731226e+00 -1.58809960e+00 -1.41058207e+00 9.26931441e-01
      8.43755484e-01 3.86295557e-01 7.78449595e-01 2.70141602e+00
      -4.52116668e-01 -8.70504618e-01 -6.19475007e-01 2.04338932e+00
      -1.05144525e+00 -1.42137218e+00 -1.21552825e+00 1.20420671e+00
      1.38219285e+00 9.87155974e-01 1.32585549e+00 2.84702516e+00
      2.18551069e-01 -2.09806696e-01 4.28782478e-02 2.42746902e+00
      -4.92242932e-01 -9.60500121e-01 -6.97586894e-01 1.91711044e+00
      9.82783809e-02 2.61843950e-02 4.94184084e-02 -8.79722178e-01
      -2.95604970e-02 -1.09480143e-01 -3.05319875e-02 -8.61467659e-01
      -7.17237592e-02 -1.43733630e-02 -1.41114503e-01 -9.20436800e-01
      -2.84211952e-02 -1.46389961e-01 -2.11848225e-02 -8.63719881e-01
      -8.88482034e-02 -1.90813273e-01 -9.87647921e-02 -8.53034556e-01
      -1.52716860e-01 -5.47053441e-02 -2.32636437e-01 -9.39182699e-01
      -7.36031383e-02 -1.39479265e-01 -4.40645218e-02 -8.83348882e-01
      -7.27549866e-02 -1.76600680e-01 -7.38892928e-02 -8.50051939e-01</_>
    <_>
      -8.68020654e-02 -8.71128678e-01 -5.84819019e-01 2.43418741e+00
      -1.14605176e+00 -1.49295008e+00 -1.39464366e+00 1.02212870e+00
      8.07261169e-01 4.21105139e-02 3.37125033e-01 2.81298780e+00
      -5.11370838e-01 -9.52786088e-01 -7.74125159e-01 2.14835882e+00
      -8.89526606e-01 -1.33935988e+00 -1.27123475e+00 1.29983616e+00
      1.25412679e+00 5.52573860e-01 8.27688158e-01 2.95876646e+00
      -1.53443078e-04 -4.11759764e-01 -2.23870158e-01 2.53382373e+00
      -4.61129755e-01 -9.64525640e-01 -8.80943596e-01 2.01692939e+00
      1.64900541e-01 7.30674490e-02 1.42242432e-01 -8.02591741e-01
      -2.23678611e-02 -4.40352038e-02 -7.01355422e-03 -7.83707559e-01
      2.37250198e-02 1.10950328e-01 9.30722877e-02 -8.43908846e-01
      7.61883855e-02 -1.63286522e-01 -1.11180082e-01 -7.89296269e-01
      -1.21961087e-01 -1.61555842e-01 -1.53786376e-01 -7.77477920e-01
      -1.01445140e-02 1.65030509e-01 9.36512426e-02 -8.61702561e-01
      1.46729261e-01 -1.15259819e-01 -1.15464926e-01 -8.06781113e-01
      -3.80344391e-02 -2.13822857e-01 -1.62688643e-01 -7.74212658e-01</_>
    <_>
      -1.49951305e-03 -8.55866790e-01 -4.08017904e-01 2.27598786e+00
      -9.96898532e-01 -1.76250398e+00 -1.58125401e+00 9.05279160e-01
      9.88684952e-01 3.01696867e-01 7.03157604e-01 2.64829969e+00
      -1.59611017e-01 -1.04510403e+00 -7.49386609e-01 1.99248600e+00
      -7.45890617e-01 -1.61810613e+00 -1.40743434e+00 1.17074728e+00
      1.48680770e+00 9.33127642e-01 1.26600289e+00 2.79317689e+00
      4.55338448e-01 -3.42483968e-01 -4.63978276e-02 2.36989427e+00
      -2.02057511e-01 -1.12870955e+00 -8.57002676e-01 1.86400747e+00
      2.18646631e-01 -1.12080403e-01 -3.92327458e-03 -8.18885446e-01
      1.78896766e-02 -1.12446882e-01 1.92039572e-02 -7.69981265e-01
      3.40637304e-02 -1.29037544e-01 -1.95483774e-01 -8.62704217e-01
      1.22296624e-01 -2.61047065e-01 -8.79184082e-02 -7.88628161e-01
      -2.17946450e-04 -2.10271731e-01 -5.88394105e-02 -7.62603879e-01
      -5.54039218e-02 -1.31419718e-01 -2.53127962e-01 -8.82007718e-01
      1.02910899e-01 -2.57279664e-01 -1.30290434e-01 -8.11495245e-01
      1.04514033e-01 -3.03256273e-01 -1.00193508e-01 -7.67451406e-01</_>
    <_>
      -3.55827123e-01 -1.02307022e+00 -3.98262352e-01 2.50592899e+00
      -1.09207475e+00 -1.35427713e+00 -1.27736795e+00 1.08997428e+00
      4.29207027e-01 -2.37024710e-01 4.45060492e-01 2.88833523e+00
      -6.78921998e-01 -1.01073432e+00 -8.53000760e-01 2.21665502e+00
      -8.65751505e-01 -1.21412027e+00 -1.09503710e+00 1.36741948e+00
      8.68798077e-01 2.56297290e-01 9.11477268e-01 3.03622842e+00
      -2.49660030e-01 -6.04265392e-01 -3.99983674e-01 2.60386777e+00
      -5.37417412e-01 -9.86029923e-01 -8.11132014e-01 2.08397102e+00
      2.92467386e-01 1.01814955e-01 1.80735439e-01 -7.48831809e-01
      2.95784865e-02 -3.89911495e-02 1.60021540e-02 -7.13939726e-01
      1.34516910e-01 9.95543897e-02 2.29323134e-02 -7.82918572e-01
      1.22650020e-01 -1.54335842e-01 -1.34256463e-02 -7.36484766e-01
      -6.25520274e-02 -1.83122933e-01 -1.19873762e-01 -7.13337660e-01
      8.44641179e-02 1.22022003e-01 -4.62659039e-02 -7.96787739e-01
      1.59222066e-01 -1.39231771e-01 3.26437876e-03 -7.50562251e-01
      3.73974219e-02 -2.43804306e-01 -9.87048894e-02 -7.22713053e-01</_>
    <_>
      -3.92569542e-01 -9.83300090e-01 -3.55174154e-01 2.43152428e+00
      -1.29488361e+00 -1.44143188e+00 -1.23817623e+00 1.02830803e+00
      5.87788880e-01 -1.60541777e-02 6.21324480e-01 2.80948210e+00
      -7.81635821e-01 -1.00644124e+00 -6.31721556e-01 2.15022612e+00
      -1.09409356e+00 -1.27620494e+00 -1.05342269e+00 1.30908334e+00
      1.12057579e+00 5.84277987e-01 1.15654230e+00 2.95561719e+00
      -2.25407735e-01 -4.64783311e-01 -5.43291271e-02 2.53536749e+00
      -7.30674684e-01 -9.41418767e-01 -6.37773275e-01 2.02530479e+00
      1.91823363e-01 1.00124724e-01 2.27308720e-01 -7.85179257e-01
      -2.78949514e-02 -9.84154940e-02 -1.16959130e-02 -7.63701856e-01
      -4.46173176e-03 8.46929923e-02 7.30057433e-02 -8.28361750e-01
      5.53728901e-02 -1.41314328e-01 3.10158953e-02 -7.70152509e-01
      -1.02121010e-01 -2.20004261e-01 -1.11644410e-01 -7.56801009e-01
      -1.07182764e-01 5.22021502e-02 -2.17489265e-02 -8.47738206e-01
      5.90547808e-02 -8.83844197e-02 2.82917060e-02 -7.90627718e-01
      -3.59507017e-02 -2.42909968e-01 -8.69002566e-02 -7.55628049e-01</_>
    <_>
      -2.98954248e-01 -6.79556251e-01 -2.76740640e-01 2.35555887e+00
      -1.34414423e+00 -1.48697019e+00 -1.42968178e+00 9.24691319e-01
      7.45717704e-01 4.09869701e-01 8.05946827e-01 2.73942924e+00
      -5.22563279e-01 -7.80243576e-01 -5.99728167e-01 2.05766535e+00
      -1.12465632e+00 -1.31917334e+00 -1.21578693e+00 1.19749343e+00
      1.28718817e+00 1.01651847e+00 1.35642624e+00 2.88680172e+00
      1.32064626e-01 -1.34831131e-01 8.49041939e-02 2.44541335e+00
      -5.78921020e-01 -8.47095728e-01 -6.64972901e-01 1.91582596e+00
      9.90381613e-02 6.98019639e-02 2.73627546e-02 -8.95964861e-01
      -8.89003053e-02 -1.13073073e-01 -8.41786265e-02 -8.67573500e-01
      -3.27594802e-02 1.03809526e-02 -1.60932273e-01 -9.35034692e-01
      -6.18852340e-02 -1.06582358e-01 -7.99631253e-02 -8.64957392e-01
      -1.56889126e-01 -1.73667639e-01 -1.65760234e-01 -8.44231665e-01
      -8.86580572e-02 -3.58962938e-02 -2.39974931e-01 -9.53554153e-01
      -4.68566343e-02 -8.74573961e-02 -8.17361921e-02 -8.83185089e-01
      -1.09933838e-01 -1.35240912e-01 -1.33394971e-01 -8.35837126e-01</_>
    <_>
      -3.00717112e-02 -8.32775712e-01 -4.36303824e-01 2.28468108e+00
      -9.95938182e-01 -1.69405079e+00 -1.60224998e+00 9.07413185e-01
      9.90766108e-01 2.98423588e-01 6.77742779e-01 2.65957189e+00
      -1.53130472e-01 -1.03324139e+00 -8.21052670e-01 1.99943542e+00
      -7.19604075e-01 -1.55098617e+00 -1.45943320e+00 1.17293143e+00
      1.49988842e+00 9.19118166e-01 1.23845840e+00 2.80535722e+00
      4.87177372e-01 -3.60962987e-01 -1.28252134e-01 2.37835312e+00
      -1.50900826e-01 -1.10266101e+00 -9.43701386e-01 1.86873293e+00
      2.22844765e-01 -7.34223127e-02 -1.52790388e-02 -8.15477431e-01
      5.62324247e-04 -1.00432664e-01 -5.76300174e-03 -7.75181055e-01
      5.26853092e-02 -1.20377563e-01 -2.07856178e-01 -8.62276912e-01
      1.07372887e-01 -2.24583656e-01 -1.03423044e-01 -7.86109567e-01
      -2.85228323e-02 -1.92591310e-01 -7.68103451e-02 -7.59229839e-01
      -1.67269874e-02 -1.31536394e-01 -2.46994138e-01 -8.83071482e-01
      8.96760747e-02 -2.19081610e-01 -1.44228697e-01 -8.09170485e-01
      6.79293200e-02 -2.42109448e-01 -1.15378067e-01 -7.58171320e-01</_>
    <_>
      -2.90838033e-01 -8.55044603e-01 -4.59469169e-01 2.40845037e+00
      -1.23343205e+00 -1.49218202e+00 -1.35686505e+00 9.91738677e-01
      6.85506165e-01 1.66443959e-01 5.58319271e-01 2.78912425e+00
      -5.15163004e-01 -9.14812267e-01 -6.73159957e-01 2.12348557e+00
      -9.65406537e-01 -1.35674179e+00 -1.19985497e+00 1.27310193e+00
      1.21058106e+00 7.63093948e-01 1.11064398e+00 2.93571997e+00
      1.07399397e-01 -3.14983279e-01 -4.90087494e-02 2.51061153e+00
      -4.34767127e-01 -9.48546648e-01 -7.43592262e-01 1.99399471e+00
      1.78379729e-01 5.78736067e-02 1.30405203e-01 -8.59110951e-01
      -3.68799046e-02 -9.77075994e-02 -3.54742557e-02 -8.44336033e-01
      6.39027581e-02 4.95941192e-02 -1.36747267e-02 -8.92682076e-01
      -3.88743379e-03 -1.61689952e-01 -5.95483370e-02 -8.45930338e-01
      -1.15979180e-01 -2.05417946e-01 -1.22148931e-01 -8.36022854e-01
      3.21286619e-02 5.45716584e-02 -6.80417046e-02 -9.07766044e-01
      7.08360318e-03 -1.17989622e-01 -6.91953301e-02 -8.59601259e-01
      -1.07008733e-01 -2.07188591e-01 -9.94863585e-02 -8.31518114e-01</_>
    <_>
      -4.42258626e-01 -9.98184443e-01 -4.07498866e-01 2.46348739e+00
      -1.18400574e+00 -1.37856603e+00 -1.20124757e+00 1.06864452e+00
      5.27938128e-01 -6.57678992e-02 5.24337947e-01 2.83800125e+00
      -6.86582863e-01 -1.01689243e+00 -6.54212475e-01 2.18131685e+00
      -9.50115979e-01 -1.31383777e+00 -1.08922756e+00 1.34452367e+00
      1.08405530e+00 5.30601025e-01 1.05636895e+00 2.98208070e+00
      -1.24249890e-01 -5.04281104e-01 -1.03233479e-01 2.56138444e+00
      -5.78911901e-01 -1.04585862e+00 -7.27362096e-01 2.05249524e+00
      2.23174155e-01 1.10932879e-01 2.25756675e-01 -7.78004944e-01
      -1.96609218e-02 -7.13821501e-02 -1.66211110e-02 -7.57347703e-01
      6.26626462e-02 6.64883554e-02 6.45376891e-02 -8.11098158e-01
      4.85420711e-02 -1.65532380e-01 -2.52312440e-02 -7.78909862e-01
      -1.12166643e-01 -2.02316865e-01 -1.27770051e-01 -7.67007887e-01
      -4.63770656e-03 3.94265205e-02 -1.85174420e-02 -8.23438406e-01
      7.86662847e-02 -1.64600700e-01 -5.53356521e-02 -7.91417181e-01
      -1.90206617e-02 -2.49153838e-01 -1.32012755e-01 -7.71943152e-01</_>
    <_>
      -4.68654521e-02 -9.41264153e-01 -5.52606404e-01 2.35805702e+00
      -9.31226492e-01 -1.60573030e+00 -1.51847458e+00 9.83985007e-01
      9.10374582e-01 1.15778364e-01 4.75899726e-01 2.72772336e+00
      -1.71084285e-01 -1.03075564e+00 -8.63063276e-01 2.07349133e+00
      -6.42908812e-01 -1.50431991e+00 -1.38150978e+00 1.24892986e+00
      1.40762615e+00 7.25964367e-01 1.03584516e+00 2.87044930e+00
      4.09838974e-01 -4.08952117e-01 -2.22582906e-01 2.44744635e+00
      -1.31927997e-01 -1.10353851e+00 -9.18566346e-01 1.94103122e+00
      2.34217405e-01 -2.01751757e-02 5.65123148e-02 -8.08778822e-01
      -1.82549842e-02 -8.23636651e-02 -2.74455491e-02 -7.85453379e-01
      9.89343002e-02 -1.33967614e-02 -6.56484962e-02 -8.37799370e-01
      1.02581590e-01 -2.56625354e-01 -1.37133226e-01 -7.95631409e-01
      -6.85509071e-02 -1.96258575e-01 -1.42357022e-01 -7.81537831e-01
      3.05647105e-02 -6.44123508e-03 -1.00933760e-01 -8.50612819e-01
      1.40257224e-01 -2.51875281e-01 -1.24805100e-01 -8.07186067e-01
      5.90808094e-02 -3.10148984e-01 -2.08627805e-01 -7.81170309e-01</_>
    <_>
      -4.31202412e-01 -9.27330315e-01 -2.79662967e-01 2.41330600e+00
      -1.15611804e+00 -1.48923111e+00 -1.32867086e+00 1.00326645e+00
      5.38857877e-01 6.16694614e-02 7.17551529e-01 2.79615569e+00
      -6.34596109e-01 -1.07615006e+00 -7.18919218e-01 2.11937380e+00
      -8.78094912e-01 -1.39788878e+00 -1.23280895e+00 1.27407968e+00
      1.06364655e+00 6.49165928e-01 1.23514462e+00 2.94476366e+00
      -1.05459474e-01 -5.42845190e-01 -1.34434640e-01 2.50550795e+00
      -4.93456125e-01 -1.10984492e+00 -8.46110821e-01 1.98368680e+00
      3.03462118e-01 8.08533952e-02 1.20055065e-01 -7.68506050e-01
      -6.60298485e-03 -8.15916881e-02 4.88977320e-03 -7.25943506e-01
      1.80843472e-01 2.12434232e-02 -1.18124403e-01 -8.12369406e-01
      1.73887804e-01 -1.92928508e-01 -6.51309118e-02 -7.39072263e-01
      -5.47733754e-02 -2.11990371e-01 -1.10290915e-01 -7.13336468e-01
      1.17252320e-01 3.34555772e-03 -2.00263813e-01 -8.31832945e-01
      2.32722104e-01 -1.92065224e-01 -1.12287872e-01 -7.59955347e-01
      8.71368423e-02 -2.95167863e-01 -1.43192455e-01 -7.13616788e-01</_>
    <_>
      -3.55583638e-01 -9.69092727e-01 -4.40818608e-01 2.45574260e+00
      -1.13183010e+00 -1.45557642e+00 -1.26063347e+00 1.05600095e+00
      5.93912005e-01 -2.74234638e-02 4.69357759e-01 2.83231068e+00
      -5.50378382e-01 -1.07184124e+00 -6.95257843e-01 2.17088699e+00
      -8.98754537e-01 -1.36512077e+00 -1.14195263e+00 1.33200181e+00
      1.10879266e+00 5.30340731e-01 9.71414566e-01 2.97761130e+00
      1.04597257e-02 -5.59748232e-01 -1.48383811e-01 2.55309796e+00
      -4.93229389e-01 -1.10235882e+00 -7.79826820e-01 2.04190660e+00
      2.56548584e-01 5.41695952e-02 1.83460534e-01 -7.64182210e-01
      -7.89752696e-03 -7.88050592e-02 -6.85792509e-03 -7.40147173e-01
      1.39718458e-01 2.14234293e-02 5.63904904e-02 -8.07371914e-01
      7.50792474e-02 -1.97669402e-01 -6.03343099e-02 -7.60240793e-01
      -1.05394959e-01 -2.28454024e-01 -1.26349926e-01 -7.47541130e-01
      1.03705786e-01 3.14661451e-02 -5.30339824e-03 -8.23783576e-01
      1.17856957e-01 -1.86907068e-01 -8.17339644e-02 -7.79025257e-01
      -7.55169708e-03 -2.89971203e-01 -1.38017237e-01 -7.52304912e-01</_>
    <_>
      1.86928231e-02 -9.32022393e-01 -4.57117736e-01 2.29372144e+00
      -9.09550607e-01 -1.69040453e+00 -1.55452991e+00 9.34757829e-01
      1.04373336e+00 1.94941342e-01 6.14140928e-01 2.65966249e+00
      -7.08728433e-02 -1.08604681e+00 -8.23690832e-01 2.00942254e+00
      -5.66637039e-01 -1.60416961e+00 -1.45178747e+00 1.19474661e+00
      1.56827223e+00 8.37981105e-01 1.16805696e+00 2.80130553e+00
      5.77977002e-01 -4.03379202e-01 -1.42488793e-01 2.37841725e+00
      1.29104061e-02 -1.14992869e+00 -9.47538257e-01 1.87595618e+00
      2.29687408e-01 -7.14764073e-02 1.77407842e-02 -7.97354996e-01
      -8.76358710e-03 -1.04716405e-01 -1.03341732e-02 -7.38860250e-01
      3.29129547e-02 -1.06500186e-01 -1.72148108e-01 -8.28631818e-01
      1.02043316e-01 -2.81443208e-01 -1.53428197e-01 -7.67156720e-01
      -4.60290313e-02 -2.21997783e-01 -1.19429775e-01 -7.25859463e-01
      -6.72543570e-02 -9.89732742e-02 -2.13330939e-01 -8.41022611e-01
      9.05630887e-02 -2.89303839e-01 -2.00329602e-01 -7.81412721e-01
      6.15774952e-02 -3.40389997e-01 -2.04666272e-01 -7.38242865e-01</_>
    <_>
      -3.83620501e-01 -1.01707900e+00 -4.01357859e-01 2.44300532e+00
      -1.24166608e+00 -1.39919496e+00 -1.21292245e+00 1.04480016e+00
      5.65160990e-01 -1.01640232e-01 5.31893671e-01 2.81987405e+00
      -7.59415865e-01 -1.04532909e+00 -6.70450866e-01 2.16299129e+00
      -1.05424964e+00 -1.26512885e+00 -1.04951692e+00 1.32439387e+00
      1.07844985e+00 4.77716058e-01 1.05176842e+00 2.96506310e+00
      -2.53766596e-01 -5.65813541e-01 -1.41124740e-01 2.54602098e+00
      -7.36174166e-01 -9.98207271e-01 -6.88391268e-01 2.03724623e+00
      2.18476474e-01 1.48384720e-01 2.61122972e-01 -7.83681095e-01
      -1.20322546e-02 -9.17277038e-02 -9.64697637e-03 -7.66866982e-01
      3.63021567e-02 1.48907632e-01 1.22033194e-01 -8.23470056e-01
      7.52936825e-02 -1.12547502e-01 5.18739335e-02 -7.77893245e-01
      -1.07321210e-01 -1.95041642e-01 -1.21312067e-01 -7.67514646e-01
      -5.08316644e-02 1.09987475e-01 2.75890995e-02 -8.40227604e-01
      9.96678174e-02 -7.60165006e-02 5.10543697e-02 -7.95434713e-01
      -1.92451980e-02 -2.06953228e-01 -8.75451043e-02 -7.68718362e-01</_>
    <_>
      -1.18810214e-01 -7.77645051e-01 -4.49207485e-01 2.35105515e+00
      -1.16297448e+00 -1.53891349e+00 -1.46417928e+00 9.49002445e-01
      8.87303412e-01 2.97605425e-01 6.03353679e-01 2.72525525e+00
      -3.38878483e-01 -8.77999842e-01 -6.94561303e-01 2.06357622e+00
      -9.10750091e-01 -1.39675462e+00 -1.31026101e+00 1.22114241e+00
      1.39442360e+00 9.16522622e-01 1.17094707e+00 2.86903000e+00
      2.83334643e-01 -2.28088811e-01 -1.78310554e-02 2.44397140e+00
      -3.76224190e-01 -9.45284188e-01 -7.87141562e-01 1.92947853e+00
      1.22658864e-01 4.00940515e-02 8.76901820e-02 -8.99164975e-01
      -3.95362079e-02 -1.21184848e-01 -3.21507715e-02 -8.89019549e-01
      -3.91049571e-02 1.34449042e-02 -4.24542986e-02 -9.26087618e-01
      7.18208635e-03 -1.63115695e-01 -6.12822548e-02 -8.87949705e-01
      -1.02689646e-01 -2.15298787e-01 -1.09235600e-01 -8.80482316e-01
      -1.17508113e-01 -3.08519527e-02 -1.09872408e-01 -9.38552916e-01
      -2.96123489e-03 -1.45927981e-01 -9.02390108e-02 -8.98470759e-01
      -4.07130532e-02 -2.16579124e-01 -1.05863653e-01 -8.75268996e-01</_>
    <_>
      -4.80683714e-01 -1.03654242e+00 -2.89756417e-01 2.42538953e+00
      -1.20996666e+00 -1.45493019e+00 -1.23172092e+00 1.02881694e+00
      4.56710935e-01 -1.05834246e-01 6.61092281e-01 2.80219841e+00
      -7.54774034e-01 -1.10963678e+00 -6.36885345e-01 2.14086890e+00
      -9.77430463e-01 -1.37053609e+00 -1.06835735e+00 1.30317974e+00
      9.72354829e-01 4.68761355e-01 1.15798032e+00 2.94761729e+00
      -2.56248116e-01 -6.23475015e-01 -8.59115124e-02 2.52240062e+00
      -6.49259388e-01 -1.12630856e+00 -6.81873560e-01 2.01063585e+00
      2.85726011e-01 1.01270221e-01 2.13519901e-01 -7.82749355e-01
      -6.28473796e-03 -8.76924396e-02 1.63557213e-02 -7.54938781e-01
      1.82140186e-01 9.59927961e-02 4.76704463e-02 -8.21232021e-01
      1.59349740e-01 -1.49708062e-01 1.99722126e-02 -7.73605585e-01
      -7.13928044e-02 -2.09076464e-01 -7.82568678e-02 -7.56319225e-01
      1.22576900e-01 7.86963627e-02 -1.76779050e-02 -8.37006152e-01
      2.28251293e-01 -1.24318518e-01 -1.13369059e-02 -7.89952815e-01
      6.41768575e-02 -2.39652202e-01 -9.21840295e-02 -7.60190129e-01</_>
    <_>
      -3.36869210e-01 -8.26191664e-01 -3.39264303e-01 2.40821314e+00
      -1.27050948e+00 -1.43052912e+00 -1.31567991e+00 1.00122499e+00
      6.76499009e-01 2.08775058e-01 6.71900034e-01 2.78667212e+00
      -6.01788938e-01 -8.80709469e-01 -6.64729476e-01 2.12822127e+00
      -1.03848159e+00 -1.26829755e+00 -1.17011726e+00 1.28389001e+00
      1.22138655e+00 8.11982930e-01 1.21145284e+00 2.93228102e+00
      8.03018082e-03 -2.95806110e-01 -6.31151870e-02 2.51364088e+00
      -5.67380250e-01 -8.72788370e-01 -7.39312172e-01 2.00270104e+00
      1.38566405e-01 1.06730357e-01 1.08372398e-01 -8.53249252e-01
      -5.72409034e-02 -9.00789499e-02 -5.47862947e-02 -8.36981952e-01
      -3.62979285e-02 4.87569384e-02 -9.23802704e-02 -8.86276960e-01
      -2.01995242e-02 -9.14604738e-02 -2.85204034e-02 -8.40374291e-01
      -1.48139715e-01 -1.74225941e-01 -1.45932823e-01 -8.29648495e-01
      -1.28629610e-01 -9.74985585e-03 -1.96967185e-01 -9.01150584e-01
      -2.31350977e-02 -6.14983290e-02 -3.14806998e-02 -8.54952514e-01
      -1.21362671e-01 -1.55967206e-01 -9.01273564e-02 -8.26911807e-01</_>
    <_>
      -3.95780385e-01 -1.02383769e+00 -5.21099746e-01 2.53753829e+00
      -1.08049047e+00 -1.31148744e+00 -1.23284125e+00 1.12123668e+00
      3.58597368e-01 -3.02747518e-01 2.52747059e-01 2.91854334e+00
      -6.82235241e-01 -9.79453504e-01 -8.15625310e-01 2.25164390e+00
      -8.64746332e-01 -1.15404308e+00 -1.06717074e+00 1.40121949e+00
      7.92258322e-01 1.57266453e-01 6.95045948e-01 3.06477261e+00
      -2.68934250e-01 -5.94532192e-01 -3.98162812e-01 2.63752270e+00
      -5.57390332e-01 -9.38546538e-01 -8.00310671e-01 2.11974907e+00
      3.13412607e-01 1.21657200e-01 2.40688398e-01 -7.33825207e-01
      1.52593357e-02 -3.44101898e-02 1.73527896e-02 -7.21266568e-01
      1.64522588e-01 1.26753226e-01 1.40683532e-01 -7.69642651e-01
      7.49233887e-02 -1.48933366e-01 -1.48579618e-02 -7.32381284e-01
      -1.00073732e-01 -1.87752411e-01 -1.24380700e-01 -7.25829661e-01
      1.14554077e-01 1.54742584e-01 1.13565318e-01 -7.84393370e-01
      1.05487272e-01 -1.24899656e-01 1.89837236e-02 -7.45029867e-01
      -2.79778503e-02 -2.42139027e-01 -9.78753492e-02 -7.25623012e-01</_>
    <_>
      -3.25946838e-01 -7.95884073e-01 -3.81744772e-01 2.42992377e+00
      -1.32359445e+00 -1.48409700e+00 -1.26440036e+00 1.00477123e+00
      6.33015215e-01 1.89811409e-01 5.56973457e-01 2.81234217e+00
      -6.39764786e-01 -8.74886990e-01 -5.96371710e-01 2.14067078e+00
      -1.14247274e+00 -1.31036019e+00 -1.04059553e+00 1.28484619e+00
      1.14525342e+00 7.49199927e-01 1.06895804e+00 2.95952630e+00
      -5.98976873e-02 -2.93807298e-01 -1.68816075e-02 2.52935219e+00
      -6.92283094e-01 -9.12799656e-01 -5.76621473e-01 2.00793481e+00
      1.34843692e-01 6.27278760e-02 1.88087091e-01 -8.54153275e-01
      -2.67899651e-02 -1.02099851e-01 -1.91607848e-02 -8.37431014e-01
      -1.52708925e-02 4.97183576e-02 5.92608079e-02 -8.94612372e-01
      -4.47693840e-02 -1.48991093e-01 -8.78118444e-03 -8.45858395e-01
      -1.22140199e-01 -2.17808992e-01 -1.12845451e-01 -8.36864591e-01
      -9.60766301e-02 3.14179361e-02 5.62395295e-03 -9.12631989e-01
      -6.03354238e-02 -1.15959376e-01 9.82415769e-03 -8.65041912e-01
      -9.16598663e-02 -2.00472176e-01 -5.43098785e-02 -8.37607861e-01</_>
    <_>
      -2.19928622e-01 -9.21589315e-01 -4.42421019e-01 2.49241233e+00
      -1.16227257e+00 -1.33515608e+00 -1.28744173e+00 1.08441126e+00
      6.73790574e-01 -1.02182329e-01 3.99571955e-01 2.87073970e+00
      -6.34497702e-01 -9.35688972e-01 -8.29071283e-01 2.20786667e+00
      -9.24258947e-01 -1.19404590e+00 -1.09140611e+00 1.36275208e+00
      1.14878285e+00 3.73617023e-01 8.49812388e-01 3.01637101e+00
      -1.54183090e-01 -4.97308314e-01 -3.71051013e-01 2.59196830e+00
      -5.70464253e-01 -9.20078158e-01 -7.60881722e-01 2.07784438e+00
      1.78833589e-01 1.47955209e-01 1.83685064e-01 -7.77023137e-01
      -1.22852698e-02 -4.81069461e-02 -2.19998937e-02 -7.68753946e-01
      -1.29893655e-02 1.16774186e-01 6.05932511e-02 -8.08663189e-01
      2.84438650e-03 -1.08910330e-01 -3.22648771e-02 -7.78015018e-01
      -1.35601953e-01 -1.72626227e-01 -1.49530157e-01 -7.72874832e-01
      -1.20295390e-01 9.67943743e-02 1.20483590e-02 -8.20797265e-01
      2.95404484e-03 -8.80359188e-02 -6.35589845e-03 -7.87014723e-01
      -8.67024139e-02 -1.79200828e-01 -1.41647145e-01 -7.68800616e-01</_>
    <_>
      -2.75091290e-01 -7.39356756e-01 -3.27106476e-01 2.34971714e+00
      -1.30279517e+00 -1.48109663e+00 -1.40533769e+00 9.34360981e-01
      8.42710555e-01 4.08223063e-01 7.93360591e-01 2.72760463e+00
      -5.06395578e-01 -7.87772596e-01 -5.87079167e-01 2.05659580e+00
      -1.03230274e+00 -1.25042081e+00 -1.20774281e+00 1.20646846e+00
      1.42517996e+00 1.06147981e+00 1.37949252e+00 2.87347221e+00
      2.04481140e-01 -8.79936218e-02 1.35172755e-01 2.44096923e+00
      -4.63554621e-01 -7.43412375e-01 -6.33891344e-01 1.91979969e+00
      8.09611827e-02 2.16920599e-02 3.33001427e-02 -8.99324656e-01
      -7.10033178e-02 -1.27427369e-01 -7.55863264e-02 -8.85724723e-01
      -1.48644477e-01 -7.31424317e-02 -1.86981425e-01 -9.29270685e-01
      -4.40228321e-02 -1.47162259e-01 -1.14865251e-01 -8.80262196e-01
      -1.38031423e-01 -1.79662392e-01 -1.52700901e-01 -8.69773805e-01
      -2.50419557e-01 -1.43536299e-01 -2.71564484e-01 -9.41554368e-01
      -6.78496882e-02 -1.46170065e-01 -1.64962500e-01 -8.87407541e-01
      -9.87092182e-02 -1.47390291e-01 -1.65800333e-01 -8.54741037e-01</_>
    <_>
      -1.82128042e-01 -6.96232736e-01 -3.28211457e-01 2.32473803e+00
      -1.26551402e+00 -1.61048305e+00 -1.44371963e+00 9.21576262e-01
      8.57101679e-01 3.96705210e-01 7.55380869e-01 2.70135856e+00
      -4.04931486e-01 -8.57929468e-01 -5.99654078e-01 2.04342055e+00
      -1.01250625e+00 -1.40116119e+00 -1.23630309e+00 1.20189643e+00
      1.37762201e+00 9.84454930e-01 1.29811728e+00 2.84677601e+00
      2.52640307e-01 -1.82815224e-01 7.13458732e-02 2.42760825e+00
      -4.32485193e-01 -8.79670680e-01 -6.81961536e-01 1.91739988e+00
      1.03979819e-01 6.96014846e-04 2.45422479e-02 -9.09098029e-01
      -3.26615460e-02 -1.14622712e-01 -2.06531659e-02 -8.93474281e-01
      -7.40510002e-02 -2.20113657e-02 -1.50754943e-01 -9.45546448e-01
      -1.17185013e-03 -1.46887884e-01 -6.45488426e-02 -8.96105409e-01
      -8.54860619e-02 -1.85371250e-01 -1.00781985e-01 -8.88356388e-01
      -1.58541486e-01 -3.98473889e-02 -2.29301944e-01 -9.61862803e-01
      -2.92253029e-02 -9.51671675e-02 -9.82721895e-02 -9.11756098e-01
      -6.18051998e-02 -1.94793165e-01 -9.58686545e-02 -8.83628130e-01</_>
    <_>
      -3.44895363e-01 -8.84621084e-01 -4.11108047e-01 2.44299746e+00
      -1.22756159e+00 -1.40114617e+00 -1.26656973e+00 1.03524315e+00
      6.33262694e-01 9.39336717e-02 5.64999819e-01 2.81915641e+00
      -6.72429562e-01 -9.58122313e-01 -6.87988758e-01 2.15473652e+00
      -1.00432539e+00 -1.27246189e+00 -1.11236894e+00 1.30991292e+00
      1.15759444e+00 6.71829045e-01 1.09529400e+00 2.96385908e+00
      -1.07686721e-01 -4.20850486e-01 -1.18805371e-01 2.53729939e+00
      -6.18672967e-01 -9.61118281e-01 -7.15017974e-01 2.02194905e+00
      2.01500028e-01 9.74934250e-02 1.79255337e-01 -8.19673777e-01
      -1.56938210e-02 -8.95146802e-02 -1.04492605e-02 -8.10829163e-01
      4.51781526e-02 1.77622568e-02 -4.98436578e-03 -8.49558949e-01
      6.61403388e-02 -1.50511771e-01 -2.58667786e-02 -8.17038119e-01
      -9.49533731e-02 -2.08071530e-01 -1.21109672e-01 -8.11219275e-01
      -3.01676728e-02 -2.07941346e-02 -8.96517858e-02 -8.62636209e-01
      8.38243812e-02 -1.40988603e-01 -4.74700071e-02 -8.27365458e-01
      -5.25731267e-03 -2.16675401e-01 -1.28441438e-01 -8.08548331e-01</_>
    <_>
      -4.09189820e-01 -1.05033672e+00 -4.25185472e-01 2.43856478e+00
      -1.13281107e+00 -1.48333430e+00 -1.27009749e+00 1.03836608e+00
      5.56529462e-01 -4.76034358e-02 5.34305334e-01 2.81772685e+00
      -5.73152781e-01 -1.06922042e+00 -7.12032259e-01 2.15302968e+00
      -8.85934949e-01 -1.42378056e+00 -1.14514685e+00 1.31379545e+00
      1.11645651e+00 5.78556478e-01 1.07820690e+00 2.96464181e+00
      4.00190428e-03 -5.11975586e-01 -1.37949422e-01 2.53791356e+00
      -4.66856837e-01 -1.12397170e+00 -7.60253549e-01 2.02455306e+00
      2.82382905e-01 3.43468748e-02 1.80723876e-01 -7.53192067e-01
      8.40004347e-03 -8.72191563e-02 6.14026096e-03 -7.08105087e-01
