<?xml version="1.0"?>
<opencv_storage>
<my_svm type_id="opencv-ml-svm">
  <svm_type>C_SVC</svm_type>
  <kernel><type>RBF</type>
    <gamma>2.</gamma></kernel>
  <C>2.</C>
  <term_criteria><epsilon>2.2204460492503131e-16</epsilon>
    <iterations>100</iterations></term_criteria>
  <var_all>64</var_all>
  <var_count>64</var_count>
  <class_count>8</class_count>
  <class_labels type_id="opencv-matrix">
    <rows>1</rows>
    <cols>8</cols>
    <dt>i</dt>
    <data>
      0 1 2 3 4 5 6 7</data></class_labels>
  <sv_total>1145</sv_total>
  <support_vectors>
    <_>
      -1.78458430e-02 -8.30049992e-01 -4.32115853e-01 2.30471706e+00
      -9.96806085e-01 -1.63768613e+00 -1.55496776e+00 9.38748956e-01
      9.77739334e-01 2.79096067e-01 6.54687166e-01 2.67241549e+00
      -1.90967187e-01 -1.00724828e+00 -7.84039795e-01 2.02491045e+00
      -7.02998042e-01 -1.51799476e+00 -1.41012406e+00 1.20498526e+00
      1.48517740e+00 8.94036770e-01 1.22427380e+00 2.81485415e+00
      4.29624170e-01 -3.53286386e-01 -9.54120085e-02 2.39848161e+00
      -1.56343073e-01 -1.07801557e+00 -8.93639863e-01 1.89645755e+00
      1.99620366e-01 -4.56374213e-02 1.63372811e-02 -8.37649345e-01
      -9.50448122e-03 -1.05794929e-01 -2.17648558e-02 -8.19260299e-01
      3.70793268e-02 -1.02114677e-01 -1.62223130e-01 -8.70696664e-01
      1.12868607e-01 -2.27467567e-01 -1.08430542e-01 -8.32567632e-01
      -4.69138101e-02 -2.14273542e-01 -1.11925580e-01 -8.19064319e-01
      -4.83861156e-02 -1.23114072e-01 -2.30160415e-01 -8.84565949e-01
      1.14576422e-01 -2.19711289e-01 -1.47446632e-01 -8.44105840e-01
      6.27237633e-02 -2.71682262e-01 -1.59485340e-01 -8.19923878e-01</_>
    <_>
      -1.74600303e-01 -7.31274307e-01 -3.79273117e-01 2.33596420e+00
      -1.21921265e+00 -1.57018018e+00 -1.44491422e+00 9.44830358e-01
      8.70103359e-01 3.81211847e-01 6.94353700e-01 2.70962763e+00
      -3.87600482e-01 -8.62401187e-01 -6.80728912e-01 2.05636883e+00
      -9.48090434e-01 -1.39094019e+00 -1.29171216e+00 1.22111964e+00
      1.40838289e+00 1.00209665e+00 1.26371884e+00 2.85302711e+00
      2.74208844e-01 -1.82898164e-01 -6.60437066e-03 2.43599844e+00
      -3.85234654e-01 -9.00179684e-01 -7.76367724e-01 1.92867386e+00
      1.07328691e-01 2.91464832e-02 6.31228760e-02 -8.80988538e-01
      -3.71891558e-02 -9.38536674e-02 -4.18502055e-02 -8.67631614e-01
      -7.97037929e-02 -4.63578627e-02 -1.12870432e-01 -9.15609181e-01
      -1.78622548e-02 -1.51398361e-01 -4.96003814e-02 -8.69841099e-01
      -1.05686948e-01 -1.77184537e-01 -1.16548933e-01 -8.60470474e-01
      -1.86318308e-01 -1.16671391e-01 -2.10482344e-01 -9.29893315e-01
      -6.35890961e-02 -1.49813056e-01 -7.11781457e-02 -8.83348405e-01
      -8.19916800e-02 -1.95351750e-01 -7.85519406e-02 -8.55234861e-01</_>
    <_>
      -3.78398001e-01 -9.53751564e-01 -2.68103361e-01 2.38584042e+00
      -1.17250133e+00 -1.59716892e+00 -1.36424351e+00 9.70774949e-01
      6.17816865e-01 1.01049133e-01 7.66653419e-01 2.77158451e+00
      -5.45017540e-01 -1.10310686e+00 -6.56284630e-01 2.09131908e+00
      -9.02003169e-01 -1.47638309e+00 -1.21443367e+00 1.24293339e+00
      1.15537453e+00 7.17755616e-01 1.30312622e+00 2.92215109e+00
      3.13936956e-02 -5.14884830e-01 -1.56210847e-02 2.48113179e+00
      -4.56901431e-01 -1.12152863e+00 -7.43345201e-01 1.95661318e+00
      2.66230255e-01 -2.13125348e-02 9.26666483e-02 -7.61761367e-01
      -1.16618155e-02 -1.17871411e-01 4.99134092e-03 -6.94867611e-01
      1.59152389e-01 -6.03642724e-02 -1.26180872e-01 -8.26870799e-01
      1.32432967e-01 -2.44897619e-01 -4.92398217e-02 -7.27536738e-01
      -6.17391542e-02 -2.27283612e-01 -8.54963511e-02 -6.93129659e-01
      9.50489640e-02 -6.68248162e-02 -2.03884691e-01 -8.54663253e-01
      1.76421776e-01 -2.29405925e-01 -8.09132010e-02 -7.67115772e-01
      5.34878261e-02 -3.01262230e-01 -9.10050571e-02 -7.06984818e-01</_>
    <_>
      -2.21329033e-01 -1.04069269e+00 -4.12115157e-01 2.36912894e+00
      -1.04668665e+00 -1.60246503e+00 -1.41251361e+00 9.82225001e-01
      7.79514730e-01 6.39120722e-03 6.03923798e-01 2.74318743e+00
      -3.98578584e-01 -1.13226092e+00 -7.92417645e-01 2.08076000e+00
      -7.33343244e-01 -1.52026725e+00 -1.30191445e+00 1.25072277e+00
      1.32124865e+00 6.52785361e-01 1.14701962e+00 2.88842702e+00
      1.99031889e-01 -5.23893714e-01 -1.72857046e-01 2.45935106e+00
      -2.63882875e-01 -1.16579425e+00 -8.80499303e-01 1.94867003e+00
      3.03516567e-01 -2.77117193e-02 9.48247313e-02 -7.65759408e-01
      2.37305835e-02 -8.66424963e-02 1.84302554e-02 -7.07081079e-01
      1.34237736e-01 -2.87997443e-02 -1.20417781e-01 -8.11514974e-01
      2.16944128e-01 -2.64299303e-01 -8.37425143e-02 -7.36881137e-01
      -6.56733662e-03 -2.07765505e-01 -8.01969767e-02 -7.03754425e-01
      3.22918408e-02 -3.93260121e-02 -1.89280182e-01 -8.30297649e-01
      2.49519542e-01 -2.63284743e-01 -1.39057681e-01 -7.64876008e-01
      1.56966731e-01 -3.20798039e-01 -1.40677750e-01 -7.22605824e-01</_>
    <_>
      -2.58132428e-01 -8.85093153e-01 -4.60925192e-01 2.39199615e+00
      -1.20990789e+00 -1.48732913e+00 -1.37023854e+00 9.89162743e-01
      7.65685678e-01 1.89160019e-01 5.62596262e-01 2.76772785e+00
      -4.70332891e-01 -9.11377668e-01 -7.11925983e-01 2.10734200e+00
      -9.78139937e-01 -1.35257101e+00 -1.19847918e+00 1.26534581e+00
      1.31157541e+00 8.41609478e-01 1.14320517e+00 2.91270638e+00
      1.78543925e-01 -2.67104894e-01 -6.57138303e-02 2.49009252e+00
      -4.62865919e-01 -9.33194876e-01 -7.22641766e-01 1.97781217e+00
      1.44041672e-01 6.57914504e-02 1.34693265e-01 -8.65613639e-01
      -2.95861233e-02 -1.01439424e-01 -4.17565480e-02 -8.50591183e-01
      -3.43170725e-02 4.91832606e-02 1.03949569e-02 -8.92075896e-01
      -3.29633765e-02 -1.69358522e-01 -1.61182508e-02 -8.51461232e-01
      -1.03700705e-01 -1.91569656e-01 -1.19758986e-01 -8.41330111e-01
      -1.19631939e-01 3.14503006e-04 -7.64547065e-02 -9.03458714e-01
      -7.76457861e-02 -1.59369737e-01 -6.86001312e-03 -8.61185074e-01
      -8.34794492e-02 -1.99994937e-01 -8.77975151e-02 -8.35487962e-01</_>
    <_>
      -1.68114230e-01 -7.19800055e-01 -3.32994908e-01 2.33571887e+00
      -1.25451529e+00 -1.58644962e+00 -1.44209957e+00 9.32425439e-01
      8.61036301e-01 3.74545902e-01 7.38538742e-01 2.71254754e+00
      -4.13355529e-01 -8.40047002e-01 -6.05736196e-01 2.05574155e+00
      -1.01893735e+00 -1.39422882e+00 -1.20998287e+00 1.21403205e+00
      1.37961984e+00 9.74590063e-01 1.28202736e+00 2.85808659e+00
      2.33296603e-01 -1.73581839e-01 6.48692623e-02 2.44048834e+00
      -4.54362720e-01 -8.91791940e-01 -6.54468298e-01 1.93094456e+00
      8.46344680e-02 1.25548569e-02 4.43289988e-02 -9.01737571e-01
      -4.18674201e-02 -1.18611529e-01 -4.30262685e-02 -8.84635031e-01
      -1.04542337e-01 -6.82949368e-03 -1.27930015e-01 -9.36712682e-01
      -2.58555319e-02 -1.51991874e-01 -7.22003654e-02 -8.85322750e-01
      -1.06004648e-01 -1.89877495e-01 -1.20920718e-01 -8.75093460e-01
      -1.91787690e-01 -3.27735282e-02 -1.97369933e-01 -9.53507483e-01
      -5.06459065e-02 -1.20117426e-01 -8.31853375e-02 -9.02001560e-01
      -7.41646364e-02 -1.81755766e-01 -1.17085487e-01 -8.72007608e-01</_>
    <_>
      -2.71326393e-01 -7.05224991e-01 -3.86384547e-01 2.35638380e+00
      -1.32487810e+00 -1.51778591e+00 -1.41619718e+00 9.36053038e-01
      8.00199747e-01 4.15061325e-01 6.93847358e-01 2.73593807e+00
      -4.92526472e-01 -7.85803318e-01 -6.25203967e-01 2.06655741e+00
      -1.09896970e+00 -1.33228743e+00 -1.20035207e+00 1.21414042e+00
      1.35598385e+00 1.04199946e+00 1.27133548e+00 2.88303804e+00
      1.85634956e-01 -1.05590045e-01 5.57921641e-02 2.45527482e+00
      -5.33597231e-01 -8.24904501e-01 -6.58562839e-01 1.93658710e+00
      6.00261725e-02 6.18005283e-02 7.69019648e-02 -8.85828614e-01
      -7.18625858e-02 -1.03390150e-01 -8.22569132e-02 -8.62091720e-01
      -1.30872667e-01 1.81266014e-02 -6.40635565e-02 -9.26466763e-01
      -9.24638733e-02 -1.14768721e-01 -6.82312474e-02 -8.57216835e-01
      -1.55909285e-01 -1.58944383e-01 -1.53973803e-01 -8.42013001e-01
      -2.08439797e-01 -3.98256108e-02 -1.41837180e-01 -9.46157098e-01
      -1.29129663e-01 -1.05557978e-01 -6.79161251e-02 -8.78040612e-01
      -1.51978835e-01 -1.40457779e-01 -1.25185579e-01 -8.36207211e-01</_>
    <_>
      -3.25749993e-01 -1.02586997e+00 -5.24806499e-01 2.51627779e+00
      -1.04657567e+00 -1.32364905e+00 -1.28627348e+00 1.10706210e+00
      4.61973846e-01 -2.47249261e-01 2.91580379e-01 2.89531231e+00
      -5.90912461e-01 -9.55113351e-01 -8.47992778e-01 2.23191953e+00
      -8.11490834e-01 -1.23339057e+00 -1.13376081e+00 1.38622928e+00
      9.34257805e-01 2.75478601e-01 7.80617654e-01 3.04136658e+00
      -1.10234663e-01 -5.25292277e-01 -3.69446307e-01 2.61687374e+00
      -4.48057115e-01 -1.00308979e+00 -8.38046849e-01 2.10231805e+00
      2.89803505e-01 1.20045878e-01 1.91421375e-01 -7.44788349e-01
      -5.49217034e-03 -3.60126607e-02 -2.51746085e-03 -7.31622279e-01
      1.49351001e-01 1.20779939e-01 8.67065787e-02 -7.80639172e-01
      6.85156584e-02 -1.67038590e-01 -6.72730953e-02 -7.44587123e-01
      -1.09937139e-01 -1.92947611e-01 -1.43539816e-01 -7.38653958e-01
      9.75211188e-02 1.35950834e-01 4.37953062e-02 -7.95204639e-01
      1.03816390e-01 -1.64086804e-01 -5.23534082e-02 -7.58725643e-01
      -8.32357164e-03 -2.55843282e-01 -1.61472857e-01 -7.40913808e-01</_>
    <_>
      -3.89713764e-01 -1.00832307e+00 -4.22997624e-01 2.51929140e+00
      -1.11920273e+00 -1.30661464e+00 -1.25409245e+00 1.10314310e+00
      4.59867358e-01 -2.41610751e-01 3.98143500e-01 2.89996600e+00
      -6.52368903e-01 -9.77950931e-01 -8.18264842e-01 2.23244619e+00
      -8.71785700e-01 -1.15977216e+00 -1.09898853e+00 1.38273275e+00
      9.29366767e-01 2.48834103e-01 8.56638193e-01 3.04630542e+00
      -1.91881835e-01 -5.67633331e-01 -3.59698653e-01 2.61801481e+00
      -5.20702422e-01 -9.24962103e-01 -7.86602378e-01 2.10007691e+00
      2.77655959e-01 1.34363368e-01 1.95665717e-01 -7.52406418e-01
      3.80215934e-03 -5.18767163e-02 7.39353345e-05 -7.38850892e-01
      1.37684569e-01 1.01507254e-01 3.50157097e-02 -7.88110077e-01
      6.51171133e-02 -1.39610261e-01 -5.88430278e-02 -7.49618292e-01
      -1.22120373e-01 -1.86009124e-01 -1.50207460e-01 -7.43391573e-01
      9.31301191e-02 1.15769848e-01 -1.67672597e-02 -8.02448571e-01
      1.12803496e-01 -1.16570622e-01 -4.07315195e-02 -7.62830615e-01
      -4.36021127e-02 -2.28643298e-01 -1.59425646e-01 -7.42185235e-01</_>
    <_>
      -4.18844432e-01 -8.03911805e-01 -3.56733650e-01 2.42661405e+00
      -1.26811469e+00 -1.40742433e+00 -1.34001684e+00 9.98332620e-01
      6.02289200e-01 2.41670758e-01 6.69510663e-01 2.80847406e+00
      -6.31321371e-01 -8.56229246e-01 -6.50233507e-01 2.13140726e+00
      -1.00453603e+00 -1.25153852e+00 -1.20027614e+00 1.27327275e+00
      1.15961170e+00 8.64181876e-01 1.22316909e+00 2.95551705e+00
      -2.46602707e-02 -2.41065279e-01 -1.73236951e-02 2.51893902e+00
      -5.50006449e-01 -8.48746419e-01 -7.24695325e-01 1.99292827e+00
      1.47901833e-01 1.07065268e-01 1.00076124e-01 -8.53063285e-01
      -7.89511129e-02 -1.02232590e-01 -7.52157941e-02 -8.37140977e-01
      1.85697395e-02 4.31633703e-02 -8.02639052e-02 -8.83110046e-01
      -9.95614473e-03 -1.17674939e-01 -1.11340895e-01 -8.31855237e-01
      -1.63829803e-01 -1.78564906e-01 -1.82116672e-01 -8.18988860e-01
      -3.51329558e-02 -1.32826171e-04 -1.50109634e-01 -8.96465480e-01
      2.97591109e-02 -1.08619787e-01 -1.25958085e-01 -8.40922475e-01
      -9.30401161e-02 -1.44700199e-01 -1.91116601e-01 -8.06272388e-01</_>
    <_>
      -3.05268854e-01 -9.74137723e-01 -4.47127044e-01 2.44127798e+00
      -1.23546839e+00 -1.38319182e+00 -1.29860568e+00 1.03084970e+00
      6.75645351e-01 3.85415517e-02 5.51677048e-01 2.82025814e+00
      -6.19893610e-01 -8.82972181e-01 -7.16322005e-01 2.15767765e+00
      -1.03890502e+00 -1.25178075e+00 -1.10606658e+00 1.31178188e+00
      1.20989954e+00 6.75882220e-01 1.11026990e+00 2.96665192e+00
      -3.38638462e-02 -2.96361506e-01 -1.17710635e-01 2.54392123e+00
      -6.16575599e-01 -8.78238082e-01 -6.86779857e-01 2.03054404e+00
      1.57008022e-01 1.34646997e-01 1.56117931e-01 -8.19264770e-01
      -4.18561548e-02 -7.75667801e-02 -5.11703640e-02 -8.03821445e-01
      -5.22563346e-02 1.19040452e-01 -1.50950933e-02 -8.53178918e-01
      -4.63518128e-02 -1.27469093e-01 -3.69773619e-02 -8.07106793e-01
      -1.39257863e-01 -1.98054209e-01 -1.43840611e-01 -7.97348738e-01
      -1.45012498e-01 8.02443624e-02 -9.62573215e-02 -8.68119717e-01
      -6.14792779e-02 -1.01665139e-01 -2.59481054e-02 -8.21561873e-01
      -1.03572682e-01 -1.97500885e-01 -9.73634124e-02 -7.93569684e-01</_>
    <_>
      -1.76573858e-01 -9.83998120e-01 -5.04852116e-01 2.40522146e+00
      -1.01953542e+00 -1.52256370e+00 -1.44715595e+00 9.98604894e-01
      7.91438520e-01 -2.56320345e-03 4.90196794e-01 2.78286457e+00
      -3.74580204e-01 -1.06260586e+00 -8.40415895e-01 2.10906506e+00
      -7.40373313e-01 -1.40815711e+00 -1.32759285e+00 1.26539338e+00
      1.31536698e+00 5.73019207e-01 1.02363324e+00 2.92905354e+00
      2.13766366e-01 -5.22159934e-01 -2.49518052e-01 2.49056983e+00
      -2.67665625e-01 -1.07969165e+00 -9.19438839e-01 1.96925032e+00
      2.85770863e-01 2.92546935e-02 8.99589807e-02 -7.97435701e-01
      1.63462805e-03 -6.46695495e-02 -4.47071856e-03 -7.43874371e-01
      1.39233768e-01 -2.56507657e-04 -7.62279853e-02 -8.28045547e-01
      1.76238239e-01 -2.07387105e-01 -1.36292040e-01 -7.64132142e-01
      -4.54908162e-02 -1.93677068e-01 -1.28119543e-01 -7.24378347e-01
      5.73490337e-02 1.18491901e-02 -1.08367868e-01 -8.40762079e-01
      2.09957600e-01 -2.01607421e-01 -1.58349827e-01 -7.80045986e-01
      9.60622802e-02 -2.64602095e-01 -2.03062460e-01 -7.34056413e-01</_>
    <_>
      -1.01429513e-02 -8.67017925e-01 -4.89804715e-01 2.30712080e+00
      -9.52165425e-01 -1.65965784e+00 -1.62297559e+00 9.26204562e-01
      9.58291709e-01 2.30635017e-01 6.06219411e-01 2.68094730e+00
      -1.10720508e-01 -9.72760677e-01 -8.28670084e-01 2.02184057e+00
      -6.52684927e-01 -1.52440083e+00 -1.47038460e+00 1.19333541e+00
      1.44881010e+00 8.49159777e-01 1.16799641e+00 2.82630086e+00
      4.98799980e-01 -3.02742779e-01 -1.25947893e-01 2.40119791e+00
      -9.31409523e-02 -1.04969406e+00 -9.24806714e-01 1.89203727e+00
      2.42502823e-01 -5.08300178e-02 -1.72029845e-02 -8.43262672e-01
      -6.96491590e-03 -9.42401662e-02 -1.85655188e-02 -8.00687015e-01
      1.06287740e-01 -6.28905892e-02 -1.80070773e-01 -8.76531422e-01
      1.11312702e-01 -2.47012749e-01 -1.53409287e-01 -8.18365037e-01
      -4.31696847e-02 -2.04552293e-01 -1.13152966e-01 -7.94076800e-01
      2.74484735e-02 -5.80919869e-02 -2.09929809e-01 -8.91181350e-01
      1.14449784e-01 -2.52749264e-01 -1.89666569e-01 -8.33696246e-01
      6.66133612e-02 -2.84156412e-01 -1.77056491e-01 -7.98280656e-01</_>
    <_>
      -1.85938090e-01 -8.49274218e-01 -3.42772990e-01 2.31518340e+00
      -1.16170692e+00 -1.67699444e+00 -1.46486783e+00 9.21337366e-01
      8.43193412e-01 2.70185947e-01 7.36072361e-01 2.69137788e+00
      -3.71005088e-01 -1.00060189e+00 -6.70956254e-01 2.02735734e+00
      -9.09582257e-01 -1.52571225e+00 -1.28213847e+00 1.19080901e+00
      1.36420548e+00 8.91441762e-01 1.28858709e+00 2.83768296e+00
      2.62935013e-01 -3.31267834e-01 -5.40740904e-04 2.41019344e+00
      -3.73375982e-01 -1.06849754e+00 -7.57574379e-01 1.89720225e+00
      2.20523715e-01 -6.60810769e-02 5.39275929e-02 -8.60546887e-01
      2.96206158e-02 -1.26919150e-01 3.41346636e-02 -8.25950146e-01
      5.60144484e-02 -9.00251418e-02 -1.49676651e-01 -8.96576464e-01
      1.33638158e-01 -2.65733957e-01 -1.10009843e-02 -8.35646391e-01
      7.26803998e-03 -2.41924942e-01 -2.04155650e-02 -8.13904166e-01
      -7.63249537e-03 -9.25946981e-02 -2.18080118e-01 -9.13372695e-01
      1.31257460e-01 -2.58195966e-01 -4.80983630e-02 -8.51330817e-01
      9.98682529e-02 -3.14259499e-01 -2.06202902e-02 -8.12623918e-01</_>
    <_>
      1.34305283e-02 -9.23915505e-01 -4.26304519e-01 2.27523708e+00
      -9.51994300e-01 -1.74037504e+00 -1.56112742e+00 9.19859350e-01
      1.01044095e+00 2.15666905e-01 6.58923984e-01 2.64268637e+00
      -1.43199936e-01 -1.09207761e+00 -8.18590522e-01 1.99415135e+00
      -6.45873904e-01 -1.60548556e+00 -1.43552983e+00 1.18204570e+00
      1.51411116e+00 8.38983297e-01 1.21400952e+00 2.78538013e+00
      4.82471138e-01 -4.12789196e-01 -1.35633931e-01 2.36592937e+00
      -9.38002244e-02 -1.14273107e+00 -9.31778967e-01 1.86621416e+00
      2.37450868e-01 -8.55415389e-02 2.85455473e-02 -8.20256591e-01
      2.44851820e-02 -1.12422653e-01 1.07827354e-02 -7.76001632e-01
      5.24657369e-02 -8.43021274e-02 -1.62219509e-01 -8.55833352e-01
      1.68728366e-01 -2.68606186e-01 -7.80838132e-02 -8.02174568e-01
      -2.53027515e-03 -2.03696638e-01 -6.95920065e-02 -7.76514053e-01
      -5.07880524e-02 -7.19982684e-02 -2.20545858e-01 -8.72215092e-01
      1.59887403e-01 -2.47332036e-01 -1.20969832e-01 -8.20351005e-01
      1.17664829e-01 -3.12082022e-01 -1.16557702e-01 -7.87729502e-01</_>
    <_>
      -1.09158680e-01 -7.51493573e-01 -4.86296862e-01 2.34580660e+00
      -1.16803372e+00 -1.55000365e+00 -1.47139859e+00 9.51316178e-01
      8.87970030e-01 3.33643049e-01 5.68530738e-01 2.71925259e+00
      -3.62698495e-01 -8.66706192e-01 -7.29463816e-01 2.06383705e+00
      -9.37933087e-01 -1.39556205e+00 -1.28100169e+00 1.22682953e+00
      1.40381253e+00 9.42643821e-01 1.14771152e+00 2.86360168e+00
      2.63870001e-01 -2.12367281e-01 -5.60990125e-02 2.44480252e+00
      -4.14723754e-01 -9.46916699e-01 -7.73766398e-01 1.93596542e+00
      1.19614586e-01 3.59026417e-02 8.58650431e-02 -9.01972473e-01
      -3.59267108e-02 -7.68921152e-02 -4.49943654e-02 -8.92959893e-01
      -6.28555566e-02 -5.08090341e-03 -4.46833000e-02 -9.24236476e-01
      1.10602928e-02 -1.20632187e-01 -6.59603104e-02 -8.91395032e-01
      -1.00376487e-01 -1.50953442e-01 -1.19755276e-01 -8.84133399e-01
      -1.58830836e-01 -5.16281873e-02 -1.25126690e-01 -9.34559226e-01
      6.40896091e-04 -1.17383949e-01 -8.25252831e-02 -8.98837149e-01
      -2.00086255e-02 -1.37544379e-01 -1.10994898e-01 -8.78806055e-01</_>
    <_>
      -2.39430726e-01 -7.62738168e-01 -3.06055367e-01 2.33820653e+00
      -1.26155353e+00 -1.53491068e+00 -1.45610523e+00 9.17651117e-01
      8.68412435e-01 3.89612734e-01 8.10590923e-01 2.72049713e+00
      -4.58549380e-01 -8.41035664e-01 -6.46718264e-01 2.03866863e+00
      -9.74192083e-01 -1.32280183e+00 -1.27323985e+00 1.18612659e+00
      1.44493747e+00 1.03018260e+00 1.38248348e+00 2.86831093e+00
      2.37703219e-01 -1.43139213e-01 7.35025704e-02 2.42506695e+00
      -4.08549219e-01 -8.12376142e-01 -7.01968610e-01 1.89754844e+00
      1.12822674e-01 6.26552757e-03 5.50389383e-03 -8.84866238e-01
      -4.69678752e-02 -1.13094315e-01 -5.91918938e-02 -8.44983041e-01
      -1.06525920e-01 -1.10022642e-01 -2.36776620e-01 -9.17907357e-01
      1.53555470e-02 -1.44587010e-01 -1.12076983e-01 -8.56615782e-01
      -9.67114717e-02 -1.68395698e-01 -1.31450653e-01 -8.31416130e-01
      -2.23935232e-01 -1.60506517e-01 -3.22912246e-01 -9.32218194e-01
      -1.23926848e-02 -1.49119288e-01 -1.51338547e-01 -8.67902279e-01
      -3.96958478e-02 -1.48119822e-01 -1.29398584e-01 -8.26956511e-01</_>
    <_>
      -2.39176750e-01 -7.85100758e-01 -4.01318818e-01 2.38340664e+00
      -1.23761356e+00 -1.47254491e+00 -1.35862815e+00 9.85519707e-01
      8.04064095e-01 2.79153436e-01 6.29719615e-01 2.75819159e+00
      -4.92033064e-01 -9.04530704e-01 -6.88347876e-01 2.10217619e+00
      -9.95783210e-01 -1.35092819e+00 -1.21481872e+00 1.26348090e+00
      1.34986794e+00 8.92898262e-01 1.18377960e+00 2.90297031e+00
      1.55969620e-01 -2.91366249e-01 -6.76618144e-02 2.48455191e+00
      -4.84645486e-01 -9.57335353e-01 -7.73955166e-01 1.97553194e+00
      1.13762133e-01 7.01954216e-02 1.10286132e-01 -8.48448157e-01
      -5.68774715e-02 -1.01677790e-01 -6.16218634e-02 -8.33900750e-01
      -6.71555400e-02 8.08004476e-03 -6.51498362e-02 -8.79711926e-01
      -3.50838155e-02 -1.20870039e-01 -7.25407675e-02 -8.33493233e-01
      -1.45278007e-01 -1.82419643e-01 -1.51348084e-01 -8.23772311e-01
      -1.44933909e-01 -2.32761744e-02 -1.38507649e-01 -8.94782424e-01
      -3.94226536e-02 -8.74838382e-02 -9.12630111e-02 -8.46281469e-01
      -1.07740924e-01 -1.48528114e-01 -1.18183255e-01 -8.18064034e-01</_>
    <_>
      -3.38965029e-01 -1.04906714e+00 -4.49953586e-01 2.51522923e+00
      -1.04967988e+00 -1.33227122e+00 -1.30795062e+00 1.09771252e+00
      4.41789269e-01 -3.27000707e-01 3.57221484e-01 2.89882159e+00
      -6.30378008e-01 -1.00604367e+00 -9.07673597e-01 2.22467184e+00
      -8.25909317e-01 -1.17265558e+00 -1.13029671e+00 1.37360740e+00
      8.73451948e-01 1.17328994e-01 7.84431756e-01 3.04701090e+00
      -2.19911411e-01 -6.29242718e-01 -4.87030715e-01 2.61238861e+00
      -5.16009688e-01 -9.62116420e-01 -8.66571486e-01 2.08993816e+00
      3.32591504e-01 1.16082370e-01 1.64587304e-01 -7.33215153e-01
      1.58416815e-02 -2.33649630e-02 8.20249412e-03 -7.02522457e-01
      2.06371903e-01 1.12534873e-01 4.86609936e-02 -7.67950714e-01
      1.42914444e-01 -1.28101334e-01 -6.78291768e-02 -7.18102276e-01
      -7.71885961e-02 -1.55717999e-01 -1.29540443e-01 -7.00221539e-01
      1.49294302e-01 1.49901643e-01 2.41329353e-02 -7.83109128e-01
      1.96022213e-01 -1.13673545e-01 -4.60941456e-02 -7.32866883e-01
      3.99135239e-02 -2.00099394e-01 -1.48567155e-01 -7.03763545e-01</_>
    <_>
      -3.37546974e-01 -9.88525510e-01 -3.85488093e-01 2.39620876e+00
      -1.13348973e+00 -1.56083000e+00 -1.36476707e+00 9.88122344e-01
      6.65797472e-01 5.81633747e-02 6.24867439e-01 2.77831054e+00
      -5.06413400e-01 -1.09335804e+00 -7.22107947e-01 2.10312271e+00
      -8.69604111e-01 -1.48495758e+00 -1.25243676e+00 1.26027882e+00
      1.21250165e+00 6.83971584e-01 1.17359209e+00 2.92745018e+00
      8.93131569e-02 -4.97685343e-01 -9.82322469e-02 2.49133325e+00
      -4.31362092e-01 -1.15284836e+00 -8.13632965e-01 1.97189963e+00
      2.53968000e-01 2.11421773e-02 1.24678038e-01 -7.56609559e-01
      8.17426108e-03 -1.07925572e-01 -9.29725182e-04 -6.89755201e-01
      1.07772976e-01 -1.02869803e-02 -4.72625457e-02 -8.14877689e-01
      1.42968804e-01 -2.43267447e-01 -6.67807981e-02 -7.19888508e-01
      -3.14809531e-02 -2.39923880e-01 -9.24278945e-02 -6.89176619e-01
      4.22650501e-02 -4.88912640e-03 -9.86314937e-02 -8.38729084e-01
      1.56333476e-01 -2.35067070e-01 -9.49647427e-02 -7.58412600e-01
      9.46829617e-02 -3.15307379e-01 -1.19595259e-01 -7.07442641e-01</_>
    <_>
      -2.07127213e-01 -8.66420984e-01 -3.62855494e-01 2.32531118e+00
      -1.18040955e+00 -1.67786634e+00 -1.42327881e+00 9.30831850e-01
      8.20774853e-01 2.60336459e-01 7.10487843e-01 2.70120859e+00
      -4.12551641e-01 -1.02571881e+00 -6.46736145e-01 2.03727698e+00
      -9.37714458e-01 -1.54332638e+00 -1.23902214e+00 1.20107138e+00
      1.35216630e+00 8.95953894e-01 1.27534258e+00 2.84770584e+00
      2.20242113e-01 -3.55496168e-01 2.74623726e-02 2.42001891e+00
      -4.17143792e-01 -1.08971417e+00 -7.15690374e-01 1.90728533e+00
      2.12217227e-01 -6.43892288e-02 9.27575603e-02 -8.48554373e-01
      3.40897739e-02 -1.25360757e-01 3.76365520e-02 -8.15571368e-01
      3.39810289e-02 -9.67286974e-02 -1.18874438e-01 -8.83735001e-01
      1.32461935e-01 -2.56452292e-01 -1.39868129e-02 -8.17899168e-01
      8.37794878e-03 -2.45118678e-01 -1.80806201e-02 -7.94436812e-01
      -4.58126478e-02 -1.10186137e-01 -1.94099888e-01 -9.01314259e-01
      1.26022294e-01 -2.44028494e-01 -5.33127151e-02 -8.34210217e-01
      9.97782797e-02 -3.18551600e-01 -2.01690253e-02 -7.88853467e-01</_>
    <_>
      5.50282784e-02 -9.22825396e-01 -4.64908987e-01 2.28951979e+00
      -8.65059376e-01 -1.69718277e+00 -1.58672082e+00 9.36541378e-01
      1.03255534e+00 1.73592299e-01 6.05532050e-01 2.65459514e+00
      -5.99246323e-02 -1.10146475e+00 -8.67866874e-01 2.00703073e+00
      -5.45998752e-01 -1.58584619e+00 -1.48361826e+00 1.19645131e+00
      1.52363729e+00 7.94831216e-01 1.15955210e+00 2.79608440e+00
      5.40970802e-01 -4.42496955e-01 -2.05046058e-01 2.37635279e+00
      -4.01459634e-03 -1.15036941e+00 -1.00376356e+00 1.87662423e+00
      2.51820534e-01 -7.00554326e-02 -5.29677724e-04 -7.96225548e-01
      3.50987632e-03 -9.27522779e-02 -9.31965932e-03 -7.42739499e-01
      8.07561725e-02 -7.41126165e-02 -1.88541383e-01 -8.28272164e-01
      1.56259879e-01 -2.67296314e-01 -1.58599928e-01 -7.69916415e-01
      -4.05977964e-02 -2.09882230e-01 -1.23199359e-01 -7.36137390e-01
      -5.13096573e-03 -5.72223812e-02 -2.35449567e-01 -8.41879487e-01
      1.73946723e-01 -2.53949553e-01 -1.96194768e-01 -7.85604715e-01
      9.51571241e-02 -3.43481779e-01 -2.18919918e-01 -7.47231066e-01</_>
    <_>
      -7.27021247e-02 -7.95734465e-01 -3.89255702e-01 2.30223036e+00
      -1.11354303e+00 -1.61730230e+00 -1.47760129e+00 9.28783059e-01
      9.72166777e-01 3.44655633e-01 7.00291097e-01 2.67113376e+00
      -2.57671893e-01 -9.28353548e-01 -6.82545781e-01 2.02492356e+00
      -8.36947918e-01 -1.48115635e+00 -1.32299209e+00 1.20077157e+00
      1.50001276e+00 9.76265967e-01 1.27606618e+00 2.81349206e+00
      4.08164889e-01 -2.39426032e-01 1.17703192e-02 2.40047383e+00
      -2.64124066e-01 -1.00369895e+00 -7.89233208e-01 1.89932036e+00
      1.27441674e-01 -2.74396990e-03 5.97125702e-02 -8.85610759e-01
      -2.03216821e-02 -1.13972187e-01 -2.38860752e-02 -8.75540912e-01
      -8.08294192e-02 -7.48304427e-02 -1.32214978e-01 -9.15050685e-01
      1.49877025e-02 -1.75099254e-01 -6.23126701e-02 -8.80825877e-01
      -8.35184082e-02 -1.78961441e-01 -8.65574256e-02 -8.74475420e-01
      -1.83164492e-01 -1.40054822e-01 -2.46623993e-01 -9.27231073e-01
      -1.66952871e-02 -1.79714367e-01 -1.29039481e-01 -8.91587555e-01
      -1.87498946e-02 -1.87446207e-01 -1.01632148e-01 -8.71684253e-01</_>
    <_>
      -1.28365725e-01 -7.01655507e-01 -3.34306389e-01 2.32095838e+00
      -1.27123010e+00 -1.59475791e+00 -1.40829253e+00 9.26189959e-01
      8.99146974e-01 3.84038806e-01 7.19250858e-01 2.69369197e+00
      -4.25928086e-01 -8.86506259e-01 -5.95448792e-01 2.03725052e+00
      -1.03864825e+00 -1.46110630e+00 -1.20629525e+00 1.19951439e+00
      1.41050887e+00 9.82177496e-01 1.26974475e+00 2.83726335e+00
      2.17756480e-01 -2.26197124e-01 7.30991885e-02 2.41733313e+00
      -4.93620366e-01 -1.01079869e+00 -6.70281172e-01 1.90717185e+00
      7.40466937e-02 1.51314242e-02 9.61255431e-02 -9.03754532e-01
      -1.63027868e-02 -1.31209910e-01 -1.41539834e-02 -8.89088035e-01
      -1.14636615e-01 -5.06373215e-03 -5.52503504e-02 -9.32437539e-01
      -2.14951858e-03 -1.65942058e-01 -1.62445661e-02 -8.86418462e-01
      -8.92451331e-02 -2.29114234e-01 -7.69673809e-02 -8.74882996e-01
      -1.94626361e-01 -3.48033495e-02 -1.41954482e-01 -9.46280956e-01
      -1.82148740e-02 -1.49851203e-01 -4.86232974e-02 -8.98902893e-01
      -4.98647802e-02 -2.17269063e-01 -5.43531738e-02 -8.69355857e-01</_>
    <_>
      -3.36347848e-01 -7.53226578e-01 -3.16505849e-01 2.36559772e+00
      -1.39688635e+00 -1.52267051e+00 -1.28646135e+00 9.49312508e-01
      7.10365832e-01 3.33881497e-01 7.33288348e-01 2.74395919e+00
      -6.17610514e-01 -8.31587613e-01 -4.94325370e-01 2.07959461e+00
      -1.18442023e+00 -1.36615038e+00 -1.05060959e+00 1.23017466e+00
      1.25142360e+00 9.46671665e-01 1.28864288e+00 2.89027953e+00
      3.96112017e-02 -1.85751021e-01 1.63536772e-01 2.46733761e+00
      -6.54309988e-01 -8.92004728e-01 -5.13339818e-01 1.95281553e+00
      6.33918121e-02 3.61637957e-02 1.34798929e-01 -8.93261790e-01
      -4.34533209e-02 -1.49844021e-01 -4.65978161e-02 -8.72746527e-01
      -8.88385475e-02 4.91437130e-02 -2.25073397e-02 -9.30751085e-01
      -6.25412017e-02 -1.80506259e-01 -1.67067032e-02 -8.72226596e-01
      -1.18559942e-01 -2.44604707e-01 -1.04383372e-01 -8.59553516e-01
      -1.34508058e-01 3.35150398e-02 -9.20419395e-02 -9.48322237e-01
      -7.36164674e-02 -1.30443856e-01 -2.16808170e-02 -8.91119182e-01
      -1.10571213e-01 -2.36568004e-01 -5.83932661e-02 -8.56951118e-01</_>
    <_>
      -5.11533916e-01 -9.67526853e-01 -2.37785742e-01 2.42796850e+00
      -1.30356336e+00 -1.46110737e+00 -1.21394002e+00 1.01333046e+00
      4.84191775e-01 2.69648340e-02 7.33743727e-01 2.80938315e+00
      -7.33597577e-01 -9.73138034e-01 -5.69005668e-01 2.14267302e+00
      -1.08007145e+00 -1.31761169e+00 -1.06045377e+00 1.29403508e+00
      1.04614019e+00 6.52203560e-01 1.25642216e+00 2.95701456e+00
      -1.54843077e-01 -4.11380857e-01 1.95959155e-02 2.53082824e+00
      -6.74379230e-01 -9.68402863e-01 -6.21907532e-01 2.01451755e+00
      2.11860031e-01 7.97902271e-02 1.98312059e-01 -7.99902260e-01
      -3.58590968e-02 -1.38071686e-01 -1.67454258e-02 -7.74844468e-01
      6.92992061e-02 8.00767243e-02 1.23894541e-02 -8.43353927e-01
      9.89636686e-03 -1.78203613e-01 2.31641252e-02 -7.78120518e-01
      -1.21997990e-01 -2.60614514e-01 -1.12381525e-01 -7.63051927e-01
      -2.31199600e-02 3.48381773e-02 -7.45666176e-02 -8.63872707e-01
      2.09713764e-02 -1.43156156e-01 2.80442964e-02 -8.00026000e-01
      -8.60032812e-02 -2.71947116e-01 -7.12082013e-02 -7.60358751e-01</_>
    <_>
      -2.56581455e-01 -6.84887409e-01 -3.14421326e-01 2.35526967e+00
      -1.31193542e+00 -1.51735473e+00 -1.42532074e+00 9.43565965e-01
      7.82599807e-01 3.85307878e-01 7.40015149e-01 2.73398590e+00
      -4.66726750e-01 -7.72620976e-01 -6.27097309e-01 2.07180595e+00
      -1.04819763e+00 -1.31906450e+00 -1.23349047e+00 1.22440767e+00
      1.32004118e+00 9.95326877e-01 1.29370952e+00 2.87989616e+00
      2.01745391e-01 -9.78580415e-02 5.14572263e-02 2.45774055e+00
      -4.66233104e-01 -8.06733310e-01 -6.86773419e-01 1.94355404e+00
      7.70857930e-02 6.20982610e-02 3.13785560e-02 -9.04953539e-01
      -8.36324915e-02 -9.89335552e-02 -7.76640475e-02 -8.87062490e-01
      -7.22695589e-02 3.81350517e-02 -1.10694714e-01 -9.36224937e-01
      -8.38794932e-02 -1.44130155e-01 -5.50352335e-02 -8.83699417e-01
      -1.63083643e-01 -1.75480261e-01 -1.51824340e-01 -8.71529043e-01
      -1.45854294e-01 -1.62597168e-02 -1.87090069e-01 -9.51489329e-01
      -1.16348915e-01 -1.47477761e-01 -5.45757264e-02 -8.98359895e-01
      -1.68234095e-01 -1.86052084e-01 -1.16589300e-01 -8.65401745e-01</_>
    <_>
      -1.86533913e-01 -8.69575679e-01 -4.20781016e-01 2.45454860e+00
      -1.18075824e+00 -1.46005476e+00 -1.31280863e+00 1.04729831e+00
      7.23476171e-01 5.77525236e-02 4.70545679e-01 2.83208013e+00
      -5.66093802e-01 -9.40148175e-01 -7.53624320e-01 2.17066741e+00
      -1.02972782e+00 -1.28508222e+00 -1.06584299e+00 1.32559323e+00
      1.19641232e+00 5.90463758e-01 9.47207332e-01 2.97734571e+00
      -4.88795489e-02 -4.11271513e-01 -2.29745120e-01 2.55485249e+00
      -6.45963848e-01 -9.39404428e-01 -6.61167920e-01 2.04111314e+00
      1.55642197e-01 7.93817118e-02 1.67197689e-01 -8.09208989e-01
      -7.78532308e-03 -8.33315775e-02 -1.18753472e-02 -7.96720922e-01
      -3.00643537e-02 7.71237984e-02 6.50028065e-02 -8.43944609e-01
      -2.86278687e-02 -1.52311668e-01 -7.05255009e-03 -8.06616306e-01
      -1.22438774e-01 -1.98028579e-01 -1.24043442e-01 -7.97520757e-01
      -1.26059294e-01 5.07378168e-02 1.58278886e-02 -8.58883798e-01
      -6.32999018e-02 -1.24246992e-01 1.59017723e-02 -8.20919514e-01
      -7.73496255e-02 -2.04169154e-01 -1.16430357e-01 -7.97778845e-01</_>
    <_>
      -4.05099064e-01 -1.00649190e+00 -4.82249826e-01 2.52484751e+00
      -1.10606301e+00 -1.31761193e+00 -1.25024569e+00 1.10661995e+00
      4.00260478e-01 -2.20675915e-01 3.27256948e-01 2.90628409e+00
      -6.60316110e-01 -9.56673324e-01 -8.18177640e-01 2.23797584e+00
      -8.78548861e-01 -1.20070338e+00 -1.08068979e+00 1.38645577e+00
      8.65622044e-01 2.90296793e-01 7.92826712e-01 3.05296302e+00
      -2.03129947e-01 -5.38729310e-01 -3.66494000e-01 2.62460089e+00
      -5.39101005e-01 -9.68687654e-01 -7.88782954e-01 2.10586619e+00
      2.79924244e-01 1.16931222e-01 2.24001005e-01 -7.45678723e-01
      8.57498217e-03 -5.48006371e-02 -3.24917468e-03 -7.33154476e-01
      1.30398214e-01 1.03718214e-01 1.12777293e-01 -7.82066405e-01
      4.02502567e-02 -1.64093196e-01 -1.42520089e-02 -7.41702616e-01
      -1.11898296e-01 -2.04262495e-01 -1.29154786e-01 -7.34693587e-01
      8.67673382e-02 1.16821900e-01 8.03295970e-02 -7.97472119e-01
      7.13136271e-02 -1.43162236e-01 2.61796694e-02 -7.55141914e-01
      -4.15989645e-02 -2.46912435e-01 -9.48455706e-02 -7.33252823e-01</_>
    <_>
      -3.05077404e-01 -1.02213025e+00 -4.24480200e-01 2.47614169e+00
      -1.04274678e+00 -1.45649171e+00 -1.32653797e+00 1.07560432e+00
      5.11630833e-01 -1.55268118e-01 4.34458822e-01 2.85582399e+00
      -5.78359246e-01 -1.04450929e+00 -8.73497725e-01 2.19169402e+00
      -8.08932900e-01 -1.31146824e+00 -1.15277600e+00 1.35141408e+00
      9.70311940e-01 3.78471881e-01 9.02579069e-01 3.00276685e+00
      -1.13958679e-01 -5.68973958e-01 -4.01417851e-01 2.57646585e+00
      -4.52424318e-01 -1.03827667e+00 -8.56284082e-01 2.06295156e+00
      3.13412756e-01 3.80978659e-02 1.65496200e-01 -7.44482160e-01
      3.75594087e-02 -4.73583117e-02 1.26334783e-02 -7.15839565e-01
      1.61454648e-01 6.89764842e-02 1.63386874e-02 -7.81959057e-01
      1.45150408e-01 -2.14087412e-01 -3.94959375e-02 -7.38449514e-01
      -5.20021766e-02 -1.81999370e-01 -1.14856102e-01 -7.22648680e-01
      1.01262145e-01 1.06145293e-01 -3.03278919e-02 -7.97482550e-01
      1.80435613e-01 -1.82400063e-01 -1.54823279e-02 -7.54897654e-01
      5.32228872e-02 -2.81319052e-01 -1.09464303e-01 -7.32337415e-01</_>
    <_>
      -1.42533794e-01 -7.88559079e-01 -4.10037756e-01 2.33660841e+00
      -1.10781109e+00 -1.60578942e+00 -1.49788284e+00 9.45428669e-01
      8.66452932e-01 2.92117834e-01 6.52767599e-01 2.71017528e+00
      -2.96803445e-01 -9.26798165e-01 -7.10865438e-01 2.05290508e+00
      -8.26769650e-01 -1.46090293e+00 -1.34987414e+00 1.21828413e+00
      1.37838590e+00 8.96523893e-01 1.20359147e+00 2.85488415e+00
      3.28007132e-01 -2.62903303e-01 -3.04069221e-02 2.43312216e+00
      -2.83084244e-01 -9.92418289e-01 -8.16275001e-01 1.92420554e+00
      1.84607118e-01 2.71806773e-03 3.60204540e-02 -8.82981062e-01
      -1.26549480e-02 -1.00007556e-01 -2.49325689e-02 -8.63495708e-01
      3.24323401e-02 -4.58936468e-02 -1.30018532e-01 -9.11278248e-01
      7.96767846e-02 -1.87198296e-01 -1.15079127e-01 -8.70443344e-01
      -6.26701564e-02 -1.95696041e-01 -1.00162327e-01 -8.57913852e-01
      -4.59535196e-02 -6.67029172e-02 -1.79816961e-01 -9.22216535e-01
      8.69513229e-02 -1.85122639e-01 -1.61618039e-01 -8.79139543e-01
      2.11737826e-02 -2.30259180e-01 -1.43133909e-01 -8.52936208e-01</_>
    <_>
      -4.75693077e-01 -8.92442942e-01 -3.31082344e-01 2.44400358e+00
      -1.30646026e+00 -1.38128781e+00 -1.24516618e+00 1.03192019e+00
      4.94724333e-01 9.35692415e-02 6.37527168e-01 2.82430434e+00
      -8.34654510e-01 -9.30424929e-01 -6.65728748e-01 2.15788746e+00
      -1.10760784e+00 -1.24205387e+00 -1.08439779e+00 1.31040394e+00
      1.03287423e+00 6.85739994e-01 1.15666270e+00 2.97116590e+00
      -3.04564804e-01 -3.93175036e-01 -9.85466838e-02 2.54426885e+00
      -7.69153416e-01 -9.13487792e-01 -6.96403205e-01 2.02786279e+00
      1.90244094e-01 1.48817465e-01 2.13480532e-01 -7.86734939e-01
      -4.71201986e-02 -9.90798026e-02 -4.17104103e-02 -7.65479326e-01
      1.53572997e-02 1.12972505e-01 5.57447225e-02 -8.26605082e-01
      1.67108960e-02 -1.12290420e-01 1.18831582e-02 -7.67710507e-01
      -1.48329049e-01 -2.04019874e-01 -1.55506954e-01 -7.53030598e-01
      -6.67443350e-02 7.03212991e-02 -1.00037698e-02 -8.44843388e-01
      4.77443524e-02 -8.02088603e-02 1.29696820e-02 -7.85574257e-01
      -8.32600296e-02 -1.95745021e-01 -1.14576012e-01 -7.48256803e-01</_>
    <_>
      -2.57438689e-01 -1.00870407e+00 -6.21399879e-01 2.50730205e+00
      -1.09420669e+00 -1.37161505e+00 -1.26370132e+00 1.09063113e+00
      5.87289274e-01 -1.99896947e-01 1.95014119e-01 2.88778949e+00
      -5.65671325e-01 -9.59256411e-01 -7.79308617e-01 2.22144842e+00
      -8.87619138e-01 -1.21733260e+00 -1.07768464e+00 1.37090647e+00
      1.05645168e+00 3.23410869e-01 6.78434074e-01 3.03414297e+00
      -7.88830966e-02 -4.95856285e-01 -2.94234276e-01 2.60759354e+00
      -5.16730666e-01 -9.30854142e-01 -7.33013690e-01 2.09006524e+00
      2.09399715e-01 1.32750064e-01 2.41403118e-01 -7.84091055e-01
      -9.21825226e-03 -6.28561974e-02 -1.08968392e-02 -7.74425626e-01
      1.81861483e-02 1.66399986e-01 2.05056086e-01 -8.16705108e-01
      -2.30050869e-02 -1.48289710e-01 -2.15645563e-02 -7.83044219e-01
      -1.24489076e-01 -1.88471496e-01 -1.34297997e-01 -7.77150571e-01
      -5.22532091e-02 1.83274940e-01 1.90575629e-01 -8.29409003e-01
      -3.26673798e-02 -1.04915462e-01 2.37497129e-02 -7.94741631e-01
      -8.72748047e-02 -2.15554714e-01 -1.16760246e-01 -7.75784969e-01</_>
    <_>
      -4.68811579e-02 -8.12174082e-01 -3.82545292e-01 2.28207088e+00
      -1.03696489e+00 -1.69398642e+00 -1.54607356e+00 9.09536660e-01
      9.99454975e-01 3.42848420e-01 7.21632719e-01 2.65378237e+00
      -2.00529844e-01 -1.01666665e+00 -7.54076064e-01 1.99593771e+00
      -7.42389262e-01 -1.55771899e+00 -1.40308154e+00 1.17278194e+00
      1.52758908e+00 9.63830113e-01 1.28352594e+00 2.79818487e+00
      4.44497645e-01 -3.23269486e-01 -5.38381860e-02 2.37214208e+00
      -1.81515291e-01 -1.07951605e+00 -8.68330359e-01 1.86430407e+00
      2.01630086e-01 -7.65657052e-02 7.01678451e-03 -8.42901170e-01
      1.34307602e-02 -1.18969612e-01 -1.40357995e-03 -7.98196256e-01
      -5.01755066e-03 -1.46439090e-01 -2.02102602e-01 -8.77930105e-01
      1.28834292e-01 -2.34063551e-01 -9.05799046e-02 -8.19010258e-01
      -1.69358440e-02 -2.19697133e-01 -8.18594322e-02 -7.90154338e-01
      -1.17038138e-01 -1.53248474e-01 -2.65113145e-01 -8.92479002e-01
      1.03841186e-01 -2.41968870e-01 -1.46698415e-01 -8.34062934e-01
      8.20716098e-02 -2.78696448e-01 -1.22947983e-01 -7.95307517e-01</_>
    <_>
      -3.46910715e-01 -1.06844258e+00 -2.71061897e-01 2.37634778e+00
      -1.08221102e+00 -1.59840643e+00 -1.37045419e+00 9.89199221e-01
      5.85315168e-01 -5.43760173e-02 7.49017119e-01 2.75207114e+00
      -5.27828753e-01 -1.15378547e+00 -6.78940713e-01 2.09156322e+00
      -7.88834691e-01 -1.46864271e+00 -1.24320841e+00 1.25920475e+00
      1.08796918e+00 5.56659997e-01 1.27315831e+00 2.89755368e+00
      -9.98681691e-03 -5.91506720e-01 -5.92869297e-02 2.47174311e+00
      -3.87851566e-01 -1.12168407e+00 -7.90528417e-01 1.96116400e+00
      3.42196673e-01 -1.36889461e-02 1.16824538e-01 -7.95210123e-01
      1.58613771e-02 -9.94455442e-02 4.01492715e-02 -7.65171051e-01
      2.53099471e-01 -3.72582139e-03 -1.23399593e-01 -8.28938186e-01
      2.53480911e-01 -2.56929457e-01 -5.21572493e-02 -7.74210215e-01
      -3.12805064e-02 -2.12693974e-01 -6.65407330e-02 -7.53303707e-01
      1.83820426e-01 1.72609072e-02 -2.04121992e-01 -8.43669653e-01
      3.28177392e-01 -2.03065500e-01 -9.57146287e-02 -7.86229432e-01
      1.28726214e-01 -3.35685968e-01 -1.23156734e-01 -7.48276711e-01</_>
    <_>
      -3.06469470e-01 -8.54995430e-01 -4.47326124e-01 2.40917420e+00
      -1.23793256e+00 -1.50202441e+00 -1.32534397e+00 1.00041282e+00
      6.66421950e-01 1.77633435e-01 5.48364580e-01 2.78731489e+00
      -5.55432498e-01 -9.00209606e-01 -6.42394006e-01 2.12816548e+00
      -1.02789247e+00 -1.37625265e+00 -1.13195062e+00 1.28307855e+00
      1.19667244e+00 7.82538772e-01 1.09437561e+00 2.93306518e+00
      5.71325384e-02 -2.82824814e-01 -2.64709331e-02 2.51378226e+00
      -5.49408555e-01 -9.57103789e-01 -6.63003623e-01 2.00238419e+00
      1.67384088e-01 5.46675511e-02 1.42238006e-01 -8.65697205e-01
      -3.12940218e-02 -9.09235403e-02 -2.63814945e-02 -8.52320671e-01
      2.37446632e-02 5.29499911e-02 1.54419178e-02 -8.93721282e-01
      2.32181721e-03 -1.75895289e-01 -5.11278249e-02 -8.52051377e-01
      -1.07163429e-01 -1.99378669e-01 -1.10092163e-01 -8.42956543e-01
      -3.31920832e-02 5.26431762e-02 -3.25205065e-02 -9.06434774e-01
      1.22264735e-02 -1.36876270e-01 -4.82632443e-02 -8.63407314e-01
      -5.30728959e-02 -2.15382159e-01 -9.11451355e-02 -8.37801278e-01</_>
    <_>
      -1.69455305e-01 -8.37413549e-01 -4.48287696e-01 2.36742210e+00
      -1.14243162e+00 -1.51084137e+00 -1.51070571e+00 9.44710374e-01
      8.70346665e-01 2.31012896e-01 6.16552234e-01 2.74911594e+00
      -3.23861301e-01 -8.93804610e-01 -7.55876660e-01 2.06706405e+00
      -8.61200750e-01 -1.36325169e+00 -1.35079837e+00 1.21208882e+00
      1.39876616e+00 8.41979206e-01 1.17686415e+00 2.89641166e+00
      3.11172336e-01 -2.63648272e-01 -8.28532651e-02 2.45199823e+00
      -3.24222058e-01 -9.30534303e-01 -8.29817712e-01 1.92294955e+00
      1.55647486e-01 6.22955225e-02 4.10778672e-02 -8.78457129e-01
      -5.11999354e-02 -1.03924401e-01 -5.16823977e-02 -8.51778984e-01
      1.18997348e-02 2.44321916e-02 -1.06670678e-01 -9.10122871e-01
      2.69962363e-02 -1.57481760e-01 -1.08865850e-01 -8.53948295e-01
      -1.01305842e-01 -1.85173377e-01 -1.38670042e-01 -8.36115003e-01
      -5.22837304e-02 -6.10335357e-03 -1.49846986e-01 -9.23405468e-01
      2.99015269e-02 -1.57104358e-01 -1.24118522e-01 -8.63755226e-01
      -6.87615480e-03 -2.01185003e-01 -1.65113166e-01 -8.26511919e-01</_>
    <_>
      -3.61337870e-01 -8.05520475e-01 -3.53645831e-01 2.37582684e+00
      -1.35509694e+00 -1.52916741e+00 -1.27484787e+00 9.61852252e-01
      6.79872334e-01 2.78203875e-01 6.88541889e-01 2.75368309e+00
      -5.90584934e-01 -8.74056220e-01 -5.17949402e-01 2.08914828e+00
      -1.13639450e+00 -1.36134756e+00 -1.07665825e+00 1.24039948e+00
      1.23918760e+00 9.09454226e-01 1.26318693e+00 2.89947462e+00
      6.78948611e-02 -2.18706354e-01 1.39148369e-01 2.47494483e+00
      -6.10265732e-01 -8.87101531e-01 -5.48531294e-01 1.95963097e+00
      9.42534655e-02 3.80398072e-02 1.71342179e-01 -8.95247936e-01
      -3.57944705e-02 -1.52117446e-01 -3.23460102e-02 -8.79154921e-01
      -7.01942742e-02 3.43140587e-02 2.47794762e-02 -9.25979078e-01
      -6.10727817e-02 -1.97583646e-01 2.02631168e-02 -8.74946833e-01
      -9.65048596e-02 -2.45963901e-01 -7.89804459e-02 -8.63458872e-01
      -1.34277612e-01 3.03887902e-03 -6.80148825e-02 -9.40055132e-01
      -8.25857595e-02 -1.64719179e-01 1.65119078e-02 -8.88540924e-01
      -8.11837763e-02 -2.70493418e-01 -2.58203167e-02 -8.56744826e-01</_>
    <_>
      -3.67030412e-01 -8.61273050e-01 -4.67621624e-01 2.44908643e+00
      -1.15665615e+00 -1.38750350e+00 -1.36574829e+00 1.02868354e+00
      6.38115168e-01 1.16423607e-01 5.08027256e-01 2.82966781e+00
      -5.28704047e-01 -9.04208064e-01 -7.72851467e-01 2.15702629e+00
      -8.95102203e-01 -1.28360021e+00 -1.23197603e+00 1.30375397e+00
      1.18267691e+00 6.98203444e-01 1.04742682e+00 2.97617054e+00
      5.56750372e-02 -3.48040104e-01 -1.74381763e-01 2.54316998e+00
      -4.57107514e-01 -9.49749053e-01 -8.16562533e-01 2.02069855e+00
      2.10365593e-01 1.09021485e-01 1.40942350e-01 -8.19148183e-01
      -5.59164211e-02 -9.00630057e-02 -5.21326289e-02 -8.02913666e-01
      6.11366518e-02 4.69865166e-02 1.54938744e-02 -8.49362671e-01
      1.80869866e-02 -1.56045809e-01 -1.00750603e-01 -8.03938091e-01
      -1.50523275e-01 -2.07854837e-01 -1.83491841e-01 -7.92394638e-01
      -6.93113543e-03 2.98652072e-02 -8.14134907e-03 -8.62691641e-01
      5.46976291e-02 -1.54368415e-01 -8.96020755e-02 -8.13672245e-01
      -5.34695908e-02 -2.22342864e-01 -2.13374823e-01 -7.84155965e-01</_>
    <_>
      -2.75732756e-01 -1.05420196e+00 -4.65482146e-01 2.49625444e+00
      -9.90940809e-01 -1.40659654e+00 -1.32541943e+00 1.09877229e+00
      4.89333302e-01 -2.40060374e-01 3.59132499e-01 2.87553167e+00
      -5.74448466e-01 -1.05120957e+00 -9.19901729e-01 2.21310854e+00
      -7.57852852e-01 -1.26794088e+00 -1.14041555e+00 1.37448180e+00
      9.32438076e-01 2.81734586e-01 8.20178151e-01 3.02215838e+00
      -1.39527708e-01 -6.15789175e-01 -4.74527031e-01 2.59681153e+00
      -4.23167884e-01 -1.04509425e+00 -8.79418552e-01 2.08430648e+00
      3.44077229e-01 5.81842177e-02 1.67454943e-01 -7.15309441e-01
      3.86999436e-02 -2.44838614e-02 2.04818062e-02 -6.88869178e-01
      1.79537311e-01 8.49034116e-02 2.71175802e-02 -7.54491627e-01
      1.52060390e-01 -2.09837213e-01 -6.24024607e-02 -7.12096334e-01
      -6.07628375e-02 -1.69783905e-01 -1.31668344e-01 -6.99759781e-01
      1.09100461e-01 1.16374671e-01 -2.38411613e-02 -7.70286679e-01
      1.79455012e-01 -1.94904312e-01 -4.42643426e-02 -7.28714347e-01
      3.77598070e-02 -2.66227514e-01 -1.45760924e-01 -7.08256721e-01</_>
    <_>
      -1.58031315e-01 -8.17265391e-01 -4.91350591e-01 2.38033891e+00
      -1.14022434e+00 -1.48335004e+00 -1.48087418e+00 9.67084706e-01
      8.45311999e-01 2.31796563e-01 5.60455382e-01 2.75744438e+00
      -3.48650575e-01 -8.73060286e-01 -7.43355870e-01 2.08676124e+00
      -8.80209029e-01 -1.34519291e+00 -1.33058918e+00 1.23750687e+00
      1.35604823e+00 8.41564178e-01 1.12835252e+00 2.90197897e+00
      2.70450532e-01 -2.48904645e-01 -7.37308413e-02 2.46842360e+00
      -3.54491919e-01 -9.34909880e-01 -8.18968594e-01 1.94726336e+00
      1.55116037e-01 4.53097932e-02 8.77610371e-02 -8.75354707e-01
      -4.47041765e-02 -1.13926798e-01 -5.00074290e-02 -8.60328436e-01
      3.05621568e-02 -3.33284523e-04 -3.87345329e-02 -9.06841218e-01
      2.83860695e-02 -1.70853600e-01 -1.04384251e-01 -8.65220487e-01
      -1.09986834e-01 -2.08122492e-01 -1.43706203e-01 -8.54705155e-01
      -1.94039065e-02 -3.07176542e-02 -8.73793811e-02 -9.21547532e-01
      5.57831042e-02 -1.74877912e-01 -1.23168856e-01 -8.78487825e-01
      -1.22168101e-02 -2.31871635e-01 -1.81610480e-01 -8.52048099e-01</_>
    <_>
      -1.25628099e-01 -9.13115919e-01 -4.19169545e-01 2.33930016e+00
      -9.80780065e-01 -1.66371822e+00 -1.50675154e+00 9.62507129e-01
      8.30690622e-01 1.23306811e-01 6.08179569e-01 2.71206594e+00
      -2.37320811e-01 -1.10307515e+00 -8.17116737e-01 2.05578446e+00
      -6.93551004e-01 -1.53939247e+00 -1.38300812e+00 1.22927463e+00
      1.32732689e+00 7.08866835e-01 1.13580441e+00 2.85677600e+00
      3.49785954e-01 -4.90314692e-01 -1.87913477e-01 2.43390203e+00
      -1.82743892e-01 -1.15005326e+00 -9.25533175e-01 1.92670596e+00
      2.87919044e-01 -6.24579564e-02 5.21900430e-02 -8.12165141e-01
      2.47391015e-02 -9.91299376e-02 1.37006510e-02 -7.74313509e-01
      1.71554610e-01 -3.91861759e-02 -1.12866580e-01 -8.46561849e-01
      1.59081742e-01 -2.68084735e-01 -8.87212381e-02 -7.93900728e-01
      -2.06761695e-02 -2.25249246e-01 -8.10227841e-02 -7.71216214e-01
      1.09938473e-01 -6.73980825e-03 -1.39210433e-01 -8.61131191e-01
      1.60804093e-01 -2.34311193e-01 -1.00128911e-01 -8.07888567e-01
      8.36559460e-02 -3.11065376e-01 -1.13546178e-01 -7.75100827e-01</_>
    <_>
      -1.21544242e-01 -8.17564011e-01 -3.71850282e-01 2.29933453e+00
      -1.12444949e+00 -1.66258359e+00 -1.55860031e+00 8.95878255e-01
      9.28643763e-01 3.58081460e-01 7.52984822e-01 2.67967629e+00
      -2.94585794e-01 -9.23114002e-01 -7.14085519e-01 2.00557852e+00
      -8.43610644e-01 -1.49835896e+00 -1.37767720e+00 1.16387606e+00
      1.46741343e+00 1.00695682e+00 1.32367229e+00 2.82753062e+00
      3.60708207e-01 -2.04586253e-01 1.28771029e-02 2.39115405e+00
      -2.75540799e-01 -9.68533337e-01 -7.88728476e-01 1.87118924e+00
      1.81464702e-01 -5.35808653e-02 -7.02601799e-04 -8.60916436e-01
      -1.39421085e-02 -1.09684572e-01 -1.47565650e-02 -8.07965040e-01
      -1.83308721e-02 -1.30444437e-01 -2.26051614e-01 -9.07074511e-01
      1.11203752e-01 -2.27672026e-01 -9.58765000e-02 -8.25093329e-01
      -2.49306671e-02 -1.93116769e-01 -7.77451396e-02 -7.92497098e-01
      -1.30336553e-01 -1.72164068e-01 -2.90541053e-01 -9.27006721e-01
      9.87480879e-02 -2.39952713e-01 -1.33198872e-01 -8.51070523e-01
      7.27167875e-02 -2.37658456e-01 -1.02436140e-01 -7.99529493e-01</_>
    <_>
      -2.13993043e-01 -7.83809245e-01 -3.84339362e-01 2.33558774e+00
      -1.23459339e+00 -1.59707630e+00 -1.37820435e+00 9.42961693e-01
      8.29441309e-01 3.34917039e-01 6.88665390e-01 2.70939302e+00
      -4.20976102e-01 -9.47984815e-01 -6.21171474e-01 2.05386496e+00
      -1.01353502e+00 -1.46478951e+00 -1.20554054e+00 1.21856046e+00
      1.37535787e+00 9.74009752e-01 1.27070761e+00 2.85416460e+00
      2.35779762e-01 -2.84620196e-01 5.06288223e-02 2.43541002e+00
      -4.80358988e-01 -1.03718734e+00 -7.03019500e-01 1.92739844e+00
      1.32845566e-01 2.39810106e-04 1.20088026e-01 -8.60375881e-01
      -1.90904383e-02 -1.27825633e-01 -1.53428745e-02 -8.44241202e-01
      -5.57470061e-02 -4.66200970e-02 -5.56878671e-02 -9.00407135e-01
      -1.60705633e-02 -1.84499994e-01 5.23855211e-03 -8.48730445e-01
      -7.48618469e-02 -2.10989401e-01 -7.77200907e-02 -8.39080632e-01
      -1.52251169e-01 -1.00139059e-01 -1.62050366e-01 -9.19732571e-01
      -6.23321645e-02 -1.57966778e-01 -1.75105799e-02 -8.69279981e-01
      -3.28592807e-02 -2.15075999e-01 -1.72084775e-02 -8.40363920e-01</_>
    <_>
      -3.95765573e-01 -1.04592264e+00 -2.22528622e-01 2.38494945e+00
      -1.13487458e+00 -1.55245256e+00 -1.28336620e+00 1.00077212e+00
      5.46658039e-01 -6.19722903e-02 7.60595262e-01 2.76054788e+00
      -6.32665873e-01 -1.19340229e+00 -6.25087440e-01 2.10088086e+00
      -8.77697945e-01 -1.47554278e+00 -1.15807688e+00 1.27084231e+00
      1.05601752e+00 5.03604650e-01 1.25910294e+00 2.90584302e+00
      -1.32553533e-01 -6.91468835e-01 -4.69721854e-02 2.47997189e+00
      -5.30280888e-01 -1.22000396e+00 -7.49476969e-01 1.97059858e+00
      3.20358902e-01 3.54071818e-02 1.54088169e-01 -7.74409652e-01
      2.90815309e-02 -9.30091813e-02 4.29142565e-02 -7.40496993e-01
      2.09879652e-01 1.75574552e-02 -6.17323965e-02 -8.12246323e-01
      2.27007553e-01 -2.17428133e-01 4.08844231e-03 -7.58278430e-01
      -1.71026029e-02 -2.21680582e-01 -5.20132333e-02 -7.37256765e-01
      1.40564084e-01 2.32671555e-02 -1.43517464e-01 -8.29220355e-01
      2.80988395e-01 -1.79843649e-01 -5.05715385e-02 -7.73978889e-01
      1.35343671e-01 -3.03046227e-01 -8.55921656e-02 -7.39394248e-01</_>
    <_>
      -1.61068410e-01 -7.89683938e-01 -3.60045046e-01 2.33474660e+00
      -1.19784141e+00 -1.68157268e+00 -1.50619888e+00 9.29823756e-01
      7.82934964e-01 2.98810184e-01 7.04894304e-01 2.71162271e+00
      -3.70367944e-01 -8.97152305e-01 -6.71234071e-01 2.05228949e+00
      -9.28515136e-01 -1.48597741e+00 -1.27169919e+00 1.20912921e+00
      1.25602448e+00 8.83287966e-01 1.23745048e+00 2.85742378e+00
      2.28246123e-01 -2.19505668e-01 1.22215867e-03 2.43790436e+00
      -3.72237980e-01 -9.70104158e-01 -7.15575397e-01 1.92611861e+00
      1.82165518e-01 -2.11803410e-02 2.18725428e-02 -8.85365367e-01
      -3.16109397e-02 -1.06027797e-01 -2.57578399e-02 -8.64137471e-01
      1.20687857e-01 5.62676415e-02 -1.11970238e-01 -9.24988925e-01
      3.09377778e-02 -2.33575016e-01 -6.88524693e-02 -8.67747664e-01
      -9.20448303e-02 -2.24235907e-01 -1.00762121e-01 -8.57451677e-01
      1.15658745e-01 1.06442697e-01 -1.39872894e-01 -9.43456471e-01
      5.74576259e-02 -1.94051370e-01 -5.80228716e-02 -8.86909246e-01
      -7.14386702e-02 -2.74578035e-01 -1.05650090e-01 -8.54951560e-01</_>
    <_>
      -2.67935961e-01 -9.77188230e-01 -3.87739301e-01 2.40168309e+00
      -1.04634178e+00 -1.56424296e+00 -1.43999958e+00 1.00175071e+00
      6.38503373e-01 -1.52818067e-02 5.89045227e-01 2.77898669e+00
      -4.15931374e-01 -1.07547963e+00 -8.21232915e-01 2.11345959e+00
      -7.62455106e-01 -1.41100466e+00 -1.29877532e+00 1.27312219e+00
      1.10785007e+00 5.38419783e-01 1.10179687e+00 2.92520046e+00
      9.85887200e-02 -5.42043090e-01 -2.32663408e-01 2.49689054e+00
      -3.37310165e-01 -1.05937755e+00 -8.75318766e-01 1.98129582e+00
      3.27965200e-01 8.74669757e-03 7.87934959e-02 -8.07963431e-01
      2.29231603e-02 -6.68581352e-02 2.13328414e-02 -7.74000347e-01
      2.28471622e-01 1.42446207e-02 -1.33502439e-01 -8.40510964e-01
      2.17300549e-01 -2.23655209e-01 -9.51210484e-02 -7.89363086e-01
      -3.40662338e-02 -1.69542924e-01 -9.71295312e-02 -7.68589735e-01
      1.89972803e-01 5.84380366e-02 -1.79547057e-01 -8.54829073e-01
      2.95080721e-01 -1.65386423e-01 -1.06121674e-01 -8.04441094e-01
      1.34566590e-01 -2.77127236e-01 -1.52320623e-01 -7.74031818e-01</_>
    <_>
      -3.17054927e-01 -1.01166022e+00 -4.15493309e-01 2.45695448e+00
      -1.05471349e+00 -1.49253798e+00 -1.34763527e+00 1.05311286e+00
      5.26745677e-01 -1.10228695e-01 4.63595927e-01 2.83660603e+00
      -5.28218865e-01 -1.04335511e+00 -8.64174306e-01 2.16950417e+00
      -8.05635750e-01 -1.37651002e+00 -1.18593180e+00 1.32750940e+00
      9.95113194e-01 4.50710624e-01 9.44762826e-01 2.98382497e+00
      -4.16739024e-02 -5.27619481e-01 -3.61980319e-01 2.55482030e+00
      -4.22758311e-01 -1.07439423e+00 -8.57222974e-01 2.03915119e+00
      3.11505795e-01 2.58883424e-02 1.45789236e-01 -7.57412255e-01
      1.76386815e-02 -5.75390533e-02 8.45922437e-03 -7.22459435e-01
      1.98481262e-01 5.99952154e-02 -5.53408696e-04 -7.98149943e-01
      1.60572290e-01 -2.34656960e-01 -5.10834828e-02 -7.45700121e-01
      -4.91989926e-02 -1.92091793e-01 -1.07292332e-01 -7.26037383e-01
      1.56530395e-01 1.04385033e-01 -3.92927863e-02 -8.15816939e-01
      2.23800480e-01 -2.09430069e-01 -3.13229337e-02 -7.67058134e-01
      8.94902423e-02 -3.07164550e-01 -1.14723742e-01 -7.39164531e-01</_>
    <_>
      -3.09123963e-01 -9.69559908e-01 -3.78421396e-01 2.39963579e+00
      -1.10168636e+00 -1.58295965e+00 -1.42646790e+00 9.90462720e-01
      6.12823069e-01 3.36489901e-02 6.14430964e-01 2.77901793e+00
      -4.47905719e-01 -1.02303231e+00 -7.86433756e-01 2.10951519e+00
      -8.63954008e-01 -1.42372131e+00 -1.25317740e+00 1.26367319e+00
      1.09340060e+00 6.02426529e-01 1.12499237e+00 2.92597461e+00
      8.77003819e-02 -4.52528805e-01 -1.95484042e-01 2.49510121e+00
      -4.26218003e-01 -1.03532577e+00 -8.11140656e-01 1.97632372e+00
      2.92592347e-01 -2.00049044e-03 7.44083449e-02 -8.30813587e-01
      8.46511684e-03 -7.33644664e-02 7.50211114e-03 -7.93537319e-01
      1.94096893e-01 3.37981768e-02 -1.41078085e-01 -8.62853587e-01
      1.65237889e-01 -2.19384775e-01 -5.96069135e-02 -8.07710409e-01
      -3.16455029e-02 -1.71182901e-01 -7.85968676e-02 -7.85493731e-01
      1.66805506e-01 1.09581620e-01 -1.64425448e-01 -8.77793610e-01
      2.40224019e-01 -1.53277710e-01 -3.42173874e-02 -8.23642790e-01
      1.26927286e-01 -2.50143528e-01 -9.00297388e-02 -7.90826797e-01</_>
    <_>
      -3.74345630e-01 -1.01693308e+00 -4.18765724e-01 2.42039108e+00
      -1.13673890e+00 -1.51584411e+00 -1.31290424e+00 1.01371944e+00
      6.10336900e-01 -5.21215471e-03 5.75959325e-01 2.80231237e+00
      -5.43709934e-01 -1.09180534e+00 -7.15583801e-01 2.13042116e+00
      -9.00600731e-01 -1.45212090e+00 -1.18372536e+00 1.28803170e+00
      1.16191018e+00 6.17867827e-01 1.12678671e+00 2.95097232e+00
      3.94367054e-02 -5.31228483e-01 -1.20282128e-01 2.51823139e+00
      -4.71059054e-01 -1.16003513e+00 -7.77466655e-01 2.00055528e+00
      2.67783523e-01 2.64642779e-02 1.64743140e-01 -7.42516637e-01
      1.11768972e-02 -8.85597542e-02 4.00372688e-03 -6.83946788e-01
      1.15421966e-01 -1.14437025e-02 -1.58365779e-02 -8.00484776e-01
      1.25173882e-01 -2.33344913e-01 -3.90171148e-02 -7.15322077e-01
      -5.10822609e-02 -2.32552290e-01 -9.47464406e-02 -6.89630091e-01
      4.62041534e-02 -3.23381238e-02 -8.16714913e-02 -8.23822439e-01
      1.48038030e-01 -2.42750630e-01 -6.22659065e-02 -7.50995934e-01
      7.23377243e-02 -3.04626226e-01 -1.06438190e-01 -7.06525981e-01</_>
    <_>
      -1.39450565e-01 -8.65201890e-01 -6.24692321e-01 2.42784333e+00
      -1.13931632e+00 -1.39912701e+00 -1.36486411e+00 1.03101909e+00
      8.49117875e-01 1.36850953e-01 3.57286304e-01 2.80276966e+00
      -4.78617877e-01 -8.84168267e-01 -8.00218999e-01 2.14670801e+00
      -8.97710204e-01 -1.28648448e+00 -1.21044052e+00 1.30834067e+00
      1.37453520e+00 7.43829727e-01 9.31316435e-01 2.94751143e+00
      1.37845904e-01 -2.96373457e-01 -1.98462144e-01 2.52907205e+00
      -4.24627185e-01 -9.20821965e-01 -8.14454734e-01 2.01990867e+00
      1.48104325e-01 1.03568710e-01 1.47702277e-01 -8.27875972e-01
      -4.78269942e-02 -6.37681857e-02 -4.89564873e-02 -8.19213629e-01
      -6.82902858e-02 5.83086088e-02 3.98899280e-02 -8.54397058e-01
      -1.46593060e-03 -1.25102654e-01 -9.11055878e-02 -8.21841419e-01
      -1.43893018e-01 -1.65678307e-01 -1.54276937e-01 -8.15247655e-01
      -1.85859188e-01 -2.05826014e-03 -4.01998907e-02 -8.65942240e-01
      -2.85512488e-02 -1.38477728e-01 -1.11631945e-01 -8.32575321e-01
      -9.02911201e-02 -1.78216934e-01 -1.60714716e-01 -8.13038528e-01</_>
    <_>
      -1.80460125e-01 -7.64172256e-01 -3.07009399e-01 2.30725718e+00
      -1.21957135e+00 -1.63958275e+00 -1.48335040e+00 9.06757176e-01
      8.56865466e-01 3.83139789e-01 7.91367948e-01 2.68307137e+00
      -3.72348994e-01 -8.91543329e-01 -6.33058131e-01 2.01888514e+00
      -9.72106576e-01 -1.47927988e+00 -1.29118073e+00 1.17791045e+00
      1.38625157e+00 1.00986266e+00 1.34895754e+00 2.82875347e+00
      2.74251789e-01 -1.94201499e-01 6.65966719e-02 2.40151858e+00
      -4.20977145e-01 -9.73531604e-01 -7.25744665e-01 1.88639474e+00
      1.56311274e-01 -2.19883230e-02 2.12088879e-02 -8.95193040e-01
      -1.22624794e-02 -1.18531473e-01 -1.04420511e-02 -8.76144528e-01
      -5.45289554e-03 -6.27718642e-02 -1.82777926e-01 -9.26839352e-01
      4.17817496e-02 -1.78607494e-01 -5.88701665e-02 -8.69342625e-01
      -5.31703830e-02 -1.94739670e-01 -7.09650666e-02 -8.54950309e-01
      -8.22808072e-02 -9.16108564e-02 -2.58253515e-01 -9.40871179e-01
      2.44827606e-02 -1.69502497e-01 -9.92039591e-02 -8.79142821e-01
      8.66608601e-03 -1.99705213e-01 -7.85332024e-02 -8.40019763e-01</_>
    <_>
      -3.12311202e-01 -9.89902675e-01 -3.22948426e-01 2.37109923e+00
      -1.09612548e+00 -1.63499367e+00 -1.44254208e+00 9.53842402e-01
      6.78132057e-01 8.91419724e-02 7.45338619e-01 2.75707150e+00
      -4.49584901e-01 -1.10890973e+00 -7.09885895e-01 2.07183051e+00
      -8.30226481e-01 -1.50582409e+00 -1.30053270e+00 1.22128880e+00
      1.20652306e+00 7.23128974e-01 1.29083371e+00 2.90800905e+00
      1.30184054e-01 -4.82620716e-01 -4.73057590e-02 2.46226430e+00
      -3.68159890e-01 -1.12036884e+00 -8.07323456e-01 1.93316567e+00
      3.10339302e-01 -2.18617059e-02 7.23785758e-02 -7.66052544e-01
      -9.18437727e-03 -1.14090696e-01 2.68838950e-03 -6.88418448e-01
      1.82065398e-01 -4.93992008e-02 -1.71233892e-01 -8.29421580e-01
      1.65184125e-01 -2.50061244e-01 -9.60480198e-02 -7.14609265e-01
      -4.26505394e-02 -2.19461188e-01 -9.87613872e-02 -6.67452574e-01
      1.10406011e-01 -5.20189032e-02 -2.45959744e-01 -8.57191205e-01
      2.13643268e-01 -2.40675867e-01 -1.50684237e-01 -7.59194851e-01
      1.02689311e-01 -2.91798681e-01 -1.52300432e-01 -6.83151722e-01</_>
    <_>
      -1.76803768e-01 -7.22178757e-01 -3.41091007e-01 2.33193207e+00
      -1.23711407e+00 -1.57721472e+00 -1.42601478e+00 9.34715807e-01
      8.72172296e-01 3.70899826e-01 7.33983338e-01 2.70613813e+00
      -4.00568277e-01 -8.72986197e-01 -6.23259246e-01 2.05043697e+00
      -9.94768441e-01 -1.41501331e+00 -1.24107122e+00 1.21220839e+00
      1.39956081e+00 9.75999832e-01 1.28534079e+00 2.85029840e+00
      2.58696914e-01 -2.08414018e-01 3.93780731e-02 2.43195391e+00
      -4.29404616e-01 -9.36382532e-01 -7.22139835e-01 1.92317998e+00
      1.13871060e-01 1.01219602e-02 5.05198017e-02 -8.94675076e-01
      -3.25198993e-02 -1.00990951e-01 -2.99452059e-02 -8.79985154e-01
      -8.64758715e-02 -3.56389061e-02 -1.55673504e-01 -9.27474439e-01
      -1.29921855e-02 -1.41186669e-01 -6.82034045e-02 -8.80684614e-01
      -9.41924676e-02 -1.95774391e-01 -1.06934108e-01 -8.71821165e-01
      -1.68985099e-01 -6.19841516e-02 -2.40245163e-01 -9.41515207e-01
      -3.37047018e-02 -9.51733515e-02 -1.03902943e-01 -8.92521203e-01
      -5.93879670e-02 -1.67089015e-01 -8.23306665e-02 -8.64975989e-01</_>
    <_>
      -1.53698236e-01 -8.04222286e-01 -3.93948615e-01 2.34513235e+00
      -1.18478703e+00 -1.63834929e+00 -1.48044217e+00 9.40756440e-01
      8.12382102e-01 2.59548873e-01 6.47099614e-01 2.72090101e+00
      -3.76805067e-01 -9.36393142e-01 -7.07354367e-01 2.05977535e+00
      -9.21128452e-01 -1.47770905e+00 -1.28599215e+00 1.21578133e+00
      1.30560350e+00 8.33780885e-01 1.18126309e+00 2.86599851e+00
      2.36145809e-01 -2.94475228e-01 -5.32758236e-02 2.44360590e+00
      -3.87102336e-01 -1.03038239e+00 -7.73296595e-01 1.92922509e+00
      1.86947420e-01 -2.16526771e-03 5.26543185e-02 -8.74358296e-01
      -1.80090014e-02 -9.03562680e-02 -1.47124575e-02 -8.52742851e-01
      1.00957461e-01 5.95039502e-02 -8.04051384e-02 -9.09209013e-01
      5.48583530e-02 -2.10516050e-01 -7.71880671e-02 -8.49940836e-01
      -7.82925263e-02 -1.92672849e-01 -1.08137935e-01 -8.34535539e-01
      8.38211328e-02 1.19646311e-01 -1.12900935e-01 -9.25625563e-01
      7.59398490e-02 -1.92744911e-01 -9.76491123e-02 -8.66573930e-01
      -1.69389006e-02 -2.45587140e-01 -1.51219144e-01 -8.29484582e-01</_>
    <_>
      -3.51048172e-01 -1.02081275e+00 -3.99877280e-01 2.51474237e+00
      -1.08048916e+00 -1.34016907e+00 -1.27432287e+00 1.10071743e+00
      4.22069132e-01 -2.61699259e-01 4.24021959e-01 2.89758182e+00
      -6.74469709e-01 -1.00244331e+00 -8.53802204e-01 2.22700000e+00
      -8.89447093e-01 -1.18605530e+00 -1.06818736e+00 1.37788081e+00
      8.58632743e-01 1.91187635e-01 8.56627047e-01 3.04509926e+00
      -2.57856995e-01 -6.22066319e-01 -4.36475962e-01 2.61369395e+00
      -5.87290525e-01 -9.73446846e-01 -7.99842834e-01 2.09395838e+00
      2.95106918e-01 1.07364148e-01 1.85743093e-01 -7.37717211e-01
      2.53449809e-02 -3.42946947e-02 1.93077140e-02 -7.15610266e-01
      1.37037396e-01 9.49638486e-02 4.58290949e-02 -7.72233248e-01
      1.06414810e-01 -1.44550219e-01 4.71166149e-03 -7.32561350e-01
      -7.12541714e-02 -1.86515749e-01 -1.06980309e-01 -7.19867349e-01
      7.05345199e-02 1.19651183e-01 -8.52759555e-03 -7.85918593e-01
      1.33833230e-01 -1.37348890e-01 2.97042970e-02 -7.43353903e-01
      3.48043144e-02 -2.41688520e-01 -9.48832259e-02 -7.20455289e-01</_>
    <_>
      -1.72304958e-01 -9.34160054e-01 -6.03817582e-01 2.42739940e+00
      -1.15478599e+00 -1.49023557e+00 -1.37750101e+00 1.02132082e+00
      7.30473459e-01 6.46837652e-02 3.66546839e-01 2.80361247e+00
      -5.24983704e-01 -9.66463387e-01 -7.75285304e-01 2.14397693e+00
      -9.23444211e-01 -1.37285399e+00 -1.20633209e+00 1.29944265e+00
      1.18637574e+00 6.29494131e-01 8.90341282e-01 2.94838166e+00
      9.74188186e-03 -4.01127011e-01 -1.99623093e-01 2.52774549e+00
      -4.97855127e-01 -1.01088560e+00 -8.00487101e-01 2.01468182e+00
      2.19953492e-01 6.37580827e-02 1.58803970e-01 -8.15076053e-01
      -2.14516930e-02 -5.04835658e-02 -2.04661489e-02 -7.95653522e-01
      1.12033620e-01 8.95301849e-02 8.92746896e-02 -8.50088835e-01
      7.05875456e-02 -1.69016227e-01 -9.98406410e-02 -7.98234820e-01
      -1.08150154e-01 -1.74521193e-01 -1.37384504e-01 -7.87800193e-01
      1.06447361e-01 1.44025877e-01 8.90200138e-02 -8.66434574e-01
      1.24880120e-01 -1.25404954e-01 -9.16296244e-02 -8.15393388e-01
      -3.76451910e-02 -2.03885168e-01 -1.65824398e-01 -7.86002457e-01</_>
    <_>
      -4.35274571e-01 -9.44667399e-01 -3.28103155e-01 2.42356324e+00
      -1.29133666e+00 -1.45055938e+00 -1.24137497e+00 1.01551020e+00
      5.44588923e-01 6.27318025e-02 6.58107758e-01 2.80267811e+00
      -7.25061178e-01 -9.71062005e-01 -6.33072853e-01 2.14018965e+00
      -1.05643296e+00 -1.33461714e+00 -1.07980669e+00 1.29627883e+00
      1.08837354e+00 6.79490209e-01 1.20419836e+00 2.94963670e+00
      -1.58590734e-01 -4.12876606e-01 -3.94117460e-02 2.52714825e+00
      -6.51637316e-01 -9.91663754e-01 -6.57420993e-01 2.01487684e+00
      1.86965317e-01 1.15313105e-01 2.05945998e-01 -8.06458712e-01
      -4.04350162e-02 -1.15949787e-01 -3.44786420e-02 -7.85181940e-01
      2.94898674e-02 1.24103166e-01 3.08810566e-02 -8.44976485e-01
      1.68255356e-03 -1.54200986e-01 3.40694599e-02 -7.88523972e-01
      -1.21108718e-01 -2.29279101e-01 -1.21605054e-01 -7.76417196e-01
      -5.03039770e-02 8.63925219e-02 -6.58274740e-02 -8.62820089e-01
      1.92216709e-02 -1.11634150e-01 4.15068343e-02 -8.07364643e-01
      -8.48655552e-02 -2.42196172e-01 -6.24151677e-02 -7.73931086e-01</_>
    <_>
      -2.49156997e-01 -7.35622227e-01 -3.92385215e-01 2.37773180e+00
      -1.26716542e+00 -1.44468784e+00 -1.44566667e+00 9.45333719e-01
      7.74606228e-01 3.20974082e-01 6.79025233e-01 2.76024628e+00
      -4.54755038e-01 -7.89204478e-01 -6.47531569e-01 2.07981610e+00
      -1.01118052e+00 -1.27383637e+00 -1.27251232e+00 1.21858692e+00
      1.30678940e+00 9.34459746e-01 1.25327992e+00 2.90650296e+00
      1.89720437e-01 -1.58295944e-01 3.86657491e-02 2.46634030e+00
      -4.69121516e-01 -8.31939876e-01 -7.33354926e-01 1.93709099e+00
      1.14284150e-01 7.73654133e-02 5.47885150e-02 -9.08008635e-01
      -8.99924412e-02 -1.17171481e-01 -8.09286833e-02 -8.91096830e-01
      9.37009323e-03 4.15936932e-02 -8.67947713e-02 -9.40719306e-01
      -4.04579788e-02 -1.17664956e-01 -1.15722902e-01 -8.90497327e-01
      -1.65076882e-01 -1.87562078e-01 -1.78522557e-01 -8.78902018e-01
      -4.41185124e-02 8.51322617e-03 -1.60571799e-01 -9.55700219e-01
      -2.37478018e-02 -1.01406664e-01 -1.36359274e-01 -9.02024090e-01
      -1.07767865e-01 -1.45791724e-01 -1.82370663e-01 -8.69690478e-01</_>
    <_>
      -3.06745559e-01 -8.21396768e-01 -3.79200965e-01 2.37927198e+00
      -1.19875157e+00 -1.47336364e+00 -1.45340717e+00 9.52563226e-01
      7.73921311e-01 2.92473674e-01 7.07788408e-01 2.76454449e+00
      -4.70010906e-01 -8.81791174e-01 -7.20491529e-01 2.07856393e+00
      -9.17687654e-01 -1.31188428e+00 -1.30854046e+00 1.22212219e+00
      1.35702431e+00 9.43805993e-01 1.28637719e+00 2.91341710e+00
      1.93091288e-01 -2.26291314e-01 -3.49039696e-02 2.46698809e+00
      -4.00080591e-01 -8.68971229e-01 -7.97852874e-01 1.93670309e+00
      1.56723648e-01 6.32054880e-02 3.81322056e-02 -8.48839104e-01
      -6.09573722e-02 -1.10436782e-01 -7.25925118e-02 -8.09911668e-01
      -1.83759052e-02 -3.68957371e-02 -1.74681827e-01 -8.87673497e-01
      3.05552706e-02 -1.25807688e-01 -1.31291315e-01 -8.22054684e-01
      -1.19212560e-01 -1.80622652e-01 -1.77094430e-01 -8.00364912e-01
      -1.09627366e-01 -9.06422809e-02 -2.48654887e-01 -9.04067397e-01
      3.60152461e-02 -1.28787532e-01 -1.52471736e-01 -8.36257398e-01
      -2.98201628e-02 -1.59581587e-01 -1.90593749e-01 -7.94599533e-01</_>
    <_>
      -3.84393871e-01 -9.84524012e-01 -4.94515628e-01 2.51187563e+00
      -1.13216138e+00 -1.34940577e+00 -1.24014080e+00 1.09524786e+00
      4.46873873e-01 -1.80934921e-01 3.32196623e-01 2.89230800e+00
      -6.60091698e-01 -9.77323949e-01 -7.83417940e-01 2.22558212e+00
      -8.90051961e-01 -1.23561954e+00 -1.07641017e+00 1.37521541e+00
      9.24610972e-01 3.58285010e-01 8.29746604e-01 3.03889847e+00
      -1.76336184e-01 -5.26432514e-01 -2.94506520e-01 2.61222506e+00
      -5.26997924e-01 -9.93309855e-01 -7.55810976e-01 2.09479094e+00
      2.50994354e-01 1.23398960e-01 2.36240461e-01 -7.61131585e-01
      3.93459760e-03 -6.60454333e-02 -3.50495288e-03 -7.48287439e-01
      1.05268173e-01 1.07228220e-01 1.10220946e-01 -7.95667887e-01
      4.33578268e-02 -1.65172368e-01 -1.81281809e-02 -7.55520105e-01
      -1.09856799e-01 -2.15038195e-01 -1.33400366e-01 -7.47782111e-01
      6.09591492e-02 1.17968895e-01 6.23703450e-02 -8.10276449e-01
      7.69587904e-02 -1.31061777e-01 3.92768811e-03 -7.68187404e-01
      -4.67883423e-02 -2.51727253e-01 -1.05313450e-01 -7.45409250e-01</_>
    <_>
      -1.63773239e-01 -7.48246133e-01 -4.03478980e-01 2.32868958e+00
      -1.18613970e+00 -1.59453189e+00 -1.47047758e+00 9.35625792e-01
      8.66761088e-01 3.59130263e-01 6.90107524e-01 2.70227408e+00
      -3.34162265e-01 -8.80100667e-01 -6.57460332e-01 2.04774785e+00
      -9.22779262e-01 -1.41525662e+00 -1.28050625e+00 1.21185255e+00
      1.40355897e+00 9.83255863e-01 1.26672995e+00 2.84642577e+00
      3.30568820e-01 -2.00049058e-01 3.96157280e-02 2.42848420e+00
      -3.42275679e-01 -9.25410330e-01 -7.29118288e-01 1.92086852e+00
      1.19140327e-01 -3.91566101e-03 5.36093637e-02 -9.06047463e-01
      -3.02636307e-02 -1.14876837e-01 -2.92920638e-02 -8.92030180e-01
      -4.79952432e-02 -4.66067642e-02 -1.08735584e-01 -9.32340920e-01
      -1.09120887e-02 -1.85863778e-01 -5.76210432e-02 -8.91779065e-01
      -8.45467523e-02 -1.81844875e-01 -8.82226229e-02 -8.82049978e-01
      -1.30694762e-01 -8.90788659e-02 -1.85826272e-01 -9.44386780e-01
      -4.99035120e-02 -1.76024184e-01 -8.82051215e-02 -9.02508616e-01
      -6.08910248e-02 -2.00552091e-01 -8.05546716e-02 -8.77109826e-01</_>
    <_>
      -3.19370590e-02 -8.72557938e-01 -4.87768084e-01 2.32098341e+00
      -9.50893998e-01 -1.63844717e+00 -1.62510431e+00 9.32849169e-01
      9.32893813e-01 2.05036670e-01 5.89098454e-01 2.69633508e+00
      -1.26747757e-01 -9.77362454e-01 -8.47918570e-01 2.03286362e+00
      -6.48916066e-01 -1.50683355e+00 -1.47266316e+00 1.20044208e+00
      1.41976035e+00 8.05290222e-01 1.13681948e+00 2.84231639e+00
      4.73480344e-01 -3.35721284e-01 -1.70490474e-01 2.41335988e+00
      -9.55374241e-02 -1.05627334e+00 -9.48544800e-01 1.90116131e+00
      2.48920336e-01 -3.90100367e-02 -1.39830606e-02 -8.39720905e-01
      -1.32583417e-02 -8.96726400e-02 -2.71860957e-02 -7.97079325e-01
      1.16738178e-01 -3.97692956e-02 -1.58951536e-01 -8.73249114e-01
      1.15812548e-01 -2.40741968e-01 -1.49701104e-01 -8.12941432e-01
      -5.45817874e-02 -2.02863440e-01 -1.17313892e-01 -7.89798915e-01
      4.99143675e-02 -2.25114021e-02 -1.77913502e-01 -8.88694704e-01
      1.19549125e-01 -2.30774462e-01 -1.62939310e-01 -8.27945650e-01
      5.38757667e-02 -2.82466620e-01 -1.69094518e-01 -7.91620195e-01</_>
    <_>
      -1.38266742e-01 -7.50137329e-01 -3.98970962e-01 2.32817507e+00
      -1.14956820e+00 -1.58152425e+00 -1.46298289e+00 9.40546393e-01
      8.95716667e-01 3.59446108e-01 6.76615596e-01 2.70028234e+00
      -3.04251790e-01 -8.83715093e-01 -6.88359559e-01 2.04733133e+00
      -8.82723153e-01 -1.43115616e+00 -1.31726313e+00 1.21473455e+00
      1.42941988e+00 9.80411351e-01 1.24784791e+00 2.84400988e+00
      3.58501226e-01 -1.98590294e-01 -1.21762892e-02 2.42627096e+00
      -3.05734187e-01 -9.47882056e-01 -8.10004652e-01 1.91976440e+00
      1.38478443e-01 1.05273789e-02 5.18862456e-02 -8.94339740e-01
      -3.44850756e-02 -1.02569386e-01 -3.29722129e-02 -8.82853270e-01
      -4.50674482e-02 -5.02031036e-02 -1.35200694e-01 -9.18898642e-01
      3.48776439e-03 -1.51358545e-01 -8.38413984e-02 -8.81898463e-01
      -9.43383947e-02 -1.90650418e-01 -1.10606827e-01 -8.73601854e-01
      -1.49979442e-01 -1.00752950e-01 -2.41410553e-01 -9.30289090e-01
      -4.11075167e-02 -1.48132250e-01 -1.35896221e-01 -8.90096009e-01
      -5.46246134e-02 -1.71751767e-01 -9.57090706e-02 -8.67511988e-01</_>
    <_>
      -8.68020654e-02 -8.71128678e-01 -5.84819019e-01 2.43418741e+00
      -1.14605176e+00 -1.49295008e+00 -1.39464366e+00 1.02212870e+00
      8.07261169e-01 4.21105139e-02 3.37125033e-01 2.81298780e+00
      -5.11370838e-01 -9.52786088e-01 -7.74125159e-01 2.14835882e+00
      -8.89526606e-01 -1.33935988e+00 -1.27123475e+00 1.29983616e+00
      1.25412679e+00 5.52573860e-01 8.27688158e-01 2.95876646e+00
      -1.53443078e-04 -4.11759764e-01 -2.23870158e-01 2.53382373e+00
      -4.61129755e-01 -9.64525640e-01 -8.80943596e-01 2.01692939e+00
      1.64900541e-01 7.30674490e-02 1.42242432e-01 -8.02591741e-01
      -2.23678611e-02 -4.40352038e-02 -7.01355422e-03 -7.83707559e-01
      2.37250198e-02 1.10950328e-01 9.30722877e-02 -8.43908846e-01
      7.61883855e-02 -1.63286522e-01 -1.11180082e-01 -7.89296269e-01
      -1.21961087e-01 -1.61555842e-01 -1.53786376e-01 -7.77477920e-01
      -1.01445140e-02 1.65030509e-01 9.36512426e-02 -8.61702561e-01
      1.46729261e-01 -1.15259819e-01 -1.15464926e-01 -8.06781113e-01
      -3.80344391e-02 -2.13822857e-01 -1.62688643e-01 -7.74212658e-01</_>
    <_>
      -1.49951305e-03 -8.55866790e-01 -4.08017904e-01 2.27598786e+00
      -9.96898532e-01 -1.76250398e+00 -1.58125401e+00 9.05279160e-01
      9.88684952e-01 3.01696867e-01 7.03157604e-01 2.64829969e+00
      -1.59611017e-01 -1.04510403e+00 -7.49386609e-01 1.99248600e+00
      -7.45890617e-01 -1.61810613e+00 -1.40743434e+00 1.17074728e+00
      1.48680770e+00 9.33127642e-01 1.26600289e+00 2.79317689e+00
      4.55338448e-01 -3.42483968e-01 -4.63978276e-02 2.36989427e+00
      -2.02057511e-01 -1.12870955e+00 -8.57002676e-01 1.86400747e+00
      2.18646631e-01 -1.12080403e-01 -3.92327458e-03 -8.18885446e-01
      1.78896766e-02 -1.12446882e-01 1.92039572e-02 -7.69981265e-01
      3.40637304e-02 -1.29037544e-01 -1.95483774e-01 -8.62704217e-01
      1.22296624e-01 -2.61047065e-01 -8.79184082e-02 -7.88628161e-01
      -2.17946450e-04 -2.10271731e-01 -5.88394105e-02 -7.62603879e-01
      -5.54039218e-02 -1.31419718e-01 -2.53127962e-01 -8.82007718e-01
      1.02910899e-01 -2.57279664e-01 -1.30290434e-01 -8.11495245e-01
      1.04514033e-01 -3.03256273e-01 -1.00193508e-01 -7.67451406e-01</_>
    <_>
      -2.98954248e-01 -6.79556251e-01 -2.76740640e-01 2.35555887e+00
      -1.34414423e+00 -1.48697019e+00 -1.42968178e+00 9.24691319e-01
      7.45717704e-01 4.09869701e-01 8.05946827e-01 2.73942924e+00
      -5.22563279e-01 -7.80243576e-01 -5.99728167e-01 2.05766535e+00
      -1.12465632e+00 -1.31917334e+00 -1.21578693e+00 1.19749343e+00
      1.28718817e+00 1.01651847e+00 1.35642624e+00 2.88680172e+00
      1.32064626e-01 -1.34831131e-01 8.49041939e-02 2.44541335e+00
      -5.78921020e-01 -8.47095728e-01 -6.64972901e-01 1.91582596e+00
      9.90381613e-02 6.98019639e-02 2.73627546e-02 -8.95964861e-01
      -8.89003053e-02 -1.13073073e-01 -8.41786265e-02 -8.67573500e-01
      -3.27594802e-02 1.03809526e-02 -1.60932273e-01 -9.35034692e-01
      -6.18852340e-02 -1.06582358e-01 -7.99631253e-02 -8.64957392e-01
      -1.56889126e-01 -1.73667639e-01 -1.65760234e-01 -8.44231665e-01
      -8.86580572e-02 -3.58962938e-02 -2.39974931e-01 -9.53554153e-01
      -4.68566343e-02 -8.74573961e-02 -8.17361921e-02 -8.83185089e-01
      -1.09933838e-01 -1.35240912e-01 -1.33394971e-01 -8.35837126e-01</_>
    <_>
      -3.00717112e-02 -8.32775712e-01 -4.36303824e-01 2.28468108e+00
      -9.95938182e-01 -1.69405079e+00 -1.60224998e+00 9.07413185e-01
      9.90766108e-01 2.98423588e-01 6.77742779e-01 2.65957189e+00
      -1.53130472e-01 -1.03324139e+00 -8.21052670e-01 1.99943542e+00
      -7.19604075e-01 -1.55098617e+00 -1.45943320e+00 1.17293143e+00
      1.49988842e+00 9.19118166e-01 1.23845840e+00 2.80535722e+00
      4.87177372e-01 -3.60962987e-01 -1.28252134e-01 2.37835312e+00
      -1.50900826e-01 -1.10266101e+00 -9.43701386e-01 1.86873293e+00
      2.22844765e-01 -7.34223127e-02 -1.52790388e-02 -8.15477431e-01
      5.62324247e-04 -1.00432664e-01 -5.76300174e-03 -7.75181055e-01
      5.26853092e-02 -1.20377563e-01 -2.07856178e-01 -8.62276912e-01
      1.07372887e-01 -2.24583656e-01 -1.03423044e-01 -7.86109567e-01
      -2.85228323e-02 -1.92591310e-01 -7.68103451e-02 -7.59229839e-01
      -1.67269874e-02 -1.31536394e-01 -2.46994138e-01 -8.83071482e-01
      8.96760747e-02 -2.19081610e-01 -1.44228697e-01 -8.09170485e-01
      6.79293200e-02 -2.42109448e-01 -1.15378067e-01 -7.58171320e-01</_>
    <_>
      -2.90838033e-01 -8.55044603e-01 -4.59469169e-01 2.40845037e+00
      -1.23343205e+00 -1.49218202e+00 -1.35686505e+00 9.91738677e-01
      6.85506165e-01 1.66443959e-01 5.58319271e-01 2.78912425e+00
      -5.15163004e-01 -9.14812267e-01 -6.73159957e-01 2.12348557e+00
      -9.65406537e-01 -1.35674179e+00 -1.19985497e+00 1.27310193e+00
      1.21058106e+00 7.63093948e-01 1.11064398e+00 2.93571997e+00
      1.07399397e-01 -3.14983279e-01 -4.90087494e-02 2.51061153e+00
      -4.34767127e-01 -9.48546648e-01 -7.43592262e-01 1.99399471e+00
      1.78379729e-01 5.78736067e-02 1.30405203e-01 -8.59110951e-01
      -3.68799046e-02 -9.77075994e-02 -3.54742557e-02 -8.44336033e-01
      6.39027581e-02 4.95941192e-02 -1.36747267e-02 -8.92682076e-01
      -3.88743379e-03 -1.61689952e-01 -5.95483370e-02 -8.45930338e-01
      -1.15979180e-01 -2.05417946e-01 -1.22148931e-01 -8.36022854e-01
      3.21286619e-02 5.45716584e-02 -6.80417046e-02 -9.07766044e-01
      7.08360318e-03 -1.17989622e-01 -6.91953301e-02 -8.59601259e-01
      -1.07008733e-01 -2.07188591e-01 -9.94863585e-02 -8.31518114e-01</_>
    <_>
      -4.37762886e-02 -8.47284436e-01 -4.67589676e-01 2.33956027e+00
      -1.04825330e+00 -1.60636508e+00 -1.50009978e+00 9.67603445e-01
      9.18696821e-01 2.32042894e-01 5.78676224e-01 2.70808220e+00
      -2.51922160e-01 -9.23230350e-01 -7.50399828e-01 2.06536984e+00
      -7.94250846e-01 -1.47553837e+00 -1.33772099e+00 1.24191999e+00
      1.41592276e+00 8.49539340e-01 1.14287305e+00 2.84972429e+00
      3.51660073e-01 -2.67267197e-01 -8.19877088e-02 2.44031429e+00
      -2.68049061e-01 -1.01885974e+00 -8.27586114e-01 1.94137263e+00
      1.84452429e-01 -1.80561244e-02 6.06011264e-02 -8.62476945e-01
      -4.37136041e-03 -8.45166221e-02 -2.12039780e-02 -8.54143262e-01
      3.03416215e-02 -2.69391593e-02 -9.22765434e-02 -8.87838602e-01
      6.95963427e-02 -2.33064055e-01 -9.08617526e-02 -8.56968999e-01
      -4.89876047e-02 -2.05587849e-01 -1.04639530e-01 -8.51838171e-01
      -6.79324418e-02 -6.50477335e-02 -1.75600827e-01 -8.98679674e-01
      5.25236726e-02 -2.48976126e-01 -1.22062847e-01 -8.65669310e-01
      2.69500911e-02 -2.83474654e-01 -1.37980998e-01 -8.48447084e-01</_>
    <_>
      -4.42258626e-01 -9.98184443e-01 -4.07498866e-01 2.46348739e+00
      -1.18400574e+00 -1.37856603e+00 -1.20124757e+00 1.06864452e+00
      5.27938128e-01 -6.57678992e-02 5.24337947e-01 2.83800125e+00
      -6.86582863e-01 -1.01689243e+00 -6.54212475e-01 2.18131685e+00
      -9.50115979e-01 -1.31383777e+00 -1.08922756e+00 1.34452367e+00
      1.08405530e+00 5.30601025e-01 1.05636895e+00 2.98208070e+00
      -1.24249890e-01 -5.04281104e-01 -1.03233479e-01 2.56138444e+00
      -5.78911901e-01 -1.04585862e+00 -7.27362096e-01 2.05249524e+00
      2.23174155e-01 1.10932879e-01 2.25756675e-01 -7.78004944e-01
      -1.96609218e-02 -7.13821501e-02 -1.66211110e-02 -7.57347703e-01
      6.26626462e-02 6.64883554e-02 6.45376891e-02 -8.11098158e-01
      4.85420711e-02 -1.65532380e-01 -2.52312440e-02 -7.78909862e-01
      -1.12166643e-01 -2.02316865e-01 -1.27770051e-01 -7.67007887e-01
      -4.63770656e-03 3.94265205e-02 -1.85174420e-02 -8.23438406e-01
      7.86662847e-02 -1.64600700e-01 -5.53356521e-02 -7.91417181e-01
      -1.90206617e-02 -2.49153838e-01 -1.32012755e-01 -7.71943152e-01</_>
    <_>
      -4.68654521e-02 -9.41264153e-01 -5.52606404e-01 2.35805702e+00
      -9.31226492e-01 -1.60573030e+00 -1.51847458e+00 9.83985007e-01
      9.10374582e-01 1.15778364e-01 4.75899726e-01 2.72772336e+00
      -1.71084285e-01 -1.03075564e+00 -8.63063276e-01 2.07349133e+00
      -6.42908812e-01 -1.50431991e+00 -1.38150978e+00 1.24892986e+00
      1.40762615e+00 7.25964367e-01 1.03584516e+00 2.87044930e+00
      4.09838974e-01 -4.08952117e-01 -2.22582906e-01 2.44744635e+00
      -1.31927997e-01 -1.10353851e+00 -9.18566346e-01 1.94103122e+00
      2.34217405e-01 -2.01751757e-02 5.65123148e-02 -8.08778822e-01
      -1.82549842e-02 -8.23636651e-02 -2.74455491e-02 -7.85453379e-01
      9.89343002e-02 -1.33967614e-02 -6.56484962e-02 -8.37799370e-01
      1.02581590e-01 -2.56625354e-01 -1.37133226e-01 -7.95631409e-01
      -6.85509071e-02 -1.96258575e-01 -1.42357022e-01 -7.81537831e-01
      3.05647105e-02 -6.44123508e-03 -1.00933760e-01 -8.50612819e-01
      1.40257224e-01 -2.51875281e-01 -1.24805100e-01 -8.07186067e-01
      5.90808094e-02 -3.10148984e-01 -2.08627805e-01 -7.81170309e-01</_>
    <_>
      -3.33954751e-01 -1.00608063e+00 -3.68594646e-01 2.42548418e+00
      -1.07736850e+00 -1.54647481e+00 -1.35479045e+00 1.02549219e+00
      5.53692400e-01 -4.87285443e-02 5.49153268e-01 2.80305123e+00
      -4.90201741e-01 -1.07699049e+00 -8.09537590e-01 2.13836694e+00
      -7.93197513e-01 -1.42856765e+00 -1.22434628e+00 1.29866195e+00
      1.03171051e+00 5.44297814e-01 1.05906856e+00 2.94937515e+00
      2.39265542e-02 -5.32996356e-01 -2.62182355e-01 2.52180433e+00
      -3.68983179e-01 -1.09083200e+00 -8.50300491e-01 2.00750589e+00
      3.14667702e-01 2.33489946e-02 1.17307127e-01 -7.86346138e-01
      2.01891847e-02 -6.83103800e-02 2.13308595e-02 -7.53278613e-01
      2.16977581e-01 4.98941503e-02 -7.39354193e-02 -8.21432471e-01
      1.70384109e-01 -2.36442626e-01 -5.96937872e-02 -7.70328879e-01
      -2.86862440e-02 -1.90842181e-01 -8.18774179e-02 -7.50671089e-01
      1.82205856e-01 7.31664002e-02 -1.41363323e-01 -8.37303102e-01
      2.44406492e-01 -1.80880234e-01 -6.58125654e-02 -7.87278354e-01
      1.05874188e-01 -3.12797576e-01 -1.02246515e-01 -7.57688403e-01</_>
    <_>
      -4.31202412e-01 -9.27330315e-01 -2.79662967e-01 2.41330600e+00
      -1.15611804e+00 -1.48923111e+00 -1.32867086e+00 1.00326645e+00
      5.38857877e-01 6.16694614e-02 7.17551529e-01 2.79615569e+00
      -6.34596109e-01 -1.07615006e+00 -7.18919218e-01 2.11937380e+00
      -8.78094912e-01 -1.39788878e+00 -1.23280895e+00 1.27407968e+00
      1.06364655e+00 6.49165928e-01 1.23514462e+00 2.94476366e+00
      -1.05459474e-01 -5.42845190e-01 -1.34434640e-01 2.50550795e+00
      -4.93456125e-01 -1.10984492e+00 -8.46110821e-01 1.98368680e+00
      3.03462118e-01 8.08533952e-02 1.20055065e-01 -7.68506050e-01
      -6.60298485e-03 -8.15916881e-02 4.88977320e-03 -7.25943506e-01
      1.80843472e-01 2.12434232e-02 -1.18124403e-01 -8.12369406e-01
      1.73887804e-01 -1.92928508e-01 -6.51309118e-02 -7.39072263e-01
      -5.47733754e-02 -2.11990371e-01 -1.10290915e-01 -7.13336468e-01
      1.17252320e-01 3.34555772e-03 -2.00263813e-01 -8.31832945e-01
      2.32722104e-01 -1.92065224e-01 -1.12287872e-01 -7.59955347e-01
      8.71368423e-02 -2.95167863e-01 -1.43192455e-01 -7.13616788e-01</_>
    <_>
      -3.55583638e-01 -9.69092727e-01 -4.40818608e-01 2.45574260e+00
      -1.13183010e+00 -1.45557642e+00 -1.26063347e+00 1.05600095e+00
      5.93912005e-01 -2.74234638e-02 4.69357759e-01 2.83231068e+00
      -5.50378382e-01 -1.07184124e+00 -6.95257843e-01 2.17088699e+00
      -8.98754537e-01 -1.36512077e+00 -1.14195263e+00 1.33200181e+00
      1.10879266e+00 5.30340731e-01 9.71414566e-01 2.97761130e+00
      1.04597257e-02 -5.59748232e-01 -1.48383811e-01 2.55309796e+00
      -4.93229389e-01 -1.10235882e+00 -7.79826820e-01 2.04190660e+00
      2.56548584e-01 5.41695952e-02 1.83460534e-01 -7.64182210e-01
      -7.89752696e-03 -7.88050592e-02 -6.85792509e-03 -7.40147173e-01
      1.39718458e-01 2.14234293e-02 5.63904904e-02 -8.07371914e-01
      7.50792474e-02 -1.97669402e-01 -6.03343099e-02 -7.60240793e-01
      -1.05394959e-01 -2.28454024e-01 -1.26349926e-01 -7.47541130e-01
      1.03705786e-01 3.14661451e-02 -5.30339824e-03 -8.23783576e-01
      1.17856957e-01 -1.86907068e-01 -8.17339644e-02 -7.79025257e-01
      -7.55169708e-03 -2.89971203e-01 -1.38017237e-01 -7.52304912e-01</_>
    <_>
      -1.18810214e-01 -7.77645051e-01 -4.49207485e-01 2.35105515e+00
      -1.16297448e+00 -1.53891349e+00 -1.46417928e+00 9.49002445e-01
      8.87303412e-01 2.97605425e-01 6.03353679e-01 2.72525525e+00
      -3.38878483e-01 -8.77999842e-01 -6.94561303e-01 2.06357622e+00
      -9.10750091e-01 -1.39675462e+00 -1.31026101e+00 1.22114241e+00
      1.39442360e+00 9.16522622e-01 1.17094707e+00 2.86903000e+00
      2.83334643e-01 -2.28088811e-01 -1.78310554e-02 2.44397140e+00
      -3.76224190e-01 -9.45284188e-01 -7.87141562e-01 1.92947853e+00
      1.22658864e-01 4.00940515e-02 8.76901820e-02 -8.99164975e-01
      -3.95362079e-02 -1.21184848e-01 -3.21507715e-02 -8.89019549e-01
      -3.91049571e-02 1.34449042e-02 -4.24542986e-02 -9.26087618e-01
      7.18208635e-03 -1.63115695e-01 -6.12822548e-02 -8.87949705e-01
      -1.02689646e-01 -2.15298787e-01 -1.09235600e-01 -8.80482316e-01
      -1.17508113e-01 -3.08519527e-02 -1.09872408e-01 -9.38552916e-01
      -2.96123489e-03 -1.45927981e-01 -9.02390108e-02 -8.98470759e-01
      -4.07130532e-02 -2.16579124e-01 -1.05863653e-01 -8.75268996e-01</_>
    <_>
      -4.80683714e-01 -1.03654242e+00 -2.89756417e-01 2.42538953e+00
      -1.20996666e+00 -1.45493019e+00 -1.23172092e+00 1.02881694e+00
      4.56710935e-01 -1.05834246e-01 6.61092281e-01 2.80219841e+00
      -7.54774034e-01 -1.10963678e+00 -6.36885345e-01 2.14086890e+00
      -9.77430463e-01 -1.37053609e+00 -1.06835735e+00 1.30317974e+00
      9.72354829e-01 4.68761355e-01 1.15798032e+00 2.94761729e+00
      -2.56248116e-01 -6.23475015e-01 -8.59115124e-02 2.52240062e+00
      -6.49259388e-01 -1.12630856e+00 -6.81873560e-01 2.01063585e+00
      2.85726011e-01 1.01270221e-01 2.13519901e-01 -7.82749355e-01
      -6.28473796e-03 -8.76924396e-02 1.63557213e-02 -7.54938781e-01
      1.82140186e-01 9.59927961e-02 4.76704463e-02 -8.21232021e-01
      1.59349740e-01 -1.49708062e-01 1.99722126e-02 -7.73605585e-01
      -7.13928044e-02 -2.09076464e-01 -7.82568678e-02 -7.56319225e-01
      1.22576900e-01 7.86963627e-02 -1.76779050e-02 -8.37006152e-01
      2.28251293e-01 -1.24318518e-01 -1.13369059e-02 -7.89952815e-01
      6.41768575e-02 -2.39652202e-01 -9.21840295e-02 -7.60190129e-01</_>
    <_>
      -2.96952814e-01 -9.83066320e-01 -4.54528362e-01 2.44083691e+00
      -1.20724630e+00 -1.41942239e+00 -1.28333557e+00 1.04237771e+00
      6.54225111e-01 -4.53423038e-02 4.98752862e-01 2.81707931e+00
      -6.64935052e-01 -1.01496041e+00 -7.57659137e-01 2.16213369e+00
      -1.04377699e+00 -1.27154291e+00 -1.09201896e+00 1.32357955e+00
      1.16185904e+00 5.24486601e-01 1.01248693e+00 2.96235204e+00
      -1.37515038e-01 -5.05690694e-01 -2.28445798e-01 2.54577923e+00
      -6.92914009e-01 -9.65648592e-01 -7.31274009e-01 2.03825212e+00
      2.21838593e-01 1.23412095e-01 2.12113023e-01 -7.80506194e-01
      -1.47126056e-02 -7.71703199e-02 -1.57187153e-02 -7.63542414e-01
      3.79062295e-02 1.34548545e-01 6.45686612e-02 -8.21388006e-01
      3.91645171e-02 -1.24203376e-01 2.29876563e-02 -7.70809650e-01
      -1.10585660e-01 -1.88879654e-01 -1.32226229e-01 -7.61065602e-01
      -5.08962199e-02 1.32233232e-01 -9.98554006e-03 -8.38843405e-01
      4.30194438e-02 -7.45714307e-02 3.58183645e-02 -7.88618445e-01
      -5.10795154e-02 -2.13666305e-01 -1.07770599e-01 -7.59296119e-01</_>
    <_>
      -3.95780385e-01 -1.02383769e+00 -5.21099746e-01 2.53753829e+00
      -1.08049047e+00 -1.31148744e+00 -1.23284125e+00 1.12123668e+00
      3.58597368e-01 -3.02747518e-01 2.52747059e-01 2.91854334e+00
      -6.82235241e-01 -9.79453504e-01 -8.15625310e-01 2.25164390e+00
      -8.64746332e-01 -1.15404308e+00 -1.06717074e+00 1.40121949e+00
      7.92258322e-01 1.57266453e-01 6.95045948e-01 3.06477261e+00
      -2.68934250e-01 -5.94532192e-01 -3.98162812e-01 2.63752270e+00
      -5.57390332e-01 -9.38546538e-01 -8.00310671e-01 2.11974907e+00
      3.13412607e-01 1.21657200e-01 2.40688398e-01 -7.33825207e-01
      1.52593357e-02 -3.44101898e-02 1.73527896e-02 -7.21266568e-01
      1.64522588e-01 1.26753226e-01 1.40683532e-01 -7.69642651e-01
      7.49233887e-02 -1.48933366e-01 -1.48579618e-02 -7.32381284e-01
      -1.00073732e-01 -1.87752411e-01 -1.24380700e-01 -7.25829661e-01
      1.14554077e-01 1.54742584e-01 1.13565318e-01 -7.84393370e-01
      1.05487272e-01 -1.24899656e-01 1.89837236e-02 -7.45029867e-01
      -2.79778503e-02 -2.42139027e-01 -9.78753492e-02 -7.25623012e-01</_>
    <_>
      -3.25946838e-01 -7.95884073e-01 -3.81744772e-01 2.42992377e+00
      -1.32359445e+00 -1.48409700e+00 -1.26440036e+00 1.00477123e+00
      6.33015215e-01 1.89811409e-01 5.56973457e-01 2.81234217e+00
      -6.39764786e-01 -8.74886990e-01 -5.96371710e-01 2.14067078e+00
      -1.14247274e+00 -1.31036019e+00 -1.04059553e+00 1.28484619e+00
      1.14525342e+00 7.49199927e-01 1.06895804e+00 2.95952630e+00
      -5.98976873e-02 -2.93807298e-01 -1.68816075e-02 2.52935219e+00
      -6.92283094e-01 -9.12799656e-01 -5.76621473e-01 2.00793481e+00
      1.34843692e-01 6.27278760e-02 1.88087091e-01 -8.54153275e-01
      -2.67899651e-02 -1.02099851e-01 -1.91607848e-02 -8.37431014e-01
      -1.52708925e-02 4.97183576e-02 5.92608079e-02 -8.94612372e-01
      -4.47693840e-02 -1.48991093e-01 -8.78118444e-03 -8.45858395e-01
      -1.22140199e-01 -2.17808992e-01 -1.12845451e-01 -8.36864591e-01
      -9.60766301e-02 3.14179361e-02 5.62395295e-03 -9.12631989e-01
      -6.03354238e-02 -1.15959376e-01 9.82415769e-03 -8.65041912e-01
      -9.16598663e-02 -2.00472176e-01 -5.43098785e-02 -8.37607861e-01</_>
    <_>
      -4.76966590e-01 -9.99893427e-01 -2.12610990e-01 2.40029669e+00
      -1.20746481e+00 -1.51479697e+00 -1.25268483e+00 9.96930540e-01
      4.97355640e-01 -2.88068373e-02 7.78502584e-01 2.78140831e+00
      -7.18277395e-01 -1.14689565e+00 -6.06258094e-01 2.10952234e+00
      -9.49164510e-01 -1.40583026e+00 -1.13111877e+00 1.26770175e+00
      1.01969433e+00 5.38424313e-01 1.27517664e+00 2.92917824e+00
      -1.92059994e-01 -6.50356591e-01 -3.86439227e-02 2.49396157e+00
      -5.84725082e-01 -1.13767564e+00 -7.29043365e-01 1.97536528e+00
      2.99889594e-01 6.50171936e-02 1.80827886e-01 -7.82658815e-01
      5.63140446e-03 -1.05923101e-01 2.55072918e-02 -7.46613324e-01
      1.92602620e-01 4.84260842e-02 -6.10187501e-02 -8.22529852e-01
      1.94889203e-01 -1.91975817e-01 -8.82958341e-03 -7.59521365e-01
      -5.42481393e-02 -2.19936818e-01 -8.07519183e-02 -7.35924661e-01
      1.40323162e-01 5.40030785e-02 -1.52200416e-01 -8.39717567e-01
      2.69457221e-01 -1.43655509e-01 -5.36462814e-02 -7.74774909e-01
      9.00656432e-02 -2.77808428e-01 -1.01800278e-01 -7.33349264e-01</_>
    <_>
      -1.82128042e-01 -6.96232736e-01 -3.28211457e-01 2.32473803e+00
      -1.26551402e+00 -1.61048305e+00 -1.44371963e+00 9.21576262e-01
      8.57101679e-01 3.96705210e-01 7.55380869e-01 2.70135856e+00
      -4.04931486e-01 -8.57929468e-01 -5.99654078e-01 2.04342055e+00
      -1.01250625e+00 -1.40116119e+00 -1.23630309e+00 1.20189643e+00
      1.37762201e+00 9.84454930e-01 1.29811728e+00 2.84677601e+00
      2.52640307e-01 -1.82815224e-01 7.13458732e-02 2.42760825e+00
      -4.32485193e-01 -8.79670680e-01 -6.81961536e-01 1.91739988e+00
      1.03979819e-01 6.96014846e-04 2.45422479e-02 -9.09098029e-01
      -3.26615460e-02 -1.14622712e-01 -2.06531659e-02 -8.93474281e-01
      -7.40510002e-02 -2.20113657e-02 -1.50754943e-01 -9.45546448e-01
      -1.17185013e-03 -1.46887884e-01 -6.45488426e-02 -8.96105409e-01
      -8.54860619e-02 -1.85371250e-01 -1.00781985e-01 -8.88356388e-01
      -1.58541486e-01 -3.98473889e-02 -2.29301944e-01 -9.61862803e-01
      -2.92253029e-02 -9.51671675e-02 -9.82721895e-02 -9.11756098e-01
      -6.18051998e-02 -1.94793165e-01 -9.58686545e-02 -8.83628130e-01</_>
    <_>
      -3.44895363e-01 -8.84621084e-01 -4.11108047e-01 2.44299746e+00
      -1.22756159e+00 -1.40114617e+00 -1.26656973e+00 1.03524315e+00
      6.33262694e-01 9.39336717e-02 5.64999819e-01 2.81915641e+00
      -6.72429562e-01 -9.58122313e-01 -6.87988758e-01 2.15473652e+00
      -1.00432539e+00 -1.27246189e+00 -1.11236894e+00 1.30991292e+00
      1.15759444e+00 6.71829045e-01 1.09529400e+00 2.96385908e+00
      -1.07686721e-01 -4.20850486e-01 -1.18805371e-01 2.53729939e+00
      -6.18672967e-01 -9.61118281e-01 -7.15017974e-01 2.02194905e+00
      2.01500028e-01 9.74934250e-02 1.79255337e-01 -8.19673777e-01
      -1.56938210e-02 -8.95146802e-02 -1.04492605e-02 -8.10829163e-01
      4.51781526e-02 1.77622568e-02 -4.98436578e-03 -8.49558949e-01
      6.61403388e-02 -1.50511771e-01 -2.58667786e-02 -8.17038119e-01
      -9.49533731e-02 -2.08071530e-01 -1.21109672e-01 -8.11219275e-01
      -3.01676728e-02 -2.07941346e-02 -8.96517858e-02 -8.62636209e-01
      8.38243812e-02 -1.40988603e-01 -4.74700071e-02 -8.27365458e-01
      -5.25731267e-03 -2.16675401e-01 -1.28441438e-01 -8.08548331e-01</_>
    <_>
      -2.15216264e-01 -6.73446894e-01 -2.93319523e-01 2.31678963e+00
      -1.25096798e+00 -1.59584260e+00 -1.47977483e+00 9.07943368e-01
      8.25944841e-01 4.69648749e-01 8.21111381e-01 2.69427490e+00
      -4.06696022e-01 -8.41290593e-01 -6.15517974e-01 2.02388430e+00
      -1.01549804e+00 -1.42208409e+00 -1.27612233e+00 1.17773259e+00
      1.36218619e+00 1.08466232e+00 1.38376248e+00 2.84051514e+00
      2.47998536e-01 -1.47751778e-01 9.62906927e-02 2.40791082e+00
      -4.54185158e-01 -9.18549776e-01 -6.99494958e-01 1.88812149e+00
      1.31477043e-01 -4.24059294e-03 3.81033355e-03 -8.91641974e-01
      -4.39083762e-02 -1.09617069e-01 -4.61012609e-02 -8.68473649e-01
      -1.25809787e-02 -8.43965709e-02 -2.20875785e-01 -9.30440903e-01
      2.53641861e-03 -1.50811583e-01 -8.42497796e-02 -8.67419422e-01
      -9.67618451e-02 -1.80548966e-01 -1.11299999e-01 -8.51058960e-01
      -9.43930447e-02 -1.36031613e-01 -3.09160650e-01 -9.47467685e-01
      -1.29639851e-02 -1.50428683e-01 -1.27053335e-01 -8.83266032e-01
      -4.28561531e-02 -1.70368433e-01 -1.10397987e-01 -8.42027009e-01</_>
    <_>
      -4.09189820e-01 -1.05033672e+00 -4.25185472e-01 2.43856478e+00
      -1.13281107e+00 -1.48333430e+00 -1.27009749e+00 1.03836608e+00
      5.56529462e-01 -4.76034358e-02 5.34305334e-01 2.81772685e+00
      -5.73152781e-01 -1.06922042e+00 -7.12032259e-01 2.15302968e+00
      -8.85934949e-01 -1.42378056e+00 -1.14514685e+00 1.31379545e+00
      1.11645651e+00 5.78556478e-01 1.07820690e+00 2.96464181e+00
      4.00190428e-03 -5.11975586e-01 -1.37949422e-01 2.53791356e+00
      -4.66856837e-01 -1.12397170e+00 -7.60253549e-01 2.02455306e+00
      2.82382905e-01 3.43468748e-02 1.80723876e-01 -7.53192067e-01
      8.40004347e-03 -8.72191563e-02 6.14026096e-03 -7.08105087e-01
      1.41715676e-01 9.30757355e-03 3.35819880e-03 -7.97613084e-01
      1.15135700e-01 -2.59508222e-01 -3.28278877e-02 -7.31254101e-01
      -5.88039905e-02 -2.36072481e-01 -9.96837765e-02 -7.10279226e-01
      6.69031963e-02 1.24668777e-02 -6.29758909e-02 -8.17012489e-01
      1.40589491e-01 -2.51983494e-01 -4.96464223e-02 -7.57426023e-01
      4.39457521e-02 -3.26434076e-01 -1.11877978e-01 -7.21315682e-01</_>
    <_>
      3.12337298e-02 -7.81172991e-01 -4.03026968e-01 2.25656223e+00
      -1.01035404e+00 -1.77275062e+00 -1.62539196e+00 8.81005943e-01
      1.03103900e+00 3.84478003e-01 7.13628531e-01 2.62924266e+00
      -1.32308394e-01 -9.96529996e-01 -7.72248805e-01 1.96877599e+00
      -7.36754477e-01 -1.62106502e+00 -1.45147407e+00 1.14484406e+00
      1.52623212e+00 1.00337672e+00 1.27394962e+00 2.77459955e+00
      4.91328746e-01 -2.76372701e-01 -6.19020686e-02 2.34640741e+00
      -1.65514410e-01 -1.09580636e+00 -8.89074326e-01 1.83743942e+00
      1.98970303e-01 -1.07948132e-01 -1.80971026e-02 -8.40085268e-01
      2.42141001e-02 -1.10364139e-01 1.30932676e-02 -7.78886080e-01
      1.14017008e-02 -1.50463313e-01 -2.21239597e-01 -8.81762326e-01
      1.17549099e-01 -2.46425122e-01 -9.01710987e-02 -8.01280618e-01
      6.52543269e-03 -1.98808417e-01 -6.19392209e-02 -7.67075658e-01
      -8.30287114e-02 -1.60025403e-01 -2.81524628e-01 -9.00364757e-01
      9.71091688e-02 -2.45219931e-01 -1.40717641e-01 -8.24651480e-01
      9.23806876e-02 -2.67705083e-01 -1.09802879e-01 -7.76053786e-01</_>
    <_>
      -1.40983649e-02 -9.70620215e-01 -4.62127090e-01 2.30885863e+00
      -8.77391279e-01 -1.67740715e+00 -1.51276481e+00 9.58258808e-01
      9.89935994e-01 1.45796388e-01 5.73652804e-01 2.67237782e+00
      -8.76877457e-02 -1.13434052e+00 -8.64940822e-01 2.02742791e+00
      -5.25624752e-01 -1.61146140e+00 -1.43613994e+00 1.21914291e+00
      1.52687132e+00 8.01696658e-01 1.13337243e+00 2.81287980e+00
      5.50123692e-01 -4.61680740e-01 -2.06010982e-01 2.39416504e+00
      2.88990233e-02 -1.18966043e+00 -9.76700544e-01 1.89699006e+00
      2.60889053e-01 -7.11917654e-02 3.85730602e-02 -7.67252922e-01
      1.37983810e-03 -9.71914530e-02 -1.66061930e-02 -7.08568513e-01
      8.20843652e-02 -1.22350983e-01 -1.59798473e-01 -8.00995708e-01
      1.37267888e-01 -3.08377653e-01 -1.50620222e-01 -7.39602804e-01
      -4.39580642e-02 -2.25449681e-01 -1.28155917e-01 -6.98384166e-01
      -3.30029652e-02 -1.37734413e-01 -2.20252454e-01 -8.14197600e-01
      1.39067784e-01 -3.00564736e-01 -1.95258677e-01 -7.57155895e-01
      8.70124996e-02 -3.54273349e-01 -2.11998075e-01 -7.15124369e-01</_>
    <_>
      -2.32353106e-01 -7.45380342e-01 -3.08038533e-01 2.33480811e+00
      -1.28983831e+00 -1.61739480e+00 -1.36159801e+00 9.35778439e-01
      8.04143846e-01 3.48525643e-01 7.44172215e-01 2.71073365e+00
      -4.97440130e-01 -9.51545000e-01 -5.60528517e-01 2.05315518e+00
      -1.06404161e+00 -1.46512580e+00 -1.17947340e+00 1.21429455e+00
      1.32619894e+00 9.62530255e-01 1.29407382e+00 2.85613108e+00
      1.41663343e-01 -2.93731481e-01 9.77055877e-02 2.43718171e+00
      -5.38828552e-01 -1.01996279e+00 -6.61103666e-01 1.92769146e+00
      1.31755292e-01 8.86781141e-03 7.56264552e-02 -8.58217478e-01
      -2.95339487e-02 -1.25038326e-01 -2.19301563e-02 -8.38165045e-01
      -3.03583592e-02 -5.33646997e-03 -1.02647796e-01 -9.06803071e-01
      2.67399270e-02 -1.67089507e-01 -4.86821868e-02 -8.46222401e-01
      -9.52181518e-02 -2.16969237e-01 -8.70946720e-02 -8.36439312e-01
      -9.08871517e-02 -2.01509669e-02 -1.72424480e-01 -9.29709136e-01
      3.60936262e-02 -1.23473577e-01 -7.95361772e-02 -8.72870922e-01
      -3.15814242e-02 -2.42550969e-01 -6.20327182e-02 -8.40523481e-01</_>
    <_>
      -2.90244728e-01 -7.41080284e-01 -2.98241854e-01 2.36442041e+00
      -1.31217360e+00 -1.52725708e+00 -1.39338803e+00 9.50471520e-01
      7.41250455e-01 3.31050098e-01 7.50414491e-01 2.74259567e+00
      -4.87640530e-01 -8.03760111e-01 -6.14100218e-01 2.07822847e+00
      -1.06725979e+00 -1.33977604e+00 -1.20569587e+00 1.22935855e+00
      1.28576624e+00 9.38364267e-01 1.29775190e+00 2.88834023e+00
      1.69906974e-01 -1.42830178e-01 5.23041785e-02 2.46394110e+00
      -5.08243978e-01 -8.37966323e-01 -6.72249734e-01 1.94815111e+00
      9.52109098e-02 5.88324666e-02 5.22458442e-02 -8.96770239e-01
      -5.77760004e-02 -1.09239921e-01 -5.46487309e-02 -8.78488183e-01
      -4.79420573e-02 4.67272475e-02 -1.30240098e-01 -9.29464459e-01
      -6.95855543e-02 -1.53673172e-01 -3.59158143e-02 -8.75662804e-01
      -1.27865881e-01 -1.82193726e-01 -1.21802866e-01 -8.63334775e-01
      -1.35951295e-01 2.76462012e-03 -2.06845328e-01 -9.44725096e-01
      -1.09414078e-01 -1.34393439e-01 -3.37542370e-02 -8.90437305e-01
      -1.27116054e-01 -1.96876004e-01 -7.51783475e-02 -8.56892824e-01</_>
    <_>
      -1.61597356e-01 -7.82681286e-01 -4.36961532e-01 2.35449743e+00
      -1.18997836e+00 -1.55893993e+00 -1.45390689e+00 9.54771340e-01
      8.06247234e-01 2.69073814e-01 5.92508793e-01 2.73000026e+00
      -3.74256074e-01 -8.58915687e-01 -7.03569591e-01 2.07578135e+00
      -9.48344350e-01 -1.42181611e+00 -1.26737952e+00 1.23568583e+00
      1.31584799e+00 8.73581767e-01 1.14359725e+00 2.87440109e+00
      2.61343390e-01 -2.12394685e-01 -5.65052368e-02 2.45844364e+00
      -3.96953613e-01 -9.64115143e-01 -7.65334070e-01 1.95020974e+00
      1.66485339e-01 3.78245376e-02 7.63144270e-02 -9.02693152e-01
      -2.80675180e-02 -8.90184790e-02 -3.12784687e-02 -8.91096175e-01
