<?xml version="1.0"?>
<opencv_storage>
<my_svm type_id="opencv-ml-svm">
  <svm_type>C_SVC</svm_type>
  <kernel><type>RBF</type>
    <gamma>1.2500000000000000e-01</gamma></kernel>
  <C>3.1250000000000000e-02</C>
  <term_criteria><epsilon>2.2204460492503131e-16</epsilon>
    <iterations>100</iterations></term_criteria>
  <var_all>72</var_all>
  <var_count>72</var_count>
  <class_count>8</class_count>
  <class_labels type_id="opencv-matrix">
    <rows>1</rows>
    <cols>8</cols>
    <dt>i</dt>
    <data>
      0 1 2 3 4 5 6 7</data></class_labels>
  <sv_total>1748</sv_total>
  <support_vectors>
    <_>
      2.42062509e-02 1.35123935e-02 1.06938574e-02 9.45038535e-03
      1.64138265e-02 7.50227971e-03 5.09823440e-03 5.55417407e-03
      1.85691789e-02 8.24836269e-03 5.76141942e-03 5.63707203e-03
      1.66625213e-02 7.75097404e-03 6.34170603e-03 5.80286840e-03
      1.40512306e-02 6.13446068e-03 4.68374370e-03 4.31070197e-03
      1.35538420e-02 4.93243802e-03 3.97910969e-03 3.97910969e-03
      1.07353060e-02 3.64751718e-03 3.31592467e-03 3.27447569e-03
      7.91676994e-03 2.52839271e-03 2.56984169e-03 2.23824917e-03
      3.68896616e-03 1.20202266e-03 8.28981167e-04 1.32636994e-03
      1.78230945e-02 7.83387199e-03 7.54372869e-03 7.50227971e-03
      9.28458944e-03 4.18635504e-03 3.68896616e-03 2.94288318e-03
      7.70952506e-03 2.65273987e-03 2.65273987e-03 2.32114736e-03
      7.62662711e-03 2.36259634e-03 2.03100382e-03 2.07245303e-03
      6.59040036e-03 1.82375859e-03 1.40926801e-03 2.03100382e-03
      7.33648334e-03 2.85998499e-03 2.48694350e-03 1.78230950e-03
      6.21735863e-03 2.85998499e-03 2.69418885e-03 2.44549452e-03
      4.60084574e-03 1.69941143e-03 2.19680020e-03 1.07767549e-03
      8.08256678e-03 6.30025705e-03 6.30025705e-03 5.22258133e-03</_>
    <_>
      9.14388150e-03 5.37875388e-03 3.31689836e-03 4.34782589e-03
      5.78216044e-03 1.97220966e-03 1.74809503e-03 1.65844918e-03
      5.42357704e-03 2.19632452e-03 1.47915736e-03 1.43433444e-03
      7.03720283e-03 2.73419986e-03 2.24114745e-03 2.24114745e-03
      5.60286874e-03 1.88256393e-03 1.16539665e-03 1.29986554e-03
      5.64769143e-03 2.42043915e-03 1.92738685e-03 1.43433444e-03
      6.27521286e-03 2.51008524e-03 1.56880321e-03 1.21021958e-03
      4.79605561e-03 2.01703282e-03 8.96458980e-04 8.51636054e-04
      2.68937694e-03 9.41281964e-04 7.61990144e-04 5.82698325e-04
      8.38189106e-03 2.68937694e-03 2.51008524e-03 2.64455401e-03
      4.88570146e-03 1.70327211e-03 1.79291796e-03 1.38951140e-03
      4.39264905e-03 1.65844918e-03 1.29986554e-03 1.52398029e-03
      3.54101299e-03 1.25504262e-03 1.34468847e-03 9.86104831e-04
      4.25818004e-03 8.96458980e-04 1.29986554e-03 8.51636054e-04
      4.61676391e-03 1.25504262e-03 1.34468847e-03 1.16539665e-03
      4.88570146e-03 1.52398029e-03 1.34468847e-03 1.12057372e-03
      3.13760643e-03 1.38951140e-03 1.03092787e-03 3.58583609e-04
      7.30614085e-03 5.96145215e-03 5.37875388e-03 5.10981632e-03</_>
    <_>
      1.97254214e-02 1.20719587e-02 1.32554835e-02 1.02572199e-02
      1.27820736e-02 4.81300289e-03 4.26069135e-03 3.47167440e-03
      1.15196463e-02 4.18178970e-03 3.31387087e-03 3.55057605e-03
      9.70490742e-03 2.99826427e-03 3.15606757e-03 2.28814897e-03
      6.15433184e-03 1.97254214e-03 2.36705062e-03 2.20924732e-03
      4.57629794e-03 1.97254214e-03 2.60375580e-03 3.23496922e-03
      4.73410124e-03 1.02572190e-03 1.81473885e-03 1.89364050e-03
      3.70837934e-03 7.89016893e-04 1.89364050e-03 1.42023037e-03
      2.36705062e-03 5.52311831e-04 6.31213479e-04 9.46820248e-04
      8.67918599e-03 4.10288759e-03 3.86618264e-03 2.76155910e-03
      5.99652855e-03 2.20924732e-03 2.28814897e-03 2.20924732e-03
      4.33959300e-03 2.20924732e-03 9.46820248e-04 1.34132872e-03
      2.99826427e-03 1.02572190e-03 9.46820248e-04 1.18352531e-03
      3.94508429e-03 6.31213479e-04 8.67918599e-04 9.46820248e-04
      4.18178970e-03 4.73410124e-04 1.42023037e-03 1.02572190e-03
      4.02398594e-03 7.10115186e-04 7.89016893e-04 1.42023037e-03
      2.52485392e-03 1.02572190e-03 5.52311831e-04 5.52311831e-04
      1.15985479e-02 9.38930083e-03 9.23149753e-03 9.38930083e-03</_>
    <_>
      1.20242210e-02 7.26643577e-03 8.39100312e-03 6.83391001e-03
      8.21799319e-03 2.68166093e-03 2.33564014e-03 2.50865053e-03
      7.35294120e-03 2.33564014e-03 2.16262974e-03 3.37370252e-03
      6.14186842e-03 2.07612454e-03 1.21107267e-03 1.81660894e-03
      6.05536345e-03 2.16262974e-03 1.47058826e-03 1.55709346e-03
      7.26643577e-03 2.42214534e-03 1.12456747e-03 2.07612454e-03
      5.53633226e-03 1.73010386e-03 1.98961934e-03 1.21107267e-03
      3.89273348e-03 1.47058826e-03 2.07612454e-03 1.29757787e-03
      2.24913494e-03 8.65051930e-04 6.92041533e-04 9.51557071e-04
      7.95847736e-03 5.19031147e-03 2.94117653e-03 3.20069212e-03
      5.53633226e-03 1.90311414e-03 2.16262974e-03 1.81660894e-03
      4.58477531e-03 1.98961934e-03 1.55709346e-03 1.12456747e-03
      6.22837385e-03 2.33564014e-03 1.81660894e-03 1.73010386e-03
      6.22837385e-03 2.68166093e-03 1.21107267e-03 2.07612454e-03
      6.66089961e-03 2.76816613e-03 1.47058826e-03 2.07612454e-03
      6.05536345e-03 2.33564014e-03 1.38408307e-03 1.64359866e-03
      6.74740504e-03 2.16262974e-03 1.29757787e-03 9.51557071e-04
      1.55709339e-02 1.20242210e-02 1.04671279e-02 1.04671279e-02</_>
    <_>
      2.53288299e-02 1.40419481e-02 1.30643444e-02 1.05758980e-02
      2.39512976e-02 1.19534303e-02 1.03537152e-02 9.46498383e-03
      2.17739064e-02 1.15535017e-02 9.64273047e-03 8.44294392e-03
      2.19516531e-02 9.15392861e-03 9.77603998e-03 8.22076108e-03
      1.82634201e-02 9.24280100e-03 7.73195876e-03 6.79879123e-03
      1.70636326e-02 6.66548172e-03 7.95414113e-03 6.75435457e-03
      1.40863843e-02 6.48773555e-03 6.04336988e-03 5.28794900e-03
      9.55385715e-03 4.75471048e-03 3.82154295e-03 3.02168494e-03
      3.99928913e-03 1.68858864e-03 1.19978667e-03 1.11091358e-03
      1.38642015e-02 6.84322789e-03 4.71027382e-03 5.42125851e-03
      9.82047617e-03 3.06612160e-03 3.02168494e-03 3.28830420e-03
      6.75435457e-03 2.35513691e-03 1.42196938e-03 1.68858864e-03
      5.68787754e-03 2.04408099e-03 1.59971556e-03 1.06647704e-03
      4.08816198e-03 1.06647704e-03 7.10984692e-04 7.10984692e-04
      2.84393877e-03 1.19978667e-03 1.24422321e-03 1.02204049e-03
      2.39957334e-03 7.55421235e-04 7.99857778e-04 5.33238519e-04
      2.26626382e-03 8.44294322e-04 3.55492346e-04 3.11055803e-04
      6.75435457e-03 5.86562371e-03 5.91006037e-03 5.37682185e-03</_>
    <_>
      1.66898463e-02 8.90125148e-03 8.25220253e-03 8.48400593e-03
      8.80852994e-03 3.47705139e-03 3.10616591e-03 3.94065818e-03
      6.35141414e-03 3.33796930e-03 3.29160877e-03 2.22531287e-03
      5.65600349e-03 3.15252668e-03 3.05980537e-03 2.41075573e-03
      7.13954587e-03 3.33796930e-03 2.78164120e-03 1.66898465e-03
      8.25220253e-03 3.19888745e-03 2.68891989e-03 1.80806674e-03
      7.27862772e-03 2.82800174e-03 2.54983781e-03 2.36439495e-03
      6.76866015e-03 1.43718126e-03 9.73574410e-04 1.76170608e-03
      3.94065818e-03 9.73574410e-04 7.41770957e-04 1.06629578e-03
      1.56235509e-02 6.39777491e-03 5.84144657e-03 4.77515068e-03
      1.14510898e-02 4.21882235e-03 3.89429764e-03 2.87436252e-03
      7.51043111e-03 3.33796930e-03 2.82800174e-03 2.54983781e-03
      6.16597105e-03 2.45711626e-03 2.03987025e-03 1.39082060e-03
      4.77515068e-03 2.27167364e-03 2.08623079e-03 1.43718126e-03
      7.13954587e-03 2.78164120e-03 2.22531287e-03 1.43718126e-03
      5.33147901e-03 1.43718126e-03 1.62262400e-03 1.11265643e-03
      4.40426497e-03 1.57626334e-03 1.25173852e-03 1.90078816e-03
      9.50394105e-03 6.95410278e-03 6.62957830e-03 7.46407034e-03</_>
    <_>
      1.90442223e-02 1.08416546e-02 9.98573471e-03 9.27246828e-03
      1.56918690e-02 6.77603437e-03 4.56490740e-03 5.34950057e-03
      1.45506421e-02 5.42082731e-03 5.49215404e-03 4.56490740e-03
      1.06990011e-02 5.42082731e-03 4.49358067e-03 3.49500705e-03
      7.77460774e-03 2.56776041e-03 2.99572037e-03 2.78174039e-03
      6.99001411e-03 2.49643368e-03 2.63908692e-03 1.85449363e-03
      5.56348078e-03 1.56918692e-03 2.63908692e-03 1.56918692e-03
      4.42225393e-03 1.21255347e-03 1.28388021e-03 1.42653356e-03
      1.78316690e-03 3.56633391e-04 3.56633391e-04 5.70613425e-04
      8.98716133e-03 3.42368055e-03 2.56776041e-03 3.13837384e-03
      5.49215404e-03 2.92439363e-03 1.64051354e-03 2.13980023e-03
      4.92154062e-03 1.56918692e-03 1.85449363e-03 1.99714699e-03
      4.63623414e-03 2.21112696e-03 1.49786018e-03 2.06847372e-03
      4.27960046e-03 1.49786018e-03 1.21255347e-03 1.99714699e-03
      3.20970034e-03 1.99714699e-03 1.42653356e-03 1.35520683e-03
      3.35235381e-03 1.28388021e-03 4.99286747e-04 8.55920138e-04
      1.78316690e-03 1.28388021e-03 7.13266782e-04 7.13266782e-04
      9.91440844e-03 8.63052811e-03 7.91726075e-03 8.05991422e-03</_>
    <_>
      8.56690109e-03 6.53659506e-03 4.60532820e-03 4.80340701e-03
      6.48707524e-03 3.46637610e-03 1.88174704e-03 1.58462906e-03
      8.56690109e-03 3.02069914e-03 1.68366847e-03 1.78270775e-03
      6.23947708e-03 2.47598300e-03 1.98078644e-03 1.38655049e-03
      4.30821022e-03 1.73318805e-03 1.08943251e-03 9.40873520e-04
      4.85292682e-03 1.08943251e-03 1.53510948e-03 1.53510948e-03
      3.96157289e-03 1.38655049e-03 1.08943251e-03 6.43755542e-04
      3.21877794e-03 1.03991281e-03 5.94235898e-04 2.47598306e-04
      2.37694359e-03 3.46637622e-04 2.47598306e-04 9.90393164e-05
      6.23947708e-03 1.58462906e-03 2.03030603e-03 2.17886502e-03
      4.11013188e-03 1.03991281e-03 1.13895221e-03 9.40873520e-04
      3.16925813e-03 9.90393222e-04 1.28751108e-03 7.42794888e-04
      3.36733693e-03 1.28751108e-03 1.08943251e-03 8.91353877e-04
      3.76349408e-03 1.48558978e-03 1.03991281e-03 9.40873520e-04
      4.35773004e-03 1.98078644e-03 1.43607007e-03 1.38655049e-03
      2.92165997e-03 1.53510948e-03 1.13895221e-03 1.28751108e-03
      2.87214015e-03 1.03991281e-03 7.42794888e-04 8.91353877e-04
      8.51738174e-03 6.23947708e-03 5.79380011e-03 5.34812314e-03</_>
    <_>
      1.18702957e-02 8.20304919e-03 7.04497192e-03 7.62401102e-03
      9.26462095e-03 2.60567456e-03 3.28121986e-03 1.54410349e-03
      6.65894616e-03 2.02663569e-03 1.83362281e-03 1.25458406e-03
      7.91352987e-03 2.50916812e-03 1.64060993e-03 2.02663569e-03
      5.98340109e-03 1.54410349e-03 9.65064683e-04 5.79038810e-04
      6.07990753e-03 1.73711637e-03 7.72051746e-04 1.15807762e-03
      5.59737487e-03 1.44759694e-03 1.44759694e-03 1.73711637e-03
      4.72881692e-03 1.54410349e-03 2.02663569e-03 8.68558185e-04
      2.79868743e-03 1.15807762e-03 1.44759694e-03 6.75545249e-04
      7.72051746e-03 2.89519387e-03 2.89519387e-03 2.12314236e-03
      5.21134911e-03 1.54410349e-03 1.35109050e-03 1.64060993e-03
      5.50086843e-03 1.06157118e-03 2.21964880e-03 9.65064683e-04
      6.07990753e-03 1.54410349e-03 1.73711637e-03 1.06157118e-03
      6.17641397e-03 2.12314236e-03 1.25458406e-03 1.73711637e-03
      7.14147836e-03 1.15807762e-03 1.54410349e-03 1.73711637e-03
      6.85195904e-03 2.21964880e-03 1.54410349e-03 1.93012937e-03
      6.46593329e-03 2.12314236e-03 1.93012937e-03 1.93012937e-03
      1.72746573e-02 1.33178923e-02 1.19668022e-02 1.26423473e-02</_>
    <_>
      1.34921530e-02 7.73399556e-03 7.67754298e-03 6.77430304e-03
      7.79044814e-03 3.10488883e-03 2.76617357e-03 1.63712318e-03
      5.02427481e-03 2.99198367e-03 1.97583833e-03 1.69357576e-03
      5.98396733e-03 2.54036346e-03 1.97583833e-03 1.41131307e-03
      5.75815747e-03 2.25810101e-03 1.91938574e-03 9.59692872e-04
      6.88720774e-03 2.54036346e-03 1.75002823e-03 1.58067071e-03
      5.53234713e-03 1.97583833e-03 1.52421813e-03 1.75002823e-03
      4.51620203e-03 1.01614546e-03 1.52421813e-03 1.12905051e-03
      1.86293328e-03 5.64525253e-04 6.20977778e-04 2.82262627e-04
      1.00485496e-02 4.85491706e-03 3.95167666e-03 3.21779377e-03
      7.73399556e-03 2.82262615e-03 3.04843625e-03 2.42745853e-03
      6.26623025e-03 2.65326863e-03 2.59681605e-03 1.80648069e-03
      6.37913495e-03 2.48391111e-03 2.65326863e-03 1.97583833e-03
      5.98396733e-03 2.87907873e-03 3.44360387e-03 2.70972122e-03
      8.07271060e-03 2.99198367e-03 3.55650904e-03 3.10488883e-03
      6.94366032e-03 3.21779377e-03 3.27424635e-03 2.20164843e-03
      4.91136964e-03 1.80648069e-03 2.03229091e-03 9.03240347e-04
      1.00485496e-02 7.33882794e-03 7.67754298e-03 6.66139787e-03</_>
    <_>
      1.91485863e-02 7.72518059e-03 9.53320228e-03 6.32807380e-03
      1.47928996e-02 5.01314923e-03 5.75279444e-03 4.43786988e-03
      1.09303091e-02 3.86259030e-03 4.02695592e-03 3.20512825e-03
      8.87573976e-03 4.02695592e-03 3.36949364e-03 2.62984890e-03
      7.56081520e-03 2.05456931e-03 2.38330057e-03 1.97238661e-03
      6.82117045e-03 2.95857992e-03 3.12294532e-03 2.30111764e-03
      6.90335315e-03 3.28731094e-03 3.45167657e-03 3.20512825e-03
      5.50624589e-03 2.38330057e-03 2.13675224e-03 2.21893494e-03
      2.05456931e-03 6.57462224e-04 9.86193307e-04 5.75279410e-04
      9.77975037e-03 2.87639722e-03 4.02695592e-03 3.04076262e-03
      6.08152524e-03 2.05456931e-03 2.21893494e-03 2.38330057e-03
      4.84878384e-03 1.64365547e-03 1.31492445e-03 1.64365547e-03
      3.69822490e-03 1.89020380e-03 1.64365547e-03 9.86193307e-04
      4.10913862e-03 1.23274163e-03 1.15055882e-03 6.57462224e-04
      4.84878384e-03 1.89020380e-03 1.47928996e-03 1.15055882e-03
      4.27350448e-03 1.15055882e-03 2.13675224e-03 1.31492445e-03
      3.69822490e-03 9.86193307e-04 1.06837612e-03 1.39710715e-03
      1.23274159e-02 1.08481264e-02 9.94411577e-03 9.86193307e-03</_>
    <_>
      1.58238728e-02 1.10939108e-02 1.01479189e-02 8.34193360e-03
      8.68593063e-03 5.58995549e-03 3.52597190e-03 3.26797389e-03
      8.25593434e-03 4.12796717e-03 3.61197116e-03 2.32198136e-03
      6.36394927e-03 2.40798085e-03 3.26797389e-03 1.71998620e-03
      5.07395947e-03 2.57997937e-03 2.75197788e-03 1.28998968e-03
      6.87994482e-03 2.23598210e-03 2.32198136e-03 1.37598894e-03
      4.90196096e-03 2.40798085e-03 2.06398359e-03 1.37598894e-03
      5.24595799e-03 2.14998284e-03 1.89198484e-03 1.46198831e-03
      3.86996893e-03 1.28998968e-03 1.46198831e-03 9.45992419e-04
      1.08359130e-02 3.61197116e-03 3.69797042e-03 2.49398011e-03
      6.70794630e-03 1.89198484e-03 1.54798757e-03 1.97798409e-03
      6.10595103e-03 2.40798085e-03 1.80598558e-03 1.11799105e-03
      6.36394927e-03 1.71998620e-03 2.06398359e-03 1.54798757e-03
      4.81596170e-03 2.75197788e-03 2.49398011e-03 1.54798757e-03
      5.50395576e-03 2.57997937e-03 1.63398695e-03 1.63398695e-03
      4.38596494e-03 1.46198831e-03 1.54798757e-03 9.45992419e-04
      4.90196096e-03 1.11799105e-03 6.87994470e-04 6.01995212e-04
      1.38458889e-02 1.08359130e-02 1.02339182e-02 1.02339182e-02</_>
    <_>
      1.60860885e-02 8.69018584e-03 7.28496397e-03 6.06464036e-03
      8.28341115e-03 4.25264426e-03 3.43909464e-03 2.77346349e-03
      7.98757467e-03 4.47452115e-03 3.29117663e-03 2.92138150e-03
      7.83965643e-03 4.21566470e-03 3.43909464e-03 2.95836106e-03
      7.35892309e-03 3.69795132e-03 2.92138150e-03 2.99534062e-03
      8.46830849e-03 4.40056203e-03 3.62399220e-03 3.84586933e-03
      6.91516884e-03 3.43909464e-03 2.84742261e-03 3.40211531e-03
      7.02610752e-03 1.92293467e-03 1.92293467e-03 2.40366836e-03
      2.07085279e-03 3.32815631e-04 2.58856599e-04 4.43754165e-04
      1.28318910e-02 7.32194353e-03 7.83965643e-03 5.54692699e-03
      8.76414496e-03 3.77191044e-03 3.62399220e-03 2.81044305e-03
      6.02766080e-03 2.29272991e-03 2.47762748e-03 2.03387323e-03
      5.21411141e-03 1.92293467e-03 1.92293467e-03 1.44220097e-03
      6.02766080e-03 1.84897566e-03 1.92293467e-03 1.33126252e-03
      5.80578344e-03 2.25575035e-03 1.33126252e-03 1.73803710e-03
      4.36358247e-03 1.14636496e-03 9.98446834e-04 1.55313953e-03
      4.17868514e-03 1.14636496e-03 1.03542639e-03 5.91672200e-04
      6.87818928e-03 5.43598831e-03 5.14015229e-03 4.69639804e-03</_>
    <_>
      1.52572291e-02 7.98587780e-03 8.53228010e-03 7.27135176e-03
      8.53228010e-03 3.27841286e-03 3.44653660e-03 2.52185599e-03
      5.75823803e-03 2.05951580e-03 2.47982517e-03 2.26967037e-03
      5.96839283e-03 2.35373224e-03 2.26967037e-03 2.22763955e-03
      6.01042388e-03 1.97545392e-03 1.97545392e-03 1.72326830e-03
      7.94384629e-03 3.27841286e-03 3.11028911e-03 2.81607267e-03
      7.94384629e-03 2.77404161e-03 3.32044391e-03 3.95090785e-03
      5.08574303e-03 1.13483518e-03 1.00874249e-03 1.47108268e-03
      2.05951580e-03 5.04371244e-04 4.62340278e-04 4.62340278e-04
      1.58876926e-02 7.69166090e-03 8.28009378e-03 7.85978511e-03
      8.19603261e-03 4.66543389e-03 4.74949554e-03 4.16106265e-03
      7.60759925e-03 4.45527909e-03 4.66543389e-03 3.32044391e-03
      8.32212530e-03 4.49731015e-03 3.90887680e-03 3.44653660e-03
      7.56556820e-03 2.90013454e-03 3.40450578e-03 2.56388704e-03
      8.95258877e-03 3.69872223e-03 3.99293890e-03 3.65669141e-03
      8.28009378e-03 3.02622723e-03 3.15232016e-03 2.68997974e-03
      5.96839283e-03 2.05951580e-03 1.42905174e-03 1.89139205e-03
      8.53228010e-03 6.72494946e-03 6.13651657e-03 6.59885677e-03</_>
    <_>
      2.74917427e-02 1.14144161e-02 1.15115605e-02 8.79152864e-03
      2.17116773e-02 8.69438518e-03 8.74295738e-03 6.94579352e-03
      1.36487270e-02 5.00291446e-03 4.27433476e-03 3.49718286e-03
      1.10258404e-02 3.59432679e-03 3.15717887e-03 2.33145524e-03
      6.31435774e-03 2.33145524e-03 2.38002720e-03 1.84573536e-03
      7.67437322e-03 2.67145899e-03 2.52574310e-03 1.94287940e-03
      6.65436173e-03 2.04002322e-03 2.23431131e-03 2.13716738e-03
      3.88575881e-03 1.60287542e-03 1.11715565e-03 1.45715952e-03
      1.84573536e-03 6.31435774e-04 2.42859925e-04 3.40003899e-04
      9.66582447e-03 5.78006590e-03 3.40003893e-03 5.05148619e-03
      6.55721780e-03 2.81717512e-03 1.89430732e-03 2.04002322e-03
      4.85719834e-03 2.04002322e-03 2.13716738e-03 1.55430345e-03
      4.76005441e-03 2.13716738e-03 1.65144750e-03 1.45715952e-03
      4.42005042e-03 1.74859143e-03 1.45715952e-03 1.06858369e-03
      4.76005441e-03 1.55430345e-03 2.18573934e-03 1.60287542e-03
      4.76005441e-03 2.33145524e-03 1.94287940e-03 1.89430732e-03
      5.05148619e-03 1.99145125e-03 2.08859541e-03 2.08859541e-03
      9.86011233e-03 7.28579750e-03 6.70293393e-03 6.46007387e-03</_>
    <_>
      1.16943866e-02 8.92238412e-03 7.10325688e-03 7.10325688e-03
      3.98475397e-03 2.07900209e-03 1.38600136e-03 8.66250892e-04
      2.94525293e-03 8.66250892e-04 1.55925157e-03 1.29937625e-03
      3.89812887e-03 1.21275126e-03 1.29937625e-03 1.47262646e-03
      4.33125440e-03 6.93000678e-04 7.79625785e-04 1.38600136e-03
      4.50450461e-03 9.52875940e-04 1.29937625e-03 8.66250892e-04
      4.24462929e-03 1.29937625e-03 1.47262646e-03 1.21275126e-03
      1.81912677e-03 6.93000678e-04 9.52875940e-04 7.79625785e-04
      1.38600136e-03 3.46500339e-04 5.19750523e-04 6.93000678e-04
      5.02425525e-03 1.55925157e-03 2.16562720e-03 1.90575188e-03
      2.68537761e-03 6.93000678e-04 6.06375630e-04 9.52875940e-04
      3.20512825e-03 1.38600136e-03 1.03950105e-03 6.93000678e-04
      4.41787951e-03 2.16562720e-03 1.12612615e-03 6.06375630e-04
      4.85100504e-03 1.38600136e-03 1.38600136e-03 1.21275126e-03
      4.67775483e-03 1.81912677e-03 1.47262646e-03 1.03950105e-03
      3.98475397e-03 1.38600136e-03 1.73250178e-03 2.25225231e-03
      3.03187803e-03 1.47262646e-03 1.21275126e-03 6.06375630e-04
      1.31670134e-02 1.08281355e-02 1.03083849e-02 9.96188540e-03</_>
    <_>
      2.85983924e-02 1.31298210e-02 1.42376497e-02 1.18989004e-02
      2.50287224e-02 1.09551949e-02 9.84736625e-03 8.20613839e-03
      1.88330878e-02 8.24716873e-03 8.12407676e-03 7.71377003e-03
      1.70687679e-02 7.13934004e-03 6.07254216e-03 6.93418691e-03
      1.35401282e-02 4.75956034e-03 4.71852953e-03 3.81585420e-03
      1.15706548e-02 6.03151135e-03 4.80059069e-03 4.47234511e-03
      9.43705905e-03 3.65173141e-03 3.07730190e-03 2.66699493e-03
      5.04677510e-03 1.27195136e-03 1.64122763e-03 2.17462657e-03
      2.66699493e-03 7.38552422e-04 6.56491029e-04 6.56491029e-04
      1.66174304e-02 7.67273922e-03 7.83686154e-03 7.09830970e-03
      7.13934004e-03 2.74905632e-03 3.52863944e-03 2.95420969e-03
      5.94945019e-03 2.37978017e-03 2.58493354e-03 1.27195136e-03
      4.84162150e-03 2.25668796e-03 1.84638111e-03 1.14885939e-03
      3.61070083e-03 1.27195136e-03 1.14885939e-03 8.61644512e-04
      4.96471347e-03 2.50287214e-03 2.13359599e-03 1.55916624e-03
      5.53914346e-03 2.09256518e-03 2.05153460e-03 1.51813554e-03
      5.12883626e-03 2.01050378e-03 1.68225833e-03 1.10782869e-03
      8.16510711e-03 6.15460379e-03 5.86738903e-03 5.62120462e-03</_>
    <_>
      3.38145904e-02 1.82370823e-02 1.22340424e-02 1.17021278e-02
      1.48936175e-02 6.99088164e-03 5.54711232e-03 5.77507587e-03
      1.01823704e-02 5.31914877e-03 3.26747727e-03 4.71124612e-03
      1.13981767e-02 3.41945281e-03 4.10334347e-03 5.47112478e-03
      9.19452868e-03 3.95136792e-03 4.02735546e-03 3.26747727e-03
      7.97872338e-03 4.63525858e-03 3.19148926e-03 4.02735546e-03
      8.43465049e-03 3.34346504e-03 2.96352594e-03 2.12765951e-03
      6.68693008e-03 1.74772041e-03 2.96352594e-03 1.97568396e-03
      3.19148926e-03 9.11854091e-04 5.31914877e-04 1.06382975e-03
      1.19300913e-02 4.10334347e-03 4.48328257e-03 3.57142859e-03
      8.96656513e-03 2.65957438e-03 2.50759884e-03 3.19148926e-03
      6.91489363e-03 2.81155016e-03 2.20364751e-03 2.35562306e-03
      6.76291808e-03 2.12765951e-03 1.29179331e-03 2.27963529e-03
      6.76291808e-03 2.35562306e-03 1.82370818e-03 1.51975686e-03
      6.07902743e-03 1.59574463e-03 2.27963529e-03 1.59574463e-03
      4.78723412e-03 1.67173252e-03 1.89969607e-03 1.44376897e-03
      4.63525858e-03 1.13981764e-03 1.44376897e-03 1.21580542e-03
      1.14741642e-02 9.49848071e-03 8.81459005e-03 8.35866295e-03</_>
    <_>
      1.04948971e-02 6.73984224e-03 6.69170031e-03 5.53629873e-03
      5.68072405e-03 3.03292903e-03 2.31080293e-03 2.07009446e-03
      6.45099161e-03 3.08107072e-03 2.45522824e-03 2.07009446e-03
      9.58020426e-03 4.81417309e-03 3.08107072e-03 3.56248789e-03
      8.32851883e-03 3.89947998e-03 3.32177943e-03 3.08107072e-03
      9.00250301e-03 5.00673987e-03 3.56248789e-03 4.42903908e-03
      1.03986133e-02 4.23647230e-03 3.89947998e-03 3.61062959e-03
      8.66551138e-03 3.75505490e-03 3.08107072e-03 2.88850372e-03
      4.33275569e-03 1.34796847e-03 9.14692879e-04 8.18409375e-04
      1.17465816e-02 4.62160585e-03 4.23647230e-03 5.44001535e-03
      9.53206234e-03 3.46620451e-03 2.74407864e-03 3.70691321e-03
      1.00616217e-02 3.80319660e-03 2.79222033e-03 3.12921242e-03
      9.38763749e-03 3.12921242e-03 2.07009446e-03 2.79222033e-03
      7.17311772e-03 2.79222033e-03 2.35894462e-03 1.97381084e-03
      8.52108654e-03 3.65877151e-03 2.11823615e-03 2.21451954e-03
      6.78798370e-03 2.50336993e-03 1.73310225e-03 2.31080293e-03
      4.95859794e-03 2.07009446e-03 1.25168497e-03 1.05911808e-03
      8.85807816e-03 6.93240901e-03 6.59541693e-03 6.59541693e-03</_>
    <_>
      1.33523233e-02 9.79170389e-03 8.54548719e-03 7.12123932e-03
      7.21025467e-03 4.18372778e-03 3.64963501e-03 3.20455758e-03
      8.01139418e-03 2.67046457e-03 1.86932529e-03 2.22538714e-03
      6.94320817e-03 2.40341830e-03 1.95834064e-03 1.42424786e-03
      7.47730117e-03 3.11554200e-03 3.82766593e-03 1.42424786e-03
      7.38828536e-03 2.67046457e-03 2.49243365e-03 1.51326333e-03
      6.94320817e-03 3.56061966e-03 2.40341830e-03 2.31440272e-03
      5.07388264e-03 2.40341830e-03 1.69129425e-03 2.13637180e-03
      2.49243365e-03 1.06818590e-03 8.90154915e-04 7.12123932e-04
      9.61367320e-03 3.64963501e-03 2.93751108e-03 2.49243365e-03
      4.80683660e-03 2.22538714e-03 1.95834064e-03 1.86932529e-03
      5.16289845e-03 2.22538714e-03 2.13637180e-03 2.13637180e-03
      4.80683660e-03 1.51326333e-03 1.78030983e-03 1.86932529e-03
      5.42994495e-03 1.15720136e-03 2.04735622e-03 1.42424786e-03
      5.25191380e-03 1.69129425e-03 1.78030983e-03 1.78030983e-03
      5.87502215e-03 2.40341830e-03 2.75948015e-03 1.06818590e-03
      4.45077429e-03 1.51326333e-03 1.24621682e-03 6.23108412e-04
      1.49546023e-02 1.13049671e-02 1.13049671e-02 1.08598899e-02</_>
    <_>
      3.23514678e-02 1.74447708e-02 1.42274974e-02 1.32265678e-02
      2.95274183e-02 1.42632443e-02 1.24758705e-02 1.25473654e-02
      2.73468215e-02 1.36197899e-02 1.09029813e-02 1.18324161e-02
      2.33073570e-02 1.17251733e-02 1.07242437e-02 1.07957385e-02
      1.78379919e-02 8.82962719e-03 8.40065815e-03 7.72145577e-03
      1.40487598e-02 6.25580875e-03 5.82683925e-03 6.43454632e-03
      1.45492246e-02 7.79295061e-03 6.29155664e-03 5.79109183e-03
      9.33009200e-03 3.89647530e-03 3.25302058e-03 2.60956609e-03
      2.71680858e-03 7.14949623e-04 8.57939536e-04 6.07707130e-04
      1.45849716e-02 7.90019333e-03 7.75720319e-03 6.93501113e-03
      6.79202098e-03 2.60956609e-03 2.43082852e-03 2.50232359e-03
      4.96889977e-03 1.75162649e-03 1.78737403e-03 1.71587907e-03
      4.14670771e-03 1.10817188e-03 1.75162649e-03 1.14391930e-03
      3.28876823e-03 1.07242435e-03 6.79202145e-04 1.07242435e-03
      4.43268754e-03 1.42989925e-03 1.25116180e-03 1.17966684e-03
      3.82498023e-03 1.85886899e-03 1.46564667e-03 1.32265675e-03
      3.25302058e-03 1.14391930e-03 5.36212174e-04 6.43454609e-04
      6.18431391e-03 4.82590962e-03 4.68291994e-03 4.50418238e-03</_>
    <_>
      2.60432884e-02 1.18343197e-02 1.14061041e-02 1.12893181e-02
      1.96979139e-02 9.73217096e-03 7.70787895e-03 7.98038021e-03
      1.51043292e-02 7.12394901e-03 6.50108978e-03 6.15073182e-03
      1.42089687e-02 6.42323261e-03 6.69573341e-03 5.87823102e-03
      1.09000308e-02 4.55465587e-03 3.77608230e-03 3.77608230e-03
      1.05107445e-02 4.39894106e-03 4.20429790e-03 3.07536591e-03
      1.01993149e-02 4.20429790e-03 3.62036750e-03 3.38679529e-03
      7.24073499e-03 3.19215190e-03 1.63500465e-03 2.06322013e-03
      1.59607595e-03 7.39644980e-04 3.50358139e-04 4.67144186e-04
      1.22236060e-02 5.45001542e-03 5.33322943e-03 4.82715666e-03
      8.40859581e-03 3.42572411e-03 3.07536591e-03 2.21893494e-03
      6.73466222e-03 3.11429473e-03 2.25786353e-03 2.29679234e-03
      7.24073499e-03 2.53036432e-03 2.06322013e-03 2.14107754e-03
      4.94394265e-03 1.90750544e-03 1.90750544e-03 1.55714736e-03
      6.96823420e-03 2.41357833e-03 2.33572093e-03 2.49143573e-03
      6.34537544e-03 2.06322013e-03 2.10214895e-03 1.82964804e-03
      5.48894424e-03 2.41357833e-03 1.71286205e-03 1.82964804e-03
      8.29180982e-03 6.26751781e-03 5.25537226e-03 5.33322943e-03</_>
    <_>
      3.28987390e-02 1.76879615e-02 1.40808346e-02 1.58626679e-02
      2.67275106e-02 1.26901343e-02 1.23859188e-02 1.07779223e-02
      2.14254670e-02 1.06475446e-02 1.06040854e-02 8.34419858e-03
      2.12950893e-02 9.56106000e-03 1.02564106e-02 7.86614511e-03
      1.72968283e-02 9.25684441e-03 8.03998299e-03 6.34506717e-03
      1.81225557e-02 9.25684441e-03 8.12690146e-03 6.82312017e-03
      1.38635375e-02 6.77966094e-03 6.25814870e-03 6.08431129e-03
      8.60495400e-03 3.91134294e-03 3.25945253e-03 2.91177747e-03
      5.56279859e-03 1.12994353e-03 1.30378094e-03 1.30378094e-03
      1.47327250e-02 6.86657988e-03 5.78009570e-03 4.86744894e-03
      7.56192952e-03 2.78139929e-03 2.78139929e-03 2.12950888e-03
      6.43198611e-03 2.39026500e-03 1.91221212e-03 1.95567147e-03
      5.30204270e-03 1.56453717e-03 1.17340288e-03 1.12994353e-03
      3.08561488e-03 1.04302482e-03 5.21512411e-04 6.95349823e-04
      4.51977411e-03 1.26032159e-03 9.56106058e-04 8.25727941e-04
      4.12863959e-03 1.34724029e-03 7.82268587e-04 6.95349823e-04
      3.86788347e-03 1.12994353e-03 6.51890470e-04 6.95349823e-04
      7.47501105e-03 6.17122976e-03 5.60625829e-03 5.51933935e-03</_>
    <_>
      2.08553020e-02 1.19507909e-02 8.02577659e-03 7.61569990e-03
      2.03280617e-02 8.49443488e-03 5.50673716e-03 5.56531921e-03
      1.40011720e-02 4.74516675e-03 3.80784995e-03 3.39777395e-03
      9.37316939e-03 4.51083761e-03 3.10486229e-03 3.63210309e-03
      6.73696538e-03 3.04628001e-03 2.05038069e-03 2.22612778e-03
      6.56121830e-03 2.10896321e-03 1.64030457e-03 2.40187463e-03
      5.79964835e-03 2.63620378e-03 1.58172229e-03 1.93321612e-03
      3.63210309e-03 7.61570001e-04 9.37316916e-04 8.20152287e-04
      1.75746926e-03 4.10076143e-04 7.61570001e-04 3.51493858e-04
      9.54891648e-03 3.22202686e-03 3.74926766e-03 3.80784995e-03
      5.33099007e-03 1.75746926e-03 1.23022846e-03 1.23022846e-03
      3.22202686e-03 1.17164617e-03 1.17164617e-03 5.85823087e-04
      4.21792641e-03 1.81605155e-03 1.64030457e-03 1.28881074e-03
      5.09666093e-03 1.87463383e-03 1.11306389e-03 1.11306389e-03
      6.50263624e-03 2.34329235e-03 2.05038069e-03 1.46455772e-03
      4.27650847e-03 1.75746926e-03 1.40597543e-03 1.58172229e-03
      3.10486229e-03 5.85823087e-04 6.44405372e-04 7.02987716e-04
      9.95899271e-03 7.49853533e-03 6.79554790e-03 6.97129453e-03</_>
    <_>
      1.92193966e-02 9.58857778e-03 9.12393350e-03 8.61704815e-03
      1.45729491e-02 6.63174782e-03 7.22311391e-03 5.91366040e-03
      1.29678128e-02 6.84294989e-03 5.95590100e-03 5.66021819e-03
      1.06023485e-02 5.82917966e-03 4.73092822e-03 3.92836006e-03
      9.54633765e-03 4.22404334e-03 4.18180274e-03 3.42147495e-03
      8.53256695e-03 3.75939859e-03 3.21027287e-03 3.33699421e-03
      7.56103732e-03 3.37923458e-03 2.99907080e-03 3.84387933e-03
      5.36453491e-03 2.02754070e-03 1.47841510e-03 1.52065558e-03
      3.08355154e-03 1.09825120e-03 9.29289497e-04 8.44808645e-04
      1.08557912e-02 5.74469892e-03 6.12486294e-03 4.56196675e-03
      7.60327792e-03 3.59043665e-03 2.83010909e-03 2.11202167e-03
      5.23781357e-03 2.49218545e-03 1.81633863e-03 1.35169388e-03
      7.43431598e-03 2.53442605e-03 2.83010909e-03 1.73185777e-03
      6.63174782e-03 2.36546411e-03 2.19650241e-03 1.94305985e-03
      8.23688414e-03 3.97060066e-03 2.32322374e-03 2.40770471e-03
      6.67398842e-03 3.88611970e-03 2.70338776e-03 2.61890679e-03
      5.87142026e-03 2.32322374e-03 1.30945339e-03 1.01377035e-03
      8.61704815e-03 6.16710307e-03 5.91366040e-03 5.95590100e-03</_>
    <_>
      2.25747656e-02 1.16394665e-02 9.69265215e-03 1.04796616e-02
      1.88054014e-02 9.56838671e-03 8.90564173e-03 7.87010230e-03
      1.59473121e-02 9.56838671e-03 7.62157235e-03 6.75171893e-03
      1.63615271e-02 8.86422023e-03 7.74583733e-03 7.49730738e-03
      1.54916747e-02 7.08309188e-03 6.33750297e-03 5.59191452e-03
      1.47046642e-02 7.16593489e-03 5.09485556e-03 5.42622805e-03
      1.43318698e-02 6.58603245e-03 5.30196354e-03 5.71617950e-03
      1.06039271e-02 5.50907152e-03 3.81078618e-03 3.68652144e-03
      3.02377599e-03 1.78112835e-03 1.36691239e-03 7.87010184e-04
      1.39176538e-02 7.37304287e-03 6.33750297e-03 6.17181696e-03
      8.45000427e-03 4.30784514e-03 3.72794294e-03 3.10661923e-03
      7.74583733e-03 1.69828511e-03 2.11250107e-03 1.82254997e-03
      6.04755199e-03 2.36103055e-03 1.61544199e-03 1.90539309e-03
      4.63921810e-03 1.73970673e-03 1.40833401e-03 9.11274983e-04
      6.75171893e-03 2.52671703e-03 1.94681471e-03 1.57402037e-03
      5.71617950e-03 2.27818731e-03 2.07107933e-03 1.73970673e-03
      4.55637462e-03 1.28406927e-03 1.90539309e-03 1.40833401e-03
      6.25465997e-03 4.84632608e-03 4.88774758e-03 4.72206110e-03</_>
    <_>
      1.17999623e-02 1.05825057e-02 7.58569036e-03 7.67934090e-03
      9.27139912e-03 3.83967045e-03 3.18411691e-03 3.09046637e-03
      8.33489373e-03 2.62221391e-03 2.62221391e-03 2.06031092e-03
      7.02378713e-03 2.43491284e-03 2.62221391e-03 1.21745642e-03
      5.24442783e-03 2.06031092e-03 2.34126230e-03 1.68570888e-03
      6.55553490e-03 2.80951499e-03 2.34126230e-03 2.24761199e-03
      6.18093275e-03 2.43491284e-03 1.87300995e-03 1.87300995e-03
      4.12062183e-03 8.42854439e-04 1.31110696e-03 9.36504977e-04
      3.27776745e-03 8.42854439e-04 6.55553478e-04 8.42854439e-04
      6.93013659e-03 3.46506829e-03 1.77935942e-03 2.80951499e-03
      5.80633059e-03 1.03015546e-03 1.68570888e-03 2.06031092e-03
      3.93332075e-03 1.77935942e-03 1.59205846e-03 1.59205846e-03
      4.77617513e-03 1.96666038e-03 9.36504977e-04 2.15396145e-03
      4.49522398e-03 1.40475750e-03 1.77935942e-03 7.49203959e-04
      3.65236937e-03 1.12380600e-03 1.03015546e-03 8.42854439e-04
      4.12062183e-03 1.12380600e-03 1.40475750e-03 1.21745642e-03
      2.71586445e-03 7.49203959e-04 2.15396145e-03 1.31110696e-03
      1.57332830e-02 1.41412253e-02 1.37666231e-02 1.39539242e-02</_>
    <_>
      1.90960057e-02 1.06867552e-02 1.16503155e-02 9.98598430e-03
      1.11247376e-02 4.11702879e-03 4.90539614e-03 4.37981775e-03
      8.14646110e-03 2.18990888e-03 3.41625791e-03 2.97827600e-03
      6.48213038e-03 2.10231263e-03 2.01471616e-03 2.54029431e-03
      5.95655199e-03 1.92711980e-03 8.75963538e-04 1.83952344e-03
      5.86895598e-03 1.92711980e-03 1.48913800e-03 2.18990888e-03
      6.56972686e-03 2.10231263e-03 1.92711980e-03 1.40154164e-03
      3.50385415e-03 2.36510159e-03 1.31394539e-03 8.75963538e-04
      2.27750535e-03 1.31394539e-03 1.13875268e-03 7.00770819e-04
      6.21934142e-03 4.81779967e-03 2.97827600e-03 2.45269807e-03
      5.16818510e-03 2.18990888e-03 1.66433072e-03 1.48913800e-03
      5.08058863e-03 1.05115632e-03 1.31394539e-03 1.40154164e-03
      4.90539614e-03 1.75192708e-03 1.48913800e-03 1.13875268e-03
      5.34337759e-03 1.48913800e-03 1.83952344e-03 1.48913800e-03
      3.85423959e-03 1.75192708e-03 2.54029431e-03 1.57673436e-03
      5.69376303e-03 1.05115632e-03 1.31394539e-03 8.75963538e-04
      4.99299215e-03 1.31394539e-03 1.13875268e-03 8.75963538e-04
      1.40154166e-02 1.12123331e-02 1.14751225e-02 1.08619481e-02</_>
    <_>
      1.49964467e-02 7.39161344e-03 7.53375981e-03 7.10732071e-03
      8.45771190e-03 3.26936739e-03 2.48756213e-03 2.70078192e-03
      8.59985780e-03 3.34044057e-03 2.55863531e-03 3.05614783e-03
      7.17839366e-03 2.62970850e-03 2.13219621e-03 2.27434258e-03
      6.82302751e-03 1.77683018e-03 2.34541576e-03 1.77683018e-03
      7.74697959e-03 1.63468369e-03 2.48756213e-03 1.70575688e-03
      7.46268639e-03 2.20326940e-03 1.84790336e-03 1.77683018e-03
      5.61478315e-03 1.42146414e-03 1.56361051e-03 1.84790336e-03
      4.47761174e-03 5.68585645e-04 1.77683018e-03 1.27931766e-03
      9.45273601e-03 3.62473354e-03 4.12224606e-03 4.33546538e-03
      6.39658840e-03 2.77185510e-03 1.99004984e-03 1.99004984e-03
      5.82800293e-03 1.99004984e-03 1.49253733e-03 1.99004984e-03
      5.25941700e-03 1.99004984e-03 2.06112303e-03 9.95024922e-04
      4.61975858e-03 1.20824447e-03 2.13219621e-03 1.27931766e-03
      3.62473354e-03 8.52878438e-04 1.20824447e-03 1.06609811e-03
      5.18834405e-03 1.91897654e-03 2.27434258e-03 1.42146414e-03
      4.19331901e-03 1.49253733e-03 1.27931766e-03 7.10732071e-04
      1.10874204e-02 9.52380989e-03 9.59488284e-03 8.74200463e-03</_>
    <_>
      2.50151306e-02 1.44744804e-02 1.19527942e-02 1.14484569e-02
      1.35162398e-02 7.01028854e-03 6.20334875e-03 4.63990308e-03
      8.77546892e-03 4.23643319e-03 3.78252985e-03 3.58079490e-03
      1.14484569e-02 4.74077044e-03 4.69033699e-03 4.38773446e-03
      1.01876138e-02 4.94250562e-03 4.08513192e-03 3.83296353e-03
      1.19023602e-02 5.95118012e-03 4.53903573e-03 4.38773446e-03
      1.00363120e-02 4.18599974e-03 3.42949363e-03 3.83296353e-03
      8.17026384e-03 2.67298776e-03 2.92515638e-03 2.67298776e-03
      3.07645742e-03 1.00867462e-03 1.31127704e-03 1.21040957e-03
      1.34658059e-02 4.89207171e-03 5.79987885e-03 5.19467425e-03
      7.31289107e-03 3.22775869e-03 2.97559006e-03 3.07645742e-03
      8.11983086e-03 3.42949363e-03 3.27819237e-03 2.87472270e-03
      9.07807145e-03 3.22775869e-03 4.03469848e-03 2.77385511e-03
      8.01896304e-03 2.77385511e-03 3.17732501e-03 2.62255408e-03
      6.40508393e-03 2.67298776e-03 2.42081913e-03 2.06778292e-03
      6.40508393e-03 1.56344566e-03 1.61387934e-03 1.36171072e-03
      5.19467425e-03 1.31127704e-03 1.00867462e-03 1.31127704e-03
      8.37199949e-03 6.55638473e-03 6.00161403e-03 6.50595129e-03</_>
    <_>
      1.72861554e-02 9.73867904e-03 8.76481086e-03 7.87209906e-03
      1.16864145e-02 4.38240543e-03 3.89547157e-03 3.00275930e-03
      8.44018813e-03 2.59698112e-03 3.89547157e-03 2.27235840e-03
      5.35627315e-03 2.51582544e-03 1.94773579e-03 1.46080181e-03
      5.43742906e-03 2.35351408e-03 1.21733488e-03 1.21733488e-03
      5.27511770e-03 1.70426874e-03 1.46080181e-03 6.49245281e-04
      4.30124998e-03 1.37964613e-03 2.11004703e-03 7.30400905e-04
      1.78542442e-03 6.49245281e-04 1.13617920e-03 5.68089599e-04
      1.37964613e-03 2.43466973e-04 4.05778293e-04 1.62311320e-04
      7.22285360e-03 4.62587224e-03 2.67813657e-03 2.59698112e-03
      2.43466976e-03 1.86658010e-03 6.49245281e-04 1.29849056e-03
      3.00275930e-03 2.02889135e-03 1.05502352e-03 1.21733488e-03
      2.35351408e-03 9.73867893e-04 6.49245281e-04 6.49245281e-04
      3.00275930e-03 1.29849056e-03 5.68089599e-04 1.62311320e-04
      3.81431589e-03 9.73867893e-04 1.05502352e-03 8.92712211e-04
      5.76205179e-03 1.62311317e-03 8.92712211e-04 9.73867893e-04
      5.92436315e-03 1.86658010e-03 1.13617920e-03 8.92712211e-04
      1.17675699e-02 9.08943359e-03 9.41405632e-03 9.08943359e-03</_>
    <_>
      1.93469394e-02 1.15102045e-02 8.24489817e-03 6.28571445e-03
      1.06122447e-02 4.32653073e-03 3.67346941e-03 3.67346941e-03
      8.40816367e-03 3.26530612e-03 2.69387756e-03 3.75510193e-03
      8.48979596e-03 3.26530612e-03 3.26530612e-03 2.61224480e-03
      8.65306146e-03 2.85714283e-03 2.85714283e-03 2.20408174e-03
      8.57142825e-03 2.93877558e-03 2.36734701e-03 1.95918372e-03
      5.46938786e-03 2.20408174e-03 2.28571426e-03 2.04081624e-03
      4.40816348e-03 1.71428570e-03 1.46938779e-03 1.22448977e-03
      3.51020414e-03 6.53061201e-04 1.06122450e-03 8.16326530e-04
      1.10204080e-02 3.83673469e-03 3.26530612e-03 2.85714283e-03
      7.42857158e-03 1.63265306e-03 1.38775515e-03 1.63265306e-03
      6.20408170e-03 1.22448977e-03 1.30612240e-03 2.36734701e-03
      6.93877554e-03 1.30612240e-03 2.20408174e-03 2.44897953e-03
      4.97959182e-03 1.55102042e-03 1.63265306e-03 8.97959166e-04
      6.20408170e-03 1.71428570e-03 2.12244899e-03 1.87755097e-03
      6.77551003e-03 1.95918372e-03 9.79591860e-04 1.38775515e-03
      3.34693887e-03 2.20408174e-03 1.71428570e-03 1.06122450e-03
      1.50204077e-02 1.15918368e-02 1.12653058e-02 1.06938779e-02</_>
    <_>
      1.83354598e-02 9.72576533e-03 1.11607146e-02 7.89221935e-03
      1.28348218e-02 4.54400526e-03 3.50765302e-03 4.06568870e-03
      7.25446409e-03 3.42793367e-03 2.86989799e-03 3.02933669e-03
      7.01530604e-03 3.02933669e-03 2.79017864e-03 2.86989799e-03
      6.29783142e-03 2.86989799e-03 1.43494899e-03 1.99298467e-03
      6.45727059e-03 2.15242337e-03 1.03635201e-03 1.75382651e-03
      6.13839272e-03 2.23214296e-03 1.51466834e-03 2.55102036e-03
      3.02933669e-03 1.67410716e-03 1.43494899e-03 1.03635201e-03
      3.50765302e-03 8.76913255e-04 7.17474497e-04 3.98596952e-04
      7.57334195e-03 3.50765302e-03 2.23214296e-03 2.15242337e-03
      3.26849497e-03 7.17474497e-04 1.03635201e-03 1.19579083e-03
      3.18877562e-03 1.51466834e-03 1.51466834e-03 1.03635201e-03
      4.94260201e-03 8.76913255e-04 1.59438781e-03 1.35522964e-03
      3.82653065e-03 1.19579083e-03 1.27551018e-03 7.17474497e-04
      4.54400526e-03 1.59438781e-03 1.43494899e-03 1.35522964e-03
      3.18877562e-03 1.27551018e-03 1.35522964e-03 1.67410716e-03
      1.91326533e-03 1.03635201e-03 7.97193905e-04 7.97193905e-04
      1.15593113e-02 9.48660728e-03 9.32716858e-03 9.08801053e-03</_>
    <_>
      1.11242076e-02 5.52526908e-03 8.69308971e-03 5.52526908e-03
      4.78856638e-03 1.69441581e-03 2.13643722e-03 1.17872399e-03
      6.04096055e-03 1.91542658e-03 1.91542658e-03 1.39973476e-03
      5.59893902e-03 2.13643722e-03 1.98909687e-03 2.50478857e-03
      5.37792826e-03 1.10505382e-03 1.91542658e-03 1.76808599e-03
      5.81994979e-03 1.17872399e-03 1.17872399e-03 1.39973476e-03
      6.11463096e-03 1.54707534e-03 1.10505382e-03 1.03138352e-03
      6.40931213e-03 1.25239429e-03 1.03138352e-03 7.36702525e-04
      5.08324755e-03 1.03138352e-03 5.89361996e-04 6.63032290e-04
      1.12715485e-02 3.09415068e-03 2.13643722e-03 2.65212916e-03
      7.14601437e-03 1.91542658e-03 2.06276705e-03 2.06276705e-03
      6.18830137e-03 2.06276705e-03 1.25239429e-03 1.39973476e-03
      4.93590673e-03 1.10505382e-03 1.32606458e-03 1.10505382e-03
      3.09415068e-03 1.39973476e-03 6.63032290e-04 9.57713288e-04
      3.90452333e-03 1.54707534e-03 1.17872399e-03 7.36702525e-04
      2.94681010e-03 8.10372760e-04 1.03138352e-03 8.10372760e-04
      2.79946951e-03 7.36702525e-04 1.32606458e-03 6.63032290e-04
      1.05348462e-02 9.28245205e-03 8.69308971e-03 8.25106818e-03</_>
    <_>
      1.67625900e-02 9.42446012e-03 8.84892046e-03 8.05755425e-03
      7.84172677e-03 4.31654695e-03 3.52517981e-03 3.59712238e-03
      8.56115110e-03 3.09352507e-03 2.23021582e-03 2.80575547e-03
      8.05755425e-03 2.94964039e-03 2.87769781e-03 1.43884891e-03
      5.61151095e-03 2.37410073e-03 2.30215816e-03 1.29496399e-03
      5.97122312e-03 2.73381290e-03 2.80575547e-03 1.94244599e-03
      7.33812945e-03 2.51798565e-03 2.58992799e-03 1.51079136e-03
      6.18705014e-03 1.72661874e-03 1.65467628e-03 1.15107908e-03
      4.31654695e-03 9.35251825e-04 1.43884891e-03 3.59712227e-04
      1.06474822e-02 4.38848929e-03 3.95683432e-03 3.23740998e-03
      7.41007179e-03 3.38129490e-03 2.30215816e-03 2.87769781e-03
      4.82014380e-03 2.08633090e-03 1.87050365e-03 1.43884891e-03
      5.61151095e-03 1.94244599e-03 1.87050365e-03 9.35251825e-04
      3.74100730e-03 1.29496399e-03 1.51079136e-03 7.91366911e-04
      4.53237398e-03 1.58273382e-03 1.22302154e-03 1.07913674e-03
      5.75539563e-03 1.72661874e-03 2.15827348e-03 2.01438856e-03
      3.52517981e-03 1.15107908e-03 1.29496399e-03 1.58273382e-03
      1.20143881e-02 1.07194241e-02 1.07194241e-02 1.01438845e-02</_>
    <_>
      3.18294205e-02 1.63782444e-02 1.28024016e-02 1.12131378e-02
      2.44128555e-02 1.03743598e-02 9.31485090e-03 7.37241749e-03
      1.73494611e-02 6.57778559e-03 5.73900761e-03 4.76779090e-03
      1.64223909e-02 6.04803115e-03 4.90022963e-03 5.51827671e-03
      8.07875674e-03 3.22267343e-03 2.73706508e-03 2.95779621e-03
      7.85802584e-03 3.70828179e-03 3.09023494e-03 3.09023494e-03
      7.19583267e-03 2.91364989e-03 2.33974936e-03 2.51633418e-03
      4.41462127e-03 1.72170228e-03 1.98657950e-03 1.72170228e-03
      1.41267874e-03 3.97315918e-04 3.53169686e-04 4.85608325e-04
      1.29789868e-02 5.20925317e-03 4.90022963e-03 3.66413570e-03
      5.69486152e-03 2.73706508e-03 2.29560304e-03 1.76584849e-03
      4.85608354e-03 2.25145672e-03 1.72170228e-03 1.14780152e-03
      6.04803115e-03 2.64877267e-03 2.16316432e-03 2.47218786e-03
      4.50291345e-03 1.54511747e-03 1.89828710e-03 1.41267874e-03
      6.71022432e-03 2.95779621e-03 3.09023494e-03 1.98657950e-03
      5.07681444e-03 2.38389545e-03 2.73706508e-03 1.85414089e-03
      4.45876736e-03 1.89828710e-03 2.33974936e-03 1.32438634e-03
      1.00653367e-02 7.32827140e-03 6.62193168e-03 6.66607823e-03</_>
    <_>
      3.26712839e-02 1.89435035e-02 1.72327459e-02 1.43953934e-02
      3.44654918e-02 1.76082775e-02 1.46874739e-02 1.28098140e-02
      2.76224650e-02 1.14745889e-02 9.93073545e-03 8.34515598e-03
      1.72327459e-02 9.05449409e-03 6.84302766e-03 5.79988305e-03
      1.35191521e-02 5.92506072e-03 5.38262539e-03 3.92222311e-03
      9.09621920e-03 4.92364168e-03 4.96536773e-03 3.63014266e-03
      8.88759084e-03 3.71359428e-03 3.00425594e-03 3.17115919e-03
      4.88191610e-03 2.12801457e-03 1.50212797e-03 1.37695065e-03
      2.75390130e-03 6.67612476e-04 8.34515551e-04 6.25886663e-04
      1.15580410e-02 6.05023792e-03 4.63156123e-03 4.17257799e-03
      5.54952864e-03 1.91938574e-03 2.08628899e-03 1.79420842e-03
      3.96394916e-03 1.62730541e-03 1.83593424e-03 1.16832182e-03
      5.63298026e-03 1.83593424e-03 2.16974039e-03 1.83593424e-03
      4.96536773e-03 2.37836945e-03 1.62730541e-03 1.21004751e-03
      5.79988305e-03 2.87907873e-03 2.33664364e-03 1.83593424e-03
      5.79988305e-03 2.33664364e-03 2.33664364e-03 1.62730541e-03
      4.79846448e-03 1.29349914e-03 1.08487019e-03 8.34515551e-04
      7.96962343e-03 5.92506072e-03 5.42435097e-03 5.13227051e-03</_>
    <_>
      1.90284662e-02 1.14480201e-02 9.82363895e-03 9.20482632e-03
      1.16800740e-02 5.06652240e-03 4.67976462e-03 4.48638620e-03
      1.12933172e-02 4.37035877e-03 5.02784643e-03 3.63551988e-03
      1.04424506e-02 5.72401006e-03 5.06652240e-03 4.67976462e-03
      8.23793281e-03 3.51949269e-03 2.90068076e-03 2.74597784e-03
      8.54733866e-03 3.75154708e-03 2.90068076e-03 3.28743807e-03
      7.11633684e-03 3.71287134e-03 3.32611380e-03 3.24876234e-03
      5.80136152e-03 2.04981444e-03 1.31497520e-03 1.54702971e-03
      1.74040836e-03 4.25433158e-04 1.93378713e-04 3.48081696e-04
      1.24149136e-02 7.03898538e-03 6.14944287e-03 5.49195567e-03
      5.91738848e-03 2.47524749e-03 1.97246298e-03 2.04981444e-03
      6.03341591e-03 2.74597784e-03 2.01113871e-03 2.32054456e-03
      5.22122532e-03 2.12716591e-03 1.39232678e-03 1.93378713e-03
      4.79579205e-03 2.16584164e-03 1.81775994e-03 2.01113871e-03
      5.06652240e-03 2.62995041e-03 2.47524749e-03 2.20451737e-03
      6.11076737e-03 3.32611380e-03 2.39789602e-03 2.08849018e-03
      5.37592825e-03 2.04981444e-03 1.85643567e-03 1.50835398e-03
      8.00587889e-03 5.45327971e-03 5.18254936e-03 4.75711655e-03</_>
    <_>
      2.72034816e-02 1.36924190e-02 1.23775844e-02 1.13347843e-02
      2.26695687e-02 1.10174101e-02 9.47587937e-03 9.56655759e-03
      1.94504894e-02 9.61189717e-03 8.70511401e-03 8.65977537e-03
      1.88610815e-02 7.57163577e-03 6.75553130e-03 6.34747930e-03
      1.31030101e-02 5.07798325e-03 4.57925303e-03 3.80848744e-03
      1.21508883e-02 4.48857434e-03 3.94450501e-03 4.35255701e-03
      1.09720714e-02 4.17120056e-03 3.67247011e-03 3.62713099e-03
      6.84620952e-03 2.22161761e-03 1.94958283e-03 1.54153060e-03
      2.49365252e-03 1.31483492e-03 1.13347836e-03 4.53391374e-04
      9.79325362e-03 4.21653967e-03 3.80848744e-03 3.53645277e-03
      7.43561843e-03 1.90424372e-03 1.76822639e-03 1.94958283e-03
      4.98730503e-03 1.22415670e-03 1.36017415e-03 1.22415670e-03
      3.76314833e-03 1.22415670e-03 8.16104468e-04 1.17881759e-03
      1.58686982e-03 7.25426187e-04 4.98730515e-04 8.16104468e-04
      2.22161761e-03 5.89408795e-04 4.08052234e-04 6.80087076e-04
      2.62966985e-03 9.52121860e-04 5.44069626e-04 9.06782749e-04
      2.31229607e-03 5.89408795e-04 8.16104468e-04 1.08813925e-03
      6.48349663e-03 5.25933970e-03 5.44069661e-03 4.62459214e-03</_>
    <_>
      1.74359418e-02 9.41795390e-03 8.90887529e-03 8.23010318e-03
      1.65450536e-02 6.95740711e-03 6.32105907e-03 6.32105907e-03
      1.34481592e-02 5.34532499e-03 5.51501801e-03 5.26047871e-03
      1.17512299e-02 4.96351626e-03 4.75140009e-03 4.53928392e-03
      9.20583773e-03 3.26658739e-03 3.26658739e-03 2.71508563e-03
      8.48464295e-03 3.39385704e-03 2.84235529e-03 3.05447145e-03
      7.46648572e-03 2.75750901e-03 2.37570005e-03 2.67266249e-03
      4.53928392e-03 1.61208212e-03 1.52723573e-03 1.95146783e-03
      3.73324286e-03 1.73935178e-03 1.44238933e-03 9.33310715e-04
      1.02239950e-02 5.76955732e-03 3.90293566e-03 4.07262845e-03
      6.99983025e-03 3.13931773e-03 3.43628041e-03 2.79993215e-03
      8.06041062e-03 4.07262845e-03 3.98778217e-03 3.22416425e-03
      7.97556434e-03 3.35143390e-03 3.18174111e-03 2.92720180e-03
      5.72713371e-03 2.75750901e-03 2.29085353e-03 2.12116074e-03
      5.55744115e-03 2.37570005e-03 1.95146783e-03 1.61208212e-03
      5.64228743e-03 1.90904457e-03 1.35754282e-03 8.06041062e-04
      4.83624637e-03 1.56965887e-03 1.44238933e-03 9.33310715e-04
      9.07856785e-03 7.12710014e-03 6.49075164e-03 6.23621233e-03</_>
    <_>
      2.80983001e-02 1.47097679e-02 1.54144280e-02 1.18030477e-02
      2.72615161e-02 1.25077069e-02 1.13185942e-02 1.07460581e-02
      2.32097246e-02 1.07900994e-02 1.03937285e-02 9.90927499e-03
      2.21967753e-02 1.02175632e-02 1.04818111e-02 9.99735761e-03
      1.63392927e-02 8.85228533e-03 8.14762618e-03 6.25385344e-03
      1.62952524e-02 8.01550224e-03 7.17871916e-03 5.76939993e-03
      1.53263453e-02 5.59323514e-03 5.28494688e-03 5.19686425e-03
      7.39892526e-03 2.99480325e-03 2.42226734e-03 2.15801992e-03
      4.36008116e-03 1.14507182e-03 1.14507182e-03 9.68906912e-04
      1.39610674e-02 5.94556518e-03 5.46111166e-03 4.62432858e-03
      8.32379144e-03 2.64247344e-03 2.46630842e-03 2.51034973e-03
      5.63727645e-03 1.76164892e-03 1.49740162e-03 1.32123672e-03
      4.18391638e-03 1.67356641e-03 1.32123672e-03 1.27719541e-03
      3.34713282e-03 1.58548402e-03 1.05698931e-03 6.60618360e-04
      3.52329784e-03 1.40931911e-03 7.04659557e-04 7.48700812e-04
      1.98185490e-03 1.01294811e-03 5.28494653e-04 7.48700812e-04
      1.58548402e-03 7.04659557e-04 3.08288552e-04 1.32123663e-04
      6.38597738e-03 5.90152387e-03 5.63727645e-03 5.50515298e-03</_>
    <_>
      1.07271532e-02 7.61546008e-03 6.05961354e-03 8.43432732e-03
      6.87848032e-03 2.12905346e-03 1.22830004e-03 2.21094000e-03
      5.56829339e-03 2.29282677e-03 9.82640078e-04 1.55584665e-03
      5.56829339e-03 1.88339339e-03 1.39207335e-03 1.80150673e-03
      5.24074677e-03 1.22830004e-03 1.55584665e-03 1.55584665e-03
      5.32263331e-03 2.04716669e-03 1.96528016e-03 2.04716669e-03
      7.53357355e-03 2.21094000e-03 1.88339339e-03 2.12905346e-03
      6.22338662e-03 3.19358008e-03 1.96528016e-03 1.39207335e-03
      3.52112669e-03 1.14641339e-03 1.39207335e-03 1.39207335e-03
      8.84376001e-03 4.09433339e-03 4.01244685e-03 3.02980677e-03
      6.96036685e-03 3.76678677e-03 1.96528016e-03 2.12905346e-03
      5.81395347e-03 2.94792000e-03 1.80150673e-03 1.96528016e-03
      6.63282024e-03 2.45660008e-03 1.47396000e-03 9.82640078e-04
      5.65017993e-03 2.21094000e-03 8.18866713e-04 7.36980001e-04
      4.17621993e-03 2.12905346e-03 9.82640078e-04 1.06452673e-03
      5.07697370e-03 9.00753366e-04 1.22830004e-03 6.55093347e-04
      3.52112669e-03 1.14641339e-03 1.22830004e-03 7.36980001e-04
      1.49852606e-02 1.15460204e-02 1.11365868e-02 1.03177205e-02</_>
    <_>
      1.18152527e-02 4.78875777e-03 6.75796624e-03 3.62513424e-03
      6.17615459e-03 2.10347306e-03 2.05871812e-03 2.37200153e-03
      5.90762636e-03 2.10347306e-03 2.23773718e-03 1.74543506e-03
      6.17615459e-03 2.86430353e-03 2.86430353e-03 2.23773718e-03
      4.69924789e-03 2.23773718e-03 2.64053000e-03 1.56641600e-03
      4.96777659e-03 2.01396341e-03 2.14822777e-03 2.05871812e-03
      4.16219141e-03 1.47690659e-03 2.05871812e-03 1.29788753e-03
      2.23773718e-03 1.25313282e-03 1.20837812e-03 8.50340119e-04
      4.92302177e-04 3.13283206e-04 5.37056942e-04 1.79018971e-04
      7.38453260e-03 4.60973848e-03 5.23630483e-03 3.66988895e-03
      7.38453260e-03 3.26709636e-03 2.19298247e-03 2.10347306e-03
      5.41532412e-03 2.68528471e-03 2.19298247e-03 1.65592553e-03
      5.32581471e-03 2.64053000e-03 2.01396341e-03 1.70068024e-03
      5.81811694e-03 2.10347306e-03 2.19298247e-03 1.79018977e-03
      5.10204071e-03 2.10347306e-03 2.01396341e-03 1.96920871e-03
      6.57894742e-03 4.07268154e-03 2.86430353e-03 2.50626565e-03
      7.65306130e-03 3.80415330e-03 3.04332259e-03 2.68528471e-03
      8.95094872e-03 6.44468330e-03 5.95238106e-03 5.41532412e-03</_>
    <_>
      1.20471334e-02 8.70559271e-03 6.50721090e-03 7.65036931e-03
      5.62785799e-03 1.05522340e-03 1.93457620e-03 1.31902925e-03
      5.80372848e-03 1.58283499e-03 1.58283499e-03 1.05522340e-03
      5.01231104e-03 3.07773473e-03 2.46218778e-03 1.75870559e-03
      5.27611701e-03 2.90186424e-03 2.46218778e-03 1.84664084e-03
      5.80372848e-03 2.98979948e-03 3.07773473e-03 1.40696450e-03
      6.06753444e-03 3.42947594e-03 2.11044680e-03 1.67077035e-03
      6.68308139e-03 1.93457620e-03 2.28631729e-03 1.84664084e-03
      3.42947594e-03 8.79352796e-04 6.15546945e-04 7.91417493e-04
      8.52972176e-03 4.13295813e-03 4.30882862e-03 2.98979948e-03
      5.36405202e-03 1.75870559e-03 8.79352796e-04 1.75870559e-03
      4.13295813e-03 1.23109389e-03 9.67288099e-04 2.02251133e-03
      5.10024605e-03 1.31902925e-03 1.84664084e-03 1.58283499e-03
      4.92437556e-03 1.67077035e-03 1.58283499e-03 1.75870559e-03
      4.66056960e-03 1.93457620e-03 1.40696450e-03 1.93457620e-03
      3.51741118e-03 2.02251133e-03 8.79352796e-04 8.79352796e-04
      3.60534643e-03 1.23109389e-03 9.67288099e-04 7.03482248e-04
      1.41575802e-02 1.19591979e-02 1.17833279e-02 1.15195215e-02</_>
    <_>
      1.08232489e-02 8.35179817e-03 7.32912915e-03 5.70990285e-03
      5.02812350e-03 2.55667302e-03 1.70444860e-03 1.61922618e-03
      6.22123759e-03 2.81234016e-03 1.61922618e-03 1.70444860e-03
      7.32912915e-03 2.55667302e-03 2.30100565e-03 1.44878135e-03
      7.75524136e-03 3.06800753e-03 2.30100565e-03 2.47145048e-03
      7.58479629e-03 2.04533827e-03 1.61922618e-03 1.87489344e-03
      6.56212727e-03 2.21578311e-03 1.70444860e-03 2.47145048e-03
      5.45423571e-03 2.38622795e-03 1.53400376e-03 1.61922618e-03
      4.60201129e-03 1.10789156e-03 7.67001882e-04 9.37446719e-04
      1.09936940e-02 3.66456457e-03 2.81234016e-03 5.02812350e-03
      7.84046389e-03 2.21578311e-03 1.70444860e-03 3.15322983e-03
      7.84046389e-03 2.30100565e-03 2.98278499e-03 1.87489344e-03
      8.01090803e-03 2.04533827e-03 2.04533827e-03 2.89756269e-03
      6.47690473e-03 2.47145048e-03 1.36355893e-03 1.02266914e-03
      7.84046389e-03 2.55667302e-03 1.70444860e-03 1.78967102e-03
      6.98823947e-03 2.55667302e-03 1.78967102e-03 1.78967102e-03
      4.77245590e-03 2.30100565e-03 1.44878135e-03 1.61922618e-03
      1.57661494e-02 1.21868076e-02 1.23572526e-02 1.22720301e-02</_>
    <_>
      1.14836544e-02 7.12489523e-03 6.70578377e-03 7.04107294e-03
      5.53227169e-03 1.92791282e-03 1.67644594e-03 1.76026823e-03
      5.44844940e-03 2.09555752e-03 1.34115678e-03 1.42497907e-03
      3.60435876e-03 2.43084668e-03 1.25733449e-03 7.54400680e-04
      3.93964816e-03 1.50880136e-03 1.67644594e-03 5.86756098e-04
      6.53813919e-03 2.68231356e-03 1.59262365e-03 1.92791282e-03
      8.46605189e-03 2.09555752e-03 2.17937981e-03 1.50880136e-03
      5.02933795e-03 1.59262365e-03 1.25733449e-03 6.70578389e-04
      3.10142501e-03 9.22045263e-04 5.02933806e-04 5.86756098e-04
      6.53813919e-03 2.51466897e-03 1.67644594e-03 1.84409053e-03
      5.19698253e-03 2.51466897e-03 1.84409053e-03 1.59262365e-03
      5.36462711e-03 2.01173523e-03 2.51466897e-03 1.76026823e-03
      6.95725065e-03 2.59849126e-03 2.59849126e-03 2.26320210e-03
      6.62196148e-03 2.09555752e-03 1.84409053e-03 1.84409053e-03
      6.11902773e-03 2.17937981e-03 1.84409053e-03 1.50880136e-03
      5.36462711e-03 1.34115678e-03 1.42497907e-03 1.67644594e-03
      3.52053647e-03 8.38222972e-04 9.22045263e-04 1.25733449e-03
      1.43336123e-02 1.03939651e-02 9.38809756e-03 9.55574214e-03</_>
    <_>
      1.76328924e-02 1.14398757e-02 1.19559607e-02 1.08377775e-02
      1.12678483e-02 4.38671932e-03 3.78462067e-03 5.50490292e-03
      1.24720456e-02 4.73077595e-03 3.35455011e-03 3.69860651e-03
      9.11749527e-03 3.52657842e-03 2.83846562e-03 2.49440898e-03
      7.39721302e-03 1.54825393e-03 2.58042314e-03 2.06433865e-03
      6.96714269e-03 2.06433865e-03 2.40839506e-03 2.49440898e-03
      6.70910021e-03 2.32238090e-03 1.46223977e-03 2.49440898e-03
      5.76294493e-03 2.06433865e-03 1.29021157e-03 1.63426797e-03
      2.15035258e-03 3.44056432e-04 3.44056432e-04 5.16084663e-04
      5.33287460e-03 1.89231033e-03 1.54825393e-03 1.29021157e-03
      5.93497325e-03 1.80629618e-03 7.74126966e-04 1.03216933e-03
      2.58042314e-03 1.46223977e-03 1.11818337e-03 7.74126966e-04
      3.69860651e-03 1.37622573e-03 1.11818337e-03 1.03216933e-03
      4.30070516e-03 1.29021157e-03 9.46155167e-04 8.60141066e-04
      3.18252202e-03 7.74126966e-04 3.44056432e-04 6.02098764e-04
      3.18252202e-03 1.29021157e-03 6.88112865e-04 8.60141066e-04
      2.92447954e-03 1.03216933e-03 1.03216933e-03 6.88112865e-04
      1.35042146e-02 1.19559607e-02 1.16119040e-02 1.09237917e-02</_>
    <_>
      2.16436908e-02 1.04047768e-02 1.15023265e-02 8.73650052e-03
      2.23022215e-02 1.10194050e-02 1.12828165e-02 8.99991207e-03
      1.92290805e-02 9.21942201e-03 8.29747971e-03 7.19992956e-03
      1.78681184e-02 9.30722617e-03 8.82430375e-03 8.95601045e-03
      1.63315479e-02 7.19992956e-03 6.93651754e-03 7.50724366e-03
      1.44876633e-02 6.58530183e-03 7.19992956e-03 6.19018357e-03
      1.42242517e-02 6.14628149e-03 4.91702510e-03 5.26824128e-03
      1.10633066e-02 4.30239690e-03 3.81947495e-03 3.90727911e-03
      4.65361308e-03 1.31706032e-03 1.22925628e-03 1.44876633e-03
      1.51022915e-02 7.06822379e-03 5.66335954e-03 5.31214336e-03
      9.17552039e-03 3.68776894e-03 2.98533682e-03 2.98533682e-03
      6.58530183e-03 2.80972873e-03 1.71217846e-03 2.01949244e-03
      4.87312302e-03 1.79998239e-03 1.71217846e-03 1.71217846e-03
      4.17069113e-03 1.27315836e-03 1.09755027e-03 1.05364830e-03
      4.60971100e-03 1.49266841e-03 1.27315836e-03 1.22925628e-03
      3.29265092e-03 1.05364830e-03 9.21942235e-04 6.58530160e-04
      1.88778643e-03 1.14145223e-03 4.39020107e-04 3.51216091e-04
      6.93651754e-03 5.57555538e-03 5.39994752e-03 5.57555538e-03</_>
    <_>
      1.68668758e-02 9.62646026e-03 1.01201255e-02 8.72140843e-03
      1.04492344e-02 4.77209128e-03 3.94931715e-03 3.53792985e-03
      8.63913074e-03 4.27842699e-03 2.71515548e-03 2.87971040e-03
      7.15813739e-03 3.45565239e-03 3.37337493e-03 2.55060056e-03
      6.66447263e-03 3.20882024e-03 2.71515548e-03 1.81010365e-03
      6.41764048e-03 2.63287802e-03 1.89238111e-03 1.97465857e-03
      6.41764048e-03 2.63287802e-03 1.56327139e-03 1.97465857e-03
      4.68981406e-03 1.97465857e-03 1.72782619e-03 1.56327139e-03
      2.55060056e-03 6.58219506e-04 1.64554873e-03 9.05051827e-04
      8.96824058e-03 4.36070422e-03 3.78476223e-03 2.22149095e-03
      5.10120112e-03 2.13921349e-03 1.48099393e-03 1.06960675e-03
      4.68981406e-03 1.15188421e-03 1.97465857e-03 7.40496966e-04
      5.34803374e-03 1.72782619e-03 1.97465857e-03 1.23416155e-03
      4.85436898e-03 2.13921349e-03 9.05051827e-04 1.15188421e-03
      6.08853064e-03 1.72782619e-03 2.05693603e-03 1.72782619e-03
      6.41764048e-03 2.05693603e-03 2.71515548e-03 1.56327139e-03
      5.59486588e-03 1.31643901e-03 2.22149095e-03 9.87329287e-04
      1.25061711e-02 1.11074541e-02 1.08606219e-02 9.62646026e-03</_>
    <_>
      1.83984321e-02 9.27461963e-03 8.36977828e-03 7.54034100e-03
      1.25169661e-02 4.22259094e-03 4.67501115e-03 4.90122149e-03
      8.52058548e-03 2.18669884e-03 2.26210221e-03 1.96048850e-03
      7.69114774e-03 2.63911928e-03 1.88508525e-03 1.50806818e-03
      5.80606237e-03 1.50806818e-03 1.58347155e-03 1.96048850e-03
      5.80606237e-03 2.03589210e-03 2.26210221e-03 1.65887503e-03
      5.65525563e-03 1.65887503e-03 1.58347155e-03 1.43266481e-03
      3.09153972e-03 1.20645459e-03 9.04840883e-04 1.73427840e-03
      6.03227294e-04 2.26210221e-04 2.26210221e-04 2.26210221e-04
      6.48469292e-03 4.07178421e-03 2.94073299e-03 2.11129547e-03
      3.99638060e-03 2.03589210e-03 9.80244251e-04 1.05564774e-03
      3.09153972e-03 1.20645459e-03 1.05564774e-03 9.04840883e-04
      3.24234646e-03 1.43266481e-03 1.43266481e-03 1.13105110e-03
      3.24234646e-03 2.11129547e-03 1.20645459e-03 1.28185796e-03
      4.67501115e-03 2.26210221e-03 1.50806818e-03 2.41290918e-03
      4.75041475e-03 9.04840883e-04 1.73427840e-03 1.20645459e-03
      4.67501115e-03 1.13105110e-03 1.43266481e-03 6.78630662e-04
      1.41004371e-02 1.12351077e-02 1.07072843e-02 1.01040564e-02</_>
    <_>
      2.74797939e-02 1.54298311e-02 1.35562085e-02 1.23438649e-02
      2.09404845e-02 1.00293905e-02 8.52314476e-03 9.51506291e-03
      1.80382077e-02 8.00881721e-03 7.75165297e-03 7.49448920e-03
      1.63115356e-02 7.60470238e-03 6.98016165e-03 6.68625999e-03
      1.24173407e-02 5.47391642e-03 4.77589993e-03 4.15135920e-03
      1.04702422e-02 4.84937569e-03 3.63703165e-03 3.89419543e-03
      9.18442290e-03 4.33504768e-03 2.79206457e-03 4.00440861e-03
      5.95150609e-03 2.71858927e-03 2.35121232e-03 2.27773702e-03
      4.00440861e-03 1.21234392e-03 1.10213074e-03 9.18442325e-04
      1.44379130e-02 5.54739172e-03 5.91476867e-03 6.09845715e-03
      8.81704595e-03 3.63703165e-03 2.79206457e-03 3.01249092e-03
      7.64144026e-03 2.79206457e-03 2.42468785e-03 2.27773702e-03
      7.53122708e-03 2.24099937e-03 2.13078619e-03 1.43277005e-03
      6.20867033e-03 2.49816314e-03 1.98383536e-03 1.35929463e-03
      5.91476867e-03 3.04922857e-03 2.05731089e-03 1.61645852e-03
      4.77589993e-03 2.24099937e-03 1.24908157e-03 9.55180032e-04
      4.48199874e-03 2.46142549e-03 1.46950770e-03 1.10213074e-03
      6.31888304e-03 5.21675218e-03 4.88611311e-03 4.99632629e-03</_>
    <_>
      1.24907475e-02 8.04959331e-03 6.66173222e-03 7.67949689e-03
      7.49444868e-03 2.96076969e-03 2.49814941e-03 2.77572172e-03
      5.18134702e-03 1.75795704e-03 2.59067351e-03 9.25240573e-04
      6.93930406e-03 1.38786086e-03 2.31310143e-03 1.57290895e-03
      5.18134702e-03 1.66543305e-03 1.48038485e-03 1.38786086e-03
      6.56920811e-03 1.94300513e-03 3.60843819e-03 1.01776468e-03
      5.55144344e-03 2.40562554e-03 3.14581790e-03 1.29533675e-03
      5.82901575e-03 2.22057733e-03 1.38786086e-03 8.32716527e-04
      2.96076969e-03 1.11028866e-03 1.29533675e-03 9.25240573e-04
      8.97483341e-03 2.86824582e-03 3.42338998e-03 2.77572172e-03
      5.08882292e-03 1.20281277e-03 1.66543305e-03 2.31310143e-03
      7.58697279e-03 2.12805322e-03 2.03552935e-03 1.75795704e-03
      5.55144344e-03 2.22057733e-03 1.75795704e-03 1.01776468e-03
      4.16358234e-03 2.03552935e-03 2.40562554e-03 1.38786086e-03
      6.19911170e-03 1.20281277e-03 1.29533675e-03 1.94300513e-03
      5.92153938e-03 1.94300513e-03 1.48038485e-03 1.01776468e-03
      4.25610645e-03 1.48038485e-03 1.38786086e-03 1.66543305e-03
      1.61917098e-02 1.27683198e-02 1.25832716e-02 1.19356029e-02</_>
    <_>
      2.50512864e-02 1.51491240e-02 1.30187785e-02 1.27031719e-02
      1.85813475e-02 8.95534176e-03 8.60028435e-03 7.85071775e-03
      1.47546157e-02 6.03597937e-03 5.01025701e-03 5.87817561e-03
      1.62931979e-02 7.37730786e-03 6.46993844e-03 6.35158597e-03
      8.99479259e-03 3.70837934e-03 3.74783017e-03 2.91936239e-03
      8.16632435e-03 4.73410124e-03 4.73410124e-03 3.19551839e-03
      8.95534176e-03 4.33959300e-03 3.70837934e-03 3.15606757e-03
      5.72037231e-03 2.05144379e-03 2.01199297e-03 2.24869815e-03
      1.89364050e-03 7.49566068e-04 7.10115186e-04 6.31213479e-04
      1.91731099e-02 9.46820248e-03 9.11314506e-03 1.12829413e-02
      9.11314506e-03 3.90563346e-03 3.94508429e-03 3.66892852e-03
      6.19378267e-03 2.48540309e-03 2.87991157e-03 2.05144379e-03
      7.65346363e-03 3.55057605e-03 2.64320662e-03 2.68265745e-03
      5.68092149e-03 2.40650144e-03 1.85418967e-03 1.81473885e-03
      7.89016858e-03 2.95881322e-03 2.80100992e-03 2.87991157e-03
      5.44421654e-03 2.91936239e-03 2.28814897e-03 1.93309132e-03
      3.98453511e-03 1.65693543e-03 1.02572190e-03 1.38077955e-03
      7.18005374e-03 5.79927396e-03 5.64147066e-03 5.08915912e-03</_>
    <_>
      1.45445475e-02 9.55784600e-03 7.97872338e-03 8.80984031e-03
      8.89295246e-03 4.82047861e-03 2.24401592e-03 2.90890946e-03
      8.80984031e-03 2.99202139e-03 2.32712761e-03 1.99468085e-03
      7.89561216e-03 3.24135646e-03 3.65691492e-03 2.16090423e-03
      5.56848384e-03 3.07513308e-03 2.16090423e-03 1.57912239e-03
      6.81515969e-03 2.49335100e-03 3.65691492e-03 1.82845746e-03
      6.39960123e-03 1.99468085e-03 2.16090423e-03 2.24401592e-03
      3.65691492e-03 1.08045212e-03 1.32978719e-03 1.74534577e-03
      2.99202139e-03 8.31117039e-04 8.31117039e-04 9.14228731e-04
      9.22539923e-03 3.65691492e-03 4.48803185e-03 4.48803185e-03
      6.48271292e-03 3.24135646e-03 2.57646269e-03 1.99468085e-03
      5.81781892e-03 2.41023931e-03 1.82845746e-03 2.24401592e-03
      5.81781892e-03 2.82579777e-03 1.49601069e-03 1.99468085e-03
      6.73204800e-03 3.32446815e-03 1.99468085e-03 1.82845746e-03
      3.98936169e-03 2.24401592e-03 2.07779254e-03 1.32978719e-03
      5.73470723e-03 8.31117039e-04 1.66223408e-03 1.16356381e-03
      5.40226046e-03 1.57912239e-03 1.24667550e-03 1.24667550e-03
      1.35472072e-02 1.14694145e-02 1.08045209e-02 1.12200798e-02</_>
    <_>
      2.35101394e-02 1.18657574e-02 1.16443811e-02 1.17329322e-02
      1.97024699e-02 9.51917097e-03 8.36801529e-03 9.60772205e-03
      1.74001586e-02 6.77410793e-03 7.17258500e-03 7.48251146e-03
      1.33268395e-02 6.33135578e-03 5.88860363e-03 5.22447517e-03
      1.31497383e-02 6.68555731e-03 5.26875071e-03 4.29469580e-03
      1.12016294e-02 5.09164948e-03 3.40919150e-03 4.02904442e-03
      8.89931805e-03 3.18781543e-03 3.45346681e-03 2.52368720e-03
      6.41990593e-03 1.85955898e-03 2.16948544e-03 9.74054739e-04
      2.83361366e-03 1.01832999e-03 1.23970606e-03 2.65651295e-04
      8.89931805e-03 3.49774188e-03 3.63056757e-03 2.25803605e-03
      4.87027364e-03 1.59390771e-03 1.63818290e-03 9.29779490e-04
      3.54201719e-03 1.46108214e-03 7.52678665e-04 1.19543076e-03
      3.85194365e-03 1.28398126e-03 7.08403415e-04 1.41680683e-03
      3.80766857e-03 1.28398126e-03 8.85504298e-04 8.41229106e-04
      3.32064112e-03 1.32825645e-03 1.15115556e-03 6.64128223e-04
      3.05498973e-03 8.85504298e-04 1.06260518e-03 6.19853032e-04
      2.87788897e-03 1.06260518e-03 7.52678665e-04 7.52678665e-04
      7.30541022e-03 5.84432855e-03 5.09164948e-03 5.13592502e-03</_>
    <_>
      3.06892879e-02 1.56333279e-02 1.34570971e-02 1.31462067e-02
      2.69141942e-02 1.44341802e-02 1.27464915e-02 1.11920414e-02
      2.42938362e-02 1.23467753e-02 9.68200434e-03 8.17196630e-03
      2.01190263e-02 9.45993979e-03 7.28370948e-03 7.55018648e-03
      1.66104101e-02 8.48285668e-03 6.17338764e-03 7.19488366e-03
      1.54112633e-02 7.55018648e-03 6.04014937e-03 5.41836908e-03
      1.15029309e-02 5.46278199e-03 5.59602072e-03 3.77509324e-03
      9.28228814e-03 2.62035895e-03 3.37537751e-03 3.19772610e-03
      4.44128597e-03 2.30946881e-03 1.06590870e-03 1.11032149e-03
      1.46118319e-02 5.81808481e-03 3.59744183e-03 3.86391906e-03
      6.43986510e-03 1.68768875e-03 2.13181740e-03 1.77651446e-03
      5.24071790e-03 1.90975307e-03 1.64327584e-03 1.19914731e-03
      4.39687353e-03 1.82092737e-03 1.64327584e-03 1.06590870e-03
      2.53153313e-03 1.11032149e-03 7.10605818e-04 5.32954349e-04
      2.93124886e-03 1.37679873e-03 8.43844377e-04 6.66192907e-04
      3.10890027e-03 6.66192907e-04 7.55018671e-04 7.10605818e-04
      2.26505590e-03 7.99431524e-04 8.43844377e-04 4.88541496e-04
      6.75075501e-03 5.46278199e-03 5.37395617e-03 5.06306626e-03</_>
    <_>
      2.77639236e-02 1.49625931e-02 1.35910222e-02 1.22194514e-02
      2.70157941e-02 1.36741484e-02 1.13466335e-02 9.64256003e-03
      2.19867006e-02 9.10224393e-03 8.89443047e-03 8.56192876e-03
      2.03241892e-02 8.31255224e-03 7.98004959e-03 7.60598481e-03
      1.55444723e-02 7.60598481e-03 6.73316699e-03 5.40315872e-03
      1.38819618e-02 6.89941831e-03 5.15378220e-03 5.52784698e-03
      1.27597675e-02 5.65253524e-03 5.61097264e-03 3.82377394e-03
      6.85785525e-03 2.32751458e-03 2.70157936e-03 1.91188697e-03
      3.99002479e-03 1.08063174e-03 1.12219446e-03 8.31255224e-04
      1.43807149e-02 7.31504569e-03 5.73566090e-03 5.48628438e-03
      6.52535306e-03 3.28345806e-03 2.36907741e-03 2.36907741e-03
      3.82377394e-03 1.53782207e-03 2.41064001e-03 1.70407316e-03
      4.90440568e-03 2.16126349e-03 1.74563588e-03 1.41313381e-03
      4.98753134e-03 1.74563588e-03 2.07813806e-03 9.14380711e-04
      5.94347483e-03 2.03657523e-03 1.87032414e-03 1.87032414e-03
      4.73815482e-03 1.41313381e-03 1.37157110e-03 1.37157110e-03
      3.69908568e-03 1.28844555e-03 8.31255224e-04 7.89692451e-04
      7.56442221e-03 5.73566090e-03 5.77722350e-03 5.36159612e-03</_>
    <_>
      1.73226912e-02 8.88808258e-03 9.06947255e-03 9.06947255e-03
      8.07183050e-03 4.62543080e-03 5.80446236e-03 3.35570471e-03
      8.97877757e-03 3.71848349e-03 3.08362045e-03 1.26972608e-03
      7.61835650e-03 3.35570471e-03 2.99292570e-03 1.36042084e-03
      6.62071491e-03 2.53945217e-03 2.35806266e-03 1.72319973e-03
      6.25793589e-03 1.81389449e-03 1.81389449e-03 1.26972608e-03
      4.98820981e-03 1.72319973e-03 1.90458912e-03 1.26972608e-03
      3.99056775e-03 9.97641939e-04 1.08833669e-03 7.25557795e-04
      3.35570471e-03 1.36042084e-03 9.97641939e-04 1.08833669e-03
      9.16016661e-03 3.62778897e-03 3.53709422e-03 1.63250498e-03
      5.44168334e-03 1.90458912e-03 1.17903133e-03 1.17903133e-03
      4.98820981e-03 1.81389449e-03 1.08833669e-03 9.97641939e-04
      5.71376737e-03 9.97641939e-04 1.08833669e-03 1.08833669e-03
      4.89751482e-03 1.17903133e-03 1.17903133e-03 9.97641939e-04
      5.26029384e-03 2.44875741e-03 1.08833669e-03 1.72319973e-03
      3.53709422e-03 1.90458912e-03 1.17903133e-03 1.54181023e-03
      2.99292570e-03 7.25557795e-04 7.25557795e-04 8.16252490e-04
      1.26065658e-02 1.09740617e-02 1.08833667e-02 1.07926717e-02</_>
    <_>
      2.60737911e-02 1.59807112e-02 1.51396208e-02 1.18874060e-02
      2.09711790e-02 1.03734443e-02 8.57911818e-03 7.96231907e-03
      1.90086346e-02 9.64449905e-03 7.12122908e-03 6.50442997e-03
      1.36256590e-02 7.96231907e-03 5.77548519e-03 4.93439520e-03
      9.13984515e-03 4.59795911e-03 3.25221498e-03 3.36436019e-03
      7.17730168e-03 2.13076151e-03 2.63541541e-03 2.46719760e-03
      7.56981038e-03 2.01861607e-03 2.97185150e-03 2.13076151e-03
      4.82224952e-03 1.40181673e-03 2.01861607e-03 1.51396205e-03
      1.51396205e-03 5.60726679e-04 1.68218015e-04 6.72872062e-04
      9.92486253e-03 4.87832213e-03 3.92508693e-03 3.02792410e-03
      6.89693866e-03 2.52327020e-03 2.29897955e-03 1.96254347e-03
      5.10261301e-03 1.90647074e-03 1.73825282e-03 1.40181673e-03
      3.70079628e-03 1.57003477e-03 1.57003477e-03 6.16799400e-04
      2.91577890e-03 7.28944724e-04 6.72872062e-04 7.28944724e-04
      4.59795911e-03 1.68218010e-03 1.62610749e-03 1.06538075e-03
      5.55119431e-03 2.91577890e-03 1.85039814e-03 1.06538075e-03
      4.37366823e-03 1.68218010e-03 1.12145336e-03 1.00930803e-03
      1.09341703e-02 8.24268255e-03 7.90624693e-03 7.56981038e-03</_>
    <_>
      2.43784059e-02 1.51945045e-02 1.24318674e-02 1.17972074e-02
      1.60531625e-02 8.21324531e-03 6.86926022e-03 5.71193919e-03
      1.25438664e-02 5.45060867e-03 4.29328764e-03 4.59195115e-03
      9.37056635e-03 3.13596660e-03 3.95729113e-03 3.17329960e-03
      6.34659920e-03 2.50130659e-03 2.53863959e-03 2.12797732e-03
      5.97326970e-03 2.20264308e-03 1.71731506e-03 1.11998804e-03
      5.33860968e-03 2.38930783e-03 2.05331133e-03 1.23198691e-03
      4.81594866e-03 1.56798330e-03 1.19465392e-03 1.15732104e-03
      1.71731506e-03 3.73329356e-04 2.98663479e-04 1.86664678e-04
      1.00052264e-02 5.45060867e-03 4.70394967e-03 3.24796536e-03
      5.86127071e-03 3.50929587e-03 2.53863959e-03 2.65063834e-03
      7.69058475e-03 3.32263112e-03 3.02396785e-03 2.83730309e-03
      5.78660471e-03 2.65063834e-03 2.57597258e-03 2.12797732e-03
      4.74128267e-03 2.53863959e-03 1.97864557e-03 1.53065030e-03
      4.47995216e-03 1.82931381e-03 1.75464794e-03 1.15732104e-03
      3.54662887e-03 1.71731506e-03 1.15732104e-03 1.19465392e-03
      3.09863361e-03 8.58657528e-04 7.46658712e-04 6.71992835e-04
      8.28791130e-03 5.86127071e-03 5.71193919e-03 5.45060867e-03</_>
    <_>
      9.14047472e-03 7.61706242e-03 5.69275161e-03 7.69724185e-03
      4.65041678e-03 2.08466966e-03 1.68377161e-03 9.62155231e-04
      3.92880058e-03 1.20269402e-03 1.44323288e-03 1.28287368e-03
      3.68826161e-03 2.00449000e-03 1.12251448e-03 1.04233483e-03
      4.57023736e-03 1.84413081e-03 1.12251448e-03 1.36305322e-03
      5.05131483e-03 1.84413081e-03 1.28287368e-03 1.12251448e-03
      4.00898000e-03 1.20269402e-03 1.28287368e-03 1.44323288e-03
      3.84862092e-03 1.36305322e-03 7.21616438e-04 1.36305322e-03
      3.28736380e-03 8.81975633e-04 6.41436840e-04 8.01796035e-04
      4.89095552e-03 2.96664517e-03 1.44323288e-03 1.68377161e-03
      4.89095552e-03 1.84413081e-03 1.68377161e-03 1.36305322e-03
      4.32969863e-03 1.60359207e-03 1.84413081e-03 1.76395127e-03
      5.93329035e-03 1.76395127e-03 1.12251448e-03 1.44323288e-03
      4.16933931e-03 1.52341241e-03 1.12251448e-03 1.60359207e-03
      4.97113541e-03 1.44323288e-03 1.52341241e-03 1.04233483e-03
      4.16933931e-03 1.76395127e-03 1.60359207e-03 1.12251448e-03
      3.36754322e-03 1.04233483e-03 6.41436840e-04 3.20718420e-04
      1.32296346e-02 1.00224502e-02 1.03431689e-02 9.70173161e-03</_>
    <_>
      2.97352597e-02 1.60506461e-02 1.27254128e-02 1.04872743e-02
      2.22534854e-02 9.46412608e-03 9.08044539e-03 6.45862659e-03
      1.64982732e-02 6.01099897e-03 5.43547748e-03 4.28443542e-03
      1.18301576e-02 3.77286109e-03 3.96470120e-03 3.58102052e-03
      7.86545593e-03 2.87760585e-03 2.42997822e-03 2.30208458e-03
      8.50492436e-03 3.13339313e-03 2.68576550e-03 3.13339313e-03
      9.08044539e-03 2.68576550e-03 2.23813788e-03 2.49392516e-03
      5.69126476e-03 1.91840390e-03 1.34288275e-03 1.59866991e-03
      2.23813788e-03 5.75521146e-04 6.39467966e-04 3.83680774e-04
      8.88860505e-03 4.85995645e-03 3.96470120e-03 2.94155255e-03
      5.17969066e-03 2.49392516e-03 1.53472309e-03 1.98235060e-03
      5.30758407e-03 2.49392516e-03 9.59201949e-04 1.40682957e-03
      5.43547748e-03 2.55787186e-03 1.79051026e-03 1.21498911e-03
      5.94705204e-03 2.42997822e-03 1.27893593e-03 9.59201949e-04
      6.45862659e-03 2.23813788e-03 1.59866991e-03 2.04629754e-03
      4.54022270e-03 1.66261673e-03 1.15104229e-03 1.47077627e-03
      4.47627576e-03 1.72656355e-03 1.34288275e-03 6.39467966e-04
      1.29172532e-02 9.33623221e-03 9.27228574e-03 7.67361559e-03</_>
    <_>
      1.22514209e-02 7.16145849e-03 7.81250000e-03 6.45123096e-03
      4.91240527e-03 2.66335229e-03 2.13068188e-03 1.83475378e-03
      4.02462110e-03 2.42660986e-03 2.54498096e-03 1.65719702e-03
      6.74715918e-03 2.66335229e-03 3.13683716e-03 2.30823853e-03
      6.21448876e-03 2.84090918e-03 1.47964014e-03 1.47964014e-03
      4.43892041e-03 2.48579541e-03 1.89393945e-03 1.77556823e-03
      4.32054931e-03 2.30823853e-03 1.53882580e-03 1.12452649e-03
      3.66950757e-03 1.06534094e-03 8.87784117e-04 8.28598510e-04
      1.71638257e-03 2.36742431e-04 8.28598510e-04 2.95928039e-04
      6.80634473e-03 3.37357959e-03 2.78172339e-03 2.13068188e-03
      5.08996192e-03 1.36126892e-03 1.12452649e-03 9.46969725e-04
      4.37973486e-03 1.18371216e-03 1.53882580e-03 8.28598510e-04
      4.26136376e-03 1.06534094e-03 1.12452649e-03 8.87784117e-04
      4.32054931e-03 1.30208337e-03 7.69412902e-04 1.12452649e-03
      2.66335229e-03 1.00615527e-03 7.10227294e-04 1.06534094e-03
      3.31439404e-03 2.18986743e-03 1.24289771e-03 1.06534094e-03
      3.55113647e-03 1.18371216e-03 1.00615527e-03 9.46969725e-04
      9.41051170e-03 7.04308692e-03 7.45738624e-03 6.80634473e-03</_>
    <_>
      2.49104146e-02 1.28308870e-02 1.20217316e-02 1.07502025e-02
      2.25985441e-02 1.01144379e-02 9.70986020e-03 8.26494023e-03
      1.86683629e-02 7.51358224e-03 6.18425617e-03 5.83747542e-03
      1.43913999e-02 6.06866274e-03 4.39255591e-03 5.08611742e-03
      8.55392404e-03 4.62374277e-03 2.94763618e-03 3.17882327e-03
      9.13189258e-03 2.94763618e-03 3.87238478e-03 3.23661999e-03
      1.00566410e-02 4.16136859e-03 3.69899441e-03 3.98797821e-03
      4.27696202e-03 1.61830999e-03 1.44491962e-03 1.27152936e-03
      2.08068429e-03 9.24748601e-04 6.35764678e-04 4.04577499e-04
      9.65206325e-03 4.21916554e-03 3.06322961e-03 3.64119746e-03
      6.47323998e-03 2.77424580e-03 2.13848101e-03 1.44491962e-03
      5.14391391e-03 2.19627796e-03 2.02288758e-03 8.66951770e-04
      5.72188199e-03 2.42746505e-03 2.08068429e-03 1.96509063e-03
      4.50814934e-03 1.50271645e-03 1.27152936e-03 1.61830999e-03
      5.31730428e-03 2.42746505e-03 1.84949720e-03 1.61830999e-03
      4.39255591e-03 1.67610683e-03 1.50271645e-03 9.82545316e-04
      4.21916554e-03 1.15593569e-03 1.27152936e-03 9.82545316e-04
      9.01629869e-03 7.10900454e-03 7.05120806e-03 6.76222425e-03</_>
    <_>
      2.11540647e-02 1.31713990e-02 1.00923711e-02 1.02634281e-02
      1.66495610e-02 9.35112312e-03 7.29843788e-03 7.46949483e-03
      1.49389897e-02 6.78526610e-03 4.56152344e-03 5.24575217e-03
      1.22020757e-02 6.61420915e-03 4.61854273e-03 3.42114270e-03
      7.18439976e-03 3.64921894e-03 3.53518082e-03 1.99566665e-03
      6.72824727e-03 3.02200927e-03 2.39479984e-03 1.59653323e-03
      7.18439976e-03 3.13604739e-03 2.28076172e-03 2.39479984e-03
      6.04401855e-03 1.42547616e-03 1.14038086e-03 2.16672360e-03
      1.93864747e-03 9.69323737e-04 7.41247553e-04 5.70190430e-04
      9.00900923e-03 4.67556156e-03 3.64921894e-03 4.90363780e-03
      5.24575217e-03 2.56585702e-03 1.93864747e-03 2.45181890e-03
      4.67556156e-03 1.82460947e-03 1.25441898e-03 1.42547616e-03
      6.38613291e-03 2.33778078e-03 2.33778078e-03 1.59653323e-03
      5.87296160e-03 2.05268571e-03 2.10970454e-03 2.05268571e-03
      4.04835213e-03 2.28076172e-03 1.71057135e-03 1.36845710e-03
      5.35979029e-03 2.39479984e-03 1.88162841e-03 1.31143804e-03
      3.93431401e-03 1.65355229e-03 1.31143804e-03 1.14038086e-03
      1.04915043e-02 8.26776121e-03 7.86862802e-03 7.18439976e-03</_>
    <_>
      2.17712782e-02 9.28360131e-03 1.02694705e-02 9.53006931e-03
      1.57739073e-02 5.34012495e-03 4.51856712e-03 4.10778821e-03
      8.29773210e-03 3.61485383e-03 3.20407492e-03 3.45054222e-03
      9.20144562e-03 3.20407492e-03 2.95760762e-03 2.79329601e-03
      7.55833043e-03 2.46467302e-03 1.06802501e-03 2.38251733e-03
      7.06539582e-03 2.38251733e-03 2.13605003e-03 2.46467302e-03
      5.50443633e-03 1.31449231e-03 1.56095962e-03 9.85869206e-04
      3.61485383e-03 9.85869206e-04 9.85869206e-04 7.39401905e-04
      2.05389410e-03 5.75090351e-04 3.28623079e-04 3.28623079e-04
      7.64048658e-03 2.62898463e-03 3.20407492e-03 3.36838653e-03
      3.28623061e-03 1.06802501e-03 1.39664800e-03 1.39664800e-03
      3.28623061e-03 1.15018070e-03 4.92934603e-04 1.56095962e-03
      4.35425574e-03 1.06802501e-03 1.23233651e-03 8.21557653e-04
      3.61485383e-03 1.56095962e-03 1.15018070e-03 7.39401905e-04
      4.51856712e-03 2.38251733e-03 1.72527111e-03 2.13605003e-03
      5.25796926e-03 1.97173841e-03 2.38251733e-03 2.46467302e-03
      5.09365741e-03 1.23233651e-03 2.38251733e-03 8.21557653e-04
      1.37200132e-02 1.12553397e-02 1.08445613e-02 1.01873148e-02</_>
    <_>
      1.80125590e-02 1.00253392e-02 8.42789467e-03 8.31772573e-03
      1.49829239e-02 6.44486072e-03 6.55502919e-03 4.90250066e-03
      1.22287096e-02 6.00418635e-03 4.07623686e-03 3.36014107e-03
      1.03558442e-02 5.67368092e-03 3.74573097e-03 4.18640533e-03
      9.36432742e-03 4.07623686e-03 3.19488812e-03 4.35165782e-03
      8.70331563e-03 3.80081520e-03 2.64404528e-03 3.30505683e-03
      8.37281067e-03 3.52539378e-03 3.41522531e-03 3.47030954e-03
      6.16943929e-03 2.75421399e-03 2.03811843e-03 2.25845538e-03
      3.74573097e-03 7.16095616e-04 6.61011320e-04 7.71179912e-04
      8.75840057e-03 3.41522531e-03 3.47030954e-03 3.74573097e-03
      6.61011366e-03 1.92794972e-03 2.58896104e-03 1.76269689e-03
      5.28809056e-03 1.76269689e-03 1.76269689e-03 1.10168557e-03
      5.67368092e-03 2.47879256e-03 2.53387680e-03 1.48727559e-03
      5.61859645e-03 1.81778125e-03 1.59744406e-03 9.91516979e-04
      3.69064673e-03 1.26693840e-03 1.54235982e-03 1.70761265e-03
      4.46182676e-03 2.03811843e-03 1.65252842e-03 1.32202264e-03
      3.85589944e-03 1.26693840e-03 1.43219123e-03 7.71179912e-04
      8.37281067e-03 6.88553508e-03 6.83045061e-03 6.27960777e-03</_>
    <_>
      3.12875025e-02 1.62437856e-02 1.20864045e-02 1.20864045e-02
      2.34013367e-02 1.00291446e-02 8.82907584e-03 8.22904147e-03
      1.83439050e-02 7.20041152e-03 5.87176392e-03 6.34321943e-03
      1.58580486e-02 7.07183266e-03 5.70032559e-03 5.87176392e-03
      1.05434600e-02 4.50025732e-03 3.85736325e-03 3.08589055e-03
      1.02434428e-02 5.01457229e-03 3.77164409e-03 4.02880181e-03
      9.30053182e-03 3.64306523e-03 4.50025732e-03 3.55734606e-03
      5.05743176e-03 2.31441786e-03 1.80010288e-03 2.05726037e-03
      1.88582204e-03 5.14315092e-04 6.42893894e-04 5.14315092e-04
      1.40150869e-02 5.44316834e-03 6.25750050e-03 6.21464103e-03
      5.44316834e-03 2.05726037e-03 1.37150695e-03 1.80010288e-03
      3.47162690e-03 1.97154121e-03 1.07148977e-03 1.41436653e-03
      4.02880181e-03 1.45722611e-03 1.28578779e-03 9.42911021e-04
      3.72878439e-03 1.58580486e-03 1.20006863e-03 1.11434935e-03
      4.97171283e-03 1.84296246e-03 1.84296246e-03 1.84296246e-03
      2.95731192e-03 1.11434935e-03 1.15720893e-03 1.41436653e-03
      3.21446941e-03 1.54294528e-03 1.20006863e-03 8.14332219e-04
      8.27190094e-03 5.74318552e-03 5.82890445e-03 5.31458948e-03</_>
    <_>
      3.21552046e-02 1.69804078e-02 1.54053019e-02 1.34844407e-02
      2.90818289e-02 1.35228578e-02 1.09873228e-02 1.11794081e-02
      2.39723399e-02 1.24087594e-02 9.02804453e-03 9.41221695e-03
      1.82865933e-02 9.02804453e-03 7.91394524e-03 8.10603146e-03
      1.39838643e-02 6.60776021e-03 6.41567400e-03 6.72301184e-03
      1.36381099e-02 5.64733008e-03 6.45409152e-03 5.57049550e-03
      1.18709179e-02 5.72416466e-03 5.37840975e-03 5.26315812e-03
      7.87552819e-03 4.34114505e-03 3.18862847e-03 2.91970791e-03
      3.38071445e-03 9.60430247e-04 1.15251634e-03 7.68344209e-04
      1.27929309e-02 5.76258171e-03 5.30157518e-03 5.18632354e-03
      6.76142890e-03 2.53553595e-03 2.15136376e-03 2.03611213e-03
      4.99423733e-03 2.03611213e-03 1.76719169e-03 1.99769507e-03
      5.30157518e-03 1.19093352e-03 1.57510559e-03 1.57510559e-03
      4.53323079e-03 1.53668842e-03 1.19093352e-03 1.45985396e-03
      5.18632354e-03 1.84402615e-03 2.03611213e-03 1.34460244e-03
      4.34114505e-03 1.30618515e-03 1.72877451e-03 1.38301961e-03
      5.37840975e-03 1.69035723e-03 1.42143678e-03 1.42143678e-03
      7.76027655e-03 6.10833662e-03 5.57049550e-03 5.10948896e-03</_>
    <_>
      1.51828295e-02 9.06200334e-03 9.45945922e-03 9.77742486e-03
      8.82352982e-03 2.62321136e-03 4.21303650e-03 2.62321136e-03
      7.86963478e-03 2.46422901e-03 2.62321136e-03 1.35135138e-03
      5.80286188e-03 2.94117653e-03 2.30524642e-03 2.46422901e-03
      4.29252768e-03 1.58982514e-03 1.51033385e-03 1.43084256e-03
      3.97456298e-03 1.82829890e-03 1.74880761e-03 1.58982514e-03
      5.64387906e-03 1.82829890e-03 2.46422901e-03 2.30524642e-03
      5.48489671e-03 1.82829890e-03 1.90779020e-03 1.43084256e-03
      2.14626384e-03 7.94912572e-04 6.35930046e-04 7.94912572e-04
      8.50556418e-03 5.56438789e-03 4.84896684e-03 3.02066770e-03
      5.48489671e-03 3.10015888e-03 2.38473760e-03 1.27186009e-03
      4.68998402e-03 1.90779020e-03 1.66931632e-03 1.66931632e-03
      5.00794919e-03 2.30524642e-03 1.98728149e-03 2.54372018e-03
      6.12082658e-03 1.90779020e-03 1.43084256e-03 1.43084256e-03
      5.96184423e-03 2.38473760e-03 2.06677266e-03 1.43084256e-03
      6.20031776e-03 3.81558039e-03 1.58982514e-03 2.22575525e-03
      3.89507157e-03 1.66931632e-03 9.53895098e-04 7.94912572e-04
      1.42289344e-02 1.18441973e-02 1.11287758e-02 1.02543719e-02</_>
    <_>
      1.40669858e-02 7.17703346e-03 6.26794249e-03 4.78468882e-03
      1.01913875e-02 3.25358845e-03 2.00956943e-03 1.24401913e-03
      8.46889988e-03 3.30143538e-03 2.39234441e-03 2.24880385e-03
      8.99521541e-03 3.44497617e-03 2.72727269e-03 2.05741636e-03
      7.94258341e-03 2.91866018e-03 1.91387557e-03 1.62679423e-03
      6.93779904e-03 2.67942576e-03 2.05741636e-03 1.96172250e-03
      5.69377979e-03 2.10526306e-03 1.67464116e-03 1.14832539e-03
      5.98086137e-03 1.53110048e-03 1.33971288e-03 1.00478472e-03
      2.10526306e-03 4.78468894e-04 3.82775121e-04 1.43540674e-04
      1.04784686e-02 4.78468882e-03 3.87559808e-03 2.24880385e-03
      7.32057402e-03 2.91866018e-03 2.63157906e-03 1.81818183e-03
      5.78947365e-03 2.82296655e-03 2.29665078e-03 1.48325355e-03
      3.97129171e-03 2.44019134e-03 1.43540674e-03 1.00478472e-03
      4.35406715e-03 2.24880385e-03 1.53110048e-03 1.57894741e-03
      6.12440193e-03 4.30621998e-03 2.91866018e-03 2.91866018e-03
      7.12918676e-03 3.63636366e-03 2.24880385e-03 1.57894741e-03
      6.17224863e-03 2.72727269e-03 1.81818183e-03 1.19617220e-03
      8.66028666e-03 7.03349290e-03 7.08133960e-03 6.22009579e-03</_>
    <_>
      1.14141889e-02 7.66799366e-03 8.13626777e-03 6.96558179e-03
      6.61437586e-03 3.74619523e-03 2.75111222e-03 2.45844061e-03
      7.72652775e-03 4.15593525e-03 2.98524927e-03 2.75111222e-03
      7.60945911e-03 4.39007254e-03 3.10231792e-03 3.10231792e-03
      6.73144450e-03 3.10231792e-03 3.39498953e-03 2.34137196e-03
      6.96558179e-03 2.16576923e-03 2.63404357e-03 2.69257789e-03
      6.90704770e-03 2.22430355e-03 2.75111222e-03 2.86818086e-03
      5.26808714e-03 1.99016626e-03 1.81456329e-03 1.81456329e-03
      4.03886661e-03 1.34628895e-03 7.60945899e-04 7.60945899e-04
      1.21751344e-02 4.79981257e-03 4.68274392e-03 3.39498953e-03
      7.19971908e-03 2.63404357e-03 2.69257789e-03 2.04870058e-03
      4.79981257e-03 1.46335748e-03 1.63896044e-03 1.22922030e-03
      4.44860710e-03 1.46335748e-03 1.05361745e-03 1.22922030e-03
      2.92671495e-03 1.28775463e-03 1.05361745e-03 7.02411635e-04
      3.39498953e-03 1.52189180e-03 1.17068598e-03 1.05361745e-03
      3.33645521e-03 1.28775463e-03 9.36548808e-04 1.11215177e-03
      3.16085224e-03 9.95083130e-04 5.26808726e-04 3.51205817e-04
      9.48255695e-03 7.96066504e-03 7.60945911e-03 7.66799366e-03</_>
    <_>
      1.00317672e-02 8.10901169e-03 5.85186435e-03 7.10583525e-03
      6.18625665e-03 3.17672640e-03 9.19578655e-04 2.00635334e-03
      5.18307975e-03 1.83915731e-03 1.00317667e-03 9.19578655e-04
      5.76826604e-03 2.08995142e-03 1.50476512e-03 1.33756897e-03
      7.69102154e-03 2.00635334e-03 1.33756897e-03 2.25714757e-03
      7.85821769e-03 1.75555923e-03 2.08995142e-03 1.50476512e-03
      6.93863910e-03 2.59153987e-03 1.75555923e-03 1.83915731e-03
      4.93228575e-03 1.42116705e-03 1.42116705e-03 1.25397090e-03
      3.00953025e-03 1.42116705e-03 1.33756897e-03 5.01588336e-04
      6.93863910e-03 4.34709899e-03 2.59153987e-03 1.67196116e-03
      5.09948190e-03 1.67196116e-03 1.25397090e-03 1.00317667e-03
      4.17990284e-03 8.35980580e-04 1.17037282e-03 6.68784487e-04
      3.76191270e-03 1.00317667e-03 1.42116705e-03 1.17037282e-03
      5.51747205e-03 1.00317667e-03 1.50476512e-03 1.92275539e-03
      7.52382539e-03 3.42752039e-03 2.75873602e-03 1.67196116e-03
      6.52064895e-03 2.67513795e-03 2.34074565e-03 1.42116705e-03
      5.09948190e-03 1.50476512e-03 1.33756897e-03 7.52382562e-04
      1.42952688e-02 1.11185424e-02 1.08677475e-02 1.04497578e-02</_>
    <_>
      2.49876902e-02 1.30067291e-02 1.10372556e-02 1.09551949e-02
      1.77662894e-02 8.28820001e-03 7.01624807e-03 7.87789281e-03
      1.18989004e-02 4.96471347e-03 4.75956034e-03 4.14410001e-03
      1.32939443e-02 5.62120462e-03 5.53914346e-03 5.25192823e-03
      9.80633497e-03 5.16986707e-03 3.36451665e-03 3.85688501e-03
      1.12834396e-02 5.70326624e-03 4.47234511e-03 4.43131477e-03
      1.21040540e-02 5.12883626e-03 3.85688501e-03 3.97997722e-03
      6.48284936e-03 2.74905632e-03 1.84638111e-03 1.76431972e-03
      3.07730190e-03 9.02675209e-04 4.92368301e-04 6.56491029e-04
      1.54685704e-02 8.12407676e-03 6.81109447e-03 5.49811265e-03
      6.56491052e-03 2.58493354e-03 2.46184156e-03 3.11833248e-03
      6.07254216e-03 2.29771878e-03 1.80535042e-03 2.74905632e-03
      5.90841938e-03 2.46184156e-03 1.96947320e-03 1.96947320e-03
      4.63646790e-03 1.35401275e-03 1.35401275e-03 1.39504345e-03
      4.39028395e-03 2.58493354e-03 1.80535042e-03 1.27195136e-03
      5.53914346e-03 2.62596412e-03 1.55916624e-03 1.51813554e-03
      4.30822233e-03 1.18989008e-03 1.31298206e-03 9.02675209e-04
      7.01624807e-03 5.58017381e-03 5.41605102e-03 5.16986707e-03</_>
    <_>
      2.06072666e-02 1.13987057e-02 9.60676931e-03 9.30811372e-03
      1.97610743e-02 9.25833732e-03 8.31259321e-03 8.56147334e-03
      1.96117479e-02 7.81483296e-03 7.36684911e-03 7.01841712e-03
      1.35390740e-02 6.71976106e-03 6.22200081e-03 5.12692891e-03
      1.33399703e-02 4.67894459e-03 5.22648077e-03 4.03185654e-03
      1.47336982e-02 5.47536090e-03 4.67894459e-03 5.32603264e-03
      1.50821302e-02 6.66998513e-03 5.97312115e-03 3.93230468e-03
      8.46192148e-03 3.78297665e-03 2.93678441e-03 2.63812835e-03
      3.78297665e-03 1.84171228e-03 9.45744163e-04 1.34395226e-03
      9.30811372e-03 4.82827285e-03 4.13140887e-03 4.28073667e-03
      5.72424103e-03 2.23992043e-03 1.74216030e-03 2.28969636e-03
      6.32155314e-03 2.48880032e-03 2.19014427e-03 2.38924846e-03
      4.87804879e-03 1.34395226e-03 1.74216030e-03 1.74216030e-03
      3.88252852e-03 1.29417621e-03 1.59283227e-03 1.14484818e-03
      3.38476850e-03 1.44350424e-03 7.46640144e-04 7.96416134e-04
      4.18118481e-03 1.34395226e-03 8.95968114e-04 5.97312115e-04
      2.88700848e-03 7.46640144e-04 5.97312115e-04 6.47088105e-04
      7.36684911e-03 6.52065687e-03 6.32155314e-03 6.32155314e-03</_>
    <_>
      2.75490489e-02 1.57060083e-02 1.24529833e-02 1.20971845e-02
      2.46009957e-02 1.19955270e-02 1.03181861e-02 9.86072980e-03
      1.90606900e-02 6.81101950e-03 6.50604861e-03 6.50604861e-03
      1.44861238e-02 5.74362092e-03 6.76019117e-03 5.79444971e-03
      1.22496700e-02 4.16793721e-03 4.21876600e-03 5.18450746e-03
      1.25546409e-02 3.96462344e-03 4.62539401e-03 3.76130943e-03
      9.75907315e-03 3.71048087e-03 3.50716687e-03 3.45633831e-03
      5.43865003e-03 2.84639630e-03 2.49059661e-03 1.98231172e-03
      2.03314028e-03 1.27071259e-03 6.60770573e-04 7.62427575e-04
      1.14872418e-02 4.67622234e-03 3.76130943e-03 5.48947835e-03
      5.43865003e-03 2.03314028e-03 2.33811117e-03 2.08396860e-03
      7.11599085e-03 1.57568359e-03 1.88065472e-03 2.23645428e-03
      4.93036490e-03 2.08396860e-03 2.38893973e-03 1.47402659e-03
      4.32042312e-03 1.42319815e-03 1.67734060e-03 1.01657014e-03
      3.91379464e-03 1.62651215e-03 1.77899771e-03 1.37236959e-03
      3.30385286e-03 1.47402659e-03 1.72816915e-03 1.47402659e-03
      2.94805318e-03 7.11599074e-04 1.06739858e-03 1.21988414e-03
      7.47179007e-03 6.30273437e-03 5.94693515e-03 6.09942060e-03</_>
    <_>
      1.47679327e-02 9.66947991e-03 9.14205331e-03 8.17510579e-03
      8.08720104e-03 3.07665253e-03 4.21940908e-03 2.54922640e-03
      4.83473996e-03 2.81293946e-03 2.19760905e-03 1.75808719e-03
      5.36216609e-03 1.84599159e-03 2.54922640e-03 1.84599159e-03
      5.18635707e-03 2.46132212e-03 1.23066106e-03 1.67018280e-03
      4.57102666e-03 3.16455704e-03 1.93389587e-03 1.93389587e-03
      4.83473996e-03 2.02180026e-03 1.49437413e-03 2.72503518e-03
      5.27426181e-03 1.67018280e-03 1.05485227e-03 1.40646973e-03
      2.81293946e-03 1.14275666e-03 1.31856545e-03 4.39521798e-04
      8.52672290e-03 4.48312238e-03 3.77988745e-03 3.51617439e-03
      6.24120934e-03 2.10970454e-03 2.63713091e-03 2.90084397e-03
      7.47187063e-03 2.98874825e-03 1.84599159e-03 3.07665253e-03
      6.94444450e-03 1.31856545e-03 1.31856545e-03 2.54922640e-03
      6.50492264e-03 1.40646973e-03 1.31856545e-03 1.67018280e-03
      5.27426181e-03 1.23066106e-03 2.10970454e-03 2.02180026e-03
      4.83473996e-03 1.14275666e-03 2.02180026e-03 7.91139260e-04
      4.04360052e-03 7.03234866e-04 9.66947933e-04 1.31856545e-03
      1.38009842e-02 1.09880446e-02 1.06364274e-02 1.01969056e-02</_>
    <_>
      2.21291874e-02 9.12081357e-03 1.04665076e-02 9.12081357e-03
      1.80921052e-02 7.32655497e-03 6.42942591e-03 5.45753585e-03
      1.38307419e-02 6.87799044e-03 3.96232074e-03 3.06519144e-03
      1.02422247e-02 3.06519144e-03 2.16806214e-03 2.09330139e-03
      8.89653154e-03 1.86901912e-03 3.06519144e-03 2.01854063e-03
      6.05562190e-03 2.09330139e-03 2.39234441e-03 1.56997610e-03
      7.55083747e-03 1.94377988e-03 2.24282290e-03 2.39234441e-03
      5.68181835e-03 7.47607672e-04 1.64473685e-03 1.42045459e-03
      2.09330139e-03 4.48564591e-04 7.47607672e-04 7.47607672e-04
      9.34509560e-03 3.96232074e-03 3.28947371e-03 3.21471295e-03
      5.30801434e-03 1.94377988e-03 1.71949761e-03 9.71889938e-04
      4.33612429e-03 1.42045459e-03 2.09330139e-03 9.71889938e-04
      6.05562190e-03 1.86901912e-03 1.94377988e-03 2.69138766e-03
      4.78468882e-03 1.79425837e-03 1.79425837e-03 1.42045459e-03
      5.68181835e-03 2.46710517e-03 2.24282290e-03 1.42045459e-03
      6.72846893e-03 2.84090918e-03 2.16806214e-03 1.86901912e-03
      7.25179445e-03 2.54186592e-03 1.86901912e-03 1.86901912e-03
      1.52511960e-02 1.12888757e-02 1.09150717e-02 1.00179426e-02</_>
    <_>
      9.07759927e-03 5.60029270e-03 5.08784782e-03 5.05124452e-03
      4.75841854e-03 2.26939982e-03 1.86676427e-03 1.35431916e-03
      4.79502184e-03 1.86676427e-03 1.72035140e-03 1.31771597e-03
      5.41727664e-03 1.64714491e-03 1.53733534e-03 1.02489023e-03
      3.80673492e-03 1.20790629e-03 8.05270858e-04 8.41874105e-04
      4.20937035e-03 1.13469991e-03 8.41874105e-04 1.13469991e-03
      4.75841854e-03 1.31771597e-03 9.88286920e-04 8.05270858e-04
      3.40409949e-03 1.02489023e-03 1.13469991e-03 1.09809660e-03
      9.15080542e-04 4.75841865e-04 4.39238647e-04 4.39238647e-04
      8.38213786e-03 5.49048325e-03 4.06295760e-03 3.29428981e-03
      6.95461221e-03 3.25768674e-03 2.78184470e-03 2.26939982e-03
      3.98975099e-03 2.12298683e-03 1.64714491e-03 1.17130310e-03
      4.06295760e-03 2.15959013e-03 1.79355778e-03 1.35431916e-03
      4.02635429e-03 1.79355778e-03 1.75695459e-03 1.64714491e-03
      4.57540248e-03 2.15959013e-03 1.72035140e-03 1.86676427e-03
      4.72181570e-03 1.20790629e-03 9.51683731e-04 1.35431916e-03
      3.14787705e-03 1.20790629e-03 1.09809660e-03 9.88286920e-04
      8.85797944e-03 5.60029270e-03 5.85651537e-03 5.27086388e-03</_>
    <_>
      1.39731718e-02 7.58543611e-03 7.46566569e-03 6.82689250e-03
      9.74129699e-03 4.31172131e-03 3.99233494e-03 3.95241147e-03
      6.70712255e-03 3.43340775e-03 2.91440426e-03 2.79463432e-03
      7.82497600e-03 3.31363780e-03 3.03417444e-03 2.83455756e-03
      5.26988180e-03 2.39540078e-03 1.75662723e-03 1.79655058e-03
      6.58735214e-03 3.03417444e-03 2.35547754e-03 2.23570736e-03
      6.46758219e-03 2.67486437e-03 2.07601395e-03 2.19578412e-03
      3.75279458e-03 1.55701058e-03 1.11785368e-03 1.35739380e-03
      1.07793033e-03 4.39156807e-04 3.99233468e-05 3.99233482e-04
      1.06595336e-02 4.55126166e-03 4.11210489e-03 4.31172131e-03
      4.63110814e-03 2.19578412e-03 1.99616747e-03 1.91632065e-03
      3.83264129e-03 1.99616747e-03 1.43724051e-03 1.39731716e-03
      4.59118513e-03 1.83647394e-03 2.23570736e-03 1.51708722e-03
      5.07026492e-03 1.75662723e-03 1.55701058e-03 1.63685728e-03
      4.03225794e-03 1.71670387e-03 2.35547754e-03 1.39731716e-03
      6.50750566e-03 2.35547754e-03 2.07601395e-03 2.11593742e-03
      5.70903858e-03 2.23570736e-03 1.71670387e-03 1.63685728e-03
      6.86681550e-03 4.75087808e-03 4.99041844e-03 4.83072503e-03</_>
    <_>
      1.53930727e-02 7.97141250e-03 8.04013200e-03 6.80318847e-03
      9.27707553e-03 4.60417802e-03 3.57339205e-03 2.81748222e-03
      1.01017039e-02 4.32930188e-03 2.74876296e-03 3.02363932e-03
      9.48323216e-03 3.09235835e-03 3.50467279e-03 2.26772949e-03
      7.97141250e-03 3.77954915e-03 2.19901046e-03 1.78669603e-03
      8.10885057e-03 2.68004392e-03 3.22979665e-03 2.95492029e-03
      6.94062654e-03 2.54260586e-03 3.02363932e-03 1.71797688e-03
      4.46673995e-03 1.78669603e-03 1.64925784e-03 1.64925784e-03
      2.88620126e-03 1.03078620e-03 7.55909830e-04 7.55909830e-04
      8.79604183e-03 3.29851569e-03 2.88620126e-03 2.88620126e-03
      5.56624541e-03 2.13029142e-03 1.71797688e-03 2.13029142e-03
      4.46673995e-03 2.26772949e-03 1.03078620e-03 8.24628922e-04
      3.16107762e-03 1.44310063e-03 8.93348013e-04 7.55909830e-04
      4.87905461e-03 1.64925784e-03 1.09950523e-03 8.93348013e-04
      4.05442528e-03 1.03078620e-03 1.23694341e-03 1.16822426e-03
      4.19186382e-03 1.03078620e-03 1.03078620e-03 6.18471706e-04
      3.02363932e-03 6.87190739e-04 7.55909830e-04 4.81033523e-04
      1.12012094e-02 9.34579410e-03 9.00219940e-03 8.93347990e-03</_>
    <_>
      2.45207008e-02 1.43789938e-02 1.11141987e-02 8.61350354e-03
      1.24340095e-02 4.93192533e-03 4.93192533e-03 4.09836043e-03
      8.19672085e-03 2.43123085e-03 3.12586827e-03 2.36176723e-03
      6.52959151e-03 2.57015834e-03 2.15337588e-03 2.01444840e-03
      5.76549023e-03 1.73659355e-03 1.94498478e-03 1.59766607e-03
      5.90441795e-03 1.18088361e-03 1.31981110e-03 1.11141987e-03
      4.58460674e-03 1.52820232e-03 2.01444840e-03 1.11141987e-03
      4.09836043e-03 1.38927484e-03 1.31981110e-03 1.31981110e-03
      1.11141987e-03 5.55709936e-04 4.16782452e-04 4.86246194e-04
      7.91886635e-03 5.14031667e-03 3.47318710e-03 3.68157821e-03
      4.58460674e-03 1.80605729e-03 1.52820232e-03 1.66712981e-03
      3.12586827e-03 1.45873858e-03 1.59766607e-03 1.45873858e-03
      3.40372324e-03 8.33564904e-04 1.25034736e-03 1.25034736e-03
      4.30675177e-03 1.18088361e-03 1.87552103e-03 6.94637420e-04
      4.79299808e-03 2.01444840e-03 2.01444840e-03 1.52820232e-03
      5.76549023e-03 1.59766607e-03 1.87552103e-03 1.25034736e-03
      4.23728814e-03 1.18088361e-03 1.87552103e-03 1.04195613e-03
      1.15309805e-02 1.03500970e-02 9.93331522e-03 9.16921347e-03</_>
    <_>
      2.60086525e-02 1.47399139e-02 1.46896066e-02 1.20736491e-02
      2.26884000e-02 1.09165916e-02 9.86014679e-03 8.70308839e-03
      1.90159976e-02 6.94234855e-03 7.59633770e-03 7.39511009e-03
      1.56957433e-02 6.59020012e-03 6.43927976e-03 6.13743858e-03
      1.34319346e-02 3.92393582e-03 4.57792543e-03 3.82332224e-03
      1.02122948e-02 4.17547021e-03 3.92393582e-03 3.92393582e-03
      1.03632156e-02 4.07485664e-03 3.16933286e-03 3.01841227e-03
      5.88590419e-03 2.46503670e-03 1.35828555e-03 1.15705805e-03
      2.31411611e-03 6.03682478e-04 3.52148112e-04 6.53989322e-04
      9.05523729e-03 3.26994667e-03 2.61595729e-03 2.16319552e-03
      4.42700461e-03 1.50920614e-03 1.05644437e-03 8.55216815e-04
      3.87362903e-03 1.60981994e-03 1.45889923e-03 6.53989322e-04
      4.93007340e-03 1.76074053e-03 1.20736496e-03 7.54603068e-04
      2.61595729e-03 1.20736496e-03 4.02454985e-04 4.52761858e-04
      2.26380932e-03 9.55830561e-04 2.01227493e-04 4.02454985e-04
