<?xml version="1.0"?>
<opencv_storage>
<my_svm type_id="opencv-ml-svm">
  <svm_type>C_SVC</svm_type>
  <kernel><type>RBF</type>
    <gamma>3.1250000000000000e-02</gamma></kernel>
  <C>3.1250000000000000e-02</C>
  <term_criteria><epsilon>2.2204460492503131e-16</epsilon>
    <iterations>100</iterations></term_criteria>
  <var_all>72</var_all>
  <var_count>72</var_count>
  <class_count>8</class_count>
  <class_labels type_id="opencv-matrix">
    <rows>1</rows>
    <cols>8</cols>
    <dt>i</dt>
    <data>
      0 1 2 3 4 5 6 7</data></class_labels>
  <sv_total>1760</sv_total>
  <support_vectors>
    <_>
      3.06892879e-02 1.56333279e-02 1.34570971e-02 1.31462067e-02
      2.69141942e-02 1.44341802e-02 1.27464915e-02 1.11920414e-02
      2.42938362e-02 1.23467753e-02 9.68200434e-03 8.17196630e-03
      2.01190263e-02 9.45993979e-03 7.28370948e-03 7.55018648e-03
      1.66104101e-02 8.48285668e-03 6.17338764e-03 7.19488366e-03
      1.54112633e-02 7.55018648e-03 6.04014937e-03 5.41836908e-03
      1.15029309e-02 5.46278199e-03 5.59602072e-03 3.77509324e-03
      9.28228814e-03 2.62035895e-03 3.37537751e-03 3.19772610e-03
      4.44128597e-03 2.30946881e-03 1.06590870e-03 1.11032149e-03
      1.46118319e-02 5.81808481e-03 3.59744183e-03 3.86391906e-03
      6.43986510e-03 1.68768875e-03 2.13181740e-03 1.77651446e-03
      5.24071790e-03 1.90975307e-03 1.64327584e-03 1.19914731e-03
      4.39687353e-03 1.82092737e-03 1.64327584e-03 1.06590870e-03
      2.53153313e-03 1.11032149e-03 7.10605818e-04 5.32954349e-04
      2.93124886e-03 1.37679873e-03 8.43844377e-04 6.66192907e-04
      3.10890027e-03 6.66192907e-04 7.55018671e-04 7.10605818e-04
      2.26505590e-03 7.99431524e-04 8.43844377e-04 4.88541496e-04
      6.75075501e-03 5.46278199e-03 5.37395617e-03 5.06306626e-03</_>
    <_>
      3.30297947e-02 1.53366886e-02 1.31400274e-02 1.20217269e-02
      2.76779290e-02 1.25009986e-02 1.11430623e-02 8.54700897e-03
      2.56809648e-02 1.10232448e-02 8.46713036e-03 8.06773733e-03
      2.45227255e-02 9.10615828e-03 8.90646223e-03 7.90798012e-03
      1.71738956e-02 6.47016522e-03 7.02931546e-03 5.35186520e-03
      1.16622737e-02 4.79271496e-03 4.47320053e-03 4.47320053e-03
      1.06637906e-02 4.75277565e-03 4.95247217e-03 4.39332193e-03
      8.10767617e-03 3.39483982e-03 2.23660027e-03 2.59605399e-03
      3.11526470e-03 9.58543038e-04 7.18907278e-04 8.38725129e-04
      1.37391165e-02 7.02931546e-03 5.51162241e-03 6.47016522e-03
      8.62688757e-03 2.75581121e-03 2.35641818e-03 2.75581121e-03
      5.63144032e-03 2.19666096e-03 1.83720747e-03 1.71738956e-03
      6.74974034e-03 2.03690398e-03 2.03690398e-03 1.47775386e-03
      6.39028661e-03 2.51617539e-03 1.95702538e-03 2.39635748e-03
      6.62992243e-03 1.99696468e-03 2.39635748e-03 2.15672189e-03
      5.71131893e-03 1.71738956e-03 1.87714677e-03 2.31647887e-03
      4.75277565e-03 1.47775386e-03 1.19817874e-03 1.63751096e-03
      6.70980103e-03 5.19210799e-03 5.31192590e-03 4.95247217e-03</_>
    <_>
      1.97254214e-02 1.20719587e-02 1.32554835e-02 1.02572199e-02
      1.27820736e-02 4.81300289e-03 4.26069135e-03 3.47167440e-03
      1.15196463e-02 4.18178970e-03 3.31387087e-03 3.55057605e-03
      9.70490742e-03 2.99826427e-03 3.15606757e-03 2.28814897e-03
      6.15433184e-03 1.97254214e-03 2.36705062e-03 2.20924732e-03
      4.57629794e-03 1.97254214e-03 2.60375580e-03 3.23496922e-03
      4.73410124e-03 1.02572190e-03 1.81473885e-03 1.89364050e-03
      3.70837934e-03 7.89016893e-04 1.89364050e-03 1.42023037e-03
      2.36705062e-03 5.52311831e-04 6.31213479e-04 9.46820248e-04
      8.67918599e-03 4.10288759e-03 3.86618264e-03 2.76155910e-03
      5.99652855e-03 2.20924732e-03 2.28814897e-03 2.20924732e-03
      4.33959300e-03 2.20924732e-03 9.46820248e-04 1.34132872e-03
      2.99826427e-03 1.02572190e-03 9.46820248e-04 1.18352531e-03
      3.94508429e-03 6.31213479e-04 8.67918599e-04 9.46820248e-04
      4.18178970e-03 4.73410124e-04 1.42023037e-03 1.02572190e-03
      4.02398594e-03 7.10115186e-04 7.89016893e-04 1.42023037e-03
      2.52485392e-03 1.02572190e-03 5.52311831e-04 5.52311831e-04
      1.15985479e-02 9.38930083e-03 9.23149753e-03 9.38930083e-03</_>
    <_>
      1.49856657e-02 9.25202016e-03 8.33984930e-03 7.49283284e-03
      1.14672920e-02 5.34271589e-03 3.71383899e-03 4.16992465e-03
      1.12066716e-02 6.05942123e-03 4.03961446e-03 3.84414918e-03
      1.42689599e-02 5.79880131e-03 4.95178532e-03 4.23507951e-03
      1.09460512e-02 4.36538970e-03 4.43054456e-03 3.38806352e-03
      1.07505862e-02 4.43054456e-03 4.88662999e-03 4.23507951e-03
      1.19885327e-02 5.40787075e-03 5.01694018e-03 4.82147513e-03
      1.04248114e-02 3.58352880e-03 4.43054456e-03 3.58352880e-03
      6.25488674e-03 2.08496233e-03 2.01980723e-03 1.95465214e-03
      2.28042733e-02 8.66562407e-03 9.25202016e-03 7.62314303e-03
      1.54417511e-02 6.38519693e-03 5.53818094e-03 4.43054456e-03
      1.06202764e-02 3.32290842e-03 3.38806352e-03 3.19259847e-03
      1.04899658e-02 2.86682299e-03 3.32290842e-03 3.77899408e-03
      7.75345322e-03 3.45321861e-03 2.60620285e-03 2.54104775e-03
      8.33984930e-03 2.67135794e-03 2.80166790e-03 2.08496233e-03
      5.92911150e-03 2.80166790e-03 1.56372169e-03 1.88949704e-03
      3.51837371e-03 7.81860843e-04 1.04248116e-03 5.86395618e-04
      9.83841531e-03 8.20953865e-03 8.20953865e-03 8.07922892e-03</_>
    <_>
      1.23932511e-02 6.14455342e-03 6.40491582e-03 4.99895867e-03
      6.56113308e-03 2.23911693e-03 2.49947933e-03 1.30181212e-03
      5.15517592e-03 1.61424698e-03 1.71839201e-03 1.14559464e-03
      5.36346575e-03 2.23911693e-03 1.92668196e-03 1.45802961e-03
      4.73859627e-03 1.92668196e-03 1.56217453e-03 6.76942291e-04
      4.73859627e-03 1.51010207e-03 1.51010207e-03 1.09352218e-03
      4.84274095e-03 2.23911693e-03 1.61424698e-03 1.45802961e-03
      3.43678403e-03 1.92668196e-03 8.85232235e-04 1.24973967e-03
      1.30181212e-03 7.29014806e-04 5.20724861e-04 3.12434917e-04
      6.76942291e-03 3.22849397e-03 2.49947933e-03 1.56217453e-03
      4.63445112e-03 1.40595704e-03 1.66631956e-03 1.19766721e-03
      4.06165374e-03 1.40595704e-03 1.14559464e-03 9.37304751e-04
      5.31139364e-03 1.40595704e-03 1.61424698e-03 1.66631956e-03
      3.80129134e-03 7.81087263e-04 1.56217453e-03 9.37304751e-04
      3.43678403e-03 1.14559464e-03 1.56217453e-03 1.14559464e-03
      7.08185788e-03 2.08289945e-03 2.08289945e-03 1.82253693e-03
      6.45698793e-03 2.75984174e-03 2.86398665e-03 1.40595704e-03
      9.16475710e-03 7.18600303e-03 6.82149548e-03 6.56113308e-03</_>
    <_>
      1.43944798e-02 9.55666602e-03 7.49464659e-03 8.24807677e-03
      9.75493714e-03 4.63954313e-03 3.72749614e-03 3.17233731e-03
      7.85153452e-03 3.29129980e-03 3.44991684e-03 2.69648666e-03
      8.84289015e-03 3.76715045e-03 3.25164571e-03 2.69648666e-03
      6.93948753e-03 2.18098192e-03 2.06201919e-03 1.54651434e-03
      7.37568410e-03 3.41026252e-03 2.97406618e-03 2.57752393e-03
      8.56531039e-03 4.04472975e-03 3.09302867e-03 2.65683234e-03
      6.18605735e-03 2.53786985e-03 2.18098192e-03 1.50686014e-03
      3.09302867e-03 7.13775866e-04 6.74121664e-04 5.94813202e-04
      1.36013962e-02 8.08945950e-03 7.49464659e-03 5.15504787e-03
      1.19359186e-02 6.06709486e-03 5.07573970e-03 5.07573970e-03
      8.20842292e-03 4.83781425e-03 4.16369271e-03 2.93441187e-03
      7.89118838e-03 3.80680477e-03 3.09302867e-03 2.65683234e-03
      5.67055261e-03 2.57752393e-03 2.26029032e-03 1.82409387e-03
      7.81188020e-03 3.60853365e-03 2.61717825e-03 2.85510346e-03
      5.67055261e-03 2.81544938e-03 2.45856144e-03 2.37925281e-03
      4.63954313e-03 1.74478546e-03 1.18962640e-03 1.66547706e-03
      8.24807677e-03 5.78951556e-03 5.74986124e-03 5.82916941e-03</_>
    <_>
      3.49928774e-02 1.77269299e-02 1.47514874e-02 1.47095798e-02
      2.43064296e-02 1.11893388e-02 8.92632641e-03 8.75869580e-03
      1.81460064e-02 8.75869580e-03 6.99857529e-03 8.17198865e-03
      1.56315472e-02 7.08239060e-03 5.86706912e-03 7.08239060e-03
      1.23208445e-02 4.52602468e-03 4.65174764e-03 5.40608494e-03
      1.37037970e-02 5.36417728e-03 5.74134616e-03 5.44799259e-03
      1.03092780e-02 3.81359481e-03 3.68787185e-03 4.02313285e-03
      7.41765136e-03 2.13728938e-03 1.71821308e-03 1.96965877e-03
      3.31070321e-03 7.96245062e-04 7.12429814e-04 6.70522160e-04
      1.64277926e-02 7.45955901e-03 7.45955901e-03 6.32805284e-03
      5.19654667e-03 2.22110469e-03 2.38873530e-03 2.05347408e-03
      5.86706912e-03 1.25722901e-03 1.29913667e-03 1.00578321e-03
      5.44799259e-03 1.42485963e-03 1.13150617e-03 7.12429814e-04
      4.19076346e-03 9.21967963e-04 1.13150617e-03 8.38152715e-04
      4.48411703e-03 1.88584358e-03 1.13150617e-03 1.59249012e-03
      5.02891606e-03 1.88584358e-03 1.04769086e-03 1.29913667e-03
      4.35839407e-03 1.46676728e-03 5.44799259e-04 8.38152715e-04
      7.12429825e-03 5.57371555e-03 5.57371555e-03 5.28036198e-03</_>
    <_>
      2.94333734e-02 1.54284136e-02 1.23059973e-02 1.24437502e-02
      2.60813665e-02 1.34998625e-02 9.87234805e-03 1.02396915e-02
      2.01120395e-02 8.40297528e-03 7.66828889e-03 7.57645350e-03
      1.51529070e-02 6.79584919e-03 6.61217747e-03 6.10708073e-03
      1.19845718e-02 4.77546128e-03 4.04077489e-03 3.85710341e-03
      9.45908669e-03 4.49995417e-03 3.85710341e-03 3.76526779e-03
      9.41316970e-03 4.36220039e-03 3.76526779e-03 3.53567814e-03
      6.74993126e-03 1.83671596e-03 2.06630537e-03 1.88263389e-03
      1.79079804e-03 5.05096861e-04 5.05096861e-04 6.42850588e-04
      9.36725177e-03 2.93874554e-03 3.62751400e-03 4.04077489e-03
      5.92340901e-03 1.83671596e-03 1.65304437e-03 1.60712644e-03
      3.21425288e-03 9.64275852e-04 9.64275852e-04 7.80604256e-04
      3.48976022e-03 1.28570118e-03 7.80604256e-04 7.80604256e-04
      3.53567814e-03 5.96932659e-04 6.88768458e-04 7.80604256e-04
      3.26017081e-03 1.74488011e-03 1.28570118e-03 8.72440054e-04
      2.98466347e-03 1.33161910e-03 1.01019372e-03 4.13261092e-04
      2.61732028e-03 5.96932659e-04 6.42850588e-04 6.42850588e-04
      7.62237143e-03 6.19891612e-03 6.06116280e-03 5.92340901e-03</_>
    <_>
      2.85307318e-02 1.44164367e-02 1.34236878e-02 1.27762435e-02
      2.35238262e-02 1.10497242e-02 9.40953009e-03 8.50310735e-03
      1.91643648e-02 8.97790026e-03 7.38087017e-03 7.46719632e-03
      1.83442682e-02 8.07147752e-03 5.91332885e-03 5.22272103e-03
      1.13518648e-02 4.35946137e-03 4.14364645e-03 3.06457188e-03
      1.07907457e-02 4.83425427e-03 3.49620171e-03 2.97824596e-03
      8.37361906e-03 3.88466846e-03 2.67610489e-03 2.76243105e-03
      5.56802470e-03 2.20131222e-03 1.98549731e-03 1.68335636e-03
      2.28763814e-03 7.76933681e-04 6.47444744e-04 3.88466840e-04
      1.16108423e-02 5.56802470e-03 4.57527628e-03 4.01415769e-03
      6.69026235e-03 2.67610489e-03 2.46028998e-03 2.41712714e-03
      6.34495867e-03 2.76243105e-03 1.81284535e-03 2.11498630e-03
      6.47444744e-03 1.68335636e-03 2.24447506e-03 2.11498630e-03
      4.96374303e-03 2.07182323e-03 1.89917127e-03 1.55386736e-03
      6.56077359e-03 2.50345306e-03 1.81284535e-03 1.72651932e-03
      6.69026235e-03 2.46028998e-03 2.33080122e-03 1.89917127e-03
      4.05732030e-03 1.72651932e-03 9.92748654e-04 1.07907457e-03
      8.41678213e-03 6.43128436e-03 5.95649192e-03 5.91332885e-03</_>
    <_>
      1.58238728e-02 1.10939108e-02 1.01479189e-02 8.34193360e-03
      8.68593063e-03 5.58995549e-03 3.52597190e-03 3.26797389e-03
      8.25593434e-03 4.12796717e-03 3.61197116e-03 2.32198136e-03
      6.36394927e-03 2.40798085e-03 3.26797389e-03 1.71998620e-03
      5.07395947e-03 2.57997937e-03 2.75197788e-03 1.28998968e-03
      6.87994482e-03 2.23598210e-03 2.32198136e-03 1.37598894e-03
      4.90196096e-03 2.40798085e-03 2.06398359e-03 1.37598894e-03
      5.24595799e-03 2.14998284e-03 1.89198484e-03 1.46198831e-03
      3.86996893e-03 1.28998968e-03 1.46198831e-03 9.45992419e-04
      1.08359130e-02 3.61197116e-03 3.69797042e-03 2.49398011e-03
      6.70794630e-03 1.89198484e-03 1.54798757e-03 1.97798409e-03
      6.10595103e-03 2.40798085e-03 1.80598558e-03 1.11799105e-03
      6.36394927e-03 1.71998620e-03 2.06398359e-03 1.54798757e-03
      4.81596170e-03 2.75197788e-03 2.49398011e-03 1.54798757e-03
      5.50395576e-03 2.57997937e-03 1.63398695e-03 1.63398695e-03
      4.38596494e-03 1.46198831e-03 1.54798757e-03 9.45992419e-04
      4.90196096e-03 1.11799105e-03 6.87994470e-04 6.01995212e-04
      1.38458889e-02 1.08359130e-02 1.02339182e-02 1.02339182e-02</_>
    <_>
      1.60860885e-02 8.69018584e-03 7.28496397e-03 6.06464036e-03
      8.28341115e-03 4.25264426e-03 3.43909464e-03 2.77346349e-03
      7.98757467e-03 4.47452115e-03 3.29117663e-03 2.92138150e-03
      7.83965643e-03 4.21566470e-03 3.43909464e-03 2.95836106e-03
      7.35892309e-03 3.69795132e-03 2.92138150e-03 2.99534062e-03
      8.46830849e-03 4.40056203e-03 3.62399220e-03 3.84586933e-03
      6.91516884e-03 3.43909464e-03 2.84742261e-03 3.40211531e-03
      7.02610752e-03 1.92293467e-03 1.92293467e-03 2.40366836e-03
      2.07085279e-03 3.32815631e-04 2.58856599e-04 4.43754165e-04
      1.28318910e-02 7.32194353e-03 7.83965643e-03 5.54692699e-03
      8.76414496e-03 3.77191044e-03 3.62399220e-03 2.81044305e-03
      6.02766080e-03 2.29272991e-03 2.47762748e-03 2.03387323e-03
      5.21411141e-03 1.92293467e-03 1.92293467e-03 1.44220097e-03
      6.02766080e-03 1.84897566e-03 1.92293467e-03 1.33126252e-03
      5.80578344e-03 2.25575035e-03 1.33126252e-03 1.73803710e-03
      4.36358247e-03 1.14636496e-03 9.98446834e-04 1.55313953e-03
      4.17868514e-03 1.14636496e-03 1.03542639e-03 5.91672200e-04
      6.87818928e-03 5.43598831e-03 5.14015229e-03 4.69639804e-03</_>
    <_>
      2.17712782e-02 9.28360131e-03 1.02694705e-02 9.53006931e-03
      1.57739073e-02 5.34012495e-03 4.51856712e-03 4.10778821e-03
      8.29773210e-03 3.61485383e-03 3.20407492e-03 3.45054222e-03
      9.20144562e-03 3.20407492e-03 2.95760762e-03 2.79329601e-03
      7.55833043e-03 2.46467302e-03 1.06802501e-03 2.38251733e-03
      7.06539582e-03 2.38251733e-03 2.13605003e-03 2.46467302e-03
      5.50443633e-03 1.31449231e-03 1.56095962e-03 9.85869206e-04
      3.61485383e-03 9.85869206e-04 9.85869206e-04 7.39401905e-04
      2.05389410e-03 5.75090351e-04 3.28623079e-04 3.28623079e-04
      7.64048658e-03 2.62898463e-03 3.20407492e-03 3.36838653e-03
      3.28623061e-03 1.06802501e-03 1.39664800e-03 1.39664800e-03
      3.28623061e-03 1.15018070e-03 4.92934603e-04 1.56095962e-03
      4.35425574e-03 1.06802501e-03 1.23233651e-03 8.21557653e-04
      3.61485383e-03 1.56095962e-03 1.15018070e-03 7.39401905e-04
      4.51856712e-03 2.38251733e-03 1.72527111e-03 2.13605003e-03
      5.25796926e-03 1.97173841e-03 2.38251733e-03 2.46467302e-03
      5.09365741e-03 1.23233651e-03 2.38251733e-03 8.21557653e-04
      1.37200132e-02 1.12553397e-02 1.08445613e-02 1.01873148e-02</_>
    <_>
      1.22873345e-02 8.66414607e-03 6.77378708e-03 6.85255183e-03
      5.51354745e-03 2.83553870e-03 2.28418410e-03 2.83553870e-03
      6.85255183e-03 3.62318847e-03 2.59924377e-03 1.96912419e-03
      7.01008178e-03 2.04788917e-03 2.59924377e-03 2.83553870e-03
      6.30119722e-03 2.36294908e-03 1.89035921e-03 2.44171382e-03
      6.45872718e-03 3.78071843e-03 2.20541912e-03 2.36294908e-03
      8.03402625e-03 4.09577833e-03 2.75677373e-03 2.12665414e-03
      5.90737257e-03 2.04788917e-03 2.28418410e-03 2.36294908e-03
      3.54442350e-03 1.02394458e-03 4.72589803e-04 7.08884676e-04
      9.37303063e-03 4.33207303e-03 3.07183363e-03 4.80466289e-03
      6.77378708e-03 2.12665414e-03 2.99306866e-03 1.65406428e-03
      4.25330829e-03 1.33900438e-03 2.12665414e-03 8.66414630e-04
      5.90737257e-03 2.12665414e-03 1.96912419e-03 1.81159424e-03
      4.72589815e-03 1.10270956e-03 1.49653433e-03 1.02394458e-03
      6.93131704e-03 1.18147454e-03 2.04788917e-03 1.81159424e-03
      7.08884699e-03 2.28418410e-03 1.57529931e-03 1.73282926e-03
      2.75677373e-03 1.18147454e-03 1.41776935e-03 1.26023940e-03
      1.20510394e-02 1.12633901e-02 1.07120350e-02 1.10270949e-02</_>
    <_>
      1.34147964e-02 6.70739822e-03 7.90277589e-03 8.76610447e-03
      5.84406964e-03 2.45716562e-03 3.25408415e-03 2.32434575e-03
      5.97688928e-03 1.92588661e-03 2.85562500e-03 2.19152612e-03
      9.69584286e-03 3.12126451e-03 3.45331384e-03 1.92588661e-03
      8.03559553e-03 2.65639531e-03 2.92203482e-03 2.32434575e-03
      5.37920045e-03 2.58998550e-03 3.05485446e-03 2.05870625e-03
      5.84406964e-03 2.05870625e-03 1.52742723e-03 1.39460748e-03
      4.64869151e-03 1.59383717e-03 1.06255815e-03 7.30508706e-04
      2.58998550e-03 6.64098829e-04 5.31279074e-04 4.64869168e-04
      9.62943304e-03 4.11741249e-03 4.05100267e-03 3.32049420e-03
      7.43790669e-03 3.05485446e-03 2.85562500e-03 2.58998550e-03
      7.76995625e-03 2.45716562e-03 2.45716562e-03 2.25793594e-03
      8.69969465e-03 2.25793594e-03 2.12511630e-03 1.92588661e-03
      4.71510179e-03 1.39460748e-03 1.46101741e-03 1.66024710e-03
      7.63713662e-03 2.32434575e-03 2.45716562e-03 1.85947667e-03
      7.03944732e-03 2.58998550e-03 2.78921495e-03 1.59383717e-03
      5.77765983e-03 1.19537790e-03 1.52742723e-03 1.39460748e-03
      1.26842875e-02 9.36379377e-03 9.23097320e-03 8.36764555e-03</_>
    <_>
      2.50151306e-02 1.44744804e-02 1.19527942e-02 1.14484569e-02
      1.35162398e-02 7.01028854e-03 6.20334875e-03 4.63990308e-03
      8.77546892e-03 4.23643319e-03 3.78252985e-03 3.58079490e-03
      1.14484569e-02 4.74077044e-03 4.69033699e-03 4.38773446e-03
      1.01876138e-02 4.94250562e-03 4.08513192e-03 3.83296353e-03
      1.19023602e-02 5.95118012e-03 4.53903573e-03 4.38773446e-03
      1.00363120e-02 4.18599974e-03 3.42949363e-03 3.83296353e-03
      8.17026384e-03 2.67298776e-03 2.92515638e-03 2.67298776e-03
      3.07645742e-03 1.00867462e-03 1.31127704e-03 1.21040957e-03
      1.34658059e-02 4.89207171e-03 5.79987885e-03 5.19467425e-03
      7.31289107e-03 3.22775869e-03 2.97559006e-03 3.07645742e-03
      8.11983086e-03 3.42949363e-03 3.27819237e-03 2.87472270e-03
      9.07807145e-03 3.22775869e-03 4.03469848e-03 2.77385511e-03
      8.01896304e-03 2.77385511e-03 3.17732501e-03 2.62255408e-03
      6.40508393e-03 2.67298776e-03 2.42081913e-03 2.06778292e-03
      6.40508393e-03 1.56344566e-03 1.61387934e-03 1.36171072e-03
      5.19467425e-03 1.31127704e-03 1.00867462e-03 1.31127704e-03
      8.37199949e-03 6.55638473e-03 6.00161403e-03 6.50595129e-03</_>
    <_>
      1.78269558e-02 1.12955282e-02 1.16797294e-02 1.03734443e-02
      9.37451981e-03 6.14722585e-03 3.22729372e-03 4.91778087e-03
      1.06039653e-02 3.53465509e-03 3.30413412e-03 3.61149525e-03
      9.75872111e-03 3.30413412e-03 3.38097429e-03 3.07361293e-03
      6.53142761e-03 3.22729372e-03 2.91993236e-03 1.84416783e-03
      7.45351147e-03 2.99677276e-03 3.07361293e-03 1.92100811e-03
      6.83878921e-03 3.15045333e-03 3.22729372e-03 1.84416783e-03
      6.14722585e-03 1.61364686e-03 1.45996618e-03 1.84416783e-03
      2.76625180e-03 1.30628550e-03 8.45243572e-04 6.91562949e-04
      8.29875562e-03 4.53357911e-03 3.68833565e-03 3.30413412e-03
      6.37774682e-03 1.84416783e-03 1.92100811e-03 1.92100811e-03
      5.14830183e-03 1.53680646e-03 2.30520987e-03 1.61364686e-03
      5.45566296e-03 1.53680646e-03 1.30628550e-03 1.38312590e-03
      5.91670489e-03 1.99784851e-03 1.22944522e-03 1.22944522e-03
      5.60934376e-03 1.92100811e-03 1.92100811e-03 1.30628550e-03
      4.22621798e-03 1.45996618e-03 1.84416783e-03 8.45243572e-04
      4.45673894e-03 9.22083913e-04 1.22944522e-03 7.68403232e-04
      1.12955282e-02 9.14399885e-03 9.22083948e-03 8.99031851e-03</_>
    <_>
      3.38145904e-02 1.82370823e-02 1.22340424e-02 1.17021278e-02
      1.48936175e-02 6.99088164e-03 5.54711232e-03 5.77507587e-03
      1.01823704e-02 5.31914877e-03 3.26747727e-03 4.71124612e-03
      1.13981767e-02 3.41945281e-03 4.10334347e-03 5.47112478e-03
      9.19452868e-03 3.95136792e-03 4.02735546e-03 3.26747727e-03
      7.97872338e-03 4.63525858e-03 3.19148926e-03 4.02735546e-03
      8.43465049e-03 3.34346504e-03 2.96352594e-03 2.12765951e-03
      6.68693008e-03 1.74772041e-03 2.96352594e-03 1.97568396e-03
      3.19148926e-03 9.11854091e-04 5.31914877e-04 1.06382975e-03
      1.19300913e-02 4.10334347e-03 4.48328257e-03 3.57142859e-03
      8.96656513e-03 2.65957438e-03 2.50759884e-03 3.19148926e-03
      6.91489363e-03 2.81155016e-03 2.20364751e-03 2.35562306e-03
      6.76291808e-03 2.12765951e-03 1.29179331e-03 2.27963529e-03
      6.76291808e-03 2.35562306e-03 1.82370818e-03 1.51975686e-03
      6.07902743e-03 1.59574463e-03 2.27963529e-03 1.59574463e-03
      4.78723412e-03 1.67173252e-03 1.89969607e-03 1.44376897e-03
      4.63525858e-03 1.13981764e-03 1.44376897e-03 1.21580542e-03
      1.14741642e-02 9.49848071e-03 8.81459005e-03 8.35866295e-03</_>
    <_>
      1.90442223e-02 1.08416546e-02 9.98573471e-03 9.27246828e-03
      1.56918690e-02 6.77603437e-03 4.56490740e-03 5.34950057e-03
      1.45506421e-02 5.42082731e-03 5.49215404e-03 4.56490740e-03
      1.06990011e-02 5.42082731e-03 4.49358067e-03 3.49500705e-03
      7.77460774e-03 2.56776041e-03 2.99572037e-03 2.78174039e-03
      6.99001411e-03 2.49643368e-03 2.63908692e-03 1.85449363e-03
      5.56348078e-03 1.56918692e-03 2.63908692e-03 1.56918692e-03
      4.42225393e-03 1.21255347e-03 1.28388021e-03 1.42653356e-03
      1.78316690e-03 3.56633391e-04 3.56633391e-04 5.70613425e-04
      8.98716133e-03 3.42368055e-03 2.56776041e-03 3.13837384e-03
      5.49215404e-03 2.92439363e-03 1.64051354e-03 2.13980023e-03
      4.92154062e-03 1.56918692e-03 1.85449363e-03 1.99714699e-03
      4.63623414e-03 2.21112696e-03 1.49786018e-03 2.06847372e-03
      4.27960046e-03 1.49786018e-03 1.21255347e-03 1.99714699e-03
      3.20970034e-03 1.99714699e-03 1.42653356e-03 1.35520683e-03
      3.35235381e-03 1.28388021e-03 4.99286747e-04 8.55920138e-04
      1.78316690e-03 1.28388021e-03 7.13266782e-04 7.13266782e-04
      9.91440844e-03 8.63052811e-03 7.91726075e-03 8.05991422e-03</_>
    <_>
      1.58091746e-02 7.96431955e-03 7.56610371e-03 8.56164377e-03
      8.48200079e-03 3.62376543e-03 3.74323037e-03 3.46447923e-03
      8.32271390e-03 3.42465751e-03 2.70786881e-03 2.54858239e-03
      1.06721884e-02 4.26091114e-03 3.98215977e-03 4.14144620e-03
      7.64574716e-03 3.14590638e-03 2.70786881e-03 2.26983125e-03
      8.32271390e-03 3.70340864e-03 3.22554959e-03 2.94679846e-03
      7.44663924e-03 4.10162471e-03 3.66358715e-03 2.15036632e-03
      5.17680775e-03 2.90697673e-03 1.75215036e-03 1.79197197e-03
      1.03536155e-03 2.38929599e-04 3.18572798e-04 4.77859197e-04
      1.17075499e-02 7.64574716e-03 5.09716477e-03 5.57502406e-03
      5.65466704e-03 2.38929596e-03 1.55304233e-03 1.43357762e-03
      4.61930549e-03 1.63268554e-03 1.39375601e-03 1.47339923e-03
      4.57948400e-03 1.51322072e-03 1.11500476e-03 1.55304233e-03
      4.02198173e-03 1.35393441e-03 1.03536155e-03 7.96431967e-04
      4.42019757e-03 1.67250715e-03 2.07072310e-03 1.35393441e-03
      4.57948400e-03 1.39375601e-03 1.59286393e-03 1.23446959e-03
      4.93787834e-03 2.11054482e-03 1.15482637e-03 9.55718395e-04
      8.12360644e-03 5.81395347e-03 5.65466704e-03 5.61484555e-03</_>
    <_>
      1.33523233e-02 9.79170389e-03 8.54548719e-03 7.12123932e-03
      7.21025467e-03 4.18372778e-03 3.64963501e-03 3.20455758e-03
      8.01139418e-03 2.67046457e-03 1.86932529e-03 2.22538714e-03
      6.94320817e-03 2.40341830e-03 1.95834064e-03 1.42424786e-03
      7.47730117e-03 3.11554200e-03 3.82766593e-03 1.42424786e-03
      7.38828536e-03 2.67046457e-03 2.49243365e-03 1.51326333e-03
      6.94320817e-03 3.56061966e-03 2.40341830e-03 2.31440272e-03
      5.07388264e-03 2.40341830e-03 1.69129425e-03 2.13637180e-03
      2.49243365e-03 1.06818590e-03 8.90154915e-04 7.12123932e-04
      9.61367320e-03 3.64963501e-03 2.93751108e-03 2.49243365e-03
      4.80683660e-03 2.22538714e-03 1.95834064e-03 1.86932529e-03
      5.16289845e-03 2.22538714e-03 2.13637180e-03 2.13637180e-03
      4.80683660e-03 1.51326333e-03 1.78030983e-03 1.86932529e-03
      5.42994495e-03 1.15720136e-03 2.04735622e-03 1.42424786e-03
      5.25191380e-03 1.69129425e-03 1.78030983e-03 1.78030983e-03
      5.87502215e-03 2.40341830e-03 2.75948015e-03 1.06818590e-03
      4.45077429e-03 1.51326333e-03 1.24621682e-03 6.23108412e-04
      1.49546023e-02 1.13049671e-02 1.13049671e-02 1.08598899e-02</_>
    <_>
      1.22970585e-02 8.51953030e-03 7.87654705e-03 7.31393648e-03
      8.03729333e-03 4.58125724e-03 3.05417133e-03 3.29529005e-03
      7.71580124e-03 4.17939248e-03 2.81305262e-03 2.73267971e-03
      7.79617438e-03 3.85790062e-03 2.33081495e-03 1.76820450e-03
      6.18871581e-03 2.89342552e-03 2.25044205e-03 1.28596683e-03
      6.34946162e-03 2.08969624e-03 1.76820450e-03 1.60745857e-03
      6.18871581e-03 1.60745857e-03 1.44671276e-03 2.57193367e-03
      4.42051096e-03 1.12522102e-03 1.28596683e-03 1.60745857e-03
      2.89342552e-03 6.42983417e-04 1.04484812e-03 7.23356381e-04
      9.96624306e-03 4.01864666e-03 5.38498629e-03 3.77752772e-03
      6.75132638e-03 2.65230681e-03 2.33081495e-03 2.73267971e-03
      4.34013829e-03 1.28596683e-03 1.36633986e-03 2.41118786e-03
      5.94759686e-03 1.20559393e-03 2.00932333e-03 1.60745857e-03
      6.02797000e-03 2.00932333e-03 1.84857741e-03 1.44671276e-03
      5.54573210e-03 2.08969624e-03 1.84857741e-03 1.12522102e-03
      6.75132638e-03 2.08969624e-03 1.76820450e-03 1.28596683e-03
      6.02797000e-03 2.41118786e-03 1.76820450e-03 1.68783159e-03
      1.25381770e-02 1.09307189e-02 1.03681078e-02 1.02073625e-02</_>
    <_>
      2.16436908e-02 1.04047768e-02 1.15023265e-02 8.73650052e-03
      2.23022215e-02 1.10194050e-02 1.12828165e-02 8.99991207e-03
      1.92290805e-02 9.21942201e-03 8.29747971e-03 7.19992956e-03
      1.78681184e-02 9.30722617e-03 8.82430375e-03 8.95601045e-03
      1.63315479e-02 7.19992956e-03 6.93651754e-03 7.50724366e-03
      1.44876633e-02 6.58530183e-03 7.19992956e-03 6.19018357e-03
      1.42242517e-02 6.14628149e-03 4.91702510e-03 5.26824128e-03
      1.10633066e-02 4.30239690e-03 3.81947495e-03 3.90727911e-03
      4.65361308e-03 1.31706032e-03 1.22925628e-03 1.44876633e-03
      1.51022915e-02 7.06822379e-03 5.66335954e-03 5.31214336e-03
      9.17552039e-03 3.68776894e-03 2.98533682e-03 2.98533682e-03
      6.58530183e-03 2.80972873e-03 1.71217846e-03 2.01949244e-03
      4.87312302e-03 1.79998239e-03 1.71217846e-03 1.71217846e-03
      4.17069113e-03 1.27315836e-03 1.09755027e-03 1.05364830e-03
      4.60971100e-03 1.49266841e-03 1.27315836e-03 1.22925628e-03
      3.29265092e-03 1.05364830e-03 9.21942235e-04 6.58530160e-04
      1.88778643e-03 1.14145223e-03 4.39020107e-04 3.51216091e-04
      6.93651754e-03 5.57555538e-03 5.39994752e-03 5.57555538e-03</_>
    <_>
      8.56690109e-03 6.53659506e-03 4.60532820e-03 4.80340701e-03
      6.48707524e-03 3.46637610e-03 1.88174704e-03 1.58462906e-03
      8.56690109e-03 3.02069914e-03 1.68366847e-03 1.78270775e-03
      6.23947708e-03 2.47598300e-03 1.98078644e-03 1.38655049e-03
      4.30821022e-03 1.73318805e-03 1.08943251e-03 9.40873520e-04
      4.85292682e-03 1.08943251e-03 1.53510948e-03 1.53510948e-03
      3.96157289e-03 1.38655049e-03 1.08943251e-03 6.43755542e-04
      3.21877794e-03 1.03991281e-03 5.94235898e-04 2.47598306e-04
      2.37694359e-03 3.46637622e-04 2.47598306e-04 9.90393164e-05
      6.23947708e-03 1.58462906e-03 2.03030603e-03 2.17886502e-03
      4.11013188e-03 1.03991281e-03 1.13895221e-03 9.40873520e-04
      3.16925813e-03 9.90393222e-04 1.28751108e-03 7.42794888e-04
      3.36733693e-03 1.28751108e-03 1.08943251e-03 8.91353877e-04
      3.76349408e-03 1.48558978e-03 1.03991281e-03 9.40873520e-04
      4.35773004e-03 1.98078644e-03 1.43607007e-03 1.38655049e-03
      2.92165997e-03 1.53510948e-03 1.13895221e-03 1.28751108e-03
      2.87214015e-03 1.03991281e-03 7.42794888e-04 8.91353877e-04
      8.51738174e-03 6.23947708e-03 5.79380011e-03 5.34812314e-03</_>
    <_>
      2.60432884e-02 1.18343197e-02 1.14061041e-02 1.12893181e-02
      1.96979139e-02 9.73217096e-03 7.70787895e-03 7.98038021e-03
      1.51043292e-02 7.12394901e-03 6.50108978e-03 6.15073182e-03
      1.42089687e-02 6.42323261e-03 6.69573341e-03 5.87823102e-03
      1.09000308e-02 4.55465587e-03 3.77608230e-03 3.77608230e-03
      1.05107445e-02 4.39894106e-03 4.20429790e-03 3.07536591e-03
      1.01993149e-02 4.20429790e-03 3.62036750e-03 3.38679529e-03
      7.24073499e-03 3.19215190e-03 1.63500465e-03 2.06322013e-03
      1.59607595e-03 7.39644980e-04 3.50358139e-04 4.67144186e-04
      1.22236060e-02 5.45001542e-03 5.33322943e-03 4.82715666e-03
      8.40859581e-03 3.42572411e-03 3.07536591e-03 2.21893494e-03
      6.73466222e-03 3.11429473e-03 2.25786353e-03 2.29679234e-03
      7.24073499e-03 2.53036432e-03 2.06322013e-03 2.14107754e-03
      4.94394265e-03 1.90750544e-03 1.90750544e-03 1.55714736e-03
      6.96823420e-03 2.41357833e-03 2.33572093e-03 2.49143573e-03
      6.34537544e-03 2.06322013e-03 2.10214895e-03 1.82964804e-03
      5.48894424e-03 2.41357833e-03 1.71286205e-03 1.82964804e-03
      8.29180982e-03 6.26751781e-03 5.25537226e-03 5.33322943e-03</_>
    <_>
      3.28987390e-02 1.76879615e-02 1.40808346e-02 1.58626679e-02
      2.67275106e-02 1.26901343e-02 1.23859188e-02 1.07779223e-02
      2.14254670e-02 1.06475446e-02 1.06040854e-02 8.34419858e-03
      2.12950893e-02 9.56106000e-03 1.02564106e-02 7.86614511e-03
      1.72968283e-02 9.25684441e-03 8.03998299e-03 6.34506717e-03
      1.81225557e-02 9.25684441e-03 8.12690146e-03 6.82312017e-03
      1.38635375e-02 6.77966094e-03 6.25814870e-03 6.08431129e-03
      8.60495400e-03 3.91134294e-03 3.25945253e-03 2.91177747e-03
      5.56279859e-03 1.12994353e-03 1.30378094e-03 1.30378094e-03
      1.47327250e-02 6.86657988e-03 5.78009570e-03 4.86744894e-03
      7.56192952e-03 2.78139929e-03 2.78139929e-03 2.12950888e-03
      6.43198611e-03 2.39026500e-03 1.91221212e-03 1.95567147e-03
      5.30204270e-03 1.56453717e-03 1.17340288e-03 1.12994353e-03
      3.08561488e-03 1.04302482e-03 5.21512411e-04 6.95349823e-04
      4.51977411e-03 1.26032159e-03 9.56106058e-04 8.25727941e-04
      4.12863959e-03 1.34724029e-03 7.82268587e-04 6.95349823e-04
      3.86788347e-03 1.12994353e-03 6.51890470e-04 6.95349823e-04
      7.47501105e-03 6.17122976e-03 5.60625829e-03 5.51933935e-03</_>
    <_>
      2.96002161e-02 1.50708416e-02 1.38976630e-02 1.31757064e-02
      2.61709224e-02 1.11452034e-02 9.47567914e-03 9.34031233e-03
      1.86355021e-02 9.02445614e-03 8.07688851e-03 7.08419830e-03
      1.45744970e-02 6.76834211e-03 6.49760850e-03 6.27199700e-03
      1.01073906e-02 4.96345107e-03 3.88051616e-03 2.79758149e-03
      8.03176593e-03 3.51953786e-03 3.06831510e-03 2.34635873e-03
      6.85858680e-03 2.03050277e-03 1.80489128e-03 2.16586958e-03
      4.19637235e-03 9.02445638e-04 1.30854617e-03 6.76834199e-04
      1.85001350e-03 2.70733697e-04 5.41467394e-04 7.21956487e-04
      8.34762212e-03 3.74514936e-03 2.97807064e-03 2.79758149e-03
      5.59516298e-03 2.12074723e-03 1.08293479e-03 1.80489128e-03
      4.73783957e-03 1.30854617e-03 1.17317936e-03 1.12805702e-03
      4.01588297e-03 1.62440212e-03 1.39879074e-03 8.12201062e-04
      4.06100554e-03 1.12805702e-03 1.39879074e-03 6.31711911e-04
      5.23418467e-03 1.48903532e-03 1.35366840e-03 1.80489128e-03
      4.60247276e-03 1.35366840e-03 1.39879074e-03 1.39879074e-03
      4.42198338e-03 8.12201062e-04 1.21830159e-03 9.92690213e-04
      9.06957872e-03 6.76834211e-03 6.54273061e-03 6.18175277e-03</_>
    <_>
      1.92193966e-02 9.58857778e-03 9.12393350e-03 8.61704815e-03
      1.45729491e-02 6.63174782e-03 7.22311391e-03 5.91366040e-03
      1.29678128e-02 6.84294989e-03 5.95590100e-03 5.66021819e-03
      1.06023485e-02 5.82917966e-03 4.73092822e-03 3.92836006e-03
      9.54633765e-03 4.22404334e-03 4.18180274e-03 3.42147495e-03
      8.53256695e-03 3.75939859e-03 3.21027287e-03 3.33699421e-03
      7.56103732e-03 3.37923458e-03 2.99907080e-03 3.84387933e-03
      5.36453491e-03 2.02754070e-03 1.47841510e-03 1.52065558e-03
      3.08355154e-03 1.09825120e-03 9.29289497e-04 8.44808645e-04
      1.08557912e-02 5.74469892e-03 6.12486294e-03 4.56196675e-03
      7.60327792e-03 3.59043665e-03 2.83010909e-03 2.11202167e-03
      5.23781357e-03 2.49218545e-03 1.81633863e-03 1.35169388e-03
      7.43431598e-03 2.53442605e-03 2.83010909e-03 1.73185777e-03
      6.63174782e-03 2.36546411e-03 2.19650241e-03 1.94305985e-03
      8.23688414e-03 3.97060066e-03 2.32322374e-03 2.40770471e-03
      6.67398842e-03 3.88611970e-03 2.70338776e-03 2.61890679e-03
      5.87142026e-03 2.32322374e-03 1.30945339e-03 1.01377035e-03
      8.61704815e-03 6.16710307e-03 5.91366040e-03 5.95590100e-03</_>
    <_>
      1.08232787e-02 6.83108578e-03 6.74237031e-03 7.18594762e-03
      5.76650118e-03 2.12916965e-03 1.41944643e-03 1.50816177e-03
      5.23420889e-03 1.41944643e-03 1.41944643e-03 7.09723216e-04
      4.25833929e-03 7.09723216e-04 1.41944643e-03 7.09723216e-04
      3.90347769e-03 7.98438617e-04 6.21007814e-04 1.33073097e-03
      3.90347769e-03 1.33073097e-03 9.75869421e-04 1.24201563e-03
      3.01632355e-03 8.87154019e-04 1.24201563e-03 9.75869421e-04
      2.12916965e-03 6.21007814e-04 6.21007814e-04 8.87154019e-04
      1.50816177e-03 6.21007814e-04 4.43577010e-04 6.21007814e-04
      3.90347769e-03 1.86302338e-03 1.86302338e-03 1.50816177e-03
      3.10503901e-03 1.15330017e-03 1.95173884e-03 5.32292412e-04
      4.25833929e-03 7.98438617e-04 2.12916965e-03 1.15330017e-03
      3.90347769e-03 7.09723216e-04 1.24201563e-03 1.06458482e-03
      3.19375447e-03 1.68559258e-03 1.15330017e-03 1.24201563e-03
      4.25833929e-03 1.59687723e-03 1.41944643e-03 1.95173884e-03
      4.96806251e-03 8.87154019e-04 1.33073097e-03 1.50816177e-03
      3.54861608e-03 1.06458482e-03 1.06458482e-03 1.15330017e-03
      1.23314410e-02 1.11781405e-02 1.08232787e-02 1.08232787e-02</_>
    <_>
      1.18702957e-02 8.20304919e-03 7.04497192e-03 7.62401102e-03
      9.26462095e-03 2.60567456e-03 3.28121986e-03 1.54410349e-03
      6.65894616e-03 2.02663569e-03 1.83362281e-03 1.25458406e-03
      7.91352987e-03 2.50916812e-03 1.64060993e-03 2.02663569e-03
      5.98340109e-03 1.54410349e-03 9.65064683e-04 5.79038810e-04
      6.07990753e-03 1.73711637e-03 7.72051746e-04 1.15807762e-03
      5.59737487e-03 1.44759694e-03 1.44759694e-03 1.73711637e-03
      4.72881692e-03 1.54410349e-03 2.02663569e-03 8.68558185e-04
      2.79868743e-03 1.15807762e-03 1.44759694e-03 6.75545249e-04
      7.72051746e-03 2.89519387e-03 2.89519387e-03 2.12314236e-03
      5.21134911e-03 1.54410349e-03 1.35109050e-03 1.64060993e-03
      5.50086843e-03 1.06157118e-03 2.21964880e-03 9.65064683e-04
      6.07990753e-03 1.54410349e-03 1.73711637e-03 1.06157118e-03
      6.17641397e-03 2.12314236e-03 1.25458406e-03 1.73711637e-03
      7.14147836e-03 1.15807762e-03 1.54410349e-03 1.73711637e-03
      6.85195904e-03 2.21964880e-03 1.54410349e-03 1.93012937e-03
      6.46593329e-03 2.12314236e-03 1.93012937e-03 1.93012937e-03
      1.72746573e-02 1.33178923e-02 1.19668022e-02 1.26423473e-02</_>
    <_>
      2.06072666e-02 1.13987057e-02 9.60676931e-03 9.30811372e-03
      1.97610743e-02 9.25833732e-03 8.31259321e-03 8.56147334e-03
      1.96117479e-02 7.81483296e-03 7.36684911e-03 7.01841712e-03
      1.35390740e-02 6.71976106e-03 6.22200081e-03 5.12692891e-03
      1.33399703e-02 4.67894459e-03 5.22648077e-03 4.03185654e-03
      1.47336982e-02 5.47536090e-03 4.67894459e-03 5.32603264e-03
      1.50821302e-02 6.66998513e-03 5.97312115e-03 3.93230468e-03
      8.46192148e-03 3.78297665e-03 2.93678441e-03 2.63812835e-03
      3.78297665e-03 1.84171228e-03 9.45744163e-04 1.34395226e-03
      9.30811372e-03 4.82827285e-03 4.13140887e-03 4.28073667e-03
      5.72424103e-03 2.23992043e-03 1.74216030e-03 2.28969636e-03
      6.32155314e-03 2.48880032e-03 2.19014427e-03 2.38924846e-03
      4.87804879e-03 1.34395226e-03 1.74216030e-03 1.74216030e-03
      3.88252852e-03 1.29417621e-03 1.59283227e-03 1.14484818e-03
      3.38476850e-03 1.44350424e-03 7.46640144e-04 7.96416134e-04
      4.18118481e-03 1.34395226e-03 8.95968114e-04 5.97312115e-04
      2.88700848e-03 7.46640144e-04 5.97312115e-04 6.47088105e-04
      7.36684911e-03 6.52065687e-03 6.32155314e-03 6.32155314e-03</_>
    <_>
      2.25747656e-02 1.16394665e-02 9.69265215e-03 1.04796616e-02
      1.88054014e-02 9.56838671e-03 8.90564173e-03 7.87010230e-03
      1.59473121e-02 9.56838671e-03 7.62157235e-03 6.75171893e-03
      1.63615271e-02 8.86422023e-03 7.74583733e-03 7.49730738e-03
      1.54916747e-02 7.08309188e-03 6.33750297e-03 5.59191452e-03
      1.47046642e-02 7.16593489e-03 5.09485556e-03 5.42622805e-03
      1.43318698e-02 6.58603245e-03 5.30196354e-03 5.71617950e-03
      1.06039271e-02 5.50907152e-03 3.81078618e-03 3.68652144e-03
      3.02377599e-03 1.78112835e-03 1.36691239e-03 7.87010184e-04
      1.39176538e-02 7.37304287e-03 6.33750297e-03 6.17181696e-03
      8.45000427e-03 4.30784514e-03 3.72794294e-03 3.10661923e-03
      7.74583733e-03 1.69828511e-03 2.11250107e-03 1.82254997e-03
      6.04755199e-03 2.36103055e-03 1.61544199e-03 1.90539309e-03
      4.63921810e-03 1.73970673e-03 1.40833401e-03 9.11274983e-04
      6.75171893e-03 2.52671703e-03 1.94681471e-03 1.57402037e-03
      5.71617950e-03 2.27818731e-03 2.07107933e-03 1.73970673e-03
      4.55637462e-03 1.28406927e-03 1.90539309e-03 1.40833401e-03
      6.25465997e-03 4.84632608e-03 4.88774758e-03 4.72206110e-03</_>
    <_>
      1.17999623e-02 1.05825057e-02 7.58569036e-03 7.67934090e-03
      9.27139912e-03 3.83967045e-03 3.18411691e-03 3.09046637e-03
      8.33489373e-03 2.62221391e-03 2.62221391e-03 2.06031092e-03
      7.02378713e-03 2.43491284e-03 2.62221391e-03 1.21745642e-03
      5.24442783e-03 2.06031092e-03 2.34126230e-03 1.68570888e-03
      6.55553490e-03 2.80951499e-03 2.34126230e-03 2.24761199e-03
      6.18093275e-03 2.43491284e-03 1.87300995e-03 1.87300995e-03
      4.12062183e-03 8.42854439e-04 1.31110696e-03 9.36504977e-04
      3.27776745e-03 8.42854439e-04 6.55553478e-04 8.42854439e-04
      6.93013659e-03 3.46506829e-03 1.77935942e-03 2.80951499e-03
      5.80633059e-03 1.03015546e-03 1.68570888e-03 2.06031092e-03
      3.93332075e-03 1.77935942e-03 1.59205846e-03 1.59205846e-03
      4.77617513e-03 1.96666038e-03 9.36504977e-04 2.15396145e-03
      4.49522398e-03 1.40475750e-03 1.77935942e-03 7.49203959e-04
      3.65236937e-03 1.12380600e-03 1.03015546e-03 8.42854439e-04
      4.12062183e-03 1.12380600e-03 1.40475750e-03 1.21745642e-03
      2.71586445e-03 7.49203959e-04 2.15396145e-03 1.31110696e-03
      1.57332830e-02 1.41412253e-02 1.37666231e-02 1.39539242e-02</_>
    <_>
      1.90960057e-02 1.06867552e-02 1.16503155e-02 9.98598430e-03
      1.11247376e-02 4.11702879e-03 4.90539614e-03 4.37981775e-03
      8.14646110e-03 2.18990888e-03 3.41625791e-03 2.97827600e-03
      6.48213038e-03 2.10231263e-03 2.01471616e-03 2.54029431e-03
      5.95655199e-03 1.92711980e-03 8.75963538e-04 1.83952344e-03
      5.86895598e-03 1.92711980e-03 1.48913800e-03 2.18990888e-03
      6.56972686e-03 2.10231263e-03 1.92711980e-03 1.40154164e-03
      3.50385415e-03 2.36510159e-03 1.31394539e-03 8.75963538e-04
      2.27750535e-03 1.31394539e-03 1.13875268e-03 7.00770819e-04
      6.21934142e-03 4.81779967e-03 2.97827600e-03 2.45269807e-03
      5.16818510e-03 2.18990888e-03 1.66433072e-03 1.48913800e-03
      5.08058863e-03 1.05115632e-03 1.31394539e-03 1.40154164e-03
      4.90539614e-03 1.75192708e-03 1.48913800e-03 1.13875268e-03
      5.34337759e-03 1.48913800e-03 1.83952344e-03 1.48913800e-03
      3.85423959e-03 1.75192708e-03 2.54029431e-03 1.57673436e-03
      5.69376303e-03 1.05115632e-03 1.31394539e-03 8.75963538e-04
      4.99299215e-03 1.31394539e-03 1.13875268e-03 8.75963538e-04
      1.40154166e-02 1.12123331e-02 1.14751225e-02 1.08619481e-02</_>
    <_>
      1.52816903e-02 7.04225339e-03 7.46478885e-03 8.23943689e-03
      6.83098612e-03 2.39436631e-03 2.46478873e-03 1.83098589e-03
      6.61971839e-03 3.02816904e-03 2.32394366e-03 1.47887319e-03
      7.39436597e-03 3.30985920e-03 2.60563381e-03 1.76056335e-03
      4.85915504e-03 1.61971827e-03 1.97183108e-03 9.15492943e-04
      4.01408458e-03 2.32394366e-03 1.54929573e-03 1.05633808e-03
      4.78873262e-03 1.40845065e-03 1.19718316e-03 1.61971827e-03
      3.09859146e-03 1.61971827e-03 5.63380308e-04 7.74647866e-04
      2.67605623e-03 1.26760558e-03 2.11267601e-04 9.15492943e-04
      8.87323916e-03 3.94366216e-03 2.74647889e-03 3.87323950e-03
      5.35211246e-03 2.11267616e-03 1.54929573e-03 1.47887319e-03
      3.09859146e-03 1.12676062e-03 9.85915540e-04 9.85915540e-04
      3.59154935e-03 1.05633808e-03 1.12676062e-03 8.45070404e-04
      3.80281685e-03 1.33802812e-03 1.12676062e-03 9.15492943e-04
      2.81690131e-03 1.47887319e-03 8.45070404e-04 6.33802789e-04
      4.01408458e-03 1.40845065e-03 1.05633808e-03 9.85915540e-04
      3.30985920e-03 1.33802812e-03 7.04225327e-04 7.74647866e-04
      1.09154927e-02 9.22535174e-03 8.87323916e-03 8.66197143e-03</_>
    <_>
      3.26712839e-02 1.89435035e-02 1.72327459e-02 1.43953934e-02
      3.44654918e-02 1.76082775e-02 1.46874739e-02 1.28098140e-02
      2.76224650e-02 1.14745889e-02 9.93073545e-03 8.34515598e-03
      1.72327459e-02 9.05449409e-03 6.84302766e-03 5.79988305e-03
      1.35191521e-02 5.92506072e-03 5.38262539e-03 3.92222311e-03
      9.09621920e-03 4.92364168e-03 4.96536773e-03 3.63014266e-03
      8.88759084e-03 3.71359428e-03 3.00425594e-03 3.17115919e-03
      4.88191610e-03 2.12801457e-03 1.50212797e-03 1.37695065e-03
      2.75390130e-03 6.67612476e-04 8.34515551e-04 6.25886663e-04
      1.15580410e-02 6.05023792e-03 4.63156123e-03 4.17257799e-03
      5.54952864e-03 1.91938574e-03 2.08628899e-03 1.79420842e-03
      3.96394916e-03 1.62730541e-03 1.83593424e-03 1.16832182e-03
      5.63298026e-03 1.83593424e-03 2.16974039e-03 1.83593424e-03
      4.96536773e-03 2.37836945e-03 1.62730541e-03 1.21004751e-03
      5.79988305e-03 2.87907873e-03 2.33664364e-03 1.83593424e-03
      5.79988305e-03 2.33664364e-03 2.33664364e-03 1.62730541e-03
      4.79846448e-03 1.29349914e-03 1.08487019e-03 8.34515551e-04
      7.96962343e-03 5.92506072e-03 5.42435097e-03 5.13227051e-03</_>
    <_>
      3.61314677e-02 1.77755207e-02 1.58165861e-02 1.41115868e-02
      3.45352963e-02 1.67960525e-02 1.31321196e-02 1.22614820e-02
      2.61191316e-02 1.29144602e-02 1.14633972e-02 1.04476530e-02
      2.08590291e-02 1.05927596e-02 9.93978046e-03 8.01712275e-03
      1.20438226e-02 5.55031560e-03 5.94935799e-03 4.57084831e-03
      1.36399912e-02 4.67967801e-03 4.75223083e-03 4.60712472e-03
      9.86722764e-03 3.59138078e-03 3.66393384e-03 3.55510414e-03
      5.55031560e-03 1.70499890e-03 1.70499890e-03 2.03148811e-03
      1.19712693e-03 1.45106285e-04 3.99042299e-04 2.53936014e-04
      1.44017991e-02 6.23957068e-03 5.44148590e-03 6.09446410e-03
      5.76797500e-03 2.57563661e-03 1.92265830e-03 2.10404117e-03
      4.78850771e-03 2.06776452e-03 1.81382860e-03 1.99521147e-03
      4.96989023e-03 1.99521147e-03 1.19712693e-03 2.32170057e-03
      4.02669935e-03 1.08829723e-03 1.12457376e-03 1.19712693e-03
      5.73169859e-03 1.95893482e-03 1.70499890e-03 1.05202058e-03
      4.42574173e-03 1.77755207e-03 1.37850980e-03 1.23340345e-03
      4.02669935e-03 1.85010524e-03 1.23340345e-03 1.23340345e-03
      6.81999559e-03 5.73169859e-03 5.40520949e-03 5.18755009e-03</_>
    <_>
      9.14388150e-03 5.37875388e-03 3.31689836e-03 4.34782589e-03
      5.78216044e-03 1.97220966e-03 1.74809503e-03 1.65844918e-03
      5.42357704e-03 2.19632452e-03 1.47915736e-03 1.43433444e-03
      7.03720283e-03 2.73419986e-03 2.24114745e-03 2.24114745e-03
      5.60286874e-03 1.88256393e-03 1.16539665e-03 1.29986554e-03
      5.64769143e-03 2.42043915e-03 1.92738685e-03 1.43433444e-03
      6.27521286e-03 2.51008524e-03 1.56880321e-03 1.21021958e-03
      4.79605561e-03 2.01703282e-03 8.96458980e-04 8.51636054e-04
      2.68937694e-03 9.41281964e-04 7.61990144e-04 5.82698325e-04
      8.38189106e-03 2.68937694e-03 2.51008524e-03 2.64455401e-03
      4.88570146e-03 1.70327211e-03 1.79291796e-03 1.38951140e-03
      4.39264905e-03 1.65844918e-03 1.29986554e-03 1.52398029e-03
      3.54101299e-03 1.25504262e-03 1.34468847e-03 9.86104831e-04
      4.25818004e-03 8.96458980e-04 1.29986554e-03 8.51636054e-04
      4.61676391e-03 1.25504262e-03 1.34468847e-03 1.16539665e-03
      4.88570146e-03 1.52398029e-03 1.34468847e-03 1.12057372e-03
      3.13760643e-03 1.38951140e-03 1.03092787e-03 3.58583609e-04
      7.30614085e-03 5.96145215e-03 5.37875388e-03 5.10981632e-03</_>
    <_>
      3.18294205e-02 1.63782444e-02 1.28024016e-02 1.12131378e-02
      2.44128555e-02 1.03743598e-02 9.31485090e-03 7.37241749e-03
      1.73494611e-02 6.57778559e-03 5.73900761e-03 4.76779090e-03
      1.64223909e-02 6.04803115e-03 4.90022963e-03 5.51827671e-03
      8.07875674e-03 3.22267343e-03 2.73706508e-03 2.95779621e-03
      7.85802584e-03 3.70828179e-03 3.09023494e-03 3.09023494e-03
      7.19583267e-03 2.91364989e-03 2.33974936e-03 2.51633418e-03
      4.41462127e-03 1.72170228e-03 1.98657950e-03 1.72170228e-03
      1.41267874e-03 3.97315918e-04 3.53169686e-04 4.85608325e-04
      1.29789868e-02 5.20925317e-03 4.90022963e-03 3.66413570e-03
      5.69486152e-03 2.73706508e-03 2.29560304e-03 1.76584849e-03
      4.85608354e-03 2.25145672e-03 1.72170228e-03 1.14780152e-03
      6.04803115e-03 2.64877267e-03 2.16316432e-03 2.47218786e-03
      4.50291345e-03 1.54511747e-03 1.89828710e-03 1.41267874e-03
      6.71022432e-03 2.95779621e-03 3.09023494e-03 1.98657950e-03
      5.07681444e-03 2.38389545e-03 2.73706508e-03 1.85414089e-03
      4.45876736e-03 1.89828710e-03 2.33974936e-03 1.32438634e-03
      1.00653367e-02 7.32827140e-03 6.62193168e-03 6.66607823e-03</_>
    <_>
      1.11242076e-02 5.52526908e-03 8.69308971e-03 5.52526908e-03
      4.78856638e-03 1.69441581e-03 2.13643722e-03 1.17872399e-03
      6.04096055e-03 1.91542658e-03 1.91542658e-03 1.39973476e-03
      5.59893902e-03 2.13643722e-03 1.98909687e-03 2.50478857e-03
      5.37792826e-03 1.10505382e-03 1.91542658e-03 1.76808599e-03
      5.81994979e-03 1.17872399e-03 1.17872399e-03 1.39973476e-03
      6.11463096e-03 1.54707534e-03 1.10505382e-03 1.03138352e-03
      6.40931213e-03 1.25239429e-03 1.03138352e-03 7.36702525e-04
      5.08324755e-03 1.03138352e-03 5.89361996e-04 6.63032290e-04
      1.12715485e-02 3.09415068e-03 2.13643722e-03 2.65212916e-03
      7.14601437e-03 1.91542658e-03 2.06276705e-03 2.06276705e-03
      6.18830137e-03 2.06276705e-03 1.25239429e-03 1.39973476e-03
      4.93590673e-03 1.10505382e-03 1.32606458e-03 1.10505382e-03
      3.09415068e-03 1.39973476e-03 6.63032290e-04 9.57713288e-04
      3.90452333e-03 1.54707534e-03 1.17872399e-03 7.36702525e-04
      2.94681010e-03 8.10372760e-04 1.03138352e-03 8.10372760e-04
      2.79946951e-03 7.36702525e-04 1.32606458e-03 6.63032290e-04
      1.05348462e-02 9.28245205e-03 8.69308971e-03 8.25106818e-03</_>
    <_>
      1.45445475e-02 9.55784600e-03 7.97872338e-03 8.80984031e-03
      8.89295246e-03 4.82047861e-03 2.24401592e-03 2.90890946e-03
      8.80984031e-03 2.99202139e-03 2.32712761e-03 1.99468085e-03
      7.89561216e-03 3.24135646e-03 3.65691492e-03 2.16090423e-03
      5.56848384e-03 3.07513308e-03 2.16090423e-03 1.57912239e-03
      6.81515969e-03 2.49335100e-03 3.65691492e-03 1.82845746e-03
      6.39960123e-03 1.99468085e-03 2.16090423e-03 2.24401592e-03
      3.65691492e-03 1.08045212e-03 1.32978719e-03 1.74534577e-03
      2.99202139e-03 8.31117039e-04 8.31117039e-04 9.14228731e-04
      9.22539923e-03 3.65691492e-03 4.48803185e-03 4.48803185e-03
      6.48271292e-03 3.24135646e-03 2.57646269e-03 1.99468085e-03
      5.81781892e-03 2.41023931e-03 1.82845746e-03 2.24401592e-03
      5.81781892e-03 2.82579777e-03 1.49601069e-03 1.99468085e-03
      6.73204800e-03 3.32446815e-03 1.99468085e-03 1.82845746e-03
      3.98936169e-03 2.24401592e-03 2.07779254e-03 1.32978719e-03
      5.73470723e-03 8.31117039e-04 1.66223408e-03 1.16356381e-03
      5.40226046e-03 1.57912239e-03 1.24667550e-03 1.24667550e-03
      1.35472072e-02 1.14694145e-02 1.08045209e-02 1.12200798e-02</_>
    <_>
      1.67625900e-02 9.42446012e-03 8.84892046e-03 8.05755425e-03
      7.84172677e-03 4.31654695e-03 3.52517981e-03 3.59712238e-03
      8.56115110e-03 3.09352507e-03 2.23021582e-03 2.80575547e-03
      8.05755425e-03 2.94964039e-03 2.87769781e-03 1.43884891e-03
      5.61151095e-03 2.37410073e-03 2.30215816e-03 1.29496399e-03
      5.97122312e-03 2.73381290e-03 2.80575547e-03 1.94244599e-03
      7.33812945e-03 2.51798565e-03 2.58992799e-03 1.51079136e-03
      6.18705014e-03 1.72661874e-03 1.65467628e-03 1.15107908e-03
      4.31654695e-03 9.35251825e-04 1.43884891e-03 3.59712227e-04
      1.06474822e-02 4.38848929e-03 3.95683432e-03 3.23740998e-03
      7.41007179e-03 3.38129490e-03 2.30215816e-03 2.87769781e-03
      4.82014380e-03 2.08633090e-03 1.87050365e-03 1.43884891e-03
      5.61151095e-03 1.94244599e-03 1.87050365e-03 9.35251825e-04
      3.74100730e-03 1.29496399e-03 1.51079136e-03 7.91366911e-04
      4.53237398e-03 1.58273382e-03 1.22302154e-03 1.07913674e-03
      5.75539563e-03 1.72661874e-03 2.15827348e-03 2.01438856e-03
      3.52517981e-03 1.15107908e-03 1.29496399e-03 1.58273382e-03
      1.20143881e-02 1.07194241e-02 1.07194241e-02 1.01438845e-02</_>
    <_>
      2.57899240e-02 1.34073440e-02 1.22971823e-02 1.25106750e-02
      1.96840316e-02 8.75320286e-03 6.87446631e-03 7.68573862e-03
      1.75064057e-02 7.51494430e-03 5.80700254e-03 7.08795898e-03
      1.74210072e-02 8.11272394e-03 6.02049520e-03 8.49701092e-03
      1.38770286e-02 5.97779686e-03 4.73953877e-03 4.18445794e-03
      1.18701961e-02 5.33731841e-03 5.03842859e-03 3.75747215e-03
      9.90606286e-03 4.56874445e-03 4.44064895e-03 3.62937665e-03
      6.06319401e-03 2.98889843e-03 2.64731003e-03 1.70794188e-03
      1.79333903e-03 8.11272417e-04 5.97779697e-04 8.53970938e-04
      1.54141756e-02 6.95986347e-03 6.91716466e-03 6.19128952e-03
      7.04526063e-03 2.77540553e-03 2.69000861e-03 2.47651571e-03
      4.44064895e-03 1.53714779e-03 1.62254483e-03 1.70794188e-03
      4.39795060e-03 1.75064045e-03 1.45175064e-03 1.66524341e-03
      3.37318541e-03 1.28095644e-03 1.28095644e-03 8.11272417e-04
      4.95303143e-03 2.30572163e-03 1.75064045e-03 1.40905206e-03
      3.71477380e-03 1.11016224e-03 1.49444921e-03 1.06746366e-03
      2.39111879e-03 1.23825786e-03 8.96669517e-04 8.11272417e-04
      7.25875329e-03 5.93509804e-03 5.29462006e-03 5.55081107e-03</_>
    <_>
      2.46540885e-02 1.43815512e-02 1.32075474e-02 1.17819710e-02
      2.28092242e-02 1.09014679e-02 1.08176097e-02 8.76310281e-03
      1.89517811e-02 9.09853261e-03 9.09853261e-03 7.75681343e-03
      1.77777782e-02 8.25995766e-03 9.26624704e-03 7.79874204e-03
      1.52201261e-02 7.12788245e-03 5.40880486e-03 4.90566017e-03
      1.39622642e-02 6.45702286e-03 6.45702286e-03 5.87002095e-03
      1.19916145e-02 5.57651976e-03 5.40880486e-03 4.86373156e-03
      7.16981152e-03 3.31236888e-03 3.14465398e-03 2.47379462e-03
      1.80293503e-03 7.12788256e-04 8.80503154e-04 3.35429766e-04
      1.46331238e-02 6.07966445e-03 6.12159306e-03 5.82809234e-03
      8.05031415e-03 2.89308187e-03 2.47379462e-03 2.22222228e-03
      5.57651976e-03 1.67714886e-03 1.76100631e-03 1.50943396e-03
      5.66037744e-03 2.13836483e-03 1.67714886e-03 1.71907758e-03
      5.19916136e-03 2.22222228e-03 1.84486376e-03 1.21593289e-03
      4.02515708e-03 2.01257854e-03 1.38364779e-03 1.50943396e-03
      3.64779867e-03 1.25786162e-03 1.25786162e-03 1.09014672e-03
      3.52201262e-03 1.50943396e-03 6.70859532e-04 7.96645705e-04
      6.83438173e-03 5.53459115e-03 5.11530414e-03 4.94758924e-03</_>
    <_>
      1.33641111e-02 8.56518000e-03 7.47175328e-03 7.71473674e-03
      8.13995861e-03 3.40177375e-03 3.15878983e-03 3.28028179e-03
      7.47175328e-03 2.49058427e-03 2.12610862e-03 1.82237884e-03
      8.38294253e-03 3.09804408e-03 2.91580614e-03 2.30834656e-03
      7.22876936e-03 2.91580614e-03 1.88312482e-03 1.76163286e-03
      6.49981759e-03 2.06536264e-03 2.06536264e-03 2.85506016e-03
      7.89697468e-03 2.55133025e-03 2.55133025e-03 1.94387068e-03
      4.73818509e-03 2.06536264e-03 1.33641111e-03 1.45790307e-03
      1.51864905e-03 6.07459631e-04 9.71935340e-04 6.68205554e-04
      1.45790307e-02 6.13534218e-03 5.77086629e-03 4.55594715e-03
      9.41562373e-03 3.88774136e-03 3.82699561e-03 3.21953581e-03
      1.02660675e-02 5.28489845e-03 4.31296322e-03 2.91580614e-03
      7.71473674e-03 3.09804408e-03 2.73356820e-03 2.91580614e-03
      6.49981759e-03 3.09804408e-03 3.82699561e-03 2.73356820e-03
      1.00230835e-02 4.85967705e-03 4.98116855e-03 4.06997930e-03
      1.16024781e-02 4.67743911e-03 4.06997930e-03 5.16340649e-03
      7.77548272e-03 4.67743911e-03 2.61207623e-03 3.15878983e-03
      1.31818736e-02 9.05114785e-03 8.74741841e-03 8.20070505e-03</_>
    <_>
      2.08553020e-02 1.19507909e-02 8.02577659e-03 7.61569990e-03
      2.03280617e-02 8.49443488e-03 5.50673716e-03 5.56531921e-03
      1.40011720e-02 4.74516675e-03 3.80784995e-03 3.39777395e-03
      9.37316939e-03 4.51083761e-03 3.10486229e-03 3.63210309e-03
      6.73696538e-03 3.04628001e-03 2.05038069e-03 2.22612778e-03
      6.56121830e-03 2.10896321e-03 1.64030457e-03 2.40187463e-03
      5.79964835e-03 2.63620378e-03 1.58172229e-03 1.93321612e-03
      3.63210309e-03 7.61570001e-04 9.37316916e-04 8.20152287e-04
      1.75746926e-03 4.10076143e-04 7.61570001e-04 3.51493858e-04
      9.54891648e-03 3.22202686e-03 3.74926766e-03 3.80784995e-03
      5.33099007e-03 1.75746926e-03 1.23022846e-03 1.23022846e-03
      3.22202686e-03 1.17164617e-03 1.17164617e-03 5.85823087e-04
      4.21792641e-03 1.81605155e-03 1.64030457e-03 1.28881074e-03
      5.09666093e-03 1.87463383e-03 1.11306389e-03 1.11306389e-03
      6.50263624e-03 2.34329235e-03 2.05038069e-03 1.46455772e-03
      4.27650847e-03 1.75746926e-03 1.40597543e-03 1.58172229e-03
      3.10486229e-03 5.85823087e-04 6.44405372e-04 7.02987716e-04
      9.95899271e-03 7.49853533e-03 6.79554790e-03 6.97129453e-03</_>
    <_>
      1.74359418e-02 9.41795390e-03 8.90887529e-03 8.23010318e-03
      1.65450536e-02 6.95740711e-03 6.32105907e-03 6.32105907e-03
      1.34481592e-02 5.34532499e-03 5.51501801e-03 5.26047871e-03
      1.17512299e-02 4.96351626e-03 4.75140009e-03 4.53928392e-03
      9.20583773e-03 3.26658739e-03 3.26658739e-03 2.71508563e-03
      8.48464295e-03 3.39385704e-03 2.84235529e-03 3.05447145e-03
      7.46648572e-03 2.75750901e-03 2.37570005e-03 2.67266249e-03
      4.53928392e-03 1.61208212e-03 1.52723573e-03 1.95146783e-03
      3.73324286e-03 1.73935178e-03 1.44238933e-03 9.33310715e-04
      1.02239950e-02 5.76955732e-03 3.90293566e-03 4.07262845e-03
      6.99983025e-03 3.13931773e-03 3.43628041e-03 2.79993215e-03
      8.06041062e-03 4.07262845e-03 3.98778217e-03 3.22416425e-03
      7.97556434e-03 3.35143390e-03 3.18174111e-03 2.92720180e-03
      5.72713371e-03 2.75750901e-03 2.29085353e-03 2.12116074e-03
      5.55744115e-03 2.37570005e-03 1.95146783e-03 1.61208212e-03
      5.64228743e-03 1.90904457e-03 1.35754282e-03 8.06041062e-04
      4.83624637e-03 1.56965887e-03 1.44238933e-03 9.33310715e-04
      9.07856785e-03 7.12710014e-03 6.49075164e-03 6.23621233e-03</_>
    <_>
      1.21909920e-02 7.78868934e-03 7.36539112e-03 6.77277334e-03
      4.99492045e-03 1.26989500e-03 1.10057567e-03 1.18523533e-03
      3.38638667e-03 8.46596668e-04 1.18523533e-03 5.07958001e-04
      5.33355912e-03 1.35455467e-03 1.43921433e-03 1.60853367e-03
      5.24889957e-03 1.69319334e-03 7.61937001e-04 1.35455467e-03
      4.99492045e-03 1.18523533e-03 1.10057567e-03 2.11649179e-03
      6.26481557e-03 1.77785300e-03 1.60853367e-03 1.52387400e-03
      5.33355912e-03 1.10057567e-03 1.18523533e-03 1.86251267e-03
      3.30172712e-03 1.01591600e-03 5.92617667e-04 1.10057567e-03
      8.97392444e-03 2.70910934e-03 4.82560089e-03 3.47104645e-03
      5.41821867e-03 2.37047067e-03 2.28581112e-03 1.26989500e-03
      7.36539112e-03 2.79376912e-03 2.20115134e-03 2.03183200e-03
      7.70402979e-03 2.87842867e-03 1.86251267e-03 3.30172712e-03
      7.02675246e-03 1.77785300e-03 2.62444979e-03 2.70910934e-03
      7.61937024e-03 2.45513045e-03 2.28581112e-03 2.62444979e-03
      1.13443956e-02 3.30172712e-03 1.01591600e-03 2.45513045e-03
      7.53471069e-03 3.13240779e-03 1.60853367e-03 2.20115134e-03
      1.29529294e-02 1.15983747e-02 1.10057564e-02 1.04977991e-02</_>
    <_>
      2.80983001e-02 1.47097679e-02 1.54144280e-02 1.18030477e-02
      2.72615161e-02 1.25077069e-02 1.13185942e-02 1.07460581e-02
      2.32097246e-02 1.07900994e-02 1.03937285e-02 9.90927499e-03
      2.21967753e-02 1.02175632e-02 1.04818111e-02 9.99735761e-03
      1.63392927e-02 8.85228533e-03 8.14762618e-03 6.25385344e-03
      1.62952524e-02 8.01550224e-03 7.17871916e-03 5.76939993e-03
      1.53263453e-02 5.59323514e-03 5.28494688e-03 5.19686425e-03
      7.39892526e-03 2.99480325e-03 2.42226734e-03 2.15801992e-03
      4.36008116e-03 1.14507182e-03 1.14507182e-03 9.68906912e-04
      1.39610674e-02 5.94556518e-03 5.46111166e-03 4.62432858e-03
      8.32379144e-03 2.64247344e-03 2.46630842e-03 2.51034973e-03
      5.63727645e-03 1.76164892e-03 1.49740162e-03 1.32123672e-03
      4.18391638e-03 1.67356641e-03 1.32123672e-03 1.27719541e-03
      3.34713282e-03 1.58548402e-03 1.05698931e-03 6.60618360e-04
      3.52329784e-03 1.40931911e-03 7.04659557e-04 7.48700812e-04
      1.98185490e-03 1.01294811e-03 5.28494653e-04 7.48700812e-04
      1.58548402e-03 7.04659557e-04 3.08288552e-04 1.32123663e-04
      6.38597738e-03 5.90152387e-03 5.63727645e-03 5.50515298e-03</_>
    <_>
      1.65967196e-02 8.29835981e-03 8.29835981e-03 5.72300656e-03
      1.58813428e-02 5.05532231e-03 3.19534540e-03 3.09996190e-03
      1.11598624e-02 4.29225480e-03 2.67073628e-03 2.62304465e-03
      1.03491032e-02 4.00610454e-03 2.76611978e-03 1.71690190e-03
      1.14937043e-02 4.00610454e-03 2.52766116e-03 2.05074390e-03
      1.30675314e-02 4.81686369e-03 3.00457841e-03 2.19381927e-03
      1.29244560e-02 4.19687154e-03 3.14765354e-03 2.28920253e-03
      9.96756926e-03 3.86302941e-03 2.52766116e-03 2.28920253e-03
      4.95993905e-03 1.66921027e-03 7.63067510e-04 1.23998476e-03
      1.03491032e-02 3.86302941e-03 2.90919491e-03 3.00457841e-03
      7.82144256e-03 2.86150328e-03 1.71690190e-03 1.38305989e-03
      6.48607407e-03 1.38305989e-03 7.63067510e-04 1.04921788e-03
      6.39069080e-03 1.76459365e-03 1.71690190e-03 1.04921788e-03
      4.76917205e-03 1.71690190e-03 1.62151852e-03 8.10759258e-04
      6.48607407e-03 2.33689439e-03 2.43227766e-03 1.43075164e-03
      6.58145733e-03 1.85997714e-03 1.81228539e-03 1.28767651e-03
      6.15223218e-03 1.90766877e-03 1.47844339e-03 1.81228539e-03
      1.14937043e-02 6.72453269e-03 6.19992381e-03 6.43838244e-03</_>
    <_>
      1.07271532e-02 7.61546008e-03 6.05961354e-03 8.43432732e-03
      6.87848032e-03 2.12905346e-03 1.22830004e-03 2.21094000e-03
      5.56829339e-03 2.29282677e-03 9.82640078e-04 1.55584665e-03
      5.56829339e-03 1.88339339e-03 1.39207335e-03 1.80150673e-03
      5.24074677e-03 1.22830004e-03 1.55584665e-03 1.55584665e-03
      5.32263331e-03 2.04716669e-03 1.96528016e-03 2.04716669e-03
      7.53357355e-03 2.21094000e-03 1.88339339e-03 2.12905346e-03
      6.22338662e-03 3.19358008e-03 1.96528016e-03 1.39207335e-03
      3.52112669e-03 1.14641339e-03 1.39207335e-03 1.39207335e-03
      8.84376001e-03 4.09433339e-03 4.01244685e-03 3.02980677e-03
      6.96036685e-03 3.76678677e-03 1.96528016e-03 2.12905346e-03
      5.81395347e-03 2.94792000e-03 1.80150673e-03 1.96528016e-03
      6.63282024e-03 2.45660008e-03 1.47396000e-03 9.82640078e-04
      5.65017993e-03 2.21094000e-03 8.18866713e-04 7.36980001e-04
      4.17621993e-03 2.12905346e-03 9.82640078e-04 1.06452673e-03
      5.07697370e-03 9.00753366e-04 1.22830004e-03 6.55093347e-04
      3.52112669e-03 1.14641339e-03 1.22830004e-03 7.36980001e-04
      1.49852606e-02 1.15460204e-02 1.11365868e-02 1.03177205e-02</_>
    <_>
      1.44538684e-02 9.43396240e-03 8.04916024e-03 9.43396240e-03
      1.14246150e-02 6.14505820e-03 3.80820502e-03 5.01990644e-03
      9.26086213e-03 3.54855461e-03 3.20235407e-03 3.63510475e-03
      8.04916024e-03 2.76960363e-03 3.37545434e-03 2.94270390e-03
      6.05850806e-03 1.81755237e-03 1.73100224e-03 2.16375291e-03
      6.66435855e-03 1.55790197e-03 2.25030282e-03 2.50995322e-03
      5.79885766e-03 2.16375291e-03 2.25030282e-03 2.50995322e-03
      3.11580393e-03 1.47135195e-03 7.78950984e-04 1.12515141e-03
      2.07720278e-03 8.65501119e-04 3.46200453e-04 6.05850772e-04
      9.95326322e-03 3.89475515e-03 2.68305349e-03 3.98130529e-03
      4.93335631e-03 1.81755237e-03 1.81755237e-03 1.90410251e-03
      4.67370590e-03 1.64445210e-03 1.12515141e-03 2.25030282e-03
      3.63510475e-03 1.64445210e-03 1.73100224e-03 1.21170154e-03
      3.37545434e-03 1.29825168e-03 1.81755237e-03 6.92400907e-04
      3.54855461e-03 8.65501119e-04 8.65501119e-04 1.38480181e-03
      3.11580393e-03 1.73100224e-03 1.21170154e-03 1.90410251e-03
      2.33685295e-03 1.47135195e-03 3.46200453e-04 1.03860139e-03
      1.32421674e-02 1.15977153e-02 1.05591137e-02 1.13380644e-02</_>
    <_>
      1.18152527e-02 4.78875777e-03 6.75796624e-03 3.62513424e-03
      6.17615459e-03 2.10347306e-03 2.05871812e-03 2.37200153e-03
      5.90762636e-03 2.10347306e-03 2.23773718e-03 1.74543506e-03
      6.17615459e-03 2.86430353e-03 2.86430353e-03 2.23773718e-03
      4.69924789e-03 2.23773718e-03 2.64053000e-03 1.56641600e-03
      4.96777659e-03 2.01396341e-03 2.14822777e-03 2.05871812e-03
      4.16219141e-03 1.47690659e-03 2.05871812e-03 1.29788753e-03
      2.23773718e-03 1.25313282e-03 1.20837812e-03 8.50340119e-04
      4.92302177e-04 3.13283206e-04 5.37056942e-04 1.79018971e-04
      7.38453260e-03 4.60973848e-03 5.23630483e-03 3.66988895e-03
      7.38453260e-03 3.26709636e-03 2.19298247e-03 2.10347306e-03
      5.41532412e-03 2.68528471e-03 2.19298247e-03 1.65592553e-03
      5.32581471e-03 2.64053000e-03 2.01396341e-03 1.70068024e-03
      5.81811694e-03 2.10347306e-03 2.19298247e-03 1.79018977e-03
      5.10204071e-03 2.10347306e-03 2.01396341e-03 1.96920871e-03
      6.57894742e-03 4.07268154e-03 2.86430353e-03 2.50626565e-03
      7.65306130e-03 3.80415330e-03 3.04332259e-03 2.68528471e-03
      8.95094872e-03 6.44468330e-03 5.95238106e-03 5.41532412e-03</_>
    <_>
      1.34576866e-02 7.57386070e-03 6.63495250e-03 6.82273414e-03
      5.94641967e-03 2.56634946e-03 2.31597386e-03 1.25187787e-03
      5.13269892e-03 2.19078618e-03 2.00300454e-03 1.00150227e-03
      5.07010520e-03 1.69003510e-03 2.37856782e-03 1.18928391e-03
      3.38007021e-03 1.56484731e-03 1.00150227e-03 9.38908372e-04
      3.56785185e-03 2.00300454e-03 1.37706555e-03 1.37706555e-03
      6.76014042e-03 1.87781674e-03 1.87781674e-03 2.50375574e-03
      4.69454192e-03 1.43965951e-03 9.38908372e-04 1.25187787e-03
      1.50225335e-03 2.50375568e-04 4.38157236e-04 2.50375568e-04
      6.07160758e-03 3.94341489e-03 2.62894342e-03 3.38007021e-03
      5.13269892e-03 2.12819222e-03 2.62894342e-03 1.50225335e-03
      4.25638445e-03 2.56634946e-03 2.19078618e-03 1.25187787e-03
      6.94792205e-03 3.31747625e-03 2.50375574e-03 2.62894342e-03
      8.01201817e-03 3.94341489e-03 3.31747625e-03 2.37856782e-03
      9.95242875e-03 5.13269892e-03 4.88232356e-03 3.88082117e-03
      1.15172761e-02 5.88382594e-03 5.38307475e-03 4.50676028e-03
      1.10165244e-02 4.00600908e-03 3.12969461e-03 3.12969461e-03
      1.56484731e-02 1.13920877e-02 1.12043060e-02 9.51427128e-03</_>
    <_>
      1.21684866e-02 6.82527293e-03 6.16224669e-03 6.47425884e-03
      7.83931371e-03 3.78315127e-03 3.04212165e-03 3.27613112e-03
      6.98127924e-03 3.54914204e-03 2.30109203e-03 2.06708279e-03
      7.05928216e-03 3.04212165e-03 2.53510149e-03 1.95007795e-03
      6.86427439e-03 2.65210611e-03 2.41809664e-03 2.57410295e-03
      8.11232440e-03 3.19812796e-03 2.65210611e-03 2.61310441e-03
      6.94227777e-03 2.57410295e-03 2.14508572e-03 2.73010926e-03
      6.00624038e-03 2.45709834e-03 1.71606860e-03 2.22308887e-03
      3.82215297e-03 1.59906398e-03 1.05304213e-03 9.75038973e-04
      1.65756624e-02 7.76131032e-03 6.82527293e-03 6.63026515e-03
      1.15834633e-02 4.79719182e-03 4.52418113e-03 3.82215297e-03
      7.80031178e-03 3.27613112e-03 3.08112334e-03 2.69110757e-03
      6.31825253e-03 3.31513258e-03 2.22308887e-03 1.91107648e-03
      5.57722291e-03 2.26209057e-03 1.95007795e-03 1.95007795e-03
      5.42121707e-03 2.22308887e-03 2.57410295e-03 1.75507017e-03
      5.42121707e-03 1.91107648e-03 2.26209057e-03 1.87207491e-03
      4.79719182e-03 2.30109203e-03 1.79407175e-03 1.79407175e-03
      9.47737880e-03 6.16224669e-03 5.96723892e-03 5.85023407e-03</_>
    <_>
      1.14836544e-02 7.12489523e-03 6.70578377e-03 7.04107294e-03
      5.53227169e-03 1.92791282e-03 1.67644594e-03 1.76026823e-03
      5.44844940e-03 2.09555752e-03 1.34115678e-03 1.42497907e-03
      3.60435876e-03 2.43084668e-03 1.25733449e-03 7.54400680e-04
      3.93964816e-03 1.50880136e-03 1.67644594e-03 5.86756098e-04
      6.53813919e-03 2.68231356e-03 1.59262365e-03 1.92791282e-03
      8.46605189e-03 2.09555752e-03 2.17937981e-03 1.50880136e-03
      5.02933795e-03 1.59262365e-03 1.25733449e-03 6.70578389e-04
      3.10142501e-03 9.22045263e-04 5.02933806e-04 5.86756098e-04
      6.53813919e-03 2.51466897e-03 1.67644594e-03 1.84409053e-03
      5.19698253e-03 2.51466897e-03 1.84409053e-03 1.59262365e-03
      5.36462711e-03 2.01173523e-03 2.51466897e-03 1.76026823e-03
      6.95725065e-03 2.59849126e-03 2.59849126e-03 2.26320210e-03
      6.62196148e-03 2.09555752e-03 1.84409053e-03 1.84409053e-03
      6.11902773e-03 2.17937981e-03 1.84409053e-03 1.50880136e-03
      5.36462711e-03 1.34115678e-03 1.42497907e-03 1.67644594e-03
      3.52053647e-03 8.38222972e-04 9.22045263e-04 1.25733449e-03
      1.43336123e-02 1.03939651e-02 9.38809756e-03 9.55574214e-03</_>
    <_>
      1.51398117e-02 7.56990584e-03 8.88305251e-03 9.19202808e-03
      9.65549238e-03 4.09392873e-03 3.47597711e-03 3.32148932e-03
      1.04279313e-02 4.63463599e-03 3.16700130e-03 3.63046490e-03
      9.73273627e-03 4.55739209e-03 3.16700130e-03 3.01251351e-03
      6.41124649e-03 2.70353770e-03 2.47180602e-03 2.47180602e-03
      7.33817415e-03 2.54904991e-03 2.31731799e-03 2.78078159e-03
      8.26510135e-03 2.24007410e-03 2.78078159e-03 1.93109841e-03
      5.17534371e-03 2.16283021e-03 2.31731799e-03 1.23590301e-03
      3.55322100e-03 1.15865900e-03 1.39039080e-03 1.23590301e-03
      7.95612577e-03 2.62629380e-03 3.16700130e-03 2.70353770e-03
      6.48849085e-03 2.08558631e-03 1.62212271e-03 1.31314690e-03
      4.86636814e-03 1.62212271e-03 1.62212271e-03 1.39039080e-03
      5.48431929e-03 1.08141510e-03 1.85385451e-03 2.08558631e-03
      4.71188035e-03 1.69936661e-03 1.23590301e-03 9.26927256e-04
      5.09809982e-03 2.00834242e-03 1.08141510e-03 6.17951504e-04
      5.63880755e-03 2.00834242e-03 1.62212271e-03 1.39039080e-03
      2.85802572e-03 1.00417121e-03 9.26927256e-04 9.26927256e-04
      1.14321029e-02 1.00417119e-02 9.96446796e-03 9.57824849e-03</_>
    <_>
      1.76328924e-02 1.14398757e-02 1.19559607e-02 1.08377775e-02
      1.12678483e-02 4.38671932e-03 3.78462067e-03 5.50490292e-03
      1.24720456e-02 4.73077595e-03 3.35455011e-03 3.69860651e-03
      9.11749527e-03 3.52657842e-03 2.83846562e-03 2.49440898e-03
      7.39721302e-03 1.54825393e-03 2.58042314e-03 2.06433865e-03
      6.96714269e-03 2.06433865e-03 2.40839506e-03 2.49440898e-03
      6.70910021e-03 2.32238090e-03 1.46223977e-03 2.49440898e-03
      5.76294493e-03 2.06433865e-03 1.29021157e-03 1.63426797e-03
      2.15035258e-03 3.44056432e-04 3.44056432e-04 5.16084663e-04
      5.33287460e-03 1.89231033e-03 1.54825393e-03 1.29021157e-03
      5.93497325e-03 1.80629618e-03 7.74126966e-04 1.03216933e-03
      2.58042314e-03 1.46223977e-03 1.11818337e-03 7.74126966e-04
      3.69860651e-03 1.37622573e-03 1.11818337e-03 1.03216933e-03
      4.30070516e-03 1.29021157e-03 9.46155167e-04 8.60141066e-04
      3.18252202e-03 7.74126966e-04 3.44056432e-04 6.02098764e-04
      3.18252202e-03 1.29021157e-03 6.88112865e-04 8.60141066e-04
      2.92447954e-03 1.03216933e-03 1.03216933e-03 6.88112865e-04
      1.35042146e-02 1.19559607e-02 1.16119040e-02 1.09237917e-02</_>
    <_>
      2.16861889e-02 1.10750319e-02 1.00313118e-02 9.39348247e-03
      1.85550265e-02 7.53797963e-03 7.47999549e-03 5.16061718e-03
      1.35103790e-02 6.61022868e-03 5.16061718e-03 5.10263257e-03
      1.10170478e-02 5.33457054e-03 4.11689654e-03 4.58077248e-03
      9.97332670e-03 3.94294318e-03 3.01519199e-03 3.01519199e-03
      6.43627485e-03 4.11689654e-03 2.72526965e-03 1.85550272e-03
      6.43627485e-03 3.59503645e-03 2.26139394e-03 1.56558037e-03
      4.92867921e-03 1.79751823e-03 1.10170478e-03 9.27751360e-04
      1.56558037e-03 8.69766925e-04 3.47906753e-04 6.37829071e-04
      6.32030610e-03 2.78325402e-03 3.07317637e-03 1.73953385e-03
      5.33457054e-03 1.91348721e-03 1.68154936e-03 1.39162701e-03
      4.46480326e-03 8.69766925e-04 8.69766925e-04 1.04372029e-03
      4.81270999e-03 1.27565814e-03 7.53797998e-04 9.85735795e-04
      2.95720738e-03 7.53797998e-04 9.27751360e-04 6.37829071e-04
      2.66728527e-03 8.69766925e-04 8.11782433e-04 8.69766925e-04
      2.49333167e-03 5.79844578e-04 6.37829071e-04 5.21860144e-04
      2.26139394e-03 6.37829071e-04 5.79844578e-04 5.21860144e-04
      8.58169980e-03 7.24805752e-03 6.95813540e-03 6.78418204e-03</_>
    <_>
      1.68668758e-02 9.62646026e-03 1.01201255e-02 8.72140843e-03
      1.04492344e-02 4.77209128e-03 3.94931715e-03 3.53792985e-03
      8.63913074e-03 4.27842699e-03 2.71515548e-03 2.87971040e-03
      7.15813739e-03 3.45565239e-03 3.37337493e-03 2.55060056e-03
      6.66447263e-03 3.20882024e-03 2.71515548e-03 1.81010365e-03
      6.41764048e-03 2.63287802e-03 1.89238111e-03 1.97465857e-03
      6.41764048e-03 2.63287802e-03 1.56327139e-03 1.97465857e-03
      4.68981406e-03 1.97465857e-03 1.72782619e-03 1.56327139e-03
      2.55060056e-03 6.58219506e-04 1.64554873e-03 9.05051827e-04
      8.96824058e-03 4.36070422e-03 3.78476223e-03 2.22149095e-03
      5.10120112e-03 2.13921349e-03 1.48099393e-03 1.06960675e-03
      4.68981406e-03 1.15188421e-03 1.97465857e-03 7.40496966e-04
      5.34803374e-03 1.72782619e-03 1.97465857e-03 1.23416155e-03
      4.85436898e-03 2.13921349e-03 9.05051827e-04 1.15188421e-03
      6.08853064e-03 1.72782619e-03 2.05693603e-03 1.72782619e-03
      6.41764048e-03 2.05693603e-03 2.71515548e-03 1.56327139e-03
      5.59486588e-03 1.31643901e-03 2.22149095e-03 9.87329287e-04
      1.25061711e-02 1.11074541e-02 1.08606219e-02 9.62646026e-03</_>
    <_>
      3.30822282e-02 1.61100011e-02 1.40678892e-02 1.34779448e-02
      2.59121433e-02 1.14812125e-02 9.21219867e-03 8.30459222e-03
      2.10110731e-02 9.34833940e-03 7.62388809e-03 6.12633862e-03
      1.65184252e-02 6.89780340e-03 5.80867659e-03 5.21873310e-03
      1.17988745e-02 3.99346510e-03 3.72118363e-03 3.63042299e-03
      1.15719736e-02 4.85569052e-03 4.17498639e-03 3.63042299e-03
      1.21619171e-02 4.94645117e-03 4.67416970e-03 3.81194404e-03
      5.99019788e-03 2.72281724e-03 2.22363416e-03 1.72445085e-03
      2.63205660e-03 9.52986011e-04 9.98366275e-04 6.35323988e-04
      1.11635504e-02 5.03721181e-03 4.31112712e-03 4.62878915e-03
      6.35323999e-03 2.31439457e-03 2.26901425e-03 1.90597202e-03
      5.08259190e-03 2.49591586e-03 2.13287352e-03 1.76983117e-03
      5.40025393e-03 2.54129595e-03 1.63369032e-03 1.13450713e-03
      2.85895797e-03 1.45216915e-03 1.40678894e-03 1.04374660e-03
      2.85895797e-03 1.49754947e-03 1.08912692e-03 1.08912692e-03
      3.76656372e-03 1.17988745e-03 9.98366275e-04 9.98366275e-04
      3.67580331e-03 1.04374660e-03 1.17988745e-03 1.13450713e-03
      8.66763480e-03 6.58014137e-03 6.03557797e-03 6.17171917e-03</_>
    <_>
      1.49017647e-02 7.82550778e-03 7.32600736e-03 6.32700650e-03
      1.10722613e-02 4.41225432e-03 3.82950390e-03 3.33000324e-03
      9.57375951e-03 4.41225432e-03 3.33000324e-03 2.41425238e-03
      9.90675949e-03 3.08025302e-03 2.41425238e-03 2.83050281e-03
      7.07625691e-03 2.66400259e-03 9.99000971e-04 2.74725282e-03
      5.16150519e-03 2.16450216e-03 1.83150184e-03 2.91375280e-03
      6.07725605e-03 2.08125217e-03 2.08125217e-03 2.41425238e-03
      5.49450563e-03 1.24875130e-03 9.15750919e-04 1.66500162e-03
      2.24775216e-03 4.99500486e-04 4.16250405e-04 6.66000647e-04
      7.15950737e-03 3.24675324e-03 3.57975368e-03 3.66300368e-03
      5.66100562e-03 2.41425238e-03 1.58175163e-03 2.08125217e-03
      4.16250434e-03 2.08125217e-03 1.99800194e-03 1.74825173e-03
      4.82850475e-03 1.33200129e-03 1.83150184e-03 2.33100238e-03
      3.57975368e-03 1.74825173e-03 1.66500162e-03 1.91475195e-03
      3.33000324e-03 2.49750260e-03 1.74825173e-03 1.74825173e-03
      6.07725605e-03 3.33000324e-03 1.49850152e-03 1.41525140e-03
      3.82950390e-03 1.99800194e-03 9.15750919e-04 1.16550119e-03
      1.34032629e-02 1.12387612e-02 1.03230104e-02 9.65700950e-03</_>
    <_>
      1.73226912e-02 8.88808258e-03 9.06947255e-03 9.06947255e-03
      8.07183050e-03 4.62543080e-03 5.80446236e-03 3.35570471e-03
      8.97877757e-03 3.71848349e-03 3.08362045e-03 1.26972608e-03
      7.61835650e-03 3.35570471e-03 2.99292570e-03 1.36042084e-03
      6.62071491e-03 2.53945217e-03 2.35806266e-03 1.72319973e-03
      6.25793589e-03 1.81389449e-03 1.81389449e-03 1.26972608e-03
      4.98820981e-03 1.72319973e-03 1.90458912e-03 1.26972608e-03
      3.99056775e-03 9.97641939e-04 1.08833669e-03 7.25557795e-04
      3.35570471e-03 1.36042084e-03 9.97641939e-04 1.08833669e-03
      9.16016661e-03 3.62778897e-03 3.53709422e-03 1.63250498e-03
      5.44168334e-03 1.90458912e-03 1.17903133e-03 1.17903133e-03
      4.98820981e-03 1.81389449e-03 1.08833669e-03 9.97641939e-04
      5.71376737e-03 9.97641939e-04 1.08833669e-03 1.08833669e-03
      4.89751482e-03 1.17903133e-03 1.17903133e-03 9.97641939e-04
      5.26029384e-03 2.44875741e-03 1.08833669e-03 1.72319973e-03
      3.53709422e-03 1.90458912e-03 1.17903133e-03 1.54181023e-03
      2.99292570e-03 7.25557795e-04 7.25557795e-04 8.16252490e-04
      1.26065658e-02 1.09740617e-02 1.08833667e-02 1.07926717e-02</_>
    <_>
      3.12875025e-02 1.62437856e-02 1.20864045e-02 1.20864045e-02
      2.34013367e-02 1.00291446e-02 8.82907584e-03 8.22904147e-03
      1.83439050e-02 7.20041152e-03 5.87176392e-03 6.34321943e-03
      1.58580486e-02 7.07183266e-03 5.70032559e-03 5.87176392e-03
      1.05434600e-02 4.50025732e-03 3.85736325e-03 3.08589055e-03
      1.02434428e-02 5.01457229e-03 3.77164409e-03 4.02880181e-03
      9.30053182e-03 3.64306523e-03 4.50025732e-03 3.55734606e-03
      5.05743176e-03 2.31441786e-03 1.80010288e-03 2.05726037e-03
      1.88582204e-03 5.14315092e-04 6.42893894e-04 5.14315092e-04
      1.40150869e-02 5.44316834e-03 6.25750050e-03 6.21464103e-03
      5.44316834e-03 2.05726037e-03 1.37150695e-03 1.80010288e-03
      3.47162690e-03 1.97154121e-03 1.07148977e-03 1.41436653e-03
      4.02880181e-03 1.45722611e-03 1.28578779e-03 9.42911021e-04
      3.72878439e-03 1.58580486e-03 1.20006863e-03 1.11434935e-03
      4.97171283e-03 1.84296246e-03 1.84296246e-03 1.84296246e-03
      2.95731192e-03 1.11434935e-03 1.15720893e-03 1.41436653e-03
      3.21446941e-03 1.54294528e-03 1.20006863e-03 8.14332219e-04
      8.27190094e-03 5.74318552e-03 5.82890445e-03 5.31458948e-03</_>
    <_>
      2.18260307e-02 9.51391086e-03 1.07131433e-02 9.79373232e-03
      1.75087936e-02 8.27470422e-03 7.75503693e-03 6.43588090e-03
      1.95874646e-02 1.07531184e-02 9.59386025e-03 6.91557396e-03
      1.89078990e-02 1.02734249e-02 9.55388509e-03 7.43524125e-03
      1.52702266e-02 7.83498585e-03 6.71570189e-03 6.07611146e-03
      1.49504319e-02 7.91493431e-03 6.03613677e-03 6.07611146e-03
      1.33514553e-02 7.15542072e-03 6.67572767e-03 5.95618784e-03
      9.11416672e-03 3.71762062e-03 4.11736500e-03 3.55772302e-03
      2.71826028e-03 1.35913014e-03 1.31915580e-03 1.11928361e-03
      1.60697158e-02 8.39462783e-03 8.27470422e-03 7.83498585e-03
      7.99488369e-03 4.51710913e-03 3.55772302e-03 3.71762062e-03
      7.55516486e-03 3.19795334e-03 2.87815789e-03 2.35849060e-03
      6.19603461e-03 1.75887428e-03 2.71826028e-03 1.99872092e-03
      3.67764640e-03 1.71889993e-03 1.79884874e-03 1.55900221e-03
      5.15669957e-03 1.91877200e-03 1.55900221e-03 1.91877200e-03
      4.55708336e-03 1.03933481e-03 7.59513932e-04 1.19923253e-03
      2.63831159e-03 1.07930927e-03 3.59769736e-04 6.79565070e-04
      7.11544603e-03 5.67636732e-03 5.43652056e-03 5.47649525e-03</_>
    <_>
      1.85553040e-02 9.25507862e-03 8.08126386e-03 7.49435648e-03
      1.73814893e-02 6.95259590e-03 5.55304717e-03 4.96613979e-03
      1.63431149e-02 6.68171560e-03 4.83069988e-03 5.10158017e-03
      1.63882617e-02 6.68171560e-03 5.68848755e-03 4.78555309e-03
      1.78329572e-02 6.99774269e-03 6.23024814e-03 5.68848755e-03
      2.01354399e-02 6.95259590e-03 6.00451464e-03 5.46275405e-03
      2.18510162e-02 6.45598210e-03 7.22347619e-03 6.13995502e-03
      1.62528213e-02 7.26862298e-03 4.69525950e-03 4.42437921e-03
      8.21670424e-03 3.56659153e-03 3.06997751e-03 2.43792334e-03
      2.27539502e-02 1.17381494e-02 9.39051900e-03 9.43566579e-03
      1.67945828e-02 7.58465007e-03 5.10158017e-03 5.50790085e-03
      1.48984203e-02 6.86230231e-03 4.55981959e-03 4.28893883e-03
      1.38148982e-02 5.95936785e-03 4.28893883e-03 3.79232503e-03
      1.14672687e-02 4.06320533e-03 2.97968392e-03 2.30248296e-03
      9.52595938e-03 3.38600460e-03 1.94130931e-03 2.03160266e-03
      7.76523724e-03 2.21218960e-03 1.76072237e-03 1.58013543e-03
      4.01805853e-03 1.58013543e-03 7.67494377e-04 1.12866820e-03
      8.84875841e-03 7.08803628e-03 6.81715598e-03 5.91422105e-03</_>
    <_>
      2.79487818e-02 1.44463601e-02 1.16145452e-02 1.00960359e-02
      2.67996397e-02 1.20249530e-02 8.98793433e-03 9.56250541e-03
      2.26545185e-02 8.74168891e-03 6.68964954e-03 7.05901673e-03
      1.81810725e-02 7.26422062e-03 6.89485343e-03 5.04801795e-03
      1.26816053e-02 5.17114019e-03 4.67865076e-03 3.03701870e-03
      1.00139538e-02 3.85783473e-03 3.24222283e-03 2.91389646e-03
      7.51046557e-03 3.32430447e-03 3.16014118e-03 1.68267253e-03
      5.62258903e-03 1.31330546e-03 1.43642782e-03 1.55955018e-03
      2.62661092e-03 2.46244774e-04 3.69367161e-04 3.28326365e-04
      1.01370765e-02 5.37634408e-03 4.22720192e-03 4.10407968e-03
      4.96593630e-03 2.09308043e-03 1.72371336e-03 1.43642782e-03
      3.85783473e-03 1.39538699e-03 1.60059100e-03 1.10810145e-03
      4.30928357e-03 1.10810145e-03 1.06706063e-03 9.84979095e-04
      3.16014118e-03 1.19018299e-03 9.43938270e-04 9.43938270e-04
      4.55552805e-03 1.60059100e-03 1.19018299e-03 1.35434617e-03
      5.54050738e-03 2.29828455e-03 1.92891737e-03 1.80579501e-03
      3.24222283e-03 1.55955018e-03 9.43938270e-04 6.56652730e-04
      7.55150616e-03 6.52548624e-03 5.33530349e-03 5.04801795e-03</_>
    <_>
      1.14141889e-02 7.66799366e-03 8.13626777e-03 6.96558179e-03
      6.61437586e-03 3.74619523e-03 2.75111222e-03 2.45844061e-03
      7.72652775e-03 4.15593525e-03 2.98524927e-03 2.75111222e-03
      7.60945911e-03 4.39007254e-03 3.10231792e-03 3.10231792e-03
      6.73144450e-03 3.10231792e-03 3.39498953e-03 2.34137196e-03
      6.96558179e-03 2.16576923e-03 2.63404357e-03 2.69257789e-03
      6.90704770e-03 2.22430355e-03 2.75111222e-03 2.86818086e-03
      5.26808714e-03 1.99016626e-03 1.81456329e-03 1.81456329e-03
      4.03886661e-03 1.34628895e-03 7.60945899e-04 7.60945899e-04
      1.21751344e-02 4.79981257e-03 4.68274392e-03 3.39498953e-03
      7.19971908e-03 2.63404357e-03 2.69257789e-03 2.04870058e-03
      4.79981257e-03 1.46335748e-03 1.63896044e-03 1.22922030e-03
      4.44860710e-03 1.46335748e-03 1.05361745e-03 1.22922030e-03
      2.92671495e-03 1.28775463e-03 1.05361745e-03 7.02411635e-04
      3.39498953e-03 1.52189180e-03 1.17068598e-03 1.05361745e-03
      3.33645521e-03 1.28775463e-03 9.36548808e-04 1.11215177e-03
      3.16085224e-03 9.95083130e-04 5.26808726e-04 3.51205817e-04
      9.48255695e-03 7.96066504e-03 7.60945911e-03 7.66799366e-03</_>
    <_>
      1.53003065e-02 8.63656309e-03 6.83910586e-03 7.58439302e-03
      6.97062677e-03 2.89346767e-03 2.32354226e-03 2.93730828e-03
      7.10214814e-03 3.20035079e-03 2.98114866e-03 2.36738264e-03
      5.12932939e-03 2.89346767e-03 1.66593597e-03 2.14818073e-03
      5.21701016e-03 1.92897848e-03 1.18369132e-03 1.31521258e-03
      5.21701016e-03 2.63042515e-03 1.88513810e-03 1.84129772e-03
      5.91845671e-03 2.98114866e-03 2.89346767e-03 2.41122325e-03
      4.73476527e-03 1.70977646e-03 1.35905307e-03 8.76808423e-04
      1.62209559e-03 7.01446726e-04 5.69925469e-04 6.57606288e-04
      1.33274877e-02 5.69925457e-03 4.95396741e-03 5.69925457e-03
      6.18149946e-03 2.98114866e-03 2.54274439e-03 2.63042515e-03
      7.36519089e-03 2.89346767e-03 2.41122325e-03 2.67426576e-03
      6.26918022e-03 2.54274439e-03 2.23586150e-03 2.19202111e-03
      5.96229732e-03 2.63042515e-03 2.63042515e-03 2.06049974e-03
      8.46120156e-03 5.52389305e-03 3.20035079e-03 3.41955293e-03
      7.49671180e-03 4.73476527e-03 3.55107407e-03 2.27970188e-03
      5.48005244e-03 2.58658477e-03 1.79745723e-03 2.01665936e-03
      1.04778605e-02 7.80359469e-03 7.14598875e-03 6.70758449e-03</_>
    <_>
      2.43784059e-02 1.51945045e-02 1.24318674e-02 1.17972074e-02
      1.60531625e-02 8.21324531e-03 6.86926022e-03 5.71193919e-03
      1.25438664e-02 5.45060867e-03 4.29328764e-03 4.59195115e-03
      9.37056635e-03 3.13596660e-03 3.95729113e-03 3.17329960e-03
      6.34659920e-03 2.50130659e-03 2.53863959e-03 2.12797732e-03
      5.97326970e-03 2.20264308e-03 1.71731506e-03 1.11998804e-03
      5.33860968e-03 2.38930783e-03 2.05331133e-03 1.23198691e-03
      4.81594866e-03 1.56798330e-03 1.19465392e-03 1.15732104e-03
      1.71731506e-03 3.73329356e-04 2.98663479e-04 1.86664678e-04
      1.00052264e-02 5.45060867e-03 4.70394967e-03 3.24796536e-03
      5.86127071e-03 3.50929587e-03 2.53863959e-03 2.65063834e-03
      7.69058475e-03 3.32263112e-03 3.02396785e-03 2.83730309e-03
      5.78660471e-03 2.65063834e-03 2.57597258e-03 2.12797732e-03
      4.74128267e-03 2.53863959e-03 1.97864557e-03 1.53065030e-03
      4.47995216e-03 1.82931381e-03 1.75464794e-03 1.15732104e-03
      3.54662887e-03 1.71731506e-03 1.15732104e-03 1.19465392e-03
      3.09863361e-03 8.58657528e-04 7.46658712e-04 6.71992835e-04
      8.28791130e-03 5.86127071e-03 5.71193919e-03 5.45060867e-03</_>
    <_>
      1.41065829e-02 9.11050197e-03 9.50235128e-03 8.62068962e-03
      5.38793113e-03 2.44905963e-03 2.15517241e-03 1.17554853e-03
      4.01645759e-03 2.44905963e-03 1.66536053e-03 1.46943575e-03
      5.48589323e-03 1.27351098e-03 1.95924775e-03 1.56739808e-03
      4.50626947e-03 1.27351098e-03 1.27351098e-03 1.17554853e-03
      4.80015669e-03 8.81661428e-04 6.85736653e-04 1.46943575e-03
      4.11442015e-03 1.46943575e-03 6.85736653e-04 1.76332286e-03
      3.13479616e-03 8.81661428e-04 8.81661428e-04 6.85736653e-04
      1.95924775e-03 7.83699041e-04 6.85736653e-04 4.89811937e-04
      7.73902843e-03 1.27351098e-03 3.52664571e-03 3.33072105e-03
      5.28996857e-03 1.86128530e-03 2.93887150e-03 1.76332286e-03
      4.70219413e-03 2.64498428e-03 1.76332286e-03 7.83699041e-04
      3.72257060e-03 1.56739808e-03 1.27351098e-03 1.17554853e-03
      3.23275873e-03 1.27351098e-03 8.81661428e-04 3.91849520e-04
      4.31034481e-03 1.95924775e-03 1.56739808e-03 1.46943575e-03
      3.82053293e-03 2.15517241e-03 8.81661428e-04 1.17554853e-03
      4.01645759e-03 1.27351098e-03 4.89811937e-04 6.85736653e-04
      1.49882445e-02 1.23432605e-02 1.17554860e-02 1.16575239e-02</_>
    <_>
      1.83201563e-02 9.77641717e-03 1.08815776e-02 9.77641717e-03
      1.14766639e-02 5.27076423e-03 6.63096132e-03 4.20811027e-03
      1.03715034e-02 4.12309775e-03 4.80319653e-03 3.18796234e-03
      9.90393572e-03 4.16560424e-03 5.14324568e-03 4.63317195e-03
      9.05381236e-03 3.61302379e-03 3.61302379e-03 3.69803631e-03
      9.47887450e-03 4.08059172e-03 4.46314737e-03 3.35798692e-03
      1.17317010e-02 5.39828278e-03 5.31327026e-03 3.74054234e-03
      7.90614635e-03 3.69803631e-03 3.48550547e-03 2.93292524e-03
      3.06044379e-03 1.02014793e-03 1.44520961e-03 7.22604804e-04
      1.58547983e-02 8.71376321e-03 7.60860322e-03 6.46093674e-03
      8.79877619e-03 3.52801150e-03 3.78304860e-03 2.84791295e-03
      6.24840613e-03 3.95307317e-03 2.50786357e-03 2.67788838e-03
      6.16339361e-03 2.72039440e-03 2.84791295e-03 2.38034525e-03
      5.22825820e-03 1.82776502e-03 2.12530815e-03 1.40270335e-03
      4.93071508e-03 2.12530815e-03 1.87027117e-03 1.57272804e-03
      4.71818401e-03 2.04029586e-03 1.48771575e-03 1.19017262e-03
      3.23046837e-03 1.48771575e-03 1.14766636e-03 1.40270335e-03
      7.14103552e-03 5.95086301e-03 6.03587506e-03 5.56830736e-03</_>
    <_>
      3.15370485e-02 1.48280989e-02 1.33846560e-02 1.30347302e-02
      2.66380887e-02 1.03228064e-02 9.71043669e-03 9.53547377e-03
      1.86772812e-02 9.84165911e-03 8.35447479e-03 7.21721631e-03
      1.50468023e-02 8.09203088e-03 7.43591972e-03 6.95477193e-03
      1.38220629e-02 6.56110561e-03 5.81751391e-03 5.24888467e-03
      1.57466531e-02 6.64858706e-03 6.47362415e-03 6.29866170e-03
      1.42157292e-02 6.42988365e-03 6.95477193e-03 5.51132904e-03
      9.05432552e-03 3.71795986e-03 3.54299718e-03 2.93062720e-03
      5.42384759e-03 1.44344324e-03 1.04977691e-03 9.62295511e-04
      1.85023174e-02 1.06289918e-02 1.00166211e-02 8.04828946e-03
      9.62295476e-03 3.01810866e-03 3.93666327e-03 2.84314575e-03
      6.60484657e-03 2.18703528e-03 2.97436793e-03 1.70588749e-03
      6.34240219e-03 2.09955382e-03 2.97436793e-03 2.75566452e-03
      4.98644030e-03 1.66214677e-03 2.14329455e-03 1.57466542e-03
      4.89895884e-03 2.27451674e-03 1.83710956e-03 1.79336895e-03
      4.59277397e-03 1.61840604e-03 1.22473971e-03 1.48718397e-03
      3.54299718e-03 1.22473971e-03 1.18099898e-03 6.99851254e-04
      6.56110561e-03 5.86125441e-03 5.29262517e-03 5.29262517e-03</_>
    <_>
      3.21552046e-02 1.69804078e-02 1.54053019e-02 1.34844407e-02
      2.90818289e-02 1.35228578e-02 1.09873228e-02 1.11794081e-02
      2.39723399e-02 1.24087594e-02 9.02804453e-03 9.41221695e-03
      1.82865933e-02 9.02804453e-03 7.91394524e-03 8.10603146e-03
      1.39838643e-02 6.60776021e-03 6.41567400e-03 6.72301184e-03
      1.36381099e-02 5.64733008e-03 6.45409152e-03 5.57049550e-03
      1.18709179e-02 5.72416466e-03 5.37840975e-03 5.26315812e-03
      7.87552819e-03 4.34114505e-03 3.18862847e-03 2.91970791e-03
      3.38071445e-03 9.60430247e-04 1.15251634e-03 7.68344209e-04
      1.27929309e-02 5.76258171e-03 5.30157518e-03 5.18632354e-03
      6.76142890e-03 2.53553595e-03 2.15136376e-03 2.03611213e-03
      4.99423733e-03 2.03611213e-03 1.76719169e-03 1.99769507e-03
      5.30157518e-03 1.19093352e-03 1.57510559e-03 1.57510559e-03
      4.53323079e-03 1.53668842e-03 1.19093352e-03 1.45985396e-03
      5.18632354e-03 1.84402615e-03 2.03611213e-03 1.34460244e-03
      4.34114505e-03 1.30618515e-03 1.72877451e-03 1.38301961e-03
      5.37840975e-03 1.69035723e-03 1.42143678e-03 1.42143678e-03
      7.76027655e-03 6.10833662e-03 5.57049550e-03 5.10948896e-03</_>
    <_>
      1.51828295e-02 9.06200334e-03 9.45945922e-03 9.77742486e-03
      8.82352982e-03 2.62321136e-03 4.21303650e-03 2.62321136e-03
      7.86963478e-03 2.46422901e-03 2.62321136e-03 1.35135138e-03
      5.80286188e-03 2.94117653e-03 2.30524642e-03 2.46422901e-03
      4.29252768e-03 1.58982514e-03 1.51033385e-03 1.43084256e-03
      3.97456298e-03 1.82829890e-03 1.74880761e-03 1.58982514e-03
      5.64387906e-03 1.82829890e-03 2.46422901e-03 2.30524642e-03
      5.48489671e-03 1.82829890e-03 1.90779020e-03 1.43084256e-03
      2.14626384e-03 7.94912572e-04 6.35930046e-04 7.94912572e-04
      8.50556418e-03 5.56438789e-03 4.84896684e-03 3.02066770e-03
      5.48489671e-03 3.10015888e-03 2.38473760e-03 1.27186009e-03
      4.68998402e-03 1.90779020e-03 1.66931632e-03 1.66931632e-03
      5.00794919e-03 2.30524642e-03 1.98728149e-03 2.54372018e-03
      6.12082658e-03 1.90779020e-03 1.43084256e-03 1.43084256e-03
      5.96184423e-03 2.38473760e-03 2.06677266e-03 1.43084256e-03
      6.20031776e-03 3.81558039e-03 1.58982514e-03 2.22575525e-03
      3.89507157e-03 1.66931632e-03 9.53895098e-04 7.94912572e-04
      1.42289344e-02 1.18441973e-02 1.11287758e-02 1.02543719e-02</_>
    <_>
      2.10800562e-02 1.36586139e-02 1.12900678e-02 1.07374070e-02
      1.28690982e-02 5.52660646e-03 4.81604272e-03 3.31596402e-03
      8.84257071e-03 3.00015789e-03 3.94757604e-03 2.13169120e-03
      7.34249176e-03 2.36854563e-03 2.05273973e-03 1.65798201e-03
      7.73724914e-03 2.13169120e-03 2.60540028e-03 1.65798201e-03
      8.68466776e-03 2.84225494e-03 3.00015789e-03 2.13169120e-03
      5.76346135e-03 2.36854563e-03 2.36854563e-03 3.15806107e-03
      4.65813978e-03 1.57903053e-03 1.34217588e-03 1.42112747e-03
      2.44749733e-03 7.89515267e-04 7.10563734e-04 1.34217588e-03
      1.05005531e-02 3.94757604e-03 2.52644881e-03 4.57918830e-03
      6.86878245e-03 3.07910936e-03 2.44749733e-03 2.52644881e-03
      6.00031577e-03 3.23701254e-03 1.89483655e-03 2.28959415e-03
      6.00031577e-03 2.36854563e-03 1.89483655e-03 2.13169120e-03
      4.97394614e-03 1.65798201e-03 1.34217588e-03 1.89483655e-03
      7.42144324e-03 2.92120641e-03 1.97378802e-03 2.84225494e-03
      6.07926724e-03 2.52644881e-03 1.57903053e-03 2.52644881e-03
      3.47386696e-03 1.50007894e-03 1.02636986e-03 1.34217588e-03
      1.12900678e-02 1.01847462e-02 1.00268433e-02 9.86894034e-03</_>
    <_>
      1.55720739e-02 8.89160670e-03 7.80955981e-03 7.71546876e-03
      1.45370718e-02 7.76251405e-03 6.30410248e-03 5.12796408e-03
      1.37843434e-02 5.88069251e-03 4.28114412e-03 5.22205513e-03
      1.27963871e-02 7.57433195e-03 4.98682726e-03 6.35114778e-03
      1.19025214e-02 5.36319148e-03 3.85773438e-03 3.81068885e-03
      1.16672935e-02 4.04591626e-03 4.23409883e-03 4.14000731e-03
      9.22092609e-03 4.14000731e-03 3.01091466e-03 3.71659757e-03
      8.56228825e-03 2.68159574e-03 3.29318782e-03 2.86977785e-03
      2.82273232e-03 9.40910773e-04 7.99774192e-04 1.03500183e-03
      1.12438845e-02 4.65750834e-03 4.09296202e-03 4.89273621e-03
      7.90365040e-03 3.34023335e-03 2.39932258e-03 2.54045916e-03
      7.71546876e-03 3.24614230e-03 2.68159574e-03 2.35227705e-03
      6.25705672e-03 2.63455021e-03 2.30523152e-03 2.07000365e-03
      6.25705672e-03 1.69363944e-03 1.88182155e-03 1.69363944e-03
      6.35114778e-03 1.78773049e-03 1.83477602e-03 1.64659391e-03
      6.06887462e-03 2.44636810e-03 2.35227705e-03 1.55250286e-03
      6.77455775e-03 2.58750468e-03 2.16409494e-03 1.50545733e-03
      8.70342460e-03 6.49228459e-03 6.39819354e-03 6.21001143e-03</_>
    <_>
      2.42543854e-02 1.32456142e-02 1.20614031e-02 1.08333332e-02
      2.36403514e-02 9.73684248e-03 9.07894783e-03 8.15789495e-03
      1.89473685e-02 8.20175465e-03 7.80701777e-03 7.14912266e-03
      1.49122803e-02 6.75438577e-03 6.71052653e-03 5.21929841e-03
      1.00877192e-02 3.94736836e-03 3.72807006e-03 3.90350888e-03
      9.42982454e-03 3.20175430e-03 3.42105259e-03 2.93859653e-03
      8.85964930e-03 3.68421059e-03 3.20175430e-03 2.93859653e-03
      7.23684207e-03 1.88596488e-03 1.71052630e-03 1.79824559e-03
      2.10526306e-03 5.26315765e-04 4.38596500e-04 3.50877206e-04
      1.11842109e-02 3.90350888e-03 3.94736836e-03 4.38596494e-03
      6.05263142e-03 1.57894741e-03 2.10526306e-03 2.10526306e-03
      5.26315812e-03 1.35964912e-03 2.14912277e-03 2.01754388e-03
      4.60526301e-03 1.79824559e-03 1.49122812e-03 1.18421053e-03
      3.99122806e-03 1.88596488e-03 1.40350882e-03 1.09649124e-03
      5.30701736e-03 1.57894741e-03 1.92982459e-03 1.79824559e-03
      4.29824553e-03 1.66666671e-03 1.18421053e-03 1.18421053e-03
      3.24561400e-03 1.00877194e-03 1.00877194e-03 8.33333354e-04
      8.11403524e-03 6.05263142e-03 5.61403530e-03 5.39473677e-03</_>
    <_>
      1.07935090e-02 5.21065947e-03 7.89042749e-03 6.62498130e-03
      5.21065947e-03 2.60532973e-03 1.93538785e-03 2.23313970e-03
      4.01965156e-03 1.04213192e-03 1.33988389e-03 1.48875988e-03
      3.20083369e-03 1.48875988e-03 1.11656985e-03 6.69941946e-04
      2.30757776e-03 1.56319782e-03 1.04213192e-03 6.69941946e-04
      4.76403162e-03 1.33988389e-03 1.63763587e-03 5.95503952e-04
      3.20083369e-03 1.48875988e-03 1.86094979e-03 5.21065958e-04
      2.15870189e-03 1.26544584e-03 1.33988389e-03 8.18817934e-04
      1.86094979e-03 6.69941946e-04 9.67693923e-04 2.97751976e-04
      6.77385740e-03 2.53089168e-03 3.72189959e-03 2.30757776e-03
      6.25279127e-03 2.75420584e-03 1.78651186e-03 1.26544584e-03
      5.43397339e-03 2.38201581e-03 1.63763587e-03 1.04213192e-03
      4.39184159e-03 1.71207380e-03 1.41432183e-03 1.26544584e-03
      5.13622165e-03 1.33988389e-03 1.26544584e-03 1.26544584e-03
      5.50841168e-03 2.15870189e-03 1.41432183e-03 1.26544584e-03
      7.07160914e-03 2.30757776e-03 1.71207380e-03 1.33988389e-03
      3.72189959e-03 1.33988389e-03 1.56319782e-03 1.33988389e-03
      1.13890134e-02 9.23031103e-03 8.93255882e-03 9.08143539e-03</_>
    <_>
      2.46604718e-02 1.02113755e-02 9.13918111e-03 9.59869288e-03
      2.19544563e-02 8.47544149e-03 7.25007663e-03 7.40324706e-03
      1.89931579e-02 7.35219056e-03 7.14796269e-03 5.92259783e-03
      1.50617789e-02 6.17788220e-03 5.71837043e-03 5.10568777e-03
      1.06198303e-02 2.91024195e-03 3.11446958e-03 1.73593382e-03
      8.01592972e-03 1.68487697e-03 2.39967322e-03 1.94016134e-03
      8.47544149e-03 2.34861625e-03 3.06341262e-03 2.34861625e-03
      5.30991517e-03 1.68487697e-03 1.53170631e-03 1.58276316e-03
      2.50178692e-03 6.63739396e-04 4.08455031e-04 2.55284394e-04
      8.16910062e-03 3.57398135e-03 3.47186765e-03 2.24650255e-03
      4.69723251e-03 1.02113758e-03 1.17430813e-03 9.70080670e-04
      3.88032268e-03 1.17430813e-03 7.65853154e-04 8.16910062e-04
      2.55284389e-03 1.58276316e-03 7.14796304e-04 4.08455031e-04
      2.65495759e-03 1.37853564e-03 4.08455031e-04 5.61625639e-04
      2.75707128e-03 1.02113758e-03 4.59511910e-04 7.65853154e-04
      2.80812825e-03 7.14796304e-04 5.10568789e-04 3.57398152e-04
      2.55284389e-03 7.14796304e-04 7.14796304e-04 2.04227515e-04
      7.86275882e-03 6.53528050e-03 6.48422353e-03 6.17788220e-03</_>
    <_>
      1.20585309e-02 7.36157550e-03 6.95510814e-03 5.91635797e-03
      1.25553245e-02 4.38081473e-03 3.74853215e-03 3.07108671e-03
      1.23746721e-02 4.56146710e-03 3.25173885e-03 3.52271693e-03
      1.18327159e-02 4.15499974e-03 3.97434738e-03 4.06467356e-03
      1.03423363e-02 3.47755407e-03 2.48396723e-03 2.75494531e-03
      1.12907598e-02 4.10983665e-03 2.48396723e-03 3.52271693e-03
      1.01165203e-02 4.87760827e-03 3.07108671e-03 2.61945627e-03
      1.04778251e-02 3.70336906e-03 2.89043458e-03 2.84527149e-03
      9.16809682e-03 3.61304311e-03 2.30331486e-03 1.80652156e-03
      2.38460843e-02 1.19682057e-02 8.17450974e-03 8.53581447e-03
      1.71167925e-02 6.32282533e-03 5.01309708e-03 4.47114091e-03
      1.39553789e-02 5.10342326e-03 4.42597782e-03 3.74853215e-03
      1.34134227e-02 5.69054298e-03 4.29048855e-03 4.51630400e-03
      1.35037489e-02 4.56146710e-03 3.43239098e-03 3.88402143e-03
      1.34134227e-02 4.47114091e-03 4.24532546e-03 3.25173885e-03
      9.66489036e-03 4.20016237e-03 3.11624957e-03 1.89684762e-03
      7.85836857e-03 2.57429318e-03 2.21298891e-03 1.40005420e-03
      1.02068465e-02 6.90994505e-03 6.72929268e-03 5.96152106e-03</_>
    <_>
      1.53930727e-02 7.97141250e-03 8.04013200e-03 6.80318847e-03
      9.27707553e-03 4.60417802e-03 3.57339205e-03 2.81748222e-03
      1.01017039e-02 4.32930188e-03 2.74876296e-03 3.02363932e-03
      9.48323216e-03 3.09235835e-03 3.50467279e-03 2.26772949e-03
      7.97141250e-03 3.77954915e-03 2.19901046e-03 1.78669603e-03
      8.10885057e-03 2.68004392e-03 3.22979665e-03 2.95492029e-03
      6.94062654e-03 2.54260586e-03 3.02363932e-03 1.71797688e-03
      4.46673995e-03 1.78669603e-03 1.64925784e-03 1.64925784e-03
      2.88620126e-03 1.03078620e-03 7.55909830e-04 7.55909830e-04
      8.79604183e-03 3.29851569e-03 2.88620126e-03 2.88620126e-03
      5.56624541e-03 2.13029142e-03 1.71797688e-03 2.13029142e-03
      4.46673995e-03 2.26772949e-03 1.03078620e-03 8.24628922e-04
      3.16107762e-03 1.44310063e-03 8.93348013e-04 7.55909830e-04
      4.87905461e-03 1.64925784e-03 1.09950523e-03 8.93348013e-04
      4.05442528e-03 1.03078620e-03 1.23694341e-03 1.16822426e-03
      4.19186382e-03 1.03078620e-03 1.03078620e-03 6.18471706e-04
      3.02363932e-03 6.87190739e-04 7.55909830e-04 4.81033523e-04
      1.12012094e-02 9.34579410e-03 9.00219940e-03 8.93347990e-03</_>
    <_>
      1.22514209e-02 7.16145849e-03 7.81250000e-03 6.45123096e-03
      4.91240527e-03 2.66335229e-03 2.13068188e-03 1.83475378e-03
      4.02462110e-03 2.42660986e-03 2.54498096e-03 1.65719702e-03
      6.74715918e-03 2.66335229e-03 3.13683716e-03 2.30823853e-03
      6.21448876e-03 2.84090918e-03 1.47964014e-03 1.47964014e-03
      4.43892041e-03 2.48579541e-03 1.89393945e-03 1.77556823e-03
      4.32054931e-03 2.30823853e-03 1.53882580e-03 1.12452649e-03
      3.66950757e-03 1.06534094e-03 8.87784117e-04 8.28598510e-04
      1.71638257e-03 2.36742431e-04 8.28598510e-04 2.95928039e-04
      6.80634473e-03 3.37357959e-03 2.78172339e-03 2.13068188e-03
      5.08996192e-03 1.36126892e-03 1.12452649e-03 9.46969725e-04
      4.37973486e-03 1.18371216e-03 1.53882580e-03 8.28598510e-04
      4.26136376e-03 1.06534094e-03 1.12452649e-03 8.87784117e-04
      4.32054931e-03 1.30208337e-03 7.69412902e-04 1.12452649e-03
      2.66335229e-03 1.00615527e-03 7.10227294e-04 1.06534094e-03
      3.31439404e-03 2.18986743e-03 1.24289771e-03 1.06534094e-03
      3.55113647e-03 1.18371216e-03 1.00615527e-03 9.46969725e-04
      9.41051170e-03 7.04308692e-03 7.45738624e-03 6.80634473e-03</_>
    <_>
      2.13917531e-02 1.08891753e-02 1.05670104e-02 9.34278313e-03
      1.42396903e-02 6.37886580e-03 5.67010324e-03 4.89690714e-03
      1.05670104e-02 4.25257720e-03 4.51030908e-03 3.67268035e-03
      1.15335053e-02 5.09020640e-03 5.60567016e-03 4.57474217e-03
      9.21391789e-03 4.25257720e-03 4.89690714e-03 4.38144337e-03
      8.18298943e-03 3.99484532e-03 4.31701029e-03 3.86597938e-03
      7.86082447e-03 2.51288665e-03 3.15721659e-03 2.57731951e-03
      6.18556701e-03 2.83505162e-03 2.51288665e-03 1.80412375e-03
      3.99484532e-03 9.66494845e-04 1.15979381e-03 1.03092787e-03
      1.11469068e-02 7.28092762e-03 7.08762882e-03 6.70103077e-03
      9.72938165e-03 4.63917525e-03 3.15721659e-03 3.60824750e-03
      9.66494810e-03 3.73711344e-03 2.44845357e-03 3.60824750e-03
      6.44329889e-03 3.02835042e-03 2.12628860e-03 2.83505162e-03
      3.67268035e-03 1.99742266e-03 1.22422678e-03 1.86855672e-03
      4.18814411e-03 2.44845357e-03 3.28608253e-03 2.19072169e-03
